{"model.0.weight": [[0.11326517164707184, 0.14383362233638763, 0.15048761665821075, 0.15195028483867645, 0.02135009691119194, 0.1081041544675827, 0.05327900871634483, 0.05911019816994667, -0.020698409527540207, 0.040062066167593, 0.13532285392284393, -0.02387828752398491, -0.055824119597673416, 0.11305612325668335, -0.021798383444547653, 0.08158166706562042, 0.02205001935362816, 0.08038434386253357, 0.12255100905895233, 0.11871446669101715], [-0.04967900738120079, 0.06893952190876007, 0.020177792757749557, 0.13937242329120636, 0.05310290679335594, 0.023713257163763046, -0.010291822254657745, -0.03786745294928551, 0.11117404699325562, 0.02168751135468483, -0.056824784725904465, 0.13130775094032288, 0.025926250964403152, 0.031224120408296585, 0.10766680538654327, -0.032679032534360886, 0.12758491933345795, -0.004174280911684036, 0.11737176775932312, 0.03793757036328316], [0.13997384905815125, -0.026327993720769882, -0.024456944316625595, 0.03723845258355141, -0.024046655744314194, 0.07922416925430298, -0.05560055747628212, 0.038953471928834915, -0.05530380830168724, 0.16063690185546875, -0.019227992743253708, 0.045570652931928635, 0.008771698921918869, 0.07008655369281769, 0.13190007209777832, 0.11623673141002655, 0.15557517111301422, 0.13494782149791718, 0.07289187610149384, -0.022601988166570663], [0.019017431885004044, 0.09695236384868622, -0.029743310064077377, -0.05915021523833275, 0.07383875548839569, 0.024739105254411697, 0.0751897394657135, 0.10969443619251251, -0.05498829856514931, -0.010379813611507416, 0.04218807443976402, 0.14876553416252136, 0.1616133600473404, 0.11970733106136322, 0.04442617669701576, 0.1278534233570099, 0.12066668272018433, 0.03484576568007469, 0.010508406907320023, 0.1395275890827179], [-0.008334778249263763, 0.09895120561122894, 0.06582358479499817, 0.10382150113582611, -0.03335477039217949, -0.053182508796453476, -0.023987915366888046, 0.008517872542142868, 0.050260309129953384, 0.13624818623065948, 0.13507245481014252, 0.0010042600333690643, 0.03167177364230156, 0.05876653268933296, 0.15968458354473114, -0.04157770797610283, -0.0431402213871479, 0.04109444096684456, -0.05947024002671242, -0.042717333883047104], [0.15874941647052765, 0.10152202844619751, -0.028893116861581802, -0.04561825469136238, 0.06606154143810272, 0.11131511628627777, 0.15305879712104797, 0.07042594254016876, 0.15289020538330078, 0.15562371909618378, 0.06507563591003418, 0.05120062455534935, 0.14404727518558502, 0.10544711351394653, 0.12750226259231567, 0.0714849978685379, 0.013559948652982712, -0.017869938164949417, 0.1346597671508789, 0.013284217566251755], [0.02907828614115715, 0.14095813035964966, 0.013330716639757156, 0.15967346727848053, 0.13016359508037567, 0.1540580838918686, 0.09907451272010803, 0.11615650355815887, 0.1284540444612503, 0.1517225205898285, -0.050513219088315964, -0.05552100017666817, 0.08385582268238068, 0.10483206808567047, 0.09628863632678986, 0.02018076553940773, 0.09521973133087158, 0.013438697904348373, 0.04873434826731682, -0.04390792176127434], [0.023661334067583084, 0.06785029172897339, -0.04683470353484154, 0.08324061334133148, 0.003590773791074753, -0.05424311384558678, -0.04026751592755318, 0.1097547858953476, 0.04607981815934181, -0.04183502122759819, -0.03351176157593727, 0.11546148359775543, 0.13532713055610657, 0.05326038971543312, 0.15049445629119873, 0.10303249955177307, -0.008380800485610962, 0.12730559706687927, 0.12905272841453552, 0.039151404052972794], [0.13877630233764648, 0.1606772392988205, 0.01682266965508461, 0.03460584953427315, 0.0517507903277874, -0.022120852023363113, -0.04120491072535515, 0.10167856514453888, 0.15851247310638428, -0.009197339415550232, 0.07712335884571075, 0.15656079351902008, -0.014182601124048233, 0.07770296931266785, 0.1547090858221054, 0.06469090282917023, 0.037590231746435165, 0.08212259411811829, -0.008335139602422714, 0.02401283010840416], [0.15662992000579834, 0.059870894998311996, -0.04261818900704384, -0.004153382033109665, 0.08404302597045898, -0.04389519616961479, 0.08073839545249939, 0.018111269921064377, 0.08395615220069885, -0.019694875925779343, 0.035163212567567825, 0.10105030238628387, 0.03504852578043938, 0.1506047248840332, -0.03992702439427376, -0.04713483527302742, 0.11642959713935852, 0.02219521626830101, 0.14503289759159088, 0.03115084394812584], [0.14117564260959625, 0.15239989757537842, 0.12994743883609772, 0.06726700067520142, 0.0922480970621109, -0.010387212038040161, 0.12119096517562866, -0.03376878425478935, 0.02575230970978737, -0.060372259467840195, 0.0695887953042984, 0.05165252462029457, 0.062134187668561935, 0.08789636194705963, 0.030521806329488754, 0.11048460006713867, 0.0014543719589710236, 0.04349522665143013, 0.08009772002696991, 0.15575917065143585], [-0.05672262981534004, 0.14928793907165527, 0.06890541315078735, 0.06744429469108582, 0.10486294329166412, 0.006551388651132584, 0.007623855024576187, 0.051211316138505936, -0.0064736008644104, 0.09435510635375977, 0.10375604033470154, 0.10606379806995392, -0.024166475981473923, -0.004777081310749054, -0.02749175950884819, 0.12074972689151764, 0.022985126823186874, 0.11043763160705566, 0.14649024605751038, 0.042627159506082535], [0.08649013936519623, 0.11739085614681244, 0.003465544432401657, 0.008229289203882217, 0.02111015096306801, 0.09949558973312378, -0.035242389887571335, -0.05997810140252113, 0.05699291452765465, 0.0330798365175724, 0.061160486191511154, 0.04308376833796501, 0.07854574918746948, 0.1404874175786972, 0.1459750235080719, -0.05438881739974022, -0.03919883444905281, -0.04597187414765358, 0.04227161034941673, 0.11005204916000366], [0.02688198909163475, 0.10297799110412598, 0.12355262041091919, 0.13731594383716583, 0.021478164941072464, -0.019722584635019302, 0.09195670485496521, 0.10267993807792664, 0.15506862103939056, 0.033797163516283035, -0.02300938591361046, 0.03815176710486412, 0.05712881311774254, 0.1009710282087326, 0.06043596193194389, -0.036435116082429886, -0.021088596433401108, 0.013050232082605362, -0.05199715867638588, 0.04634338244795799], [-0.023841779679059982, -0.0572211779654026, 0.11156387627124786, 0.10655707120895386, 0.05280342325568199, -0.029877137392759323, -0.028823595494031906, 0.127283975481987, 0.0857461541891098, -0.057835500687360764, -0.0567886121571064, 0.12608222663402557, 0.15025538206100464, 0.002433646470308304, 0.14388340711593628, 0.07922808825969696, 0.05547627434134483, -0.03357640281319618, -0.015515562146902084, 0.04539904370903969], [0.07471628487110138, -0.02686746045947075, -0.005109600722789764, 0.11443580687046051, 0.0017871372401714325, 0.08463206887245178, -0.0486065112054348, 0.04145800694823265, 0.04434904828667641, -0.05623495951294899, 0.01654737815260887, 0.10694834589958191, 0.03437799587845802, -0.05454699322581291, -0.01226244866847992, -0.018992971628904343, 0.1187090277671814, 0.03805002197623253, 0.03885307535529137, 0.11666750907897949], [0.1614084392786026, 0.12594760954380035, 0.1443382352590561, 0.1387912929058075, 0.08695949614048004, 0.030299920588731766, 0.10479658842086792, -0.019534844905138016, 0.04671474173665047, -0.010538697242736816, 0.033671315759420395, 0.1529337614774704, 0.1367112398147583, 0.14593876898288727, -0.04009122774004936, -0.04027596488595009, 0.07380543649196625, 0.06693883240222931, -0.007472217082977295, 0.04895162209868431], [0.06797252595424652, -0.0038974471390247345, 0.13555489480495453, -0.02572411671280861, -0.03927653655409813, -0.0028979256749153137, 0.11271673440933228, 0.008316431194543839, 0.013818126171827316, 0.09381194412708282, 0.061922285705804825, -0.015700530260801315, 0.15119300782680511, 0.0370919369161129, 0.06624899804592133, 0.08193935453891754, 0.1283491849899292, -0.018756162375211716, 0.09397806227207184, -0.035538192838430405], [0.11549687385559082, 0.040234584361314774, 0.03747139498591423, 0.06819428503513336, -0.001391928642988205, 0.08975423872470856, -0.0535728745162487, 0.08938512206077576, 0.1474798619747162, 0.14336061477661133, -0.04789181426167488, 0.11199179291725159, 0.02725396677851677, 0.13942304253578186, 0.011537794023752213, 0.16062913835048676, 0.010594915598630905, 0.13905960321426392, 0.013419415801763535, 0.11476580798625946], [0.13379622995853424, 0.0722271054983139, 0.1527533233165741, 0.1579049974679947, 0.06874538958072662, 0.07576043903827667, 0.1505262404680252, 0.04777984693646431, 0.05908554419875145, -0.0036132410168647766, 0.062142159789800644, 0.015103686600923538, 0.03350014612078667, 0.11406151950359344, 0.031838398426771164, 0.11204539239406586, 0.15094108879566193, -0.035405341535806656, 0.06029601767659187, 0.04371165111660957], [-0.04880795255303383, 0.11362932622432709, -0.0017440542578697205, 0.021202225238084793, -0.04630522057414055, 0.13733242452144623, 0.05722977593541145, 0.1577945202589035, 0.06358866393566132, -0.027794744819402695, 0.10714054107666016, 0.07725775241851807, 0.1195029616355896, 0.09781061112880707, -0.03302205726504326, 0.010195169597864151, 0.15697339177131653, 0.05596044287085533, -0.026410948485136032, 0.1470385491847992], [0.14476606249809265, 0.05847969278693199, 0.15233567357063293, -0.04858788475394249, 0.04415440186858177, -0.014365624636411667, 0.0816151350736618, -0.05788709595799446, 0.07643553614616394, 0.13176721334457397, 0.12961027026176453, 0.14465537667274475, 0.12198366224765778, 0.12159156799316406, 0.111397385597229, 0.032980356365442276, 0.10975077748298645, -0.03464244678616524, 0.12991569936275482, 0.011076632887125015], [0.08506083488464355, 0.05254051461815834, 0.12413425743579865, -0.041895586997270584, 0.11334063112735748, 0.10037322342395782, -0.058815617114305496, 0.14203700423240662, -0.05861486867070198, 0.07494539022445679, 0.000550147145986557, 0.1275922954082489, 0.10440178215503693, 0.15291538834571838, -0.018558543175458908, 0.1461472064256668, 0.07951179146766663, 0.007056023925542831, 0.1584615558385849, 0.1553286910057068], [-0.03798648342490196, 0.09387920796871185, -0.027469072490930557, 0.14944130182266235, 0.133539080619812, -0.029557425528764725, -0.005507562309503555, 0.15375876426696777, -0.0019668713212013245, 0.060440707951784134, 0.018124710768461227, 0.15574607253074646, 0.022304046899080276, -0.0011046156287193298, 0.1497637927532196, 0.15397116541862488, 0.12042570114135742, 0.03391138091683388, 0.028819788247346878, 0.04752276465296745], [0.0862540602684021, 0.052912596613168716, 0.11121067404747009, 0.04631520435214043, 0.14904719591140747, 0.04850580170750618, 0.1384580433368683, 0.12504002451896667, 0.05026564374566078, 0.13094750046730042, 0.09952357411384583, -0.04218034818768501, 0.01907503232359886, -0.02423066273331642, 0.0739373117685318, 0.12268714606761932, 0.00418153777718544, -0.0034544244408607483, 0.014417160302400589, -0.007076095789670944], [0.045239876955747604, -0.013172831386327744, -0.051765356212854385, -0.011903606355190277, -0.0005594752728939056, 0.057704027742147446, -0.060213204473257065, 0.15964584052562714, 0.07260042428970337, 0.1001739501953125, 0.10884866118431091, -0.03793274238705635, -0.002659715712070465, 0.12844084203243256, -0.020978908985853195, 0.047420207411050797, -0.058801744133234024, 0.007595527917146683, 0.058856140822172165, 0.0858408659696579], [0.15898293256759644, -0.04079460725188255, 0.09795068204402924, 0.010866213589906693, 0.1589268296957016, -0.016574498265981674, 0.051155831664800644, -0.00041021406650543213, -0.03760332986712456, 0.11432705819606781, 0.14695517718791962, 0.11995136737823486, 0.04386642947793007, 0.06937779486179352, 0.08602997660636902, 0.07372266054153442, -0.0035577677190303802, 0.09223218262195587, 0.052323710173368454, 0.0031856559216976166], [0.1447908580303192, -0.05605796352028847, -0.035195913165807724, 0.04293730482459068, -0.058715056627988815, -0.010424397885799408, 0.15103580057621002, 0.14090844988822937, 0.12162072956562042, 0.029560308903455734, -0.050914522260427475, 0.06459382176399231, 0.007134620100259781, 0.02833743765950203, -0.02513168379664421, -0.012941177934408188, -0.03222681209445, 0.0970158725976944, 0.08879125118255615, -0.02323165163397789], [0.12383176386356354, 0.02514517679810524, 0.10892584919929504, -0.03797508403658867, 0.02885563299059868, 0.018205542117357254, -0.03550604358315468, 0.11628848314285278, 0.07802902162075043, 0.0622224323451519, -0.019800301641225815, 0.0101359523832798, 0.08137452602386475, 0.04941381886601448, -0.04266047850251198, 0.08840543031692505, 0.11505305767059326, -0.0045674704015254974, 0.141592875123024, 0.13168767094612122], [-0.0008383095264434814, 0.018153641372919083, 0.11051701009273529, -0.023936111479997635, 0.15510432422161102, 0.057378385215997696, 0.06965705752372742, -0.03438621386885643, 0.11013254523277283, -0.050497960299253464, 0.05493585392832756, 0.14591753482818604, -0.02865936979651451, -0.051758598536252975, 0.06272724270820618, 0.07630030810832977, -0.05252338573336601, -0.03633278235793114, 0.062423016875982285, 0.016454551368951797], [0.0983593612909317, -0.060574036091566086, 0.10254557430744171, 0.034190189093351364, 0.07869558036327362, 0.00054965540766716, 0.10339076817035675, 0.14790771901607513, 0.13877274096012115, 0.004662420600652695, -0.03877400979399681, 0.030447419732809067, 0.1283392757177353, 0.15891359746456146, 0.0021207891404628754, 0.11357812583446503, 0.06877082586288452, 0.13107559084892273, 0.015206422656774521, 0.012650083750486374], [0.041900452226400375, 0.08572867512702942, 6.227567791938782e-05, -0.060183603316545486, 0.09367138147354126, 0.045435916632413864, 0.10267235338687897, 0.05978527292609215, 0.1497625857591629, -0.026386167854070663, -0.04937046393752098, -0.044435981661081314, 0.11438482999801636, 0.015320386737585068, -0.015383657068014145, -0.019138630479574203, -0.037781257182359695, -0.04799702391028404, 0.03280035778880119, 0.11669740080833435], [0.10737964510917664, 0.103510782122612, -0.007614601403474808, 0.08332517743110657, 0.005754757672548294, 0.13679742813110352, 0.07224397361278534, 0.0220024473965168, 0.020926322788000107, 0.09649054706096649, 0.08666937053203583, 0.0902286022901535, -0.029657665640115738, -0.04904970899224281, -0.03207577392458916, 0.15312373638153076, 0.007823746651411057, 0.07687793672084808, -0.005294807255268097, 0.14960287511348724], [0.04059360548853874, 0.07228061556816101, 0.14221934974193573, -0.039062317460775375, 0.07935047149658203, 0.0687919557094574, 0.11292564868927002, 0.10913737118244171, 0.11422988772392273, 0.07819804549217224, 0.04993126913905144, 0.0492490716278553, 0.005066957324743271, -0.019988317042589188, 0.15028855204582214, -0.03450360521674156, -0.05867255851626396, -0.05747499689459801, -0.041163746267557144, 0.09764769673347473], [0.04569520428776741, 0.02205466851592064, -0.03596151992678642, -0.050770703703165054, -0.010906271636486053, 0.0160728357732296, 0.1424160599708557, 0.030161190778017044, -0.0039951391518116, 0.01476949080824852, 0.06772170960903168, 0.0443449430167675, -0.04915245994925499, 0.07282225787639618, 0.10297760367393494, -0.022417385131120682, 0.0826377421617508, 0.09064683318138123, 0.08312077820301056, 0.08934693038463593], [0.006674323230981827, -0.033767540007829666, 0.011025641113519669, 0.03465449437499046, 0.015931610018014908, 0.06820830702781677, 0.05579124763607979, 0.061384353786706924, 0.11480963230133057, 0.008600156754255295, 0.041129160672426224, 0.11407138407230377, -0.01024450734257698, 0.15644000470638275, 0.06368368864059448, 0.11843444406986237, 0.022058214992284775, 0.139868825674057, -0.04613072797656059, -0.04337640479207039], [0.08623799681663513, -0.022990699857473373, 0.06967225670814514, 0.018666233867406845, -0.02116815373301506, -0.04989057406783104, 0.1606072634458542, 0.015789669007062912, 0.03710663691163063, 0.03749183192849159, 0.0983840823173523, -0.024615813046693802, 0.044982511550188065, 0.040543366223573685, 0.008543353527784348, -0.002995528280735016, -0.02410200610756874, -0.007369350641965866, 0.007968608289957047, -0.05072174593806267], [0.0704704076051712, -0.05990250036120415, -0.02172909304499626, 0.014782894402742386, 0.1583668738603592, -0.03752133622765541, 0.08042550086975098, 0.07119202613830566, 0.023396816104650497, -0.01375238224864006, -0.013431962579488754, 0.10244114696979523, 0.04555505886673927, -0.026650872081518173, -0.003926727920770645, -0.006682373583316803, 0.06604929268360138, -0.02214967831969261, 0.1472841501235962, -0.0508144311606884], [0.010706324130296707, 0.07098537683486938, 0.09378232061862946, 0.09726057946681976, 0.07221752405166626, 0.07456371188163757, 0.1571216881275177, -0.05406462773680687, 0.15764664113521576, 0.04432709887623787, 0.08148744702339172, 0.15514004230499268, 0.016012046486139297, 0.1232578307390213, -0.05151930823922157, 0.1299915760755539, 0.13853654265403748, 0.0853772908449173, 0.07731035351753235, -0.02419186756014824], [-0.012233670800924301, 0.11379745602607727, 0.11287906765937805, 0.14793790876865387, -0.04953799769282341, 0.1180923581123352, 0.03896724060177803, 0.14993928372859955, 0.10053443908691406, 0.027667012065649033, 0.03790151700377464, -0.027442406862974167, -0.05557641014456749, 0.1297166496515274, 0.1214737743139267, 0.09810945391654968, 0.13432025909423828, 0.10183526575565338, 0.007619578391313553, 0.045928988605737686], [-0.0005935542285442352, -0.02875930443406105, 0.01704481616616249, 0.0556359626352787, 0.12920916080474854, 0.07523435354232788, 0.03536340221762657, 0.07917065918445587, 0.041350577026605606, 0.11660097539424896, 0.11890985071659088, 0.16107968986034393, 0.032006699591875076, 0.046918194741010666, 0.10325935482978821, 0.009080138057470322, 0.1612890213727951, 0.14998064935207367, -0.03564179316163063, 0.08579875528812408], [0.01873958483338356, -0.005485691130161285, 0.10774736106395721, 0.10241647064685822, 0.016257520765066147, 0.08412106335163116, 0.009463448077440262, 0.0657966285943985, 0.15988224744796753, -0.03175884112715721, 0.0023415647447109222, 0.07023555040359497, 0.06551124155521393, 0.07214781641960144, -0.05968138203024864, 0.16013647615909576, 0.1401982456445694, -0.052974339574575424, 0.10945245623588562, 0.11414666473865509], [0.15977157652378082, -0.007538776844739914, 0.05736760422587395, 0.1323632299900055, -0.006029646843671799, -0.04419803246855736, 0.10880716145038605, 0.06925077736377716, -0.02022489532828331, -0.002555742859840393, 0.03392915800213814, -0.01901465281844139, -0.04106174036860466, 0.004285108298063278, -0.057237450033426285, 0.004742521792650223, 0.06698480248451233, 0.15486037731170654, 0.11018896102905273, 0.058099109679460526], [0.12952746450901031, 0.035548243671655655, -0.0235428623855114, 0.02226870134472847, 0.06969785690307617, -0.04341709241271019, 0.04532197490334511, 0.11657965183258057, 0.0424049012362957, 0.14957869052886963, 0.07216231524944305, -0.017919223755598068, -0.05250797048211098, 0.11718322336673737, 0.04542858526110649, 0.021236170083284378, 0.06197861209511757, 0.14061367511749268, 0.008531901985406876, 0.0027981437742710114], [0.025458279997110367, 0.013810861855745316, -0.00598771870136261, 0.04918800666928291, 0.1359914243221283, 0.0963897556066513, 0.004949640482664108, 0.15373970568180084, 0.047735948115587234, 0.08186239004135132, 0.12023043632507324, 0.13320104777812958, 0.15164482593536377, 0.0238572396337986, -0.05345921590924263, -0.016110602766275406, 0.07038730382919312, -0.028989586979150772, -0.005469176918268204, 0.13166457414627075], [0.049939800053834915, 0.11408805847167969, 0.04577968642115593, 0.0006029680371284485, 0.06513680517673492, 0.04256180301308632, 0.11778156459331512, 0.08633795380592346, 0.0657380074262619, 0.1485731452703476, 0.09530068933963776, 0.02248205617070198, -0.042879339307546616, 0.10016506910324097, -0.04068383201956749, 0.0565764494240284, -0.011774536222219467, 0.1448652595281601, 0.011926282197237015, 0.018852856010198593], [0.10679914057254791, 0.10209417343139648, -0.023552771657705307, -0.0014026165008544922, 0.03497033193707466, 0.14133824408054352, 0.034547898918390274, 0.09989386796951294, 0.12465979158878326, 0.12599492073059082, 0.06459319591522217, 0.07204368710517883, -0.027180638164281845, 0.0547882579267025, -0.05790764465928078, 0.08381731808185577, 0.05431867018342018, 0.06321974098682404, -0.040319304913282394, 0.12953166663646698], [0.006195034831762314, 0.13519808650016785, -0.03159254416823387, -0.06146058812737465, -0.03725491091609001, 0.08193168044090271, -0.04109423980116844, 0.008881453424692154, 0.07594335079193115, -0.04755422845482826, 0.12585575878620148, 0.09012304246425629, 0.06679724156856537, 0.1251257359981537, 0.05988656356930733, 0.08568030595779419, 0.10802222788333893, 0.033932317048311234, 0.10079556703567505, -0.017078470438718796], [-0.05698038265109062, 0.05371186509728432, 0.06787410378456116, 0.054654259234666824, 0.1349906474351883, 0.02923927828669548, 0.015538085252046585, 0.08105741441249847, -0.013628076761960983, 0.1367226243019104, 0.08538757264614105, -0.028349053114652634, 0.06927913427352905, 0.06053343042731285, 0.02659648284316063, 0.0032246820628643036, -0.04981553927063942, -0.049023810774087906, -0.05676630511879921, -0.030956532806158066], [0.011278141289949417, 0.15170907974243164, -0.021270301192998886, 0.13692934811115265, 0.055756594985723495, 0.09806068241596222, -0.005289983004331589, 0.043383751064538956, -0.05590193346142769, 0.002233032137155533, -0.0016077756881713867, -0.031165581196546555, 0.004500765353441238, 0.10829006135463715, 0.14202718436717987, 0.038475263863801956, 0.011015962809324265, -0.044555868953466415, 0.02546769008040428, -0.004417717456817627], [-0.026719462126493454, -0.0013371221721172333, -0.037786152213811874, 0.08265143632888794, 0.07772687077522278, 0.037668440490961075, 0.1173260509967804, 0.09794937074184418, 0.07130025327205658, 0.12432263791561127, 0.11530719697475433, 0.09278663992881775, -0.04259299859404564, -0.05651559308171272, -0.0017576217651367188, 0.023227613419294357, -0.048264648765325546, 0.11553744971752167, 0.14861106872558594, 0.044638488441705704], [0.03971141204237938, -0.04493255540728569, -0.0009084679186344147, 0.06198042258620262, 0.08883419632911682, 0.037920404225587845, 0.007489267736673355, 0.028152551501989365, -0.05196916684508324, -0.012602847069501877, 0.02179490402340889, -0.021562103182077408, 0.09126068651676178, 0.15775859355926514, -0.013372372835874557, 0.06840790808200836, 0.047263000160455704, 0.012191813439130783, 0.15660583972930908, 0.1527976095676422], [-0.06011718884110451, 0.0954618752002716, -0.020607542246580124, 0.15892037749290466, 0.0712340921163559, 0.01777229830622673, 0.022911127656698227, -0.04845941439270973, 0.011941645294427872, 0.15806379914283752, 0.07072007656097412, 0.09449034929275513, 0.02656548097729683, 0.0504220612347126, -0.026761595159769058, 0.026832174509763718, 0.08110867440700531, 0.005444686859846115, 0.1316525936126709, 0.13441695272922516], [0.057680968195199966, 0.1207013875246048, 0.15460100769996643, -0.039273764938116074, 0.08149199187755585, -0.009579479694366455, 0.08733363449573517, -0.03852739557623863, 0.1275145262479782, -0.012361660599708557, 0.11863590776920319, 0.16029766201972961, -0.03593971207737923, 0.06642873585224152, -0.04579484090209007, 0.019580189138650894, -0.04853707179427147, 0.13792401552200317, -0.048542167991399765, 0.09185495972633362], [0.024933267384767532, 0.0015827380120754242, -0.04347982630133629, 0.08399641513824463, -0.010783214122056961, 0.028505686670541763, 0.0266023688018322, 0.006456103175878525, -0.010767605155706406, 0.05800974741578102, -0.03649832680821419, 0.1546199917793274, -0.0002803318202495575, -0.023839574307203293, -0.02986527606844902, 0.13537180423736572, 0.004275795072317123, 0.002907831221818924, 0.048340704292058945, 0.15480199456214905], [0.13143664598464966, 0.008662503212690353, -0.02361469343304634, 0.10775868594646454, -0.006352465599775314, -0.019294220954179764, 0.020916525274515152, 0.007194239646196365, 0.14129938185214996, 0.06572824716567993, -0.023577865213155746, 0.10912510752677917, 0.14797954261302948, 0.0528726764023304, 0.02351159229874611, 0.053946446627378464, -0.03527645394206047, 0.12235556542873383, 0.0788738876581192, -0.021666865795850754], [0.0685030072927475, 0.05855898931622505, 0.12585438787937164, 0.1542944461107254, 0.013629388064146042, 0.00148797407746315, -0.016355130821466446, -0.022631514817476273, 0.16051369905471802, 0.040927108377218246, -0.05289694294333458, 0.13533082604408264, 0.08662272989749908, 0.1383989304304123, 0.09502682089805603, 0.034746672958135605, 0.11004185676574707, 0.1395067572593689, 0.13336968421936035, 0.03482751175761223], [0.14354367554187775, 0.06409446895122528, -0.02325047180056572, 0.08547206223011017, -0.02858911082148552, 0.10954490303993225, 0.04179226979613304, 0.07134008407592773, -0.018145907670259476, -0.043729569762945175, 0.08358170092105865, 0.12372049689292908, -0.04446815326809883, -0.053335633128881454, -0.046278391033411026, 0.007088404148817062, -0.060029130429029465, 0.0818420946598053, 0.040034402161836624, 0.0722145140171051], [0.13731715083122253, 0.10919685661792755, 0.03582809492945671, 0.14917421340942383, -0.05092581734061241, 0.08530548214912415, 0.0611908994615078, 0.05942269787192345, 0.1400381177663803, 0.05146173760294914, -0.03154953941702843, -0.013491902500391006, 0.061288606375455856, 0.0467776395380497, 0.027738552540540695, 0.054261285811662674, 0.11097021400928497, 0.16127610206604004, -0.040513549000024796, 0.043280165642499924], [0.06041787192225456, 0.11748123168945312, -0.03741199150681496, -0.025301087647676468, -0.05592748150229454, 0.09135401248931885, -0.05006488040089607, 0.017067741602659225, 0.10058838129043579, 0.05727243795990944, -0.06093764677643776, -0.039937179535627365, 0.12920653820037842, 0.0015814267098903656, 0.0637567788362503, -0.040437180548906326, 0.007885467261075974, -0.04569689556956291, 0.15783867239952087, 0.005498703569173813], [0.12748126685619354, 0.0271303690969944, 0.004368472844362259, 0.026356805115938187, 0.009597878903150558, 0.09207744896411896, 0.08836673200130463, 0.019397985190153122, 0.040881406515836716, 0.019249457865953445, 0.02166886255145073, 0.13432654738426208, -0.023713920265436172, 0.08672583103179932, 0.028839167207479477, -0.02463933452963829, -0.02997228130698204, 0.008879367262125015, -0.05003003403544426, 0.14930562674999237], [0.05669447407126427, -0.0285307876765728, 0.10547120869159698, 0.04510798677802086, 0.006241004914045334, 0.07247905433177948, 0.0044276900589466095, 0.11194044351577759, 0.03738194331526756, -0.028397168964147568, 0.12867014110088348, -0.05771781876683235, 0.04099104180932045, 0.11127974092960358, -0.01815374568104744, 0.12346392869949341, -0.014301415532827377, 0.012156505137681961, -0.00014737248420715332, 0.07698032259941101], [0.07309083640575409, -0.0012825466692447662, 0.11504554748535156, 0.1516580581665039, -0.04655082896351814, 0.04057782515883446, 0.11627458035945892, 0.09730476140975952, 0.1300913393497467, -0.018478285521268845, -0.008731380105018616, 0.06377875804901123, -0.0005379617214202881, 0.10612308979034424, 0.11762489378452301, -0.03251611068844795, 0.024113629013299942, 0.10623182356357574, 0.06506161391735077, 0.1174374669790268], [-0.016253110021352768, -0.023266982287168503, 0.0021364502608776093, 0.01705775037407875, 0.07509663701057434, -0.04789702221751213, 0.07283923029899597, 0.012847121804952621, -0.03409726545214653, -0.037725117057561874, -0.03595617040991783, 0.08977864682674408, 0.15601645410060883, -0.022273939102888107, -0.04952752962708473, 0.055757272988557816, -0.06172116473317146, 0.016544509679079056, 0.14475955069065094, 0.07462561130523682], [-0.04140831157565117, -0.002993006259202957, 0.1273692548274994, 0.124239981174469, 0.10193496942520142, 0.12860235571861267, 0.14651747047901154, -0.026365820318460464, -0.05594271048903465, -0.0224284790456295, 0.12396453320980072, 0.09490439295768738, -0.021936457604169846, -0.016817931085824966, 0.05183481052517891, 0.02659694477915764, 0.036887895315885544, 0.10354796051979065, 0.023715924471616745, 0.015167903155088425], [0.0807533711194992, -0.045004766434431076, 0.021836142987012863, -0.03068750724196434, 0.077805295586586, 0.10762746632099152, -0.05399487540125847, 0.036996837705373764, 0.09907333552837372, -0.038960862904787064, 0.06160276010632515, -0.03863910213112831, 0.08751155436038971, 0.07883456349372864, 0.07017363607883453, 0.11410932242870331, 0.16116391122341156, -0.043561678379774094, -0.014357220381498337, 0.037179287523031235], [-0.033067937940359116, 0.15384212136268616, 0.10835134983062744, 0.016245495527982712, 0.10408809781074524, 0.09131015837192535, 0.0002553611993789673, 0.06775057315826416, -0.035848166793584824, 0.023940060287714005, 0.1524374783039093, 0.13053151965141296, 0.13584263622760773, 0.15630562603473663, 0.11210061609745026, 0.147117018699646, -0.014988142997026443, 0.002027008682489395, -0.0003666989505290985, 0.1301073580980301], [-0.03696789965033531, 0.13049402832984924, -0.03478546813130379, 0.07189968228340149, -0.011200446635484695, 0.07196071743965149, 0.14604325592517853, -0.04532450810074806, 0.08082781732082367, 0.06891000270843506, 0.11028367280960083, 0.06784351170063019, -0.003853902220726013, 0.08577053248882294, 0.11652222275733948, 0.008799184113740921, 0.012251686304807663, -0.05803743377327919, 0.09326449036598206, -0.05060700699687004], [0.01045214757323265, 0.14642773568630219, 0.06339015066623688, 0.029980670660734177, 0.028213243931531906, 0.12958605587482452, 0.03524467721581459, -0.021135006099939346, -0.020479392260313034, 0.1263337880373001, 0.11524064838886261, 0.02775232121348381, 0.0733037143945694, 0.009130571037530899, 0.14132294058799744, -0.004430420696735382, -0.024845492094755173, 0.15098974108695984, 0.03479626402258873, 0.07313750684261322], [-0.039628367871046066, -0.048583339899778366, 0.12022773921489716, -0.037742551416158676, -0.010771669447422028, 0.001718040555715561, 0.043987590819597244, 0.036758165806531906, 0.08010642230510712, 0.033625345677137375, 0.0619661919772625, 0.04663323983550072, 0.06430317461490631, -0.04105110839009285, -0.006264392286539078, 0.09538930654525757, -0.061740342527627945, -0.017729919403791428, 0.0194116048514843, 0.16006030142307281], [0.10545766353607178, 0.049801308661699295, 0.003892119973897934, 0.09298025071620941, 0.08533692359924316, 0.04663309082388878, -0.05781492218375206, 0.15710853040218353, 0.10614494979381561, -0.03426290675997734, -0.00013436377048492432, 0.033878300338983536, -0.013885583728551865, 0.014407407492399216, 0.028850723057985306, 0.12500500679016113, -0.024861115962266922, 0.037893492728471756, -0.004756171256303787, 0.102603018283844], [0.11304588615894318, 0.031316060572862625, 0.1438959538936615, -0.048262301832437515, 0.008603032678365707, -0.033640529960393906, 0.14971855282783508, -0.04993041232228279, 0.08684411644935608, 0.05335312709212303, 0.13245481252670288, 0.09538426995277405, 0.024767275899648666, 0.11927245557308197, 0.03363100066781044, 0.03222809359431267, -0.028032582253217697, 0.11866097152233124, -0.05667716637253761, 0.13529972732067108], [-0.05862009897828102, 0.058586034923791885, 0.0934177041053772, 0.0984194278717041, 0.14096742868423462, 0.039363790303468704, 0.15179447829723358, 0.09635092318058014, 0.06663632392883301, 0.1170009970664978, -0.05579451844096184, 0.15979748964309692, 0.15562653541564941, 0.06720119714736938, 0.07267065346240997, 0.07295672595500946, 0.11563816666603088, -0.031763289123773575, 0.13858529925346375, 0.12923336029052734], [-0.021965261548757553, -0.02594028040766716, 0.0483749695122242, 0.09389026463031769, 0.13979759812355042, -0.006041921675205231, -0.04387618228793144, 0.027806449681520462, -0.009424421936273575, 0.09083625674247742, 0.13249848783016205, 0.08034071326255798, -0.058536116033792496, -0.058524537831544876, 0.10967667400836945, -0.02849806472659111, 0.01563442125916481, 0.14660924673080444, 0.010717112571001053, 0.033403974026441574], [0.09846077859401703, 0.03322703018784523, -0.06004295125603676, 0.12946932017803192, -0.03845604136586189, 0.13482272624969482, 0.029743898659944534, -0.051120322197675705, -0.008865434676408768, -0.02923506125807762, -0.04383102431893349, 0.06846359372138977, 0.15754194557666779, -0.0013116151094436646, 0.11277559399604797, 0.1617438942193985, 0.07904359698295593, -0.006777655333280563, 0.05583794787526131, 0.09924376010894775], [0.08510436117649078, 0.06692095100879669, 0.12916003167629242, -0.005612187087535858, 0.03247848525643349, 0.1106564849615097, 0.024071473628282547, 0.003058452159166336, 0.00939493253827095, -0.017470140010118484, 0.1445711851119995, 0.13684441149234772, 0.006562050431966782, -0.02870626375079155, -0.0031272470951080322, 0.053630512207746506, -0.009856555610895157, -0.0443570576608181, 0.04260735586285591, 0.057953592389822006], [-0.007765181362628937, 0.0664815753698349, 0.004800837486982346, 0.039799969643354416, 0.038822006434202194, -0.0024862252175807953, 0.0041091106832027435, 0.09657654166221619, -0.05635854974389076, 0.06807437539100647, 0.060674089938402176, -0.054368142038583755, 0.15000997483730316, -0.03126634284853935, 0.0314999558031559, -0.009782731533050537, -0.05050605908036232, 0.1254800260066986, 0.10274353623390198, 0.1193990409374237], [0.061908308416604996, -0.013079959899187088, 0.11360745131969452, 0.12625552713871002, 0.14923767745494843, 0.15509137511253357, -0.052582670003175735, 0.10675215721130371, 0.046556975692510605, 0.09457635879516602, 0.12234489619731903, 0.10828927159309387, 0.08140824735164642, 0.05512455478310585, 0.03602423146367073, -0.03198772296309471, 0.007675472646951675, -0.03306051716208458, -0.010540015995502472, 0.007358934730291367], [0.12054243683815002, 0.020795810967683792, 0.14164406061172485, 0.061423514038324356, 0.056535664945840836, 0.12755918502807617, 0.14971575140953064, 0.1556471884250641, 0.02700338140130043, -0.02500290796160698, 0.09305183589458466, 0.10977298021316528, 0.004320602864027023, -0.0515020526945591, 0.09535975754261017, 0.1493251919746399, 0.13632285594940186, 0.12898148596286774, 0.08764007687568665, 0.008131477981805801], [0.09863100945949554, -0.045433517545461655, -0.05938906595110893, 0.0872158408164978, 0.11224435269832611, -0.04222949221730232, 0.007973555475473404, 0.08307206630706787, 0.15493334829807281, 0.06606997549533844, 0.035677675157785416, 0.06881240010261536, 0.13424919545650482, 0.14336124062538147, 0.029889415949583054, 0.07505688071250916, -0.027646925300359726, 0.08182911574840546, -0.0073092021048069, 0.15483736991882324], [0.05246814712882042, 0.15918196737766266, 0.11295577883720398, 0.1608053594827652, 0.06095301732420921, 0.14004218578338623, 0.13790178298950195, 0.0023578517138957977, 0.14067399501800537, 0.009683404117822647, -0.04299483820796013, 0.13965418934822083, -0.03293569013476372, 0.15981259942054749, -0.020809944719076157, 0.028713855892419815, 0.022686321288347244, 0.03386346623301506, 0.10387997329235077, -0.014266368001699448], [-0.0014498904347419739, 0.06485360860824585, 0.11420279741287231, 0.07083389163017273, 0.06841632723808289, 0.03136533126235008, -0.03342738375067711, 0.14991171658039093, 0.06405629217624664, 0.14756469428539276, 0.007183361798524857, 0.11116357147693634, 0.1603940725326538, 0.15044106543064117, 0.13028377294540405, 0.04068291559815407, 0.06308653950691223, 0.06824387609958649, 0.1479799598455429, 0.02201450988650322], [0.08238066732883453, -0.04452365264296532, 0.13485784828662872, 0.1563577651977539, -0.032756198197603226, -0.03218979761004448, 0.15227539837360382, -0.03715110942721367, 0.13197916746139526, -0.024866711348295212, 0.13959461450576782, 0.032321829348802567, 0.11302939057350159, 0.08288063108921051, 0.1473666876554489, 0.10285128653049469, 0.1499728262424469, -0.006556075066328049, 0.14229843020439148, -0.004438363015651703], [0.1472989022731781, 0.0206003300845623, 0.10026566684246063, 0.06663791835308075, 0.059445302933454514, 0.04019415006041527, 0.08849810063838959, -0.003018103539943695, -0.001020435243844986, 0.006090041249990463, 0.07964612543582916, -0.045490216463804245, -0.019341152161359787, 0.1565455198287964, 0.0900706946849823, 0.06297659873962402, -0.0036881044507026672, -0.055263254791498184, -0.025507699698209763, 0.06910918653011322], [-0.008816920220851898, 0.009702276438474655, 0.08160139620304108, 0.05328618362545967, 0.006254177540540695, 0.06991973519325256, 0.006287757307291031, 0.12907099723815918, 0.12373226881027222, -0.04940035566687584, 0.08594109117984772, 0.10558375716209412, -0.002157047390937805, 0.08162456750869751, 0.021612022072076797, 0.011165369302034378, 0.03724094107747078, 0.05553207919001579, -0.006779801100492477, 0.0268104188144207], [-0.04766450449824333, 0.13645707070827484, 0.02174277976155281, -0.012322716414928436, -0.053116243332624435, 0.04816752299666405, 0.15533320605754852, 0.001353669911623001, -0.029237817972898483, -0.009134937077760696, 0.12920646369457245, 0.08338917791843414, 0.07999958097934723, 0.11577033996582031, 0.04632699117064476, 0.14642244577407837, 0.1402827501296997, -0.046510208398103714, -0.029206495732069016, 0.0984487235546112], [0.015012700110673904, 0.016068648546934128, -0.030490290373563766, 0.150894433259964, -0.03345536068081856, 0.07179318368434906, -0.041705336421728134, -0.03658890351653099, 0.14151178300380707, 0.04740091785788536, 0.05555378273129463, 0.11972588300704956, 0.012214388698339462, 0.07164597511291504, 0.06839306652545929, -0.05475025996565819, 0.11215542256832123, 0.08283478021621704, 0.029431384056806564, -0.011926021426916122], [0.09450232982635498, 0.062475185841321945, 0.11962421238422394, 0.018115099519491196, -0.04450986906886101, 0.1216450184583664, 0.01964128389954567, 0.07466927170753479, -0.028223451226949692, 0.09710197150707245, 0.16023172438144684, -0.05176790431141853, 0.029933106154203415, 0.008381832391023636, 0.08873431384563446, 0.006904337555170059, -0.03520802780985832, -0.041279006749391556, -0.060570526868104935, -0.041535619646310806], [0.15779493749141693, -0.042332153767347336, 0.01421630010008812, 0.05686289444565773, 0.0818784236907959, 0.06711673736572266, 0.1093331128358841, 0.10561703145503998, -0.017500299960374832, -0.048136819154024124, 0.06753605604171753, 0.15594542026519775, 0.06384208798408508, -0.04079325124621391, -0.01452091708779335, -0.016364868730306625, 0.03607884421944618, 0.1328834593296051, 0.115536630153656, 0.12603406608104706], [0.16038550436496735, 0.008988376706838608, 0.021773245185613632, -0.05590849742293358, 0.032162267714738846, -0.01568678393959999, -0.03781753405928612, -0.022117938846349716, -0.03312018886208534, 0.11502902209758759, -0.03170220926403999, 0.029619667679071426, 0.02700420841574669, 0.05783097818493843, 0.0501355342566967, 0.1144874095916748, -0.020576748996973038, -0.017127271741628647, 0.08933448791503906, 0.026829544454813004], [0.08360233902931213, 0.017884407192468643, 0.13155710697174072, 0.1249600499868393, 0.04459856078028679, 0.07212366163730621, -0.041319746524095535, 0.1597534418106079, -0.015372257679700851, 0.1313890963792801, 0.025837745517492294, -0.026987213641405106, 0.027633290737867355, 0.15961502492427826, -0.048839595168828964, -0.051139477640390396, -0.04459818825125694, 0.10080854594707489, 0.08546733856201172, 0.02945709601044655], [0.05899828299880028, -0.06128333881497383, 0.012732546776533127, -0.002063687890768051, -0.01301654800772667, 0.07097068428993225, -0.02545597031712532, -0.04790864512324333, -0.0016817711293697357, 0.03390542045235634, 0.02544507011771202, -0.03306612744927406, 0.14070381224155426, 0.025798585265874863, 0.06922471523284912, -0.006444092839956284, 0.08543163537979126, 0.13672521710395813, 0.12351597845554352, -0.01883615180850029], [0.09674930572509766, -0.016105826944112778, -0.027443792670965195, 0.015102464705705643, 0.11156648397445679, -0.053174328058958054, -0.0010561570525169373, 0.11644227802753448, 0.04578503593802452, 0.12958478927612305, -0.033486027270555496, 0.13120277225971222, 0.1385117620229721, 0.10365979373455048, -0.0015628188848495483, 0.12304309010505676, 0.0180949829518795, 0.15601173043251038, 0.13545376062393188, 0.006576899439096451], [0.0674971491098404, -0.0421387143433094, 0.0642608255147934, 0.13781596720218658, 0.0402318499982357, 0.06428539752960205, -0.03229287639260292, 0.08264851570129395, 0.13821972906589508, 0.018164638429880142, -0.037787001579999924, -0.02928623929619789, 0.15143945813179016, 0.06359796226024628, -0.025795098394155502, 0.133245050907135, 0.08660827577114105, 0.12829573452472687, 0.008721943944692612, -0.030965279787778854], [0.14618372917175293, 0.0826253890991211, 0.10585632920265198, 0.10073818266391754, 0.09974274039268494, 0.1114041656255722, 0.12576371431350708, 0.009547602385282516, 0.006632838398218155, -0.052205633372068405, 0.07307924330234528, 0.07048308849334717, 0.07057109475135803, 0.040342193096876144, 0.004989560693502426, 0.09115712344646454, 0.10769246518611908, -0.00863199308514595, 0.041312623769044876, 0.007010955363512039], [0.1340441256761551, -0.05324569717049599, 0.07353194057941437, -0.047817934304475784, 0.013295959681272507, 0.04113193228840828, 0.16058097779750824, -0.021979842334985733, 0.0966094583272934, -0.006466779857873917, 0.02176276221871376, 0.09171931445598602, 0.1452287882566452, 0.12680138647556305, -0.014393758028745651, -0.008835099637508392, 0.022691775113344193, -0.054981496185064316, 0.07064853608608246, -0.04965434595942497], [0.04251774027943611, 0.06072235479950905, -0.007756687700748444, -0.020325880497694016, 0.08016589283943176, -0.04108202084898949, 0.15187634527683258, 0.16037893295288086, 0.09649042785167694, 0.056718725711107254, 0.0798705667257309, -0.039338622242212296, 0.11310696601867676, 0.0551009438931942, 0.06528815627098083, 0.09808993339538574, 0.1536032110452652, 0.06636734306812286, 0.1241852343082428, -0.02720261737704277], [0.1365877389907837, 0.09819838404655457, 0.0843023955821991, 0.02421027049422264, -0.055012430995702744, -0.013577904552221298, -0.0019464939832687378, -0.027560781687498093, 0.13359814882278442, -0.036151159554719925, 0.04907989874482155, 0.14560888707637787, 0.12524254620075226, 0.05424899235367775, 0.15185858309268951, -0.04378713294863701, 0.06355035305023193, 0.1565757542848587, -0.002265363931655884, 0.04681295529007912], [0.07814617455005646, 0.02039230987429619, -0.005610749125480652, 0.025095563381910324, 0.04388609901070595, 0.041130226105451584, -0.02342831715941429, 0.08044895529747009, -0.058197733014822006, 0.01137700304389, 0.07878150045871735, -0.05131811276078224, 0.12834930419921875, -0.04039536044001579, 0.06738685071468353, -0.0008954741060733795, 0.030139531940221786, -0.02029285952448845, 0.10883966088294983, 0.11453917622566223], [-0.0007316991686820984, 0.05226631835103035, 0.09252116084098816, -0.055595796555280685, 0.09609648585319519, 0.13025476038455963, 0.08570536971092224, 0.12143391370773315, -0.061388228088617325, -0.014727424830198288, 0.13407886028289795, 0.04697128012776375, 0.13373999297618866, 0.043066490441560745, 0.05360766127705574, 0.13017800450325012, 0.15436424314975739, -0.03409532830119133, -0.027562778443098068, -0.042756449431180954], [0.04118246212601662, 0.12242342531681061, 0.11418482661247253, -0.03252733126282692, 0.10200658440589905, 0.1393216848373413, 0.0633891224861145, 0.15086466073989868, 0.05356913432478905, -0.020053837448358536, -0.0492931567132473, -0.03516316041350365, -0.021759118884801865, 0.1482764184474945, 0.1586182564496994, 0.06178176775574684, 0.11304132640361786, -0.047226425260305405, -0.05802462622523308, -0.021284501999616623], [-0.04182824864983559, 0.11355715990066528, 0.11666598916053772, 0.09803001582622528, 0.0006118565797805786, 0.0567743293941021, 0.06700363755226135, 0.07059016823768616, -0.020323779433965683, 0.09375546872615814, 0.007831539958715439, 0.035763803869485855, -0.021479148417711258, 0.013646874576807022, -0.04795610532164574, -0.04150993749499321, 0.11090955138206482, -0.056793149560689926, 0.038092564791440964, 0.004089143127202988], [-0.0016982853412628174, 0.05755319073796272, -0.007499527186155319, -0.044862907379865646, 0.017825771123170853, -0.01658838614821434, -0.05007431283593178, 0.1106615662574768, 0.07267162203788757, 0.045570384711027145, 0.03757943585515022, 0.10592135787010193, 0.11422929167747498, 0.10373158752918243, -0.006270311772823334, 0.11948421597480774, 0.13000833988189697, 0.04527638480067253, -0.01775931939482689, 0.12259605526924133], [0.14674875140190125, 0.05883922800421715, 0.07846605777740479, 0.14832918345928192, -0.04951036348938942, 0.040822554379701614, 0.07847945392131805, 0.00716337189078331, -0.04452133551239967, -0.04373477026820183, 0.11042630672454834, 0.15329475700855255, 0.07881100475788116, -0.03766434267163277, -0.0023602358996868134, 0.09298047423362732, 0.11335577070713043, 0.004393439739942551, 0.07316602766513824, 0.0883101224899292], [0.07189770042896271, 0.04825889691710472, -0.05940521880984306, 0.15233708918094635, 0.06785142421722412, 0.12892094254493713, 0.15887358784675598, 0.1100783497095108, 0.07687029242515564, 0.04142025485634804, 0.08100907504558563, -0.0007978305220603943, -0.012429539114236832, 0.0872073769569397, 0.0061175636947155, 0.10709187388420105, 0.02957843616604805, 0.15801361203193665, 0.028700437396764755, 0.025551561266183853], [0.1459304541349411, -0.01370108500123024, 0.09465278685092926, 0.015021469444036484, -0.015796463936567307, 0.0949794203042984, 0.00263199582695961, -0.012680280953645706, 0.023867767304182053, 0.12821505963802338, 0.08551706373691559, 0.0772264152765274, -0.033280108124017715, -0.0586698092520237, 0.017210502177476883, -0.042771968990564346, 0.1090865284204483, 0.01071934774518013, 0.06770406663417816, 0.10950808227062225], [-0.025507759302854538, 0.09500160813331604, 0.15591947734355927, 0.007782559841871262, -0.007220037281513214, 0.11072829365730286, 0.056029628962278366, -0.03373683616518974, 0.04201687499880791, 0.005560506135225296, 0.03851495310664177, -0.02330496534705162, 0.015671145170927048, -0.04847220703959465, 0.003018628805875778, -0.026910286396741867, 0.017735373228788376, -0.03977665677666664, 0.13804708421230316, 0.15131209790706635], [-0.02536400780081749, 0.15918059647083282, 0.017252471297979355, 0.14818260073661804, 0.12574659287929535, -0.06180243566632271, 0.051649581640958786, 0.06721433997154236, 0.03520580753684044, -0.054117586463689804, 0.07137170433998108, 0.15251697599887848, 0.14829032123088837, 0.1074914038181305, -0.005714572966098785, 0.02938011661171913, 0.043535757809877396, 0.06357826292514801, -0.05857622250914574, 0.1241246908903122], [0.10439370572566986, 0.13267214596271515, 0.13091374933719635, 0.14789067208766937, 0.1490994542837143, 0.08718737959861755, 0.14777922630310059, 0.11862543225288391, 0.08558706939220428, -0.027518775314092636, 0.018173087388277054, 0.08981043100357056, 0.00868365541100502, -0.016715269535779953, 0.040095482021570206, 0.056644197553396225, -0.04377996549010277, 0.14433516561985016, 0.08572934567928314, 0.02102215215563774], [-0.002972535789012909, 0.021122653037309647, 0.11208392679691315, 0.0637640655040741, 0.02937251701951027, 0.024861838668584824, -0.05906270816922188, -0.060390081256628036, 0.14850053191184998, 0.06571511924266815, 0.115086629986763, 0.04194379225373268, 0.05177484080195427, -0.02179383859038353, 0.05153099074959755, 0.05698780342936516, -0.005395900458097458, 0.09610094130039215, 0.1617598533630371, 0.12095703184604645], [0.10376912355422974, 0.14709991216659546, 0.02587946131825447, 0.05895516648888588, -0.0478547178208828, 0.08871947228908539, 0.008860360831022263, 0.15804220736026764, 0.0481504462659359, 0.12492108345031738, 0.04767822101712227, -0.013525065034627914, 0.14922350645065308, 0.14636732637882233, 0.12394993007183075, 0.14258421957492828, 0.07947376370429993, 0.15248854458332062, -0.032002951949834824, 0.0041812993586063385], [0.001110512763261795, -0.03763749822974205, -0.02408647909760475, 0.07471856474876404, 0.03529840335249901, -0.03573865815997124, -0.04033563658595085, 0.022501107305288315, 0.0876285582780838, 0.151643767952919, -0.032637689262628555, 0.1360635906457901, 0.09969472885131836, -0.0009680837392807007, 0.10211595892906189, -0.006574936211109161, 0.031248044222593307, -0.013687100261449814, 0.06692694127559662, 0.01390359178185463], [0.07161949574947357, 0.05789320543408394, 0.006377380341291428, -0.01875000074505806, -0.024110909551382065, -0.05230571702122688, -0.05823412910103798, 0.12086281180381775, -0.04056009277701378, 0.04598872736096382, -0.005007840692996979, -0.04183829948306084, 0.03471634164452553, 0.11717256903648376, -0.009332485496997833, 0.14488482475280762, 0.03722256049513817, -0.02622067555785179, -0.012751493602991104, 0.028551165014505386], [0.10967868566513062, 0.12526489794254303, 0.14930157363414764, 0.07885968685150146, 0.13655798137187958, 0.07097811996936798, -0.012516703456640244, -0.014899294823408127, -0.04148996248841286, -0.026690881699323654, 0.04179389402270317, 0.11178846657276154, -0.049242470413446426, -0.04070403799414635, 0.13185064494609833, 0.11220221221446991, 0.10897119343280792, 0.08896149694919586, 0.02295801416039467, -0.04571380838751793], [0.06956784427165985, 0.14994026720523834, -0.02801954373717308, 0.1253536343574524, 0.007931623607873917, -0.03595353290438652, 0.04880645498633385, 0.03428806737065315, 0.15920497477054596, -0.022747572511434555, 0.1352086067199707, 0.09958954155445099, 0.08014871180057526, 0.014193225651979446, -0.017111923545598984, 0.14983204007148743, 0.15966571867465973, 0.1561918705701828, 0.0560932420194149, 0.1467924565076828], [0.12841686606407166, 0.04370618239045143, 0.07178691029548645, 0.03846217319369316, 0.08409124612808228, 0.046196844428777695, 0.05674603953957558, 0.08057929575443268, 0.15266172587871552, 0.09609128534793854, 0.15772601962089539, 0.10625565052032471, 0.07851505279541016, 0.15553142130374908, 0.025182630866765976, 0.08744990825653076, 0.11864472925662994, 0.08376102149486542, 0.06266149878501892, -0.05233130231499672], [0.04852444306015968, -0.01902659609913826, -0.020371567457914352, 0.1392064243555069, 0.036726031452417374, 0.07124984264373779, 0.0064863599836826324, -0.04467574134469032, 0.049750808626413345, 0.04709865525364876, 0.03952046111226082, 0.025326412171125412, -0.03730830177664757, 0.005648430436849594, -0.019815515726804733, 0.07449987530708313, 0.10650311410427094, -0.010658197104930878, 0.12746848165988922, -0.01562800630927086], [0.08360189199447632, 0.002258624881505966, 0.04165736213326454, 0.05695752426981926, 0.04586154595017433, 0.04033169522881508, -0.006143882870674133, -0.060444485396146774, 0.14749765396118164, 0.15358684957027435, 0.021467480808496475, 0.06413966417312622, 0.0038098208606243134, 0.1486366093158722, 0.09943008422851562, -0.034276124089956284, -0.052902501076459885, -0.04662163928151131, 0.13978324830532074, 0.07314683496952057], [-0.06176026538014412, -0.010891102254390717, 0.06929564476013184, 0.15784825384616852, 0.07861886918544769, 0.03128960356116295, -0.02362671121954918, -0.025367271155118942, -0.009579945355653763, 0.14181366562843323, 0.01784631237387657, 0.07531960308551788, 0.11067695915699005, 0.11379042267799377, -0.03711339458823204, -0.01570507511496544, 0.10019543766975403, -0.04358350858092308, 0.06621094048023224, 0.03372770920395851], [0.1589820683002472, -0.011007655411958694, 0.07499176263809204, -0.008721742779016495, 0.04929565265774727, -0.016558151692152023, 0.1315891295671463, -0.023903805762529373, -0.02248489484190941, 0.03843146935105324, 0.09830290079116821, -0.0024951398372650146, -0.036834169179201126, 0.03842205926775932, 0.007917176932096481, -0.058064330369234085, 0.052896734327077866, 0.155842125415802, 0.07781127095222473, 0.03564229980111122], [-0.054756585508584976, 0.132099911570549, 0.0360969640314579, -0.024378757923841476, 0.08526082336902618, -0.03351309522986412, -0.024371888488531113, 0.13339871168136597, 0.0008067227900028229, 0.10723911225795746, 0.12263990938663483, 0.14207951724529266, -0.0555502288043499, 0.056361522525548935, 0.11476907134056091, 0.06079605594277382, -0.002963591367006302, 0.09460638463497162, -0.038785506039857864, 0.10443481802940369], [0.08079685270786285, 0.11036799848079681, 0.0662478655576706, -0.03948512300848961, -0.04382343962788582, 0.03303256258368492, 0.07935094833374023, 0.06535600125789642, -0.027369286864995956, 0.15239721536636353, -0.056574899703264236, -0.028786148875951767, 0.10654352605342865, 0.09095022082328796, -0.019833605736494064, -0.019326064735651016, -0.04210619255900383, 0.049799706786870956, 0.09125684201717377, 0.07339116930961609], [0.010808233171701431, 0.0698084831237793, 0.10903370380401611, -0.010825540870428085, 0.12354515492916107, 0.1381370574235916, 0.08560410141944885, 0.02893318608403206, 0.15111365914344788, -0.02509288862347603, 0.0917084664106369, 0.045108940452337265, 0.003342818468809128, -0.03013559803366661, 0.021691787987947464, 0.07378652691841125, 0.14797599613666534, -0.053214181214571, -0.030751537531614304, 0.08699822425842285], [0.0953383594751358, 0.12800654768943787, -0.057261187583208084, -0.04829426482319832, 0.10580851137638092, 0.05104123428463936, 0.018081095069646835, 0.1325920820236206, 0.09079578518867493, 0.14561507105827332, -0.04092034325003624, 0.08971093595027924, 0.11877493560314178, -0.02447887882590294, 0.022985752671957016, 0.15267419815063477, -0.01771477237343788, -0.05553915724158287, 0.07007725536823273, 0.12566323578357697], [0.06649753451347351, 0.05649769678711891, -0.02111237868666649, 0.14957866072654724, -0.056036826223134995, 0.10414460301399231, 0.16025248169898987, 0.03662201389670372, 0.10862165689468384, -0.009460113942623138, -0.05506334826350212, 0.14817191660404205, 0.13131563365459442, 0.07941018044948578, 0.11585819721221924, 0.10264748334884644, 0.1082456111907959, 0.04906262829899788, 0.12265723943710327, 0.12864641845226288], [0.06737549602985382, 0.14804914593696594, 0.033642206341028214, 0.12805728614330292, -0.009609069675207138, 0.14343099296092987, 0.15939919650554657, 0.03780117258429527, 0.02483740821480751, 0.07228958606719971, 0.029176849871873856, 0.040429603308439255, 0.1447886824607849, 0.12492793798446655, 0.03790527954697609, 0.10271905362606049, 0.11935165524482727, 0.019925173372030258, 0.12812677025794983, 0.01833479478955269], [0.023907463997602463, 0.01626810058951378, 0.09900146722793579, 0.14833706617355347, 0.10447576642036438, 0.012454364448785782, 0.12536397576332092, 0.04822155460715294, 0.023387659341096878, -0.0031988173723220825, -0.06169453635811806, 0.09664960205554962, 0.12435708940029144, 0.02498452737927437, -0.026242908090353012, -0.017928432673215866, 0.12474271655082703, 0.11928465962409973, 0.14334368705749512, -0.043159227818250656], [0.09901385009288788, -0.01481449231505394, 0.08778862655162811, 0.05298616364598274, 0.139882892370224, 0.1436157524585724, -0.015533294528722763, 0.13680437207221985, 0.08608819544315338, -0.015522968024015427, -0.008968017995357513, 0.08447214961051941, 0.05539010092616081, -0.039148371666669846, 0.1398153007030487, 0.05696661397814751, 0.05749202147126198, 0.005604129284620285, 0.05166242644190788, 0.017975550144910812]], "model.0.bias": [0.021587219089269638, 0.06549936532974243, -0.038689468055963516, 0.004649493843317032, 0.010708596557378769, -0.026832398027181625, 0.06866991519927979, 0.15530404448509216, -0.007053915411233902, -0.047360438853502274, 0.0015968792140483856, 0.118087038397789, 0.042621057480573654, 0.10638831555843353, 0.1601077765226364, 0.053765919059515, 0.12944315373897552, 0.07428909838199615, -0.01919504627585411, 0.08924214541912079, -0.03257158026099205, 0.010812167078256607, 0.021799888461828232, 0.017244596034288406, 0.0829688310623169, -0.023479986935853958, 0.08305054903030396, 0.10584850609302521, -0.03114517405629158, 0.06192123517394066, 0.05025056377053261, -0.030514251440763474, 0.028341729193925858, 0.11875110864639282, 0.06148554012179375, -0.04837248846888542, -0.034328851848840714, 0.13502725958824158, 0.08711101114749908, 0.0561060793697834, 0.04994593933224678, 0.04590575769543648, 0.14704760909080505, -0.059807877987623215, -0.0354648120701313, 0.05688126012682915, 0.13764141499996185, 0.1586686223745346, 0.007270392030477524, 0.022367317229509354, 0.05518920347094536, -0.037160906940698624, 0.014087092131376266, -0.023721959441900253, 0.10441307723522186, 0.04784402623772621, 0.03968725726008415, -0.05894557759165764, -0.051899220794439316, 0.03466697409749031, 0.08283881843090057, 0.04277820512652397, 0.08916476368904114, -0.023711752146482468, 0.06635434925556183, 0.13616204261779785, -0.014548178762197495, 0.15292556583881378, -0.011157743632793427, -0.015040632337331772, -0.05843495950102806, 0.11856678128242493, 0.1485430747270584, 0.07655675709247589, 0.0512896291911602, 0.045714061707258224, 0.12716418504714966, -0.04609673097729683, -0.04926912859082222, 0.11630594730377197, 0.15032264590263367, 0.1177218109369278, 0.12012401223182678, -0.04107751324772835, -0.03918416425585747, 0.06866618990898132, 0.15241117775440216, 0.06486904621124268, 0.11819377541542053, 0.05433949455618858, 0.10818932950496674, 0.06941583752632141, 0.08800841867923737, 0.030010592192411423, 0.10029719769954681, 0.002430487424135208, 0.11377990245819092, 0.08164161443710327, 0.03340290114283562, 0.0012416057288646698, 0.14303116500377655, -0.03562675788998604, 0.1543883979320526, 0.13189439475536346, 0.13804592192173004, 0.0662301629781723, 0.09775686264038086, -0.038992758840322495, 0.032374490052461624, -0.017365608364343643, 0.007946301251649857, 0.021118562668561935, 0.004878100007772446, 0.0706803947687149, 0.1111476719379425, 0.09428314864635468, -0.05122845247387886, 0.05133519694209099, 0.1549222469329834, 0.013470236212015152, -0.03881427273154259, 0.08359439671039581, 0.09675590693950653, -0.010637551546096802, 0.03391547128558159, 0.039526816457509995, -0.009092729538679123, 0.0578790120780468], "model.2.weight": [[0.08693345636129379, 0.08812803030014038, 0.08948076516389847, 0.02615690790116787, 0.07203081250190735, 0.012833449989557266, 0.05198782682418823, 0.013801686465740204, 0.025313206017017365, 0.016495231539011, 0.08687113970518112, 0.0252868440002203, 0.03954078629612923, 0.01385822519659996, 0.08050010353326797, 0.006609667092561722, 0.08852820098400116, 0.0746140107512474, 0.07774583995342255, 0.04877277836203575, 0.043676819652318954, 0.06598229706287384, 0.03581259772181511, 0.03683851659297943, 0.04631958529353142, 0.08091778308153152, 0.015261426568031311, 0.018093135207891464, 0.027332346886396408, 0.08745834231376648, 0.04981398954987526, 0.07591981440782547, 0.024436119943857193, 0.06190859153866768, 0.093367800116539, 0.030491121113300323, 0.03511751443147659, 0.07839450985193253, 0.07435936480760574, 0.06454181671142578, 0.04179907217621803, 0.03753874823451042, 0.04779857024550438, 0.03583373874425888, 0.0845341607928276, 0.07483921200037003, 0.01338222250342369, 0.024416400119662285, 0.007783684879541397, 0.06284847110509872, 0.029637709259986877, 0.03265482187271118, 0.09058055281639099, 0.010385081171989441, 0.02647259272634983, 0.06268484890460968, 0.079525426030159, 0.022184014320373535, 0.07491430640220642, 0.05933680385351181, 0.0668012723326683, 0.0639895498752594, 0.017044302076101303, 0.0465424470603466, 0.02434842847287655, 0.028995729982852936, 0.0672668069601059, 0.08975688368082047, 0.028049511834979057, 0.0913764163851738, 0.039729777723550797, 0.0595378540456295, 0.09389594942331314, 0.07907594740390778, 0.07126905024051666, 0.07362131029367447, 0.044180601835250854, 0.00600052997469902, 0.03395422175526619, 0.015427779406309128, 0.06105326861143112, 0.0437614880502224, 0.029441917315125465, 0.05185222998261452, 0.04605719819664955, 0.03230278939008713, 0.00625920295715332, 0.020932873710989952, 0.08706341683864594, 0.01829737424850464, 0.07050095498561859, 0.0852845087647438, 0.06743282824754715, 0.007786240428686142, 0.017424792051315308, 0.012980539351701736, 0.007648646831512451, 0.03957038372755051, 0.021102294325828552, 0.046705733984708786, 0.006125949323177338, 0.04767286777496338, 0.06715977191925049, 0.05602153018116951, 0.0412524975836277, 0.050524935126304626, 0.07902170717716217, 0.029299581423401833, 0.04035699740052223, 0.03051656112074852, 0.03890617936849594, 0.0643112063407898, 0.057693447917699814, 0.08199466019868851, 0.07892779260873795, 0.008697986602783203, 0.03736456111073494, 0.041124481707811356, 0.08850618451833725, 0.04487227648496628, 0.08377458155155182, 0.021138086915016174, 0.03572573512792587, 0.019538123160600662, 0.03543788939714432, 0.09385276585817337, 0.09105978906154633, 0.05595697835087776], [0.07271859794855118, 0.05264948680996895, 0.08361465483903885, 0.007129758596420288, 0.016787931323051453, 0.026027105748653412, 0.06839198619127274, 0.05113578587770462, 0.06121005117893219, 0.02077464386820793, 0.0837668851017952, 0.013295397162437439, 0.06633017957210541, 0.09370683133602142, 0.07626664638519287, 0.09378396719694138, 0.08446811139583588, 0.06485322117805481, 0.06017416715621948, 0.04077010601758957, 0.030298419296741486, 0.06602665781974792, 0.010292060673236847, 0.05200573801994324, 0.018759991973638535, 0.09154437482357025, 0.04357972368597984, 0.028823070228099823, 0.06431037932634354, 0.0802699625492096, 0.05161328613758087, 0.026514165103435516, 0.0076516903936862946, 0.023266861215233803, 0.040767718106508255, 0.07277986407279968, 0.03564169257879257, 0.09151623398065567, 0.08466103672981262, 0.08015899360179901, 0.05646611750125885, 0.05001847818493843, 0.07624085992574692, 0.06849759072065353, 0.02648491971194744, 0.07312089949846268, 0.056095194071531296, 0.02224505878984928, 0.030489476397633553, 0.054484039545059204, 0.034685954451560974, 0.0371168851852417, 0.0869155302643776, 0.05430339276790619, 0.0476590171456337, 0.07703813165426254, 0.009092990309000015, 0.022427590563893318, 0.05332130938768387, 0.07440359145402908, 0.0874009057879448, 0.01869863271713257, 0.012735668569803238, 0.059461042284965515, 0.03040681593120098, 0.08510090410709381, 0.05178079009056091, 0.01763831451535225, 0.07670843601226807, 0.025847291573882103, 0.0307918693870306, 0.02667694166302681, 0.05426668003201485, 0.051910433918237686, 0.0524701364338398, 0.031077614054083824, 0.045143283903598785, 0.018746141344308853, 0.04805205762386322, 0.08244960010051727, 0.04494117200374603, 0.03037387877702713, 0.05804450809955597, 0.022963466122746468, 0.00930410623550415, 0.08493547886610031, 0.093960240483284, 0.025478705763816833, 0.06902308762073517, 0.022177033126354218, 0.048154596239328384, 0.057512324303388596, 0.05190856382250786, 0.08181781321763992, 0.0076345838606357574, 0.049974121153354645, 0.07504945993423462, 0.0772399753332138, 0.03116273134946823, 0.048777803778648376, 0.02762630395591259, 0.03306864947080612, 0.08262576162815094, 0.08878781646490097, 0.0868070125579834, 0.03710092231631279, 0.07352836430072784, 0.025737503543496132, 0.06284525990486145, 0.04240163415670395, 0.05098380148410797, 0.08121577650308609, 0.0769793912768364, 0.08530618995428085, 0.09178530424833298, 0.01432151347398758, 0.0200190506875515, 0.0654248297214508, 0.06755423545837402, 0.061933018267154694, 0.03841539844870567, 0.046069636940956116, 0.05994829908013344, 0.05031665414571762, 0.05174941569566727, 0.025763556361198425, 0.014523029327392578, 0.08931577205657959], [0.06719281524419785, 0.038150936365127563, 0.07299181073904037, 0.029874196276068687, 0.07181774079799652, 0.052653718739748, 0.08944875746965408, 0.08820222318172455, 0.014570407569408417, 0.04090460017323494, 0.011779312044382095, 0.035324424505233765, 0.0370418056845665, 0.07076729089021683, 0.05632535740733147, 0.020716875791549683, 0.020395401865243912, 0.013975415378808975, 0.07452570647001266, 0.062354568392038345, 0.0338958278298378, 0.08575870841741562, 0.08064427226781845, 0.01117057353258133, 0.08435744047164917, 0.029388848692178726, 0.07302657514810562, 0.07754988968372345, 0.08065268397331238, 0.009799163788557053, 0.013232413679361343, 0.06740450859069824, 0.08228366076946259, 0.07483458518981934, 0.0916987732052803, 0.05229608714580536, 0.012754321098327637, 0.03814293444156647, 0.06477600336074829, 0.035036586225032806, 0.061249032616615295, 0.022241385653614998, 0.04735303297638893, 0.0888897106051445, 0.08399562537670135, 0.08824414759874344, 0.08281753212213516, 0.06777963787317276, 0.036928340792655945, 0.057744093239307404, 0.0724097490310669, 0.047580473124980927, 0.027400191873311996, 0.03730567917227745, 0.0663040354847908, 0.07022738456726074, 0.05653700232505798, 0.0647960752248764, 0.006048593670129776, 0.03707968071103096, 0.07992390543222427, 0.02562432363629341, 0.06519819796085358, 0.03025784343481064, 0.04182284325361252, 0.021660881116986275, 0.06323137134313583, 0.0693638026714325, 0.030291423201560974, 0.05902079492807388, 0.026558034121990204, 0.03077557496726513, 0.056550975888967514, 0.06908992677927017, 0.07546597719192505, 0.08859939873218536, 0.036418914794921875, 0.03738979622721672, 0.08491161465644836, 0.0355793759226799, 0.04132950305938721, 0.011402260512113571, 0.06519141793251038, 0.05102447420358658, 0.045121654868125916, 0.039731305092573166, 0.012024015188217163, 0.07562994211912155, 0.035749781876802444, 0.01808777078986168, 0.009672839194536209, 0.019294826313853264, 0.04573433846235275, 0.06344494223594666, 0.062062617391347885, 0.026054248213768005, 0.05902765691280365, 0.05724163353443146, 0.02597040683031082, 0.06647337973117828, 0.020743217319250107, 0.059115756303071976, 0.03795561566948891, 0.0601990781724453, 0.08950786292552948, 0.06312217563390732, 0.08010850846767426, 0.08055836707353592, 0.02249169535934925, 0.06374615430831909, 0.013550858944654465, 0.02934039570391178, 0.06204858794808388, 0.07738287001848221, 0.06855951249599457, 0.09405739605426788, 0.0758165493607521, 0.057707857340574265, 0.026677748188376427, 0.06250497698783875, 0.0599629245698452, 0.06748883426189423, 0.07951831817626953, 0.0457083024084568, 0.0914536714553833, 0.0806179866194725, 0.08303914964199066, 0.08004492521286011], [0.005848485976457596, 0.08484296500682831, 0.09090450406074524, 0.08313457667827606, 0.08291207253932953, 0.028753643855452538, 0.027081524953246117, 0.07443872094154358, 0.013575367629528046, 0.03596469759941101, 0.04441915079951286, 0.0342751145362854, 0.07592214643955231, 0.07048535346984863, 0.017179090529680252, 0.01850735768675804, 0.013724584132432938, 0.07292576134204865, 0.01378457248210907, 0.07803433388471603, 0.04973229020833969, 0.0685361996293068, 0.017916720360517502, 0.01920030266046524, 0.05119497328996658, 0.0308305025100708, 0.062183231115341187, 0.05963415279984474, 0.03846598416566849, 0.0467463955283165, 0.06364093720912933, 0.029942236840724945, 0.0511636808514595, 0.05970485508441925, 0.019983433187007904, 0.008727733045816422, 0.09192643314599991, 0.0434083454310894, 0.03571654483675957, 0.0761566013097763, 0.034763988107442856, 0.06041449308395386, 0.05632108449935913, 0.08133293688297272, 0.06945700943470001, 0.01353541761636734, 0.08079642057418823, 0.0635787770152092, 0.08732519298791885, 0.011637222021818161, 0.08386501669883728, 0.022130591794848442, 0.08106865733861923, 0.05835907906293869, 0.08128514140844345, 0.08584148436784744, 0.05254513397812843, 0.04318882152438164, 0.08893649280071259, 0.07319258898496628, 0.02580796368420124, 0.045884206891059875, 0.017338596284389496, 0.03831707313656807, 0.039691463112831116, 0.06535198539495468, 0.06731851398944855, 0.06313708424568176, 0.09128929674625397, 0.05107499286532402, 0.010271765291690826, 0.05661889538168907, 0.05922245979309082, 0.04737512767314911, 0.07770717144012451, 0.0459381565451622, 0.062412284314632416, 0.037112679332494736, 0.06663669645786285, 0.06633806228637695, 0.08217602223157883, 0.06073551997542381, 0.014939691871404648, 0.0668284222483635, 0.08792838454246521, 0.043120693415403366, 0.045351944863796234, 0.055943381041288376, 0.058231960982084274, 0.05265391245484352, 0.07031788676977158, 0.0335242860019207, 0.02889196388423443, 0.056508563458919525, 0.09280511736869812, 0.07494017481803894, 0.023268356919288635, 0.051819927990436554, 0.09367229044437408, 0.06493768095970154, 0.08507280051708221, 0.031817078590393066, 0.027012867853045464, 0.023819658905267715, 0.06467732042074203, 0.07041744142770767, 0.014547042548656464, 0.04602288827300072, 0.09301787614822388, 0.09189590066671371, 0.03651382774114609, 0.07012056559324265, 0.021966619417071342, 0.02289314940571785, 0.09102390706539154, 0.08176998049020767, 0.009873341768980026, 0.019691212102770805, 0.043478239327669144, 0.021704481914639473, 0.057466261088848114, 0.08270063251256943, 0.037765197455883026, 0.05905799940228462, 0.07508274912834167, 0.06406497210264206, 0.055749986320734024, 0.055709607899188995], [0.08016584813594818, 0.0522446408867836, 0.08795159310102463, 0.00792904943227768, 0.049721263349056244, 0.0852847546339035, 0.02145220711827278, 0.06907407939434052, 0.02741277776658535, 0.026339419186115265, 0.07218446582555771, 0.03744130954146385, 0.08489523828029633, 0.0070550329983234406, 0.08697617053985596, 0.07377686351537704, 0.06236928328871727, 0.029142774641513824, 0.03571256622672081, 0.07779201120138168, 0.011507272720336914, 0.00826621800661087, 0.08120735734701157, 0.03554346412420273, 0.007327403873205185, 0.05389377474784851, 0.023462438955903053, 0.08892835676670074, 0.0397089421749115, 0.010717857629060745, 0.06978149712085724, 0.03197865933179855, 0.009558655321598053, 0.014459479600191116, 0.04336569085717201, 0.05531120300292969, 0.025047438219189644, 0.06287074834108353, 0.04495636001229286, 0.05845189839601517, 0.07441073656082153, 0.05251861363649368, 0.08780113607645035, 0.04298127442598343, 0.017832230776548386, 0.03298668563365936, 0.055435921996831894, 0.07933159172534943, 0.09352199733257294, 0.05004780739545822, 0.06442705541849136, 0.0424242727458477, 0.03198753297328949, 0.08886244148015976, 0.07170236855745316, 0.07272417098283768, 0.006413828581571579, 0.07250449806451797, 0.07446365803480148, 0.08125288039445877, 0.048431314527988434, 0.021229177713394165, 0.04304710030555725, 0.00851672887802124, 0.07508698105812073, 0.03987396880984306, 0.03527025878429413, 0.0747600868344307, 0.07540082931518555, 0.026239577680826187, 0.03001999855041504, 0.09153835475444794, 0.036755651235580444, 0.07154073566198349, 0.020395370200276375, 0.07301853597164154, 0.06144213676452637, 0.014775577932596207, 0.056602831929922104, 0.041004009544849396, 0.011556234210729599, 0.0403115414083004, 0.07766159623861313, 0.009777884930372238, 0.0656663104891777, 0.07474713772535324, 0.047324519604444504, 0.06392395496368408, 0.07450610399246216, 0.08754777163267136, 0.02104712836444378, 0.05903514102101326, 0.029961366206407547, 0.07687214761972427, 0.04041176289319992, 0.05266200006008148, 0.03326037526130676, 0.05339755117893219, 0.018947545439004898, 0.06896192580461502, 0.019100945442914963, 0.08589423447847366, 0.0861285924911499, 0.08265872299671173, 0.0753140076994896, 0.016381915658712387, 0.053507398813962936, 0.061883267015218735, 0.08838540315628052, 0.012293349951505661, 0.02412322722375393, 0.09064646065235138, 0.09077931940555573, 0.07303138822317123, 0.022188344970345497, 0.060083191841840744, 0.05435427650809288, 0.06460627168416977, 0.05466384440660477, 0.051209256052970886, 0.05505756288766861, 0.008080516010522842, 0.038680627942085266, 0.02975304424762726, 0.055568184703588486, 0.07228255271911621, 0.07675257325172424, 0.04681022837758064], [0.04099757596850395, 0.04671510308980942, 0.08215058594942093, 0.04203468933701515, 0.068285271525383, 0.06168727949261665, 0.08662139624357224, 0.07053826749324799, 0.06808982789516449, 0.07371219992637634, 0.044700030237436295, 0.043093640357255936, 0.046938713639974594, 0.042465656995773315, 0.025592803955078125, 0.033210642635822296, 0.07868696004152298, 0.0931738018989563, 0.08562872558832169, 0.014093946665525436, 0.020790908485651016, 0.006094601005315781, 0.04782531410455704, 0.023015407845377922, 0.009450055658817291, 0.060406606644392014, 0.06097943335771561, 0.08984512090682983, 0.05765965208411217, 0.05080375820398331, 0.04819202795624733, 0.040214430540800095, 0.01778443530201912, 0.0357634574174881, 0.010115910321474075, 0.08022995293140411, 0.07600539922714233, 0.015968769788742065, 0.020663224160671234, 0.02430751919746399, 0.030979802832007408, 0.0178014375269413, 0.09022321552038193, 0.07672389596700668, 0.036835864186286926, 0.024458441883325577, 0.029113203287124634, 0.044594015926122665, 0.05959002673625946, 0.02918226644396782, 0.05913415923714638, 0.06752191483974457, 0.07077817618846893, 0.032574813812971115, 0.023357361555099487, 0.041536230593919754, 0.04398884251713753, 0.08731140196323395, 0.07359835505485535, 0.028142845258116722, 0.018691368401050568, 0.04867687076330185, 0.0852646455168724, 0.015958141535520554, 0.08541751652956009, 0.024514533579349518, 0.06897403299808502, 0.08062617480754852, 0.01192440465092659, 0.09258779138326645, 0.019498126581311226, 0.09098506718873978, 0.04092593863606453, 0.0319661907851696, 0.012533765286207199, 0.044683296233415604, 0.07827676832675934, 0.05203082039952278, 0.051715947687625885, 0.006932854652404785, 0.0299335066229105, 0.025288108736276627, 0.07470732927322388, 0.08212108910083771, 0.09230484068393707, 0.018865711987018585, 0.037686921656131744, 0.09276336431503296, 0.01877245306968689, 0.055147506296634674, 0.0679682195186615, 0.06135767698287964, 0.06857988238334656, 0.0877937600016594, 0.08806832134723663, 0.006895709782838821, 0.0074166059494018555, 0.06162351742386818, 0.03999254107475281, 0.09413205087184906, 0.08239161223173141, 0.04063151404261589, 0.043588243424892426, 0.08207296580076218, 0.09301935881376266, 0.06861837208271027, 0.04215221479535103, 0.06623591482639313, 0.01302393525838852, 0.03946162015199661, 0.019432304427027702, 0.07280995696783066, 0.01811147853732109, 0.036169588565826416, 0.022066503763198853, 0.08042550832033157, 0.024641595780849457, 0.06188424676656723, 0.048448845744132996, 0.033628109842538834, 0.07212710380554199, 0.031076714396476746, 0.015786070376634598, 0.07018017023801804, 0.015785232186317444, 0.09253843128681183, 0.09031186252832413, 0.03661546856164932], [0.05685610696673393, 0.021453766152262688, 0.051127318292856216, 0.060912951827049255, 0.062030185014009476, 0.08023859560489655, 0.013354863971471786, 0.04296049848198891, 0.04111982509493828, 0.032416872680187225, 0.011541631072759628, 0.07400652766227722, 0.025837071239948273, 0.037687480449676514, 0.07886659353971481, 0.058416325598955154, 0.059208400547504425, 0.06932687759399414, 0.025261756032705307, 0.037154216319322586, 0.027960624545812607, 0.0569605678319931, 0.04489736631512642, 0.037789277732372284, 0.0925833210349083, 0.05470858886837959, 0.08318202197551727, 0.016021255403757095, 0.006299056112766266, 0.020659156143665314, 0.025992287322878838, 0.02053084596991539, 0.07561181485652924, 0.02401900291442871, 0.024212293326854706, 0.020062968134880066, 0.019531723111867905, 0.06649963557720184, 0.0813603326678276, 0.05183982104063034, 0.03879217058420181, 0.012948457151651382, 0.05976308137178421, 0.07833963632583618, 0.020536677911877632, 0.07714539766311646, 0.08594716340303421, 0.019965240731835365, 0.08287524431943893, 0.045111704617738724, 0.06700250506401062, 0.0691305622458458, 0.05963293835520744, 0.027802320197224617, 0.050540998578071594, 0.022351836785674095, 0.0690455362200737, 0.07372833788394928, 0.06037065386772156, 0.027212411165237427, 0.01753322035074234, 0.08302085846662521, 0.016524795442819595, 0.06171102449297905, 0.03649406507611275, 0.066628597676754, 0.0931297093629837, 0.057179201394319534, 0.049589354544878006, 0.01963663101196289, 0.008784618228673935, 0.0786471888422966, 0.06764640659093857, 0.0915040373802185, 0.05760496109724045, 0.0633564293384552, 0.028488939628005028, 0.06335873901844025, 0.09028764069080353, 0.09077534079551697, 0.011244241148233414, 0.01976240798830986, 0.008544288575649261, 0.019290311262011528, 0.05208304151892662, 0.08057153970003128, 0.09031181037425995, 0.01668423041701317, 0.04533643275499344, 0.014116011559963226, 0.06655225157737732, 0.09154956787824631, 0.02147332765161991, 0.0804353803396225, 0.09030701220035553, 0.04006301239132881, 0.015051599591970444, 0.02775709703564644, 0.026523305103182793, 0.012226089835166931, 0.036832280457019806, 0.03955904021859169, 0.011669758707284927, 0.033912938088178635, 0.051830679178237915, 0.031802885234355927, 0.09368027746677399, 0.08803657442331314, 0.09249565750360489, 0.09051993489265442, 0.07971671968698502, 0.07077168673276901, 0.07218516618013382, 0.024827037006616592, 0.06608550250530243, 0.028728919103741646, 0.05960555747151375, 0.024577096104621887, 0.05418283864855766, 0.05105216056108475, 0.0485096201300621, 0.0070370882749557495, 0.06121097877621651, 0.09347255527973175, 0.01218128576874733, 0.0383991077542305, 0.00894254818558693, 0.07474567741155624], [0.07510798424482346, 0.08241426944732666, 0.02688092179596424, 0.08430347591638565, 0.09047980606555939, 0.041300855576992035, 0.05067254230380058, 0.06417665630578995, 0.023983705788850784, 0.0407123789191246, 0.04662220925092697, 0.007461875677108765, 0.08969774097204208, 0.06173687055706978, 0.07785720378160477, 0.025022735819220543, 0.08626388758420944, 0.03959186375141144, 0.08684183657169342, 0.044412609189748764, 0.062144383788108826, 0.02805151417851448, 0.018476001918315887, 0.06567031145095825, 0.03678083419799805, 0.0778486579656601, 0.04587210342288017, 0.06493737548589706, 0.059850361198186874, 0.06834372133016586, 0.045562081038951874, 0.055896610021591187, 0.04897695034742355, 0.07901301980018616, 0.017847802489995956, 0.06902944296598434, 0.05087977275252342, 0.0339491069316864, 0.022160036489367485, 0.0750826895236969, 0.04782958701252937, 0.06394866853952408, 0.01291675865650177, 0.014475177973508835, 0.0857229232788086, 0.054528601467609406, 0.00794040784239769, 0.05221930518746376, 0.041915372014045715, 0.0735897421836853, 0.02267824299633503, 0.07529977709054947, 0.06838048994541168, 0.013400480151176453, 0.03576719015836716, 0.05576120689511299, 0.05865326523780823, 0.055010221898555756, 0.023032451048493385, 0.09352052956819534, 0.03979857265949249, 0.07078433036804199, 0.010126996785402298, 0.08109376579523087, 0.09355644136667252, 0.06520199775695801, 0.02727869339287281, 0.054763272404670715, 0.027589082717895508, 0.020719878375530243, 0.04293276369571686, 0.011310696601867676, 0.02688971906900406, 0.033497508615255356, 0.08873090147972107, 0.07945771515369415, 0.019824426621198654, 0.013009946793317795, 0.04184764251112938, 0.09257326275110245, 0.009911678731441498, 0.017890315502882004, 0.03726343438029289, 0.04853426665067673, 0.08686140179634094, 0.09037548303604126, 0.04708905518054962, 0.07520685344934464, 0.07992511987686157, 0.008641526103019714, 0.07913947105407715, 0.009494297206401825, 0.01152775064110756, 0.024914080277085304, 0.019214916974306107, 0.09125460684299469, 0.03683298081159592, 0.05894399434328079, 0.018534276634454727, 0.0627271831035614, 0.040814828127622604, 0.07837901264429092, 0.0535750538110733, 0.054112907499074936, 0.024537647143006325, 0.06030535697937012, 0.054879605770111084, 0.015900813043117523, 0.053867410868406296, 0.014465361833572388, 0.029259605333209038, 0.05261978134512901, 0.09234722703695297, 0.04380439221858978, 0.08171714842319489, 0.019944798201322556, 0.03477192670106888, 0.07156755775213242, 0.0757409855723381, 0.07594766467809677, 0.06180351600050926, 0.00981191173195839, 0.08230975270271301, 0.08952158689498901, 0.06283853948116302, 0.031093720346689224, 0.08340910822153091, 0.03818957880139351], [0.033222198486328125, 0.03644296154379845, 0.08229327946901321, 0.050320979207754135, 0.07121700048446655, 0.02989931032061577, 0.0760393738746643, 0.08283382654190063, 0.0772666186094284, 0.08497899025678635, 0.08715316653251648, 0.03137197345495224, 0.011734344065189362, 0.042089127004146576, 0.03168005123734474, 0.04476318508386612, 0.010292280465364456, 0.08228377252817154, 0.0065703801810741425, 0.05795822665095329, 0.05507896840572357, 0.018785903230309486, 0.03713837265968323, 0.07636544853448868, 0.06723423302173615, 0.09162209182977676, 0.05956317484378815, 0.016032490879297256, 0.08310174196958542, 0.07498407363891602, 0.012885481119155884, 0.06610170751810074, 0.042677149176597595, 0.07725291699171066, 0.04279869422316551, 0.03623339161276817, 0.09056035429239273, 0.08088470250368118, 0.022154172882437706, 0.041197821497917175, 0.043054454028606415, 0.024354318156838417, 0.05491407588124275, 0.033213648945093155, 0.06772708892822266, 0.06546816229820251, 0.013048041611909866, 0.02512141689658165, 0.07707128673791885, 0.08783973753452301, 0.06761330366134644, 0.019238360226154327, 0.05296318233013153, 0.06533128023147583, 0.047582536935806274, 0.03359758481383324, 0.030849510803818703, 0.017495296895503998, 0.04558779299259186, 0.041536446660757065, 0.08938302844762802, 0.006353661417961121, 0.085345059633255, 0.05963221937417984, 0.0938306525349617, 0.03577172011137009, 0.05323302745819092, 0.04781699553132057, 0.03939344733953476, 0.021320588886737823, 0.0345752015709877, 0.010247621685266495, 0.042537204921245575, 0.0701599046587944, 0.05105271935462952, 0.038674358278512955, 0.08596336841583252, 0.04490569978952408, 0.06198897585272789, 0.07201570272445679, 0.06330060958862305, 0.04083986207842827, 0.08831743150949478, 0.05045602470636368, 0.08028002083301544, 0.07181742042303085, 0.0635666698217392, 0.08767607063055038, 0.0722319707274437, 0.030760154128074646, 0.09319733083248138, 0.09068792313337326, 0.03511538356542587, 0.009581957012414932, 0.04319032281637192, 0.07463288307189941, 0.03706637769937515, 0.05186854302883148, 0.03823605179786682, 0.06360125541687012, 0.06630944460630417, 0.07280811667442322, 0.06759440898895264, 0.08389715850353241, 0.014860924333333969, 0.08430337905883789, 0.037301961332559586, 0.06595981121063232, 0.07678628712892532, 0.04554353654384613, 0.06454254686832428, 0.0678446888923645, 0.07623599469661713, 0.07286037504673004, 0.04801945015788078, 0.017244409769773483, 0.06688903272151947, 0.07439593225717545, 0.04773659259080887, 0.013953045010566711, 0.02014256827533245, 0.07115137577056885, 0.05264286696910858, 0.06294611096382141, 0.06744106113910675, 0.09032468497753143, 0.0062593817710876465, 0.092730812728405], [0.012665707617998123, 0.013919312506914139, 0.04581362381577492, 0.05878070741891861, 0.043291348963975906, 0.07882164418697357, 0.06763222813606262, 0.08735519647598267, 0.05805795267224312, 0.03518209606409073, 0.04361892119050026, 0.09342947602272034, 0.07552686333656311, 0.06750212609767914, 0.09334298223257065, 0.07712499052286148, 0.048613499850034714, 0.09191669523715973, 0.06905249506235123, 0.0639803558588028, 0.06257705390453339, 0.09333201497793198, 0.029460350051522255, 0.028557028621435165, 0.033592067658901215, 0.014820706099271774, 0.06671038269996643, 0.040882229804992676, 0.045622408390045166, 0.02834169939160347, 0.05534527450799942, 0.08900575339794159, 0.021639734506607056, 0.07098781317472458, 0.06070820242166519, 0.05217065289616585, 0.05323577672243118, 0.09324725717306137, 0.03828447684645653, 0.07437565922737122, 0.02658611536026001, 0.0706411674618721, 0.0261356383562088, 0.02908863127231598, 0.06467335671186447, 0.05160472169518471, 0.05040737986564636, 0.04641015827655792, 0.0671830028295517, 0.055081140249967575, 0.07421864569187164, 0.0730612650513649, 0.0502656064927578, 0.07493150234222412, 0.02803093008697033, 0.017213761806488037, 0.029885629191994667, 0.08054307103157043, 0.09099811315536499, 0.010121844708919525, 0.022289734333753586, 0.011951703578233719, 0.006468381732702255, 0.029387695714831352, 0.023584159091114998, 0.04490993171930313, 0.08474025875329971, 0.025901934131979942, 0.08963782340288162, 0.03416496515274048, 0.07570517063140869, 0.06703323125839233, 0.08336851000785828, 0.05117221921682358, 0.07525784522294998, 0.053778596222400665, 0.07473471760749817, 0.0112488754093647, 0.08699531853199005, 0.08354948461055756, 0.03892984241247177, 0.05284683406352997, 0.053486861288547516, 0.07993321120738983, 0.08972536772489548, 0.06663239002227783, 0.0476975254714489, 0.07969643175601959, 0.008033651858568192, 0.038614436984062195, 0.017613109201192856, 0.09244243800640106, 0.025570718571543694, 0.08812765032052994, 0.09261119365692139, 0.009713705629110336, 0.04336010292172432, 0.04116203263401985, 0.07393680512905121, 0.03787721320986748, 0.08360342681407928, 0.03454906493425369, 0.03550766408443451, 0.06073559820652008, 0.08732012659311295, 0.05286436900496483, 0.018283091485500336, 0.045597221702337265, 0.07989546656608582, 0.010087288916110992, 0.03714260831475258, 0.04296975955367088, 0.03395255655050278, 0.08345979452133179, 0.027872184291481972, 0.07781706005334854, 0.0627419501543045, 0.013654094189405441, 0.02563459239900112, 0.010522771626710892, 0.02853393740952015, 0.05116523429751396, 0.03161554038524628, 0.012967061251401901, 0.03105270117521286, 0.07343772798776627, 0.04924909770488739, 0.05242440477013588], [0.08948832005262375, 0.06911784410476685, 0.03165335953235626, 0.021698186174035072, 0.04595959186553955, 0.019142238423228264, 0.016246791929006577, 0.06177632883191109, 0.03996424749493599, 0.04036417603492737, 0.03589973598718643, 0.048495709896087646, 0.006082836538553238, 0.04801150783896446, 0.07926642149686813, 0.042249370366334915, 0.04519420489668846, 0.07210469245910645, 0.03937139734625816, 0.057993460446596146, 0.07297402620315552, 0.0912512019276619, 0.021851370111107826, 0.04200584068894386, 0.050836868584156036, 0.02964027039706707, 0.024740304797887802, 0.07717101275920868, 0.007008809596300125, 0.034599483013153076, 0.08681489527225494, 0.05465172603726387, 0.05877610296010971, 0.07141419500112534, 0.024027395993471146, 0.02074987255036831, 0.05124743655323982, 0.07006169110536575, 0.009684566408395767, 0.08139637857675552, 0.03644269332289696, 0.07765593379735947, 0.07342393696308136, 0.09281884878873825, 0.0486692450940609, 0.024892495945096016, 0.06673029810190201, 0.07032116502523422, 0.011779412627220154, 0.07913928478956223, 0.05097479373216629, 0.08531273156404495, 0.09210526198148727, 0.05380101501941681, 0.05845792591571808, 0.07428426295518875, 0.04381072521209717, 0.03717295452952385, 0.023934856057167053, 0.01312672346830368, 0.07238633930683136, 0.018971171230077744, 0.040794048458337784, 0.03201519697904587, 0.09396721422672272, 0.054980192333459854, 0.036519236862659454, 0.0770006850361824, 0.04035535454750061, 0.08787515759468079, 0.04198853299021721, 0.02012026123702526, 0.09296027570962906, 0.06589525192975998, 0.06016368791460991, 0.011592693626880646, 0.08734672516584396, 0.028830233961343765, 0.01625750958919525, 0.06521272659301758, 0.013280138373374939, 0.033401086926460266, 0.01658567413687706, 0.015713714063167572, 0.04992042854428291, 0.017959699034690857, 0.08792073279619217, 0.02699350193142891, 0.01304672285914421, 0.053500112146139145, 0.06962020695209503, 0.08165818452835083, 0.04390942305326462, 0.009551044553518295, 0.09282263368368149, 0.09273125976324081, 0.007637251168489456, 0.03098227269947529, 0.07145483046770096, 0.05966460332274437, 0.014640174806118011, 0.04132187366485596, 0.0748407244682312, 0.08780575543642044, 0.08940932899713516, 0.05463783070445061, 0.03214230760931969, 0.07959552854299545, 0.033995844423770905, 0.02470484748482704, 0.056218087673187256, 0.031288325786590576, 0.05120724067091942, 0.04809427261352539, 0.022669333964586258, 0.05782613158226013, 0.0099051333963871, 0.04092952981591225, 0.06748069822788239, 0.09080011397600174, 0.08654996007680893, 0.013207241892814636, 0.023050885647535324, 0.009431440383195877, 0.0821530893445015, 0.03848511353135109, 0.08322657644748688, 0.06118391081690788], [0.09350940585136414, 0.012718331068754196, 0.01357218623161316, 0.03830944374203682, 0.05064384639263153, 0.05652868375182152, 0.07909350842237473, 0.027345754206180573, 0.08481857925653458, 0.029326550662517548, 0.050383031368255615, 0.006495274603366852, 0.042820848524570465, 0.06842055916786194, 0.02710787206888199, 0.03461912274360657, 0.02223901078104973, 0.04399910196661949, 0.01641971617937088, 0.033313799649477005, 0.05761423334479332, 0.09270109236240387, 0.0649341344833374, 0.08831217885017395, 0.08566993474960327, 0.06554654985666275, 0.051193948835134506, 0.06254954636096954, 0.07231831550598145, 0.006376828998327255, 0.06792391836643219, 0.07539649307727814, 0.018631454557180405, 0.09006145596504211, 0.025665028020739555, 0.07104925066232681, 0.045217905193567276, 0.02452988550066948, 0.041835762560367584, 0.061170585453510284, 0.05146707594394684, 0.08927697688341141, 0.05216133967041969, 0.010442938655614853, 0.015669390559196472, 0.08575659245252609, 0.052193865180015564, 0.024553310126066208, 0.03479868918657303, 0.0663166344165802, 0.04123419523239136, 0.07381239533424377, 0.07233583182096481, 0.028190787881612778, 0.011446673423051834, 0.06959855556488037, 0.08911744505167007, 0.012006208300590515, 0.00816505029797554, 0.033093925565481186, 0.09173209220170975, 0.0676446408033371, 0.08459438383579254, 0.06042966991662979, 0.08081599324941635, 0.05784003064036369, 0.05397825315594673, 0.08437074720859528, 0.049314357340335846, 0.03774750605225563, 0.014712341129779816, 0.09293153136968613, 0.027347054332494736, 0.04663483425974846, 0.05519821494817734, 0.02148432843387127, 0.015095703303813934, 0.038051165640354156, 0.06703343987464905, 0.042099375277757645, 0.05258039012551308, 0.05309296399354935, 0.008217249065637589, 0.08651971071958542, 0.06982261687517166, 0.06679245829582214, 0.0601494163274765, 0.07098781317472458, 0.06506260484457016, 0.02487291395664215, 0.08554693311452866, 0.09022518247365952, 0.08281758427619934, 0.07972855120897293, 0.036525290459394455, 0.029434451833367348, 0.044882845133543015, 0.07146980613470078, 0.0460137240588665, 0.011912662535905838, 0.03119787573814392, 0.0688776820898056, 0.04923906549811363, 0.04744276776909828, 0.0505966953933239, 0.09074098616838455, 0.01243450865149498, 0.052007224410772324, 0.014575690031051636, 0.06209666281938553, 0.06395890563726425, 0.07724923640489578, 0.00859348475933075, 0.020281504839658737, 0.01796477660536766, 0.08899812400341034, 0.02827037125825882, 0.06042668968439102, 0.07487581670284271, 0.0786798745393753, 0.09162721037864685, 0.012376930564641953, 0.05527704581618309, 0.03699164837598801, 0.06750617176294327, 0.05323891341686249, 0.052003782242536545, 0.06085534393787384], [0.028918268159031868, 0.05271926149725914, 0.07021593302488327, 0.07904167473316193, 0.09255603700876236, 0.04298443719744682, 0.00828377902507782, 0.08295275270938873, 0.04907963052392006, 0.013344574719667435, 0.04309145733714104, 0.06436650454998016, 0.06477658450603485, 0.014443282037973404, 0.031924840062856674, 0.055241793394088745, 0.051404427736997604, 0.041026756167411804, 0.05422579497098923, 0.08159364759922028, 0.05843977630138397, 0.053701501339673996, 0.09214656054973602, 0.0529574379324913, 0.018502265214920044, 0.06555435061454773, 0.03369085490703583, 0.08243405818939209, 0.04378948360681534, 0.07701319456100464, 0.02821117639541626, 0.06572675704956055, 0.038693323731422424, 0.07794472575187683, 0.06583596765995026, 0.036109089851379395, 0.056146517395973206, 0.018418747931718826, 0.012670323252677917, 0.020297493785619736, 0.015299756079912186, 0.08109553903341293, 0.08035387098789215, 0.049713052809238434, 0.04992973804473877, 0.03843085840344429, 0.030406616628170013, 0.00889662280678749, 0.0296543687582016, 0.06365272402763367, 0.017084993422031403, 0.0629616528749466, 0.0892476961016655, 0.023643527179956436, 0.08814552426338196, 0.04914668947458267, 0.020583175122737885, 0.08909092098474503, 0.01024629920721054, 0.06400464475154877, 0.01793653890490532, 0.0741984024643898, 0.014541488140821457, 0.03928336873650551, 0.09108828008174896, 0.05396009236574173, 0.023318137973546982, 0.009631913155317307, 0.005991902202367783, 0.03864634409546852, 0.07171779870986938, 0.057576898485422134, 0.04749620333313942, 0.07208935171365738, 0.08682675659656525, 0.08945756405591965, 0.08583960682153702, 0.0913323163986206, 0.05250023677945137, 0.048140592873096466, 0.03440523147583008, 0.04876893758773804, 0.036708079278469086, 0.07362198084592819, 0.013061817735433578, 0.07863490283489227, 0.06265775859355927, 0.07853157818317413, 0.02759048528969288, 0.04438300430774689, 0.09348278492689133, 0.0650695264339447, 0.039977286010980606, 0.024213120341300964, 0.05362679436802864, 0.025584816932678223, 0.05087917298078537, 0.036642082035541534, 0.05606549605727196, 0.03235147148370743, 0.05267646163702011, 0.07519510388374329, 0.03690100833773613, 0.009791184216737747, 0.03688577190041542, 0.0730530172586441, 0.03095712698996067, 0.02674148976802826, 0.08465559780597687, 0.03146938234567642, 0.010769668966531754, 0.09039992839097977, 0.04430440813302994, 0.008223138749599457, 0.09274537861347198, 0.0648403912782669, 0.09390390664339066, 0.08104264736175537, 0.056981056928634644, 0.0807618573307991, 0.031153015792369843, 0.058017101138830185, 0.040611010044813156, 0.021363815292716026, 0.07910231500864029, 0.03793516010046005, 0.04062017798423767, 0.011818937957286835], [0.009960468858480453, 0.08216097205877304, 0.08905354887247086, 0.006054125726222992, 0.09068629145622253, 0.008780408650636673, 0.06302698701620102, 0.09018449485301971, 0.035870350897312164, 0.05870049074292183, 0.07572530955076218, 0.08744624257087708, 0.019706785678863525, 0.09072751551866531, 0.04320627823472023, 0.05155804380774498, 0.07944191992282867, 0.010980527848005295, 0.030135907232761383, 0.03644394129514694, 0.026180503889918327, 0.013917226344347, 0.08626125007867813, 0.026899391785264015, 0.07711280137300491, 0.061428338289260864, 0.03698279708623886, 0.07918113470077515, 0.08526455610990524, 0.09028833359479904, 0.09180928766727448, 0.012341339141130447, 0.056257907301187515, 0.08006030321121216, 0.07286431640386581, 0.0295258741825819, 0.06031369790434837, 0.06811891496181488, 0.03646305575966835, 0.06626749783754349, 0.04449562355875969, 0.05701814219355583, 0.05188518017530441, 0.08851476013660431, 0.015105631202459335, 0.011710967868566513, 0.0192486010491848, 0.047341302037239075, 0.013470053672790527, 0.014601249247789383, 0.0755133330821991, 0.09373084455728531, 0.03301161527633667, 0.052522435784339905, 0.024647992104291916, 0.08151263743638992, 0.04617530480027199, 0.06423083692789078, 0.06782408058643341, 0.08576503396034241, 0.03481632471084595, 0.04378337413072586, 0.07960416376590729, 0.049714576452970505, 0.013194020837545395, 0.09205678850412369, 0.0450604073703289, 0.04880070313811302, 0.05697530508041382, 0.011057082563638687, 0.03835088014602661, 0.039768658578395844, 0.029813863337039948, 0.02091614156961441, 0.010772138833999634, 0.054597463458776474, 0.022399790585041046, 0.05632660537958145, 0.055901139974594116, 0.09347672015428543, 0.08599130809307098, 0.06964574009180069, 0.023936768993735313, 0.05220368504524231, 0.06681114435195923, 0.02171221189200878, 0.03839123249053955, 0.042205046862363815, 0.010107208043336868, 0.06419529020786285, 0.07255172729492188, 0.09055440127849579, 0.04572195187211037, 0.08148269355297089, 0.04271480813622475, 0.01438351720571518, 0.05829082801938057, 0.07140094041824341, 0.045115381479263306, 0.023939961567521095, 0.05004565045237541, 0.038480330258607864, 0.04463014379143715, 0.026302846148610115, 0.08417247235774994, 0.030479662120342255, 0.04753168672323227, 0.020883599296212196, 0.026797359809279442, 0.009074553847312927, 0.050564415752887726, 0.09226720780134201, 0.05136965215206146, 0.09335174411535263, 0.01709253340959549, 0.05118409916758537, 0.056234415620565414, 0.08350636810064316, 0.0351107120513916, 0.04806559905409813, 0.009661320596933365, 0.04169180244207382, 0.03514432907104492, 0.03644891828298569, 0.0151028111577034, 0.08210580796003342, 0.06516878306865692, 0.006111845374107361], [0.07076838612556458, 0.04030023142695427, 0.08967102319002151, 0.04340926185250282, 0.06872918456792831, 0.0563996396958828, 0.013483826071023941, 0.012479007244110107, 0.045385152101516724, 0.025006704032421112, 0.05352163314819336, 0.044754888862371445, 0.012864802032709122, 0.0774705708026886, 0.011704325675964355, 0.04066377878189087, 0.058355219662189484, 0.006111744791269302, 0.03137211129069328, 0.022610928863286972, 0.09048470854759216, 0.02774195559322834, 0.0519956536591053, 0.08233433961868286, 0.022667964920401573, 0.010127343237400055, 0.04460747912526131, 0.08316468447446823, 0.02450587786734104, 0.010374873876571655, 0.08133169263601303, 0.04669938236474991, 0.08681933581829071, 0.015585444867610931, 0.013673875480890274, 0.08180595934391022, 0.025386637076735497, 0.02897218056023121, 0.064634770154953, 0.05630546063184738, 0.05274230241775513, 0.02916296198964119, 0.059579119086265564, 0.07205575704574585, 0.0564313605427742, 0.03537185117602348, 0.06636465340852737, 0.05837156996130943, 0.08377423137426376, 0.04757380858063698, 0.06999418884515762, 0.07878553122282028, 0.04644345864653587, 0.07104121148586273, 0.014175832271575928, 0.06697140634059906, 0.040978848934173584, 0.05071844533085823, 0.07480596750974655, 0.06314422190189362, 0.078041210770607, 0.010270599275827408, 0.08482306450605392, 0.014658663421869278, 0.014125041663646698, 0.03830810263752937, 0.02689150534570217, 0.04678485915064812, 0.07835735380649567, 0.08740104734897614, 0.07315978407859802, 0.018166955560445786, 0.06290361285209656, 0.019820787012577057, 0.04226018115878105, 0.024298321455717087, 0.012037750333547592, 0.011466465890407562, 0.09070713073015213, 0.01955859176814556, 0.023322047665715218, 0.03381304442882538, 0.09301187843084335, 0.02487918920814991, 0.029936788603663445, 0.07454033195972443, 0.037333909422159195, 0.04252792149782181, 0.04488496854901314, 0.06705128401517868, 0.036949023604393005, 0.03566518425941467, 0.05038820952177048, 0.04145442694425583, 0.0912783071398735, 0.017466016113758087, 0.009452953934669495, 0.0343770906329155, 0.027074143290519714, 0.009718261659145355, 0.011594962328672409, 0.027168141677975655, 0.050280533730983734, 0.03392334282398224, 0.08566813170909882, 0.026630016043782234, 0.09226839244365692, 0.019246773794293404, 0.027182308956980705, 0.06434987485408783, 0.04755215346813202, 0.06581997871398926, 0.04042701795697212, 0.042591795325279236, 0.03615284711122513, 0.07262393832206726, 0.07829681038856506, 0.08596071600914001, 0.08271227777004242, 0.05349844694137573, 0.07118338346481323, 0.029805012047290802, 0.008421454578638077, 0.07416210323572159, 0.02092854306101799, 0.09136824309825897, 0.021769631654024124, 0.08191516250371933], [0.02665206976234913, 0.006777279078960419, 0.01415376365184784, 0.01059400662779808, 0.089958056807518, 0.009996477514505386, 0.016623321920633316, 0.08709749579429626, 0.051366984844207764, 0.04962751269340515, 0.08698973804712296, 0.03662963584065437, 0.024377893656492233, 0.008679848164319992, 0.08385494351387024, 0.0757061168551445, 0.03311540186405182, 0.09007550776004791, 0.047038037329912186, 0.06311698257923126, 0.02393816038966179, 0.05122166872024536, 0.02120540663599968, 0.05527680367231369, 0.005919855087995529, 0.03703172132372856, 0.06305202841758728, 0.07330437004566193, 0.007205728441476822, 0.09279407560825348, 0.052805569022893906, 0.07988572120666504, 0.07727512717247009, 0.06937984377145767, 0.0862601175904274, 0.03662353754043579, 0.045873548835515976, 0.03889353200793266, 0.05470322072505951, 0.07156932353973389, 0.014439299702644348, 0.04918704181909561, 0.05168958008289337, 0.07650397717952728, 0.04352996498346329, 0.03107084520161152, 0.013108521699905396, 0.06142028048634529, 0.08866337686777115, 0.015025541186332703, 0.07959466427564621, 