{"model.0.weight": [[0.16989193856716156, -0.00650506466627121, -0.0996372401714325, 0.1733502894639969, -0.053480371832847595, -0.10033197700977325, -0.3011927306652069, 0.13319799304008484, 0.2611828148365021, -0.11459663510322571, -0.14800362288951874, 0.00837896391749382, 0.02054823935031891, 0.1528169810771942, -0.1791318655014038, -0.006444928236305714, -0.11105290055274963, -0.08922947943210602, 0.052832916378974915, -0.21193933486938477], [0.14328010380268097, 0.24115972220897675, -0.21193963289260864, 0.05408625304698944, -0.001301150768995285, 0.14175072312355042, 0.18201759457588196, -0.24196535348892212, -0.3372610807418823, 0.04264450818300247, -0.0422268882393837, 0.1002279669046402, 0.20559026300907135, -0.03983478993177414, -0.1451191008090973, 0.028893105685710907, 0.3180115520954132, 0.2063634693622589, 0.19480857253074646, -0.1566508710384369], [0.21593716740608215, 0.18770010769367218, 0.0808277577161789, 0.11137425899505615, 0.016702182590961456, 0.19668897986412048, -0.05013610050082207, 0.182806134223938, -0.29598647356033325, 0.295549213886261, 0.09799774736166, 0.16953754425048828, 0.019075199961662292, 0.177496537566185, -0.25076404213905334, 0.09539323300123215, -0.2730965316295624, 0.20448392629623413, 0.272003173828125, -0.08885256201028824], [0.15871761739253998, -0.20383375883102417, -0.2889840006828308, 0.11799807101488113, 0.21478164196014404, -0.21786251664161682, 0.2942030429840088, -0.026486342772841454, 0.196428120136261, -0.2503895163536072, 0.12567546963691711, -0.118155337870121, 0.1576894223690033, 0.09225906431674957, 0.16093416512012482, 0.04567960277199745, 0.16371923685073853, 0.1688559204339981, 0.14891460537910461, -0.26345694065093994], [0.1125919297337532, 0.12714773416519165, 0.27303946018218994, 0.15660527348518372, 0.17662446200847626, -0.050530172884464264, 0.12971509993076324, -0.005856923758983612, 0.2393934279680252, 0.07064588367938995, 0.1664331704378128, -0.05174912512302399, 0.06068597361445427, 0.12297976016998291, -0.12804749608039856, -0.19751699268817902, 0.3005604147911072, 0.1752777397632599, 0.31816229224205017, -0.22575366497039795], [-0.14334294199943542, -0.08270414173603058, -0.09248168766498566, -0.030858241021633148, 0.1700444519519806, -0.16211244463920593, -0.06239908188581467, -0.07022348046302795, 0.3206688463687897, -0.19137759506702423, -0.25206583738327026, -0.10144449025392532, 0.036017775535583496, -0.19134344160556793, -0.2702251076698303, 0.28204405307769775, 0.20018698275089264, -0.008212022483348846, -0.18665990233421326, 0.16112911701202393], [-0.03806955739855766, 0.13678210973739624, 0.06256797909736633, -0.1643316149711609, -0.02820602059364319, -0.1819130927324295, -0.16252461075782776, 0.010728664696216583, -0.05173807218670845, 0.09242871403694153, 0.0756145790219307, -0.1467234045267105, -0.15272019803524017, 0.2603565454483032, -0.04055752232670784, 0.2494116723537445, 0.20982307195663452, 0.12096700817346573, 0.10483916848897934, 0.08530789613723755], [-0.051709745079278946, -0.1819380819797516, 0.027480190619826317, -0.21329446136951447, -0.1826387643814087, 0.09424442052841187, -0.15396490693092346, -0.07448242604732513, 0.0982704609632492, -0.11925408244132996, -0.16450469195842743, -0.11253920942544937, 0.30372053384780884, 0.18510398268699646, -0.0386587455868721, -0.28918391466140747, -0.028146088123321533, 0.13216933608055115, 0.1386995166540146, -0.2949066162109375], [0.022877804934978485, 0.1466837227344513, -0.07665234804153442, -0.05746936798095703, -0.19099612534046173, 0.13935236632823944, -0.07957480102777481, 0.047364670783281326, 0.2795182168483734, -0.15958532691001892, -0.15836812555789948, 0.00301186740398407, 0.0981978103518486, -0.2605174779891968, -0.06693214178085327, -0.10815650969743729, -0.15993085503578186, 0.17559564113616943, -0.2684825360774994, 0.023353274911642075], [0.3254157304763794, -0.08195976167917252, 0.24222531914710999, 0.3177708387374878, 0.0890941321849823, -0.028486095368862152, 0.044934630393981934, -0.22129607200622559, 0.05327434465289116, -0.03386525809764862, -0.2131592035293579, -0.24454079568386078, -0.22115463018417358, 0.10131748020648956, -0.014414630830287933, -0.2793084979057312, 0.09727710485458374, 0.2576358914375305, -0.10765248537063599, -0.12290973216295242], [-0.07309859246015549, -0.2934204936027527, -0.23079374432563782, 0.26562029123306274, -0.10683976113796234, 0.13490897417068481, 0.14264914393424988, 0.11970803141593933, -0.07453982532024384, -0.024165630340576172, 0.3448251783847809, 0.168953537940979, -0.08458690345287323, 0.21473637223243713, -0.11384330689907074, 0.25841024518013, -0.2810955047607422, 0.07247056066989899, -0.18549498915672302, -0.03580911457538605], [0.07007765769958496, -0.16626502573490143, 0.009163469076156616, -0.06464046984910965, 0.012929823249578476, 0.24811065196990967, 0.17101193964481354, 0.16877120733261108, 0.05028757452964783, -0.2882739007472992, -0.13678120076656342, 0.026786118745803833, -0.14420056343078613, 0.24192297458648682, 0.019769396632909775, 0.022487852722406387, 0.12981116771697998, 0.008757371455430984, -0.31422045826911926, -0.18883463740348816], [0.03177351877093315, 0.14489266276359558, 0.12440863996744156, 0.0664765015244484, 0.06923268735408783, -0.029806258156895638, 0.04138373211026192, 0.108329176902771, -0.05741581320762634, 0.19889797270298004, -0.193716362118721, -0.09320183098316193, 0.22795602679252625, 0.1259884238243103, -0.0028185024857521057, -0.05864023417234421, -0.21769772469997406, -0.2751598358154297, 0.14612337946891785, 0.1458824872970581], [0.1121833547949791, -0.05010899528861046, 0.24834933876991272, 0.1190960481762886, 0.24160568416118622, 0.016454309225082397, -0.0747087225317955, -0.2535721957683563, 0.046973731368780136, 0.09864702820777893, 0.06205887347459793, -0.1383918970823288, 0.34490281343460083, -0.15795812010765076, -0.16872984170913696, 0.22591722011566162, -0.09879190474748611, -0.23709435760974884, -0.2847921550273895, 0.1018814742565155], [0.2399124801158905, -0.18617761135101318, -0.18754155933856964, 0.02209588885307312, -0.1449362337589264, -0.05186370760202408, -0.11252344399690628, 0.3327157497406006, -0.038956962525844574, -0.2022651582956314, -0.15191584825515747, 0.19230340421199799, -0.10100653022527695, 0.23006068170070648, -0.1869470179080963, -0.19572508335113525, 0.1788530945777893, 0.010531961917877197, -0.11215847730636597, -0.16325058043003082], [-0.19926518201828003, 0.322445809841156, -0.25880327820777893, -0.2546566426753998, -0.05185580626130104, 0.05014538764953613, -0.00254647433757782, -0.0657118707895279, 0.16237935423851013, -0.04814175143837929, -0.016303885728120804, 0.07239575684070587, 0.002518005669116974, 0.0037941746413707733, -0.04302158206701279, 0.2430364191532135, -0.09381133317947388, -0.16840295493602753, 0.028963834047317505, 0.3049421012401581], [-0.03874487057328224, 0.15578146278858185, 0.1493302434682846, 0.03137378394603729, 0.1809687614440918, 0.2080482542514801, -0.06545326858758926, -0.08964230120182037, 0.0426858589053154, -0.06705924868583679, 0.22143210470676422, 0.199154794216156, -0.09628318250179291, -0.038852326571941376, -0.14829206466674805, -0.05870100110769272, 0.04323903098702431, 0.003956682048738003, 0.17241069674491882, -0.11969929933547974], [0.12169282883405685, 0.35073569416999817, 0.17818552255630493, 0.20608261227607727, -0.1270449161529541, -0.12133738398551941, 0.2033301293849945, 0.10979542881250381, 0.08417095988988876, 0.19329848885536194, -0.11562088876962662, 0.12982341647148132, 0.03421327471733093, 0.273543119430542, -0.0789455994963646, 0.20082616806030273, -0.026738949120044708, -0.046988096088171005, 0.07819928228855133, -0.09212524443864822], [0.14528599381446838, 0.09259316325187683, -0.011123836040496826, 0.16266371309757233, 0.32313621044158936, 0.11757690459489822, -0.19622746109962463, -0.1862385869026184, 0.07859931886196136, -0.21386849880218506, -0.1980554759502411, 0.10579875856637955, 0.06428991258144379, 0.009076960384845734, -0.18555858731269836, 0.23813453316688538, 0.12191025912761688, -0.21447108685970306, -0.02305048704147339, -0.04385479539632797], [-0.12414397299289703, -0.06564715504646301, 0.1946670264005661, 0.07828588783740997, -0.1550174057483673, 0.14161057770252228, -0.29836827516555786, -0.08482606709003448, -0.14099176228046417, 0.16631990671157837, 0.20792295038700104, 0.1547355353832245, 0.012025455944240093, -0.07747802883386612, 0.0716501772403717, -0.16167958080768585, -0.2534105181694031, 0.08958771079778671, 0.05749630182981491, 0.06476496905088425], [0.04550334811210632, 0.17234081029891968, -0.03323100507259369, 0.1921277791261673, -0.11127816885709763, -0.15285798907279968, 0.010281919501721859, -0.10613179206848145, 0.14453770220279694, -0.24510307610034943, -0.24289539456367493, -0.22793154418468475, -0.15790483355522156, 0.10275398194789886, -0.1239146739244461, 0.04390406608581543, 0.15825562179088593, -0.06683164834976196, 0.3537808358669281, -0.2209888994693756], [-0.08937191963195801, -0.23420880734920502, -0.21571946144104004, 0.25508689880371094, 0.05546373873949051, -0.13044291734695435, 0.30974090099334717, 0.14301235973834991, 0.0220304224640131, -0.04206853359937668, -0.20118093490600586, 0.030391685664653778, -0.0638793408870697, 0.23480528593063354, 0.2018427699804306, 0.14198008179664612, 0.07274307310581207, 0.2321210503578186, -0.22279295325279236, -0.21152999997138977], [-0.03300224617123604, 0.030583716928958893, 0.21691623330116272, 0.3178132176399231, -0.09410889446735382, -0.20751598477363586, -0.2682161331176758, 0.05517564341425896, 0.20309266448020935, 0.15795758366584778, -0.2474881112575531, 0.11026202142238617, -0.19113308191299438, -0.044474244117736816, 0.281020849943161, -0.07769768685102463, 0.1426493525505066, -0.08531655371189117, 0.20785319805145264, -0.26197490096092224], [0.02044200710952282, -0.1272585391998291, 0.23478223383426666, -0.18262852728366852, 0.29989591240882874, -0.200862854719162, -0.08135246485471725, 0.3498937487602234, 0.06931367516517639, 0.13279013335704803, -0.06940005719661713, -0.08333532512187958, 0.034133151173591614, 0.2326808124780655, 0.14304028451442719, -0.2073391079902649, -0.1995873898267746, 0.2697628140449524, -0.1231423020362854, 0.19702571630477905], [-0.15753744542598724, -0.061083272099494934, 0.2700190544128418, -0.13120481371879578, 0.25620579719543457, 0.278165340423584, 0.035727594047784805, -0.17048484086990356, 0.17687413096427917, -0.32169967889785767, 0.15983644127845764, -0.1210261732339859, -0.044546470046043396, 0.056997574865818024, 0.14643734693527222, 0.05384830757975578, 0.2501618266105652, -0.18223348259925842, 0.20191359519958496, 0.0012052282691001892], [0.2843003571033478, 0.07872925698757172, -0.04974311590194702, -0.06931808590888977, -0.27340632677078247, -0.238765686750412, 0.30245721340179443, 0.04023383557796478, 0.1917535662651062, -0.01491180993616581, 0.11725189536809921, -0.1467473804950714, -0.034998998045921326, -0.06404218077659607, 0.24508392810821533, -0.03643537685275078, 0.16942718625068665, -0.009068578481674194, -0.07635386288166046, 0.10901807993650436], [-0.10256733000278473, -0.2591709494590759, -0.005870813503861427, 0.15007202327251434, 0.24250507354736328, 0.1172848641872406, 0.017674855887889862, 0.20956769585609436, -0.2923000454902649, -0.18106886744499207, 0.08229472488164902, -0.022749319672584534, 0.17460040748119354, -0.19819088280200958, -0.04508385807275772, -0.18695183098316193, 0.05394751578569412, -0.36013737320899963, -0.264740914106369, -0.07255937159061432], [0.3319847285747528, 0.0646873489022255, 0.2570715844631195, 0.06487629562616348, 0.05974673479795456, 0.08218558132648468, 0.07372105121612549, -0.2977791726589203, 0.026827402412891388, 0.08019225299358368, 0.11475320905447006, -0.054572463035583496, -0.01867900788784027, -0.2088581770658493, -0.21754415333271027, 0.20027810335159302, 0.3052142560482025, -0.16840821504592896, 0.16595453023910522, -0.13137689232826233], [-0.06276319921016693, 0.28116267919540405, 0.24558666348457336, 0.19932210445404053, -0.3046441972255707, -0.13414497673511505, 0.027613207697868347, 0.012469358742237091, -0.017101243138313293, 0.137420192360878, 0.09968891739845276, 0.1691034734249115, 0.10212884843349457, -0.18267251551151276, 0.2787163257598877, 0.12447842955589294, 0.2671787440776825, -0.19399519264698029, 0.3082873821258545, -0.12363795936107635], [0.03680877387523651, -0.012058578431606293, 0.3660505414009094, 0.05335178226232529, 0.026024259626865387, -0.14563532173633575, 0.031747832894325256, -0.06614923477172852, 0.29315218329429626, -0.18969503045082092, 0.22286707162857056, -0.1356460452079773, 0.03260871767997742, -0.19941776990890503, -0.018559042364358902, 0.16011732816696167, 0.09938297420740128, 0.09806923568248749, -0.1282142996788025, 0.30321604013442993], [0.08570987731218338, -0.23572270572185516, 0.2943560481071472, 0.016590319573879242, 0.13286280632019043, 0.2100779116153717, 0.21415115892887115, -0.0012507513165473938, 0.30334484577178955, -0.037568069994449615, -0.3428025543689728, 0.06042715907096863, -0.10304690152406693, 0.06480227410793304, 0.14723917841911316, -0.2991059422492981, 0.062385886907577515, -0.2623644769191742, 0.22405430674552917, -0.16760681569576263], [-0.03074735961854458, -0.08941718935966492, 0.17425104975700378, -0.21810632944107056, 0.06535933911800385, 0.12467152625322342, -0.015326142311096191, -0.07686062902212143, 0.03939632326364517, -0.05335535481572151, -0.04990660771727562, 0.17172034084796906, 0.2790396809577942, -0.17243607342243195, 0.2707676887512207, 0.04135945439338684, -0.012289687991142273, -0.16970574855804443, 0.0010515227913856506, -0.11317867040634155], [-0.13270308077335358, 0.12470122426748276, -0.14647817611694336, -0.02091621607542038, -0.06383699178695679, 0.26658159494400024, 0.10716243833303452, 0.12788452208042145, 0.07292558997869492, -0.23064658045768738, 0.21903714537620544, 0.26712679862976074, -0.10610631108283997, -0.1354672908782959, -0.17792543768882751, -0.19969916343688965, 0.007755723316222429, 0.09094342589378357, -0.28569960594177246, 0.15007199347019196], [-0.0881471112370491, -0.011804554611444473, -0.02918213978409767, -0.0935816615819931, 0.17267699539661407, 0.024355821311473846, 0.06620677560567856, -0.20264932513237, -0.04302266240119934, -0.07852350175380707, -0.03304454684257507, 0.12387628853321075, -0.12126031517982483, 0.3416704833507538, 0.0722426027059555, -0.07221726328134537, -0.15607692301273346, 0.14328065514564514, 0.1394956409931183, 0.10148836672306061], [0.04544427618384361, -0.2258019745349884, 0.17764979600906372, -0.10047823935747147, -0.08492071181535721, -0.18029586970806122, -0.04356089606881142, -0.1709330528974533, 0.01604757085442543, -0.07070376724004745, -0.20051665604114532, 0.09299823641777039, 0.1278497874736786, 0.22653049230575562, 0.17381305992603302, -0.22877390682697296, -0.029704049229621887, -0.11503662914037704, -0.15699487924575806, -0.06359106302261353], [-0.18602338433265686, -0.25087934732437134, 0.10121484100818634, -0.0818006843328476, 0.1793484091758728, 0.19515299797058105, -0.020994387567043304, 0.02818218246102333, -0.0940995141863823, -0.1544080674648285, 0.022100314497947693, -0.062127500772476196, 0.06845458596944809, -0.1008363664150238, -0.2288047969341278, 0.24330578744411469, -0.07341542840003967, -0.16675931215286255, -0.14820288121700287, 0.26253804564476013], [0.02496306225657463, 0.22130867838859558, 0.11450608819723129, -0.2756150960922241, -0.1278853565454483, -0.048823632299900055, -0.07664063572883606, 0.13705019652843475, -0.10679305344820023, 0.08072485774755478, -0.1680050939321518, 0.1777413934469223, -0.013508884236216545, -0.17500412464141846, 0.20894892513751984, -0.23186451196670532, 0.07005521655082703, -0.16885124146938324, -0.10493512451648712, 0.11560829728841782], [0.2087169885635376, 0.05644445866346359, -0.10185500979423523, 0.056777890771627426, 0.18707959353923798, 0.09438848495483398, -0.00922548957169056, -0.011949274688959122, 0.009986326098442078, 0.10291098058223724, -0.11119157820940018, 0.21374337375164032, 0.12066599726676941, 0.223625048995018, 0.2991243302822113, 0.1607883721590042, 0.324603796005249, -0.26712730526924133, 0.23871678113937378, 0.009427187964320183], [0.027488991618156433, -0.17200517654418945, -0.1538144052028656, -0.04811738058924675, 0.07590159773826599, -0.32241129875183105, -0.07399613410234451, 0.03363611549139023, 0.271132230758667, -0.2017953246831894, -0.25093257427215576, -0.13755325973033905, 0.1303861141204834, -0.20423920452594757, 0.2898217439651489, 0.1359914392232895, -0.03228355944156647, 0.3546127676963806, 0.16423287987709045, 0.15483033657073975], [-0.04768548905849457, 0.29076072573661804, 0.014922261238098145, 0.039531171321868896, 0.05142086744308472, -0.21459060907363892, 0.057163938879966736, -0.20950815081596375, 0.14062488079071045, 0.2265879213809967, 0.2422948181629181, 0.11830619722604752, 0.12258931994438171, 0.12006035447120667, 0.20168384909629822, 0.04475633054971695, -0.17326584458351135, 0.024241197854280472, -0.12851272523403168, 0.27404019236564636], [-0.24600879848003387, 0.2170998752117157, 0.0016151517629623413, 0.211281418800354, 0.004432976245880127, 0.010153248906135559, 0.09841323643922806, -0.12847183644771576, -0.28723660111427307, 0.10870980471372604, 0.11778028309345245, 0.053540993481874466, -0.09044971317052841, 0.15238453447818756, -0.26926925778388977, -0.03230486065149307, -0.17682503163814545, 0.03954986482858658, -0.09785804897546768, 0.09974727034568787], [0.006054358556866646, -0.2388702929019928, -0.19233115017414093, -0.06769734621047974, 0.2208852469921112, 0.21593311429023743, -0.1983862668275833, 0.09483646601438522, 0.005373530089855194, 0.17404121160507202, 0.3144354522228241, 0.3289761245250702, 0.18112950026988983, -0.03447842597961426, 0.07566754519939423, 0.13248905539512634, -0.00038938241777941585, -0.23381151258945465, -0.11773394048213959, -0.14751504361629486], [0.15121890604496002, 0.06378870457410812, 0.000625884160399437, 0.16576145589351654, -0.2871463894844055, 0.10611903667449951, 0.06087137386202812, -0.23049446940422058, 0.05194087699055672, 0.06971587240695953, 0.11257606744766235, -0.1375027745962143, 0.013454854488372803, -0.22729048132896423, 0.0626012459397316, -0.04381591081619263, 0.21864226460456848, 0.2732173204421997, -0.15208086371421814, 0.09098713099956512], [0.2566722631454468, -0.08101510256528854, -0.19113558530807495, -0.10578097403049469, 0.1380605399608612, 0.07483456283807755, 0.012685686349868774, 0.1371801346540451, 0.15744034945964813, -0.11511129885911942, -0.289218932390213, 0.28608399629592896, 0.04791364073753357, -0.15597787499427795, -0.08044996112585068, -0.25597673654556274, 0.20489725470542908, -0.2295522838830948, 0.005704641342163086, -0.07866968959569931], [-0.11723265796899796, -0.17684438824653625, 0.31167396903038025, -0.055528558790683746, -0.019485723227262497, 0.11185365915298462, -0.028279904276132584, 0.10252471268177032, -0.08884519338607788, 0.10778854042291641, 0.016010597348213196, 0.11353690177202225, 0.05007077753543854, 0.2387189269065857, 0.1985449492931366, 0.08456070721149445, -0.06689884513616562, -0.2444349080324173, 0.14206847548484802, -0.054841049015522], [0.3053610324859619, 0.13533616065979004, -0.23639002442359924, 0.1557018756866455, 0.09508708119392395, -0.040646784007549286, -0.09718525409698486, -0.05358376353979111, -0.2713894844055176, -0.17652934789657593, -0.13795800507068634, 0.16348601877689362, -0.14064836502075195, -0.1410534679889679, 0.25437992811203003, 0.1448013186454773, -0.23276254534721375, 0.0870838463306427, -0.13281987607479095, -0.23965182900428772], [0.13428205251693726, 0.23949697613716125, -0.03819297254085541, 0.044992171227931976, 0.07725758105516434, 0.07772113382816315, 0.057967137545347214, 0.1151031106710434, 0.18850302696228027, -0.0056896209716796875, 0.23721596598625183, -0.02445688098669052, 0.23155274987220764, -0.11673851311206818, 0.23699869215488434, 0.19774524867534637, 0.29064106941223145, 0.14989471435546875, 0.20588728785514832, 0.1563962697982788], [0.3113018572330475, 0.260325163602829, 0.26185137033462524, 0.10049264132976532, 0.005995944142341614, -0.2755392789840698, 0.24073033034801483, -0.20729155838489532, 0.33399879932403564, 0.18291236460208893, 0.029195265844464302, -0.29593029618263245, -0.0560627281665802, 0.09195221960544586, -0.2515612542629242, -0.17477336525917053, -0.04061948508024216, -0.34600183367729187, -0.0065937042236328125, -0.08322163671255112], [-0.2865087389945984, 0.3633119463920593, 0.12471082806587219, -0.019294381141662598, -0.03292097523808479, 0.050100572407245636, 0.237692728638649, -0.03680969029664993, -0.20745956897735596, 0.1691749095916748, 0.23982954025268555, -0.07522526383399963, 0.1790808141231537, 0.18291887640953064, 0.15972918272018433, 0.17837585508823395, 0.24878519773483276, -0.29800689220428467, -0.15050464868545532, -0.1440410614013672], [-0.1467278003692627, -0.03872936964035034, 0.31922662258148193, 0.2900901138782501, -0.20392431318759918, 0.1913422793149948, -0.052491676062345505, -0.09311728179454803, 0.1674593687057495, 0.12484237551689148, 0.17366233468055725, 0.21336348354816437, 0.014000721275806427, 0.3695788085460663, -0.26414746046066284, -0.12434333562850952, 0.11765241622924805, 0.14360585808753967, 0.1848723292350769, -0.19773340225219727], [-0.29425424337387085, 0.13395117223262787, -0.21505846083164215, -0.25913187861442566, -0.002949170768260956, 0.1368275135755539, -0.06047014519572258, 0.014719728380441666, -0.09529341757297516, 0.012058116495609283, 0.14067886769771576, 0.09746522456407547, 0.21789172291755676, 0.20103052258491516, 0.06929857283830643, -0.08585201948881149, -0.03407049551606178, -0.11671296507120132, -0.05694902688264847, 0.18261724710464478], [-0.012393355369567871, -0.3363969922065735, 0.019581157714128494, 0.028416182845830917, -0.08738481253385544, 0.31290602684020996, -0.18988117575645447, -0.28401854634284973, 0.2819024324417114, 0.1428367644548416, -0.0628768727183342, -0.19843342900276184, -0.03345440328121185, -0.02353738248348236, 0.36116617918014526, -0.1355418711900711, -0.10852015763521194, 0.16120809316635132, 0.1582881510257721, 0.2203148454427719], [0.07437393814325333, -0.08530022948980331, 0.09404660761356354, 0.14897899329662323, -0.01627255417406559, -0.1738516390323639, 0.26000797748565674, -0.16313917934894562, 0.14206838607788086, -0.00287734717130661, -0.09311872720718384, 0.04619993269443512, -0.19478201866149902, -0.22245633602142334, -0.1250956952571869, 0.055019211024045944, 0.18875761330127716, 0.07479517161846161, -0.07060027867555618, -0.21712711453437805], [0.30763375759124756, 0.29852741956710815, -0.11383160948753357, -0.03317851945757866, 0.09418932348489761, 0.10981787741184235, 0.09576680511236191, 0.08976557850837708, -0.1513647735118866, -0.19441407918930054, -0.08657552301883698, 0.1082148402929306, 0.13944412767887115, -0.10145387053489685, 0.14348489046096802, -0.031935177743434906, -0.26108139753341675, 0.02483491227030754, 0.015666455030441284, 0.11132386326789856], [-0.013462357223033905, 0.05776597559452057, -0.056156303733587265, -0.34155428409576416, -0.22757917642593384, 0.22742143273353577, 0.3380070924758911, 0.048644572496414185, 0.1539851576089859, 0.20104439556598663, -0.08815083652734756, -0.32578063011169434, 0.18800926208496094, 0.03331238403916359, 0.20007891952991486, 0.06882829964160919, -0.18813616037368774, 0.20146308839321136, -0.03468615561723709, -0.12339325249195099], [-0.11266334354877472, -0.1719982922077179, -0.0411105714738369, -0.11673273146152496, 0.057060159742832184, -0.14393700659275055, -0.3389141857624054, -0.006524371914565563, 0.2037503868341446, -0.023208461701869965, -0.2217891812324524, -0.01924518123269081, 0.2154276818037033, -0.14352944493293762, -0.2133234292268753, -0.08953748643398285, 0.0402296707034111, -0.23154258728027344, 0.08928938210010529, 0.06950309872627258], [0.10609595477581024, -0.19105535745620728, -0.2105046510696411, -0.17507928609848022, -0.09472441673278809, 0.11057935655117035, 0.08178231120109558, 0.09756128489971161, -0.27153998613357544, 0.163809671998024, -0.050176866352558136, 0.17124906182289124, 0.015606777742505074, -0.043841101229190826, -0.08517272770404816, 0.1652914136648178, 0.1971740573644638, 0.15571202337741852, -0.17581331729888916, 0.10299327969551086], [-0.3196374177932739, 0.312873899936676, -0.23390096426010132, -0.14782702922821045, -0.27795466780662537, -0.11220094561576843, 0.21209236979484558, 0.28859272599220276, 0.19669955968856812, 0.055872902274131775, -0.07303723692893982, -0.18878579139709473, 0.0074250102043151855, -0.14548462629318237, -0.2801493704319, -0.1506834328174591, 0.08768758177757263, 0.25137874484062195, 0.13115790486335754, 0.26326215267181396], [0.17672298848628998, 0.12265811860561371, -0.21763402223587036, -0.12698841094970703, 0.15756072103977203, 0.01521407812833786, 0.1535382866859436, 0.22798043489456177, -0.21573196351528168, -0.1582220196723938, -0.28411680459976196, -0.01775478571653366, -0.16655473411083221, 0.012779262848198414, 0.10205741226673126, 0.3309704661369324, 0.05384558439254761, -0.11103739589452744, 0.3153952360153198, 0.09893465787172318], [-0.04234150052070618, 0.29626375436782837, 0.16998940706253052, -0.2853347361087799, 0.02059117518365383, 0.19546757638454437, -0.007126976735889912, -0.10527623444795609, -0.08189032971858978, 0.02373354882001877, 0.029715508222579956, -0.11259407550096512, 0.07054409384727478, 0.02118401974439621, 0.15664011240005493, -0.16027949750423431, -0.020010069012641907, 0.16881220042705536, -0.23708714544773102, -0.16514712572097778], [-0.1321549415588379, -0.15828636288642883, -0.03759746626019478, -0.243769571185112, 0.08350083231925964, 0.08482720702886581, -0.28239965438842773, -0.014263422228395939, -0.23480457067489624, 0.004236496984958649, 0.10266759991645813, -0.06240837275981903, -0.22694455087184906, -0.005829319357872009, -0.3385602831840515, -0.057580821216106415, 0.08268214017152786, -0.04526674747467041, -0.2446102350950241, 0.06255397200584412], [-0.06175754591822624, 0.01015888899564743, -0.1025715097784996, -0.22593647241592407, -0.08705002069473267, -0.26206186413764954, 0.10818380862474442, 0.023411549627780914, -0.3163865804672241, -0.2218342423439026, -0.1441967636346817, 0.04955694079399109, -0.10866500437259674, -0.030619483441114426, -0.11624936759471893, -0.18133032321929932, -0.03336634486913681, -0.301743745803833, 0.27097317576408386, 0.10898196697235107], [-0.23941484093666077, -0.3210536241531372, -0.2466316819190979, 0.06191348284482956, 0.05228021368384361, 0.005596660077571869, 0.05997081845998764, 0.19460850954055786, 0.09564018249511719, 0.144500732421875, 0.18913066387176514, -0.13179391622543335, -0.1415509581565857, 0.214558407664299, -0.08692245185375214, 0.0028081946074962616, 0.03886013478040695, 0.26423993706703186, -0.06496436148881912, -0.1582358181476593], [-0.14090478420257568, 0.11975401639938354, -0.09802374243736267, 0.2180728018283844, 0.2007133662700653, -0.056597646325826645, 0.10586811602115631, -0.1176925078034401, 0.27558696269989014, -0.03711193427443504, 0.2825334072113037, -0.01377765741199255, 0.1671586036682129, 0.20271888375282288, -0.12434007972478867, -0.09187235683202744, 0.03463339805603027, 0.2536742389202118, 0.057359978556632996, -0.19114463031291962], [-0.08787073194980621, 0.32800665497779846, 0.36291199922561646, 0.09947492182254791, 0.2239627242088318, 0.2078537493944168, -0.017692312598228455, 0.0712992325425148, -0.19661308825016022, -0.10435019433498383, 0.18007372319698334, 0.03020559251308441, -0.14930015802383423, 0.07315891236066818, -0.2006990909576416, 0.22104258835315704, 0.01797979325056076, -0.01700746640563011, -0.05601637810468674, 0.1999436765909195], [-0.12459027767181396, 0.234821617603302, -0.14449681341648102, -0.03012339025735855, -0.10525096952915192, -0.11795072257518768, 0.18282581865787506, 0.2435072362422943, 0.05726785957813263, -0.011634521186351776, 0.08035261183977127, -0.08046960085630417, 0.20425736904144287, 0.11692802608013153, 0.07875799387693405, -0.18100705742835999, 0.22532393038272858, 0.09450219571590424, 0.28330856561660767, 0.12925541400909424], [0.12260514497756958, -0.0931406319141388, -0.18792015314102173, 0.30982905626296997, -0.19038689136505127, 0.06277039647102356, -0.0841589942574501, -0.008101019077003002, 0.24498361349105835, -0.16375160217285156, 0.09961237758398056, -0.07953885197639465, 0.226162850856781, 0.36519426107406616, -0.07896405458450317, -0.10463356226682663, -0.08502042293548584, -0.22228845953941345, 0.2746086120605469, -0.28484341502189636], [-0.04633064195513725, -0.11183986812829971, 0.03553270921111107, -0.19907549023628235, -0.24298174679279327, -0.029032006859779358, 0.004249513149261475, -0.08359017968177795, 0.08166951686143875, 0.10132141411304474, 0.29680919647216797, 0.09645475447177887, 0.18598997592926025, 0.32926708459854126, 0.19037175178527832, -0.19013863801956177, -0.2411441206932068, -0.11445984244346619, 0.03558865189552307, 0.1111256554722786], [0.05308700352907181, 0.05855943262577057, 0.2501791715621948, -0.18604594469070435, -0.08133935928344727, -0.20919883251190186, 0.04306870698928833, -0.06152276322245598, 0.1802521049976349, -0.035101890563964844, -0.016733795404434204, 0.12305021286010742, 0.0717901960015297, -0.20515047013759613, 0.10657435655593872, 0.12984435260295868, -0.20717862248420715, -0.24223832786083221, 0.11271865665912628, -0.03664649277925491], [-0.1818694770336151, -0.25317659974098206, -0.10956782847642899, -0.23268218338489532, 0.14253583550453186, 0.05795206129550934, -0.11776481568813324, -0.3128054738044739, -0.06814338266849518, -0.08104798197746277, -0.05571996793150902, -0.07017035037279129, -0.22989371418952942, -0.254086434841156, -0.017366666346788406, -0.32965368032455444, -0.02927028387784958, -0.11698932945728302, 0.01135720033198595, 0.03143026679754257], [0.20474880933761597, 0.26004454493522644, -0.14854805171489716, -0.09761908650398254, 0.057772256433963776, -0.08837644755840302, 0.12086677551269531, -0.01995089277625084, 0.25070106983184814, -0.32655322551727295, -0.04757390916347504, 0.23418322205543518, -0.10377464443445206, 0.1704828441143036, -0.07120852172374725, 0.261256605386734, 0.23225802183151245, -0.04944564402103424, 0.31446149945259094, -0.17515376210212708], [-0.022979438304901123, 0.27751219272613525, 0.07147807627916336, 0.0009959489107131958, -0.10587307065725327, 0.0012687444686889648, -0.00800229236483574, -0.11428524553775787, -0.19455549120903015, 0.04090709239244461, -0.17981193959712982, -0.019890639930963516, -0.10457632690668106, -0.0732191801071167, -0.10796656459569931, 0.11170285940170288, -0.11861316859722137, -0.05604930967092514, 0.011312894523143768, 0.06068386882543564], [0.11053725332021713, -0.3260336220264435, 0.2410942018032074, 0.27208396792411804, 0.03950983285903931, -0.0879208967089653, -0.09978161007165909, 0.192120760679245, -0.05018819868564606, -0.11200939118862152, -0.003737330436706543, 0.218575581908226, -0.28853219747543335, 0.06969378888607025, 0.1521533727645874, 0.3742161691188812, -0.21510955691337585, 0.3074348568916321, 0.012344010174274445, 0.1577267348766327], [0.11644626408815384, 0.1235421672463417, 0.08502654731273651, 0.06352831423282623, 0.22410528361797333, -0.006969792768359184, -0.06748699396848679, -0.11147842556238174, 0.12757658958435059, 0.18442381918430328, 0.22341211140155792, 0.11518561840057373, 0.05905365198850632, -0.10971678048372269, -0.25556302070617676, 0.1278190016746521, -0.1348724663257599, -0.19724461436271667, 0.13626612722873688, -0.20199783146381378], [-0.08840803802013397, -0.13919636607170105, 0.12991097569465637, 0.10407152771949768, 0.2156846672296524, 0.0878366082906723, 0.17096447944641113, -0.0074214935302734375, 0.1896064579486847, -0.17180024087429047, -0.2329479157924652, -0.008154145441949368, 0.07280172407627106, 0.25037434697151184, -0.054935649037361145, 0.23729652166366577, -0.14267279207706451, -0.27426639199256897, -0.1473325937986374, 0.0076391324400901794], [-0.14036373794078827, -0.1611616462469101, -0.05204851180315018, -0.04425738751888275, -0.30858248472213745, 0.12312953174114227, 0.11218573153018951, -0.061060160398483276, -0.2644394040107727, 7.530581206083298e-05, 0.04928014427423477, 0.08037855476140976, -0.18911755084991455, -0.12245968729257584, 0.00043289922177791595, 0.2769089937210083, 0.060692306607961655, 0.20532986521720886, -0.04437313973903656, -0.11167935281991959], [-0.05232735723257065, 0.10137797147035599, -0.06346401572227478, -0.2195511907339096, -0.0038819164037704468, 0.23999229073524475, 0.09862270951271057, 0.04942108690738678, 0.0705985426902771, 0.32320865988731384, -0.15626533329486847, -0.14540526270866394, 0.12379419058561325, 0.14411459863185883, -0.20635470747947693, -0.10556839406490326, -0.019752733409404755, -0.04674065113067627, -0.0903252437710762, -0.15353788435459137], [-0.2293395698070526, 0.08144766092300415, -0.15639448165893555, 0.30316078662872314, 0.0520506352186203, -0.21819934248924255, -0.029547758400440216, 0.18548466265201569, 0.021976288408041, 0.06346981227397919, 0.12871041893959045, -0.06080951541662216, -0.020395226776599884, -0.0687057226896286, 0.20215019583702087, 0.273966908454895, 0.02622140198945999, 0.34455060958862305, -0.058139801025390625, 0.34324729442596436], [0.23825864493846893, -0.269517719745636, -0.11860980093479156, -0.23261988162994385, 0.20089416205883026, -0.08971237391233444, -0.1153964102268219, -0.015975072979927063, -0.04961070790886879, -0.041843168437480927, 0.21559156477451324, 0.2553977966308594, -0.24161238968372345, 0.2966732084751129, 0.12132267653942108, 0.2362401783466339, -0.1244874969124794, -0.23160672187805176, 0.015062041580677032, -0.027698755264282227], [0.14934459328651428, 0.033814407885074615, 0.1828887015581131, -0.08545602113008499, 0.20096047222614288, -0.1710282564163208, 0.21950723230838776, 0.03750455379486084, 0.12663111090660095, 0.09538866579532623, -0.10802154988050461, -0.036362048238515854, -0.02522234059870243, 0.11414820700883865, 0.3322945237159729, 0.19210460782051086, -0.3240244686603546, -0.09891664236783981, 0.03491160273551941, -0.1874256134033203], [0.1686359941959381, -0.008859291672706604, -0.12389936298131943, -0.11360412836074829, -0.05050578713417053, 0.10422708839178085, -0.01885494589805603, -0.06260599195957184, -0.05239691585302353, 0.07967019081115723, 0.11460559815168381, -0.03611812740564346, 0.12331590056419373, -0.22334811091423035, 0.2931935787200928, -0.19814333319664001, -0.025284551084041595, -0.028433907777071, 0.013400368392467499, -0.24722270667552948], [-0.21278886497020721, 0.012643873691558838, 0.20284253358840942, 0.003928929567337036, 0.021777810528874397, -0.01851506531238556, 0.09749177098274231, 0.07357926666736603, 0.09404416382312775, -0.0033225063234567642, -0.00038180407136678696, 0.21129465103149414, 0.3349166512489319, 0.18030650913715363, 0.03919191658496857, -0.3019633889198303, 5.615130066871643e-05, 0.07347607612609863, 0.2747640013694763, 0.09851638972759247], [0.106204554438591, 0.08397556841373444, -0.19386690855026245, 0.0859021246433258, 0.21364697813987732, 0.18541185557842255, -0.08575031161308289, 0.07116836309432983, 0.013978563249111176, -0.25043004751205444, -0.1908966600894928, 0.0411817729473114, -0.004200726747512817, -0.18616272509098053, 0.24071907997131348, -0.14058426022529602, 0.1688380241394043, 0.12436949461698532, 0.0756700187921524, -0.02564888820052147], [0.11879502236843109, -0.30053964257240295, 0.1401256024837494, -0.2241162657737732, 0.07328083366155624, 0.04309587925672531, -0.28792524337768555, -0.09210795164108276, -0.31923341751098633, 0.05502903461456299, -0.26403096318244934, 0.10750196874141693, 0.1424655020236969, 0.03555022180080414, -0.1640818864107132, 0.23457568883895874, 0.30967849493026733, 0.158899188041687, -0.030326422303915024, 0.07666576653718948], [0.06387537717819214, 0.11237514019012451, 0.03127410262823105, -0.18373607099056244, 0.015007197856903076, 0.24021056294441223, 0.2615599036216736, 0.30456870794296265, 0.05501522868871689, -0.21953600645065308, -0.0023010671138763428, 0.20633095502853394, -0.20450443029403687, 0.014068417251110077, -0.13511329889297485, -0.13396859169006348, 0.28224313259124756, 0.16860811412334442, 0.025224357843399048, 0.2166977971792221], [0.13982394337654114, -0.024834044277668, -0.17234094440937042, 0.04151306301355362, -0.06749122589826584, -0.10864374041557312, -0.0890239030122757, 0.11888238042593002, 0.08146193623542786, 0.021572403609752655, 0.07966649532318115, 0.06549055874347687, 0.02511979639530182, 0.060692183673381805, -0.288877010345459, -0.1448843777179718, -0.19644205272197723, 0.2537192702293396, 0.12934353947639465, -0.021588921546936035], [-0.11801458895206451, 0.044321946799755096, -0.2119755893945694, -0.11519695818424225, -0.13771679997444153, 0.1664867401123047, 0.23832380771636963, -0.2415352761745453, 0.0914628654718399, 0.2886028587818146, -0.13755732774734497, 0.191348135471344, 0.09607326984405518, -0.027145035564899445, 0.25789567828178406, -0.01897284761071205, 0.15239933133125305, 0.0068155378103256226, -0.24133403599262238, 0.10799861699342728], [-0.008061423897743225, 0.08320601284503937, -0.05246522277593613, -0.1464730203151703, -0.04733904451131821, 0.16971977055072784, 0.3560710549354553, -0.13812123239040375, 0.14110532402992249, -0.28822657465934753, 0.24587559700012207, -0.2789446711540222, -0.1252375841140747, 0.03388006240129471, 0.09511356055736542, 0.23489004373550415, 0.040078096091747284, -0.048163026571273804, 0.093704953789711, 0.13735058903694153], [0.1512504369020462, -0.12039311230182648, 0.1919880211353302, 0.29829442501068115, 0.25272107124328613, 0.19117875397205353, -0.20937523245811462, 0.0459723025560379, 0.09273135662078857, -0.1750756949186325, -0.22354602813720703, 0.21065586805343628, -0.09393005818128586, -0.06514516472816467, 0.1327560842037201, 0.2370099276304245, -0.044625911861658096, -0.12296805530786514, 0.3399658799171448, 0.13908988237380981], [0.22798392176628113, -0.1932024359703064, 0.11839644610881805, -0.10580641776323318, -0.21005931496620178, 0.07629929482936859, 0.18811221420764923, 0.022864829748868942, -0.23179687559604645, 0.06486348807811737, 0.21800729632377625, -0.04713687300682068, 0.05578593164682388, -0.30751222372055054, -0.16697363555431366, -0.23815302550792694, 0.23236359655857086, 0.1963164508342743, -0.06601646542549133, -0.27559158205986023], [0.026517705991864204, -0.16384628415107727, -0.2825905680656433, 0.19917568564414978, -0.00555969774723053, 0.14623479545116425, 0.267902135848999, 0.23924197256565094, -0.2004677653312683, 0.2495611011981964, 0.09899881482124329, -0.03640022128820419, -0.28880926966667175, 0.15156304836273193, 0.1851276159286499, 0.10371309518814087, 0.024447903037071228, -0.1867160201072693, 0.1588268280029297, -0.19794677197933197], [0.10781994462013245, 0.121519535779953, 0.14620858430862427, 0.03816615045070648, 0.046594779938459396, 0.05547640845179558, 0.07106200605630875, 0.03507372736930847, 0.2674836814403534, 0.06380706280469894, 0.055726587772369385, 0.09634975343942642, -0.12444740533828735, 0.0023713447153568268, 0.2300809919834137, 0.28221601247787476, 0.016893699765205383, -0.03915530443191528, -0.27381035685539246, -0.0026852115988731384], [0.16187480092048645, 0.21631810069084167, 0.06939338892698288, -0.0650922954082489, -0.29378849267959595, -0.3007149398326874, -0.06967530399560928, -0.0759011059999466, 0.16575254499912262, -0.007584854960441589, 0.04220370948314667, -0.17290425300598145, 0.24086810648441315, 0.07848336547613144, 0.12177892029285431, 0.2593831717967987, 0.3305143117904663, -0.23762401938438416, 0.20042401552200317, -0.3128037452697754], [0.16803869605064392, 0.09326671063899994, 0.015236549079418182, -0.1869928389787674, 0.03591656684875488, -0.18579769134521484, -0.1320151388645172, -0.29235363006591797, -0.03698891028761864, -0.34204691648483276, -0.3112853467464447, 0.06763698160648346, 0.125661700963974, -0.11203718185424805, 0.1697641909122467, -0.21882882714271545, -0.04771016538143158, 0.1288405954837799, 0.024877317249774933, -0.09480675309896469], [0.0636783242225647, -0.07593124359846115, 0.33214834332466125, -0.009847454726696014, 0.0016193464398384094, -0.26599031686782837, 0.2913416028022766, -0.1288948506116867, 0.055141791701316833, 0.284665048122406, -0.2715439200401306, 0.07712224125862122, -0.2598072290420532, 0.16712196171283722, 0.15157011151313782, -0.1641666442155838, 0.2944023311138153, -0.18234016001224518, -0.16605767607688904, 0.18860125541687012], [-0.20795446634292603, -0.2852829694747925, -0.0720951110124588, -0.1585346758365631, 0.24153819680213928, 0.06308817863464355, -0.04075762629508972, 0.04532453417778015, 0.03803609311580658, -0.23651152849197388, 0.32998085021972656, -0.05844545736908913, -0.17963413894176483, -0.026495542377233505, 0.1461896002292633, -0.13075563311576843, -0.1727685034275055, -0.18100303411483765, 0.16650336980819702, -0.038834329694509506], [-0.06551089137792587, -0.23824544250965118, -0.06468307226896286, 0.08108831197023392, 0.0628914013504982, 0.006460718810558319, 0.3465268015861511, -0.13990451395511627, 0.027111202478408813, 0.026907943189144135, -0.2459556758403778, -0.25381818413734436, -0.06812571734189987, 0.18540719151496887, 0.09486840665340424, 0.08960825204849243, 0.020792528986930847, -0.25106170773506165, 0.1172909140586853, 0.3176082968711853], [-0.03644901514053345, -0.14750392735004425, 0.07628298550844193, 0.06383556127548218, 0.03595075011253357, 0.14316286146640778, -0.24966752529144287, 0.1386934071779251, -0.08660595118999481, 0.1027718037366867, 0.2815743088722229, 0.13339859247207642, 0.1908927708864212, -0.16106712818145752, 0.24307265877723694, 0.15773211419582367, -0.08020319044589996, 0.25958359241485596, -0.00819782167673111, -0.06679366528987885], [0.10081906616687775, 0.14383801817893982, -0.3424765467643738, -0.00637057377025485, 0.31125324964523315, 0.19371378421783447, -0.15009362995624542, -0.17009058594703674, 0.15482506155967712, -0.16496607661247253, 0.06406988948583603, -0.011975392699241638, 0.10320756584405899, -0.08732360601425171, 0.19987209141254425, -0.16735616326332092, 0.005291885696351528, 0.24726270139217377, 0.005206109955906868, 0.07931549847126007], [-0.01272076740860939, 0.11374352872371674, -0.08743304014205933, -0.22466452419757843, 0.08076328039169312, 0.1413750946521759, 0.1367630511522293, 0.2543925642967224, -0.08160151541233063, -0.01378556713461876, -0.09677073359489441, -0.03991803899407387, 0.1169888824224472, -0.15611788630485535, 0.11762552708387375, 0.016706787049770355, 0.18666449189186096, 0.2003168761730194, 0.13742351531982422, -0.002769157290458679], [-0.26920047402381897, 0.03017672523856163, -0.13550791144371033, -0.12318381667137146, -0.09759984910488129, -0.001194790005683899, -0.015585755929350853, 0.14843858778476715, 0.13844096660614014, 0.11907341331243515, 0.08620376884937286, -0.20376268029212952, -0.2567594647407532, -0.07858255505561829, 0.2544984519481659, -0.08031322062015533, -0.016664378345012665, -0.03859414532780647, -0.10983429849147797, 0.2706056535243988], [-0.029750121757388115, -0.11566442996263504, 0.10431285202503204, -0.060444191098213196, -0.13229316473007202, -0.05250188708305359, 0.19263289868831635, -0.25892218947410583, 0.13207018375396729, -0.17177940905094147, 0.22329078614711761, 0.29693007469177246, -0.04222656786441803, 0.11855818331241608, 0.007883064448833466, -0.18004590272903442, -0.21459360420703888, -0.06898146867752075, -0.31454232335090637, -0.08012299239635468], [-0.22604845464229584, 0.20248904824256897, 0.06887809932231903, -0.18447008728981018, 0.061506278812885284, 0.10128709673881531, 0.135098397731781, -0.10341326147317886, 0.021973520517349243, -0.19075556099414825, -0.05405040830373764, -0.05804438143968582, 0.06078515946865082, -0.27694064378738403, 0.2997284233570099, 0.13624487817287445, -0.09718150645494461, -0.2044593095779419, 0.10717910528182983, 0.10108382999897003], [-0.20910076797008514, -0.2215176671743393, 0.05121111869812012, -0.02886546403169632, 0.11586730182170868, 0.03449664264917374, -0.18613633513450623, -0.3501511216163635, 0.11605875939130783, -0.1622433215379715, -0.20695726573467255, 0.05210481584072113, 0.11932329088449478, -0.030198734253644943, -0.07935341447591782, -0.037519216537475586, -0.07627379894256592, -0.07402753084897995, 0.11286050081253052, 0.1712339222431183], [-0.17086657881736755, -0.04053680598735809, 0.03520147502422333, -0.19554245471954346, 0.17222639918327332, -0.18923518061637878, 0.13909687101840973, -0.31355082988739014, -0.02545069344341755, 0.3425043225288391, 0.11207189410924911, -0.020222194492816925, -0.056703999638557434, -0.030942779034376144, -0.12445907294750214, -0.019588042050600052, 0.04217229038476944, -0.15419192612171173, 0.050638820976018906, 0.021373525261878967], [0.03671940416097641, -0.0588710680603981, 0.050228118896484375, 0.15750272572040558, -0.34915998578071594, -0.26043757796287537, -0.04661133140325546, -0.08905106782913208, 0.245314359664917, -0.13405022025108337, 0.20013542473316193, 0.08852675557136536, 0.07408091425895691, -0.13035745918750763, 0.1529819816350937, -0.010800212621688843, 0.0816069096326828, 0.1963103711605072, 0.3072879910469055, 0.3530091643333435], [-0.07422646880149841, -0.11812017858028412, 0.14812251925468445, 0.13437525928020477, -0.03889524191617966, -0.22084832191467285, 0.20190656185150146, -0.25180333852767944, 0.10867173224687576, -0.19311678409576416, -0.06864914298057556, 0.019825033843517303, -0.1836121529340744, -0.1846827268600464, -0.11185400933027267, 0.2700493037700653, 0.2870567739009857, 0.13520269095897675, 0.15207774937152863, -0.03952313959598541], [0.17534883320331573, 0.1996966004371643, -0.18697121739387512, -0.08169195055961609, -0.12209881842136383, 0.1443391889333725, -0.21778008341789246, 0.04292416572570801, 0.038747020065784454, 0.2971773147583008, 0.18854749202728271, 0.10460424423217773, -0.002661868929862976, 0.05844539776444435, -0.1719677448272705, -0.009286914020776749, -0.2138233333826065, 0.12200158834457397, 0.25895416736602783, 0.15934871137142181], [0.09595847129821777, -0.005574887618422508, -0.11100605130195618, -0.05040803179144859, -0.04774509370326996, 0.17680534720420837, 0.20047572255134583, 0.1893506795167923, 0.15098121762275696, -0.056495413184165955, 0.06020890921354294, 0.030672617256641388, 0.003702111542224884, 0.2603052854537964, -0.1635403335094452, -0.03279619663953781, 0.12595991790294647, 0.046573787927627563, 0.15921823680400848, -0.2782672643661499], [0.13439205288887024, -0.2830231487751007, -0.2899942696094513, -0.0005157403647899628, -0.080838143825531, 0.16833077371120453, -0.1676846146583557, 0.14237798750400543, -0.03529350459575653, 0.06482958793640137, -0.018860578536987305, -0.33976906538009644, 0.11140134185552597, 0.061300840228796005, 0.046096593141555786, 0.15786217153072357, -0.03434383124113083, 0.194692462682724, 0.17665834724903107, -0.1759304404258728], [-0.14094173908233643, -0.06191835179924965, 0.08683997392654419, -0.08728890120983124, -0.025594275444746017, -0.19684560596942902, -0.14842331409454346, -0.19750642776489258, 0.17894849181175232, -0.23593157529830933, 0.0018023662269115448, -0.19541580975055695, -0.21506060659885406, 0.3400607407093048, 0.253470242023468, 0.16487450897693634, -0.023795172572135925, -0.19247440993785858, 0.04579523205757141, 0.11686891317367554], [-0.1295640617609024, -0.23389065265655518, -0.20741474628448486, 0.05620461702346802, 0.06937100738286972, 0.003303609788417816, -0.15266487002372742, 0.040747255086898804, 0.1608867347240448, 0.33966484665870667, -0.1278948336839676, -0.08092662692070007, -0.18722285330295563, -0.1059531718492508, -0.2530898153781891, 0.12168209254741669, 0.006926782429218292, -0.08002880960702896, -0.06208318471908569, 0.3042318820953369], [0.015487585216760635, 0.029292598366737366, 0.09364482015371323, 0.08114778995513916, -0.02299288660287857, 0.17265641689300537, -0.17556579411029816, 0.06374997645616531, 0.13396987318992615, 0.136651873588562, -0.19783735275268555, 0.23951496183872223, -0.2425706684589386, -0.06891421973705292, 0.08332573622465134, -0.016746701672673225, 0.06273345649242401, 0.10633707791566849, 0.1611585021018982, 0.23479290306568146], [-0.310098797082901, 0.024256646633148193, -0.05825622379779816, -0.22215142846107483, 0.20556104183197021, 0.22279545664787292, 0.20675624907016754, 0.03515059873461723, 0.12082511931657791, 0.11079481244087219, -0.14429394900798798, -0.02581965923309326, -0.08386001735925674, -0.11571471393108368, 0.12883441150188446, 0.28521814942359924, 0.25057336688041687, 0.13545748591423035, 0.1744677573442459, -0.20318427681922913], [0.1490921825170517, -0.07107693701982498, -0.008854995481669903, -0.03929886221885681, 0.08691729605197906, 0.3028426468372345, 0.02173507958650589, 0.24885249137878418, -0.22742417454719543, -0.27682578563690186, 0.14262621104717255, -0.11498098075389862, 0.002453736960887909, -0.12489085644483566, 0.10897018015384674, -0.021902041509747505, 0.09093588590621948, 0.19574573636054993, 0.2519773840904236, -0.3392089903354645], [0.16053277254104614, -0.1363203525543213, -0.08287201076745987, 0.16979040205478668, 0.17501594126224518, -0.014697138220071793, -0.12483783066272736, 0.2043587863445282, -0.05817972868680954, -0.16299107670783997, -0.05396785959601402, -0.08781908452510834, 0.12336702644824982, -0.106216199696064, -0.21692074835300446, 0.1048954427242279, -0.04933011159300804, 0.11473291367292404, 0.09056064486503601, -0.1889965534210205], [0.22252382338047028, 0.0893479734659195, -0.11926932632923126, -0.08119674772024155, 0.031162075698375702, 0.1804279088973999, 0.14761237800121307, -0.15725821256637573, 0.31375062465667725, -0.08519193530082703, -0.04171740263700485, 0.006950043141841888, 0.15497609972953796, -0.02341139316558838, -0.01636984944343567, 0.08819720149040222, 0.194621279835701, 0.14083027839660645, -0.1453324407339096, -0.13562051951885223], [-0.03688884526491165, -0.19397181272506714, 0.002936646342277527, -0.06150957942008972, -0.14306826889514923, -0.07502810657024384, -0.013914361596107483, 0.1405034214258194, 0.026998672634363174, 0.27696043252944946, 0.1531832367181778, 0.1767786145210266, 0.05631694197654724, 0.11948170512914658, 0.24553164839744568, 0.022199947386980057, 0.19211198389530182, 0.19476518034934998, -0.037314679473638535, -0.02058584988117218], [0.12799954414367676, 0.2875964343547821, 0.003258158452808857, -0.012359902262687683, -0.25668102502822876, -0.1815483123064041, -0.14669346809387207, 0.15712304413318634, 0.03996802121400833, 0.038437098264694214, 0.20834606885910034, -0.15936650335788727, 0.10286431759595871, -0.29078397154808044, 0.2706620991230011, 0.014640562236309052, -0.09734103083610535, -0.02947389706969261, -0.24515461921691895, -0.15522173047065735], [0.27196502685546875, 0.2987510561943054, 0.05805367976427078, 0.21172063052654266, 0.07623853534460068, 0.24807223677635193, -0.11662321537733078, 0.20985646545886993, -0.162288635969162, 0.03781403601169586, -0.22422167658805847, 0.159483402967453, 0.11445058137178421, 0.17841662466526031, -0.21072334051132202, 0.02472217008471489, -0.19237181544303894, 0.08074215799570084, -0.14706477522850037, -0.13146282732486725], [0.16538846492767334, 0.16405454277992249, 0.25273171067237854, -0.04612455889582634, -0.02858712710440159, -0.10212144255638123, 0.17781753838062286, -0.2540281414985657, 0.11469322443008423, 0.09865865856409073, -0.06062781438231468, -0.11865120381116867, -0.07065881788730621, -0.14418239891529083, 0.23580192029476166, -0.2285970002412796, 0.2928459644317627, 0.2136974185705185, -0.030224937945604324, 0.09552475810050964], [0.05948201194405556, -0.046332478523254395, 0.1509014219045639, -0.19354158639907837, -0.2602822184562683, 0.07322454452514648, -0.25464096665382385, 0.28330957889556885, 0.2163422852754593, -0.01819157600402832, 0.15174883604049683, -0.27252721786499023, 0.21807074546813965, 0.08889400213956833, 0.20741882920265198, 0.1385568082332611, 0.06742769479751587, -0.0007443719077855349, -0.2886665463447571, -0.012207388877868652], [-0.21621935069561005, -0.05682159215211868, -0.236921489238739, 0.014855049550533295, -0.07409777492284775, -0.11714473366737366, -0.04216380417346954, -0.0992228165268898, -0.16741891205310822, -0.2613676190376282, 0.24371027946472168, -0.287662148475647, -0.2704228162765503, 0.19896429777145386, 0.066462941467762, -0.003046594560146332, 0.15696442127227783, 0.11018351465463638, -0.24521878361701965, -0.2035762220621109], [-0.21569639444351196, 0.04457451030611992, -0.006200462579727173, -0.04811690375208855, 0.13955248892307281, -0.05281790345907211, -0.09121138602495193, -0.00975249707698822, 0.13822878897190094, 0.11289842426776886, 0.34911325573921204, 0.053550414741039276, 0.17214828729629517, 0.2936399579048157, 0.09858205169439316, 0.09395737946033478, 0.19475947320461273, 0.26050978899002075, -0.07620629668235779, 0.20543240010738373], [-0.030651245266199112, 0.3171381950378418, 0.037673089653253555, 0.2568947672843933, -0.015736885368824005, -0.17321372032165527, 0.07436244934797287, -0.1469774842262268, -0.029882177710533142, -0.058206312358379364, -0.019238844513893127, 0.04228584095835686, -0.3064987063407898, -0.015888065099716187, 0.017790600657463074, -0.1901073157787323, -0.05830567330121994, -0.05329970642924309, 0.13258202373981476, 0.052700504660606384], [0.15875773131847382, 0.0731658786535263, -0.13178333640098572, -0.11142485588788986, 0.008427837863564491, -0.2337241768836975, -0.1518750786781311, -0.03151655197143555, 0.17618614435195923, 0.09240211546421051, 0.31443479657173157, 0.07271063327789307, -0.09177719801664352, -0.09980914741754532, -0.023206479847431183, -0.17429468035697937, -0.028216907754540443, -0.35570695996284485, -0.10410737991333008, -0.022023001685738564], [-0.0655534490942955, 0.07051992416381836, 0.05597452074289322, -0.006749756634235382, 0.3034493029117584, 0.11869163066148758, -0.25687888264656067, 0.23506687581539154, -0.07189486175775528, 0.18662703037261963, 0.07828277349472046, -0.0824141651391983, -0.05603605508804321, 0.23694485425949097, 0.09594709426164627, -0.2132018804550171, -0.10745055973529816, -0.030927293002605438, -0.18474188446998596, -0.03805817663669586], [-0.1277681291103363, -0.08275257050991058, 0.12929469347000122, -0.240996852517128, -0.20499452948570251, -0.04109743610024452, -0.12560293078422546, -0.13952136039733887, -0.2447178214788437, -0.027113497257232666, 0.01527855359017849, 0.15540087223052979, 0.05782594531774521, -0.2303916960954666, 0.17784559726715088, -0.2929762601852417, -0.11059646308422089, -0.2065219283103943, 0.28802087903022766, 0.10649289190769196]], "model.0.bias": [-0.26470106840133667, 0.21147200465202332, -0.03387517109513283, 0.18791189789772034, -0.08363485336303711, -0.12543359398841858, -0.27614089846611023, -0.12008008360862732, -0.18970486521720886, 0.304463267326355, -0.011627987027168274, -0.07214909046888351, 0.10485581308603287, 0.020158641040325165, -0.13074779510498047, -0.10220565646886826, 0.1433047503232956, -0.07715325057506561, -0.17061454057693481, 0.04444669932126999, -0.1816352754831314, 0.057425741106271744, -0.10550712049007416, 0.04484895244240761, -0.1722322702407837, 0.1417739987373352, 0.12354432046413422, -0.04268695414066315, 0.1678910106420517, -0.13303133845329285, 0.06434372812509537, -0.32172176241874695, -0.11980195343494415, 0.16748511791229248, -0.10570517182350159, 0.1519213765859604, 0.10410712659358978, -0.08516957610845566, -0.15143577754497528, 0.26191186904907227, 0.2773068845272064, 0.11173765361309052, 0.13697326183319092, 0.07095949351787567, -0.1497400403022766, 0.0319601334631443, -0.07629601657390594, -0.050458259880542755, -0.1428694725036621, 0.1845545917749405, 0.1390284299850464, -0.14889433979988098, -0.26126813888549805, 0.19534415006637573, -0.01808527112007141, 0.19837267696857452, -0.3593676686286926, 0.15427277982234955, 0.002070356160402298, 0.1865907609462738, -0.05779241770505905, -0.008466273546218872, -0.12210552394390106, 0.26751813292503357, -0.0330212265253067, 0.008664656430482864, -0.14718326926231384, -0.11808669567108154, -0.05710065737366676, -0.19646039605140686, 0.24275633692741394, -0.13092593848705292, 0.22017858922481537, -0.09390759468078613, 0.17023959755897522, -0.19284425675868988, 0.00974622368812561, -0.17814801633358002, -0.0855925977230072, 0.2214280664920807, 0.1366814821958542, -0.26677632331848145, 0.23210634291172028, 0.1990695595741272, -0.15831387042999268, -0.1844746619462967, 0.11853692680597305, -0.10784758627414703, 0.22929048538208008, -0.046772561967372894, -0.08868646621704102, 0.0695381686091423, -0.07326663285493851, -0.07705389708280563, 0.26499807834625244, -0.09026104211807251, -0.13145701587200165, 0.2381834238767624, 0.22602930665016174, 0.1433308720588684, -0.12068215757608414, 0.059019532054662704, 0.22829145193099976, 0.057957448065280914, -0.04215144366025925, -0.13584280014038086, 0.35187023878097534, -0.2090281993150711, 0.05025618523359299, -0.19217652082443237, 0.08069560676813126, -0.09767423570156097, 0.12191685289144516, -0.12102893739938736, -0.10602129250764847, 0.2888052463531494, 0.15873399376869202, 0.023384567350149155, 0.25743934512138367, -0.2626565396785736, -0.1414305418729782, -0.2315010279417038, 0.10122017562389374, -0.0019695833325386047, 0.33654356002807617, 0.12971045076847076, -0.16344352066516876, -0.08026811480522156], "model.2.weight": [[0.2952544093132019, -0.12848599255084991, 0.18224717676639557, 0.23534651100635529, -0.34314167499542236, -0.18788690865039825, 0.12280107289552689, 0.13267426192760468, 0.16645173728466034, 0.06267677247524261, 0.09295840561389923, 0.32351231575012207, -0.23292765021324158, 0.10707982629537582, 0.12834447622299194, 0.10997891426086426, -0.031988125294446945, 0.11701095849275589, -0.0008099935948848724, -0.01369011402130127, 0.29726141691207886, -0.042917072772979736, -0.1757396012544632, -0.035485148429870605, -0.1737077385187149, 0.2004678100347519, -0.16855865716934204, 0.19072505831718445, -0.08015882968902588, 0.2171442210674286, 0.005765561014413834, 0.10044389963150024, -0.16708827018737793, -0.0044060745276510715, 0.14031222462654114, -0.3099486529827118, 0.14218205213546753, -0.10538280010223389, 0.13767164945602417, 0.10152769088745117, -0.042831577360630035, 0.05151358246803284, 0.10839437693357468, -0.14859861135482788, 0.13600324094295502, -0.09966672956943512, -0.07513383030891418, -0.025280915200710297, 0.25102683901786804, -0.13747286796569824, 0.3034057319164276, 0.1372416764497757, -0.08001719415187836, 0.19332756102085114, -0.15833431482315063, -0.28040581941604614, 0.032631151378154755, -0.14829027652740479, 0.06339296698570251, -0.10863398760557175, -0.2475012242794037, -0.22043317556381226, -0.07322648912668228, -0.10123925656080246, -0.09955207258462906, 0.2170184701681137, 0.06367769837379456, 0.3603006601333618, -0.14135123789310455, 0.16245931386947632, -0.08667291700839996, -0.10464546084403992, 0.14058208465576172, -0.2198813408613205, 0.12339179962873459, -0.2658463418483734, 0.09017735719680786, -0.05568434298038483, -0.18572606146335602, 0.24973264336585999, -0.16754716634750366, -0.1422712355852127, 0.0495092011988163, 0.245012566447258, 0.017847217619419098, -0.08900901675224304, -0.1156010776758194, -0.2775801122188568, -0.07649610191583633, 0.0033603794872760773, -0.09989594668149948, -0.09044931083917618, -0.26233023405075073, -0.06606879085302353, 0.03605709597468376, -0.19849543273448944, -0.13479971885681152, 0.04448285698890686, -0.055390238761901855, 0.0026414506137371063, -0.18710550665855408, 0.050219371914863586, -0.0813029333949089, -0.13780848681926727, -0.04357299953699112, 0.12190995365381241, -0.12641912698745728, 0.1398109793663025, -0.15559187531471252, 0.20299869775772095, -0.017977911978960037, -0.04981722682714462, -0.0663287565112114, -0.2558925747871399, 0.15414443612098694, -0.05866813659667969, -0.012643449008464813, -0.23577740788459778, -0.08328849077224731, -0.032499223947525024, -0.10061266273260117, -0.32536518573760986, -0.03916450962424278, 0.2838658094406128, 0.1465376615524292, 0.07317429035902023, -0.19988742470741272, 0.11217975616455078], [0.025966156274080276, -0.06912005692720413, -0.16399157047271729, -0.20333899557590485, 0.07925522327423096, -0.023252492770552635, -0.034564875066280365, -0.1273738145828247, -0.04043895751237869, 0.19170963764190674, -0.1465509980916977, 0.2403763234615326, 0.07762584090232849, -0.06512078642845154, -0.0018962547183036804, 0.22595424950122833, -0.19735392928123474, 0.2919122576713562, 0.04238755255937576, -0.14688202738761902, -0.04112863168120384, 0.15859761834144592, -0.1764088124036789, -0.030695384368300438, 0.24290478229522705, 0.03742538392543793, 0.0346597284078598, -0.20780931413173676, -0.22187340259552002, 0.14400741457939148, -0.31583577394485474, 0.25135374069213867, 0.09872332960367203, 0.14229685068130493, -0.31341055035591125, 0.3166482448577881, 0.24915224313735962, 0.1499498039484024, 0.17246297001838684, 0.27203401923179626, -0.11605016887187958, 0.06144879013299942, -0.2909183204174042, 0.2734900116920471, 0.09915243834257126, -0.032866835594177246, 0.1984083205461502, 0.2845268249511719, -0.0658869668841362, -0.2398473173379898, 0.2880781292915344, -0.09285709261894226, -0.09139451384544373, 0.23180828988552094, 0.0010490268468856812, 0.0212135910987854, -0.12710197269916534, 0.02876342460513115, -0.10925057530403137, 0.1745215505361557, 0.24755752086639404, -0.11094659566879272, 0.12590952217578888, -0.13328510522842407, 0.12149663269519806, -0.11577654629945755, 0.003116920590400696, 0.020819544792175293, 0.2526632845401764, 0.25206512212753296, -0.007628612220287323, 0.10711406916379929, -0.01490701548755169, 0.044309839606285095, -0.08049242198467255, -0.08857952058315277, 0.1243353933095932, 0.2816590964794159, 0.20351028442382812, 0.21126726269721985, -0.04057160019874573, -0.13278335332870483, -0.09548941254615784, -0.1121501475572586, 0.22395485639572144, -0.01671348698437214, 0.16179507970809937, 0.17954804003238678, -0.0876370221376419, -0.21502900123596191, -0.0006352029740810394, 0.23933501541614532, -0.1419774740934372, -0.007265249267220497, 0.30449074506759644, 0.042418383061885834, -0.1576004922389984, -0.10848040878772736, -0.16197483241558075, -0.1356925070285797, -0.020134836435317993, 0.19933249056339264, -0.2203950732946396, 0.08160746842622757, 0.18095967173576355, 0.16025789082050323, 0.12651227414608002, 0.047805413603782654, -0.02412015199661255, 0.2470439225435257, 0.08085144311189651, 0.09829740226268768, -0.1284685730934143, -0.06827359646558762, 0.07343878597021103, 0.24714136123657227, 0.2638186514377594, -0.11460916697978973, -0.14555871486663818, 0.07071986794471741, 0.13560746610164642, -0.1431666612625122, 0.06779205799102783, 0.022421913221478462, -0.004427336156368256, -0.0894164890050888, -0.0024899467825889587, -0.2874818742275238], [0.18509340286254883, 0.3366617262363434, 0.019891411066055298, -0.06659029424190521, 0.07503770291805267, -0.09592286497354507, 0.10719642788171768, 0.046560198068618774, 0.1084059402346611, 0.09577278792858124, -0.1772543042898178, 0.05058155208826065, 0.3376135230064392, -0.06538310647010803, 0.20514518022537231, -0.005617573857307434, 0.12625718116760254, 0.3139204978942871, 0.26508402824401855, 0.2519170045852661, 0.13102030754089355, 0.0056702569127082825, 0.06265468895435333, 0.28071463108062744, 0.20359773933887482, 0.09330593049526215, -0.21199044585227966, 0.1868298202753067, -0.014260925352573395, -0.13332560658454895, 0.18286558985710144, -0.2605728209018707, -0.09613318741321564, 0.01984017714858055, 0.22687168419361115, 0.15803591907024384, -0.08686110377311707, -0.02029578387737274, 0.015260592103004456, 0.2646174430847168, -0.08200939744710922, -0.1786421239376068, 0.2460697740316391, -0.09473710507154465, 0.05904421955347061, 0.03257691115140915, 0.08011449873447418, 0.15746936202049255, -0.04092274233698845, -0.22920866310596466, 0.16844162344932556, 0.12845833599567413, 0.08570697903633118, -0.04422180354595184, -0.15952615439891815, -0.15131089091300964, -0.13952475786209106, 0.05192066729068756, -0.12820112705230713, -0.2805691361427307, -0.04641922935843468, 0.09772688150405884, -0.09560620039701462, 0.3245500922203064, -0.25299587845802307, 0.029503673315048218, -0.054612547159194946, 0.05146757885813713, -0.0013029759284108877, -0.14580488204956055, -0.022290995344519615, -0.23824463784694672, -0.05374433845281601, 0.17524385452270508, -0.19727107882499695, 0.3494620621204376, -0.12255094200372696, 0.22191640734672546, -0.13291114568710327, 0.3519393801689148, 0.03569421172142029, -0.1238868460059166, 0.19519829750061035, -0.021258562803268433, 0.09727407991886139, 0.12339905649423599, 0.00599076971411705, -0.26468127965927124, -0.2633037567138672, 0.11510154604911804, -0.07739254832267761, 0.00174633227288723, -0.21275782585144043, -0.021487385034561157, 0.03998546302318573, 0.12373785674571991, -0.010330580174922943, -0.06290996819734573, -0.0003528483211994171, -0.3160439133644104, -0.1177479475736618, -0.0015167631208896637, -0.058326076716184616, -0.031138963997364044, -0.336288720369339, -0.08614642173051834, -0.14359551668167114, 0.226578027009964, -0.11721713840961456, -0.03153807669878006, -0.05377605929970741, 0.07642748951911926, 0.12385720014572144, 0.14383497834205627, 0.14838719367980957, 0.1934717446565628, -0.2840310335159302, -0.2765430212020874, -0.02905517816543579, -0.13519716262817383, 0.2702363431453705, -0.03293551504611969, -0.28057652711868286, 0.017797447741031647, 0.16116422414779663, 0.1363162398338318, 0.005917496979236603, 0.002217605710029602], [-0.21348345279693604, 0.04764813184738159, 0.19355408847332, -0.2479538470506668, -0.04038451611995697, 0.039548829197883606, 0.037365369498729706, -0.11613370478153229, 0.13218466937541962, 0.2680666446685791, 0.0920911431312561, -0.06891214102506638, 0.044572070240974426, -0.02100045047700405, -0.23016372323036194, -0.045542486011981964, -0.16354364156723022, -0.1343391388654709, 0.07361527532339096, 0.2217664271593094, 0.06622255593538284, -0.12737484276294708, -0.0981191098690033, -0.29631292819976807, -0.11858707666397095, -0.12712419033050537, 0.11586392670869827, -0.18449674546718597, -0.02102966234087944, -0.062017735093832016, -0.30447039008140564, 0.2701123058795929, -0.13960114121437073, 0.3208206295967102, 0.3583149015903473, 0.008871383965015411, 0.1536475270986557, -0.2337723970413208, 0.11559531837701797, 0.14292070269584656, -0.02330099791288376, 0.2277328222990036, 0.07867404818534851, 0.20453089475631714, 0.11513994634151459, -0.05182734876871109, -0.14032214879989624, -0.02006848156452179, 0.020837251096963882, 0.2154381424188614, -0.05618709325790405, 0.16642944514751434, -0.023227255791425705, 0.09431594610214233, -0.013060495257377625, 0.05532798916101456, 0.1692410260438919, 0.14752337336540222, 0.09818296134471893, -0.15411405265331268, 0.238642156124115, 0.11533728241920471, 0.024477608501911163, 0.23350828886032104, 0.14177927374839783, 0.13564033806324005, -0.13637176156044006, -0.07888251543045044, -0.14126960933208466, -0.208145409822464, 0.21160054206848145, -0.25550130009651184, 0.022221311926841736, 0.3320504426956177, -0.13927939534187317, -0.11878620088100433, -0.3007601201534271, -0.34837624430656433, -0.15546230971813202, 0.1991156041622162, -0.028795011341571808, -0.33149924874305725, 0.11918661743402481, 0.12306778877973557, -0.2129412591457367, -0.057577695697546005, -0.1478012204170227, -0.005327610298991203, 0.08693775534629822, 0.12414878606796265, -0.12140051275491714, 0.005739517509937286, 0.07675077021121979, -0.020769551396369934, -0.14632828533649445, -0.053995341062545776, 0.1942976862192154, 0.12045909464359283, 0.12645959854125977, 0.066452756524086, 0.0023108161985874176, -0.2871837615966797, 0.26468849182128906, 0.00334099680185318, 0.311225950717926, 0.21758653223514557, 0.25779154896736145, 0.0015432387590408325, 0.1730116754770279, -0.04005485773086548, 0.06913693994283676, 0.10289120674133301, 0.1256738007068634, 0.2798934578895569, -0.10953833162784576, 0.2550429105758667, -0.08083303272724152, 0.07236826419830322, 0.017957352101802826, 0.180541530251503, -0.1201983392238617, 0.22019371390342712, -0.03614215552806854, -0.15870144963264465, -0.10185564309358597, 0.30584925413131714, 0.01695307344198227, 0.32584285736083984], [-0.16457462310791016, -0.15062393248081207, -0.12040960043668747, 0.04272884130477905, 0.02826067805290222, -0.17386922240257263, 0.3406493663787842, -0.22080188989639282, 0.04639440029859543, -0.01210961863398552, -0.1809309422969818, -0.09171772748231888, -0.19158890843391418, -0.01671585440635681, 0.011698663234710693, 0.30286189913749695, 0.027554500848054886, 0.22297382354736328, -0.03307636082172394, -0.15035805106163025, -0.12926310300827026, -0.07280980050563812, -0.0754900798201561, 0.03393568843603134, -0.16517546772956848, -0.06772761046886444, 0.013322696089744568, -0.2711796462535858, -0.1392783671617508, -0.291679322719574, -0.05014479160308838, -0.017969898879528046, -0.3132578134536743, 0.0018529444932937622, 0.1639956831932068, -0.21301010251045227, -0.21425054967403412, -0.18183887004852295, -0.23864641785621643, -0.17438338696956635, -0.15700100362300873, -0.13091127574443817, 0.07214028388261795, 0.27557167410850525, -0.03674725443124771, -0.052745990455150604, -0.05065523833036423, 0.07145781815052032, 0.03824153542518616, -0.16220083832740784, -0.18435470759868622, -0.04897136986255646, 0.03067488968372345, -0.03922571986913681, 0.1347847282886505, 0.20611441135406494, -0.17768193781375885, 0.04802228510379791, 0.004586085677146912, -0.04741467535495758, 0.038071319460868835, 0.19650742411613464, -0.22181546688079834, 0.1968359500169754, 0.22601987421512604, -0.07796946167945862, -0.0016921721398830414, 0.3012309670448303, -0.3369845449924469, 0.05326591432094574, -0.03904401883482933, 0.07554183155298233, 0.005959078669548035, 0.17812825739383698, 0.06639967858791351, -0.16227762401103973, 0.02706383913755417, 0.1277298927307129, -0.29017284512519836, 0.09387868642807007, -0.1302446722984314, -0.2565543055534363, 0.019461728632450104, -0.11329557746648788, 0.11383631080389023, 0.23874561488628387, -0.19530808925628662, 0.2778603434562683, 0.16522692143917084, 0.24024158716201782, 0.22514261305332184, -0.2805824279785156, -0.2777930498123169, -0.34137946367263794, -0.014107130467891693, 0.06510627269744873, -0.1142631471157074, 0.25249555706977844, -0.08067174255847931, 0.036651819944381714, -0.14019250869750977, 0.1982341706752777, -0.1519734114408493, -0.00018620025366544724, 0.09402158856391907, 0.022602736949920654, 0.03324873000383377, 0.23034411668777466, 0.03901826590299606, -0.1416121870279312, 0.10937941074371338, 0.13349288702011108, 0.30301588773727417, 0.08032944798469543, -0.08981678634881973, -0.18805798888206482, 0.004938311874866486, 0.12294816970825195, -0.29683196544647217, 0.07189170271158218, 0.11055862903594971, 0.18886235356330872, -0.14373156428337097, -0.2860910892486572, -0.21872174739837646, 0.21654054522514343, 0.29550179839134216, 0.13139353692531586], [0.21430017054080963, 0.12378118187189102, -0.19665037095546722, -0.18884050846099854, -0.051336754113435745, 0.224772110581398, -0.20257745683193207, -0.008863291703164577, -0.2025909721851349, 0.2412031888961792, -0.08478657901287079, -0.1486954689025879, 0.18648305535316467, -0.14066541194915771, 0.14575369656085968, 0.28970324993133545, -0.17329257726669312, 0.15905970335006714, 0.16838231682777405, 0.0011827200651168823, -0.19151976704597473, -0.01883319765329361, 0.08419830352067947, -0.1480395495891571, 0.07834963500499725, -8.402764797210693e-05, -0.2111659198999405, -0.23698195815086365, 0.27253293991088867, -0.007378630340099335, -0.15909487009048462, -0.2082730531692505, -0.032198719680309296, 0.03767513483762741, 0.21217256784439087, 0.09251321852207184, -0.19524991512298584, -0.02654365450143814, -0.02699381113052368, 0.22129680216312408, -0.066960908472538, 0.05540003255009651, 0.06088775396347046, -0.1988649219274521, -0.08554977923631668, -0.11416739225387573, 0.1340409368276596, 0.12071453034877777, -0.10231941938400269, -0.26563316583633423, -0.09250407665967941, 0.2863079309463501, -0.12460043281316757, -0.14546126127243042, -0.17972341179847717, 0.15653908252716064, -0.1443271040916443, 0.2542160749435425, -0.026505842804908752, -0.016378872096538544, -0.25567808747291565, 0.11330511420965195, -0.06543245911598206, -0.21762266755104065, 0.10263992846012115, 0.00010842829942703247, -0.03166525065898895, 0.2165451943874359, 0.05056595802307129, 0.2073318064212799, 0.21874305605888367, 0.12450636923313141, 0.1723259538412094, -0.149540975689888, -0.06145863234996796, 0.0773068219423294, -0.271718293428421, 0.11670508980751038, -0.2909221053123474, 0.13693344593048096, -0.20554602146148682, 0.17437367141246796, 0.1867612898349762, -0.09972557425498962, 0.14011886715888977, 0.19148914515972137, 0.16716250777244568, 0.20395854115486145, 0.2705840468406677, -0.03748686984181404, 0.003738418221473694, 0.24787546694278717, -0.07588177919387817, -0.26959165930747986, -0.27266615629196167, 0.2046792358160019, 0.11262739449739456, 0.05792524665594101, 0.10018400847911835, -0.03659406304359436, -0.10017653554677963, -0.0778561383485794, -0.0990820974111557, 0.1916770488023758, 0.18774154782295227, -0.2602064609527588, 0.21790367364883423, -0.12434343248605728, -0.2162432223558426, -0.10330288112163544, 0.20236831903457642, 0.13347212970256805, -0.0005697160959243774, -0.2520003616809845, 0.04922494292259216, -0.2558865547180176, -0.08058243989944458, -0.3024625778198242, 0.04363994300365448, -0.18954172730445862, 0.13745754957199097, -0.10805796831846237, -0.12766006588935852, 0.1318308264017105, -0.2160547971725464, 0.17059651017189026, -0.09224359691143036, -0.23780693113803864], [0.06329934298992157, -0.14644822478294373, 0.17345616221427917, 0.0008725635707378387, 0.1133820191025734, -0.11691649258136749, 0.050044383853673935, -0.029714234173297882, 0.20857921242713928, 0.022821679711341858, 0.0902300775051117, 0.15581700205802917, 0.2399829924106598, -0.10800051689147949, -0.11018800735473633, 0.07754804939031601, 0.20238004624843597, 0.0333428718149662, 0.23791146278381348, 0.041572704911231995, -0.14889751374721527, -0.07482299208641052, 0.2281922996044159, -0.11202285438776016, 0.0011517014354467392, 0.03386029228568077, -0.11953581869602203, 0.08519840240478516, 0.2538115680217743, -0.042122215032577515, 0.1879052221775055, -0.2653719186782837, -0.04287277162075043, -0.012849844992160797, -0.008765585720539093, -0.17346185445785522, -0.2646598815917969, 0.06550940871238708, 0.0662747174501419, 0.2630501985549927, 0.2101781666278839, -0.12156743556261063, 0.06383754312992096, -0.07320159673690796, -0.1006949171423912, -0.012433666735887527, 0.1944701224565506, 0.254028856754303, 0.11353165656328201, -0.11746389418840408, -0.1863221377134323, -0.1055029034614563, -0.1835288405418396, 0.08845927566289902, -0.01708410680294037, -0.25732702016830444, 0.11348014324903488, 0.030771154910326004, -0.20440930128097534, 0.023259297013282776, 0.03350000083446503, 0.14913113415241241, -0.029086913913488388, -0.09863562881946564, -0.1583995372056961, -0.12533751130104065, -0.1626833975315094, -0.0788506269454956, 0.10969148576259613, 0.09045232087373734, 0.045974355190992355, 0.07434234768152237, -0.2714821696281433, 0.2153802216053009, -0.12035830318927765, -0.2170085906982422, 0.22269167006015778, -0.006334193050861359, 0.2962726950645447, -0.29728177189826965, 0.2410295456647873, 0.1814616322517395, -0.05018778145313263, 0.10828365385532379, -0.10569779574871063, -0.2472994476556778, -0.19521844387054443, 0.12536433339118958, -0.2527824938297272, 0.18308663368225098, 0.09851285815238953, 0.15892884135246277, -0.1572134792804718, 0.029121167957782745, -0.021481595933437347, -0.09341641515493393, -0.04203241318464279, -0.15648745000362396, -0.0859764814376831, -0.15140733122825623, 0.04039639234542847, -0.09042686223983765, 0.2866170108318329, -0.05448199436068535, 0.02172691747546196, -0.0030740550719201565, 0.08264774829149246, 0.11125028878450394, -0.008308235555887222, -0.1129751205444336, 0.179783895611763, -0.06440701335668564, 0.06906234472990036, 0.08909867703914642, -0.15871372818946838, 0.11168266832828522, 0.06187225505709648, -0.13355238735675812, 0.2878882586956024, 0.012654969468712807, -0.10237185657024384, 0.08472917228937149, -0.3416152000427246, 0.13615046441555023, 0.18308843672275543, 0.046438563615083694, 0.0759434849023819, -0.09441529959440231], [0.02492380514740944, -0.018701910972595215, 0.2769634425640106, 0.05974271893501282, 0.22856484353542328, 0.2605680227279663, -0.1276635378599167, -0.08593663573265076, -0.06913386285305023, -0.061218295246362686, 0.21002262830734253, 0.0084562748670578, -0.2724553048610687, -0.24119843542575836, -0.039783135056495667, 0.20432424545288086, -0.15825225412845612, -0.23346669971942902, 0.186032235622406, 0.06331194192171097, 0.3098224401473999, -0.10607308149337769, -0.03364968299865723, 0.10306210070848465, -0.163748100399971, 0.35814276337623596, -0.18170024454593658, 0.19567149877548218, -0.11974500119686127, 0.24934841692447662, 0.2574027478694916, 0.07974264025688171, 0.15452754497528076, 0.16793683171272278, -0.03026100993156433, -0.030604178085923195, -0.1065543070435524, -0.16703014075756073, 0.1417403668165207, -0.00043252110481262207, 0.0021445155143737793, 0.1500922292470932, 0.13931125402450562, 0.07934299111366272, 0.1362098902463913, -0.18968957662582397, -0.1637340784072876, 0.03192718327045441, 0.18848714232444763, 0.133122980594635, 0.10262493789196014, 0.11204268783330917, 0.15908727049827576, -0.010391183197498322, -0.009656943380832672, -0.06807634234428406, -0.11350858211517334, -0.08837724477052689, 0.08116244524717331, -0.2300264835357666, 0.12466821074485779, -0.21147432923316956, 0.16975827515125275, 0.16661658883094788, -0.05039767920970917, -0.10990583896636963, -0.033302564173936844, -0.09113319218158722, -0.037604592740535736, -0.1697898507118225, -0.005549132823944092, 0.02078029327094555, -0.007904794067144394, 0.06217898800969124, -0.04369880259037018, 0.2803283929824829, 0.13146206736564636, -0.1332632154226303, -0.13087335228919983, 0.2715376019477844, -0.14773820340633392, 0.030301526188850403, -0.2825796604156494, -0.22022561728954315, -0.07724659889936447, -0.13149969279766083, 0.02195880562067032, -0.039966464042663574, 0.14276938140392303, -0.16651085019111633, 0.0457189679145813, -0.03180897980928421, -0.05135641619563103, -0.032794609665870667, -0.2906883955001831, 0.17060837149620056, -0.06316018849611282, -0.055582039058208466, 0.03211796283721924, -0.013522759079933167, -0.27300265431404114, -0.17953859269618988, 0.05484161525964737, -0.15427955985069275, -0.15740123391151428, 0.13453710079193115, 0.022231601178646088, -0.10586586594581604, 0.161153644323349, -0.16844084858894348, -0.1880016177892685, 0.1627536118030548, 0.11246636509895325, 0.06935498118400574, -0.08196277171373367, -0.01695895381271839, 0.05998916178941727, 0.1295132040977478, 0.08544708043336868, -0.1913127899169922, -0.24685826897621155, -0.12629085779190063, -0.04290478676557541, -0.029955729842185974, 0.018716901540756226, 0.09210528433322906, -0.0690801814198494, 0.14827167987823486], [0.12882280349731445, -0.279119074344635, 0.11740497499704361, -0.10667221248149872, -0.17598949372768402, -0.2790985703468323, 0.11305540055036545, -0.09320557117462158, 0.10154936462640762, 0.09028580784797668, -0.04007800668478012, -0.1692040115594864, -0.002880208194255829, 0.2298646867275238, 0.17299768328666687, 0.2321300357580185, -0.17059887945652008, 0.20509512722492218, 0.03823003172874451, 0.20855580270290375, -0.05495867505669594, -0.010103873908519745, 0.014494558796286583, 0.09376663714647293, 0.24282021820545197, 0.20340996980667114, -0.174495130777359, -0.03422744572162628, -0.007531702518463135, 0.044953353703022, 0.09843102842569351, 0.0931764766573906, 0.08061367273330688, -0.21128937602043152, -0.07467351108789444, -0.2108895182609558, 0.0038212835788726807, 0.043521374464035034, 0.13694965839385986, -0.07760705798864365, -0.11373228579759598, -0.026617810130119324, 0.1451258808374405, -0.18124791979789734, -0.03158387169241905, -0.15212644636631012, -0.3372660279273987, -0.027329158037900925, 0.041038304567337036, 0.10067036002874374, 0.0018596351146697998, -0.28598999977111816, 0.13812720775604248, -0.03786058723926544, 0.2259964495897293, -0.15375623106956482, -0.3059086203575134, -0.019221417605876923, 0.0777616873383522, -0.04043330252170563, -0.26016369462013245, -0.09234470874071121, -0.040361225605010986, 0.09714549034833908, 0.15010210871696472, 0.020393114537000656, 0.010111570358276367, -0.009103141725063324, -0.03647128492593765, -0.1888086199760437, 0.22338919341564178, 0.08258669078350067, 0.08579955250024796, 0.0623706579208374, 0.06819401681423187, -0.2922031879425049, 0.11746025085449219, -0.03164653852581978, 0.27184420824050903, 0.2661031186580658, -0.03383515775203705, 0.13410250842571259, -0.09280622005462646, -0.06383156776428223, 0.25621163845062256, -0.2270854264497757, 0.1221977174282074, -0.28190141916275024, -0.06564781814813614, 0.05381794273853302, 0.10399281233549118, -0.09213821589946747, 0.2067868411540985, -0.11850558966398239, 0.304780513048172, 0.260071724653244, 0.25243842601776123, 0.14702613651752472, -0.08184071630239487, 0.040375493466854095, -0.12954181432724, 0.08328643441200256, 0.047063298523426056, -0.03222133219242096, 0.29638516902923584, 0.18734265863895416, 0.18292266130447388, 0.09145978838205338, -0.10791204869747162, 0.1764066219329834, -0.05666617676615715, 0.18378978967666626, 0.22965864837169647, 0.03948730230331421, -0.001711399294435978, 0.2090166211128235, -0.28792625665664673, 0.17222702503204346, 0.0101708322763443, 0.01625038869678974, 0.0721004456281662, 0.2621457576751709, 0.10354340821504593, -0.024662204086780548, -0.22716183960437775, -0.222669780254364, -0.07585915178060532, -0.010080594569444656], [0.12134647369384766, -0.2582695782184601, 0.34516164660453796, -0.08721565455198288, -0.055746257305145264, 0.29745742678642273, 0.10284020006656647, 0.22301790118217468, -0.2913416922092438, 0.24699866771697998, -0.1275542676448822, -0.2620773911476135, 0.06258176267147064, -0.14762535691261292, -0.15305250883102417, 0.10959282517433167, 0.24846482276916504, 0.06960578262805939, 0.17068280279636383, 0.264911413192749, 0.09515324234962463, 0.08294038474559784, -0.07627581804990768, 0.08874210715293884, -0.1437482386827469, 0.0018057674169540405, 0.03457017242908478, -0.16244472563266754, -0.02115732431411743, -0.14991475641727448, 0.14638455212116241, -0.03544365614652634, 0.1318625956773758, -0.11095740646123886, 0.14978685975074768, -0.17611828446388245, -0.014518871903419495, -0.06022295355796814, 0.2016512006521225, -0.06936836242675781, -0.17424120008945465, 0.21327117085456848, -0.06160420924425125, 0.03776063024997711, 0.18786270916461945, 0.16717174649238586, 0.22008267045021057, 0.3426366448402405, 0.11529828608036041, 0.0070194341242313385, -0.1552186757326126, -0.0032899565994739532, 0.12795516848564148, -0.18033543229103088, 0.09357123076915741, -0.0004554241895675659, 0.1867426335811615, 0.3053656220436096, -0.17813464999198914, -0.33914715051651, -0.3143746852874756, -0.009796813130378723, 0.22310426831245422, -0.2655886113643646, 0.19072012603282928, -0.34361642599105835, 0.0975198820233345, -0.09286749362945557, 0.06487478315830231, 0.1576773226261139, 0.18411265313625336, -0.05221259966492653, 0.11508551239967346, 0.16734950244426727, 0.10823602974414825, 0.21886610984802246, 0.13774922490119934, 0.2156507521867752, -0.15311872959136963, 0.05666116625070572, 0.08723434060811996, 0.0675068125128746, -0.12519118189811707, 0.3390112519264221, 0.10004904866218567, -0.0893409252166748, 0.10426261276006699, 0.21472972631454468, -0.2967475652694702, -0.13871583342552185, 0.25439345836639404, -0.014660917222499847, -0.05756755545735359, -0.022329416126012802, 0.21916264295578003, -0.02220524102449417, -0.034644126892089844, -0.2034379541873932, 0.07634540647268295, 0.16345378756523132, -0.11456034332513809, -0.20566770434379578, -0.02080915868282318, 0.06653401255607605, -0.011108454316854477, 0.12176748365163803, 0.1597144603729248, 0.010702870786190033, 0.16889376938343048, 0.24344739317893982, 0.06078704074025154, -0.049168992787599564, -0.2154642641544342, -0.05561874061822891, 0.24375216662883759, -0.30740147829055786, -0.010593876242637634, 0.2142287641763687, 0.01846214383840561, 0.15320807695388794, -0.14143627882003784, 0.07219772040843964, -0.11499787122011185, -0.3127214014530182, -0.006659189239144325, 0.24760966002941132, -0.0780552327632904, -0.22319278120994568], [-0.052492476999759674, 0.24292320013046265, 0.12945985794067383, -0.26511281728744507, -0.015459783375263214, -0.08803202211856842, -0.06789083033800125, -0.06615401804447174, 0.10643190890550613, 0.15862765908241272, -0.0006462591700255871, -0.12712179124355316, -0.2631170153617859, -0.18595048785209656, 0.20036178827285767, 0.33583593368530273, 0.1942669153213501, -0.13985377550125122, -0.05636322498321533, -0.3002004623413086, -0.223169207572937, -0.29476237297058105, -0.05889338254928589, 0.16851980984210968, 0.038756147027015686, -0.008521094918251038, 0.04926721751689911, 0.07275599241256714, -0.24899692833423615, -0.1765618622303009, 0.07570891827344894, 0.14795860648155212, -0.057276759296655655, -0.08976522088050842, 0.1878242790699005, -0.034098148345947266, -0.1079961434006691, 0.03858066350221634, -0.14556771516799927, 0.1298075169324875, 0.07414351403713226, -0.13249579071998596, 0.2250651866197586, -0.19511982798576355, 0.163569375872612, -0.043677639216184616, -0.2544485330581665, 0.015443995594978333, 0.04891284555196762, 0.01273643970489502, -0.2365681231021881, -0.10006380826234818, -0.2345171719789505, 0.10044534504413605, 0.15751639008522034, -0.10170233994722366, -0.15556803345680237, 0.058300480246543884, 0.06648828089237213, 0.1480623185634613, 0.17221690714359283, -0.14828544855117798, 0.15216827392578125, -0.05213521048426628, 0.3021000623703003, -0.037710435688495636, -0.2780728340148926, 0.09059327840805054, -0.12985238432884216, -0.09423568099737167, -0.11378589272499084, 0.32340550422668457, 0.038991063833236694, -0.03695337474346161, -0.03488844260573387, -0.11639659106731415, -0.1282200664281845, -0.03725525736808777, -0.17909614741802216, -0.08651594072580338, -0.2734721004962921, 0.14862805604934692, 0.14150869846343994, 0.03423893824219704, -0.03692769259214401, 0.16984573006629944, 0.013115882873535156, 0.097388356924057, -0.028493575751781464, -0.01811271905899048, 0.083809033036232, 0.053864091634750366, -0.3219451308250427, 0.21722346544265747, -0.03598405420780182, 0.2725794315338135, -0.10434744507074356, -0.20769307017326355, 0.08027976751327515, 0.08210078626871109, 0.11122804135084152, -0.2858591079711914, 0.10185086727142334, 0.12377222627401352, 0.1262342929840088, 0.18638846278190613, -0.04193098098039627, 0.20280131697654724, 0.23298704624176025, -0.027255527675151825, -0.13688358664512634, 0.16034150123596191, -0.13073426485061646, -0.05020175501704216, -0.1729588508605957, -0.06770244240760803, -0.09902972728013992, 0.010872989892959595, 0.19418391585350037, 0.15090423822402954, -0.08967617154121399, 0.047393787652254105, 0.2831670045852661, -0.10665834695100784, 0.14741063117980957, 0.35450443625450134, 0.09706776589155197, -0.07303988933563232], [0.19762299954891205, -0.054952479898929596, -0.006773363798856735, -0.3026147484779358, 0.19483354687690735, 0.00047741085290908813, -0.03769181668758392, -0.19082693755626678, 0.037391021847724915, 0.008492428809404373, -0.163572758436203, 0.1370716542005539, 0.15335506200790405, 0.0057638660073280334, 0.00436682254076004, 0.034983765333890915, 0.26418232917785645, 0.17050373554229736, 0.013515736907720566, -0.11496347934007645, -0.0721205472946167, 0.13805173337459564, 0.04992517828941345, 0.26170921325683594, 0.22649718821048737, -0.09099753201007843, 0.31867507100105286, -0.16478869318962097, -0.14849093556404114, -0.005451689474284649, -0.18974760174751282, 0.21652017533779144, -0.2604064643383026, -0.15759479999542236, 0.13344313204288483, -0.1426434963941574, 0.017281480133533478, -0.1247389167547226, 0.08764554560184479, 0.1383233666419983, 0.10340914130210876, 0.021204449236392975, -0.08841795474290848, 0.048827316612005234, -0.14661437273025513, 0.18393486738204956, -0.291537344455719, 0.3202834725379944, -0.1499304175376892, -0.07871612906455994, -0.25300753116607666, 0.2423858791589737, 0.05116374045610428, -0.19061265885829926, -0.13953086733818054, -0.12339811027050018, -0.2826412320137024, 0.017483994364738464, -0.18425744771957397, -0.04511769860982895, 0.18587636947631836, 0.15699151158332825, -0.035445135086774826, 0.20102626085281372, -0.0996447205543518, -0.08304952830076218, -0.002349959220737219, 0.18737545609474182, -0.230651393532753, -0.22760695219039917, -0.08628839254379272, 0.04290052503347397, 0.028534892946481705, 0.011497055180370808, 0.0975523442029953, -0.12614984810352325, -0.20822076499462128, -0.12427225708961487, -0.326535165309906, -0.14342184364795685, 0.016718097031116486, 0.03356381133198738, -0.10891412943601608, -0.23908530175685883, -0.10061956942081451, -0.21366259455680847, -0.01760144531726837, -0.06885400414466858, -0.153931125998497, 0.1682068258523941, -0.14032301306724548, 0.12690062820911407, -0.045848194509744644, -0.20029859244823456, 0.0694560706615448, 0.08957692980766296, 0.061247050762176514, 0.13678008317947388, 0.18741053342819214, -0.20291683077812195, -0.3062937259674072, 0.2652653157711029, -0.2170732617378235, -0.2018222063779831, 0.05620723217725754, -0.20539312064647675, 0.10185268521308899, 0.1921602189540863, -0.1612306386232376, 0.030012816190719604, 0.3507538437843323, -0.11561247706413269, -0.026531219482421875, -0.07709133625030518, -0.05458233505487442, -0.1501171588897705, -0.11662349849939346, 0.0003551952540874481, 0.22773531079292297, 0.029949292540550232, 0.19660413265228271, 0.05038904398679733, -0.08750364929437637, -0.2652409076690674, -0.2858528792858124, 0.07088496536016464, 0.046469539403915405, -0.21856677532196045], [0.12002400308847427, -0.14789801836013794, 0.14837397634983063, -0.08341590315103531, -0.09351623058319092, 0.01789567619562149, 0.04405846446752548, 0.10779950022697449, 0.10259531438350677, 0.08835574984550476, -0.13860765099525452, -0.1666656732559204, 0.04588531702756882, 0.1354801207780838, 0.0229591503739357, -0.09183299541473389, -0.0631890743970871, 0.15973804891109467, -0.2184171825647354, -0.1691882163286209, 0.038235679268836975, 0.057265184819698334, 0.055427584797143936, -0.07847946882247925, 0.0387185662984848, 0.08342090249061584, 0.05396818742156029, 0.09719938039779663, 0.345958948135376, -0.004933834075927734, 0.006431320682168007, -0.061471328139305115, 0.05207303166389465, 0.10975609719753265, 0.2014637142419815, -0.09224508702754974, 0.28727972507476807, -0.20949846506118774, 0.27575039863586426, -0.010478779673576355, 0.1379065364599228, -0.24696852266788483, -0.24162213504314423, -0.020415201783180237, 0.15878650546073914, 0.1124325543642044, -0.3032959997653961, 0.023786116391420364, -0.30303308367729187, 0.03303864225745201, -0.0775921568274498, 0.18422159552574158, -0.03637686371803284, -0.006035037338733673, 0.0073079913854599, 0.18188485503196716, -0.0009927600622177124, 0.006603986024856567, 0.06503899395465851, 0.3204247057437897, -0.024363383650779724, 0.07127349078655243, -0.09017426520586014, 0.2762414813041687, 0.07509540021419525, 0.20185372233390808, 0.2058434933423996, 0.22600068151950836, 0.25216424465179443, 0.20282591879367828, -0.11809714138507843, 0.20832934975624084, 0.01608223281800747, -0.07534395903348923, 0.2835004925727844, 0.19835728406906128, 0.22262263298034668, 0.03851611912250519, 0.0663389191031456, 0.11246323585510254, -0.32943060994148254, 0.11567606776952744, 0.21798889338970184, 0.013156771659851074, 0.02929896116256714, 0.22035285830497742, 0.17380830645561218, -0.11203505098819733, -0.07621239870786667, 0.24677301943302155, 0.011037185788154602, -0.15607474744319916, 0.1973336935043335, 0.004272662103176117, 0.09781742841005325, 0.2283102124929428, -0.26664620637893677, -0.1481597125530243, 0.21494148671627045, 0.0443560928106308, 0.20777496695518494, -0.22541317343711853, -0.07670622318983078, 0.10714838653802872, 0.19528886675834656, -0.11839759349822998, 0.11401708424091339, 0.2349366843700409, -0.3178030848503113, -0.07462690025568008, 0.06178007274866104, 0.10068553686141968, 0.15132632851600647, 0.12241391092538834, 0.14120014011859894, -0.1576116383075714, -0.2337416112422943, 0.1021076962351799, -0.15491217374801636, 0.03888116404414177, -0.17394448816776276, 0.08499275147914886, -0.152268648147583, -0.12929853796958923, 0.2523941397666931, -0.07676176726818085, 0.06068849191069603, -0.02140265330672264], [-0.12703925371170044, 0.10923592746257782, 0.11579525470733643, 0.1325526237487793, -0.16606472432613373, -0.06489335000514984, 0.07850058376789093, 0.021474866196513176, 0.09407040476799011, 0.13524414598941803, -0.1988804042339325, 0.0841081514954567, -0.18324014544487, -0.1514669805765152, -0.00395406037569046, -0.20976951718330383, -0.29701560735702515, 0.02267250418663025, -0.09444475173950195, 0.19759099185466766, 0.01405364740639925, 0.004532672464847565, 0.20953717827796936, 0.16189754009246826, 0.3731347620487213, 0.24812455475330353, -0.14771656692028046, -0.028406701982021332, 0.11301261186599731, -0.10533653199672699, 0.025980915874242783, 0.09238718450069427, 0.190577894449234, 0.09836509078741074, 0.1025930792093277, 0.182249516248703, -0.24770620465278625, 0.03897295147180557, -0.09804338961839676, 0.21435947716236115, -0.15069641172885895, 0.32284700870513916, 0.049817729741334915, -0.19489893317222595, -0.08912848681211472, 0.06517721712589264, 0.0007188171148300171, 0.07477644085884094, 0.07346869260072708, 0.18308943510055542, -0.14631834626197815, -0.191200390458107, -0.08805157244205475, 0.10371420532464981, 0.009410127997398376, 0.16119280457496643, 0.051010243594646454, 0.26707375049591064, -0.1520499736070633, -0.23536767065525055, 0.1933249831199646, 0.2754003703594208, -0.01395794004201889, -0.09058532118797302, -0.09789253026247025, -0.26190289855003357, 0.09598179906606674, -0.13208478689193726, 0.21217185258865356, -0.11383291333913803, 0.052329860627651215, 0.0056181056424975395, -0.17797885835170746, -0.15378478169441223, -0.2391333281993866, -0.0011976910755038261, -0.03325726091861725, 0.023419706150889397, -0.2742463946342468, 0.06463917344808578, 0.23958343267440796, 0.17400699853897095, 0.01300804689526558, 0.24232298135757446, -0.07891666144132614, -0.015604346990585327, -0.1511523425579071, -0.04392588883638382, 0.17456123232841492, -0.11158815026283264, 0.19696608185768127, 0.10078848153352737, 0.11288713663816452, -0.1434411108493805, 0.013875911012291908, 0.30082523822784424, -0.302510529756546, 0.179483562707901, -0.14974071085453033, 0.1046818271279335, 0.21551258862018585, 0.08454809337854385, 0.07158106565475464, -0.1506335735321045, 0.09402863681316376, 0.017242390662431717, -0.19347044825553894, -0.11022942513227463, -0.18353009223937988, 0.17544527351856232, -0.2360198050737381, -0.30233967304229736, -0.07336736470460892, 0.10576484352350235, -0.00041806697845458984, -0.16526515781879425, 0.02318514883518219, -0.09295164048671722, 0.029010802507400513, 0.2003582864999771, 0.048051923513412476, -0.024855906143784523, 0.22417812049388885, 0.2207028865814209, 0.33563652634620667, -0.2965210974216461, -0.1430010348558426, -0.20798379182815552], [0.2628827691078186, 0.12083608657121658, 0.31662628054618835, 0.012453071773052216, 0.1535186916589737, -0.15490007400512695, 0.0635279044508934, 0.0679890364408493, 0.08155329525470734, -0.26089951395988464, 0.11114919185638428, 0.34131401777267456, 0.11551137268543243, -0.03216654062271118, -0.07522594928741455, -0.08969391882419586, -0.22317343950271606, 0.18107043206691742, -0.027900919318199158, -0.05878918245434761, -0.12298205494880676, -0.011254236102104187, -0.18306218087673187, -0.04475178197026253, 0.001937374472618103, -0.05063789337873459, -0.05484957993030548, -0.19250358641147614, 0.05899687111377716, 0.03753485158085823, 0.004885144531726837, -0.1968691647052765, -0.15036055445671082, -0.2405107021331787, 0.15247684717178345, -0.04532311484217644, 0.05265903100371361, 0.10992395132780075, 0.14296820759773254, -0.04472990334033966, -0.06208604946732521, 0.21999678015708923, 0.13540777564048767, 0.10964497178792953, 0.2264561951160431, -0.013728231191635132, 0.09207097440958023, -0.018825894221663475, -0.055608510971069336, 0.14275500178337097, 0.2568935751914978, -0.16723975539207458, -0.08351640403270721, 0.027783548459410667, -0.037273749709129333, -0.13468849658966064, 0.17682448029518127, -0.18850964307785034, -0.19876118004322052, 0.2067316174507141, 0.13488611578941345, 0.2736319303512573, 0.22573943436145782, 0.13757850229740143, 0.04042030870914459, 0.1584225594997406, -0.08330485224723816, 0.16315005719661713, 0.13740703463554382, -0.3491176664829254, 0.06914212554693222, 0.04560283571481705, 0.3472268283367157, -0.056838374584913254, 0.10639706999063492, -0.17204973101615906, 0.05694638192653656, -0.05007720738649368, -0.07083867490291595, -0.23410606384277344, 0.19406935572624207, -0.11446619033813477, -0.2843368649482727, -0.003563251346349716, -0.06526206433773041, 0.1607297658920288, 0.04167314991354942, -0.00784853845834732, -0.04747588932514191, 0.12126865237951279, 0.31292110681533813, 0.17324191331863403, 0.26980555057525635, -0.028222255408763885, -0.03942415863275528, -0.09534777700901031, -0.07565156370401382, -0.0736551508307457, -0.17177458107471466, 0.009279290214180946, 0.31952279806137085, 0.08172102272510529, 0.21116767823696136, 0.11114972829818726, -0.12564323842525482, 0.34833312034606934, 0.3182510435581207, -0.1079392358660698, 0.21549534797668457, -0.1609514057636261, 0.01588437706232071, 0.19258244335651398, 0.14764058589935303, 0.0060682520270347595, 0.15893545746803284, 0.34766918420791626, 0.07763153314590454, 0.12498748302459717, -0.04257267713546753, 0.013777442276477814, 0.09352923184633255, -0.16274502873420715, 0.05556190386414528, 0.2484988570213318, 0.13233637809753418, 0.17514081299304962, 0.09973791986703873, 0.179076686501503], [-0.11556778848171234, 0.014609817415475845, 0.09139959514141083, -0.2524963915348053, -0.3013177216053009, -0.06127510219812393, -0.021133258938789368, 0.01891253888607025, 0.023633698001503944, 0.21991920471191406, -0.0698809027671814, 0.09636682271957397, -0.1512916535139084, -0.09203842282295227, -0.16985853016376495, -0.07863809913396835, -0.12497898936271667, 0.1308920830488205, -0.013892889022827148, -0.17435163259506226, -0.020176807418465614, -0.0214039608836174, -0.13433828949928284, -0.11010151356458664, 0.28852009773254395, -0.23712114989757538, 0.27535948157310486, -0.1720222532749176, -0.24861642718315125, -0.08486474305391312, -0.2593175172805786, 0.19124075770378113, 0.05914218723773956, -0.1925460249185562, 0.0433088019490242, -0.023956164717674255, 0.16585025191307068, 0.07253095507621765, 0.28128379583358765, 0.17136883735656738, -0.16921448707580566, 0.3359789252281189, -0.3024463653564453, 0.08615532517433167, -0.014982607215642929, -0.15746164321899414, -0.14543893933296204, -0.1681114137172699, 0.2860323488712311, 0.09281972795724869, 0.050778746604919434, -0.19405850768089294, 