{"model.0.weight": [[-0.0553324893116951, 0.07561435550451279, 0.06035541370511055, -0.03116368129849434, 0.057831957936286926, 0.26004546880722046, -0.18494084477424622, -0.04395289719104767, -0.21384955942630768, -0.15543420612812042, -0.003199582686647773, -0.3144747018814087, -0.0783439353108406, 0.16163410246372223, 0.02579258754849434, -0.11660733819007874, -0.05677255243062973, 0.0900738537311554, -0.05286148935556412, 0.05618632212281227], [-0.1767282634973526, 0.1397954523563385, 0.08175007998943329, 0.15566924214363098, -0.01800464652478695, 0.009104951284825802, 0.021446485072374344, 0.057851120829582214, 0.01281589176505804, -0.260222464799881, -0.10064522922039032, -0.02044597640633583, 0.21300163865089417, -0.10096794366836548, -0.2528546452522278, -0.06592417508363724, 0.05048580467700958, 0.03400346264243126, 0.07231782376766205, -0.15454158186912537], [0.004972458817064762, 0.20254307985305786, 0.025316892191767693, 0.02891473099589348, -0.07807789742946625, -0.0331791490316391, 0.06249356269836426, 0.09483171254396439, -0.06842435896396637, -0.092833511531353, 0.061202920973300934, 0.022017065435647964, 0.050263043493032455, 0.07809671759605408, 0.09309981763362885, -0.02151128649711609, 0.32791590690612793, 0.10491562634706497, 0.0791836678981781, -0.15556973218917847], [0.099699966609478, -0.09159904718399048, -0.1081153079867363, -0.046776507049798965, -0.18787768483161926, -0.21486404538154602, -0.05557788908481598, 0.012422027066349983, 0.2422768771648407, -0.04043251648545265, -0.21768596768379211, 0.16685384511947632, -0.13574837148189545, -0.06919103860855103, 0.009860395453870296, -0.13613106310367584, -0.014278366230428219, -0.12539590895175934, -0.16994082927703857, 0.0007468946278095245], [0.028018556535243988, -0.21285384893417358, -0.09179183840751648, 0.060832273215055466, -0.03619472682476044, -0.08258560299873352, -0.04942905902862549, -0.20910531282424927, 0.031544044613838196, -0.06511455774307251, 0.06879287958145142, 0.03845927119255066, 0.09271179884672165, -0.19558602571487427, -0.012543251737952232, 0.10027395188808441, -0.193486750125885, 0.030994951725006104, 0.11671249568462372, -0.08470173180103302], [-0.01551341824233532, 0.23101726174354553, -0.2730235159397125, 0.01543132122606039, -0.015536973252892494, -0.09684319794178009, -0.014114776626229286, 0.07408277690410614, 0.03185775503516197, 0.05072218179702759, 0.10901958495378494, 0.1976587474346161, -0.024301491677761078, 0.16982203722000122, 0.05857793241739273, -0.12382139265537262, -0.007317648734897375, 0.05303752422332764, -0.00881819985806942, 0.052296824753284454], [0.15995684266090393, -0.0844966396689415, 0.04646368697285652, -0.00684671476483345, 0.12954628467559814, 0.18670833110809326, 0.0695984736084938, 0.11237329989671707, 0.043785031884908676, 0.0024031316861510277, 0.09268154203891754, -0.21422341465950012, -0.03455577790737152, 0.14845186471939087, 0.020161444321274757, 0.15047352015972137, 0.027042269706726074, 0.04648686572909355, -0.1598840355873108, -0.013430489227175713], [-0.062355633825063705, -0.11125122010707855, 0.2120763659477234, -0.04190242290496826, -0.04860962927341461, -0.088501937687397, 0.11278180778026581, 0.04503766447305679, -0.21221184730529785, -0.119964599609375, 0.03468969836831093, -0.0633184015750885, 0.05849515274167061, -0.04837482422590256, -0.02393433451652527, -0.06993593275547028, 0.185613214969635, -0.2158242166042328, -0.11277073621749878, -0.003090785350650549], [0.12862716615200043, 0.11953672766685486, -0.05594319477677345, -0.014361703768372536, 0.018784575164318085, -0.06526704132556915, -0.10072512179613113, -0.08930311352014542, 0.19101308286190033, -0.09746663272380829, -0.16153034567832947, 0.025112275034189224, 0.03025435470044613, 0.14372248947620392, 0.06775568425655365, 0.1716880351305008, 0.09624992311000824, -0.018324797973036766, -0.012938518077135086, 0.06963752210140228], [-0.10843640565872192, 0.025480180978775024, -0.15728503465652466, -0.0847351998090744, -0.07729269564151764, 0.0699007660150528, 0.10101711750030518, -0.12289012968540192, 0.04009610787034035, -0.04779621213674545, -0.24155393242835999, 0.15230664610862732, 0.07826865464448929, 0.033197835087776184, 0.21119359135627747, -0.06090362370014191, -0.18782499432563782, -0.09792448580265045, 0.05424155294895172, 0.014736199751496315], [0.16470101475715637, 0.1062086895108223, 0.10457406938076019, -0.12969309091567993, -0.07530966401100159, -0.08997400850057602, -0.08444981276988983, -0.049103908240795135, -0.17039363086223602, -0.060103368014097214, -0.09985712170600891, 0.08694568276405334, -0.12430983781814575, 0.15588253736495972, -0.14264000952243805, -0.0230813417583704, -0.02666609175503254, -0.08283142745494843, -0.040017493069171906, 0.12816980481147766], [-0.002625213237479329, -0.07008138298988342, 0.141502246260643, -0.15081310272216797, -0.006405828520655632, 0.1682611107826233, 0.17727911472320557, 0.14128883183002472, -0.10378305613994598, -0.04983331263065338, 0.0646725669503212, 0.13506492972373962, -0.07249883562326431, 0.15781065821647644, -0.013689176179468632, -0.021254461258649826, -0.08481930196285248, 0.04350367188453674, 0.006932102609425783, 0.04659590125083923], [-0.04307377338409424, -0.016694802790880203, -0.1411992907524109, 0.0637182891368866, 0.09437635540962219, 0.14538395404815674, -0.03999663144350052, -0.0336916521191597, 0.07086174190044403, 0.26301977038383484, -0.0560644268989563, -0.16987335681915283, 0.05483434721827507, -0.009908887557685375, 0.08244925737380981, 0.0925254076719284, -0.053542084991931915, 0.004301558714359999, -0.07166808843612671, 0.1276334822177887], [-0.08907113969326019, 0.06692485511302948, -0.002510064747184515, -0.0809100940823555, -0.03522215038537979, 0.0929906964302063, 0.09167496860027313, -0.18075010180473328, 0.09927091002464294, -0.05666353553533554, 0.04246223717927933, -0.08318954706192017, -0.025908973067998886, 0.09334006905555725, -0.10238134860992432, 0.011461624875664711, -0.0283859521150589, -0.126341313123703, 0.06887602806091309, 0.08244229853153229], [0.06840257346630096, -0.21098420023918152, 0.04193946719169617, -0.04019690677523613, 0.16499897837638855, -0.20716476440429688, -0.1690966933965683, -0.02758418396115303, -0.1685941219329834, 0.248490571975708, -0.12239061295986176, -0.15148687362670898, 0.004753634333610535, -0.04647057503461838, 0.11968294531106949, 0.23878908157348633, 0.013728353194892406, 0.10681173205375671, -0.018299298360943794, -0.02612149342894554], [0.21433638036251068, 0.06423730403184891, -0.17546294629573822, 0.12783345580101013, 0.13121441006660461, -0.07895811647176743, 0.03495998680591583, 0.056670211255550385, 0.14872373640537262, 0.032826803624629974, -0.0680302232503891, 0.03318101912736893, 0.015389570966362953, 0.17420734465122223, 0.03498333692550659, 0.10018312931060791, -0.12672454118728638, -0.026812797412276268, -0.013754846528172493, -0.0825541689991951], [-0.06750046461820602, 0.030978038907051086, -0.007383650168776512, 0.1530815064907074, 0.028009731322526932, -0.07081738114356995, 0.025474196299910545, 0.028944410383701324, -0.11383256316184998, -0.1055016815662384, 0.0801268219947815, 0.03163956478238106, 0.018406039103865623, -0.0653306245803833, 0.11426854133605957, 0.057225339114665985, 0.04690533131361008, 0.001113820355385542, -0.06871287524700165, 0.19773197174072266], [-0.0579792857170105, 0.08981466293334961, -0.15840090811252594, 0.04978092759847641, -0.22051817178726196, -0.03415337949991226, 0.11112358421087265, 0.20135915279388428, 0.06684806942939758, -0.13820967078208923, 0.025045011192560196, -0.028685975819826126, -0.14951732754707336, -0.10761700570583344, -0.0857122391462326, 0.11683915555477142, -0.0025953100994229317, 0.17177867889404297, 0.09362180531024933, 0.023773513734340668], [0.049933746457099915, 0.21740902960300446, -0.09860733151435852, -0.15701240301132202, -0.18004140257835388, -0.026316631585359573, 0.06808585673570633, 0.24991151690483093, 0.0779346376657486, -0.024592086672782898, -0.02760155498981476, -0.04618898779153824, 0.08921940624713898, -0.19162333011627197, 0.08003395795822144, 0.0765174925327301, 0.042196840047836304, -0.02108788676559925, 0.09390627592802048, 0.0678110122680664], [0.1850263476371765, 0.010145707987248898, 0.013830272480845451, 0.053930144757032394, -0.026068003848195076, -0.08134704828262329, 0.13431397080421448, 0.17209011316299438, 0.10905729234218597, -0.12109702825546265, 0.07249084860086441, 0.04185720905661583, 0.06616781651973724, 0.007321884855628014, 0.0579100176692009, -0.06885134428739548, -0.0027348115108907223, 0.2491200566291809, 0.0398121252655983, -0.18831905722618103], [-0.04276522994041443, -0.17317169904708862, 0.01670859381556511, -0.032610468566417694, 0.07737196981906891, 0.17486636340618134, 0.07609254121780396, -0.17836301028728485, 0.05572612211108208, 0.05037420243024826, -0.08532168716192245, -0.0649796575307846, 0.014547830447554588, -0.06248236447572708, 0.2475583702325821, 0.11262315511703491, 0.07926902174949646, -0.05984129011631012, 0.10949385911226273, 0.019668659195303917], [0.04025281220674515, -0.014610087499022484, -0.20376227796077728, 0.024232633411884308, -0.18311239778995514, -0.04378357529640198, -0.07719848304986954, 0.22312848269939423, -0.011024806648492813, -0.1139124184846878, 0.12371723353862762, -0.19385522603988647, -0.008688426576554775, 0.15405572950839996, -0.09642652422189713, 0.11490517854690552, -0.12754353880882263, 0.17252489924430847, 0.022727487608790398, -0.09553942084312439], [0.027266114950180054, 0.06999029219150543, 0.12472788244485855, -0.07170368731021881, -0.15001130104064941, -0.14079155027866364, 0.10866200178861618, 0.26138126850128174, -0.001993916928768158, 0.03138119727373123, 0.04846249893307686, -0.05049822852015495, 0.12006371468305588, -0.12047092616558075, 0.12407049536705017, -0.06442363560199738, 0.07303997874259949, 0.11738567054271698, 0.21731716394424438, 0.03133169561624527], [0.0010575961787253618, -0.12958844006061554, -0.08989152312278748, 0.15881197154521942, 0.0818837359547615, 0.043369024991989136, -0.21431949734687805, -0.06356386095285416, 0.02243412844836712, -0.325844943523407, -0.22953327000141144, -0.21067672967910767, -0.056182947009801865, -0.08744780719280243, 0.04886434227228165, 0.01706710085272789, 0.12361933290958405, -0.035285819321870804, -0.22553256154060364, 0.007302336394786835], [-0.060118917375802994, 0.004107347689568996, 0.1656290590763092, 0.10850861668586731, -0.15667802095413208, 0.05495820567011833, -0.027337700128555298, -0.03805623948574066, 0.03504875302314758, -0.07046908140182495, 0.06228634715080261, -0.11306188255548477, 0.11304941773414612, -0.02259403094649315, 0.126749187707901, -0.04231124371290207, 0.1169300526380539, 0.10409504175186157, 0.05012781172990799, 0.02883809059858322], [0.10095485299825668, -0.06289935857057571, -0.06940431892871857, -0.11888401955366135, -0.09340819716453552, -0.07152581214904785, -0.10154393315315247, 0.12607383728027344, 0.08820901811122894, -0.1024262011051178, -0.06857229769229889, -0.01542346365749836, -0.0827571451663971, 0.12480421364307404, 0.028200272470712662, 0.24819698929786682, 0.02458137646317482, -0.10106725990772247, 0.13860656321048737, 0.1191936656832695], [-0.15775978565216064, -0.01265721581876278, 0.1413189172744751, 0.15917213261127472, 0.007375377230346203, 0.10086692124605179, -0.09812572598457336, -0.1415793001651764, -0.06436152756214142, 0.1308586299419403, -0.055522769689559937, -0.11273355782032013, 0.057483695447444916, -0.13740381598472595, 0.15805190801620483, 0.19070881605148315, 0.03591040521860123, -0.002122474368661642, -0.05150784179568291, -0.03842739760875702], [0.14212828874588013, 0.15317785739898682, 0.03213251754641533, 0.1308911144733429, -0.0021182382479310036, 0.23739975690841675, -0.09306953847408295, -0.21472428739070892, -0.1374346762895584, -0.0981471985578537, 0.0636708214879036, 0.1767699122428894, 0.1729716956615448, 0.03862269967794418, 0.09434671700000763, -0.051069457083940506, 0.17543929815292358, -0.2526077628135681, 0.06488271057605743, -0.02242971956729889], [0.11279624700546265, -0.04395226389169693, 0.2331637144088745, -0.04433516412973404, -0.05017989128828049, 0.08432921767234802, -0.08832865953445435, 0.04899667948484421, -0.13494059443473816, 0.051672935485839844, 0.06342041492462158, 0.1307547390460968, -0.12149161100387573, 0.17035743594169617, -0.017748478800058365, -0.11453014612197876, 0.21870914101600647, -0.01449204795062542, 0.04402253404259682, -0.12979066371917725], [0.034782640635967255, 0.1711844801902771, 0.12568658590316772, 0.043036602437496185, -0.14376342296600342, 0.09872250258922577, -0.09956729412078857, 0.04396777227520943, 0.08658044040203094, 0.19341720640659332, -0.11809145659208298, -0.07924509048461914, 0.034781403839588165, -0.0403280183672905, -0.017699921503663063, 0.11691682040691376, 0.2521149516105652, 0.06546057015657425, 0.11677663028240204, -0.08661790192127228], [-0.08259855955839157, -0.14611369371414185, 0.03854469209909439, 0.048437461256980896, -0.06121910735964775, 0.158004030585289, -0.2006484866142273, -0.040691059082746506, -0.02483060397207737, 0.09777314960956573, -0.08359494060277939, 0.05046548694372177, 0.09388645738363266, -0.014184961095452309, 0.09197496622800827, 0.1338622123003006, 0.08680407702922821, 0.02171778678894043, 0.11667104810476303, -0.09650665521621704], [0.003049984574317932, -0.007840155623853207, 0.051270101219415665, -0.04011810943484306, 0.02817736566066742, 0.1673290729522705, 0.15005183219909668, 0.0823366641998291, -0.18738439679145813, 0.008406016044318676, 0.013172652572393417, -0.15922021865844727, 0.028198491781949997, 0.04119513928890228, -0.09219706058502197, 0.04868651181459427, 0.044898152351379395, -0.0035637388937175274, 0.09562063217163086, 0.03993847966194153], [0.04579800367355347, 0.028596432879567146, 0.06776954233646393, -0.14902707934379578, 0.15334731340408325, -0.09949097037315369, 0.17862249910831451, 0.2442258894443512, -0.1025172546505928, -0.12600255012512207, 0.11923572421073914, 0.1205126941204071, -0.05638721212744713, -0.07462562620639801, -0.07008061558008194, -0.12260755896568298, -0.19899888336658478, 0.01754738762974739, -0.13783857226371765, 0.033418793231248856], [-0.17012427747249603, 0.050554774701595306, -0.06782194972038269, -0.15146498382091522, -0.12021132558584213, -0.013509751297533512, 0.06436500698328018, -0.071213498711586, 0.02659612149000168, 0.04792176932096481, -0.062105320394039154, 0.08400604873895645, 0.16070136427879333, 0.08748064935207367, -0.055133335292339325, 0.07853862643241882, 0.08183314651250839, -0.029652351513504982, 0.024000702425837517, -0.050530806183815], [0.023066258057951927, -0.043088868260383606, -0.007945219986140728, 0.025901740416884422, 0.13288089632987976, 0.14655357599258423, -0.05309699848294258, -0.25840529799461365, -0.09531326591968536, -0.16873154044151306, -0.10094311833381653, 0.19614623486995697, 0.0470070019364357, 0.09927843511104584, 0.1639615297317505, 0.15976619720458984, -0.035297080874443054, 0.0823928564786911, -0.06220957264304161, -0.0736241489648819], [0.1349608302116394, -0.11914633959531784, -0.021836504340171814, 0.08726649731397629, -0.023447180166840553, -0.10100416839122772, 0.1172715350985527, 0.025146687403321266, 0.10317984968423843, 0.17532353103160858, 0.050222791731357574, 0.09194205701351166, -0.23173540830612183, 0.0423307903110981, 0.1383500099182129, -0.06417147815227509, -0.08126746118068695, -0.20013180375099182, 0.026163939386606216, 0.1288585364818573], [-0.08862622082233429, 0.18357986211776733, -0.05928708612918854, 0.2281244546175003, 0.09196513891220093, 0.0648210197687149, -0.05405225604772568, 0.23358553647994995, 0.11011607944965363, 0.20594559609889984, 0.07505594938993454, -0.05753522738814354, 0.10962367802858353, -0.05901584029197693, 0.011542833410203457, 0.09514891356229782, -0.15547612309455872, 0.1279866099357605, -0.048328470438718796, 0.08294069766998291], [-0.23431380093097687, -0.1209903210401535, 0.13567852973937988, -0.06655776500701904, 0.041946787387132645, -0.12747912108898163, 0.1356135457754135, 0.1876084804534912, 0.227970689535141, -0.03357996419072151, -0.11576956510543823, 0.022283680737018585, 0.05546969175338745, 0.056797489523887634, 0.17206546664237976, -0.06775711476802826, -0.0082719586789608, -0.02853860706090927, -0.1433621644973755, -0.08864752948284149], [-0.04392484948039055, -0.041805483400821686, -0.14027217030525208, -0.044743992388248444, 0.02388240583240986, -0.02455105073750019, 0.08456301689147949, 0.055551037192344666, 0.022459331899881363, 0.09773105382919312, 0.015447034500539303, -0.040718887001276016, 0.039627138525247574, 0.21624726057052612, 0.13907401263713837, -0.013359013944864273, 0.151338592171669, -0.03371991217136383, -0.12273053079843521, -0.07332496345043182], [0.1983814388513565, 0.0035259390715509653, -0.053441498428583145, 0.13353508710861206, 0.05729583650827408, 0.11107590049505234, -0.11413884907960892, -0.0870731920003891, 0.04016517102718353, 0.026210900396108627, -0.05054272338747978, 0.12811905145645142, -0.09905293583869934, 0.1346474140882492, -0.10102301090955734, 0.23632286489009857, -0.16380596160888672, 0.26621824502944946, -0.02880137227475643, 0.014545341953635216], [-0.02565503492951393, -0.00813167542219162, -0.09189147502183914, 0.031214062124490738, 0.025672372430562973, -0.10330186784267426, 0.13792404532432556, -0.08150336146354675, -0.01681000553071499, -0.018573660403490067, -0.025311175733804703, 0.20181122422218323, -0.17851650714874268, 0.10576539486646652, -0.03238772973418236, 0.1445697695016861, 0.18018150329589844, 0.04043237119913101, 0.13263045251369476, 0.012472313828766346], [-0.03370313346385956, -0.15596671402454376, -0.22766384482383728, 0.06441053748130798, 0.0343182310461998, -0.030402278527617455, -0.13119350373744965, 0.10563183575868607, 0.056090857833623886, 0.003092973493039608, 0.03469163551926613, -0.16164731979370117, -0.07710373401641846, 0.15790221095085144, -0.018975939601659775, 0.01020139828324318, -0.05076824873685837, 0.005068765487521887, -0.04266096651554108, 0.060234665870666504], [0.018403826281428337, 0.035061243921518326, 0.13046419620513916, -0.10244082659482956, 0.13744419813156128, -0.06883891671895981, 0.20535701513290405, 0.2038605809211731, 0.2423517405986786, -0.028229694813489914, 0.06092577427625656, -0.007126935757696629, -0.17648480832576752, -0.17362108826637268, 0.1551142930984497, -0.173836812376976, -0.14826032519340515, 0.09500037878751755, 0.08250178396701813, -0.011995306238532066], [-0.18043534457683563, -0.08577778935432434, 0.04914809763431549, -0.04470331594347954, 0.04609045758843422, 0.002275429666042328, 0.1018906831741333, -0.09876707196235657, -0.10469888150691986, 0.1272110790014267, -0.15215495228767395, 0.10321159660816193, -0.1592414677143097, -0.19922414422035217, 0.17346355319023132, 0.06361138075590134, 0.04246833175420761, -0.01408099103718996, 0.21255341172218323, -0.039438944309949875], [-0.10617171227931976, 0.1836649626493454, 0.048185888677835464, -0.2081073522567749, 0.07720576971769333, -0.1518268883228302, -0.1275136023759842, -0.04014158248901367, -0.042148858308792114, -0.022779444232583046, -0.11501176655292511, 0.0917617678642273, -0.059867262840270996, -0.1608928143978119, -0.022568579763174057, 0.2765956521034241, -0.09242264181375504, 0.018859343603253365, -0.21097300946712494, -0.008213229477405548], [-0.2587123513221741, 0.005921709351241589, 0.0329081192612648, -0.043831855058670044, -0.024115756154060364, -0.021258708089590073, -0.1749814748764038, 0.0615902915596962, 0.09314597398042679, -0.09297166764736176, -0.08328176289796829, -0.011250777170062065, 0.24651074409484863, 0.004220869857817888, -0.10705640912055969, -0.1837203949689865, -0.13569879531860352, 0.1401318609714508, 0.017236927524209023, -0.04524826258420944], [0.16307877004146576, 0.005406015552580357, 0.00698052579537034, -0.06110454350709915, 0.1507474184036255, 0.19278478622436523, 0.16110028326511383, -0.2208748757839203, 0.03851362317800522, 0.01886858604848385, 0.04514571279287338, -0.033817108720541, -0.12798552215099335, 0.05908626690506935, -0.047211453318595886, 0.16296666860580444, -0.030915454030036926, 0.048319004476070404, -0.039658743888139725, 0.0984276682138443], [0.022706760093569756, 0.09840550273656845, -0.07807660847902298, 0.08379122614860535, -0.22741803526878357, -0.12283629179000854, -0.01208426058292389, 0.11352026462554932, -0.14698179066181183, 0.16519354283809662, 0.008811144158244133, 0.09064818173646927, -0.020580695942044258, 0.197898730635643, -0.08392573893070221, 0.18085750937461853, 0.0646647959947586, -0.06472516059875488, 0.11684569716453552, 0.013764547184109688], [-0.051911063492298126, -0.06570398807525635, 0.17998865246772766, -0.11738361418247223, -0.021145688369870186, -0.22742244601249695, -0.14662714302539825, -0.1395627111196518, -0.24757882952690125, 0.1451486051082611, 0.016541624441742897, 0.010892488062381744, -0.016968101263046265, -0.05268042907118797, 0.12709178030490875, -0.07697100192308426, 0.010592677630484104, 0.042600370943546295, -0.1443135142326355, 0.021042365580797195], [-0.008479327894747257, 0.09545119851827621, -0.1607503592967987, -0.14576341211795807, -0.22274330258369446, -0.18175113201141357, 0.0956043004989624, 0.22679194808006287, -0.033461347222328186, -0.04199235886335373, -0.1527085155248642, -0.07691550254821777, 0.1656910628080368, 0.0033125884365290403, -0.0037004463374614716, 0.10616558790206909, 0.006835334934294224, 0.10579325258731842, 0.010767288506031036, -0.14305338263511658], [-0.11183655261993408, 0.18196387588977814, -0.15640850365161896, 0.0017672774847596884, -0.06867754459381104, 0.022490032017230988, 0.08627727627754211, 0.05938218533992767, 0.04368934407830238, 0.05497131496667862, 0.12460403144359589, 0.04359203577041626, 0.038880977779626846, -0.09567978233098984, 0.04567231982946396, -0.028586402535438538, -0.012898625805974007, 0.07513928413391113, -0.022478459402918816, -0.10899928957223892], [0.08685752004384995, -0.016521913930773735, -0.010362714529037476, -0.047041237354278564, 0.17947480082511902, 0.08580639958381653, 0.0362975187599659, -0.054948486387729645, -0.03085557371377945, -0.13475646078586578, -0.09271427989006042, 0.19215437769889832, -0.17384564876556396, 0.2272264063358307, -0.1260528415441513, 0.1877889633178711, 0.06353083997964859, -0.15625590085983276, 0.01769452542066574, -0.1006748229265213], [0.0388321615755558, -0.13616934418678284, -0.18516495823860168, 0.07067085057497025, -0.07077503204345703, 0.06052613630890846, -0.12023408710956573, -0.06374067813158035, -0.16377140581607819, 0.04928688704967499, 0.106486015021801, 0.08931150287389755, -0.031163804233074188, -0.06306423246860504, -0.008596386760473251, -0.08854556083679199, 0.07856466621160507, -0.0864839181303978, 0.05219654738903046, 0.013906887732446194], [-0.10132531821727753, -0.03486616909503937, 0.0027627022936940193, -0.2496347725391388, -0.15162378549575806, -0.2161063253879547, 0.08899705111980438, 0.09869149327278137, 0.0900140181183815, -0.1490437090396881, 0.1652541309595108, 0.04323701560497284, 0.10363132506608963, 0.12867963314056396, -0.03162604197859764, 0.07258124649524689, -0.01579972542822361, 0.03281943127512932, -0.01885271444916725, 0.09271188080310822], [0.02373730204999447, 0.1441161036491394, -0.0653766393661499, 0.06439124792814255, 0.12329231202602386, -0.09633693099021912, -0.3022986650466919, 0.035450100898742676, 0.08117610216140747, -0.12413373589515686, -0.3005024790763855, -0.07384389638900757, 0.09154030680656433, -0.16023507714271545, 0.0065228259190917015, 0.07208460569381714, 0.1389685869216919, 0.11518338322639465, 0.1237657368183136, -0.010669701732695103], [0.06477529555559158, 0.07998134195804596, 0.1784563660621643, 0.13173215091228485, -0.017924735322594643, -0.16689527034759521, -0.03235263377428055, -0.0882103443145752, 0.013977153226733208, 0.14497800171375275, 0.1557420790195465, 0.00825447216629982, -0.15708602964878082, -0.1815786361694336, -0.04268835112452507, 0.20135553181171417, -0.005589689128100872, 0.02064519375562668, -0.22099712491035461, 0.03352475166320801], [0.02723563462495804, 0.06712882220745087, 0.13171561062335968, 0.17659395933151245, 0.00908679235726595, 0.055991921573877335, -0.083000548183918, -0.052703775465488434, -0.09949807077646255, -0.015996988862752914, 0.14937448501586914, -0.04666098207235336, 0.10734131187200546, 0.1833987534046173, -0.03710106760263443, -0.0639827698469162, -0.0895954892039299, 0.1397898644208908, 0.14147615432739258, 0.015163090080022812], [-0.05384786054491997, -0.0026331283152103424, 0.12391051650047302, 0.17947442829608917, 0.1138552725315094, -0.006678897421807051, 0.07926328480243683, 0.06009563058614731, -0.0634647086262703, -0.13581335544586182, -0.052316274493932724, -0.15462414920330048, 0.030104557052254677, -0.1113751232624054, -0.17793041467666626, -0.0647052526473999, 0.04999687895178795, -0.006252529099583626, 0.04255296662449837, -0.13124394416809082], [-0.17457249760627747, -0.2326848804950714, 0.06722046434879303, -0.03865039348602295, 0.19396600127220154, -0.07640297710895538, 0.04017551988363266, -0.002981287892907858, 0.05058825761079788, 0.08245302736759186, -0.08698803931474686, 0.05049913004040718, -0.1167794018983841, -0.11002258211374283, -0.12907473742961884, 0.11179733276367188, -0.15379393100738525, -0.2184029519557953, -0.09942527860403061, 0.09103403985500336], [-0.00455611664801836, 0.19931811094284058, -0.09365866333246231, 0.062415800988674164, 0.06418735533952713, 0.12868085503578186, 0.10545296967029572, -0.11713630706071854, -0.0378076396882534, -0.09125684201717377, 0.08770319819450378, -0.11154139041900635, -0.23755940794944763, -0.08707458525896072, -0.003727506846189499, -0.0081149498000741, -0.03299050033092499, -0.3815455436706543, -0.1335366666316986, -0.06834723800420761], [-0.03643621876835823, 0.07273618876934052, 0.08138706535100937, -0.1805507242679596, -0.08475476503372192, -0.14506682753562927, 0.002747864229604602, 0.06792104244232178, -0.04764583334326744, -0.07527897506952286, 0.04574093222618103, 0.00586727075278759, 0.004937378223985434, 0.045950666069984436, 0.08814387768507004, -0.0979868546128273, 0.180622398853302, 0.13415923714637756, 0.06501120328903198, 0.10087542235851288], [0.12920832633972168, -0.15300649404525757, -0.09223476052284241, -0.09182605147361755, 0.20784392952919006, 0.021941425278782845, 0.026158751919865608, 0.11147773265838623, 0.05942920595407486, -0.008095095865428448, -0.24420791864395142, -0.14836645126342773, 0.011996569111943245, -1.4320481568574905e-05, 0.06569677591323853, 0.01649789698421955, -0.036273520439863205, -0.02170240506529808, -0.06053975597023964, 0.0248634722083807], [0.034554220736026764, 0.024841642007231712, -0.024553244933485985, 0.2506884038448334, 0.01524103432893753, -0.026327326893806458, 0.04816630110144615, -0.1915755271911621, -0.10512172430753708, 0.11956877261400223, 0.1770867109298706, -0.027842488139867783, 0.024234149605035782, -0.09435217827558517, 0.0374787338078022, -0.0049719903618097305, 0.08499272912740707, -0.09526326507329941, 0.03406969830393791, 0.0008163424208760262], [0.042764052748680115, 0.051780737936496735, -0.130390003323555, 0.001334651606157422, -0.12516814470291138, -0.1748480498790741, -0.12977179884910583, 0.009614840149879456, 0.24609145522117615, -0.1305164098739624, 0.1539878398180008, 0.053561195731163025, -0.36544549465179443, 0.17226211726665497, 0.04278525710105896, 0.030223026871681213, 0.11588839441537857, 0.03091062605381012, -0.09279870986938477, -0.0659957006573677], [-0.07372188568115234, -0.23367157578468323, -0.20177114009857178, 0.09096851944923401, 0.06841566413640976, -0.11993061751127243, -0.08555158972740173, 0.15440744161605835, -0.1436115801334381, 0.2064695507287979, -0.11380994319915771, 0.006887144409120083, 0.02750355191528797, -0.1204681470990181, -0.07743115723133087, 0.07330820709466934, 0.1104428619146347, -0.02764357253909111, -0.00382431223988533, -0.03208300098776817], [0.08510027825832367, 0.04219939187169075, 0.07325747609138489, 0.06644280254840851, -0.20303159952163696, -0.16469444334506989, 0.06386532634496689, -0.029743563383817673, 0.21324722468852997, 0.10601004213094711, 0.007559764198958874, 0.10063473880290985, -0.01701163500547409, -0.040122222155332565, -0.10450150072574615, 0.0447896346449852, -0.018734166398644447, -0.11591964215040207, -0.16359609365463257, 0.11827099323272705], [0.06865613162517548, -0.05555839091539383, 0.016988402232527733, -0.20321215689182281, 0.07684225589036942, 0.018862441182136536, -0.03340456262230873, 0.025090292096138, -0.02289530262351036, -0.013973040506243706, -0.06912128627300262, 0.13482999801635742, -0.059564411640167236, -0.054944995790719986, 0.055519282817840576, -0.02786847949028015, -0.07921244204044342, -0.0038849832490086555, -0.0722368061542511, -0.09138715267181396], [0.12398730218410492, 0.07781556248664856, -0.0572790652513504, 0.0653110221028328, 0.18431997299194336, -0.085394486784935, -0.04920542240142822, 0.0516672283411026, -0.007186545990407467, 0.014067747630178928, -0.1303543746471405, 0.3092917203903198, 0.07888869941234589, 0.08753646910190582, 0.186909481883049, -0.000923174899071455, 0.10720590502023697, 0.03883680701255798, 0.07758662104606628, -0.07150725275278091], [-0.1839136779308319, -0.09075343608856201, -0.004592327866703272, 0.07406103610992432, -0.15592339634895325, 0.02784866653382778, 0.1174735277891159, 0.11148287355899811, 0.051896605640649796, -0.08689093589782715, -0.018440380692481995, 0.02816089428961277, 0.05344525724649429, -0.12823635339736938, 0.05825795233249664, 0.1019933894276619, -0.1276383250951767, -0.17083992063999176, -0.2332887351512909, -0.033130403608083725], [0.02090347558259964, 0.02382313273847103, 0.08632507175207138, -0.06876102834939957, -0.13198627531528473, 0.049231261014938354, 0.08895041048526764, 0.016613204032182693, 0.001131192548200488, 0.08827413618564606, -0.07097475230693817, 0.0758107602596283, -0.06592845916748047, -0.04234425351023674, 0.1294751912355423, 0.049024034291505814, -0.16859593987464905, -0.0395965538918972, -0.2226596176624298, 0.057148806750774384], [-0.008945002220571041, 0.0032172957435250282, -0.22779580950737, 0.1302315890789032, -0.17040100693702698, -0.00730833550915122, -0.13879400491714478, 0.20450226962566376, -0.18162348866462708, -0.12302419543266296, 0.11148981750011444, -0.01074276864528656, 0.1138693243265152, -0.01791498437523842, 0.00032960501266643405, 0.04339582473039627, -0.22272399067878723, 0.16825544834136963, 0.01759347878396511, 0.05414195358753204], [-0.0478246808052063, -0.05968482419848442, 0.22561168670654297, -0.13669273257255554, 0.06660059094429016, 0.1414717137813568, -0.006201634183526039, 0.061356279999017715, -0.14592789113521576, -0.25368016958236694, 0.11490410566329956, -0.1289890557527542, 0.0969725251197815, 0.16434453427791595, 0.08293978869915009, -0.06732439994812012, -0.19717010855674744, 0.04785905033349991, 0.09746305644512177, 0.06308809667825699], [0.05097385495901108, -0.2182084023952484, -0.09913681447505951, -0.11134693026542664, -0.05571897327899933, 0.13203713297843933, -0.12901145219802856, -0.1497248262166977, -0.01965661719441414, 0.0022028805688023567, -0.0005128192715346813, 0.01785453036427498, 0.07663196325302124, -0.13099485635757446, -0.03537067025899887, -0.17763015627861023, 0.21100512146949768, -0.013131199404597282, 0.09365470707416534, 0.04183599725365639], [-0.23571643233299255, -0.052816107869148254, -0.016303451731801033, -0.13055835664272308, 0.047203145921230316, -0.24048840999603271, 0.07742485404014587, 0.1478002667427063, -0.06664811074733734, -0.12646302580833435, 0.039777591824531555, -0.1290546953678131, 0.08660805225372314, -0.05411166697740555, 0.04508073627948761, -0.11765551567077637, -0.15799617767333984, -0.038120053708553314, -0.08894389867782593, 0.054835181683301926], [0.04322891682386398, -0.1587906926870346, 0.016702793538570404, 0.1840219497680664, 0.10425977408885956, -0.12164916843175888, -0.11473176628351212, 0.24463003873825073, -0.09666040539741516, -0.08933845162391663, -0.03695874661207199, -0.12698662281036377, 0.0008006077259778976, 0.09231723845005035, -0.024970369413495064, -0.06819620728492737, 0.20877525210380554, 0.08392274379730225, 0.05564549192786217, -0.06975521892309189], [-0.04543192684650421, -0.25244438648223877, -0.025975536555051804, 0.046783965080976486, 0.1425359845161438, -0.14657284319400787, 0.1789833903312683, 0.13459767401218414, -0.14215636253356934, -0.14478889107704163, -0.14331720769405365, 0.042424965649843216, 0.07005175948143005, 0.03011067770421505, 0.058763351291418076, 0.13940811157226562, 0.1387946754693985, -0.05724864825606346, 0.08410590887069702, 0.12414253503084183], [-0.16598078608512878, 0.013172145001590252, -0.026100438088178635, 0.05054225027561188, -0.05886601656675339, 0.07066401094198227, 0.03779470920562744, 0.2572157680988312, -0.15506339073181152, -0.10011976957321167, -0.031278613954782486, 0.11999337375164032, -0.11618320643901825, 0.09101330488920212, -0.17764315009117126, 0.029633384197950363, 0.12360130250453949, -0.025683026760816574, 0.1529010832309723, 0.03173881769180298], [-0.0070598311722278595, 0.05974002182483673, 0.043285612016916275, -0.20203684270381927, -0.14020633697509766, -0.09185557067394257, -0.08091071248054504, -0.14287523925304413, -0.1739119291305542, -0.10680671036243439, 0.05011638253927231, -0.09255623817443848, -0.03467673808336258, 0.14677080512046814, 0.0199134424328804, 0.14414562284946442, 0.15549145638942719, -0.14835886657238007, -0.2252299040555954, -0.03153792768716812], [0.09379927814006805, -0.014020885340869427, -0.07353375107049942, 0.2656279504299164, 0.07573966681957245, -0.09877973049879074, -0.09787177294492722, 0.11921804398298264, 0.2937995195388794, -0.04693134129047394, -0.240791454911232, 0.0012505878694355488, -0.1379307061433792, 0.14546890556812286, -0.09465119242668152, 0.12956398725509644, 0.09899730980396271, 0.07980473339557648, -0.09765066206455231, 0.09193140268325806], [-0.006646709982305765, -0.1543799340724945, -0.08386930823326111, -0.08194433152675629, 0.09237070381641388, -0.12586776912212372, 0.11124914884567261, 0.09318667650222778, -0.04949706792831421, -0.07011711597442627, -0.004123055841773748, -0.14371240139007568, 0.03388204425573349, -0.1899663507938385, 0.055602699518203735, 0.034725286066532135, -0.004501050803810358, -0.10095274448394775, -0.268667608499527, 0.04107093811035156], [-0.09022022783756256, 0.05884221941232681, 0.13934504985809326, -0.08377248793840408, -0.016660336405038834, 0.0027117906138300896, -0.0014744526706635952, 0.18733975291252136, 0.10550220310688019, 0.04988330602645874, 0.04459647089242935, -0.011194794438779354, -0.14567634463310242, 0.01068131998181343, -0.03583570569753647, 0.1866147518157959, -0.14876031875610352, -0.18056043982505798, 0.03333884850144386, 0.03227928280830383], [-0.09837353974580765, 0.026457346975803375, -0.1101100891828537, -0.035268329083919525, -0.2938864231109619, -0.0704292505979538, -0.09606523811817169, -0.03565118461847305, 0.15358617901802063, -0.0782848447561264, -0.040281519293785095, -0.05525122582912445, -0.14691506326198578, 0.22714945673942566, 0.07317977398633957, 0.0160614475607872, 0.05948677286505699, -0.1126035675406456, 0.09704414755105972, 0.14709842205047607], [-0.14599214494228363, 0.025014907121658325, 0.16799840331077576, 0.1441909521818161, -0.02409096248447895, -0.031646378338336945, 0.174179807305336, 0.012074852362275124, 0.006373159121721983, -0.018804218620061874, -0.003219006583094597, 0.011425402015447617, -0.214443176984787, -0.07132835686206818, 0.016118723899126053, -0.022293224930763245, -0.08704274892807007, 0.10135872662067413, 0.12365605682134628, 0.05740683153271675], [0.14433073997497559, -0.05647037923336029, -0.16116555035114288, 0.06344260275363922, 0.07968679815530777, -0.062283605337142944, -0.057931896299123764, 0.17805872857570648, -0.04644569382071495, -0.1700778305530548, 0.020401500165462494, 0.18247926235198975, 0.018611174076795578, 0.07513365894556046, 0.028018735349178314, 0.07126527279615402, -0.027306310832500458, -0.15307088196277618, 0.028050441294908524, 0.004519682843238115], [0.07794448733329773, 0.16691601276397705, 0.09726405143737793, 0.026347830891609192, 0.2065853774547577, 0.1693825125694275, -0.2077256143093109, -0.03519117087125778, 0.0968729555606842, -0.16959248483181, -0.009010154753923416, -0.2060505896806717, -0.08147618174552917, 0.18304917216300964, -0.0682075023651123, 0.020777737721800804, -0.13874925673007965, -0.18689429759979248, -0.06617460399866104, -0.05325649678707123], [-0.12844567000865936, -0.1693575084209442, 0.062242016196250916, -0.02160303294658661, 0.10435567796230316, -0.02245614491403103, -0.09475439786911011, -0.052655261009931564, -0.028897522017359734, 0.09832795709371567, -0.13861775398254395, 0.06700949370861053, -0.03841053694486618, 0.2479674518108368, 0.05533508211374283, 0.07067744433879852, 0.1690964698791504, -0.025162607431411743, -0.18772345781326294, 0.0192289836704731], [0.13831187784671783, 0.054151371121406555, -0.07150362432003021, 0.12456914782524109, -0.027717480435967445, -0.05563632771372795, 0.11763317137956619, -0.07735094428062439, -0.05760554224252701, -0.08800803124904633, 0.02318986877799034, 0.16971415281295776, -0.06779824197292328, 0.06249942258000374, 0.20771431922912598, -0.02605169266462326, -0.09264661371707916, 0.07814706861972809, 0.030624134466052055, 0.04105590656399727], [0.12465043365955353, 0.1073712706565857, -0.03991943970322609, -0.20740032196044922, 0.06235961988568306, -0.07647356390953064, 0.07056252658367157, -0.09440463036298752, 0.15454059839248657, -0.07003040611743927, -0.1462680846452713, -0.21210521459579468, 0.08221602439880371, 0.03265274316072464, 0.1733577996492386, 0.1169261485338211, 0.04735192283987999, -0.10870704054832458, 0.03435349091887474, 0.05825507640838623], [0.07972685992717743, -0.15796998143196106, 0.05783333629369736, -0.017861055210232735, 0.021070750430226326, -0.05505375936627388, -0.18846841156482697, -0.005640270188450813, -0.058568164706230164, 0.02541106380522251, -0.07525648921728134, -0.18861718475818634, -0.012441601604223251, 0.06455227732658386, -0.030540021136403084, 0.00528742466121912, -0.04980458319187164, -0.17091402411460876, 0.025206059217453003, -0.06664837151765823], [-0.12998725473880768, 0.0900006890296936, -0.06890155375003815, 0.014630600810050964, -0.06223970651626587, -0.18975839018821716, 0.08673294633626938, -0.1006380021572113, 0.2815830111503601, -0.007389938924461603, -0.18860748410224915, 0.0672168880701065, 0.09617900848388672, 0.1401071697473526, -0.18747065961360931, 0.11256060004234314, -0.009757552295923233, -0.19711902737617493, -0.004344237968325615, -0.0077359676361083984], [0.05726321414113045, 0.14716151356697083, -0.14269334077835083, -0.07313311100006104, 0.0909004807472229, 0.08832898736000061, -0.027846820652484894, 0.0705241709947586, -0.00961986556649208, -0.2084082067012787, -0.1540583074092865, -0.16784900426864624, 0.02812943048775196, -0.17570891976356506, 0.10944271832704544, 0.07881124317646027, -0.06711767613887787, -0.10042716562747955, 0.06480623781681061, 0.11705805361270905], [0.12512457370758057, -0.151408851146698, -0.0657099038362503, -0.08455615490674973, -0.1083914190530777, -0.08347451686859131, 0.1462409347295761, -0.023785345256328583, 0.11036580055952072, -0.010609772056341171, 0.005158474203199148, 0.04843476414680481, 0.00875764898955822, -0.11768338829278946, 0.07229984551668167, -0.19034339487552643, 0.014626258984208107, -0.08783013373613358, 0.1775154173374176, -0.05763205885887146], [0.19635522365570068, -0.05115692317485809, -0.125001922249794, 0.0358646884560585, 0.07526935636997223, -0.005205693654716015, 0.1734795719385147, -0.1929672360420227, -0.0994996652007103, 0.133711576461792, 0.04978405684232712, -0.04649411514401436, -0.24588073790073395, -0.0040656584315001965, 0.17315185070037842, 0.06821820139884949, -0.0175187885761261, 0.01838819496333599, 0.057633060961961746, 0.03748457878828049], [0.030268989503383636, -0.14666759967803955, -0.06881658732891083, 0.023530002683401108, 0.03277850151062012, -0.1461251825094223, -0.1127421110868454, -0.0490175299346447, -0.15500019490718842, 0.1453348696231842, 0.05030946061015129, -0.007762194145470858, -0.02995644323527813, -0.05964241176843643, 0.22601544857025146, 0.07909023761749268, -0.03832720220088959, -0.06231854856014252, -0.1409016251564026, -0.08261871337890625], [0.018087802454829216, 0.0002050846815109253, 0.1204914003610611, 0.06861501932144165, -0.15302208065986633, 0.21661043167114258, 0.03302479535341263, -0.11592843383550644, -0.0418204739689827, -0.08587750792503357, -0.05325315147638321, 0.05186457186937332, -0.061952538788318634, 0.059282682836055756, 0.18270614743232727, 0.1336711347103119, 0.17060501873493195, 0.03140624985098839, 0.11437578499317169, -0.03436104953289032], [-0.218288391828537, 0.012700045481324196, 0.1211680918931961, -0.17312294244766235, -0.25627070665359497, 0.10547080636024475, 0.2714998722076416, 0.06371945887804031, 0.076115682721138, 0.09186062216758728, 0.03822987526655197, -0.06486397236585617, 0.0475962869822979, 0.0658683106303215, 0.14941756427288055, 0.01107487827539444, -0.060653205960989, 0.14150333404541016, 0.08335919678211212, -0.0018213450675830245], [-0.06651066243648529, 0.15770992636680603, -0.03659157082438469, -0.07622940093278885, 0.19904102385044098, -0.05100984871387482, 0.0033463872969150543, 0.15603727102279663, 0.0008660033345222473, 0.07728637754917145, -0.050093285739421844, 0.06405161321163177, 0.09717920422554016, -0.17351576685905457, 0.2032027393579483, 0.03132880479097366, -0.055582791566848755, 0.17016515135765076, -0.12159483134746552, 0.020587462931871414], [0.08383988589048386, -0.021564899012446404, -0.10732830315828323, 0.023942647501826286, -0.019896140322089195, 0.2066267728805542, -0.16250894963741302, -0.06137726455926895, -0.06802744418382645, 0.18420051038265228, -0.058297738432884216, -0.29655635356903076, -0.07309655100107193, -0.021309416741132736, 0.12357582151889801, 0.19692853093147278, -0.12114623934030533, -0.13959233462810516, -0.035513561218976974, -0.07686391472816467], [0.1189328283071518, -0.021067706868052483, -0.15525731444358826, -0.10452968627214432, 0.018450064584612846, -0.034905336797237396, -0.03114941343665123, -0.019214818254113197, -0.006316852755844593, 0.04209539294242859, 0.2548440396785736, -0.0038315169513225555, 0.059889912605285645, 0.0633537769317627, 0.016174571588635445, 0.13670288026332855, 0.02655068039894104, 0.008275946602225304, 0.043317731469869614, 0.017726611346006393], [0.02864530310034752, -0.2309327870607376, 0.1469125747680664, 0.02101173810660839, 0.13678261637687683, -0.10069811344146729, 0.1482233852148056, 0.1863594949245453, -0.006087115965783596, -0.19469554722309113, 0.04870752990245819, 0.18201008439064026, 0.020840324461460114, -0.16752290725708008, 0.10012412071228027, -0.09565630555152893, -0.056121889501810074, 0.013911353424191475, -0.03508082032203674, 0.0868983045220375], [-0.10281159728765488, -0.22595757246017456, -0.04416809603571892, 0.08471667766571045, 0.20814605057239532, -0.07331134378910065, -0.14217615127563477, -0.093081533908844, -0.025652948766946793, -0.1588650643825531, 0.0904354453086853, -0.026238366961479187, -0.14443515241146088, 0.05901554599404335, -0.18944454193115234, -0.008537830784916878, -0.014304805546998978, -0.07129368185997009, -0.0017621093429625034, -0.028880782425403595], [0.12985265254974365, -0.011311500333249569, 0.13103562593460083, 0.1628628671169281, 0.021026814356446266, -0.14925484359264374, 0.06829359382390976, -0.14586575329303741, -0.11013002693653107, -0.09619513899087906, -0.03326433151960373, -0.10733926296234131, 0.0896550863981247, -0.05019897222518921, -0.03231016919016838, 0.03312426060438156, 0.15218374133110046, 0.01211286336183548, -0.12895749509334564, -0.003634209046140313], [-0.09468057006597519, 0.10159152001142502, -0.09921601414680481, -0.3448621928691864, 0.14747916162014008, 0.10101373493671417, -0.024003155529499054, 0.03792663663625717, -0.10074407607316971, -0.13402599096298218, 0.07974924147129059, -0.06521433591842651, -0.005105374846607447, -0.05327008664608002, 0.0176656823605299, 0.1745186448097229, 0.07055822014808655, 0.014575817622244358, 0.08836017549037933, -0.10599629580974579], [-0.002552761696279049, 0.05186301842331886, 0.07932278513908386, -0.0751119926571846, -0.008822072297334671, -0.17701241374015808, 0.016950448974967003, 0.1583065241575241, -0.05307944118976593, 0.23654237389564514, 0.08813916146755219, 0.018140103667974472, 0.09432460367679596, -0.13737709820270538, -0.07130400836467743, 0.045214444398880005, -0.05258885771036148, -0.25675421953201294, -0.05656754970550537, 0.08799918740987778], [-0.053534720093011856, 0.12749505043029785, -0.01624678634107113, 0.07690552622079849, -0.23115187883377075, 0.2099180668592453, -0.1255703866481781, 0.1967860460281372, -0.10137572884559631, 0.2501767575740814, -0.14457735419273376, 0.14317384362220764, -0.13186335563659668, 0.1495337188243866, 0.09113475680351257, 0.05269496887922287, 0.16119785606861115, 0.10732299089431763, 0.06434162706136703, 0.11640045046806335], [-0.03406498581171036, -0.03867161646485329, 0.035084184259176254, -0.10196810215711594, -0.10128624737262726, 0.06701619923114777, 0.12946611642837524, -0.08588678389787674, 0.029859676957130432, -0.07493906468153, 0.03943033888936043, -0.1715151071548462, -0.026699457317590714, 0.0490037240087986, -0.07628905773162842, -0.024893810972571373, -0.027597520500421524, -0.03865735977888107, -0.010539418086409569, 0.025430114939808846], [-0.00827457569539547, -0.08147921413183212, 0.11076655983924866, -0.044861309230327606, 0.06310523301362991, 0.00845305249094963, -0.1641489565372467, -0.008859632536768913, 0.06762427091598511, 0.038671333342790604, 0.03321664035320282, -0.0678463876247406, 0.0813344419002533, 0.08951746672391891, -0.08629553020000458, 0.2554081380367279, -0.23160922527313232, 0.23974567651748657, -0.14891019463539124, -0.004930902272462845], [0.01905387081205845, 0.2169996052980423, -0.1279643028974533, -0.030454836785793304, 0.09044551849365234, -0.11401329934597015, 0.037704721093177795, 0.0462699793279171, 0.04066266119480133, -0.06168985366821289, -0.14958834648132324, -0.12712565064430237, 0.08418285846710205, 0.08179844170808792, 0.15946675837039948, -0.09568966925144196, 0.09923394024372101, -0.07208643853664398, 0.036455608904361725, 0.033157505095005035], [0.06094690412282944, -0.05996406823396683, -0.02220465987920761, 0.017780762165784836, 0.18371033668518066, 0.03424296900629997, 0.017877139151096344, -0.01310693845152855, 0.13266567885875702, -0.15257489681243896, -0.014356996864080429, 0.05025045573711395, 0.13756448030471802, 0.11500822007656097, -0.03915845602750778, 0.13203668594360352, -0.09570235013961792, 0.21831652522087097, 0.06867747008800507, -0.15095706284046173], [0.1613578051328659, -0.05224279314279556, 0.1510145664215088, 0.014766314066946507, 0.08245041966438293, -0.05259310081601143, -0.15160547196865082, 0.3008207082748413, -0.10614664107561111, -0.1624457687139511, 0.0017849053256213665, -0.16313616931438446, 0.07855772972106934, 0.0775497704744339, -0.0833294615149498, 0.018133530393242836, 0.034586649388074875, -0.1416923701763153, -0.028158407658338547, 0.0008302191272377968], [0.227254718542099, 0.0007996978238224983, -0.07127022743225098, 0.055060066282749176, -0.11910367012023926, -0.10365211963653564, 0.1383722424507141, -0.023796267807483673, 0.17857815325260162, -0.06330722570419312, -0.08128925412893295, -0.08791683614253998, -0.30301767587661743, 0.14887207746505737, 0.0458136722445488, -0.08688490092754364, -0.08883465826511383, -0.06959334015846252, -0.23142388463020325, -0.009152932092547417], [-0.0032236804254353046, 0.07566626369953156, -0.06551675498485565, -0.08574322611093521, 0.11306767910718918, 0.11603638529777527, -0.0362313948571682, 0.01490270346403122, 0.011689520440995693, 0.1103862076997757, 0.19059079885482788, 0.038389451801776886, 0.09555603563785553, -0.08668772131204605, 0.10651861131191254, 0.02883381024003029, -0.21532891690731049, -0.056571461260318756, -0.011534282937645912, 0.0007559263613075018], [0.1030959039926529, 0.1900041699409485, 0.16570353507995605, -0.09315793961286545, -0.0046950820833444595, 0.18967193365097046, 0.033415816724300385, 0.06402376294136047, -0.1305609941482544, -0.07209206372499466, 0.011630321852862835, 0.0058361138217151165, 0.003354778978973627, 0.12016455829143524, -0.06387239694595337, -0.07298287749290466, 0.10793107748031616, 0.055784136056900024, -0.029153265058994293, 0.1475244164466858], [-0.006112179718911648, -0.06608891487121582, -0.06817147135734558, -0.09455934166908264, 0.15033522248268127, -0.024553891271352768, -0.0620526522397995, -0.13686513900756836, -0.10236592590808868, 0.12751682102680206, -0.06180750951170921, 0.03936223313212395, 0.007445643190294504, -0.07783221453428268, -0.07501254975795746, -0.06245359778404236, 0.07314048707485199, 0.04170922935009003, 0.029156241565942764, 0.08709236979484558], [-0.05375505983829498, 0.12977734208106995, -0.06695238500833511, -0.12850727140903473, -0.06111236289143562, 0.049235180020332336, 0.030047941952943802, 0.08683203160762787, -0.030483821406960487, 0.03309708461165428, 0.03649856150150299, 0.12177398800849915, 0.09724271297454834, -0.11715191602706909, 0.010160686448216438, 0.029538147151470184, -0.056019023060798645, -0.216977059841156, 0.011594077572226524, 0.14522258937358856], [-0.04737501218914986, 0.1532791256904602, -0.10632909089326859, 0.08657243847846985, -0.3030703067779541, 0.05639294162392616, -0.07159394025802612, 0.1332469880580902, 0.02411380037665367, 0.007328264880925417, -0.028497274965047836, 0.06841782480478287, 0.3008921146392822, 0.2043127417564392, 0.11994164437055588, -0.10114908218383789, 0.06472358852624893, -0.18448157608509064, -0.14147235453128815, -0.037678252905607224], [-0.06318502128124237, 0.13403010368347168, -0.2895430028438568, 0.0127633735537529, -0.021003229543566704, 0.1626899391412735, -0.09740082919597626, 0.0673871636390686, -0.007208474911749363, 0.05182895064353943, 0.013866499997675419, -0.1123112216591835, -0.018904738128185272, 0.18471935391426086, -0.05810697004199028, -0.020249605178833008, -0.25665396451950073, 0.0785609781742096, -0.004056002479046583, 0.024822920560836792], [0.01324702613055706, 0.03900999203324318, 0.17741668224334717, -0.2478027045726776, -0.011741283349692822, 0.01585048995912075, 0.005800199694931507, -0.13132455945014954, 0.20920178294181824, -0.1475594937801361, 0.13616223633289337, -0.17755281925201416, -0.15568025410175323, 0.1501881182193756, -0.1540939211845398, 0.038892168551683426, 0.10961556434631348, 0.03621870279312134, -0.01114014070481062, 0.03131747245788574], [-0.07838866859674454, -0.22335284948349, 0.19559022784233093, -0.23804433643817902, -0.12229582667350769, -0.18400706350803375, -0.12019193172454834, 0.023656699806451797, -0.0463966466486454, -0.21041947603225708, 0.0681999921798706, -0.09648767113685608, -0.13500486314296722, -0.07309681922197342, 0.007028339430689812, -0.0057426937855780125, -0.17013099789619446, 0.05865730717778206, -0.048905882984399796, 0.00348061416298151], [-0.010755421593785286, 0.11599176377058029, -0.12016598880290985, 0.17904263734817505, 0.22767876088619232, -0.05824410170316696, 0.14498500525951385, -0.0033822152763605118, -0.05878153443336487, 0.11155840754508972, 0.1751035749912262, 0.06643913686275482, 0.008584516122937202, 0.0780847817659378, -0.12723684310913086, 0.17171287536621094, 0.05844245105981827, 0.07025697827339172, -0.0772368460893631, 0.028631404042243958], [-0.0380428284406662, 0.04031917452812195, -0.011614453047513962, -0.08364172279834747, -0.11370938271284103, -0.2065487802028656, 0.04253794252872467, 0.027604088187217712, -0.011095605790615082, 0.10876427590847015, 0.020282084122300148, 0.1324094831943512, 0.16974496841430664, 0.11950554698705673, 0.042560651898384094, -0.019988849759101868, -0.005859934259206057, -0.037456922233104706, -0.14958280324935913, 0.007328520528972149], [-0.06280592083930969, 0.16006946563720703, 0.11622391641139984, 0.12418652325868607, 0.10608333349227905, -0.10421629995107651, -0.0037554847076535225, 0.14454898238182068, -0.07914961874485016, 0.025099370628595352, 0.020049963146448135, -0.008591096848249435, 0.15832088887691498, -0.07435988634824753, -0.04665934294462204, 0.2088758945465088, -0.12300636619329453, 0.17945565283298492, -0.0034894770942628384, -0.022235848009586334], [-0.05955786630511284, 0.05898969992995262, 0.07271459698677063, -0.020454254001379013, -0.12544235587120056, -0.0010988698340952396, -0.14199626445770264, 0.04298710823059082, 0.08250755071640015, -0.033205874264240265, -0.04439929872751236, 0.02187195047736168, 0.10298550128936768, -0.20156040787696838, -0.20544588565826416, 0.17451941967010498, -0.002930093090981245, -0.08279898762702942, 0.030272355303168297, 0.06575673818588257], [0.15430960059165955, 0.0919640064239502, -0.050272971391677856, -0.16392672061920166, -0.0431264266371727, -0.07496040314435959, 0.013010078109800816, -0.08443018049001694, -0.13881494104862213, -0.11016129702329636, -0.046471722424030304, -0.1332574188709259, 0.12259286642074585, -0.28282612562179565, 0.10246487706899643, 0.13902422785758972, -0.19096675515174866, -0.047629620879888535, 0.156826451420784, 0.030631355941295624], [0.05524018406867981, -0.007410081569105387, 0.1549486219882965, -0.05209991708397865, 0.22395317256450653, -0.07412870973348618, -0.04904770106077194, 0.03397798910737038, 0.025712165981531143, -0.053997717797756195, 0.1078752875328064, -0.013499888591468334, -0.003797838930040598, -0.16195890307426453, -0.055301811546087265, -0.1634785234928131, 0.08456447720527649, 0.1222006231546402, 0.02168765664100647, 0.06157875806093216], [0.028607290238142014, 0.0797165259718895, 0.12760405242443085, 0.07582643628120422, 0.020660310983657837, -0.16410690546035767, -0.016871700063347816, -0.3205656409263611, -0.025099005550146103, -0.03885379433631897, 0.03824548050761223, 0.015820812433958054, 0.08957569301128387, 0.05650539696216583, 0.16092084348201752, -0.05466781556606293, 0.03426121175289154, 0.2546080946922302, -0.10308961570262909, -0.041234470903873444], [-0.05350326746702194, -0.21722857654094696, -0.09532244503498077, 0.050522156059741974, -0.04850305616855621, 0.16858282685279846, 0.1807907223701477, 0.011139885522425175, 0.17415648698806763, -0.010284719988703728, 0.0679536983370781, 0.013116933405399323, -0.0430937297642231, -0.051852814853191376, -0.25946471095085144, -0.23021842539310455, 0.09667391330003738, 0.0012987935915589333, 0.2512657940387726, -0.003060892689973116], [0.011278495192527771, 0.0830157995223999, -0.14637942612171173, -0.04493796080350876, -0.044663116335868835, 0.017887340858578682, -0.08452773094177246, 0.09298545122146606, -0.034275978803634644, -0.043413013219833374, -0.11995992064476013, -0.011166433803737164, 0.05618399381637573, 0.011497442610561848, 0.03187747299671173, 0.06462790071964264, 0.010555537417531013, -0.13468626141548157, -0.13456876575946808, 0.09016168117523193]], "model.0.bias": [-0.13594986498355865, -0.09573067724704742, -0.06873071193695068, -0.056999508291482925, -0.03402450308203697, 0.02660667710006237, -0.11608833074569702, -0.043591905385255814, -0.13962355256080627, -0.06427247822284698, -0.07504475116729736, -0.07506364583969116, -0.011160284280776978, -0.043928422033786774, -0.05720803514122963, -0.030680593103170395, -0.0756366178393364, -0.0937955230474472, -0.0778154730796814, -0.14328493177890778, 0.01846485398709774, -0.06491082161664963, -0.09803122282028198, 0.04974997416138649, -0.03238687291741371, -0.09388202428817749, -0.041940394788980484, -0.0018675730098038912, -0.002318502403795719, -0.041328780353069305, -0.03188400715589523, -0.13075068593025208, -0.07695322483778, -0.07413846254348755, -0.029032185673713684, -0.04219561442732811, -0.0720028430223465, -0.06885141134262085, -0.08087554574012756, -0.12239407002925873, -0.07673634588718414, -0.0674009770154953, -0.021337401121854782, -0.11773699522018433, -0.06522710621356964, 0.07177485525608063, -0.06590470671653748, 0.09512928128242493, 0.017797691747546196, -0.06930670142173767, -0.09975382685661316, -0.07600203901529312, -0.03187733143568039, -0.03366421163082123, 0.006344601511955261, -0.06690330803394318, -0.10600386559963226, -0.07875485718250275, -0.00314929336309433, -0.014936992898583412, -0.03569631651043892, -0.06606936454772949, -0.05224679410457611, -0.0169618409126997, -0.04533708468079567, -0.030702343210577965, -0.15782830119132996, -0.015006574802100658, -0.006426118779927492, -0.0920301303267479, -0.044730767607688904, -0.03177625313401222, -0.055462997406721115, -0.054027628153562546, -0.08283890038728714, -0.052937284111976624, -0.08588126301765442, -0.06822329014539719, -0.05834101140499115, -0.08271335065364838, -0.12679584324359894, -0.0695447251200676, -0.14759060740470886, -0.10420401394367218, -4.578911466524005e-05, 0.016541866585612297, 0.005920255556702614, -0.05265425145626068, -0.13138727843761444, -0.07791203260421753, -0.05561215803027153, -0.12935775518417358, -0.0070727551355957985, -0.08327958732843399, -0.03175748884677887, -0.1877453327178955, -0.03488767147064209, 0.024270333349704742, -0.12474426627159119, -0.149290069937706, 0.019940871745347977, -0.05642681568861008, -0.14107225835323334, -0.05616803467273712, -0.026318375021219254, -0.0712534710764885, -0.08646483719348907, -0.12993235886096954, -0.047802411019802094, -0.13066254556179047, -0.027884986251592636, -0.043441224843263626, -0.10373619943857193, -0.09473185241222382, -0.05406469106674194, 0.026284292340278625, 0.007521915249526501, -0.07306291908025742, 0.050988685339689255, -0.035813502967357635, 0.012883443385362625, -0.11281003057956696, -0.15186649560928345, -0.01925516501069069, -2.1365005522966385e-05, -0.09768229722976685, 0.0033967136405408382, -0.15789073705673218], "model.2.weight": [[-0.04048299416899681, -0.071389339864254, 0.09466007351875305, -0.2402355670928955, -0.07224693149328232, 0.01621551252901554, -0.07523369789123535, 0.05995135381817818, -0.0063460152596235275, -0.0010101007064804435, 0.15432918071746826, 0.020165251567959785, -0.04560665786266327, -0.0903995931148529, -0.07097873836755753, -0.059659749269485474, -0.021221835166215897, 0.034557342529296875, -0.0185232050716877, 0.12565796077251434, 0.06553977727890015, -0.032905369997024536, -0.039890654385089874, -0.05568066984415054, 0.06735233962535858, -0.008776829577982426, 0.06997381150722504, 0.11395774036645889, 0.0632312223315239, 0.14899660646915436, 0.04497680440545082, -0.011273803189396858, 0.045116811990737915, 0.09750016033649445, 0.09864719957113266, -0.06151976436376572, -0.05261217802762985, 0.08265441656112671, -0.2043289989233017, -0.14914557337760925, -0.040815431624650955, 0.06146134436130524, 0.021047569811344147, 0.08656167984008789, 0.06233625486493111, -0.16764405369758606, -0.1659451425075531, 0.034321725368499756, 0.0845184177160263, -0.1812991499900818, 0.036983001977205276, 0.07122614979743958, 0.007421246729791164, 0.049887776374816895, -0.11820328235626221, -0.023521482944488525, -0.005870227701961994, 0.02016759291291237, -0.041889771819114685, -0.07762359082698822, -0.1561586856842041, 0.07642421871423721, 0.04286710545420647, -0.039620425552129745, -0.15637971460819244, 0.01970437914133072, 0.05591890960931778, 0.09365515410900116, -0.04825112596154213, -0.04790160804986954, -0.1538880467414856, 0.008700443431735039, -0.04810088500380516, 0.06521572917699814, -0.02366819977760315, -0.07304501533508301, 0.07805642485618591, 0.020226506516337395, 0.013874083757400513, 0.007890666835010052, 0.10339820384979248, -0.07378624379634857, -0.0882493183016777, 0.03791378438472748, 0.12597841024398804, -0.05025997757911682, 0.004191144369542599, -0.048593081533908844, 0.017462382093071938, 0.08424529433250427, -0.05967331677675247, -0.14186814427375793, -0.20214220881462097, -0.01947971247136593, 0.07771111279726028, -0.025666099041700363, -0.008524486795067787, 0.10349524021148682, -0.004503678064793348, 0.08862192183732986, 0.09605802595615387, 0.014572075568139553, -0.12479731440544128, -0.015369176864624023, 0.055082593113183975, -0.10827180743217468, -0.0716455951333046, -0.08737115561962128, 0.15792357921600342, 0.1010509729385376, -0.1813042163848877, -0.07665020227432251, 0.018437985330820084, 0.03179691731929779, -0.022464565932750702, -0.13001827895641327, -0.1878809630870819, -0.14380326867103577, 0.009398417547345161, -0.09412878751754761, 0.10723236203193665, -0.1487961858510971, 0.012579691596329212, -0.09706258028745651, 0.055034615099430084, 0.0809488594532013, 0.11094114184379578, 0.011224751360714436], [-0.05047865957021713, -0.13205496966838837, -0.02412554807960987, -0.08046483993530273, -0.12157793343067169, 0.16879257559776306, -0.009336876682937145, 0.0179402157664299, 0.14964528381824493, -0.0640561655163765, 0.0664149671792984, -0.06508895754814148, 0.11682234704494476, -0.12102916836738586, -0.04402540624141693, 0.0832701176404953, -0.023154761642217636, -0.041916534304618835, -0.10145626217126846, -0.15132033824920654, 0.019640646874904633, 0.06975604593753815, -0.22120818495750427, 0.084358349442482, 0.07372061163187027, -0.12335555255413055, 0.06492655724287033, 0.09575037658214569, 0.0328565314412117, -0.1327197253704071, 0.05982472002506256, -0.0532945953309536, -0.0750214010477066, 0.01841258630156517, -0.05664791166782379, 0.01270756684243679, 0.07666589319705963, -0.2020578682422638, -0.036873556673526764, -0.005325821228325367, -0.04296151176095009, 0.022630224004387856, -0.08647476136684418, -0.05331025272607803, -0.032089222222566605, -0.1819034218788147, 0.025284500792622566, 0.007445553317666054, -0.21104823052883148, 0.06687131524085999, -0.19523409008979797, -0.1247532069683075, 0.008708333596587181, -0.16585391759872437, -0.002094497438520193, 0.1093825027346611, 0.03551451861858368, -0.061392322182655334, -0.10930904746055603, -0.16015733778476715, -0.1404270976781845, -0.04727943241596222, 0.10535858571529388, -0.010273010469973087, -0.001543126069009304, -0.14262810349464417, 0.05315198749303818, -0.1606622040271759, 0.11048254370689392, -0.0956534668803215, -0.063929982483387, -0.0996275544166565, 0.018941793590784073, 0.10086590051651001, -0.07868416607379913, 0.07416829466819763, -0.09945261478424072, -0.11622761189937592, -0.08939740806818008, 0.09040027856826782, 0.015294149518013, -0.013699052855372429, -0.059350524097681046, 0.040851421654224396, -0.07759195566177368, -0.09699700772762299, 0.00775783509016037, -0.06281997263431549, 0.019166000187397003, -0.06545788049697876, -0.10463909804821014, -0.043254636228084564, 0.04818868637084961, 0.028622247278690338, -0.07945488393306732, -0.11417368054389954, -0.13161733746528625, -0.05193040519952774, 0.1361604928970337, -0.04794273152947426, -0.09331566095352173, -0.06262397766113281, 0.02066747285425663, 0.05144285410642624, -0.12562061846256256, 0.02801918238401413, -0.19301503896713257, 0.06868374347686768, -0.07064350694417953, -0.013246607035398483, 0.030050843954086304, -0.13167324662208557, -0.053855571895837784, -0.09374651312828064, -0.023522470146417618, 0.008938055485486984, 0.08326779305934906, 0.07401532679796219, -0.09983057528734207, 0.10387248545885086, 0.011053534224629402, 0.12909936904907227, -0.047771554440259933, -0.027462800964713097, -0.08737258613109589, 0.026886599138379097, -0.026860397309064865, 0.035506993532180786], [-0.01723872311413288, -0.06973020732402802, -0.0034454287961125374, -0.1294902265071869, -0.11037082225084305, -0.02082238346338272, -0.10423652827739716, 0.06390736252069473, -0.022205330431461334, 0.0030321585945785046, 0.08699216693639755, -0.01733756996691227, -0.04563024267554283, 0.005330790765583515, -0.009910807944834232, -0.2540998160839081, 0.06570333987474442, 0.10343441367149353, 0.15652337670326233, -0.09409734606742859, -0.02273237146437168, 0.13029640913009644, 0.09336905181407928, -0.12126050889492035, -0.040124256163835526, 0.08420762419700623, -0.11977522075176239, 0.01127131562680006, 0.012059960514307022, 0.021982982754707336, -0.07967820018529892, -0.0465097613632679, 0.06320572644472122, -0.00041365576907992363, -0.08830942213535309, 0.11234356462955475, 0.032957304269075394, -0.053519874811172485, -0.07951943576335907, -0.10422089695930481, -0.05915240943431854, -0.08250563591718674, 0.04815676063299179, -0.037982162088155746, -0.19334715604782104, -0.2812018394470215, -0.23312607407569885, 0.004474049434065819, 0.1059999018907547, -0.017308205366134644, -0.18022868037223816, -0.09691262245178223, -0.008222272619605064, 0.09726841002702713, 0.005854610353708267, -0.09653356671333313, -0.09005394577980042, -0.21284598112106323, 0.02725636400282383, -0.24345368146896362, 0.11931896209716797, -0.1243663802742958, -0.05279433727264404, 0.048840880393981934, -0.10618869960308075, 0.1434904783964157, 0.01317441277205944, -0.07492323964834213, -0.24414561688899994, -0.03263615071773529, -0.08772992342710495, -0.0909198522567749, -0.03739497438073158, -0.027233436703681946, -0.05635111778974533, -0.0035682786256074905, 0.147774338722229, 0.04560491442680359, -0.03616633638739586, 0.13947607576847076, 0.11362335830926895, 0.14187422394752502, -0.11736956238746643, 0.01373637467622757, 0.014339728280901909, -0.03200944513082504, -0.18249285221099854, 0.0812222883105278, 0.1355155110359192, -0.013808305375277996, 0.21171456575393677, -0.10807021707296371, -0.15345782041549683, -0.09007079899311066, -0.07635030150413513, -0.18446627259254456, 0.14567343890666962, -0.18068206310272217, -0.02085636556148529, -0.07370568066835403, 0.13952335715293884, -0.12667059898376465, -0.025358503684401512, 0.18034915626049042, 0.04906582832336426, -0.01040023285895586, -0.09507623314857483, 0.12578530609607697, -0.1846780776977539, 0.17256668210029602, -0.056221384555101395, 0.01507332269102335, 0.06716448068618774, 0.04612726718187332, 0.15033863484859467, 0.03637968376278877, 0.0768224447965622, 0.12976394593715668, 0.1122761070728302, -0.10124629735946655, 0.04267154633998871, -0.11679305136203766, 0.17192117869853973, 0.09322752058506012, -0.07701794058084488, -0.17835621535778046, -0.3362465500831604, -0.0223114974796772], [-0.02960057184100151, 0.11398456990718842, -0.0068159219808876514, 0.10247448086738586, 0.04810626432299614, -0.03998449817299843, -0.010134879499673843, -0.00975121557712555, 0.060515157878398895, -0.0922592431306839, 0.03944888338446617, -0.1324985921382904, -0.13345760107040405, 0.03357512503862381, -0.08710449934005737, 0.008997203782200813, -0.1668567806482315, 0.032156672328710556, -0.009371752850711346, -0.09742585569620132, -0.08766555786132812, 0.028703460469841957, -0.05482161045074463, -0.10152508318424225, 0.05775010213255882, -0.027436958625912666, -0.050690241158008575, 0.013569519855082035, -0.03547725826501846, -0.08506783843040466, 0.0957399308681488, -0.18195073306560516, 0.019304724410176277, 0.1349087655544281, 0.008104883134365082, -0.10152533650398254, -0.18059808015823364, -0.022196397185325623, -0.12912636995315552, -0.11699289083480835, 0.012947053648531437, -0.1692536175251007, -0.22482368350028992, -0.07393872737884521, -0.05977974832057953, 0.0276234969496727, 0.007807409856468439, -0.20025497674942017, -0.05972348898649216, 0.11628228425979614, -0.01883799210190773, 0.05614990368485451, -0.009947006590664387, 0.1394118368625641, -0.05787443369626999, -0.1894388198852539, -0.1017688661813736, -0.09519992768764496, -0.1241508200764656, -0.1016104519367218, -0.03734537959098816, -0.007656823843717575, -0.06399880349636078, -0.043781619518995285, 0.02436656691133976, -0.1208612322807312, 0.03392218425869942, -0.07861639559268951, 0.09978573024272919, -0.137671560049057, -0.07389809191226959, 0.06140580773353577, 0.010306510142982006, -0.0521739199757576, -0.0950394943356514, -0.04822336137294769, 0.08364282548427582, -0.014976087026298046, -0.051718004047870636, 0.029085177928209305, 0.0025350062642246485, 0.0396079495549202, -0.009805427864193916, -0.13197392225265503, -0.14960557222366333, -0.12011338025331497, -0.06219523400068283, -0.08386445045471191, -0.07127119600772858, 0.08744989335536957, 0.06844201683998108, 0.016893848776817322, 0.016766993328928947, -0.11193856596946716, 0.0004287947667762637, 0.03232350945472717, -0.13967518508434296, -0.07028545439243317, 0.012729749083518982, 0.0800238847732544, -0.008841414004564285, -0.13068115711212158, -0.2087206244468689, -0.026234079152345657, -0.08284752070903778, 0.011053716763854027, -0.12443076074123383, -0.11271613836288452, 0.05840744450688362, 0.036571942269802094, -0.12537191808223724, -0.08836677670478821, 0.029064811766147614, 0.015024472028017044, -0.04649365693330765, -0.008974471129477024, -0.01643924042582512, 0.03886120021343231, -0.055617835372686386, -0.11127837002277374, 0.08207334578037262, -0.11345319449901581, 0.07132531702518463, -0.17529892921447754, -0.02181340754032135, -0.03191869705915451, 0.15733805298805237, -0.014956069178879261], [0.12256449460983276, -0.22432254254817963, 0.06072818487882614, 0.21274009346961975, -0.05463508516550064, -0.030361585319042206, 0.044143304228782654, 0.012056248262524605, -0.06854090094566345, 0.10478337109088898, 0.020485255867242813, -0.2038637101650238, 0.025924185290932655, 0.11574356257915497, 0.19740095734596252, 0.044951699674129486, 0.07335306704044342, 0.020953509956598282, -0.0331941582262516, -0.1704527735710144, 0.11660976707935333, 0.0942494124174118, -0.12594489753246307, 0.029065599665045738, 0.1584419310092926, -0.0013848221860826015, 0.016292277723550797, -0.015912631526589394, 0.02390812337398529, -0.09085756540298462, -0.11516929417848587, -0.12754634022712708, -0.08857779204845428, -0.07247935980558395, -0.1552305668592453, 0.06551830470561981, -0.0086068045347929, -0.058755356818437576, 0.01632571592926979, -0.13637793064117432, 0.05060025677084923, 0.014394265599548817, 0.07578286528587341, -0.04448464512825012, 0.051340434700250626, -0.012166205793619156, -0.01715601608157158, 0.07582680881023407, 0.057299643754959106, -0.1444268822669983, -0.2201511561870575, -0.027210034430027008, 0.07040588557720184, 0.005061222240328789, -0.07039327919483185, 0.059369705617427826, 0.09495189040899277, -0.037872232496738434, -0.09069439768791199, -0.014059070497751236, -0.1073986068367958, -0.16878288984298706, 0.14247845113277435, 0.1472645103931427, 0.06438262015581131, 0.01879209838807583, -0.05189649015665054, 0.11235816776752472, -0.034723516553640366, -0.10801789164543152, -0.0298445001244545, 0.05916265770792961, 0.07107661664485931, 0.07228118926286697, 0.02747878059744835, 0.01454461831599474, -0.18456020951271057, 0.016822796314954758, -0.0073294187895953655, -0.0885215550661087, -0.05743183195590973, 0.06754171848297119, 0.09591002762317657, 0.0003901177551597357, 0.013670687563717365, -0.007761301007121801, -0.009793105535209179, 0.06787034124135971, 0.05728204548358917, -0.09206020832061768, -0.17318673431873322, 0.14141929149627686, 0.167240709066391, 0.010299192741513252, -0.10028859972953796, 0.04633980244398117, -0.04890312999486923, -0.038788482546806335, -0.0028889658860862255, -0.04836755245923996, -0.1673656404018402, -0.1076587364077568, -0.0062157828360795975, -0.04139212891459465, 0.022304659709334373, 0.1360318958759308, -0.00011847435962408781, -0.09768830239772797, -0.19725453853607178, 0.05534891411662102, 0.030890636146068573, -0.004172309767454863, -0.16407470405101776, 0.010270725004374981, -0.16845321655273438, 0.06321768462657928, -0.07905590534210205, -0.009109033271670341, 0.01656988635659218, 0.14430777728557587, 0.08066202700138092, 0.045569758862257004, 0.10303499549627304, 0.02092517539858818, 0.0526309460401535, 0.15645940601825714, 0.004793133586645126, -0.16970433294773102], [0.05352260544896126, 0.06051450967788696, 0.014506489038467407, -0.09810697287321091, 0.03917193412780762, 0.08520345389842987, -0.2484457939863205, -0.0028072986751794815, -0.09701834619045258, -0.08672837913036346, 0.07849371433258057, 0.01200941577553749, -0.11815240979194641, -0.1367882788181305, -0.08997604250907898, -0.10167702287435532, 0.05729769915342331, -0.06301531195640564, 0.09913448989391327, 0.04237983375787735, 0.09670411050319672, -0.15322935581207275, 0.02790280431509018, 0.05706331878900528, 0.056978072971105576, -0.05038449168205261, 0.1381940096616745, 0.16949966549873352, 0.18693943321704865, 0.010739757679402828, 0.07192349433898926, -0.07413037121295929, 0.1749771535396576, 0.005098639987409115, 0.10659829527139664, 0.026081111282110214, -0.010103424079716206, -0.19197112321853638, -0.05667971819639206, -0.12224268168210983, -0.07324060797691345, -0.03268714249134064, 0.15282762050628662, -0.017552433535456657, -0.22431063652038574, -0.1609482616186142, -0.14797377586364746, -0.001489977235905826, 0.04341275244951248, -0.2885098457336426, -0.09254161268472672, -0.14811454713344574, 0.09936261922121048, 0.13337813317775726, -0.0022408724762499332, -0.15850947797298431, 0.07358056306838989, -0.010858193039894104, 0.03176195174455643, -0.01583879068493843, 0.15613126754760742, 0.10170049220323563, 0.035976342856884, 0.044856831431388855, -0.06570389866828918, -0.0535920150578022, 0.023635800927877426, -0.13791465759277344, 0.00665673241019249, -0.07958680391311646, -0.0411834754049778, 0.0323977917432785, 0.06152607500553131, 0.05946832895278931, -0.10445155948400497, -0.025206800550222397, -0.019210491329431534, 0.06542196124792099, -0.15493367612361908, -0.04639910161495209, -0.1196535974740982, 0.06315222382545471, 0.07494063675403595, 0.0009174218866974115, -0.05707002058625221, 0.10400229692459106, 0.07411496341228485, -0.11464636027812958, 0.12041512131690979, -0.2021573781967163, 0.062700554728508, -0.09064670652151108, -0.09415116161108017, 0.015156691893935204, -0.013682307675480843, -0.1056455448269844, -0.04685470834374428, 0.03214997798204422, -0.057647302746772766, 0.13980194926261902, 0.10209034383296967, 0.03011997416615486, -0.07496876269578934, -0.029324743896722794, -0.08619606494903564, -0.09233343601226807, -0.02272360399365425, 0.0007709219353273511, 0.007726173847913742, 0.023035138845443726, -0.12604591250419617, -0.09904932975769043, 0.06278633326292038, -0.049336839467287064, -0.006807655096054077, 0.12030410021543503, -0.13920007646083832, 0.049564555287361145, 0.15181414783000946, -0.08499623090028763, 0.10859885066747665, -0.036633409559726715, 0.06241044029593468, 0.1281416416168213, 0.09838192164897919, 0.05574217438697815, 0.025264080613851547, 0.0530536025762558], [-0.012539413757622242, 0.08309473842382431, -0.01976560242474079, -0.14559771120548248, -0.04805274307727814, -0.001761064981110394, -0.1360982358455658, -0.05203323811292648, -0.05736054480075836, 0.01599321886897087, -0.1416654884815216, -0.11618569493293762, -0.07811744511127472, -0.11624389886856079, 0.050211306661367416, -0.010520611889660358, 0.07412894070148468, 0.001851092092692852, -0.18114939332008362, -0.12912636995315552, -0.021175507456064224, -0.12322109937667847, -0.11885412037372589, 0.19344845414161682, 0.09333635866641998, -0.002193332649767399, 0.06041114032268524, 0.07713332772254944, -0.019855787977576256, 0.0034547101240605116, -0.004832686390727758, 0.09117967635393143, -0.1432090848684311, -0.04088302701711655, 0.055605825036764145, -0.17730341851711273, -0.1071494072675705, 0.017196036875247955, -0.04615197330713272, -0.13090045750141144, -0.010896443389356136, -0.13911917805671692, -0.008468958549201488, -0.055131345987319946, 0.13600191473960876, -0.14660541713237762, -0.05573492497205734, -0.12224572896957397, -0.05157377943396568, -0.06430437415838242, -0.0840282067656517, -0.07281994819641113, -0.0006076190620660782, -0.04358215630054474, 0.06740322709083557, 0.003929688595235348, 0.1157204881310463, 0.059905581176280975, 0.00839803647249937, 0.04307926446199417, -0.027123693376779556, 0.04482848569750786, -0.028540682047605515, 0.0030403833370655775, -0.05372387170791626, -0.12462230026721954, 0.036489129066467285, -0.2040429413318634, 0.05860359966754913, -0.0081213703379035, -0.00635956134647131, -0.09658977389335632, 0.10832744836807251, -0.10683432221412659, 0.095465287566185, -0.19335925579071045, -0.19947779178619385, 0.06590946018695831, -0.08556362986564636, 0.03275397792458534, -0.004981871694326401, -0.0608983114361763, -0.08926411718130112, -0.0338965505361557, -0.049888648092746735, 8.646002970635891e-05, -0.10125473141670227, -0.11254575848579407, -0.025422345846891403, 0.0683055892586708, -0.10993131995201111, -0.03816571459174156, -0.08847382664680481, 0.02697593718767166, 0.034382276237010956, -0.09758102893829346, 0.12220856547355652, 0.07913608103990555, -0.11538158357143402, -0.06925652176141739, 0.0843748077750206, 0.050573013722896576, 0.0957411676645279, -0.13552629947662354, -0.11639717221260071, -0.07055481523275375, 0.03393212705850601, -0.1490677297115326, -0.1376744955778122, -0.032779693603515625, -0.0027764406986534595, -0.11613517999649048, -0.15247184038162231, -0.018321827054023743, -0.07877764105796814, 0.03972615674138069, 0.032783497124910355, -0.10928510129451752, -0.01909264549612999, -0.09192249178886414, -0.09659186750650406, -0.05650816112756729, -0.06177179515361786, 0.011201974004507065, -0.09809741377830505, 0.01019372045993805, 0.021083524450659752, -0.08124610781669617], [0.07612109184265137, 0.046954408288002014, 0.01991264894604683, -0.15052193403244019, -0.05925258621573448, 0.07907338440418243, 0.027617445215582848, 0.026706166565418243, 0.01465530414134264, -0.17722561955451965, -0.1203891932964325, 0.0069088321179151535, 0.0424482598900795, 0.07228735089302063, -0.13727565109729767, -0.14389009773731232, -0.10377644747495651, -0.02893727645277977, -0.0687197744846344, -0.11096015572547913, -0.005193995777517557, -0.04659046605229378, 0.05528996139764786, -0.048429980874061584, 0.04885545372962952, -0.020187679678201675, 0.01987742818892002, 0.015024996362626553, 0.07399588078260422, 0.03749503940343857, 0.032613903284072876, 0.0966077595949173, 0.032203979790210724, -0.11381860077381134, 0.026123085990548134, 0.030519425868988037, -0.09626154601573944, -0.05299389362335205, -0.10627399384975433, -0.1016099750995636, -0.004430854227393866, 0.03550707548856735, -0.0294509194791317, 0.044641949236392975, -0.014795820228755474, -0.09337977319955826, -0.1033545583486557, 0.06864471733570099, 0.11029872298240662, -0.009187755174934864, -0.014232732355594635, -0.04331018775701523, 0.09099052101373672, -0.15232780575752258, -0.04207562282681465, -0.10628286004066467, -0.042769696563482285, 0.010931625962257385, -0.030052676796913147, 0.017151806503534317, -0.0356585755944252, -0.07218492776155472, -0.016329174861311913, -0.047626521438360214, -0.14317674934864044, -0.003148032817989588, 0.06411118060350418, -0.09857778996229172, 0.009969248436391354, -0.01261093094944954, -0.06212976574897766, 0.002387164393439889, 0.06961379945278168, -0.0831570103764534, -0.010723461396992207, 0.1333981454372406, 0.09362133592367172, -0.08547911047935486, -0.007635196670889854, -0.18962214887142181, 0.12401150166988373, -0.12682701647281647, -0.04074963927268982, 0.06747149676084518, -0.050857096910476685, -0.047898076474666595, 0.060139067471027374, 0.0687410831451416, 0.02450544387102127, 0.12510743737220764, -0.13321523368358612, -0.014977364800870419, -0.10866154730319977, 0.10624543577432632, 0.04026312381029129, -0.005380655638873577, -0.10165093839168549, 0.03982938453555107, -0.07555776089429855, -0.02828923985362053, -0.05587686970829964, 0.0419451966881752, -0.007900828495621681, 0.15777690708637238, 0.10692077875137329, -0.0632183775305748, -0.03021746501326561, 0.09012360870838165, -0.09436304867267609, 0.021635055541992188, -0.07928115874528885, 0.01894640177488327, 0.06362344324588776, -0.058938950300216675, 0.09947124123573303, -0.008512865751981735, -0.05926861986517906, -0.09513036906719208, 0.04402244836091995, -0.046005457639694214, 0.009727420285344124, -0.08440035581588745, -0.03299244865775108, -0.0963166356086731, -0.008885197341442108, 0.08565816283226013, -0.12030497193336487, -0.025534257292747498], [0.03918617591261864, -0.006174102891236544, -0.018929753452539444, 0.030146842822432518, -0.05036088451743126, 0.0798223540186882, -0.06073062866926193, 0.12081710249185562, 0.052919901907444, 0.07841876149177551, -0.11172820627689362, -0.10799281299114227, 0.03889719024300575, -0.00031025055795907974, 0.04253127798438072, 0.09670500457286835, 0.05476812273263931, -0.05708829686045647, 0.026207812130451202, -0.09338368475437164, 0.10098572075366974, 0.01233319379389286, 0.1317266821861267, 0.012853232212364674, -0.11150678992271423, -0.0006088606314733624, -0.15024006366729736, -0.13572028279304504, 0.03683649003505707, -0.11582835018634796, -0.029524382203817368, 0.06604641675949097, -0.06352006644010544, -0.018526924774050713, -0.10537587106227875, 0.09632053971290588, -0.14211870729923248, 0.0570426769554615, 0.13061872124671936, -0.03712720423936844, 0.025069572031497955, -0.11099740862846375, 0.033064693212509155, 0.05703124403953552, 0.08563415706157684, -0.013327986001968384, -0.11118869483470917, 0.06840445101261139, 0.10488420724868774, 0.01779063418507576, 0.0027929870411753654, -0.08050110936164856, 0.05682021751999855, 0.05613454431295395, -0.10648222267627716, 0.06533025205135345, 0.03044821321964264, -0.08957675099372864, -0.009503209963440895, -0.09011273086071014, 0.08911450207233429, -0.06323764473199844, -0.09348820894956589, -0.17381161451339722, 0.025272443890571594, -0.0005546107422560453, -0.04324765503406525, 0.014002019539475441, -0.05127284675836563, -0.13010160624980927, -5.7763667427934706e-05, 0.08378507941961288, -0.06120540201663971, -0.0914686769247055, 0.024364594370126724, -0.1478521078824997, -0.017064088955521584, -0.020811796188354492, 0.00830223597586155, -0.03451269865036011, -0.08832652866840363, -0.012173270806670189, -0.1186385303735733, 0.06558740884065628, -0.06708954274654388, -0.029566872864961624, -0.08955793082714081, -0.10568537563085556, -0.06975189596414566, 0.03671472147107124, 0.029165029525756836, -0.04104173183441162, -0.04111028462648392, 0.03552650287747383, -0.14734964072704315, 0.11180540919303894, 0.04770399257540703, 0.08683095872402191, -0.05144456773996353, -0.13037696480751038, -0.013424482196569443, -0.018970772624015808, 0.0007252070936374366, -0.0535309761762619, -0.04423421621322632, 0.0806933268904686, -0.017571795731782913, -0.03660453110933304, 0.08549600839614868, -0.0693797618150711, -0.017107315361499786, 0.1194307804107666, -0.06580787897109985, -0.05335124582052231, -0.058154359459877014, 0.08999285101890564, -0.04765744507312775, -0.03295978158712387, -0.06510086357593536, -0.08515110611915588, 0.06434881687164307, -0.014590341597795486, -0.1131407618522644, -0.06070946902036667, -0.04830607399344444, -0.03878365829586983, 0.08788305521011353, -0.02129441872239113], [0.04616905003786087, -0.053270090371370316, 0.03010568395256996, -0.12963730096817017, -0.019989043474197388, -0.16290968656539917, -0.017563510686159134, -0.12941086292266846, -0.11922012269496918, -0.02172139845788479, -0.2505590617656708, -0.1725846529006958, -0.0312991626560688, 0.059483837336301804, -0.16926586627960205, -0.10883168876171112, -0.01491834782063961, -0.048308033496141434, 0.009705648757517338, -0.03810041770339012, -0.0727982148528099, -0.12132131308317184, 0.09339815378189087, -0.1682485193014145, 0.04960910230875015, -0.0603991374373436, 0.061762817203998566, -0.028891602531075478, -0.06610926985740662, -0.052619852125644684, -0.10713355243206024, -0.12881487607955933, -0.17322707176208496, -0.010419146157801151, -0.0442880317568779, -0.04611644893884659, -0.012841450981795788, 0.011638758704066277, -0.10677821934223175, -0.17441582679748535, -0.0040067448280751705, -0.03985228389501572, 0.04325299710035324, -0.035118360072374344, -0.04601377621293068, -0.030625632032752037, -0.10427296161651611, -0.09280626475811005, -0.13892734050750732, 0.001450287876650691, 0.02717592380940914, 0.04974237084388733, 0.0436323806643486, -0.1284782886505127, 0.08687328547239304, 0.01639385148882866, -0.08193892240524292, -0.050267260521650314, -0.05727679282426834, -0.08412513136863708, 0.08776943385601044, 0.019476311281323433, 0.005509692244231701, -0.028687290847301483, -0.026005614548921585, 0.026623763144016266, -0.04859291762113571, -0.04812172055244446, -0.03110736422240734, -0.040261268615722656, 0.08307875692844391, -0.0709073394536972, -0.05717305466532707, -0.18738265335559845, 0.20010444521903992, -0.18623656034469604, -0.14418059587478638, -0.08934085071086884, -0.03252284228801727, -0.08049201965332031, -0.12985052168369293, -0.08708775043487549, -0.019090522080659866, -0.034497346729040146, -0.10551509261131287, 0.016082126647233963, -0.03930877894163132, -0.06501094251871109, -0.15617604553699493, -0.12815722823143005, -0.010537657886743546, -0.10478508472442627, -0.010386338457465172, -0.1593235731124878, -0.12852200865745544, -0.006063034757971764, -0.07652148604393005, -0.17849189043045044, 0.12781161069869995, 0.049308545887470245, -0.006663292646408081, -0.021562345325946808, 0.09733568131923676, -0.1370680332183838, -0.04517009109258652, -0.060343675315380096, -0.1623528003692627, -0.1551361083984375, -0.17706650495529175, 0.0025797185953706503, 0.0010319841094315052, -0.023909464478492737, -0.015172306448221207, -0.0857422798871994, -2.362998202443123e-06, -0.07510817050933838, -0.09295561909675598, 0.026410318911075592, -0.05068347603082657, -0.028946876525878906, -0.1222134456038475, 0.048678815364837646, -0.09680426120758057, -0.04675328731536865, -0.03802219778299332, -0.08900292217731476, -0.03721363842487335, -0.04889383912086487], [0.04500007629394531, -0.16006284952163696, 0.020745111629366875, 0.046221453696489334, 0.0335504412651062, 0.06256456673145294, -0.06826891005039215, 0.01910688728094101, -0.18926173448562622, -0.09289814531803131, -0.040933333337306976, 0.0016021423507481813, -0.03495907783508301, 0.02721438929438591, 0.18411047756671906, -0.1358640193939209, -0.005181306507438421, -0.00027507240884006023, -0.03330633044242859, -0.07390189915895462, -0.004300937056541443, 0.03405062109231949, 0.11198126524686813, -0.03393579646945, 0.023610085248947144, -0.0323592908680439, 0.12101052701473236, -0.026768725365400314, 0.0294639952480793, 0.093060702085495, 0.07012367248535156, -0.0899503231048584, -0.001989490119740367, -0.15014606714248657, -0.028789939358830452, 0.026034248992800713, -0.0398259311914444, -0.020025528967380524, -0.08314208686351776, -0.06518283486366272, -0.09355932474136353, 0.05946185812354088, -0.1214510053396225, 0.08471314609050751, -0.10164053738117218, 0.0034696413204073906, -0.13844791054725647, 0.05850815773010254, 0.060978442430496216, -0.06521781533956528, 0.030505776405334473, -0.12518058717250824, 0.11480840295553207, 0.03621220588684082, -0.04997966066002846, -0.04919605329632759, 0.06215967237949371, -0.037458695471286774, 0.06216847151517868, 0.045990750193595886, 0.02207241579890251, -0.005620089825242758, 0.13345694541931152, 0.026160605251789093, 0.1359304040670395, -0.016863388940691948, 0.03927510976791382, -0.1393311321735382, -0.045041944831609726, -0.023896684870123863, -0.08866013586521149, -0.00945428479462862, 0.08634345233440399, 0.027651548385620117, 0.10705676674842834, 0.07566910982131958, 0.06196461245417595, 0.06004829332232475, -0.03993334621191025, 0.02083696238696575, 0.12463340163230896, -0.04072415828704834, -0.0759858787059784, -0.06894984841346741, 0.012679635547101498, -0.03157702088356018, -0.1310560405254364, -0.09292870759963989, 0.03470883518457413, -0.2240377515554428, -0.06178359314799309, -0.037852730602025986, -0.11095717549324036, 0.0028923344798386097, 0.1264340579509735, 0.07332103699445724, -0.08089739084243774, -0.020514432340860367, -0.1800309419631958, -0.0725613683462143, 0.10410589724779129, 0.0966096743941307, -0.07807688415050507, 0.07357166707515717, 0.07113218307495117, -0.06825314462184906, 0.012297229841351509, 0.098420649766922, -0.12398004531860352, -0.05725506320595741, -0.2619869112968445, -0.10714155435562134, 0.041263043880462646, 0.05630989372730255, 0.10638196766376495, -0.03167179971933365, -0.010358729399740696, -0.0867667868733406, 0.10527672618627548, -0.07382449507713318, 0.025302747264504433, -0.19500724971294403, -0.04680194705724716, -0.22425316274166107, 0.00706816092133522, 0.011480053886771202, 0.045000653713941574, -0.06846979260444641], [-0.19343848526477814, 0.12462222576141357, 0.002893119351938367, 0.15540994703769684, 0.04816776514053345, 0.056381940841674805, -0.047477107495069504, -0.1614743173122406, -0.1015075147151947, 0.03224240988492966, 0.019108355045318604, -0.09457911550998688, -0.05144738405942917, -0.09861720353364944, -0.016677480190992355, -0.1161590963602066, -0.040490660816431046, 0.17799599468708038, -0.05710185319185257, 0.03728031367063522, -0.211307555437088, -0.10006729513406754, -0.09874369204044342, 0.15146130323410034, -0.06953974068164825, -0.05694820359349251, -0.07935172319412231, -0.09608586877584457, -0.06331543624401093, -0.015367276035249233, -0.03286086767911911, -0.0012705577537417412, 0.09405750036239624, -0.1813390702009201, -0.02886999398469925, -0.02364405244588852, -0.044915296137332916, 0.08908495306968689, 0.09353026747703552, -0.16674771904945374, -0.16506555676460266, -0.02957231178879738, 0.08260156214237213, -0.047055505216121674, -0.06330901384353638, -0.04304860532283783, -0.2239769697189331, -0.09453259408473969, -0.060184381902217865, -0.031081244349479675, 0.08301029354333878, 0.025998927652835846, -0.041109081357717514, 0.05004877597093582, -0.15878209471702576, -0.09724612534046173, -0.08251247555017471, 0.055205896496772766, 0.09125886857509613, 0.10552846640348434, -0.05842962861061096, -0.060143813490867615, -0.00040968693792819977, 0.0784735456109047, -0.06674940884113312, -0.04413343966007233, -0.014172932133078575, -0.27047497034072876, 0.04969470202922821, -0.03470493480563164, -0.005390012636780739, 0.02201760932803154, -0.052526310086250305, 0.045835405588150024, -0.16778647899627686, -0.07335130125284195, -0.005626784637570381, -0.06926500797271729, -0.02987612783908844, 0.05692790448665619, 0.06493040919303894, -0.20030255615711212, -0.047529496252536774, -0.036567334085702896, 0.105561763048172, 0.06010676920413971, 0.0014074943028390408, -0.15774419903755188, -0.11127083748579025, 0.11292880773544312, -0.023474980145692825, 0.025896864011883736, 0.034863635897636414, -0.11648739874362946, -0.08444958925247192, -0.10010647773742676, -0.1603039652109146, -0.059719834476709366, -0.008015675470232964, -0.031122421845793724, 0.016290739178657532, -0.006720123812556267, -0.2123609483242035, -0.18715324997901917, -0.08515907824039459, -0.08904457092285156, -0.14403268694877625, 0.033444736152887344, -0.1062246561050415, -0.028794564306735992, 0.12299232184886932, 0.005081217270344496, 0.042956218123435974, -0.11635681986808777, -0.07633776217699051, 0.03642890229821205, -0.06195979565382004, 0.09867911040782928, -0.06123005971312523, -0.08094881474971771, -0.1482188105583191, -0.030197909101843834, -0.035841017961502075, -0.009538745507597923, -0.10991346836090088, 0.07612281292676926, 0.01676662266254425, -0.16899144649505615], [-0.13697189092636108, -0.08075346797704697, -0.07921397686004639, 0.02486174739897251, -0.04422547668218613, -0.02441144548356533, -0.1239025741815567, -0.042672134935855865, -0.038527898490428925, 0.04283452406525612, 0.03164085000753403, 0.047752149403095245, 0.073157899081707, -0.1333003044128418, -0.12406755983829498, 0.09063111245632172, -0.061891309916973114, -0.2675595283508301, 0.12512677907943726, 0.024392245337367058, 0.13518460094928741, -0.04579217731952667, -0.05501558631658554, -0.16383907198905945, -0.2582471966743469, 0.11765731871128082, -0.20570898056030273, -0.048643358051776886, -0.14397381246089935, -0.1445542573928833, -0.09275135397911072, 0.03234409913420677, -0.08673834800720215, 0.15261197090148926, -0.24550877511501312, 0.007757728453725576, 0.11242955923080444, 0.03450097516179085, -0.10499637573957443, -0.02445555478334427, -0.08817972242832184, -0.13434141874313354, -0.04690447449684143, -0.1591775119304657, -0.18293607234954834, 0.21305936574935913, -0.05794702470302582, -0.06542164087295532, -0.044332750141620636, -0.0008892922196537256, 0.0468718446791172, -0.09186048060655594, -0.003797815879806876, -0.24661877751350403, 0.01692294515669346, -0.18215671181678772, -0.038176797330379486, 0.02960275299847126, -0.04112297296524048, -0.12574931979179382, -0.14902737736701965, 0.004080220125615597, -0.03907494992017746, 0.04752512648701668, 0.1871674656867981, 0.01649363897740841, -0.19232779741287231, -0.0015309492591768503, 0.08010509610176086, -0.06753652542829514, -0.13080994784832, -0.0037039793096482754, 0.13166317343711853, -0.1401408612728119, -0.16425982117652893, -0.03878902643918991, 0.06594201922416687, -0.022102797403931618, -0.08330678194761276, 0.055738478899002075, -0.09327398985624313, -0.1997447907924652, -0.18475061655044556, -0.04770112782716751, -0.09716904908418655, -0.06887923926115036, -0.20744284987449646, 0.043846286833286285, 0.04356934130191803, 0.08772553503513336, 0.14034447073936462, 0.02372857555747032, -0.007336317095905542, -0.18821340799331665, -0.03656955808401108, -0.17883867025375366, 0.12963798642158508, 0.003747827373445034, -0.06517370045185089, -0.08928429335355759, 0.07676665484905243, 3.0796509236097336e-05, -0.0696517825126648, 0.09064143896102905, -0.01767847314476967, 0.027695754542946815, -0.009101269766688347, -0.2728201448917389, -0.1972818374633789, -0.014073196798563004, -0.13054072856903076, -0.030460605397820473, -0.04870380461215973, 9.574275463819504e-05, -0.02694757841527462, -0.010036565363407135, 0.03955826163291931, -0.1284220814704895, -0.03909396752715111, -0.20076319575309753, 0.0302371084690094, -0.09133733808994293, -0.055500444024801254, -0.16737288236618042, 0.010322273708879948, -0.03240617364645004, 0.16003717482089996, -0.011196475476026535], [0.05430266261100769, -0.08984971046447754, -0.024603985249996185, -0.08823053538799286, -0.06332185864448547, -0.13978469371795654, -0.012849196791648865, 0.07665333151817322, 0.013423889875411987, -0.004140839446336031, -0.08153413236141205, 0.007650288753211498, -0.07291757315397263, -0.057665303349494934, 0.14456909894943237, -0.013615952804684639, 0.07387400418519974, -0.012132903560996056, 0.07174528390169144, -0.01934085041284561, 0.17652535438537598, -0.02380056120455265, -0.07604283839464188, -0.06602070480585098, 0.0728360265493393, 0.08813335001468658, -0.021963071078062057, 0.04848566651344299, -0.2091197818517685, -0.008297557011246681, -0.039877407252788544, 0.023328648880124092, 0.10902271419763565, -0.09127185493707657, 0.07286979258060455, -0.05840688198804855, 0.0019046042580157518, -0.057054877281188965, -0.07201381027698517, 0.02377648651599884, 0.034831803292036057, -0.1789834052324295, 0.1354859173297882, 0.0625942200422287, -0.07609397172927856, -0.1269187182188034, 0.13352805376052856, -0.02599569968879223, -0.11562550067901611, -0.10387694835662842, -0.0050588333979249, -0.015403013676404953, -0.0023537203669548035, -0.08419889211654663, -0.02564895711839199, 0.049300700426101685, -0.04382270574569702, 0.03686795383691788, 0.10011152178049088, -0.14341740310192108, 0.02212977223098278, 0.031415343284606934, -0.06349080801010132, -0.14781507849693298, -0.024114670231938362, -0.08914531767368317, -0.13897791504859924, 0.0553857758641243, 0.006359637714922428, -0.11993356049060822, 0.038749899715185165, -0.03533191978931427, -0.1596396565437317, 0.0688154473900795, -0.029756376519799232, 0.1378478705883026, 0.010778089985251427, 0.07561877369880676, -0.1008148267865181, 0.08423209190368652, 0.04751308634877205, -0.08771012723445892, -0.08102545142173767, 0.03017151728272438, 0.0022390815429389477, 0.040381792932748795, -0.04747932404279709, 0.019576698541641235, -0.14715339243412018, 0.022665854543447495, -0.023385966196656227, 0.09130868315696716, -0.12496979534626007, -0.061252519488334656, 0.014690692536532879, 0.08076450228691101, -0.019198443740606308, -0.08622237294912338, -0.032548509538173676, 0.13609625399112701, -0.04876471310853958, 0.09226328134536743, -0.1843615025281906, -0.0268496535718441, -0.0342775359749794, 0.026370715349912643, -0.04096401482820511, -0.01119109708815813, -0.07269458472728729, 0.07507253438234329, -0.07325252145528793, -0.03671937435865402, -0.03531434386968613, -0.06079823151230812, -0.054194532334804535, -0.023509670048952103, 0.07909487187862396, 0.022701682522892952, 0.1525934338569641, -0.13081321120262146, -0.1422889232635498, -0.15301889181137085, 0.08913155645132065, 0.0018820231780409813, -0.035580284893512726, -0.05450652539730072, -0.08130364120006561, 0.005514204502105713], [-0.09088979661464691, -0.039619527757167816, 0.1409848928451538, -0.11911323666572571, -0.05414330214262009, 0.024643361568450928, -0.07127177715301514, -0.08977016061544418, 0.0696539580821991, -0.018305733799934387, -0.019256003201007843, -0.03196260705590248, 0.15419122576713562, 0.010857888497412205, -0.012492362409830093, 0.14162185788154602, 0.02149193175137043, 0.0909462422132492, 0.19527596235275269, 0.04985916614532471, -0.014553388580679893, -0.1084565669298172, -0.045378439128398895, -0.06609140336513519, -0.06264560669660568, 0.15663093328475952, -0.09776265919208527, 0.00472034327685833, 0.07548567652702332, 0.13963644206523895, -0.029792118817567825, -0.24542778730392456, -0.0675264224410057, 0.009144758805632591, -0.03568100184202194, 0.06207150220870972, 0.061601605266332626, 0.044118739664554596, 0.11235085129737854, 0.05675778165459633, 0.22879233956336975, -0.10595984011888504, -0.04722587764263153, -0.08054886013269424, -0.23550871014595032, -0.09460371732711792, -0.10131503641605377, 0.05231914669275284, -0.0712190642952919, 0.029938895255327225, 0.03103114292025566, 0.031420350074768066, -0.07833428680896759, 0.05533652752637863, -0.009158088825643063, -0.0016852074768394232, 0.002890982199460268, -0.12133705615997314, -0.0669444128870964, 0.011565782129764557, -0.028056245297193527, -0.056162748485803604, -0.12879341840744019, 0.05152593553066254, -0.21885812282562256, 0.04192827269434929, -0.014372110366821289, -0.07948455214500427, -0.21288827061653137, -0.16347995400428772, 0.028784247115254402, -0.03691434860229492, -0.043644700199365616, -0.05337008461356163, -0.09539389610290527, -0.013410231098532677, 0.029503311961889267, -0.027286360040307045, 0.05595537647604942, 0.025850575417280197, 0.027965188026428223, 0.036462828516960144, -0.057701580226421356, -0.058083608746528625, 0.049744509160518646, -0.03444894403219223, 0.09738057851791382, 0.11308163404464722, -0.006276947446167469, 0.09008309990167618, 0.079398013651371, -0.026553738862276077, -0.0883789211511612, -0.18859225511550903, -0.08452363312244415, -0.05450990051031113, -0.019309084862470627, -0.06737029552459717, 0.08998168259859085, -0.03754548728466034, 0.02434251457452774, 0.01380062848329544, -0.20573043823242188, -0.1487513780593872, 0.11199840158224106, -0.11364258825778961, 0.11997456103563309, 0.011018263176083565, 0.2039000391960144, -0.21393805742263794, -0.058823712170124054, -0.1477690041065216, 0.07690060138702393, -0.022305244579911232, 0.024830225855112076, 0.17422199249267578, 0.06704249233007431, -0.01679684780538082, -0.07210344821214676, 0.07628028094768524, 0.06530366092920303, 0.02582281082868576, 