{"model.0.weight": [[0.0006560087203979492, -0.037118274718523026, -0.05970710515975952, -0.03868637979030609, -0.012076377868652344, -0.03416931629180908, -0.002226322889328003, 0.0014683008193969727, 0.00408346951007843, -0.04136154055595398, -0.02764454483985901, -0.03098165988922119, -0.06930951774120331, -0.02941232919692993, -0.003353983163833618, 0.041082918643951416, -0.023294687271118164, -0.04001937061548233, 0.014342963695526123, 0.0], [0.016535550355911255, 0.03240301087498665, 0.014703422784805298, -0.01863384246826172, -0.03194931149482727, 0.002469480037689209, 0.030791372060775757, -0.0015790462493896484, -0.046674683690071106, -0.04192554950714111, -0.020319625735282898, -0.003911912441253662, -0.014442622661590576, -0.01087304949760437, 0.052370160818099976, -0.07924903929233551, 0.042873889207839966, -0.060122400522232056, 0.00830569863319397, 0.0], [-0.015728622674942017, -0.006585383787751198, -0.021428048610687256, -0.0405452698469162, -0.06130985915660858, 0.013090014457702637, 0.00554347038269043, -0.037634581327438354, -0.034318551421165466, -0.04589712619781494, -0.025882303714752197, -0.03122982382774353, -0.015589475631713867, -0.026499569416046143, 0.022250503301620483, -0.1977323740720749, 0.011675968766212463, -0.08218184858560562, -0.008416503667831421, 0.0], [-0.012857615947723389, 0.006558507680892944, 0.03599432110786438, 0.03162866830825806, -0.027334064245224, -0.0967867523431778, 0.05053497850894928, 0.02802158147096634, 0.0094186095520854, 0.09102004766464233, 0.0455816388130188, -0.03209634870290756, 0.03857901692390442, 0.0324384868144989, -0.04883308708667755, 0.05316510051488876, -0.036694012582302094, 0.008690044283866882, -0.04745970666408539, 7.450580596923828e-09], [-0.012374982237815857, 0.0053917765617370605, -0.011265039443969727, -0.04485142230987549, -0.023332402110099792, -0.023091822862625122, 0.013707727193832397, -0.00720842182636261, -0.026401855051517487, -0.06046031415462494, -0.055498361587524414, 0.016557306051254272, -0.0020255744457244873, 0.030385076999664307, 0.08695042133331299, 0.008081398904323578, -0.0632188618183136, -0.06770351529121399, 0.018625229597091675, 0.0], [-0.03749825805425644, -0.004432767629623413, 0.0008040666580200195, -0.11530733108520508, -0.03064262866973877, 0.02436193823814392, -0.02762734889984131, -0.04083174467086792, 0.0003388822078704834, -0.08039449900388718, -0.0885385274887085, -0.06895166635513306, 0.010477840900421143, 0.1227756142616272, 0.024611085653305054, 0.25931087136268616, -0.023656606674194336, -0.0544620156288147, 0.02040056884288788, 0.0], [-0.015254613943397999, -0.022797841578722, 0.04241016507148743, 0.021022558212280273, 0.0043926239013671875, -0.06350010633468628, -0.004933655261993408, 0.03032165765762329, 0.030549630522727966, -0.05531531572341919, -0.005871087312698364, 0.05698668956756592, -0.03898859769105911, -0.04381924867630005, -0.045124128460884094, 0.13266640901565552, -0.08612650632858276, -0.045425061136484146, -0.018178105354309082, 0.0], [-0.020546451210975647, 0.004109546542167664, 0.05947807431221008, 0.06188204884529114, 0.023681938648223877, -0.05666562169790268, 0.018505454063415527, -0.008600838482379913, 0.04439978301525116, 0.010273754596710205, 0.05250436067581177, 0.04893919825553894, -0.06717813014984131, -0.01281401515007019, -0.07699368894100189, 0.05466374754905701, 0.05656161904335022, 0.03215712308883667, -0.0030289143323898315, 0.0], [-0.03806418180465698, 0.013047121465206146, -0.0634249895811081, -0.04377458989620209, 0.019931316375732422, -0.02316775918006897, -0.0008867979049682617, -0.019823551177978516, -0.003100484609603882, -0.020300477743148804, -0.026292040944099426, -0.046682894229888916, 0.02227388322353363, 0.03467121720314026, 0.047137677669525146, 0.1436414122581482, 0.005566447973251343, 0.0002772808074951172, 0.03931373357772827, 0.0], [-0.002112053334712982, -0.040605299174785614, 0.059618592262268066, 0.021727323532104492, -0.003867432475090027, -0.052426815032958984, 0.024203062057495117, 0.0021623969078063965, 0.006860852241516113, 0.03937584161758423, 0.027255266904830933, -8.463859558105469e-05, 0.1048891544342041, -0.028881341218948364, -0.03085067868232727, 0.04036355018615723, 0.02252236008644104, -0.08965665102005005, -0.018418848514556885, 0.0], [0.018903657793998718, 0.02515237033367157, 0.06017829477787018, 0.06805357336997986, -0.04942214488983154, -0.06341605633497238, -0.023884326219558716, -0.05231621861457825, 0.04604041576385498, 0.0022928044199943542, 0.0694136917591095, 0.017307503148913383, -0.0313524454832077, 0.03245091810822487, -0.07291765511035919, 0.23114131391048431, 0.014880165457725525, -0.014535956084728241, -0.032670944929122925, 0.0], [0.003778025507926941, -0.03063610941171646, 0.01470908522605896, 0.007066249847412109, -0.02177119255065918, -0.02670666202902794, -0.0053831785917282104, -0.02939826250076294, 0.0017872657626867294, -0.02460932731628418, 0.001666724681854248, 0.010178208351135254, 0.016004860401153564, -0.004305601119995117, -0.01573146879673004, 0.017538875341415405, 0.0005314350128173828, -0.03937947750091553, -0.016642659902572632, 1.4901161193847656e-08], [0.022502154111862183, -0.0036872215569019318, -0.02162867784500122, -0.0513339638710022, -0.027538299560546875, -0.03602948784828186, -0.024453967809677124, 0.0036530494689941406, -0.040389399975538254, -0.039910152554512024, -0.040827274322509766, -0.03815138339996338, -0.04622530937194824, 0.006622374057769775, 0.030549343675374985, 0.22561129927635193, 0.10349693894386292, -0.006417796015739441, -0.00948430597782135, 7.450580596923828e-09], [0.0, 1.4901161193847656e-08, 0.0, 0.0, 0.0, 0.0, -1.2010335922241211e-05, 0.0, 0.0, 1.4901161193847656e-08, 0.0, 0.0, 0.0, 0.0, 0.0, 2.9802322387695312e-08, 0.0, 0.0, 0.0, 0.0], [0.06121428683400154, 0.004848837852478027, -0.0009190142154693604, -0.024865951389074326, -0.01555374264717102, -0.03497911989688873, -0.0016244053840637207, 0.011074066162109375, -0.0012299716472625732, -0.04857645183801651, -0.01751786470413208, 0.013284195214509964, 0.025723189115524292, 0.023275360465049744, 0.10168193280696869, -0.22120220959186554, 0.09650519490242004, -0.08396457135677338, 0.018091462552547455, 0.0], [-0.010120034217834473, -0.013695649802684784, -0.027421966195106506, -0.09097099304199219, -0.02333630621433258, 0.011036336421966553, -0.007351696491241455, -0.015600800514221191, 0.004858791828155518, -0.09926170110702515, -0.08213925361633301, -0.03588700294494629, 0.008096784353256226, 0.016675472259521484, 0.04490929841995239, -0.07309472560882568, -0.00020262598991394043, -0.047928109765052795, 0.021015167236328125, 0.0], [0.002712346613407135, 0.037749599665403366, 0.04192078113555908, 0.010149240493774414, -0.029130905866622925, -0.07345934212207794, 0.06898529827594757, 0.04581132531166077, 0.030467838048934937, 0.036548517644405365, -0.004567891359329224, 0.020741701126098633, 0.009110450744628906, 0.01616114377975464, 0.0235329270362854, 0.10261297225952148, 0.0578191876411438, -0.12601765990257263, -0.04073020815849304, -2.9802322387695312e-08], [0.026128053665161133, -0.022793788462877274, -0.028050929307937622, -0.009567737579345703, -0.013110458850860596, -0.004441834986209869, 0.04314768314361572, -0.01183849573135376, 0.0025030672550201416, 0.017921149730682373, -0.03547339141368866, 0.020277559757232666, -0.029581233859062195, 0.013012759387493134, -0.02149367332458496, -0.005537644028663635, 0.03829182684421539, -0.017218559980392456, -0.024288594722747803, 0.0], [-0.03129082918167114, -0.06171959638595581, 0.0617949515581131, 0.04875415563583374, 0.0027631521224975586, -0.04020527005195618, 0.038507722318172455, 0.007594287395477295, 0.016985058784484863, 0.08560985326766968, 0.06937843561172485, -0.02522154152393341, 0.14244771003723145, 0.0009626150131225586, -0.035096317529678345, 0.07707715034484863, 0.08083263039588928, -0.0674644485116005, 0.0020398348569869995, 0.0], [0.0071173012256622314, 0.0007428526878356934, 0.03414631262421608, 0.02918003499507904, -0.039466552436351776, -0.021394796669483185, 0.060462623834609985, -0.010483130812644958, -0.01574873924255371, -0.0020031332969665527, 0.04953420162200928, 0.0077798813581466675, 0.0074721574783325195, 0.014499440789222717, -0.06528573483228683, 0.37117767333984375, 0.16104009747505188, -0.0638292208313942, -0.045589908957481384, 0.0], [0.058146774768829346, -0.028550095856189728, 0.007728874683380127, 0.001783609390258789, -0.009780526161193848, 0.048386186361312866, 0.016259968280792236, 0.017999708652496338, 0.00462794303894043, 0.016864117234945297, 0.0141867995262146, -0.026794075965881348, -0.03852874040603638, -0.012929394841194153, 0.02598223090171814, -0.028595969080924988, 0.06221491098403931, -0.010558903217315674, -0.034539222717285156, 0.0], [-0.017590880393981934, 0.026987340301275253, 0.0030079782009124756, -0.009273961186408997, -0.03642231225967407, -0.041655123233795166, -0.0052458494901657104, -0.00027345120906829834, 0.011385418474674225, -0.0633661150932312, -0.015659675002098083, 0.017858192324638367, 0.0165933296084404, -0.003570050001144409, 0.013285994529724121, -0.23074817657470703, 0.019828379154205322, -0.0712011456489563, -0.011666148900985718, 0.0], [0.032911546528339386, 0.002903871238231659, 0.006196051836013794, -0.011357039213180542, 0.010084867477416992, -0.038062192499637604, 0.007481522858142853, 0.03165289759635925, -0.0034128129482269287, -0.00953172892332077, 0.0013592913746833801, -0.01888524927198887, 0.05015261471271515, 0.0183926522731781, 0.006514519453048706, 0.1381641924381256, -0.09310141205787659, -0.027032287791371346, -0.01010560616850853, 0.0], [-0.009589731693267822, -0.006149135529994965, 0.07346677780151367, 0.051006048917770386, -0.029126852750778198, -0.003794759511947632, 0.00705718994140625, -0.010707974433898926, -0.01038844883441925, -0.021255113184452057, 0.029224157333374023, 0.04648137092590332, -0.04582476615905762, -0.023685753345489502, -0.044843897223472595, -0.017819583415985107, 0.00794076919555664, 0.007602572441101074, -0.03448042273521423, 0.0], [0.006659388542175293, 0.04697038233280182, 0.03307265043258667, 0.012798503041267395, 0.011757999658584595, -0.005660787224769592, 0.034602850675582886, 0.03209632635116577, 0.016857914626598358, 0.004961296916007996, 0.021242886781692505, -0.010605692863464355, -0.05214998126029968, 0.027168259024620056, 0.01489335298538208, 0.018323048949241638, -0.04543653130531311, 0.01623879373073578, 0.004606425762176514, 0.0], [-0.027629196643829346, -0.025033801794052124, 0.07033514976501465, 0.07129830121994019, -0.03329360485076904, -0.026299715042114258, 0.038710176944732666, 0.01789999008178711, 0.03835199773311615, 0.07927626371383667, 0.06547695398330688, 0.03931224346160889, -0.001153111457824707, 0.025214433670043945, -0.0977168083190918, 0.14308059215545654, 0.139712393283844, -0.00897073745727539, -0.044671088457107544, 0.0], [0.04453977942466736, -0.007807508111000061, 0.002336263656616211, -0.08650320768356323, -0.05258038640022278, 0.010190188884735107, 0.016901135444641113, -0.009391546249389648, 0.01124487817287445, -0.07073074579238892, -0.08813150227069855, -0.024006634950637817, 0.024569854140281677, 0.012186944484710693, 0.03938794136047363, -0.013783514499664307, -0.0019633471965789795, -0.08311396837234497, -0.006594330072402954, 0.0], [0.0035827159881591797, -0.005526885390281677, 0.03808411955833435, -0.09107127785682678, -0.05314567685127258, -0.0024961233139038086, -0.021668702363967896, 0.039902716875076294, -0.007314892485737801, 0.03170153498649597, -0.08623871207237244, -0.0321228951215744, -0.04646053910255432, 0.001074087806046009, 0.004233628511428833, 0.05321705341339111, 0.01547926664352417, -0.0019974708557128906, -0.008473962545394897, 0.0], [2.0325183868408203e-05, -0.0004998892545700073, -0.00164872407913208, 0.0006650090217590332, -5.555152893066406e-05, -0.0007408112287521362, 0.0001452118158340454, -0.0017525851726531982, 0.004120826721191406, 0.000614851713180542, 0.0032084807753562927, -0.0014771819114685059, 0.00017239153385162354, 2.7239322662353516e-05, 0.00022238492965698242, 0.0007554739713668823, -0.00012031197547912598, -0.0006507635116577148, -8.495897054672241e-05, 0.0], [0.02002999186515808, 0.016599178314208984, 0.007404327392578125, -0.05635741353034973, -0.009394794702529907, -0.023526877164840698, -0.029285341501235962, -0.03576773405075073, 0.004076838493347168, -0.04512692987918854, -0.061845988035202026, -0.006847798824310303, -0.020367443561553955, 0.010053783655166626, 0.015200316905975342, 0.044328123331069946, 0.029404044151306152, -0.012460082769393921, 0.00452655553817749, 0.0], [-0.0024541616439819336, -0.042819179594516754, -0.021579265594482422, -0.0764470100402832, -0.001959681510925293, -0.022856473922729492, 0.04104483127593994, -0.01125490665435791, 0.0051168352365493774, -0.041678447276353836, -0.06849747896194458, -0.037138402462005615, -0.07408732175827026, 0.043259382247924805, 0.02010655403137207, 0.039760470390319824, -0.002833068370819092, -0.08152830600738525, 0.05287426710128784, 0.0], [-0.0020823776721954346, -0.023571593686938286, 0.034921541810035706, 0.024786531925201416, -0.04561883211135864, 0.005346134305000305, 0.037693917751312256, 0.015638291835784912, -0.033329516649246216, 0.03838983178138733, 0.03302258253097534, -0.0026876479387283325, -0.0587598979473114, -0.02064204216003418, -0.049619272351264954, -0.02551279589533806, -0.004273697733879089, 0.023708492517471313, -0.036227405071258545, 0.0], [0.05076858401298523, 0.005724526941776276, 0.03682875633239746, -0.033112287521362305, -0.04061734676361084, -0.013705313205718994, 0.00305330753326416, -0.010027080774307251, 0.016399860382080078, -0.057437434792518616, -0.030928313732147217, 0.0023308098316192627, 0.027973860502243042, 0.04775798320770264, 0.0474187433719635, -0.1837913542985916, 0.08903837203979492, -0.05606450140476227, 0.008119344711303711, 0.0], [-0.04759076237678528, -0.019204644486308098, 0.04143667221069336, 0.039681077003479004, -0.008040308952331543, 0.014304399490356445, -0.04773414134979248, -0.01563197374343872, -0.01740313321352005, 0.019379884004592896, 0.06029105186462402, -0.012600094079971313, 0.15704286098480225, 0.022954344749450684, 0.0453527569770813, 0.4113869071006775, -0.07425457239151001, 0.006842523813247681, 0.054008543491363525, 0.0], [-0.0012031644582748413, -0.09914771467447281, 0.06988793611526489, 0.04658341407775879, -0.04161009192466736, -0.05962046980857849, 0.006334938108921051, 0.022183537483215332, 0.03121616691350937, -0.003967612981796265, 0.040495097637176514, 0.041883111000061035, -0.06466922163963318, 0.060260504484176636, -0.011376172304153442, 0.16086655855178833, 0.189843088388443, 0.02103284001350403, -0.06632325053215027, 0.0], [-0.012623459100723267, 0.007776737213134766, 0.019779562950134277, -0.003926277160644531, -0.04537171125411987, -0.032760828733444214, -0.012183427810668945, -0.027226388454437256, -0.04984450340270996, 0.005417123436927795, -0.0066214799880981445, -0.002683699131011963, 0.006975144147872925, -0.002777695655822754, -0.004091024398803711, 0.011770457029342651, 0.08053576946258545, -0.01831001043319702, -0.04788544774055481, 0.0], [-0.0010147392749786377, -0.00043477863073349, -0.03364560008049011, -0.12400045990943909, -0.05572196841239929, -0.036503732204437256, -0.014059185981750488, -0.0396193265914917, -0.018485575914382935, -0.04167437553405762, -0.13293084502220154, -0.03887491673231125, -0.04892131686210632, -0.01670515537261963, 0.00649261474609375, -0.003674611449241638, 0.0222928524017334, -0.054861217737197876, -0.007116585969924927, 0.0], [-0.019477099180221558, -2.8192996978759766e-05, 0.001291722059249878, -0.013965252786874771, -0.018454819917678833, -0.043338607996702194, 0.017108924686908722, -0.02147921919822693, -0.011248350143432617, -0.017731666564941406, -0.016542566940188408, 0.0043818652629852295, -0.07147970795631409, 0.036060675978660583, 0.024349525570869446, -0.03538030385971069, 0.00825539231300354, -0.027364149689674377, -0.03577741980552673, 0.0], [-0.00807594507932663, -0.030417397618293762, 0.03358887508511543, 0.00017599761486053467, -0.052849382162094116, -0.027719173580408096, -0.015345662832260132, -0.01399560272693634, 0.00719141960144043, 0.062104180455207825, 0.0021124184131622314, -0.016238227486610413, 0.023496076464653015, 0.0034332275390625, -0.0198528990149498, -0.00044846534729003906, 0.05687369406223297, 0.035191163420677185, -0.041249774396419525, 0.0], [-0.006269410252571106, -0.018688246607780457, 0.009409487247467041, 0.004602938890457153, 0.008233129978179932, -0.04864048957824707, 0.004387713968753815, -0.026385806500911713, -0.027532458305358887, -0.017176028341054916, 0.013421520590782166, -0.010182291269302368, 0.11057093739509583, 0.005663920193910599, 0.014619473367929459, 0.16661064326763153, 0.001922240830026567, -0.07403039932250977, 0.021385714411735535, 0.0], [-0.03610038757324219, -0.0018552467226982117, 0.09295892715454102, 0.053498268127441406, -0.011538863182067871, -0.025204837322235107, 0.01272428035736084, 0.0029733777046203613, 0.02806270122528076, -0.013999156653881073, 0.059606969356536865, 0.020422935485839844, -0.05941683053970337, 0.002102971076965332, -0.03105682134628296, 0.02969646453857422, 0.05096435546875, 0.03532898426055908, -0.01857602596282959, 0.0], [-0.021588273346424103, 0.011351101100444794, 0.039557963609695435, 0.08632254600524902, -0.035746753215789795, -0.07760918140411377, 0.010434091091156006, 0.011120110750198364, -0.0029562711715698242, 0.10163366794586182, 0.08651861548423767, 0.043891340494155884, -0.08234056830406189, 0.020328950136899948, -0.09161832183599472, 0.14769387245178223, 0.11989790201187134, 0.05565187335014343, -0.05355885624885559, 0.0], [-0.003274977207183838, -0.017932429909706116, -0.0011303424835205078, -0.020156443119049072, 0.04255235195159912, 0.0385814905166626, -0.026168346405029297, -0.007126748561859131, -0.009017705917358398, -0.010812908411026001, -0.022226154804229736, -0.010229051113128662, 0.045350611209869385, -0.015604734420776367, 0.00786370038986206, -0.021126151084899902, 0.24857741594314575, 0.013657093048095703, 0.017527103424072266, 0.0], [0.02527680993080139, -0.04168413579463959, 0.1410714089870453, 0.09773114323616028, -0.02723112516105175, -0.07833575457334518, 0.014319762587547302, -0.08822209388017654, 0.019323289394378662, 0.011260956525802612, 0.11699429154396057, -0.0004817545413970947, -0.023938298225402832, 0.08655720949172974, -0.130944162607193, -0.0527401827275753, 0.027119994163513184, -0.027218975126743317, -0.02521204948425293, 0.0], [0.008145004510879517, -0.013773620128631592, -0.029434621334075928, -0.14338147640228271, 0.003956615924835205, 0.050908029079437256, -0.037581443786621094, -0.008573174476623535, -0.01813559979200363, -0.06368471682071686, -0.15055328607559204, -0.0061953067779541016, -0.004727363586425781, -0.0010889768600463867, 0.03276097774505615, 0.06130196154117584, -0.00086936354637146, -0.04474842548370361, -0.007703185081481934, 0.0], [-0.0025266706943511963, -0.05269341170787811, 0.035587653517723083, 0.09837770462036133, -0.025086835026741028, -0.014039218425750732, 0.045870810747146606, 0.0090218186378479, 0.03721087798476219, 0.10204310715198517, 0.07384034991264343, 0.06252536177635193, -0.04861912131309509, 0.03726232051849365, 0.0024782568216323853, 0.005951642990112305, 0.062328748404979706, 0.051106974482536316, -0.03999188542366028, 0.0], [0.038428038358688354, 0.004780441522598267, -0.017020463943481445, 0.036522507667541504, -0.06226411461830139, -0.07750079035758972, 0.03680700063705444, -0.013698965311050415, 0.09671452641487122, 0.0779055655002594, 0.03342127799987793, 0.019063696265220642, -0.09201858937740326, 0.0659840926527977, -0.05940183997154236, 0.14923924207687378, 0.14707058668136597, 0.07909521460533142, -0.057960569858551025, 1.4901161193847656e-08], [0.05574801564216614, -0.03674799203872681, 0.07199496030807495, 0.04015067219734192, -0.05731695890426636, -0.05747595429420471, -0.006194800138473511, -0.05506163835525513, -0.049608103930950165, -0.08723002672195435, 0.018195122480392456, 0.05612665414810181, 0.051692068576812744, -0.018089979887008667, -0.018319353461265564, -0.16548985242843628, -0.05493244528770447, -0.07236228883266449, -0.045776307582855225, 0.0], [0.02809375524520874, 0.0012290142476558685, -0.011081725358963013, -0.05962097644805908, 0.006899788975715637, -0.020696565508842468, 0.0018126070499420166, -0.018164431676268578, -0.008380122482776642, -0.028767108917236328, -0.053715258836746216, -0.02585708349943161, 0.014511317014694214, -0.01327197253704071, -0.01577022671699524, -0.03874993324279785, 0.0075224339962005615, 0.009190261363983154, -0.009625285863876343, 0.0], [-0.029238641262054443, -0.011677153408527374, -0.004687875509262085, -0.03992420434951782, -0.009998977184295654, -0.04036936163902283, 0.020813554525375366, -0.005929410457611084, 0.03649464249610901, -0.028625130653381348, -0.032917529344558716, -0.01634734869003296, -0.03708191215991974, 0.0037488937377929688, -0.030915170907974243, 0.09658175706863403, 0.06256157159805298, 0.029182106256484985, -0.0004942417144775391, 0.0], [0.013559967279434204, -0.01490524411201477, -0.03453932702541351, -0.028113529086112976, -0.020267486572265625, 0.005959639325737953, 0.01909700036048889, 0.006399393081665039, -0.02224864810705185, 0.004611760377883911, -0.04909975826740265, -0.006530553102493286, 0.04026857018470764, -0.02589467167854309, -0.07456859946250916, 0.026218533515930176, 0.016568437218666077, 0.025180518627166748, -0.03139686584472656, 0.0], [-0.042510561645030975, 0.009664133191108704, -0.03471487760543823, -0.006611883640289307, -0.0286715030670166, -0.04579359292984009, 0.016506433486938477, 0.007494062185287476, 0.06445920467376709, 0.05566871166229248, -0.01456362009048462, 0.013392746448516846, -0.09542432427406311, 0.025510311126708984, -0.004271507263183594, 0.0867006778717041, 0.14036190509796143, 0.03714644908905029, -0.036582231521606445, 2.9802322387695312e-08], [0.01743471622467041, -0.03185535967350006, -0.028114527463912964, -0.08870357275009155, -0.017105966806411743, -0.04510772228240967, 0.04004894569516182, 0.010043978691101074, -0.06218584626913071, -0.002743840217590332, -0.08998635411262512, -0.01972070336341858, 0.056682273745536804, -0.0005195587873458862, -0.015419214963912964, 0.04977620765566826, 0.03312686085700989, -0.05285191535949707, -0.03043505549430847, 0.0], [0.023755967617034912, -0.020738229155540466, 0.02953857183456421, 0.05062592029571533, -0.032526880502700806, -0.044599130749702454, 0.022207021713256836, -0.029894933104515076, -0.01848701387643814, 0.010561048984527588, 0.059409916400909424, -0.011613056063652039, -0.007839486002922058, 0.007710665464401245, -0.061525799334049225, 0.02173304557800293, 0.07823657989501953, -0.00047400593757629395, -0.0359504371881485, 0.0], [-0.013766422867774963, -0.012583557516336441, 0.01902630925178528, -0.012764930725097656, -0.010326802730560303, -0.021505579352378845, 0.030508875846862793, -0.0176507830619812, -0.007842577993869781, -0.04804055765271187, -0.0166255384683609, 0.006121113896369934, -0.03279939293861389, 0.038753166794776917, -0.012016057968139648, -0.14687399566173553, -0.031775593757629395, -0.06129913032054901, 0.005113393068313599, 0.0], [0.04109683632850647, -0.02869267761707306, -0.014867901802062988, 0.008039012551307678, 0.008813738822937012, -0.05002583563327789, 0.03339448571205139, -0.02747836709022522, -0.005380585789680481, 0.07910275459289551, 0.006150335073471069, -0.008371233940124512, 0.00591886043548584, 0.028459668159484863, -0.01799178123474121, -0.009851813316345215, -0.04633711278438568, 0.05663567781448364, -0.022014319896697998, 0.0], [-0.009338684380054474, -0.01960926502943039, 0.006929755210876465, -0.001244962215423584, 0.0170859694480896, 0.017247259616851807, 0.026977479457855225, 0.011063441634178162, -0.005753278732299805, 0.05203419551253319, -0.008819609880447388, 0.017752408981323242, 0.021472036838531494, 0.048423558473587036, -0.014830142259597778, 0.015671610832214355, 0.02087932825088501, 0.0008633434772491455, 0.03421810269355774, 0.0], [0.02005484700202942, -0.024969054386019707, 0.02291041612625122, 0.05700746178627014, -0.029967129230499268, -0.06233470141887665, 0.03078719973564148, -0.019978433847427368, 0.026512980461120605, 0.03928618133068085, 0.059974610805511475, 0.007891416549682617, -0.07882054150104523, -0.0036942362785339355, -0.0666082501411438, 0.033086612820625305, 0.0596049427986145, 0.06549757719039917, -0.02570667862892151, 0.0], [-0.0038959383964538574, 0.04468364268541336, 0.09816816449165344, 0.08586788177490234, -0.060700416564941406, -0.02236008644104004, -0.03359563276171684, -0.011956006288528442, -0.01779790222644806, -0.003435179591178894, 0.0885230302810669, 0.00822816789150238, 0.05711555480957031, -0.009560912847518921, 0.008547097444534302, -0.16471631824970245, -0.22433026134967804, 0.0029453635215759277, -0.07737454771995544, 0.0], [-0.017515331506729126, 0.006117314100265503, 0.007436007261276245, 0.002499520778656006, -0.05327141284942627, -0.06978543102741241, -0.04540850222110748, -0.0642763301730156, -0.012476122006773949, -0.03295212984085083, -0.011374801397323608, 0.013563364744186401, 0.06508934497833252, 0.03434395790100098, -0.034139931201934814, 0.1647689938545227, -0.0406697541475296, -0.07558590173721313, -0.032888323068618774, 0.0], [-0.006253436207771301, -0.008029520511627197, 0.02285352349281311, 0.008203119039535522, -0.0009385645389556885, -0.041288331151008606, -0.035209059715270996, -0.025467049330472946, -0.007570967078208923, -0.002373605966567993, 0.01811445690691471, -0.01143445074558258, 0.03652581572532654, -0.014232426881790161, -0.05766370892524719, 0.06120607256889343, 0.040860891342163086, -0.03815198689699173, 0.0013602972030639648, 0.0], [-0.005538687109947205, -0.025922417640686035, 0.013718366622924805, 0.008767306804656982, -0.02610999345779419, -0.006815910339355469, -0.010058432817459106, 0.0005024969577789307, 0.055777408182621, 0.047798603773117065, 0.008725941181182861, -0.012463361024856567, -0.05795476585626602, 0.01682528853416443, -0.06030359864234924, 0.07352638244628906, 0.08147993683815002, 0.009103730320930481, -0.029411286115646362, 0.0], [-0.008306130766868591, 0.0052313432097435, -0.030214421451091766, -0.004459202289581299, -0.09647712111473083, -0.12331421673297882, 0.02113664150238037, 0.06476250290870667, 0.042897701263427734, -0.005365580320358276, -0.012152984738349915, 0.02815810963511467, -0.09201258420944214, 0.0064293742179870605, -0.04707735776901245, -0.11908572167158127, 0.017406262457370758, 0.040122922509908676, -0.0661250501871109, 0.0], [-0.008401811122894287, 0.015980660915374756, -0.012193262577056885, -0.0037058591842651367, -0.020686030387878418, -0.027148842811584473, -0.016034424304962158, -0.05057552456855774, 0.0017081499099731445, -0.0705781877040863, 0.022124290466308594, -0.034434974193573, -0.12382686138153076, 0.009012877941131592, -0.01370251178741455, 0.1834603101015091, -0.04292654991149902, -0.026591122150421143, 0.014248490333557129, 0.0], [0.003998279571533203, 0.014357030391693115, 0.06773015856742859, 0.052662089467048645, 0.0020790044218301773, -0.05418772995471954, 0.011576980352401733, -0.02171224355697632, -0.017767775803804398, 0.05312007665634155, 0.06249654293060303, -0.015290886163711548, 0.12700557708740234, -0.013783156871795654, -0.10522358119487762, 0.06023642420768738, 0.10078692436218262, -0.04739069938659668, -0.03529167175292969, 0.0], [0.04781613498926163, -0.04644659534096718, 0.07400563359260559, 0.08438438177108765, -0.014677762985229492, 0.030546464025974274, -0.021450668573379517, -0.008293390274047852, 0.00027245283126831055, -0.022001206874847412, 0.08757346868515015, 0.03874894976615906, -0.002352386713027954, -0.014828279614448547, 0.003298729658126831, -0.0031038522720336914, 0.009301632642745972, 0.046900272369384766, -0.018019333481788635, 2.9802322387695312e-08], [0.08901181817054749, -0.009966716170310974, -0.037618882954120636, -0.08531353622674942, -0.031153995543718338, 0.0003950446844100952, 0.05359519645571709, 0.04023650288581848, -0.03405559062957764, -0.03272289037704468, -0.10621383786201477, 0.03055793046951294, 0.021321363747119904, 0.020715385675430298, 0.06387759745121002, 0.03884747624397278, -0.007467001676559448, -0.0778854638338089, 0.034472107887268066, -3.725290298461914e-09], [0.005473174154758453, -0.05612439662218094, -0.001315385103225708, -0.03855936974287033, -0.014100439846515656, -0.008858084678649902, 0.011746019124984741, -0.00823056697845459, 0.0021643638610839844, -0.009478151798248291, -0.0573156476020813, 0.036120712757110596, -0.0008291006088256836, 0.023584604263305664, 0.06407338380813599, -0.04514956474304199, -0.035998910665512085, -0.04776039719581604, -0.0030181407928466797, 0.0], [-0.029769182205200195, 0.025288119912147522, 0.030542641878128052, -0.03510153293609619, -0.006526201963424683, 0.035553157329559326, 0.011563986539840698, -0.022023756057024002, 0.0012372508645057678, 0.03764592111110687, -0.030063658952713013, -0.013919360935688019, 0.015620529651641846, 0.012020289897918701, -0.005559876561164856, -0.011879712343215942, -0.00406917929649353, -0.036675870418548584, -0.03052622079849243, 0.0], [-0.003955960273742676, 0.019442066550254822, 0.06492888927459717, 0.051283419132232666, -0.00890803337097168, -0.014704465866088867, 0.05896759033203125, 0.0522807240486145, 0.021942049264907837, 0.07183942198753357, 0.039341866970062256, 0.0541309118270874, 0.003658294677734375, -0.0040340423583984375, 0.021607041358947754, 0.07669782638549805, 0.02841472625732422, -0.026760339736938477, -0.0111161470413208, 0.0], [-0.027047589421272278, 0.0031947195529937744, 0.03884419798851013, 0.028265684843063354, -0.02364763617515564, 0.06242331117391586, -0.007835686206817627, -0.01804870367050171, -0.015589490532875061, -0.05519600212574005, 0.06297330558300018, -0.051173001527786255, -0.04037052392959595, -0.031542062759399414, 0.021866440773010254, -0.08935430645942688, 0.03748235106468201, -0.031610190868377686, 0.0023486316204071045, 0.0], [0.019281774759292603, 0.014395654201507568, -0.03063216805458069, -0.02034822106361389, -0.010183274745941162, -0.03715169429779053, -0.019757956266403198, -0.039602458477020264, 0.009986400604248047, -0.03510473668575287, -0.011293143033981323, -0.019843369722366333, -0.05232760310173035, -0.026834726333618164, 0.025323450565338135, 0.017310023307800293, -0.02452807128429413, -0.04431360960006714, 0.03656661510467529, 0.0], [0.034830063581466675, -0.014097720384597778, -0.04701128602027893, -0.05672398954629898, -0.022366676479578018, -0.003128528594970703, -0.025194242596626282, 0.024337708950042725, -0.021389871835708618, -0.028478428721427917, -0.05003038048744202, -0.02164117991924286, -0.03138503432273865, 0.01538589596748352, 0.019800692796707153, 0.06068746745586395, -0.008390605449676514, -0.04408806562423706, 0.020468682050704956, 0.0], [-0.004093170166015625, 0.03564057499170303, -0.013535261154174805, -0.024282455444335938, 0.015852391719818115, 0.03094242513179779, -0.005976855754852295, 0.04121065139770508, 0.0017707347869873047, 0.06474924087524414, -0.03620152547955513, 0.022961050271987915, 0.06360077857971191, -0.009015440940856934, -0.04802098870277405, 0.23190069198608398, 0.1995401680469513, -0.04301309585571289, -0.003556191921234131, 0.0], [-0.004045665264129639, 0.00017720460891723633, 0.023079276084899902, 0.000409543514251709, -0.03785419464111328, 0.0006555318832397461, -0.03896820545196533, 0.012172818183898926, 0.01096545159816742, -0.0283508263528347, 0.008352577686309814, -0.007489323616027832, -0.010017037391662598, 0.04417216777801514, 0.01152658462524414, 0.16708874702453613, -0.060308098793029785, -0.029471516609191895, -0.016703546047210693, 0.0], [0.009537488222122192, 0.008351500146090984, -0.008822977542877197, -0.006784290075302124, -0.011959314346313477, -0.0011605322360992432, 0.03164219856262207, -0.006242528557777405, -0.017329923808574677, -0.021669477224349976, -0.005063917487859726, -0.000546574592590332, 0.005633890628814697, 0.0046388208866119385, 0.006775528192520142, 0.032372668385505676, -0.030945807695388794, -0.01412975788116455, -0.007892042398452759, 0.0], [0.016855627298355103, -0.019443415105342865, -0.03075966238975525, -0.10607639700174332, 0.06254452466964722, 0.05779904127120972, 0.022109180688858032, 0.056625187397003174, 0.03900478780269623, 0.03486227989196777, -0.09914853423833847, -0.04620352387428284, 0.0016887187957763672, 0.004250168800354004, 0.005574673414230347, 0.059613585472106934, 0.12281477451324463, -0.013670772314071655, 0.008277595043182373, 0.0], [-0.011154130101203918, -0.04040834680199623, 0.0704948902130127, -0.022924989461898804, -0.0018638670444488525, -0.014439165592193604, 0.0014674216508865356, -0.03555154800415039, -0.034581542015075684, -0.0469767302274704, -0.024833083152770996, 0.008629143238067627, -0.004468381404876709, 0.03847464919090271, 0.059658557176589966, 0.02610829286277294, 0.04106086492538452, -0.05337350815534592, -0.01585136353969574, 0.0], [-0.05629279464483261, 0.012110389769077301, 0.03544369339942932, -0.003905579447746277, -0.03499191999435425, -0.037109747529029846, 0.02394542098045349, 0.009638696908950806, 0.0528719425201416, 0.010826289653778076, 0.005132079124450684, 0.004780411720275879, -0.07391992211341858, 0.0184745192527771, 0.010409414768218994, 0.050588130950927734, -0.0813189148902893, 0.02695261687040329, -0.05481070280075073, 0.0], [0.008699506521224976, 0.01278194785118103, -0.028091013431549072, -0.03181371092796326, -0.01934945583343506, 0.00969308614730835, -0.02071627974510193, -0.0163700133562088, 0.001086592674255371, -0.024259448051452637, -0.031617388129234314, -0.020638704299926758, -0.02151353657245636, 0.008193299174308777, 0.0018111765384674072, -0.06652766466140747, 0.004731297492980957, -0.012362301349639893, 0.004397332668304443, 0.0], [0.00853884220123291, -0.03550119698047638, 0.02395808696746826, -0.017077863216400146, -0.005390167236328125, -0.025339961051940918, -0.005590200424194336, -0.04139059782028198, -0.03271600604057312, -0.045346587896347046, -0.0556260347366333, 0.0618816614151001, -0.01249605417251587, 0.01954960823059082, -0.019219040870666504, 0.019051790237426758, -0.004695713520050049, -0.043164610862731934, -0.0007439255714416504, 0.0], [0.03511554002761841, 0.003255486488342285, 0.005928099155426025, 0.016957223415374756, -0.050144463777542114, -0.0491148978471756, 0.031050145626068115, 0.019192934036254883, 0.03509921580553055, 0.05437958240509033, 0.0070448219776153564, 0.030227869749069214, -0.1466725468635559, 0.0501461923122406, 0.03912925720214844, -0.07779467105865479, -0.13388264179229736, 0.09864163398742676, -0.06586560606956482, 0.0], [-0.009719252586364746, -0.03982609510421753, 0.099402517080307, -0.03760083019733429, -0.02985641360282898, 0.011966824531555176, 0.05600631237030029, 0.00950595736503601, 0.007438277825713158, -0.10671529173851013, -0.027544036507606506, -0.013994753360748291, -0.056675806641578674, 0.015649884939193726, -0.051948532462120056, -0.09741263836622238, 0.028128355741500854, -0.08892235159873962, -0.07758110761642456, 0.0], [0.021070271730422974, 0.007934227585792542, -0.0028950124979019165, 0.017621397972106934, -0.009801596403121948, -0.03371686488389969, -0.020326241850852966, -0.020444020628929138, -0.047181472182273865, -0.06643512845039368, 0.0032926201820373535, 0.016607344150543213, -0.05634915828704834, 0.001294560730457306, -0.011818021535873413, -0.09160764515399933, 0.1482415795326233, -0.03242042660713196, -0.012555696070194244, 2.9802322387695312e-08], [0.005300670862197876, 0.003994688391685486, 0.004684090614318848, -0.08657094836235046, -0.0002975761890411377, -0.08117020130157471, -0.011069260537624359, -0.03127884864807129, 0.0006359219551086426, -0.04971906542778015, -0.08346667885780334, -0.02821357548236847, -0.09676575660705566, -0.01579916477203369, 0.004452809691429138, 0.012054741382598877, -0.014293953776359558, 0.0008055716753005981, 0.009357988834381104, 0.0], [0.009107723832130432, 0.021639719605445862, -0.007722675800323486, -0.011512994766235352, -0.0591239333152771, 0.012685686349868774, -0.04702669382095337, -0.02065032720565796, -0.026408135890960693, -0.04312698543071747, 0.0009066760540008545, -0.025968074798583984, -0.03043973445892334, -0.018183350563049316, 0.05409058928489685, -0.268807053565979, -0.10097688436508179, 0.011112123727798462, -0.049920618534088135, 0.0], [0.002467811107635498, -0.0405423641204834, 0.03648069500923157, 0.08313629031181335, -0.016962647438049316, 0.06580370664596558, 0.009400874376296997, 0.03882394731044769, -0.0031913667917251587, 0.04506799578666687, 0.1124948263168335, -0.0191333144903183, -0.07248076796531677, 0.043584853410720825, 0.09074828028678894, -0.013559609651565552, -0.020573727786540985, 0.014338418841362, -0.06288132071495056, 0.0], [-0.0002588331699371338, -0.001104108989238739, 0.031224876642227173, 0.06019130349159241, -0.0320315957069397, -0.03444734215736389, 0.0654975026845932, 0.02887895703315735, 0.028422832489013672, 0.05130314081907272, 0.05629020929336548, 0.0329517126083374, -0.1116395816206932, -0.004018604755401611, -0.039800941944122314, 0.01706331968307495, -0.044332996010780334, 0.06990042328834534, -0.05224078893661499, 0.0], [0.009578824043273926, -0.02230861783027649, 0.07246670126914978, 0.0037967264652252197, -0.028591662645339966, -0.013884365558624268, 0.026462197303771973, 0.0322737991809845, -0.020657822489738464, -0.043131619691848755, -0.01890397071838379, 0.04478877782821655, -0.0005582869052886963, -0.03278398886322975, 0.022191524505615234, 0.1103626936674118, 0.07029217481613159, -0.023787766695022583, -0.04229537025094032, 0.0], [-0.0453835129737854, 0.05730429291725159, -0.046764373779296875, 0.03095407783985138, -0.019409608095884323, 0.0027452707290649414, 0.02873978018760681, 0.013117611408233643, 0.005198746919631958, 0.05323296785354614, 0.008047685027122498, 0.04217997193336487, 0.007194548845291138, 0.03576552867889404, -0.021557822823524475, -0.03179613873362541, 0.0026879608631134033, 0.0063670724630355835, 0.016668885946273804, 0.0], [-0.02343890070915222, -0.0029009971767663956, 0.01850394904613495, 0.03359179198741913, 0.00019478797912597656, -0.05068010091781616, -0.002426452934741974, 0.0031672194600105286, -0.0032124072313308716, -0.06027817726135254, 0.018000755459070206, 0.04429712891578674, -0.012516513466835022, 0.042774446308612823, 0.024939388036727905, -0.18269506096839905, 0.15894173085689545, -0.07111898064613342, 0.011667191982269287, 1.4901161193847656e-08], [-0.01454836130142212, -0.0003693290054798126, 0.01758471131324768, 0.07330486178398132, -0.0574222207069397, -0.04717123508453369, 0.0417422354221344, 0.03403674066066742, 0.0018183588981628418, 0.08084133267402649, 0.07482266426086426, -0.003621608018875122, -0.07060959935188293, 0.05201926827430725, -0.13018399477005005, 0.16228057444095612, 0.23073908686637878, 0.03544780611991882, -0.10235469043254852, 1.4901161193847656e-08], [-0.006832510232925415, -0.013239409774541855, 0.03866519033908844, -0.009392797946929932, -0.04158744215965271, 0.025849133729934692, -0.003504127264022827, -0.008043467998504639, -0.006500601768493652, -0.018525294959545135, -0.000660330057144165, -0.012673765420913696, 0.052835509181022644, 0.010224707424640656, 0.038847535848617554, -0.0019017457962036133, 0.035946354269981384, -0.015913959592580795, -0.034912943840026855, 0.0], [0.011776761151850224, -0.04577290266752243, 0.005301982164382935, -0.024119436740875244, -0.014293581247329712, -0.002012491226196289, 0.07287472486495972, 0.05726015567779541, 0.027268528938293457, 0.01990625262260437, -0.01505821943283081, -0.020337991416454315, -0.0191228985786438, 0.0006841421127319336, 0.0539168119430542, 0.041324615478515625, 0.028679490089416504, -0.004073649644851685, -0.028158456087112427, 0.0], [0.03052111715078354, -0.011815434321761131, 0.004972100257873535, -0.00557371973991394, -0.032356977462768555, -0.06167140603065491, 0.0011037588119506836, -0.012890517711639404, 0.03279381990432739, -0.017897918820381165, 0.017486751079559326, -0.03943619132041931, -0.05225369334220886, -0.03686884045600891, -0.05818510055541992, -0.02008533477783203, -0.06511721014976501, 0.029687345027923584, -0.04933738708496094, 0.0], [-0.0016147494316101074, 0.0294509194791317, -0.007827430963516235, -0.04196763038635254, -0.0392986498773098, -0.008880317211151123, 0.01473630964756012, -0.009622812271118164, -0.04863704741001129, -0.07926168292760849, -0.04974674433469772, 0.0016641467809677124, -0.0029559731483459473, -0.022642478346824646, 0.044791996479034424, -0.228829026222229, 0.021606795489788055, -0.03122997283935547, 0.009050160646438599, 0.0], [0.01954600214958191, -0.029373660683631897, 0.010461375117301941, 0.03372126817703247, -0.01309051364660263, -0.058025360107421875, -0.021241694688796997, -0.02125968039035797, 0.0031995773315429688, 0.0024875998497009277, 0.05756908655166626, -0.01822340488433838, 0.12628310918807983, -0.01344221830368042, -0.0044803619384765625, 0.24743340909481049, -0.11665898561477661, -0.05159828066825867, 0.009122565388679504, 0.0], [0.00793449580669403, 0.004059050232172012, 0.015156000852584839, -0.08225205540657043, -0.032682597637176514, 0.005088776350021362, -0.027659952640533447, -0.021266579627990723, 0.015632450580596924, -0.04520973563194275, -0.06875702738761902, -0.022796332836151123, -0.02158796787261963, 0.04969191551208496, 0.015691012144088745, 0.08428731560707092, -0.013835221529006958, -0.0874837189912796, -1.043081283569336e-05, 0.0], [-0.03034105896949768, -0.021288812160491943, -0.02835071086883545, -0.005661293864250183, -0.024459801614284515, -0.03151963651180267, -0.026640787720680237, -0.028420187532901764, 0.014310061931610107, -0.0109635591506958, -0.002083614468574524, -0.0036246180534362793, 0.005773581564426422, 0.01594117283821106, -0.05302075296640396, 0.10319328308105469, -0.17177385091781616, -0.05365235358476639, 0.0019873380661010742, 0.0], [-0.020633786916732788, -0.035171568393707275, 0.07311728596687317, 0.02131369709968567, -0.0035377144813537598, -0.028441548347473145, -0.008421167731285095, -0.04449149966239929, -0.049267664551734924, -0.06744652986526489, -0.00321120023727417, 0.0681210458278656, -0.009378135204315186, -0.03543287515640259, -0.01601123809814453, 0.10616329312324524, -0.044021427631378174, 0.001362144947052002, -0.05389803647994995, 0.0], [-0.018635809421539307, -0.0382862389087677, 0.07964916527271271, 0.006621718406677246, -0.03899899125099182, -0.05808383226394653, 0.006652355194091797, -0.07962341606616974, -0.025351304560899734, -0.04487951099872589, 0.011285990476608276, -0.015253812074661255, -0.0041363537311553955, 0.02665114402770996, -0.0019023120403289795, -0.15425953269004822, 0.06241157650947571, -0.06347494572401047, -0.011943161487579346, 0.0], [0.024134531617164612, -0.04723583161830902, -0.008324086666107178, -0.03361666202545166, -0.024503692984580994, -0.03639940917491913, -0.019651561975479126, -0.027419330552220345, -0.0023691654205322266, -0.037695348262786865, -0.03914433717727661, 0.007132790982723236, 0.0191725492477417, 0.01833517849445343, -0.003322131931781769, 0.005363184958696365, 0.04122602194547653, -0.025764450430870056, 0.005615174770355225, 0.0], [0.010066196322441101, -0.02138860523700714, -0.03892877697944641, -0.042253732681274414, 0.038424015045166016, -0.05504262447357178, -0.013218142092227936, 0.02174362540245056, 0.0046386271715164185, -0.002124607563018799, -0.03391587734222412, -0.03722268342971802, -0.014002621173858643, -0.007238209247589111, 0.04483383893966675, -0.11992157250642776, -0.07681581377983093, 0.040033161640167236, 0.0030046701431274414, -2.9802322387695312e-08], [0.018392592668533325, -0.07137922197580338, 0.02423804998397827, 0.048339128494262695, -0.05690741539001465, -0.07289296388626099, -0.005360305309295654, -0.033678725361824036, -0.011924028396606445, 0.015579581260681152, 0.053087830543518066, -0.007559061050415039, 0.0325656533241272, 0.01011800765991211, -0.056501030921936035, 0.07177865505218506, 0.10103490948677063, -0.04947337508201599, -0.057827770709991455, 0.0], [0.008055508136749268, -0.004454761743545532, -0.02075904607772827, -0.035897135734558105, 0.009795308113098145, -0.0004596710205078125, -0.030892081558704376, -0.011096268892288208, -0.02233859896659851, -0.03093678504228592, -0.038271427154541016, -0.006406739354133606, 0.001511991024017334, -0.005117744207382202, 0.015584409236907959, -0.024979084730148315, -0.007959648966789246, -0.01892496645450592, 0.022744864225387573, 0.0], [0.00843656063079834, 0.004371631424874067, 0.0003160536289215088, -0.04109901189804077, -0.013292014598846436, -0.004314899444580078, -0.008024841547012329, -0.018666505813598633, -0.00346316397190094, -0.04716035723686218, -0.0383872389793396, -0.007002383470535278, 0.02386149764060974, 0.006778940558433533, 0.011370733380317688, -0.011468544602394104, -0.021737217903137207, -0.0398058146238327, 0.011158794164657593, 0.0], [-0.016320139169692993, -0.007822267711162567, 0.02158351242542267, 0.03931891918182373, 0.026001445949077606, 0.08043313026428223, -0.02051989734172821, 0.030615150928497314, 0.007607117295265198, -0.00784747302532196, 0.07932677865028381, -0.04735139012336731, -0.084854856133461, -0.07574907690286636, 0.0274125337600708, -0.010379314422607422, -0.01882912591099739, 0.0017886757850646973, -0.0213334858417511, 0.0], [-0.019242100417613983, -0.0047337934374809265, -0.023056909441947937, -0.01735195517539978, 0.003414332866668701, 0.04486235976219177, -0.06377094238996506, -0.049582451581954956, -0.019546151161193848, -0.04607433080673218, -0.00538887083530426, 0.018740922212600708, 0.02735564112663269, -0.02804580330848694, 0.02407890558242798, 0.06350690126419067, -0.270943284034729, 0.01801234483718872, 0.0060884058475494385, 0.0], [-0.0028385668992996216, 0.0382952019572258, 0.004584670066833496, 0.013800203800201416, -0.03352794051170349, 0.01019701361656189, -0.015393361449241638, 0.0009728074073791504, -0.00694781681522727, -0.0029499083757400513, 0.010955065488815308, 0.01335299015045166, 0.018374890089035034, -0.018352627754211426, -0.05147296190261841, 0.3498082756996155, 0.11322326958179474, 0.021943092346191406, 0.010425865650177002, 0.0], [-0.007772922515869141, -0.001805771142244339, -0.016480177640914917, 0.034566402435302734, 0.025551527738571167, -0.08759808540344238, -0.054035723209381104, -0.004415690898895264, 0.0849551260471344, 0.05200427770614624, 0.05627399682998657, -0.01148223876953125, -0.18391400575637817, -0.014180123805999756, -0.1293978989124298, -0.09054702520370483, 0.11057418584823608, 0.22734344005584717, -0.039631664752960205, 0.0], [0.014109641313552856, -0.007958665490150452, 0.060870856046676636, 0.04482924938201904, 0.02689450979232788, -0.04255509376525879, 0.01499977707862854, -0.008518964052200317, 0.08310610055923462, -0.015133291482925415, 0.023914456367492676, 0.054766952991485596, -0.017120838165283203, 0.018997207283973694, -0.003404654562473297, 0.13078826665878296, 0.07521447539329529, -0.03054863214492798, 0.0062167346477508545, 0.0], [-0.0070151686668396, -0.019857987761497498, -0.002648085355758667, -0.0665828287601471, -0.002603501081466675, -0.0034136176109313965, 0.008723527193069458, -0.017907574772834778, -0.046716511249542236, -0.02179640531539917, -0.04497293382883072, -0.04745842516422272, 0.07747277617454529, -0.006781548261642456, -0.0024939775466918945, 0.033781543374061584, -0.028219252824783325, -0.09109258651733398, 0.03165808320045471, 0.0], [0.026342689990997314, -0.013656139373779297, 0.012108057737350464, -0.02632203698158264, -0.0023664236068725586, -0.007706344127655029, 0.0018267333507537842, 0.01008007675409317, 0.0011949241161346436, -0.0272790789604187, -0.023034095764160156, -0.007892906665802002, 0.01199612021446228, 0.027440428733825684, 0.03432190418243408, -0.010860085487365723, 0.033999428153038025, -0.05519111454486847, 0.001654297113418579, 0.0], [-0.0037798285484313965, -0.026770222932100296, 0.0331256240606308, 0.05150716006755829, -0.09949038922786713, 0.015628457069396973, -0.024782944470643997, 0.0016955733299255371, -0.04730468988418579, -0.04136836528778076, 0.09387236833572388, -0.06468170881271362, -0.033314868807792664, 0.0028990209102630615, -0.03360112011432648, -0.07607704401016235, -0.0013835206627845764, -0.002090051770210266, -0.0908694863319397, 1.4901161193847656e-08], [0.0032412856817245483, 0.010679181665182114, -0.001739501953125, -0.010675191879272461, -0.01841220259666443, -0.012343049049377441, -0.013139963150024414, -0.023572564125061035, -0.00808560848236084, -0.021925002336502075, -0.021617084741592407, 0.0218161940574646, 0.007309556007385254, -0.019328415393829346, -0.009731531143188477, -0.0010547637939453125, -0.00861126184463501, -0.037277817726135254, -0.015925049781799316, 0.0], [0.01364627480506897, 0.009807534515857697, 0.016225501894950867, -0.09121972322463989, -0.013519510626792908, 0.013691011816263199, -0.02547547221183777, -0.014446653425693512, -0.01589381694793701, -0.021833375096321106, -0.08992260694503784, -0.027154134586453438, 0.006146281957626343, 0.00655876100063324, 0.012186884880065918, 0.019650638103485107, 0.016421370208263397, -0.02086961269378662, -0.004824087023735046, 0.0], [0.0056934356689453125, 0.007802426815032959, 0.02679099142551422, 0.033908285200595856, -0.013030558824539185, -0.032138556241989136, -0.020539969205856323, 0.016452252864837646, 0.016656426712870598, 0.036310046911239624, 0.03162485361099243, -0.00271017849445343, -0.06731092929840088, 0.06239520013332367, 0.01673319935798645, 0.04398845136165619, 0.05351206660270691, 0.002204388380050659, -0.005176246166229248, 0.0], [0.012643374502658844, 0.012580007314682007, -0.03558282554149628, -0.04956355690956116, -0.010986566543579102, -0.03284811973571777, 0.014469891786575317, 0.004346415400505066, 0.0009102150797843933, 0.005892127752304077, -0.05042560398578644, -0.015560418367385864, 0.013043075799942017, 0.03701673448085785, 0.010963588953018188, -0.027749553322792053, -0.015105664730072021, 0.0015160292387008667, 0.012034296989440918, 0.0], [-0.014382660388946533, -0.027069389820098877, 0.0175817608833313, 0.00740930438041687, -0.0322587788105011, -0.05341070890426636, -0.010783016681671143, 0.018853873014450073, 0.002604842185974121, 0.010699957609176636, 0.007204782217741013, -0.001678168773651123, -0.06157146394252777, 0.023040831089019775, -0.050868868827819824, 0.21761953830718994, 0.03813263773918152, 0.06991040706634521, -0.007383882999420166, 0.0], [0.02970542013645172, -0.005497943609952927, 0.02874159812927246, 0.0824931263923645, -0.03114396333694458, -0.10262048244476318, 0.023166388273239136, 0.00018209218978881836, 0.02981172502040863, 0.12845367193222046, 0.08823251724243164, 0.0022228658199310303, 0.013965606689453125, 0.014223963022232056, -0.042233943939208984, 0.097254678606987, -0.05500427633523941, 0.03149467706680298, -0.047815337777137756, 0.0], [-0.01714225299656391, -0.012089669704437256, 0.026281148195266724, 0.04845300316810608, 0.0003083348274230957, -0.03518959879875183, 0.015526831150054932, -0.006317704916000366, 0.030066512525081635, 0.0173129141330719, 0.06736141443252563, -0.03108316659927368, -0.032610177993774414, -0.02210301160812378, -0.04090756177902222, -0.058188796043395996, 0.05409500002861023, 0.024563610553741455, -0.01787051558494568, 0.0], [0.01572251319885254, 0.0010428130626678467, 0.02895832061767578, 0.03599655628204346, 0.013982534408569336, -0.010297536849975586, -0.005559682846069336, -0.004914700984954834, -0.031797587871551514, -0.012293130159378052, 0.028891801834106445, 0.005604565143585205, 0.016565680503845215, 0.008652687072753906, 0.03741323947906494, -0.19816088676452637, 0.07827091217041016, -0.03572046756744385, -0.013383269309997559, 0.0], [0.01796799898147583, -0.040693361312150955, 0.05770927667617798, 0.006897926330566406, -0.062255144119262695, 0.011989772319793701, -0.04543411731719971, -0.04484190419316292, -0.061113953590393066, -0.04481127858161926, 0.0033472925424575806, 0.013781385496258736, 0.025740668177604675, 0.039948999881744385, -0.0004171431064605713, 0.01178741455078125, -0.008577480912208557, -0.03533613681793213, -0.028394490480422974, 0.0], [-0.015295743942260742, 0.00483301654458046, -0.02472066879272461, -0.016100406646728516, -0.011445015668869019, -0.0174180269241333, 0.0037810206413269043, -0.016951918601989746, 0.022443532943725586, 0.007041353732347488, -0.013245940208435059, -0.011849641799926758, -0.03256222605705261, -0.012934565544128418, -0.018559038639068604, -0.10020694136619568, -0.00572088360786438, 0.01618891954421997, -9.5367431640625e-05, 0.0], [-0.01802980899810791, 0.017349272966384888, 0.05147683620452881, 0.04152125120162964, 0.02166399359703064, -0.06559795141220093, 0.030380547046661377, -0.0018982887268066406, -0.01799049973487854, 0.05794483423233032, 0.05192868411540985, -0.010754793882369995, 0.1178252100944519, -0.04765021800994873, -0.059109508991241455, 0.0556071400642395, 0.01723766326904297, -0.016142070293426514, -0.01094120740890503, 0.0], [-0.007898703217506409, -0.014576680958271027, -0.0023877620697021484, 0.014052867889404297, -0.018801748752593994, -0.01490253210067749, 0.026088237762451172, 0.0026123225688934326, 0.03317419812083244, 0.03255683183670044, 0.016983136534690857, 0.0018104016780853271, -0.004992246627807617, 0.013843923807144165, -0.047713302075862885, 0.11959722638130188, 0.14806994795799255, -0.018038496375083923, -0.021047532558441162, 0.0], [0.00023996829986572266, 0.019376948475837708, -0.06366010010242462, -0.026393890380859375, -0.009182140231132507, -0.041371144354343414, -0.0016379058361053467, -0.021569430828094482, -0.0039819031953811646, 0.04795941710472107, -0.017107099294662476, -0.03968435525894165, 0.09692592918872833, -0.020627111196517944, 0.027250707149505615, 0.029903918504714966, 0.015296906232833862, 0.009227067232131958, 0.020355522632598877, 0.0], [0.006104424595832825, -0.04294120520353317, -0.019886881113052368, -0.050386108458042145, -0.03658503293991089, 0.03065425157546997, 0.023795470595359802, 0.004743099212646484, 0.013222724199295044, -0.04365412890911102, -0.053452908992767334, -0.0319536030292511, 0.009061604738235474, 0.024993211030960083, 0.06973177194595337, -0.17560040950775146, 0.05319029092788696, -0.08790338039398193, -0.029293730854988098, 0.0]], "model.0.bias": [-0.14942330121994019, -0.04078075289726257, -0.06273484975099564, -0.6294395923614502, -0.12829577922821045, -0.27293631434440613, -0.22916632890701294, -0.5848006010055542, -0.13457146286964417, -0.49957460165023804, -0.6862019896507263, -0.438775897026062, -0.36766165494918823, -0.3391936421394348, -0.19253388047218323, 0.012624204158782959, -0.5636680126190186, -0.6202265024185181, -0.5122112035751343, -0.5230331420898438, -0.26840686798095703, -0.03714326024055481, -0.44741231203079224, -0.5463400483131409, -0.4143447279930115, -0.858650803565979, 0.10821086168289185, -0.21915289759635925, -0.603035569190979, -0.14779402315616608, -0.1139446496963501, -0.14064545929431915, -0.06542718410491943, -0.516095757484436, -0.4684908986091614, -0.23784267902374268, -0.44360023736953735, -0.48189428448677063, -0.5772151350975037, -0.4390244781970978, -0.29433757066726685, -0.5653432607650757, -0.2270863950252533, -0.5812809467315674, -0.07133454084396362, -0.5760698318481445, -0.3947785496711731, -0.222503662109375, -0.15130271017551422, -0.1988711953163147, -0.5131051540374756, -0.4837336540222168, -0.19624793529510498, -0.7619887590408325, -0.1662595570087433, -0.6440703868865967, -0.1927114725112915, -0.7628017663955688, -0.43117961287498474, -0.43052762746810913, -0.3330489695072174, -0.5615260601043701, -0.5221754312515259, -0.28425681591033936, -0.4374796152114868, -0.18968211114406586, -0.17487174272537231, -0.20688597857952118, -0.3672087490558624, -0.5654616355895996, -0.5097967386245728, -0.15395766496658325, -0.19141165912151337, -0.016600370407104492, -0.5152934789657593, -0.4130420684814453, -0.14842677116394043, -0.22400261461734772, -0.6127278804779053, -0.2835066020488739, -0.09786337614059448, -0.525643527507782, -0.22723540663719177, -0.32400965690612793, -0.3179953098297119, -0.08231890201568604, -0.3818948268890381, -0.7200655341148376, -0.35476648807525635, -0.4264933466911316, -0.250580370426178, -0.5291783809661865, -0.18518635630607605, -0.567435085773468, -0.9575567245483398, -0.06006801128387451, -0.4344514012336731, -0.031619876623153687, -0.27826035022735596, -0.43744492530822754, -0.486902117729187, -0.4258882701396942, -0.3683868646621704, -0.7823394536972046, -0.14243468642234802, -0.2999298870563507, -0.2895280420780182, -0.23897239565849304, -0.3493193984031677, -0.7773222923278809, -0.3384406566619873, -0.23652461171150208, -0.20447607338428497, -0.2054559588432312, -0.11563342809677124, -0.20317253470420837, -0.4369073510169983, -0.5432636737823486, -0.7561228275299072, -0.48379433155059814, -0.48254868388175964, -0.26204681396484375, -0.3469357490539551, -0.26466140151023865, -0.6524709463119507, -0.4028303027153015, -0.09249090403318405, -0.21824683248996735], "model.2.weight": [[-0.10590329766273499, -0.001051478087902069, -0.13741454482078552, -0.05891221761703491, -0.10010349750518799, -0.10696616768836975, -0.05578097701072693, -0.0776054710149765, 0.035190269351005554, -0.13671252131462097, -0.15627917647361755, -0.10233771800994873, -0.05656448006629944, -0.14200589060783386, -0.18180954456329346, -0.0568300299346447, -0.05554134398698807, -0.1126282811164856, -0.0709272027015686, -0.06628035008907318, -0.10752692818641663, -0.026327595114707947, -0.04428322613239288, -0.02387462556362152, -0.020583748817443848, -0.09549207985401154, -0.16477645933628082, 0.013350829482078552, -0.016033872961997986, -0.10046939551830292, -0.09888145327568054, -0.0032527148723602295, -0.17722511291503906, -0.12730289995670319, -0.0945894867181778, -0.0339837372303009, -0.09728048741817474, -0.14611424505710602, -0.00029268115758895874, -0.11393553018569946, -0.12015426903963089, -0.12441098690032959, -0.10809092968702316, -0.08889622986316681, -0.05001784861087799, -0.07082860171794891, -0.0834956020116806, -0.17815983295440674, -0.04034137725830078, -0.1762549877166748, -0.21649563312530518, -0.1340896487236023, -0.08022749423980713, -0.054382696747779846, -0.024402201175689697, -0.14239051938056946, -0.05147475004196167, -0.16805920004844666, -0.12694904208183289, -0.058187901973724365, -0.08223393559455872, -0.15705224871635437, -0.09566435217857361, -0.019270066171884537, -0.12336823344230652, -0.07668580114841461, -0.09576094150543213, -0.05027124658226967, -0.046842217445373535, 0.0009267628192901611, -0.016766510903835297, -0.022978946566581726, -0.13750700652599335, -0.09153852611780167, -0.06209670007228851, -0.06140691041946411, -0.010171055793762207, -0.07669410109519958, -0.12196673452854156, -0.23449623584747314, -0.17973080277442932, -0.04844720661640167, -0.08637604862451553, -0.024332880973815918, -0.08114615082740784, -0.10801376402378082, -0.12394534796476364, -0.06357377767562866, -0.11917811632156372, -0.1210489571094513, -0.1175641119480133, -0.05448463559150696, -0.12056109309196472, -0.00684961536899209, -0.02734600007534027, -0.1295570433139801, -0.20330265164375305, -0.13219985365867615, -0.07203401625156403, -0.12079696357250214, -0.11452919244766235, -0.1446327120065689, -0.08147404342889786, -0.050414666533470154, -0.031382933259010315, -0.12178727984428406, -0.05178762972354889, -0.0683007687330246, -0.044563233852386475, -0.08388964831829071, -0.09581983089447021, -0.09806552529335022, -0.09839433431625366, -0.06892389059066772, -0.08397012948989868, -0.007745146751403809, -0.08936559408903122, 0.005206495523452759, -0.13216693699359894, -0.09645228087902069, -0.003707021474838257, -0.19618193805217743, -0.12776264548301697, -0.13264526426792145, -0.08317603170871735, 0.041193462908267975, -0.15985387563705444, -0.06746664643287659], [-0.0031725093722343445, -0.23452122509479523, -0.02802225947380066, -0.02594539150595665, -0.13888013362884521, -0.4222275912761688, -0.022534281015396118, -0.09481292963027954, -0.11232820898294449, -0.41226649284362793, -0.25526463985443115, -0.13683879375457764, -0.14323373138904572, -0.06307870149612427, -0.07003624737262726, -0.16672936081886292, -0.04570731520652771, -0.12746044993400574, 0.04489636421203613, -0.08656160533428192, -0.14405116438865662, -0.10484910011291504, -0.1301589459180832, -0.02630104124546051, -0.13304652273654938, -0.1107490062713623, -0.24797135591506958, -0.25768715143203735, 0.08136004209518433, -0.04897870123386383, -0.11155104637145996, -0.046315185725688934, -0.14413611590862274, -0.08013296127319336, 0.004578143358230591, -0.0997123271226883, -0.02320873737335205, -0.1095660924911499, -0.14536738395690918, -0.21348236501216888, -0.15800607204437256, -0.014403223991394043, -0.08539238572120667, -0.1756906807422638, -0.40126854181289673, -0.16760385036468506, 0.004829492419958115, 0.13199591636657715, -0.06770831346511841, -0.014733642339706421, -0.048215702176094055, -0.10902911424636841, -0.011219635605812073, -0.05776160955429077, -0.026870235800743103, -0.07614316046237946, -0.10740553587675095, -0.02744847536087036, -0.33186501264572144, -0.012427791953086853, -0.11123555898666382, -0.08428347110748291, -0.21862834692001343, -0.052938640117645264, -0.004731178283691406, -0.12013396620750427, -0.2300948202610016, -0.1176421046257019, -0.06615814566612244, -0.038700513541698456, -0.15140512585639954, -0.04105667769908905, -0.006580740213394165, -0.17950233817100525, -0.31097859144210815, -0.05723380669951439, -0.08122086524963379, -0.10511361062526703, -0.037131547927856445, -0.19478681683540344, -0.0625348687171936, -0.16382050514221191, -0.035895317792892456, -0.03149324655532837, -0.1671014428138733, -0.316838800907135, -0.0666985884308815, -0.06670249998569489, -0.03687983378767967, -0.06339608132839203, -0.14892709255218506, 0.04460727050900459, -0.13903729617595673, -0.13381528854370117, -0.1651250272989273, -0.04889800399541855, -0.031510159373283386, -0.1963186264038086, -0.17299072444438934, -0.12460939586162567, -0.08798044919967651, -0.004254840314388275, -0.024257197976112366, -0.09071804583072662, -0.10847755521535873, -0.06421291828155518, -0.018861405551433563, -0.17439652979373932, -0.1123284175992012, -0.016479358077049255, -0.11336671561002731, -0.14341804385185242, -0.10948607325553894, -0.07853768020868301, -0.03331160545349121, -0.009031962603330612, -0.07154247164726257, -0.1061534732580185, -0.09212139248847961, -0.20624113082885742, -0.04961659014225006, -0.10507863759994507, -0.01073378324508667, -0.10595309734344482, -0.035835832357406616, 0.0075997114181518555, -0.14822164177894592, -0.20857761800289154], [0.02091701328754425, -0.130905881524086, -0.1286618560552597, -0.027702659368515015, -0.10791327059268951, -0.09957221150398254, -0.194620281457901, -0.2659069895744324, -0.09222085773944855, -0.1509186327457428, -0.01179438829421997, -0.11822542548179626, -0.03225361555814743, -0.05569306015968323, 0.011421531438827515, 0.020008087158203125, -0.023527994751930237, -0.12027552723884583, -0.12639103829860687, -0.1598086953163147, -0.09674346446990967, -0.10793590545654297, 0.13778969645500183, -0.25541073083877563, -0.02907256782054901, -0.03709307312965393, -0.03649229556322098, -0.23655584454536438, -0.03750193119049072, -0.1967175453901291, -0.013523340225219727, -0.026890233159065247, -0.1155083104968071, -0.024793609976768494, 0.04139980673789978, -0.10077079385519028, 0.05957293510437012, 0.03750285506248474, -0.03282153606414795, -0.04106995463371277, -0.15975303947925568, -0.062261611223220825, -0.1340649127960205, -0.20632733404636383, -0.06798745691776276, -0.0869055986404419, 0.01713164895772934, -0.18283623456954956, -0.012042924761772156, -0.1207975447177887, -0.03190281242132187, -0.07335983216762543, -0.016828015446662903, -0.02481210231781006, -0.028780072927474976, 0.06376984715461731, -0.00853709876537323, -0.044888466596603394, -0.039423391222953796, -0.11330284923315048, -0.1384924054145813, -0.022833645343780518, 0.03164727985858917, -0.08490481972694397, -0.0545116662979126, -0.276969850063324, -0.02559569478034973, -0.028495103120803833, 0.07506649196147919, -0.06843973696231842, -0.24953120946884155, -0.01914253830909729, -0.016079574823379517, -0.04648144543170929, -0.11292624473571777, -0.17103901505470276, -0.08432549238204956, -0.0851609855890274, -0.038142502307891846, -0.06526893377304077, -0.183980330824852, -0.15596359968185425, -0.25504282116889954, -0.11508707702159882, 0.011132325977087021, -0.07328049838542938, -0.30507349967956543, -0.06711935997009277, -0.17214682698249817, -0.00029143691062927246, -0.14486557245254517, -0.13038374483585358, -0.0562422052025795, -0.028358370065689087, -0.018758535385131836, -0.05313888192176819, -0.10213204473257065, -0.1417231410741806, -0.008702665567398071, -0.1380273550748825, -0.16830512881278992, -0.04320807754993439, -0.0709972083568573, -0.09693992137908936, -0.16860559582710266, 0.053111493587493896, -0.3526809811592102, -0.1776846945285797, -0.06142726540565491, 0.08570703864097595, -0.23668226599693298, -0.06491486728191376, -0.14848637580871582, -0.21770387887954712, -0.07293701171875, -0.10312870144844055, -0.019000232219696045, 0.014743678271770477, 0.11974257230758667, -0.05769804120063782, -0.1903398633003235, -0.13034068048000336, -0.12942764163017273, -0.04284675419330597, -0.22852462530136108, -0.11054210364818573, 0.015288248658180237, -0.03785594925284386], [-0.0382331982254982, 0.04216188192367554, -0.39973875880241394, -0.1508225053548813, 0.018066763877868652, -0.049390822649002075, 0.03235200047492981, -0.0932043269276619, -0.20100603997707367, 0.05993032455444336, -0.0914718508720398, -0.0895368680357933, -0.0918460413813591, -0.029182493686676025, -0.1300189346075058, -0.02625870704650879, -0.09473717212677002, -0.11348438262939453, 0.15303927659988403, 0.01714525744318962, -0.030485928058624268, 0.04666927456855774, 0.019813954830169678, -0.08813506364822388, -0.053457796573638916, 0.08274203538894653, -0.12594307959079742, -0.11193710565567017, 0.04205074906349182, -0.10864575207233429, -0.08629712462425232, 0.05870513245463371, 0.015994789078831673, -0.4046773314476013, -0.1076199859380722, -0.05898243561387062, 0.03907999396324158, 0.0781201422214508, -0.09685498476028442, 0.010464251041412354, -0.014618337154388428, -0.047113388776779175, -0.12464606761932373, -0.4150829315185547, 0.014410167932510376, 0.12982909381389618, -0.03948567807674408, -0.04687388241291046, -0.12358321249485016, -0.050461411476135254, -0.0779450386762619, -0.019623085856437683, -0.04730898141860962, -0.10527651011943817, -0.04571288079023361, 0.033011630177497864, -0.04876911640167236, 0.029886901378631592, -0.206509530544281, -0.22527623176574707, 0.055220603942871094, -0.11974728107452393, 0.13409462571144104, -0.15202337503433228, -0.01104968786239624, -0.03717386722564697, -0.07980281114578247, -0.03475023806095123, 0.010062545537948608, 0.0965626984834671, -0.21847844123840332, -0.043292149901390076, 0.026734888553619385, -0.0733465701341629, -0.03594934940338135, -0.1044301986694336, -0.24364972114562988, -0.04239114373922348, -0.17377977073192596, -0.0012380778789520264, -0.036756157875061035, -0.238582581281662, -0.16600748896598816, -0.054900333285331726, -0.08349481970071793, 0.06255188584327698, -0.08330416679382324, -0.07119067013263702, 0.01558220386505127, -0.10492493212223053, -0.29298996925354004, -0.10286550968885422, 0.02935781702399254, -0.016628459095954895, 0.008449509739875793, -0.2912296652793884, -0.08117595314979553, -0.1564946174621582, -0.01388588547706604, -0.03559884428977966, -0.09864109754562378, -0.006570965051651001, 0.06275315582752228, 0.04691186547279358, -0.14068150520324707, -0.030136436223983765, -0.029767513275146484, 0.09368044137954712, 0.004080861806869507, -0.029619306325912476, -0.18367865681648254, -0.05427039414644241, 0.08159565925598145, 0.044036105275154114, -0.0797758549451828, 0.003703400492668152, 0.03703877329826355, -0.08316613733768463, -0.19338463246822357, -0.1152752935886383, -0.012093126773834229, -0.007639527320861816, 0.03228001296520233, -0.22046607732772827, -0.029220402240753174, 0.06044304370880127, -0.07294870913028717, 0.057051535695791245], [-0.10807058215141296, -0.04613318666815758, -0.05631241202354431, -0.18080343306064606, -0.06108953431248665, 0.006007319316267967, -0.15307828783988953, 0.0256727933883667, -0.14560994505882263, -0.03360609710216522, -0.01933351904153824, -0.13404422998428345, -0.1455318033695221, -0.10421931743621826, -0.0035089701414108276, 0.023172348737716675, -0.06774924695491791, -0.047044530510902405, -0.302977979183197, -0.17470458149909973, 0.06455205380916595, -0.01814204454421997, -0.04429882764816284, 0.0014522196725010872, -0.09912818670272827, -0.1288793385028839, -0.07607254385948181, -0.08640832453966141, -0.04303479194641113, -0.07361090183258057, -0.08813232183456421, -0.2028704285621643, -0.0407915897667408, -0.27452951669692993, -0.06509795784950256, -0.12614703178405762, 0.00484156608581543, -0.16702254116535187, -0.1865735650062561, -0.2916218042373657, -0.06786155700683594, -0.17852705717086792, -0.3329760730266571, -0.08042922616004944, -0.18707841634750366, -0.07491093128919601, -0.12601572275161743, -0.084285669028759, -0.10399732738733292, 0.015101045370101929, -0.12782804667949677, -0.14701947569847107, -0.055070869624614716, -0.061571769416332245, -0.12290828675031662, -0.2138504534959793, -0.21022118628025055, -0.07981118559837341, -0.03208586573600769, -0.05875442922115326, 0.07534252107143402, -0.17360930144786835, -0.1818229854106903, -0.11506223678588867, -0.08267013728618622, -0.12325546145439148, -0.060096707195043564, -0.12365938723087311, -0.0663926899433136, -0.0879458636045456, -0.09536075592041016, -0.00464552640914917, 0.08784130215644836, -0.08455263078212738, 0.09493222832679749, 0.017404913902282715, -0.2878476679325104, 0.011531531810760498, -0.0583818256855011, -0.18021941184997559, -0.09126701951026917, -0.23946523666381836, -0.04721774533390999, -0.09892840683460236, -0.11670351028442383, -0.07921269536018372, -0.09373544156551361, -0.06982222199440002, 0.04069361090660095, -0.05283483862876892, -0.02755028009414673, -0.17173117399215698, -0.1657191812992096, -0.15858060121536255, -0.1230674684047699, -0.0015315413475036621, 0.022834360599517822, -0.05291265249252319, 0.05777665972709656, -0.17737875878810883, -0.2552070915699005, -0.04502755403518677, -0.09690234065055847, -0.06232251971960068, -0.013885661959648132, 0.07197485864162445, -0.19784072041511536, 0.011275053024291992, -0.2569485604763031, -0.14766176044940948, -0.036466777324676514, -0.1844222992658615, 0.05881810188293457, -0.0872923731803894, 0.01710742712020874, 0.03446478769183159, -0.17777098715305328, -0.11876291036605835, -0.12513726949691772, -0.22781002521514893, -0.04477357864379883, -0.12914098799228668, 0.06688949465751648, -0.04997272044420242, -0.09423626959323883, -0.11088533699512482, -0.08199582993984222, -0.01886776089668274], [-0.03268768638372421, -0.020023256540298462, 0.07967960834503174, -0.17409390211105347, -0.07753750681877136, -0.1702026128768921, 0.014065325260162354, 0.05298147350549698, -0.320262610912323, 0.004670619964599609, -0.013083681464195251, 0.10631056129932404, -0.13284805417060852, -0.038026124238967896, -0.1017957255244255, -0.11915571242570877, -0.07679593563079834, -0.078223317861557, 0.03877674788236618, -0.24572937190532684, -0.08679825067520142, 0.05176699161529541, -0.09313321858644485, 0.11345040798187256, 0.0153975710272789, -0.05615520477294922, -0.07337012887001038, -0.3050941824913025, 0.06880557537078857, -0.04048997163772583, -0.1518692970275879, 0.04120561480522156, -0.12838807702064514, -0.6715017557144165, 0.01752261072397232, 0.10996200144290924, -0.08222717046737671, -0.07174793630838394, -0.10529088973999023, -0.055976420640945435, 0.10273313522338867, -0.15791389346122742, 0.01687413454055786, 0.046733319759368896, -0.26054349541664124, 0.021275626495480537, -0.03332129493355751, 0.12659020721912384, -0.1409970372915268, -0.15117472410202026, -0.1152530163526535, -0.21248507499694824, -0.10147122293710709, 0.01850569248199463, -0.08058495819568634, -0.19796323776245117, -0.08859574794769287, -0.08970365673303604, -0.47725242376327515, -0.3398452401161194, -0.15326151251792908, -0.30196070671081543, -0.1240447536110878, -0.34093573689460754, 0.01094520092010498, 0.11014330387115479, -0.1336662471294403, -0.02867083251476288, -0.13266059756278992, -0.010080046951770782, 0.09386804699897766, -0.1513659954071045, -0.16935908794403076, -0.2972545623779297, 0.03870795667171478, -0.12014232575893402, -0.2589115798473358, 0.07569433748722076, -0.08135023713111877, -0.016090571880340576, 0.03209935873746872, -0.5935293436050415, -0.024019837379455566, -0.1736600399017334, -0.16468662023544312, 0.05525398254394531, 0.01937079429626465, 0.05482999235391617, 0.1268758326768875, -0.0417635440826416, -0.011591285467147827, -0.24751712381839752, 0.03833061456680298, 0.004071235656738281, -0.1059962809085846, 0.00685185007750988, -0.39985203742980957, -0.014993786811828613, -0.12647710740566254, 0.057228296995162964, 0.09588341414928436, 0.018708571791648865, -0.4700985252857208, 0.07760018110275269, 0.04434296861290932, -0.153661847114563, -0.06700193881988525, -0.5606268644332886, -0.048421770334243774, 0.026801258325576782, -0.014033712446689606, -0.08345402032136917, 0.03885537385940552, 0.06747524440288544, -0.024560928344726562, -0.15407031774520874, 0.06390778720378876, -0.06448255479335785, -0.17394793033599854, -0.0826498419046402, 0.09917747974395752, -0.09635911881923676, 0.08036240190267563, -0.013179540634155273, 0.016400396823883057, -0.28937745094299316, -0.12766414880752563, -0.06919156014919281], [-0.175165593624115, -0.15999451279640198, -0.28639161586761475, -0.11686155200004578, -0.197922021150589, -0.2327108383178711, -0.17173784971237183, -0.031240060925483704, -0.2138911485671997, -0.0154009610414505, -0.1808076798915863, -0.17959219217300415, -0.2186410129070282, -0.0923609808087349, -0.08659861981868744, -0.21454954147338867, -0.019232384860515594, -0.06928026676177979, 0.027682512998580933, -0.368020236492157, -0.04501268267631531, -0.04956381767988205, 0.07688629627227783, -0.22700631618499756, -0.2587689757347107, -0.1688179075717926, -0.009343147277832031, -0.1564142107963562, 0.05648393929004669, -0.07633063942193985, -0.021998684853315353, -0.17283222079277039, -0.033731311559677124, -0.14443548023700714, -0.42194876074790955, -0.19575589895248413, -0.12897589802742004, -0.10089868307113647, -0.23861175775527954, -0.18376801908016205, -0.08430777490139008, 0.0342307984828949, -0.12996838986873627, -0.1509046107530594, -0.026378601789474487, -0.031197577714920044, -0.22914817929267883, -0.17871791124343872, -0.06980499625205994, -0.011796176433563232, -0.20595800876617432, -0.003139495849609375, -0.1447746753692627, -0.09392757713794708, -0.0763627290725708, -0.011413127183914185, -0.15206144750118256, -0.06723228096961975, -0.14215010404586792, -0.10315512120723724, 0.1160818487405777, -0.13337171077728271, 0.036622390151023865, -0.21144291758537292, -0.1734817624092102, -0.20234499871730804, -0.07469865679740906, -0.0006748922169208527, -0.16669969260692596, -0.1469074785709381, -0.06387738883495331, -0.20036247372627258, 0.0293428897857666, -0.030750125646591187, -0.08632205426692963, -0.12959957122802734, -0.33777862787246704, -0.055800437927246094, -0.2250634878873825, -0.3307535648345947, -0.18728592991828918, -0.1737036257982254, -0.1681237518787384, -0.10106585919857025, -0.0878661721944809, -0.06261718273162842, -0.2344387173652649, -0.10065455734729767, -0.06896418333053589, -0.1714445948600769, -0.05750727653503418, 0.056088805198669434, -0.2857510447502136, -0.12031933665275574, -0.05759504437446594, -0.07936123013496399, -0.08746428787708282, -0.16235165297985077, -0.16970336437225342, -0.2449004054069519, -0.36880868673324585, -0.08886474370956421, -0.11974993348121643, -0.3221685290336609, -0.1174311637878418, -0.2104550153017044, -0.1839836835861206, -0.27488142251968384, -0.29175758361816406, 0.04491764307022095, -0.04521246999502182, -0.075958251953125, -0.061639800667762756, -0.10734011232852936, -0.15746507048606873, -0.09126122295856476, -0.18854184448719025, 0.029962554574012756, -0.14745169878005981, 0.057686612010002136, -0.1552959680557251, 0.019518166780471802, -0.21473805606365204, -0.09717202186584473, -0.09053133428096771, -0.14906607568264008, -0.1262739598751068, -0.17863339185714722], [-0.23330840468406677, -0.03294593095779419, -0.13601651787757874, -0.17571943998336792, -0.10809838771820068, 0.0808229148387909, -0.13390594720840454, -0.003758072853088379, -0.1928578019142151, -0.1972162425518036, 0.06299209594726562, -0.09869113564491272, -0.1459636688232422, 0.013435989618301392, -0.0802299901843071, -0.1869293749332428, -0.11688739061355591, -0.006508052349090576, -0.035273149609565735, -0.10988610982894897, -0.022494332864880562, -0.10896970331668854, -0.07918298244476318, 0.03614985942840576, -0.14614272117614746, -0.08673626184463501, -0.1630866825580597, -0.05560275912284851, 0.011740326881408691, -0.07584045827388763, -0.05941682681441307, -0.032577596604824066, -0.08018583059310913, -0.09757162630558014, -0.13400958478450775, -0.12099520117044449, -0.1273057907819748, -0.045514464378356934, -0.1574133187532425, -0.05620753765106201, -0.0682288110256195, -0.10879288613796234, -0.2024129182100296, -0.13679775595664978, -0.1615147739648819, -0.0067261457443237305, -0.13498979806900024, -0.08795225620269775, -0.0131150484085083, -0.09320342540740967, -0.07684145867824554, -0.13983651995658875, -0.1531093716621399, -0.044617220759391785, -0.10219542682170868, -0.08625778555870056, -0.07823163270950317, -0.11015245318412781, -0.06693415343761444, -0.053517118096351624, 0.07268337905406952, -0.04908844828605652, -0.14967456459999084, -0.12949994206428528, -0.09042307734489441, -0.04244318604469299, -0.09818589687347412, -0.11830824613571167, -0.2649623155593872, -0.09063583612442017, -0.14130648970603943, -0.12410847842693329, -0.16551080346107483, -0.004046626389026642, -0.0176943838596344, -0.04380422830581665, -0.08499413728713989, -0.03488747775554657, -0.06922799348831177, -0.0432780385017395, -0.15121524035930634, -0.04888233542442322, -0.039723530411720276, -0.06894941627979279, -0.14682041108608246, -0.203223317861557, -0.031651586294174194, -0.054332464933395386, 0.012411937117576599, -0.11075073480606079, -0.11768555641174316, -0.15799996256828308, -0.03281159698963165, -0.04301910102367401, -0.0722738653421402, -0.07623445987701416, -0.06572945415973663, -0.12496822327375412, -0.03596687316894531, -0.07536402344703674, -0.07302107661962509, -0.08718866109848022, -0.0740690678358078, 0.0070514678955078125, -0.15134546160697937, -0.09955053776502609, -0.1873370110988617, -0.06402292102575302, 0.059926360845565796, -0.08741823583841324, -0.08031666278839111, -0.14934097230434418, -0.1016148254275322, -0.14981484413146973, -0.03489099442958832, 0.013235637918114662, -0.06851008534431458, -0.07726216316223145, 0.010694526135921478, -0.16235660016536713, -0.05880908668041229, -0.14834293723106384, -0.10356022417545319, 0.022199511528015137, -0.024767935276031494, -0.11690446734428406, -0.12499627470970154, -0.019831325858831406], [-0.04912428557872772, -0.12241429090499878, -0.14637795090675354, -0.12323856353759766, -0.08932363986968994, -0.06891036033630371, -0.10703209042549133, -0.12710356712341309, -0.25337550044059753, -0.09845520555973053, -0.028743281960487366, -0.08824938535690308, -0.13949762284755707, 0.03412410616874695, -0.13572581112384796, -0.06327969580888748, -0.01631954312324524, -0.13488012552261353, -0.03516416251659393, -0.1342599093914032, 0.01573657989501953, -0.02170144021511078, -0.012209892272949219, -0.16168731451034546, -0.0794469565153122, -0.08173202723264694, -0.018063336610794067, -0.17165961861610413, 0.01680171489715576, -0.06566675752401352, -0.05741129815578461, -0.08093051612377167, -0.17638865113258362, -0.2829905152320862, -0.1256362497806549, -0.044605717062950134, -0.08615025877952576, -0.05326276272535324, 0.025991003960371017, -0.20980991423130035, -0.09535825252532959, -0.36199939250946045, -0.053713053464889526, -0.10918760299682617, -0.23848934471607208, -0.08442650735378265, -0.2903138995170593, -0.06860394775867462, -0.0159015953540802, -0.11521103978157043, -0.15357787907123566, -0.18335038423538208, -0.1600213646888733, -0.06882470846176147, -0.05597345530986786, -0.007028639316558838, -0.0697384774684906, -0.057315923273563385, -0.2729523777961731, -0.23238438367843628, 0.0978584960103035, -0.15927472710609436, -0.030195951461791992, -0.35738950967788696, -0.0051192790269851685, -0.2182806432247162, -0.03200409561395645, -0.150132954120636, 0.0015659630298614502, -0.06907500326633453, -0.10342207551002502, -0.12645335495471954, -0.10936549305915833, -0.2857756018638611, -0.1748635321855545, -0.10772980749607086, -0.03463214635848999, -0.05259878560900688, -0.3294968008995056, 0.0006501525640487671, -0.012509467080235481, -0.07927942276000977, -0.08347976207733154, -0.17696280777454376, -0.10404501110315323, 0.017214149236679077, -0.0633009523153305, -0.10837584733963013, -0.14396074414253235, -0.005958914756774902, -0.17955614626407623, -0.342599481344223, -0.15274739265441895, -0.08612798154354095, -0.10916043817996979, 0.01680607721209526, 0.022536177188158035, -0.09985922276973724, -0.049457848072052, -0.28194376826286316, -0.08440285921096802, -0.0030791163444519043, 0.024932924658060074, 0.07655459642410278, -0.056757695972919464, -0.0108279287815094, -0.10585132241249084, -0.09301215410232544, -0.11095068603754044, 0.02760636806488037, -0.09095880389213562, -0.24816963076591492, -0.05818715691566467, -0.033639222383499146, -0.15472723543643951, -0.031956300139427185, 0.06638215482234955, -0.039107002317905426, -0.2526762783527374, -0.009901940822601318, -0.08934749662876129, 3.6532990634441376e-05, 0.028962165117263794, -0.081417515873909, -0.06183609366416931, -0.37743157148361206, -0.10187854617834091, -0.18905746936798096], [-0.15457580983638763, -0.27823856472969055, -0.10281072556972504, -0.08675837516784668, -0.10847386717796326, -0.1468474417924881, -0.05521869659423828, -0.0469273179769516, -0.16857531666755676, -0.04527592658996582, 0.05788928270339966, -0.09395265579223633, -0.17288120090961456, -0.006541252136230469, -0.1988179087638855, -0.0776558518409729, 0.04025915265083313, -0.08876959979534149, -0.16035228967666626, -0.036703404039144516, -0.18704143166542053, -0.030198007822036743, -0.07910889387130737, -0.08553886413574219, -0.1666077971458435, -0.10002797842025757, -0.05489811301231384, -0.11773334443569183, -0.1432405561208725, -0.07927709072828293, -0.09075820446014404, 0.018703367561101913, -0.06195081025362015, -0.3634687066078186, -0.1053915023803711, -0.11542161554098129, -0.012250974774360657, -0.11475592851638794, -0.04509294033050537, -0.1255909949541092, -0.08826464414596558, -0.02397739887237549, -0.12096500396728516, -0.01488947868347168, -0.16121269762516022, -0.10060706734657288, -0.26787832379341125, -0.061024010181427, -0.10398194193840027, -0.12158149480819702, -0.1764577478170395, -0.13501745462417603, -0.12308729439973831, -0.053341954946517944, -0.07258012890815735, -0.1427667737007141, -0.15189288556575775, -0.13486158847808838, -0.18433129787445068, -0.05521657317876816, -0.07909385114908218, -0.028738990426063538, -0.09963933378458023, -0.003558814525604248, -0.07031834125518799, -0.1192503571510315, -0.05790978670120239, -0.0454917848110199, -0.00890299677848816, -0.04909835010766983, -0.1293952763080597, -0.18937818706035614, -0.14899057149887085, -0.09662732481956482, -0.0473477840423584, -0.06319805234670639, -0.13353529572486877, -0.012122571468353271, -0.12303029745817184, -0.029090210795402527, -0.08430802822113037, -0.1367226243019104, -0.10658273100852966, -0.18398159742355347, -0.1413561999797821, -0.1932598501443863, -0.07303926348686218, -0.06232121214270592, -0.11748383194208145, -0.06024312973022461, -0.005134932696819305, -0.04345136508345604, -0.03890310972929001, -0.09564177691936493, -0.1431831419467926, -0.1604955792427063, 0.10699829459190369, -0.05873677134513855, -0.03833603858947754, -0.10227502882480621, 0.025868013501167297, -0.07772788405418396, -0.08311209082603455, -0.12475147843360901, -0.05960242450237274, -0.04242199659347534, -0.08543509244918823, -0.10229159146547318, -0.03495919331908226, -0.036678947508335114, -0.08442084491252899, -0.03423936665058136, -0.10017712414264679, -0.04140934348106384, -0.03805980086326599, -0.11396864056587219, -0.0528465211391449, -0.053955335170030594, -0.05696764588356018, -0.20074065029621124, -0.029071807861328125, -0.2309788465499878, -0.05445030331611633, -0.0888928771018982, -0.09681756794452667, -0.13266363739967346, -0.12660616636276245, -0.08922562003135681], [-0.2208452820777893, 0.05560976266860962, -0.10453329980373383, -0.14689967036247253, -0.15033608675003052, -0.25663241744041443, -0.2982763946056366, -0.007319413125514984, -0.1449565440416336, -0.047357652336359024, -0.25069576501846313, -0.22385331988334656, -0.028498824685811996, -0.1344018280506134, -0.2511036694049835, -0.07421061396598816, -0.2070360630750656, -0.005878746509552002, 0.09118080139160156, -0.207247793674469, -0.14483104646205902, 0.03723520785570145, 0.08916546404361725, -0.08612535893917084, -0.20901232957839966, -0.016661792993545532, -0.027939677238464355, -0.2970932424068451, -0.01734006404876709, -0.11286048591136932, 0.09599270671606064, -0.11980077624320984, 0.008148521184921265, -0.056221410632133484, -0.07241092622280121, -0.03437010943889618, 0.019121527671813965, -0.08112119138240814, -0.09925830364227295, -0.18593229353427887, 0.015310347080230713, -0.08576080203056335, -0.04363375902175903, -0.1975773125886917, -0.07886764407157898, -0.07549735903739929, -0.06999428570270538, -0.08148208260536194, -0.15738219022750854, -0.08320552110671997, -0.11719003319740295, -0.16773134469985962, -0.06770332157611847, -0.05386213958263397, 0.00435832142829895, -0.1220979243516922, 0.06420236825942993, -0.006128817796707153, -0.4096883535385132, -0.2787722945213318, -0.04397457838058472, -0.225661039352417, -0.008954063057899475, -0.21819305419921875, 0.014463961124420166, -0.17801225185394287, -0.11852101236581802, 0.1196310818195343, -0.23200854659080505, 0.04241810739040375, -0.15463344752788544, -0.19203895330429077, -0.046140313148498535, -0.09885573387145996, -0.0883302316069603, -0.11741361021995544, -0.16498681902885437, -0.30645352602005005, -0.3167155086994171, -0.09453056007623672, -0.1194729134440422, -0.2061385214328766, -0.21139079332351685, -0.26328855752944946, -0.047580569982528687, -0.07018619775772095, -0.38741931319236755, -0.09810827672481537, -0.12617075443267822, -0.21548986434936523, -0.21520105004310608, -0.19525152444839478, 0.002761349081993103, -0.134642094373703, -0.09903116524219513, -0.09506914019584656, -0.29015034437179565, -0.07003998756408691, -0.2125355303287506, -0.20489592850208282, 0.01217477023601532, -0.09414128959178925, -0.08369830250740051, 0.06186357140541077, -7.492303848266602e-05, -0.22723636031150818, -0.0847768485546112, -0.1686631441116333, -0.11262187361717224, -0.2834925055503845, -0.23841971158981323, 0.1148831844329834, -0.056264907121658325, -0.15741807222366333, -0.16015394032001495, 0.06703770160675049, -0.09319506585597992, -0.0951012372970581, -0.10442900657653809, -0.023766763508319855, -0.1230408176779747, -0.23305155336856842, -0.05209508538246155, -0.18652397394180298, -0.13116581737995148, 0.0009725689888000488, -0.12773866951465607, -0.13200366497039795], [-0.20273621380329132, -0.27401262521743774, -0.08609738945960999, -0.0707567036151886, -0.08849123120307922, -0.12205924093723297, -0.141318678855896, -0.12332466244697571, -0.07536947727203369, -0.11966975778341293, -0.02184191346168518, 0.056019484996795654, -0.15896283090114594, -0.02098800241947174, -0.17119765281677246, -0.055955320596694946, -0.10032659769058228, -0.13332034647464752, -0.10878866910934448, -0.16325247287750244, -0.020932011306285858, -0.10582149773836136, -0.1595149040222168, -0.06774616241455078, -0.07722744345664978, -0.13297271728515625, -0.058006495237350464, -0.0016947053372859955, -0.12679260969161987, -0.05703647434711456, -0.07683838903903961, -0.10110913217067719, -0.15434373915195465, -0.19173970818519592, -0.17285189032554626, -0.13535846769809723, -0.2186393439769745, -0.06413908302783966, -0.13590550422668457, 0.002457164227962494, -0.05583968386054039, 0.02301935851573944, -0.03640523552894592, -0.026472657918930054, -0.239044189453125, -0.07654480636119843, -0.11384037137031555, -0.21373914182186127, -0.06697934865951538, -0.26816704869270325, -0.18661758303642273, -0.07879143953323364, -0.13611282408237457, -0.04159572720527649, -0.23988881707191467, -0.08222145587205887, -0.05553009361028671, -0.0687301754951477, -0.29356926679611206, -0.0791633278131485, -0.13663312792778015, -0.06424903869628906, -0.11682602018117905, -0.162066251039505, -0.060124292969703674, -0.062407486140728, -0.048761263489723206, -0.10326925665140152, -0.14730027318000793, -0.2149048000574112, 0.0189480260014534, -0.05192255973815918, -0.11873239278793335, -0.11112762987613678, -0.11010444164276123, -0.09042182564735413, -0.10471922159194946, -0.03814351558685303, -0.04998278617858887, 0.048103004693984985, -0.2104327380657196, -0.19345328211784363, -0.07031285762786865, -0.26276296377182007, -0.16266310214996338, -0.07118596136569977, 0.0009058266878128052, -0.026622921228408813, 0.06049567461013794, -0.007940173149108887, -0.11300152540206909, -0.09016965329647064, -0.12162467837333679, 0.01707117259502411, -0.04392215237021446, -0.041783034801483154, -0.267553448677063, -0.12125909328460693, -0.11508794128894806, -0.154237300157547, 0.007682323455810547, -0.12770339846611023, -0.15145325660705566, -0.03854881227016449, -0.14199084043502808, -0.024424970149993896, -0.1939259022474289, -0.3532294034957886, -0.12327639758586884, -0.16260604560375214, 0.014758110046386719, -0.2578117251396179, 0.017535388469696045, -0.017497703433036804, -0.050069063901901245, -0.15800011157989502, -0.06176787614822388, -0.08274199068546295, -0.07579697668552399, 0.11757864058017731, -0.12958823144435883, -0.11575588583946228, -0.09339180588722229, -0.06783854216337204, -0.05372580885887146, -0.1091013252735138, -0.10016059875488281, -0.025557324290275574], [-0.11223196983337402, -0.03378964960575104, -0.0868164449930191, -0.14805448055267334, -0.10846248269081116, -0.09666167199611664, -0.24939227104187012, -0.03464806079864502, -0.13408638536930084, -0.04895651340484619, -0.18000544607639313, -0.15061692893505096, -0.0447920560836792, 0.012883692979812622, -0.1700340211391449, -0.046347301453351974, -0.05377655476331711, -0.18384021520614624, -0.15539291501045227, -0.2576145529747009, -0.166732057929039, -0.013971298933029175, -0.11990227550268173, -0.04947878420352936, -0.12011781334877014, -0.009017005562782288, -0.23492567241191864, -0.04769317805767059, -0.13673490285873413, -0.19738313555717468, -0.16651730239391327, -0.11434134840965271, -0.16272355616092682, -0.0801420509815216, -0.0703888088464737, 0.009508460760116577, -0.16586509346961975, -0.016753703355789185, -0.03629264235496521, 0.008726716041564941, -0.16679319739341736, -0.1306016743183136, -0.20386797189712524, -0.17654481530189514, -0.2253582775592804, -0.14704477787017822, -0.28338396549224854, -0.021210163831710815, -0.015370428562164307, -0.11751990020275116, -0.21141329407691956, -0.15038250386714935, -0.16016653180122375, -0.12582489848136902, -0.03557169437408447, 0.01657925546169281, 0.0027108192443847656, -0.0325266495347023, -0.30043110251426697, -0.05283363163471222, -0.12106043100357056, -0.009918361902236938, -0.07406224310398102, -0.02830660343170166, -0.11262054741382599, -0.07758970558643341, -0.17836806178092957, -0.08837124705314636, -0.10547040402889252, -0.1690109372138977, -0.24198631942272186, -0.07160364091396332, 0.04416850209236145, -0.1614881455898285, -0.0745389312505722, -0.06338319182395935, -0.11254957318305969, 0.03811539709568024, -0.1640043705701828, -0.13352546095848083, -0.18459869921207428, -0.08050406724214554, -0.1504371166229248, -0.048312604427337646, -0.06416210532188416, -0.039371684193611145, -0.078392893075943, -0.0941682681441307, -0.0444260835647583, -0.10401096940040588, -0.09093546867370605, -0.10719101130962372, -0.20896661281585693, 0.011480957269668579, -0.16610990464687347, -0.14947760105133057, -0.204434335231781, -0.08198712766170502, -0.1103099063038826, -0.004734814167022705, -0.032620176672935486, -0.07572724670171738, -0.10657350718975067, -0.06483306735754013, -0.12800443172454834, -0.18899734318256378, 0.05502563714981079, -0.09530702233314514, -0.07788462936878204, -0.03705119341611862, -0.10044392943382263, 0.0013407468795776367, -0.11106105893850327, -0.05631284415721893, -0.07375715672969818, -0.07496349513530731, -0.11813151836395264, -0.12249171733856201, -0.11286386847496033, -0.14306442439556122, -0.11881901323795319, -0.03461642563343048, -0.10969382524490356, -0.1707485318183899, -0.048744991421699524, -0.10647432506084442, -0.09904620051383972, -0.05159181356430054], [-0.16766877472400665, -0.2527388036251068, -0.07339209318161011, 0.12180176377296448, -0.10560640692710876, -0.2942970395088196, 0.1248474270105362, 0.007497064769268036, -0.09394361078739166, 0.026303470134735107, -0.3801215887069702, -0.013681173324584961, 0.04433048516511917, 0.001252502202987671, -0.4496495723724365, -0.025137484073638916, -0.1255451887845993, 0.04701133072376251, 0.02902339957654476, 0.04372337460517883, -0.3564908504486084, -0.329174280166626, 0.12358281016349792, -0.07842978835105896, -0.10329894721508026, 0.11152821779251099, -0.048151224851608276, -0.2165713608264923, -0.019511371850967407, -0.06610573828220367, -0.03398290276527405, -0.05063769966363907, -0.1792372763156891, -0.06324127316474915, -0.02796795964241028, 0.0005917251110076904, -0.039173007011413574, 0.015525773167610168, -0.14819854497909546, 0.18351012468338013, -0.1899651736021042, 0.0744672566652298, -0.08607012033462524, 0.06590020656585693, -0.07043217122554779, -0.09093041718006134, 0.08197328448295593, -0.49403101205825806, -0.03458806872367859, 0.0076043009757995605, 0.012358024716377258, -0.06090661883354187, -0.13828866183757782, 0.04127800464630127, -0.3408013880252838, -0.012184381484985352, 0.201628178358078, 0.029032528400421143, -0.23459656536579132, -0.20705001056194305, -0.07401888072490692, 0.05021759867668152, -0.21881349384784698, -0.23744094371795654, 0.018569082021713257, -0.10041657090187073, -0.06487804651260376, -0.09119169414043427, -0.07891920208930969, 0.06779181957244873, -0.2471526563167572, -0.20276141166687012, -0.11419492214918137, 0.008706487715244293, -0.2333931177854538, 0.03348643332719803, 0.030663589015603065, 0.032622016966342926, -0.035746023058891296, -0.024614587426185608, -0.10022856295108795, -0.05452963709831238, 0.0649537742137909, 0.028212614357471466, -0.10698584467172623, -0.08499999344348907, -0.11897126585245132, -0.09607209265232086, -0.05204389989376068, -0.12113699316978455, -0.14474916458129883, 0.13387666642665863, -0.006657063961029053, -0.31560295820236206, 0.10942818224430084, -0.07119379192590714, -0.07884842157363892, -0.0027644336223602295, 0.10718987882137299, -0.07764491438865662, -0.29676303267478943, -0.07371075451374054, -0.1701744794845581, 0.02656465768814087, -0.1259078085422516, -0.15933041274547577, -0.06881925463676453, -0.1567428857088089, 0.11276346445083618, -0.22081920504570007, 0.14497911930084229, 0.10044607520103455, -0.04625135660171509, 0.05358174443244934, -0.03966417908668518, 0.015872493386268616, -0.04431462287902832, -0.12859858572483063, 0.040649861097335815, 0.13269653916358948, -0.047287121415138245, -0.22506165504455566, -0.06048604100942612, -0.27178266644477844, -0.014450132846832275, -0.0491943359375, -0.15524932742118835, -0.3330807089805603], [-0.09914948791265488, -0.3849305510520935, -0.15677064657211304, 0.04254879057407379, -0.24981102347373962, -0.27564921975135803, 0.017666548490524292, -0.08839717507362366, -0.04519004002213478, 0.0014767050743103027, -0.019427388906478882, -0.04996214807033539, -0.35619983077049255, -0.17888198792934418, -0.2387252300977707, 0.044828176498413086, -0.17543062567710876, -0.11356508731842041, -0.26860302686691284, -0.05689718946814537, -0.09563649445772171, -0.20472151041030884, -0.06581388413906097, -0.0401473343372345, -0.07300391793251038, 0.018597453832626343, 0.025716960430145264, -0.12286822497844696, -0.02369707077741623, -0.06889408826828003, -0.2701212167739868, -0.2289266586303711, -0.12201575934886932, -0.07501748204231262, -0.13327664136886597, -0.06896498799324036, -0.10242801904678345, -0.1359822154045105, -0.1400536298751831, -0.1727578490972519, -0.01805848628282547, 0.045269355177879333, -0.32754868268966675, 0.0027094483375549316, 0.027785003185272217, -0.28317347168922424, -0.28900715708732605, -0.3711569309234619, -0.12270219624042511, -0.03133414685726166, -0.009652666747570038, 0.02040480077266693, -0.10569398105144501, -0.06105095148086548, -0.21427927911281586, -0.1059950590133667, -0.1210516095161438, 0.04247394949197769, -0.02523130178451538, -0.010998189449310303, -0.11858388781547546, -0.019627422094345093, -0.2153404951095581, -0.17010444402694702, -0.06661245226860046, -0.033208638429641724, -0.04780411720275879, -0.2547811269760132, -0.10897865891456604, -0.09063082933425903, -0.11617124080657959, -0.15828768908977509, -0.12195883691310883, -0.1780957132577896, -0.09250343590974808, 0.0074221789836883545, -0.05389782786369324, -0.030351784080266953, 0.03350641578435898, -0.09645906090736389, -0.11973052471876144, -0.11722274869680405, -0.04453133046627045, -0.013053610920906067, -0.10497431457042694, -0.23477546870708466, -0.06977538764476776, -0.0811639055609703, -0.04657614231109619, -0.12070870399475098, -0.16610383987426758, -0.009105756878852844, -0.13263832032680511, -0.12033107876777649, 0.06827300786972046, -0.16388115286827087, -0.007738567888736725, -0.006314530968666077, -0.03479892015457153, -0.1420804262161255, -0.23630161583423615, -0.1476438343524933, -0.06749309599399567, -0.15971988439559937, -0.12326222658157349, -0.12539827823638916, -0.09824608266353607, -0.15075986087322235, -0.1485322266817093, -0.0602477490901947, 0.004103869199752808, -0.1692778468132019, -0.06996046751737595, -0.04080118238925934, -0.03844815492630005, 0.020568257197737694, -0.25042012333869934, -0.03623434901237488, -0.09061898291110992, -0.08226150274276733, -0.100242018699646, -0.06415650248527527, -0.04328596591949463, -0.13212549686431885, -0.161459282040596, -0.1312493234872818, -0.18995195627212524, -0.13893768191337585], [-0.07952796667814255, -0.14968112111091614, -0.08807595074176788, -0.02051880583167076, -0.10550664365291595, -0.1692960113286972, 0.020746707916259766, -0.08254219591617584, -0.04085177183151245, 0.008082211017608643, -0.07972145080566406, -0.022717773914337158, -0.0750436931848526, -0.09651929140090942, -0.11242775619029999, -0.17446142435073853, -0.08343721926212311, -0.0941922515630722, -0.1308661699295044, -0.13565224409103394, -0.0815393328666687, -0.0804988294839859, -0.19751298427581787, -0.08509388566017151, 