{"model.0.weight": [[-0.10312779992818832, -0.05467569828033447, -0.04317564517259598, -0.03145747631788254, 0.08545367419719696, 0.01648414134979248, -0.022100742906332016, -0.09706313908100128, -0.059123482555150986, 0.04794858396053314, 0.0511469766497612, -0.07230623066425323, -0.16328293085098267, -0.0054070353507995605, -0.04659153148531914, -0.07126495242118835, -0.0012672059237957, 0.0856979563832283, 0.0404459573328495, 0.04447422921657562], [0.03275564685463905, 0.11089253425598145, 0.05256602540612221, 0.045989345759153366, 0.05075320601463318, 0.1770235151052475, -0.03690601885318756, 0.03891409561038017, 0.11433375626802444, -0.025088369846343994, -0.06183692440390587, 0.062000494450330734, 0.11348854750394821, -0.028077974915504456, 0.012136801145970821, -0.03636309877038002, 0.15287454426288605, 0.03769867494702339, 0.15311288833618164, -0.061422768980264664], [-0.0671682134270668, -0.04192425310611725, -0.006062403321266174, -0.16419385373592377, -0.05154365673661232, -0.09473524987697601, -0.13707134127616882, -0.01497802883386612, -0.007855357602238655, -0.13373439013957977, -0.06750436872243881, 0.03442375361919403, -0.02487119287252426, -0.10554009675979614, -0.16301687061786652, 0.01122976839542389, -0.052519116550683975, 0.008520767092704773, -0.12998168170452118, 0.03573285788297653], [0.0316680409014225, 0.03523862734436989, 0.01455930806696415, 0.006113059818744659, 0.12082638591527939, 0.04053175076842308, 0.007965829223394394, 0.12032948434352875, -0.0368623286485672, 0.14506249129772186, 0.1772567331790924, 0.13902047276496887, 0.034734711050987244, -0.07211276143789291, -0.0005041472613811493, 0.02708505652844906, 0.08041506260633469, 0.008781966753304005, -0.05316746607422829, 0.06247330456972122], [0.008100718259811401, 0.12994250655174255, -0.10246038436889648, -0.019712604582309723, 0.08547642827033997, -0.06600619107484818, 0.017112255096435547, -0.02985256537795067, -0.012105133384466171, -0.03506125882267952, 0.07583165913820267, 0.06055111810564995, 0.14674243330955505, -0.04283734783530235, -0.017602073028683662, -0.04314165189862251, -0.005779877305030823, -0.017783958464860916, 0.04566296935081482, -0.07675046473741531], [0.11549267172813416, 0.15729908645153046, 0.044460229575634, -0.02857564203441143, 0.05690215900540352, 0.06109566241502762, 0.07387568801641464, -0.03183679282665253, -0.09885058552026749, 0.018515855073928833, 0.055395979434251785, 0.09745411574840546, -0.0016331877559423447, 0.10478997975587845, 0.0707106739282608, 0.10621624439954758, 0.1956024467945099, 0.13546891510486603, 0.02282477356493473, -0.06668157875537872], [-0.052217282354831696, -0.14231668412685394, 0.005320355296134949, 0.06462728977203369, 0.1217459961771965, -0.14207686483860016, -0.1418355107307434, -0.09731141477823257, -0.14207880198955536, -0.009498446248471737, 0.03193200007081032, -0.07329002767801285, 0.02618344873189926, 0.1446918249130249, -0.017567813396453857, -0.15860804915428162, 0.06417983770370483, 0.04210089147090912, 0.000676911324262619, 0.02773056924343109], [-0.06437420099973679, -0.0007410235702991486, -0.11437598615884781, 0.008306615054607391, 0.05990380048751831, 0.12893085181713104, -0.07551036775112152, -0.07816638052463531, -0.036124538630247116, -0.09604910761117935, -0.010132752358913422, 0.05881894379854202, 0.1300538182258606, -0.0021857768297195435, 0.04726214334368706, -0.045591093599796295, -0.0245063453912735, -0.046659208834171295, 0.027911201119422913, 0.01581619866192341], [0.012833613902330399, 0.07596126943826675, 0.07523852586746216, -0.03012239933013916, -0.07510583102703094, -0.18195955455303192, 0.01503688469529152, -0.12715893983840942, 0.02762439101934433, -0.03619980812072754, 0.04417656734585762, -0.0765073224902153, 0.0053388811647892, 0.06941821426153183, 0.09520940482616425, -0.16934511065483093, -0.06373009830713272, 0.14370669424533844, -0.09320102632045746, 0.1084686741232872], [0.03489495813846588, -0.04785407334566116, 0.11494211852550507, 0.02719884365797043, 0.14531508088111877, -0.054634787142276764, -0.010132692754268646, 0.14056915044784546, 0.007694333791732788, 0.09178006649017334, -0.07062923908233643, 0.06410832703113556, 0.09359188377857208, -0.04986315965652466, -0.08763904124498367, 0.09623706340789795, -0.018366366624832153, -0.052890583872795105, 0.07447079569101334, 0.05807984247803688], [0.05458651855587959, -0.04213147982954979, -0.04706321284174919, -0.0302070714533329, -0.18580737709999084, 0.0005142800509929657, 0.03210683912038803, -0.011153073981404305, -0.05046841874718666, 0.04682176932692528, -0.0026738177984952927, -0.1161695122718811, -0.10007698833942413, -0.032316144555807114, 0.012673533521592617, 0.017255235463380814, -0.05069556459784508, -0.1149129718542099, -0.004163205623626709, 0.06047052890062332], [-0.040654949843883514, 0.029594093561172485, 0.050395749509334564, 0.027100127190351486, -0.0733303651213646, -0.026540089398622513, 0.06675593554973602, 0.039630740880966187, -0.010529743507504463, 0.04419255256652832, -0.03587460517883301, -0.051946282386779785, -0.07760488241910934, 0.004436064045876265, 0.01995093747973442, -0.06218275427818298, 0.06729811429977417, -0.10076982527971268, 0.03299164026975632, -0.07057243585586548], [0.028876274824142456, 0.0031855562701821327, 0.01941714994609356, 0.010182848200201988, -0.0033673271536827087, 0.1487257182598114, 0.02604242041707039, -0.08460934460163116, 0.0755508616566658, 0.1571950614452362, 0.14527320861816406, 0.1401796042919159, 0.13187451660633087, -0.05404515191912651, 0.09576866030693054, -0.03611132130026817, 0.07444049417972565, 0.1900576949119568, 0.0985586941242218, 0.007757645100355148], [0.17599408328533173, 0.029382914304733276, -0.045310236513614655, -0.03257047384977341, 0.17446263134479523, 0.07849996536970139, 0.006938725709915161, -0.043332211673259735, 0.06650147587060928, -0.00533781573176384, 0.12063097953796387, 0.03862270712852478, 0.022491462528705597, 0.008854426443576813, 0.12612229585647583, 0.08397360146045685, -0.07370603084564209, -0.049381453543901443, -0.08624514192342758, 0.001798786222934723], [0.04937152937054634, -0.07449077814817429, 0.00985434278845787, -0.08179369568824768, 0.0255136638879776, -0.00990268588066101, -0.08139465004205704, -0.09425787627696991, -0.03069695457816124, -0.06448941677808762, -0.04038850963115692, -0.05718478560447693, -0.09924179315567017, 0.0679352805018425, 0.02058941312134266, 0.08483532071113586, 0.0672578513622284, 0.04114234820008278, -0.0037087909877300262, -0.053538091480731964], [0.09441430121660233, 0.12034095078706741, -0.046503499150276184, 0.1335316300392151, -0.036278560757637024, 0.06874798983335495, -0.03102307766675949, -0.07238268107175827, 0.09852337837219238, -0.024732079356908798, 0.08943066745996475, -0.06489945948123932, 0.03719072788953781, 0.01389402151107788, 0.0766582190990448, 0.03456411883234978, -0.09834891557693481, 0.02365797571837902, 0.005403585731983185, -0.06401049345731735], [-0.02471068874001503, 0.03534902632236481, -0.01208418421447277, 0.043446674942970276, 0.008473407477140427, 0.08137545734643936, -0.0013136640191078186, 0.14427383244037628, 0.025910759344697, -0.03610469400882721, 0.04516260325908661, 0.04809357598423958, 0.013268966227769852, 0.13343922793865204, 0.10802298039197922, -0.05872669443488121, 0.06730275601148605, 0.030497604981064796, -0.12812870740890503, 0.004328734241425991], [-0.043486688286066055, 0.042325057089328766, -0.059511780738830566, 0.0020362604409456253, -0.022327378392219543, 0.14273960888385773, -0.013452375307679176, -0.06630837917327881, -0.05239098146557808, -0.08062679320573807, -0.010793467983603477, -0.11661837249994278, 0.11983756721019745, -0.02246248349547386, -0.09078336507081985, -0.05836603045463562, -0.06434253603219986, 0.02396659180521965, -0.017029665410518646, -0.07059475034475327], [0.021777715533971786, -0.0766705647110939, -0.04952862113714218, -0.0913291946053505, -0.09729784727096558, -0.059036485850811005, -0.042945463210344315, -0.03415510058403015, -0.08739877492189407, 0.0053140632808208466, 0.11426050961017609, -0.05091172456741333, 0.050181251019239426, 0.05597952380776405, -0.05534624680876732, -0.00041313469409942627, -0.04263630509376526, -0.1545029580593109, -0.15427237749099731, -0.014810606837272644], [-0.047385554760694504, -0.06033987179398537, 0.030663643032312393, -0.05642516538500786, -0.1267457902431488, -0.001858668401837349, -0.005028671585023403, 0.11352181434631348, 0.10964394360780716, -0.01951136812567711, 0.020850099623203278, 0.014355422928929329, 0.008973547257483006, -0.0030620619654655457, -0.09507229924201965, 0.11516138911247253, 0.02537737973034382, 0.10012473165988922, 0.06773687899112701, -0.08907466381788254], [-0.014416610822081566, 0.08964727073907852, -0.032571300864219666, 0.04345133528113365, -0.08076637983322144, 0.11609533429145813, -0.036677710711956024, 0.03227187320590019, -0.11559361219406128, -0.05299728736281395, -0.026445845142006874, -0.011575005017220974, -0.05918768420815468, 0.034840844571590424, -0.07115893065929413, 0.018832053989171982, 0.00824381411075592, 0.03385652229189873, -0.0010822117328643799, -0.07510903477668762], [-0.007835067808628082, 0.01386772096157074, -0.0076379720121622086, 0.10494635999202728, 0.12209409475326538, 0.12065872550010681, 0.07965696603059769, 0.06683061271905899, 0.08662636578083038, -0.011852623894810677, 0.04064098000526428, 0.11693798005580902, 0.06292328238487244, -0.0738898292183876, -0.02935551106929779, 0.025868887081742287, 0.0858515277504921, -0.010713434778153896, 0.10645842552185059, -0.1103937104344368], [0.0624142661690712, -0.1248011514544487, -0.10578959435224533, -0.03058399073779583, -0.006009414792060852, -0.17151892185211182, 0.012094773352146149, 0.020471956580877304, -0.11496485024690628, 0.027305517345666885, -0.10675376653671265, -0.06148168444633484, -0.08884057402610779, -0.11866489052772522, -0.0555373840034008, 0.08777353912591934, 0.08682923763990402, -0.08932757377624512, -0.0272760521620512, -0.024477452039718628], [-0.0205062422901392, -0.13129712641239166, -0.10935010015964508, -0.0986403226852417, -0.13153496384620667, -0.06018853187561035, 0.028738457709550858, 0.07188785076141357, 0.061288297176361084, -0.13882888853549957, -0.08655770123004913, -0.12431208789348602, 0.07824064046144485, -0.10328187048435211, 0.0659051388502121, -0.13124987483024597, -0.0746222734451294, -0.0632936954498291, -0.056330982595682144, 0.12844668328762054], [-0.13746356964111328, -0.07489674538373947, -0.06063766032457352, -0.020220153033733368, -0.14240103960037231, 0.11222999542951584, 0.10947652906179428, -0.1061011478304863, 0.05349196121096611, -0.04370909184217453, 0.0646352767944336, -0.10629994422197342, -0.009315550327301025, -0.05761461704969406, 0.0631360411643982, -0.04631153121590614, 0.009415363892912865, -0.01852826029062271, -0.014011806808412075, -0.04813398793339729], [0.06755273789167404, -0.014486245810985565, 0.09607214480638504, -0.04873026907444, 0.1722879558801651, 0.08850176632404327, 0.03068283572793007, 0.15128538012504578, 0.13939113914966583, 0.05188635364174843, 0.054183755069971085, -0.05911768227815628, 0.09081873297691345, 0.06325038522481918, -0.005125994328409433, 0.0884062796831131, -0.022719040513038635, 0.1438051164150238, 0.06157846748828888, 0.08080331236124039], [-0.0445905402302742, 0.07803217321634293, -0.07573159039020538, 0.07275843620300293, -0.1951928436756134, -0.05105622857809067, 0.11326103657484055, 0.10066032409667969, 0.07636411488056183, -0.08542762696743011, 0.07131701707839966, 0.042229581624269485, 0.04619675502181053, -0.0033706650137901306, -0.06059770658612251, -0.10396161675453186, -0.017766568809747696, 0.10955412685871124, -0.10500521957874298, -0.07497871667146683], [0.05410251021385193, 0.040331460535526276, 0.10371405631303787, 0.06456278264522552, 0.102614626288414, 0.11092424392700195, 0.06864555925130844, 0.1502549648284912, 0.10011807829141617, 0.11690185964107513, -0.048393189907073975, 0.07731352746486664, 0.1176670491695404, 0.08335496485233307, 0.035696886479854584, 0.04937044531106949, 0.1328229308128357, -0.03826429694890976, 0.009035278111696243, -0.12117679417133331], [-0.06032077968120575, 0.01165674813091755, 0.06370574235916138, 0.0296784620732069, -0.02127861976623535, -0.0010408088564872742, 0.049721211194992065, 0.11992580443620682, -0.015219660475850105, 0.024961866438388824, 0.002505052834749222, 0.07488511502742767, -0.056956883519887924, -0.019224125891923904, 0.08379551768302917, -0.0484769232571125, 0.04538614675402641, 0.0453803613781929, 0.059546925127506256, -0.08878309279680252], [-0.09284615516662598, -0.10875780880451202, 0.04413619264960289, 0.03628982976078987, -0.011784274131059647, -0.12514439225196838, -0.05507037043571472, 0.001559525728225708, 0.055708665400743484, -0.10489622503519058, 0.01359735056757927, -0.11812643706798553, 0.06978648155927658, -0.11149246245622635, -0.03225637972354889, -0.12460920214653015, -0.03504181280732155, 0.03818909078836441, -0.10858702659606934, -0.02961292490363121], [-0.044918544590473175, 8.253753185272217e-05, 0.13433924317359924, -0.023026786744594574, -0.04471796751022339, 0.1440553069114685, 0.07214252650737762, -0.08277004212141037, -0.002354532480239868, -0.02817433699965477, 0.12704426050186157, -0.08105164021253586, 0.12904766201972961, -0.01360227633267641, -0.06498006731271744, -0.09220193326473236, 0.04895584657788277, -0.027437735348939896, 0.008239835500717163, 0.05584879592061043], [0.010069519281387329, -0.04250992834568024, -0.045879852026700974, -0.03964614495635033, -0.020142657682299614, 0.014697704464197159, -0.022648559883236885, 0.0668952688574791, -0.13875606656074524, -0.15684962272644043, -0.047810204327106476, -0.056299980729818344, -0.04006939381361008, 0.06401646137237549, -0.08468978106975555, -0.0914391428232193, 0.060596294701099396, -0.03327565640211105, -0.006261773407459259, 0.0033026523888111115], [0.12546411156654358, 0.0892210453748703, 0.03241617605090141, -0.05632971599698067, -0.010876912623643875, 0.07525184750556946, 0.08326475322246552, -0.042600926011800766, 0.01697126403450966, -0.01209596823900938, 0.01765844039618969, 0.09718698263168335, -0.07112830877304077, 0.08097680658102036, 0.15680915117263794, 0.07971613109111786, 0.14507025480270386, 0.09586629271507263, 0.11947314441204071, 0.02932121232151985], [-0.06267116218805313, 0.03654361516237259, 0.062448568642139435, 0.010101396590471268, -0.030766397714614868, 0.031015386804938316, -0.054553866386413574, -0.006897753104567528, -0.015692569315433502, 0.006191086024045944, 0.03703635185956955, -0.028391284868121147, -0.038275595754384995, -0.06339320540428162, -0.02724665030837059, -0.01573827490210533, -0.026049893349409103, -0.009041376411914825, 0.04284767434000969, -0.0678323283791542], [-0.13366885483264923, 0.014633722603321075, 0.019670478999614716, -0.09683603048324585, -0.07089095562696457, -0.06933510303497314, 0.04853776469826698, 0.12434551864862442, -0.14487473666667938, -0.006414275616407394, -0.10086566209793091, 0.08752761781215668, 0.06310287863016129, -0.09034764766693115, -0.10151566565036774, -0.030827149748802185, -0.0779341533780098, -0.04611732065677643, -0.10592775046825409, 0.10587195307016373], [-0.10819779336452484, -0.06916341185569763, -0.12236454337835312, 0.1294834166765213, 0.005158871412277222, 0.0024755559861660004, -0.018310856074094772, -0.02558726631104946, 0.14088624715805054, 0.013712309300899506, 0.006343997083604336, -0.031010881066322327, -0.07905858755111694, -0.05044132471084595, -0.016053475439548492, 0.09186121821403503, 0.047879282385110855, -0.004993665963411331, 0.011804353445768356, 0.04595567658543587], [-0.11836593598127365, 0.005008116364479065, -0.1365814208984375, 0.09007075428962708, -0.07067517191171646, -0.018194124102592468, 0.06361252069473267, -0.06613373011350632, -0.09739937633275986, -0.04397337883710861, -0.06920303404331207, -0.03325780853629112, -0.10663914680480957, 0.08970517665147781, 0.06461254507303238, -0.055361200124025345, -0.06192798167467117, 0.019968615844845772, -0.0720643401145935, -0.08103445172309875], [-0.09258568286895752, 0.07051129639148712, 0.03183632344007492, -0.13620735704898834, 0.1418066918849945, 0.06495832651853561, -0.028971243649721146, 0.21019494533538818, -0.0159593652933836, -0.06457646191120148, -0.08336524665355682, 0.0321919322013855, -0.008435413241386414, 0.06838066130876541, 0.08321580290794373, 0.12418387830257416, -0.04785489663481712, -0.0023822709918022156, -0.08799362927675247, 0.08415372669696808], [0.024247832596302032, -0.0655490905046463, -0.0023011863231658936, 0.0552917942404747, 0.03392200917005539, -0.06534881889820099, -0.12340071052312851, 0.03406449779868126, 0.07153157889842987, 0.09596709161996841, -0.03785516321659088, 0.15833935141563416, 0.0882786363363266, -0.026839302852749825, -0.061301667243242264, 0.11215727031230927, 0.01391623169183731, -0.02665412798523903, 0.03475470840930939, -0.07045299559831619], [-0.07266037911176682, -0.06002706289291382, 0.123853899538517, -0.0724005252122879, -0.06320656836032867, 0.06452544778585434, -0.13416214287281036, 0.04512742906808853, -0.07743333280086517, -0.0004321020096540451, -0.0017291754484176636, -0.09469926357269287, 0.12413182854652405, -0.011725358664989471, -0.007500885054469109, 0.11171506345272064, 0.06296653300523758, 0.05955487862229347, 0.07939769327640533, 0.08344937860965729], [0.014271657913923264, -0.05880384147167206, -0.07458062469959259, -0.003351327031850815, 0.10006807744503021, -0.03226170688867569, -0.05849278345704079, 0.06314857304096222, 0.07660584896802902, 0.08730281889438629, -0.0627807155251503, 0.029462363570928574, 0.02256917953491211, -0.07784505188465118, 0.031202036887407303, 0.043286826461553574, 0.09341773390769958, -0.07284826785326004, 0.1894540637731552, 0.03535240888595581], [0.029522787779569626, -0.14402329921722412, -0.0053693074733018875, -0.1276407390832901, -0.030825506895780563, -0.12849169969558716, -0.1791667938232422, 0.04693511873483658, -0.06855866312980652, 0.08031297475099564, 0.07677404582500458, -0.03168613091111183, -0.12550634145736694, -0.01789090782403946, 0.01562524028122425, -0.055389609187841415, 0.07011007517576218, -0.06778870522975922, -0.013264643028378487, 0.1270134598016739], [0.04413770139217377, -0.06971475481987, -0.21843695640563965, -0.0872851014137268, 0.0032359249889850616, 0.001444213092327118, -0.11519373953342438, -0.07837441563606262, 0.08011394739151001, -0.0674666315317154, -0.000246930867433548, 0.03414187207818031, -0.11823663115501404, -0.05955098941922188, 0.043910443782806396, -0.11261086165904999, -0.058655135333538055, -0.1728062480688095, -0.0368778221309185, 0.03394309803843498], [-0.07953278720378876, -0.05660978704690933, 0.07734062522649765, -0.10139510780572891, -0.03510793671011925, 0.01648000255227089, -0.03920823335647583, 0.018572110682725906, -0.09467168152332306, 0.05368199571967125, -0.12230099737644196, 0.00745115801692009, -0.14596779644489288, -0.041584014892578125, 0.05414398014545441, -0.04173479229211807, -0.0792219266295433, 0.02465464174747467, -0.13754023611545563, 0.018553731963038445], [-0.1377047747373581, 0.007684294134378433, -0.14653456211090088, 0.07470394670963287, 0.028957145288586617, -0.12147066742181778, -0.06544214487075806, 0.10611889511346817, -0.03697354346513748, 0.04605688899755478, 0.07352711260318756, -0.07723153382539749, -0.12827907502651215, -0.013094667345285416, 0.03000234253704548, 0.08520188927650452, -0.04175005853176117, -0.09181984513998032, 0.025256246328353882, 0.15067723393440247], [-0.04606873542070389, -0.20225650072097778, -0.06534287333488464, 0.06579374521970749, -0.12066484242677689, 0.14293205738067627, -0.16486170887947083, -0.03905421122908592, -0.16248324513435364, 0.05306774750351906, -0.16318440437316895, -0.017140254378318787, 0.021094240248203278, -0.07830212265253067, -0.10571914166212082, -0.05604724958539009, -0.0012597329914569855, -0.16865190863609314, -0.15112176537513733, 0.08570542186498642], [0.08501268178224564, 0.03086293861269951, 0.012892089784145355, 0.19033846259117126, -0.07429348677396774, -0.10127061605453491, -0.03922764211893082, 0.163828045129776, 0.030083511024713516, -0.13060814142227173, -0.001963338814675808, 0.07646097242832184, 0.09967433661222458, 0.14280958473682404, 0.029376115649938583, 0.13240554928779602, -0.017614681273698807, 0.07490362226963043, 0.010711331851780415, 0.022187024354934692], [-0.013998162001371384, -0.013101594522595406, 0.026432573795318604, 0.019121907651424408, -0.011748991906642914, -0.056813374161720276, 0.07646853476762772, -0.012154065072536469, 0.019025368615984917, -0.11156180500984192, -0.05123654752969742, -0.12798838317394257, -0.08159652352333069, -0.019193191081285477, 0.12341749668121338, -0.05751189589500427, -0.11938296258449554, -0.11946931481361389, 0.042880140244960785, -0.04640500992536545], [-0.01886359415948391, -0.039992883801460266, -0.022121265530586243, 0.030643153935670853, 0.0555025190114975, -0.04615622013807297, 0.07018255442380905, 0.0343162938952446, -0.01596543751657009, 0.006572946906089783, 0.1607046127319336, -0.09840309619903564, -0.07591380923986435, -0.03847173601388931, 0.1421286165714264, -0.03674255684018135, -0.08137654513120651, -0.04031584784388542, 0.11593171954154968, -0.033681970089673996], [0.0416136160492897, 0.03343873471021652, -0.018131962046027184, 0.07629066705703735, -0.0666041374206543, 0.0059328521601855755, -0.09763478487730026, -0.1041383445262909, -0.05786573141813278, -0.07397773116827011, -0.072943314909935, -0.07762530446052551, -0.06705152243375778, -0.13348199427127838, 0.04759429395198822, -0.11229787021875381, -0.04246652498841286, -0.07863885909318924, -0.10974331200122833, 0.14527037739753723], [0.07796648144721985, 0.06131727248430252, -0.039829153567552567, 0.09854783862829208, -0.10458604991436005, -0.08454973250627518, -0.09280259162187576, -0.009306579828262329, -0.0817222148180008, 0.13966640830039978, 0.05043026804924011, -0.08846450597047806, 0.06435314565896988, 0.004993077367544174, -0.07242989540100098, -0.04633847996592522, 0.07823236286640167, -0.09252539277076721, -0.09724622964859009, 0.02653488703072071], [0.01126842200756073, -0.06713967025279999, 0.024149954319000244, -0.024990858510136604, -0.021009257063269615, -0.010488413274288177, 0.015600691549479961, 0.0002713729627430439, 0.12642203271389008, 0.07453685998916626, -0.08213918656110764, 0.015408597886562347, 0.010517144575715065, 0.013277387246489525, 0.1643492579460144, -0.06237037107348442, 0.003058895468711853, -0.06218711659312248, 0.07619714736938477, -0.06113939359784126], [-0.10055704414844513, 0.013606265187263489, 0.06850504875183105, 0.0717940703034401, 0.10154885053634644, 0.06861572712659836, 0.17281189560890198, 0.16057461500167847, -0.017875175923109055, 0.10808899253606796, 0.03902394697070122, 0.060404714196920395, 0.015505507588386536, 0.012183822691440582, 0.094891257584095, 0.12157319486141205, -0.027985475957393646, 0.11532416194677353, 0.14006340503692627, 0.05076353996992111], [0.06555933505296707, 0.06495508551597595, -0.033246420323848724, -0.08046416193246841, 0.06873568892478943, 0.006146065890789032, 0.05975167825818062, 0.000721268355846405, 0.08303984254598618, -0.03978826850652695, 0.023010604083538055, -0.03569461777806282, -0.09268231689929962, 0.04175921529531479, -0.044331833720207214, 0.044151365756988525, 0.08065492659807205, -0.1087837964296341, -0.0033204350620508194, 0.03054182603955269], [-0.05895010381937027, 0.034390322864055634, 0.011971469968557358, -0.09702445566654205, -0.11174096167087555, 0.027767181396484375, -0.0750507116317749, 0.05822225660085678, -0.1372455209493637, 0.06858016550540924, 0.06784038245677948, -0.020201874896883965, -0.04105095937848091, 0.07088080048561096, 0.07595909386873245, 0.057972103357315063, 0.10932032018899918, -0.02499324455857277, 0.1175960823893547, 0.12334764748811722], [-0.050317902117967606, -0.056809328496456146, -0.012437835335731506, 0.024368025362491608, -0.08619218319654465, -0.06056607887148857, -0.05140877887606621, -0.0848999172449112, 0.01363301556557417, -0.04810910299420357, -0.08165553212165833, -0.08820320665836334, -0.05839917063713074, -0.1139478087425232, -0.020409319549798965, -0.1520552784204483, -0.10813688486814499, -0.11211851239204407, 0.054213814437389374, -0.09137210994958878], [-0.03477403149008751, -0.08850859105587006, 0.005773305892944336, 0.051899153739213943, 0.02324749156832695, 0.03902263194322586, -0.06633561104536057, 0.08151233941316605, -0.016421634703874588, -0.1762046217918396, 0.0610860139131546, 0.0709301084280014, 0.08132565021514893, 0.10741026699542999, -0.1606990247964859, -0.061083391308784485, -0.03221001848578453, 0.006480984389781952, 0.025583479553461075, -0.030071675777435303], [0.06615623086690903, 0.028936568647623062, 0.058949198573827744, 0.01461976021528244, 0.12515585124492645, -0.0028079310432076454, -0.0625389888882637, 0.022390615195035934, -0.02565804123878479, 0.09111598879098892, -0.010236147791147232, 0.16555961966514587, 0.1297074854373932, 0.1286870390176773, 0.057539407163858414, -0.025757357478141785, 0.14124171435832977, 0.10680469870567322, 0.038224976509809494, -0.1568847894668579], [-0.07926341891288757, -0.017174530774354935, -0.0734514519572258, 0.014239493757486343, 0.08098012208938599, -0.023203961551189423, -0.12369059771299362, 0.16104793548583984, -0.011334296315908432, 0.005896318703889847, -0.06057819724082947, -0.08428427577018738, 0.022097639739513397, -0.12728190422058105, -0.10679221153259277, 0.08364789187908173, -0.09312146157026291, -0.11199343204498291, -0.039982493966817856, -0.038296058773994446], [-0.01802479475736618, 0.05503080040216446, -0.10640925914049149, -0.07282508164644241, -0.12152580916881561, 0.08447350561618805, -0.025805149227380753, -0.1082124337553978, -0.03277753293514252, -0.0109880231320858, -0.04664706438779831, 0.01623982936143875, -0.05012419447302818, -0.1299813687801361, -0.05681402236223221, 0.003298768773674965, -0.07698113471269608, -0.056017957627773285, -0.013341107405722141, 0.0457412414252758], [-0.12534646689891815, 0.03719839081168175, -0.07716314494609833, -0.02232419140636921, -0.1541198194026947, -0.08719569444656372, -0.09167373180389404, -0.08397752046585083, -0.12979894876480103, -0.011153019964694977, -0.15240806341171265, -0.081281378865242, -0.08641500771045685, -0.029338985681533813, -0.053606823086738586, -0.17843298614025116, 0.013168510049581528, -0.05979039892554283, -0.012691158801317215, 0.08689768612384796], [0.04630547761917114, 0.10892488062381744, -0.04353871941566467, 0.13780930638313293, 0.04720728099346161, -0.002893350087106228, 0.13214848935604095, 0.010494060814380646, 0.029331907629966736, -0.014768149703741074, -0.029112383723258972, 0.06858263909816742, 0.017345864325761795, 0.06520336866378784, 0.01862528920173645, -0.052927084267139435, 0.03987180069088936, 0.04809816926717758, -0.08980315923690796, 0.04064418002963066], [-0.17595705389976501, 0.07203908264636993, -0.12775863707065582, 0.03544538840651512, 0.062214598059654236, 0.06311251223087311, 0.09657872468233109, -0.0895233228802681, -0.04132457450032234, -0.1399068385362625, 0.013104922138154507, 0.03632326424121857, -0.05234365165233612, -0.12489823997020721, -0.027597621083259583, -0.16661790013313293, -0.07241459935903549, 0.10595330595970154, 0.047157011926174164, 0.09237819910049438], [0.04947035759687424, -0.09116688370704651, -0.13441717624664307, 0.05475810170173645, 0.10354474186897278, 0.02894560433924198, -0.128718763589859, -0.093712218105793, -0.050735220313072205, 0.041688840836286545, 0.07121199369430542, -0.05630025267601013, -0.15099449455738068, -0.08977094292640686, -0.15566174685955048, -0.08768557012081146, -0.10075083374977112, 0.06723886728286743, -0.006245849654078484, 0.003191507887095213], [0.15173083543777466, -0.04261108487844467, -0.028307508677244186, 0.17616914212703705, 0.025283703580498695, -0.0399104505777359, 0.023647598922252655, 0.10386599600315094, 0.04366695508360863, 0.08663513511419296, -0.04523208364844322, 0.07777325809001923, 0.007089435122907162, -0.002210509032011032, -0.031617600470781326, -0.013651423156261444, 0.10057340562343597, 0.13134697079658508, 0.09482544660568237, -0.1100473403930664], [-0.04759153723716736, 0.11353413015604019, 0.05379564315080643, -0.03641083836555481, -0.0016050394624471664, -0.11796322464942932, 0.0003991462290287018, -0.005455758422613144, 0.09331020712852478, 0.09031837433576584, 0.15223711729049683, -0.11383156478404999, 0.11786710470914841, -0.01327315904200077, -0.0859430804848671, 0.03935053199529648, -0.0827418714761734, -0.0718378871679306, -0.034777622669935226, 0.10044695436954498], [-0.05529206246137619, 0.0011886386200785637, 0.08485312014818192, 0.022709853947162628, 0.02324008196592331, 0.11716239154338837, 0.02115204557776451, 0.013164816424250603, 0.13073359429836273, -0.09223751723766327, 0.00483248196542263, 0.005791917443275452, 0.13026981055736542, -0.0246136337518692, 0.10976427793502808, 0.12256957590579987, 0.08790941536426544, 0.19325728714466095, 0.019742831587791443, -0.1199856549501419], [0.05073828995227814, 0.09241055697202682, 0.14986488223075867, 0.07104697078466415, -0.04484487697482109, 0.09829636663198471, 0.09079696983098984, 0.11875352263450623, 0.03539535775780678, -0.006275404244661331, -0.06888404488563538, 0.1586284190416336, 0.006648264825344086, -0.010586078278720379, 0.12012123316526413, 0.04325592890381813, -0.03188692033290863, 0.015152227133512497, 0.04662548378109932, -0.06648967415094376], [0.07080040872097015, 0.08067739009857178, 0.029703907668590546, 0.004802318289875984, 0.005653455853462219, -0.10274139046669006, 0.019537419080734253, -0.07013233751058578, -0.04108535870909691, -0.09701148420572281, 0.1498124599456787, -0.040786247700452805, 0.09556148946285248, 0.03222312405705452, 0.06168869510293007, 0.12836211919784546, -0.07259619235992432, 0.0756695419549942, 0.061762817203998566, 0.05881008133292198], [-0.004491802304983139, 0.033002786338329315, -0.12595652043819427, -0.09275577962398529, 0.04968158155679703, 0.043788302689790726, -0.11041388660669327, -0.030983736738562584, -0.019277522340416908, 0.08817177265882492, 0.09864843636751175, -0.03704303130507469, -0.011868145316839218, -0.11140690743923187, -0.0730905830860138, -0.12999698519706726, -0.12320011854171753, -0.1215147078037262, -0.056739673018455505, 0.09808945655822754], [0.05681268125772476, 0.06126171350479126, -0.01640196330845356, 0.10526837408542633, -0.015517129562795162, 0.13620531558990479, -0.026801958680152893, -0.002006418304517865, -0.07605178654193878, 0.16021983325481415, 0.1303175538778305, 0.13457971811294556, 0.09185890108346939, 0.00024161674082279205, 0.02468099072575569, -0.05209984630346298, 0.1392376869916916, 0.05485931411385536, 0.05891072005033493, 0.06463415920734406], [0.11980488151311874, -0.13264478743076324, -0.04992535710334778, 0.17599409818649292, -0.09793837368488312, -0.03591081500053406, 0.0636671930551529, -0.12010127305984497, 0.03537674993276596, 0.1284550130367279, 0.04966273903846741, 0.10977225005626678, -0.11681114137172699, -0.0829167366027832, -0.09301410615444183, 0.03635314851999283, 0.07705875486135483, -0.009073201566934586, -0.060726720839738846, 0.02831120602786541], [-0.038528990000486374, -0.03637191280722618, 0.026431068778038025, 0.0933079794049263, -0.041557665914297104, 0.14656907320022583, -0.026301641017198563, 0.05866246670484543, 0.16954964399337769, 0.002952905371785164, 0.08070165663957596, 0.07361236959695816, -0.053321871906518936, -0.047128450125455856, 0.06153538450598717, -0.031139135360717773, 0.1262885332107544, -0.04024273157119751, 0.012047532945871353, -0.024021346122026443], [-0.07442062348127365, -0.082817442715168, -0.006107255816459656, -0.008232483640313148, 0.07476024329662323, -0.027446165680885315, -0.11526493728160858, 0.11001555621623993, 0.029178351163864136, 0.039894551038742065, 0.012187294661998749, 0.040433548390865326, -0.09232805669307709, -0.13173633813858032, -0.04050857573747635, 0.1011776253581047, -0.056644897907972336, -0.13225775957107544, -0.09779459983110428, -0.03957231342792511], [-0.00839114561676979, 0.053448066115379333, 0.043352317065000534, -0.025445425882935524, 0.03414991870522499, 0.031772930175065994, 0.030785776674747467, 0.0059475041925907135, -0.052103910595178604, 0.10494224727153778, 0.11802641302347183, 0.026386134326457977, -0.07348360121250153, -0.11032237112522125, -0.0215744711458683, -0.023603662848472595, 0.035197556018829346, -0.13770897686481476, 0.028387965634465218, 0.026402436196804047], [0.06836797297000885, 0.1247812882065773, -0.011125277727842331, 0.07807178795337677, -0.02101897820830345, 0.1384853720664978, 0.08468760550022125, 0.05537955090403557, 0.04001617431640625, 0.0655113160610199, -0.009542495012283325, -0.02460659295320511, 0.09979596734046936, 0.13933244347572327, -0.025526272132992744, 0.15638838708400726, 0.10201269388198853, 0.11964233219623566, 0.02400733157992363, -0.042243052273988724], [-0.0036655915901064873, 0.12290768325328827, 0.0006268993020057678, -0.09902346134185791, 0.10957947373390198, 0.029815789312124252, 0.15242323279380798, 0.11891554296016693, 0.13817955553531647, -0.06477006524801254, -0.10228188335895538, 0.05505484342575073, 0.08649778366088867, 0.06654316186904907, 0.08063691109418869, -0.10794492065906525, 0.04505397379398346, 0.06791458278894424, 0.10184172540903091, -0.07729195803403854], [-0.03266206383705139, 0.09371373057365417, 0.12133122980594635, 0.05362677574157715, -0.06194530799984932, 0.12797477841377258, 0.016499336808919907, -0.1158078983426094, 0.0008297376334667206, 0.05580167472362518, 0.024792082607746124, 0.03243756666779518, -0.033348843455314636, -0.05698812007904053, 0.036397237330675125, 0.16086497902870178, 0.014009151607751846, 0.04567144811153412, -0.07908081263303757, -0.038869135081768036], [-0.04763881862163544, -0.089227095246315, -0.13599087297916412, -0.11113061010837555, -0.0148589126765728, -0.05214748904109001, 0.03269144892692566, 0.02248416095972061, 0.04155220091342926, -0.005801454186439514, -0.2071266770362854, 0.057811133563518524, -0.08013005554676056, -0.1342570036649704, -0.15838828682899475, -0.03804546594619751, 0.07177281379699707, 0.09086216241121292, -0.008684013038873672, 0.028489956632256508], [0.0381501168012619, 0.04319804534316063, -0.07822074741125107, -0.011175200343132019, 0.11420343816280365, -0.04124937206506729, 0.03138604387640953, 0.07479478418827057, 0.015160288661718369, 0.035676028579473495, 0.09593355655670166, 0.1068602055311203, 0.03926908224821091, -0.015254907310009003, 0.11582904309034348, 0.09397052973508835, -0.06269104778766632, 0.04395776242017746, 0.04570464417338371, 0.005235947668552399], [0.11821743845939636, 0.054037123918533325, -0.07247433066368103, 0.03365282714366913, 0.04585706442594528, -0.03163329139351845, 0.06692273914813995, 0.04058714956045151, -0.1167542040348053, 0.010262709110975266, 0.028276430442929268, -0.07689877599477768, 0.009376436471939087, 0.11435145139694214, 0.12467324733734131, -0.0070646293461322784, 0.03678375110030174, -0.028844032436609268, 0.035045888274908066, -0.10349374264478683], [0.11187238246202469, -0.05415092781186104, 0.0007614027708768845, -0.01685619354248047, 0.02957603707909584, -0.06132182478904724, -0.037949368357658386, 0.10390109568834305, -0.021215088665485382, 0.14512810111045837, 0.04420153796672821, 0.11445334553718567, -0.034038227051496506, 0.14119559526443481, 0.03364257141947746, 0.13379845023155212, 0.09954041987657547, -0.00400305911898613, 0.07533204555511475, -0.014856655150651932], [-0.03197838366031647, 0.04153914004564285, -0.005623208358883858, 0.0499589666724205, -0.013321977108716965, 0.03606288507580757, -0.08758776634931564, -0.04350682348012924, 0.0321437232196331, -0.1046544685959816, -0.08717337250709534, -0.024628933519124985, 0.1261463463306427, -0.10017642378807068, -0.04355734959244728, -0.06692872941493988, 0.04325547814369202, 0.017556875944137573, 0.04303143918514252, 0.06187513470649719], [0.05775914713740349, 0.04931298643350601, 0.021879028528928757, 0.06565097719430923, 0.07211462408304214, 0.13114646077156067, -0.0289478562772274, -0.03317496180534363, 0.10430705547332764, 0.11240071058273315, 0.04070815443992615, 0.13193455338478088, -0.035330865532159805, -0.07289240509271622, 0.12476816773414612, 0.014258593320846558, 0.07210621237754822, 0.000998709350824356, 0.11206947267055511, -0.042899295687675476], [0.0005869343876838684, -0.08978158235549927, 0.036445196717977524, 0.09473155438899994, -0.04084930568933487, 0.0164170041680336, 0.06251268088817596, 0.040845826268196106, 0.11986688524484634, 0.09635326266288757, -0.029938967898488045, 0.05993199720978737, -0.047892410308122635, -0.11298641562461853, 0.05579555779695511, 0.16220495104789734, 0.09194871783256531, 0.15694507956504822, 0.0031893346458673477, -0.06976908445358276], [-0.10059721767902374, -0.0740608498454094, 0.030717503279447556, -0.18992088735103607, 0.0793781578540802, -0.07603614032268524, -0.14577582478523254, -0.10553079843521118, 0.055780574679374695, 0.07041732221841812, -0.08864451944828033, -0.07200904190540314, -0.026363078504800797, -0.09749332070350647, -0.008571457117795944, -0.047676458954811096, 0.06782128661870956, 0.034970976412296295, -0.0661817118525505, 0.05079831928014755], [-0.01398935541510582, -0.027471143752336502, -0.10395084321498871, -0.006410568952560425, 0.01661248877644539, 0.08123558014631271, -0.08635098487138748, -0.07497266680002213, -0.05257550626993179, -0.01390930637717247, -0.06508582830429077, -0.07208650559186935, 0.2019122987985611, 0.02493014931678772, 0.13938479125499725, 0.04194212704896927, 0.1225268691778183, 0.09756243973970413, 0.0966639295220375, -0.09056693315505981], [0.09854748845100403, 0.05728372558951378, 0.05040891468524933, -0.1413353979587555, -0.0508662573993206, 0.05752871558070183, -0.1504238247871399, 0.025663407519459724, -0.09876658022403717, -0.2159794569015503, -0.027197740972042084, 0.0712302103638649, -0.0548768974840641, -0.08152375370264053, -0.055334094911813736, 0.0021333470940589905, -0.05729617550969124, -0.022752784192562103, 0.059471819549798965, -0.027152668684720993], [-0.151060551404953, -0.16564655303955078, -0.12083718180656433, -0.045955121517181396, 0.07899046689271927, -0.035380009561777115, -0.04783984646201134, 0.04282175004482269, -0.019600652158260345, 0.0796375647187233, 0.04789324104785919, -0.06667986512184143, -0.028969496488571167, 0.009567273780703545, -0.09096281230449677, -0.030890632420778275, -0.04100252315402031, 0.0325346402823925, 0.08346118032932281, 0.027394434437155724], [0.14626048505306244, -0.09691004455089569, 0.08692647516727448, 0.051008980721235275, 0.08907065540552139, -0.005542375147342682, 0.08429618924856186, 0.0650184154510498, 0.021441547200083733, 0.14285774528980255, 0.04013536870479584, 0.10026103258132935, -0.020631443709135056, -0.005093920975923538, 0.12015154957771301, 0.1679253727197647, 0.11599355190992355, -0.01731210947036743, 0.04782254248857498, -0.04481889680027962], [-0.007336342707276344, -0.06792274117469788, 0.050511620938777924, 0.022163167595863342, 0.08622905611991882, 0.10182975232601166, -0.10775494575500488, -0.031435877084732056, -0.05063542723655701, -0.12699103355407715, 0.07253080606460571, -0.09822018444538116, 0.03547142446041107, 0.0331527516245842, -0.0476655438542366, 0.04545297101140022, 0.013958246447145939, 0.05704362317919731, -0.10653145611286163, -0.014257283881306648], [0.07998842000961304, 0.00396101176738739, -0.17706549167633057, -0.003068692982196808, -0.14367184042930603, 0.05775628238916397, -0.10214205086231232, -0.06378607451915741, -0.03278551995754242, 0.04808507114648819, -0.07618038356304169, 0.07898671925067902, -0.044739123433828354, -0.0718170553445816, 0.0383044071495533, -0.032597459852695465, -0.06486542522907257, 0.010527476668357849, -0.012758288532495499, -0.0512910820543766], [-0.04212383180856705, 0.07395892590284348, -0.10123378783464432, 0.019432563334703445, -0.11698038876056671, 0.048266977071762085, -0.011564627289772034, 0.10261116921901703, 0.08644463866949081, -0.004109581001102924, 0.004533661529421806, -0.071897953748703, -0.11167358607053757, -0.1524587720632553, 0.012919086962938309, -0.08480008691549301, -0.08448110520839691, 0.11148382723331451, -0.026055768132209778, 0.008645916357636452], [-0.11897483468055725, -0.0723968893289566, 0.08732312172651291, -0.01271955668926239, -0.03382682427763939, 0.06649862229824066, 0.032746825367212296, 0.0004129856824874878, -0.018614400178194046, -0.04219307005405426, -0.05214768275618553, 0.031304582953453064, -0.01635483093559742, 0.058440208435058594, -0.03277672827243805, -0.03505188971757889, 0.026133675128221512, 0.10074693709611893, 0.10784856975078583, 0.02387816086411476], [0.06816937029361725, -0.08918440341949463, -0.05369838699698448, -0.09289323538541794, -0.030737191438674927, 0.04305274784564972, -0.09379943460226059, 0.006098894868046045, 0.0347311794757843, -0.07197514176368713, 0.0017269626259803772, 0.06302257627248764, 0.017016950994729996, -0.06179007142782211, 0.053579580038785934, -0.009574302472174168, -0.024880245327949524, 0.0300787054002285, 0.018585406243801117, -0.058098822832107544], [-0.04016729071736336, -0.04028748348355293, 0.04250943660736084, -0.021903665736317635, 0.026280641555786133, -0.05129290372133255, 0.13410910964012146, -0.0021140798926353455, 0.0034571513533592224, 0.028904102742671967, -0.007530961185693741, 0.05627315491437912, -0.15291155874729156, -0.01761586405336857, 0.09824298322200775, 0.06791094690561295, 0.10603411495685577, -0.0129905566573143, 0.11713375151157379, -0.0011380147188901901], [-0.11067462712526321, -0.10267898440361023, -0.03359507769346237, -0.047634951770305634, -0.16620314121246338, -0.08267436921596527, 0.030009552836418152, -0.03475205600261688, 0.05882617086172104, 0.04774394631385803, 0.04366287216544151, -0.077337346971035, 0.07937005162239075, 0.0070843929424881935, 0.04336711764335632, -0.10852951556444168, -0.07209914922714233, -0.10592244565486908, 0.04390426352620125, -0.08465157449245453], [0.045608796179294586, 0.021758396178483963, -0.04917581379413605, -0.012513846158981323, -0.022629698738455772, -0.02896241471171379, -0.008694320917129517, 0.03366372734308243, -0.007543254178017378, -0.128092959523201, 0.14601975679397583, 0.016586313024163246, 0.015642670914530754, -0.026330266147851944, 0.02475005015730858, 0.12303917855024338, 0.11082448810338974, -0.028613455593585968, -0.02857690304517746, -0.02083897776901722], [-0.05616120994091034, 0.08439281582832336, 0.0641116201877594, -0.08843354880809784, 0.014271412044763565, -0.042408376932144165, 0.08924771100282669, 0.09142931550741196, -0.025518421083688736, 0.03786156326532364, 0.0022483477368950844, -0.034466493874788284, -0.04611140862107277, 0.1516549289226532, 0.17333592474460602, 0.08637362718582153, 0.12030048668384552, 0.17146319150924683, 0.09716375172138214, -0.04078223556280136], [0.01601974293589592, 0.04414592310786247, 0.01727328449487686, -0.058203618973493576, 0.00574275478720665, -0.011960811913013458, 0.00023764744400978088, 0.10052518546581268, 0.09367889165878296, 0.12343388795852661, 0.05718974769115448, 0.055789198726415634, 0.06930923461914062, -0.044359028339385986, 0.08317512273788452, 0.12524650990962982, -0.09042201191186905, -0.05402657762169838, -0.006072957068681717, 0.0720575749874115], [-0.11235073953866959, 0.038786180317401886, 0.07489195466041565, -0.06270506232976913, -0.10041780769824982, 0.08533299714326859, -0.07654043287038803, 0.11744619160890579, -0.02087898552417755, -0.08558447659015656, 0.08119426667690277, 0.06840288639068604, 0.11443468928337097, 0.10622922331094742, -0.05743960291147232, 0.05647716671228409, 0.04715588316321373, 0.0033638328313827515, -0.005569630302488804, 0.09275487810373306], [-0.061851680278778076, -0.09441563487052917, -0.09458278119564056, -0.12208358943462372, -0.11574502289295197, -0.15116655826568604, -0.1556599736213684, -0.08376788347959518, -0.08998364210128784, 0.059150513261556625, -0.089726023375988, -0.03967881575226784, -0.12085100263357162, -0.13163594901561737, -0.003500957041978836, 0.07684005051851273, -0.015401404350996017, -0.14965330064296722, -0.018792252987623215, -0.01786951720714569], [-0.1536564826965332, -0.0017068777233362198, 0.029599055647850037, -0.13972258567810059, 0.047150809317827225, 0.04641561210155487, -0.03611705079674721, -0.012348202988505363, 0.0386795699596405, -0.060952119529247284, -0.06278524547815323, 0.0686454102396965, -0.04018722474575043, -0.11732310801744461, 0.03859027847647667, 0.11325746029615402, -0.06403305381536484, -0.1578613966703415, -0.047253768891096115, -0.01300981268286705], [0.09239321947097778, 0.14701935648918152, -0.006255142390727997, -0.0860571563243866, -0.08463665843009949, -0.11847150325775146, 0.09978440403938293, 0.05512949079275131, 0.07160089910030365, 0.035965073853731155, 0.09350958466529846, -0.002123381942510605, -0.07513946294784546, 0.03457152470946312, -0.060185737907886505, -0.043325819075107574, 0.1721685826778412, -0.03671876713633537, 0.13113269209861755, -0.020895618945360184], [-0.07279690355062485, 0.061346203088760376, -0.12098131328821182, 0.02219654992222786, -0.13385054469108582, -0.033832162618637085, 0.09918064624071121, -0.04856836423277855, -0.05467334762215614, -0.0485348105430603, -0.0533638596534729, 0.1114826425909996, 0.009263068437576294, 0.04251810163259506, 0.10282880067825317, -0.1303085833787918, -0.012169219553470612, -0.06162700429558754, 0.018269453197717667, 0.10762478411197662], [-0.07925210148096085, 0.054667942225933075, 0.0070920949801802635, 0.016905158758163452, -0.061018407344818115, 0.04729365184903145, -0.0730351060628891, 0.07142217457294464, -0.09716717153787613, -0.12453217804431915, -0.02145284228026867, -0.025416957214474678, -0.05371665209531784, -0.14944887161254883, -0.054948098957538605, -0.004179080948233604, 0.005475565791130066, -0.04521887004375458, -0.06322257965803146, 0.007798410952091217], [0.0133113544434309, -0.050399765372276306, 0.0662052184343338, -0.05209456384181976, -0.05375977233052254, -0.054616499692201614, -0.047267258167266846, 0.08315148949623108, -0.11987483501434326, -0.008737588301301003, -0.019843678921461105, -0.04943952336907387, 0.022681156173348427, -0.07226935774087906, 0.080755315721035, 0.12086449563503265, 0.06861063092947006, 0.1397503763437271, 0.02294033393263817, 0.040396641939878464], [0.05098183453083038, -0.0937284454703331, -0.009492777287960052, 0.025350864976644516, -0.11366686224937439, -0.05455727502703667, -0.10824468731880188, 0.06334725022315979, 0.037835314869880676, 0.18373069167137146, -0.03795985132455826, 0.02969791553914547, 0.10175317525863647, 0.03401075676083565, -0.039293527603149414, 0.13083316385746002, -0.018886905163526535, 0.026356982067227364, -0.037699781358242035, 0.0016039181500673294], [-0.061669640243053436, 0.09830872714519501, 0.0880192369222641, -0.01466473937034607, 0.03264567255973816, 0.016891885548830032, 0.14108088612556458, 0.14376568794250488, -0.0040823593735694885, 0.01627347618341446, -0.06111694127321243, 0.17020723223686218, 0.12191601097583771, -0.03495199978351593, 0.01943035051226616, -0.041033871471881866, -0.007749542593955994, 0.2217249572277069, 0.11842060834169388, 0.004054572433233261], [0.04721938818693161, 0.06344598531723022, -0.089815154671669, 0.030393313616514206, -0.05997970700263977, 0.09165418893098831, 0.021126188337802887, 0.060521792620420456, -0.11704108864068985, -0.13004446029663086, -0.03767223656177521, 0.1114615797996521, -0.12532716989517212, -0.03272506594657898, 0.0315016508102417, -0.076120525598526, -0.04147763550281525, -0.17974558472633362, 0.054181501269340515, -0.0030350573360919952], [0.0839032307267189, 0.08128130435943604, -0.04312413930892944, -0.09735821187496185, -0.055076271295547485, -0.12522834539413452, -0.026938995346426964, -0.019292667508125305, -0.08558078110218048, 0.02335934527218342, -0.08141931891441345, 0.06719204038381577, -0.017212582752108574, -0.006851520389318466, -0.022216426208615303, 0.04553312808275223, -0.01077713631093502, -0.059378501027822495, 0.01607406511902809, 0.042195502668619156], [-0.07905406504869461, -0.10886360704898834, -0.09014753997325897, 0.11787503957748413, -0.038535065948963165, -0.09152234345674515, 0.08598847687244415, 0.0990547388792038, 0.08014490455389023, 0.08800093084573746, 0.030321910977363586, -0.08720442652702332, -0.034020036458969116, -0.1318597048521042, 0.13046839833259583, -0.01284072920680046, 0.0497402660548687, -0.09822425991296768, 0.02438226528465748, -0.028926106169819832], [0.02877960540354252, -0.02788504958152771, -0.02589542046189308, -0.020857680588960648, -0.08881490677595139, 0.15125034749507904, -0.04119495674967766, -0.05603806674480438, 0.09692945331335068, -0.10486941784620285, 0.08830074220895767, 0.11379308253526688, -0.07491220533847809, -0.028867647051811218, 0.06381529569625854, -0.009864835068583488, -0.0055474452674388885, -0.11306442320346832, 0.015147116035223007, 0.017450103536248207], [-0.08325445652008057, -0.10443618893623352, 0.02256397344172001, -0.05047488585114479, -0.10192554444074631, 0.0648142471909523, -0.17930731177330017, -0.18340936303138733, 0.011037983000278473, -0.03193959593772888, -0.14205297827720642, 0.07023799419403076, -0.0804034098982811, 0.10131482779979706, -0.0393945574760437, -0.11801227927207947, 0.011249303817749023, 0.004535004496574402, 0.009806174784898758, 0.05573281645774841], [-0.025267131626605988, -0.007959248498082161, 0.03705905005335808, 0.05761866271495819, 0.013149447739124298, 0.0024302154779434204, -0.0728844553232193, -0.08874426037073135, -0.04321318119764328, -0.06775104254484177, -0.012846797704696655, -0.13319864869117737, 0.06150119751691818, -0.03842959925532341, 0.059704575687646866, 0.029294339939951897, 0.06516078114509583, -0.13241641223430634, -0.07226518541574478, 0.014761608093976974], [-0.07363364845514297, -0.09962327778339386, 0.05112665146589279, 0.03986349329352379, -0.10846269130706787, 0.008126555941998959, 0.037787292152643204, -0.1375720202922821, -0.024271652102470398, -0.0884360671043396, -0.0469309538602829, 0.01013602688908577, -0.0750790387392044, 0.06800294667482376, 0.09133407473564148, -0.03668637201189995, -0.08959963172674179, 0.05484775826334953, -0.054625943303108215, -0.023655841127038002], [-0.012758657336235046, -0.11317494511604309, -0.02892383188009262, 0.053228095173835754, -0.08495821803808212, 0.004576206672936678, 0.04623264819383621, -0.11456175148487091, 0.13108134269714355, -0.0472162626683712, 0.07143577188253403, 0.0459333099424839, 0.0628533735871315, 0.06676649302244186, -0.036120690405368805, 0.02258695475757122, -0.020564161241054535, 0.0945880264043808, 0.12412720918655396, -0.05325932800769806], [-0.12402859330177307, 0.12510983645915985, 0.02443958818912506, -0.023998171091079712, 0.13515987992286682, 0.03505493700504303, 0.07853072881698608, 0.15415099263191223, 0.11303053051233292, -0.03612234443426132, 0.14827503263950348, 0.07942646741867065, -0.010414756834506989, -0.03955262154340744, 0.09435960650444031, -0.006107798311859369, 0.15197382867336273, -0.031048953533172607, -0.029467284679412842, 0.0013774074614048004], [-0.009594596922397614, -0.0921517014503479, -0.08462080359458923, -0.07742605358362198, 0.082158163189888, -0.019689608365297318, -0.07965759932994843, -0.07501477003097534, -0.16562622785568237, -0.024088989943265915, -0.10259683430194855, -0.07048563659191132, 0.019764937460422516, -0.1483224481344223, -0.08080016076564789, -0.029036711901426315, 0.011962487362325191, -0.028761617839336395, -0.017946768552064896, 0.17031554877758026], [-0.12605682015419006, 0.03683461248874664, -0.13252681493759155, 0.009482789784669876, 0.014580915682017803, -0.10193159431219101, 0.0839744359254837, -0.07122622430324554, -0.07765187323093414, 0.01983180083334446, 0.02478637918829918, -0.11649473011493683, 0.025663945823907852, -0.020585782825946808, -0.1573171615600586, -0.09909260272979736, -0.03614548593759537, -0.009196752682328224, 0.00432954914867878, 0.0078920628875494], [0.07527445256710052, 0.025989163666963577, 0.036867812275886536, -0.0044130682945251465, -0.048309847712516785, 0.09529048204421997, 0.025788014754652977, -0.05186020955443382, -0.09483487904071808, 0.07194338738918304, 0.0843263566493988, 0.17831391096115112, -0.09974374622106552, 0.03752899914979935, 0.03945392370223999, 0.04334918037056923, -0.08116874098777771, -0.05127204582095146, 0.049839530140161514, -0.011456474661827087], [0.09574821591377258, -0.10602982342243195, -0.03457093611359596, 0.038775086402893066, -0.07767373323440552, -0.01485285721719265, -0.044156264513731, 0.02834869921207428, -0.10320736467838287, 0.12287931144237518, 0.051817331463098526, 0.16354155540466309, 0.028469976037740707, 0.041006170213222504, 0.10220986604690552, 0.025685183703899384, 0.08951868116855621, 0.05923207104206085, -0.0528443269431591, -0.10214599221944809], [-0.06456178426742554, 0.07454124093055725, 0.08230878412723541, 0.04774053022265434, 0.09774387627840042, -0.08462661504745483, 0.0029553771018981934, -0.04793336242437363, -0.04256908595561981, -0.17411327362060547, 0.05604881793260574, 0.1264229714870453, 0.03530015051364899, -0.12047788500785828, -0.031807880848646164, 0.06918558478355408, -0.04878605157136917, -0.07081751525402069, 0.0400741882622242, -0.026085708290338516], [-0.14209695160388947, -0.04947423189878464, 0.008868501521646976, -0.10588927567005157, -0.0046606287360191345, 0.042575448751449585, -0.07764493674039841, -0.06246833875775337, -0.0984002947807312, 0.05053377524018288, -0.022989381104707718, -0.0636187419295311, -0.0498010516166687, 0.11308174580335617, -0.042941734194755554, -0.001982133835554123, 0.0026184264570474625, -0.012075567618012428, 0.07032507658004761, -0.02183147519826889], [-0.08645164966583252, -0.1859293133020401, -0.12171801924705505, -0.026059258729219437, 0.020529501140117645, -0.004021741449832916, -0.01058054156601429, -0.05828733742237091, 0.08336519449949265, 0.009927559643983841, -0.10212332010269165, -0.0006055925041437149, -0.11014135926961899, -0.16705578565597534, 0.00993378460407257, -0.03151924908161163, 0.03933302313089371, -0.004352480173110962, 0.027181701734662056, 0.10329026728868484], [0.08657851815223694, -0.06552170217037201, -0.15324389934539795, -0.10539178550243378, 0.0972338393330574, -0.020119886845350266, -0.012898694723844528, 0.09955232590436935, -0.04987764358520508, 0.0044693537056446075, 0.05386848747730255, 0.034888043999671936, 0.051489993929862976, 0.0668388307094574, -0.1394674926996231, 0.05304954946041107, -0.06122073531150818, -0.1200840100646019, -0.02484755404293537, 0.037741005420684814], [-0.025490652769804, -0.1247151717543602, 0.0005136057734489441, -0.11648537218570709, 0.02258780598640442, 0.03897777572274208, 0.09438086301088333, -0.1080685704946518, 0.0965552031993866, 0.03601524978876114, -0.11981794238090515, 0.0042829085141420364, -0.11872129142284393, -0.02925056964159012, -0.10281654447317123, -0.08182822167873383, -0.04298902302980423, -0.0331377238035202, -0.09668677300214767, -0.04160815477371216], [0.03942481428384781, 0.0717177763581276, -0.06946395337581635, 0.024380436167120934, 0.1075606495141983, 0.12937189638614655, -0.05662219971418381, 0.13753503561019897, -9.065493941307068e-05, 0.025240458548069, 0.09653855860233307, -0.06864868104457855, -0.03285159170627594, 0.12923415005207062, -0.09919712692499161, 0.031201671808958054, -0.11239133030176163, 0.0015509240329265594, 0.08167166262865067, 0.03067808412015438]], "model.0.bias": [-0.06464647501707077, -0.06714744865894318, 0.15774354338645935, 0.04121408611536026, 0.10830521583557129, 0.10766559839248657, -0.0009639300405979156, 0.041008684784173965, -0.08584143221378326, -0.07679951190948486, 0.06943661719560623, 0.01551596075296402, 0.07604009658098221, 0.010001850314438343, -0.08740436285734177, -0.020867783576250076, -0.11437448859214783, 0.0008855685591697693, -0.08205495774745941, -0.05522168427705765, 0.053106505423784256, -0.04034806042909622, 0.039517197757959366, -0.020576121285557747, 0.0663168653845787, -0.024141117930412292, -0.10806354880332947, 0.017155371606349945, 0.12424730509519577, 0.003823738545179367, 0.08175136893987656, -0.03496132791042328, -0.05965357646346092, -0.09975098073482513, -0.025484591722488403, -0.08499205857515335, -0.06860183924436569, 0.08300644159317017, 0.04218434542417526, -0.07255294173955917, 0.05786775052547455, -0.10462560504674911, 0.03661735728383064, -0.04521344602108002, -0.012745498679578304, 0.05245744809508324, 0.07530491054058075, 0.03548306226730347, 0.06237742304801941, -0.0820513367652893, -0.11266832053661346, -0.009314166381955147, 0.015536101534962654, 0.04101022705435753, -0.1212138831615448, 0.03707931935787201, -0.07685583084821701, 0.07073831558227539, 0.035768307745456696, 0.040557291358709335, 0.052871592342853546, -0.008770456537604332, 0.03354397416114807, 0.010010425001382828, -0.0620560385286808, -0.1356130838394165, -0.01151242759078741, -0.014927944168448448, 0.041931308805942535, 0.060481153428554535, -0.06912060081958771, -0.041144244372844696, 0.1558905690908432, -0.07332973182201385, -0.1483708918094635, -0.03918086737394333, -0.04556490480899811, 0.027546294033527374, -0.05601030960679054, -0.0782102644443512, -0.05683540552854538, -0.055217254906892776, -0.10218469798564911, -0.07282958924770355, -0.03841855376958847, 0.024900060147047043, -0.13833388686180115, 0.0074442364275455475, 0.03116358444094658, -0.009660737589001656, -0.04714856669306755, 0.010050183162093163, -0.0014466699212789536, -0.15655940771102905, 0.005425082519650459, -0.06761278212070465, 0.07084977626800537, -0.030850663781166077, 0.010290429927408695, -0.04433330148458481, -0.040999818593263626, 0.07547822594642639, -0.07401902973651886, -0.09488797187805176, -0.03182465210556984, -0.08177207410335541, -0.09468081593513489, -0.11499781161546707, 0.11588452756404877, -0.009646747261285782, 0.042880378663539886, -0.05447571352124214, -0.10649525374174118, -0.045451290905475616, -0.044213853776454926, 0.06974456459283829, 0.019615497440099716, -0.096796415746212, 0.047714971005916595, 0.10302474349737167, 0.08694837242364883, 0.008070829324424267, -0.0924515426158905, 0.11170171201229095, 0.10912798345088959, -0.07233016192913055, 0.12831518054008484, -0.07158180326223373], "model.2.weight": [[0.053152069449424744, 0.0081398393958807, -0.013145649805665016, -0.030578339472413063, -0.020339399576187134, 0.04326000437140465, -0.01930631324648857, -0.008659837767481804, 0.0420592799782753, -0.0605899877846241, -0.047791849821805954, -0.03332419693470001, 0.028726331889629364, -0.02220231667160988, -0.015345589257776737, -0.09153372049331665, -0.08426010608673096, 0.03308982774615288, -0.03692912682890892, -0.043819721788167953, 0.0013953966554254293, -0.029962003231048584, 0.02341557666659355, 0.0004812479019165039, -0.01529963780194521, -0.02519385889172554, -0.05174332112073898, -0.02737295627593994, -0.034033022820949554, -0.02222364768385887, 0.021910812705755234, 0.037646062672138214, -0.05744035542011261, -0.0638183057308197, 0.004228013567626476, 0.007001722231507301, -0.0185858104377985, -0.07460565119981766, 0.016475120559334755, 0.011944126337766647, -0.0401233434677124, -0.04108625650405884, 0.029720578342676163, -0.05475696176290512, -0.021919840946793556, -0.06088097766041756, -0.09287312626838684, -0.04122363030910492, -0.05091103911399841, -0.09655305743217468, -0.04506031051278114, -0.08467075228691101, -0.007886432111263275, -0.060418833047151566, -0.019765662029385567, -0.053470320999622345, 0.05732176452875137, -0.06612075865268707, -0.04588831588625908, -0.06265794485807419, -0.07899894565343857, -0.0723133236169815, -0.03723062574863434, -0.07530864328145981, -0.05399604141712189, -0.015739968046545982, -0.003315366804599762, -0.015477173030376434, -0.01778685301542282, -0.02433132752776146, 0.010865023359656334, 0.028961457312107086, -0.008000575006008148, -0.03659937158226967, 0.0009308904409408569, -0.040696561336517334, -0.0015595164149999619, 0.04503896087408066, -0.01188678853213787, 0.009058719500899315, -0.032219141721725464, -0.03592275083065033, -0.030967535451054573, 0.002176739275455475, 0.06563583016395569, -0.016590751707553864, 0.08194602280855179, -0.02090328000485897, -0.0006390213966369629, 0.006377285346388817, 0.031464774161577225, -0.019405506551265717, 0.018874645233154297, -0.04666472226381302, 0.027833472937345505, 0.04886702075600624, -0.049458980560302734, -0.028786540031433105, -0.03678900748491287, 0.02518579736351967, 0.04527433216571808, -0.03996366262435913, -0.029602592810988426, -0.020110834389925003, -0.011041637510061264, -0.03047821670770645, -0.05512981489300728, -0.06160463020205498, 0.009249353781342506, -0.009644681587815285, 0.034578271210193634, 0.020902622491121292, 0.00023856590269133449, -0.051073551177978516, -0.02278691716492176, -0.07204257696866989, -0.005205415189266205, 0.03883075341582298, 0.04247155040502548, -0.009584113955497742, -0.04871494323015213, 0.010274576023221016, -0.03984221816062927, 0.02699851430952549, 0.029194671660661697, -0.03301159664988518, -0.05500294268131256, 0.028147395700216293], [-0.026592088863253593, 0.007036764174699783, -0.06256049871444702, 0.10140540450811386, 0.0009204838424921036, 0.07303021848201752, -0.005460896994918585, 0.02826949954032898, 0.11050746589899063, 0.05530417338013649, 0.02438177354633808, 0.009638270363211632, 0.11463293433189392, 0.03492739051580429, -0.0634317547082901, 0.02325323224067688, 0.01822122558951378, 0.01327449269592762, -0.0018881019204854965, 0.045442551374435425, -0.03489731624722481, 0.007271293550729752, -0.06802698969841003, -0.03926662728190422, -0.023089010268449783, -0.026936225593090057, 0.020247993990778923, 0.04488614946603775, 0.03440532460808754, 0.06101924180984497, 0.05094987899065018, -0.0214522872120142, 0.016515281051397324, 0.09059636294841766, 0.01585019752383232, -0.013080138713121414, -0.0010549016296863556, -0.0013567209243774414, 0.02874656766653061, -0.05139601230621338, 0.034311067312955856, 0.0541934110224247, -0.06333857774734497, -0.015553277917206287, -0.07262923568487167, 0.00952188577502966, 0.002910107374191284, -0.007292908616364002, -0.023494238033890724, -0.012317749671638012, -0.09377090632915497, 0.02568167820572853, 0.10339649766683578, 0.0171799398958683, 0.004244567826390266, -0.057819053530693054, -0.05816376954317093, 0.09490828216075897, -0.0005758125334978104, -0.02832920290529728, -0.05843452364206314, 0.045797377824783325, 0.002392072696238756, -0.006728522479534149, 0.04206427186727524, 0.025833550840616226, 0.05253295227885246, 0.08669717609882355, 0.05525687336921692, 0.01518174447119236, 0.014287250116467476, -0.04322236403822899, 0.04865115135908127, 0.01663164049386978, 0.03543349727988243, -0.02514811046421528, 0.0066393599845469, 0.028180057182908058, -0.013261198997497559, 0.09110095351934433, 0.007677420042455196, 0.03762029856443405, 0.023350650444626808, 0.021343298256397247, -0.031149595975875854, -0.004735779948532581, -0.025065559893846512, -0.043020278215408325, -0.07156195491552353, -0.04553401470184326, -0.017914442345499992, -0.014155016280710697, 0.03868655115365982, 0.04481969028711319, -0.021189644932746887, 0.029089132323861122, 0.041719257831573486, 0.00905047170817852, 0.01180371642112732, -0.003994857892394066, 0.08230186998844147, -0.05105607956647873, 0.01782859116792679, -0.011627931147813797, -0.03830478712916374, 0.011323172599077225, -0.0008811084553599358, 0.021395545452833176, 0.0067056454718112946, -0.05036144703626633, -0.12314951419830322, -0.060677338391542435, 0.025342635810375214, -0.05139395594596863, 0.012168540619313717, -0.018836665898561478, -0.017134176567196846, 0.037428684532642365, 0.01690695434808731, 0.052759118378162384, 0.040767379105091095, 0.0913170576095581, -0.02690330520272255, 0.06188858300447464, -0.001968465745449066, -0.02945714443922043, -0.031974419951438904, 0.04036997631192207], [0.02332436665892601, -0.0026850514113903046, 0.04241243004798889, 0.058525070548057556, -0.11789464950561523, -0.018256792798638344, -0.02454974874854088, -0.002527862787246704, 0.033041343092918396, 0.004265131428837776, 0.012725016102194786, -0.051200155168771744, 0.013516314327716827, -0.08498303592205048, -0.007795042358338833, -0.04366987198591232, -0.035540562123060226, -0.045702263712882996, 0.030816836282610893, 0.0701693743467331, -0.05095824599266052, -0.07438687980175018, 0.07257159054279327, 0.0733133852481842, 0.024499407038092613, -0.05192968249320984, 0.03972258418798447, 0.002050451934337616, -0.0013463199138641357, 0.06795850396156311, 0.012336107902228832, 0.07541440427303314, -0.022204430773854256, -0.024283751845359802, -0.02351009100675583, 0.047468848526477814, 0.03492426872253418, -0.047619447112083435, 0.02630607597529888, -0.004753388464450836, -0.024116460233926773, 0.05009631812572479, 0.028976500034332275, -0.013729304075241089, 0.041126493364572525, 0.0850539430975914, -0.010989336296916008, 0.007109491154551506, 0.008571680635213852, 0.04742828756570816, -0.010244078934192657, -0.043958768248558044, 0.010068634524941444, -0.07449235022068024, -0.025212300941348076, 0.0740276426076889, -0.05306822061538696, -0.039202239364385605, -0.03202040493488312, 0.0006935819983482361, 0.09469154477119446, 0.018792957067489624, -0.07178540527820587, 0.05927393212914467, 0.02286229468882084, 0.0353764072060585, -0.004451800137758255, -0.10348647832870483, -0.054103802889585495, 0.0743480697274208, 0.008095834404230118, 0.02806461974978447, -0.12393851578235626, 0.004746418446302414, 0.04771318659186363, 0.034464191645383835, -0.11398027837276459, 0.03884602710604668, 0.01609625294804573, -0.03391501307487488, -0.003090541809797287, -0.008398161269724369, 0.011190321296453476, 0.03003915213048458, -0.04423518851399422, 0.013557201251387596, 0.04221080243587494, -0.00502773467451334, -0.0025258678942918777, -0.027830684557557106, 0.059182070195674896, 0.023396208882331848, -0.04197566583752632, -0.042037367820739746, 0.006030241027474403, 0.024173351004719734, -0.0034932922571897507, -0.07181654125452042, 0.04899243265390396, -0.026030246168375015, 0.008695056661963463, 0.025894170626997948, -0.018887843936681747, 0.030263518914580345, -0.017084356397390366, -0.009326009079813957, -0.024792183190584183, 0.024199582636356354, 0.007228592410683632, 0.012693596072494984, 0.041686974465847015, 0.03444085642695427, -0.05332446098327637, 0.046984195709228516, -0.05499391630291939, 0.03447399660944939, -0.016205016523599625, 0.003750024363398552, -0.0200221948325634, 0.056214869022369385, -0.042164865881204605, 0.018814850598573685, 0.02284649759531021, 0.05389682576060295, 0.03862821310758591, 0.00487308856099844, 0.0431535504758358, -0.034957244992256165], [0.013156243599951267, -0.038243480026721954, -0.020240236073732376, -0.01736007258296013, -0.0042723435908555984, -0.05365488678216934, 0.0048615047708153725, 0.034790534526109695, -0.06054956093430519, 0.0022134389728307724, -0.01794356107711792, -0.014076954685151577, -0.05623457580804825, -0.04933326691389084, -0.03033740259706974, -0.035767436027526855, -0.05221416801214218, 0.05697213485836983, -0.06179118901491165, 0.019657036289572716, 0.001530766487121582, 0.055543020367622375, -0.09197578579187393, 0.045023344457149506, -0.02460741624236107, -0.03236246109008789, 0.0006056055426597595, 0.04065798223018646, -0.03418232500553131, -0.0011362535879015923, -0.043440692126750946, -0.04095732420682907, -0.012694688513875008, -0.012560185045003891, -0.028880983591079712, 0.003994043916463852, -0.020494632422924042, 0.030780110508203506, -0.03959076851606369, 7.328949868679047e-05, 0.022981729358434677, 0.006405079737305641, -0.11085976660251617, 0.03679690137505531, -0.015208111144602299, -0.08959291130304337, -0.002878718078136444, -0.018000226467847824, 0.0485878624022007, 0.006032971665263176, 0.010243444703519344, 0.037750598043203354, 0.05253840982913971, -0.026630232110619545, -0.06599505245685577, -0.06991157680749893, -0.06435982137918472, -0.007170609198510647, 0.046349138021469116, -0.08168841898441315, -0.09847846627235413, -0.0048118047416210175, -0.01773116923868656, -0.08277767896652222, 0.04551053047180176, -0.019932378083467484, 0.036904897540807724, -0.01747266948223114, 0.007205309346318245, -0.03338320553302765, 0.015260789543390274, -0.025316918268799782, -0.0885830745100975, -0.02877921052277088, -0.0395641028881073, -0.07251431792974472, -0.006750676780939102, -0.06848141551017761, -0.03190015256404877, -0.04652116447687149, -0.023233557119965553, -0.007711990736424923, 0.016218194738030434, 0.051065593957901, -0.06191537529230118, -0.01995539292693138, -0.028431298211216927, 0.011979261413216591, 0.005360814742743969, 0.004504603333771229, -0.04210406541824341, -0.03994026780128479, -0.044568534940481186, -0.04849439486861229, 0.022129559889435768, -0.0412217378616333, -0.0185442753136158, -0.0777355208992958, 0.04838576167821884, 0.0037407539784908295, -0.020659571513533592, 0.02337038703262806, -0.023290961980819702, -0.029869254678487778, -0.03495773673057556, 0.023971501737833023, 0.0002513728104531765, -0.04914109408855438, -0.021699542179703712, 0.013213761150836945, 0.03743566945195198, -0.005809144116938114, -0.005056040361523628, -0.027831081300973892, -0.03752705454826355, 0.02121465466916561, -0.04653223976492882, -0.04763399809598923, -0.10279242694377899, -0.00720830587670207, 0.01858576200902462, -0.007350756786763668, -0.015240555629134178, -0.01260313205420971, -0.026367351412773132, 0.024103382602334023, 0.07959307730197906, -0.005505546927452087], [-0.031016601249575615, -0.03486150875687599, -0.06769952923059464, -0.03452754020690918, 0.07589299976825714, -0.01109331101179123, -0.028361845761537552, -0.051478538662195206, 0.07028789818286896, 0.06277569383382797, -0.05740468204021454, 0.023071829229593277, 0.0017763115465641022, -0.013409772887825966, 0.052205462008714676, 0.14099028706550598, 0.06022586673498154, 0.04784419760107994, -0.0953313484787941, -0.06361617892980576, 0.001976395957171917, 0.061390385031700134, -0.010314473882317543, 0.0459853820502758, -0.031102007254958153, -0.01684379205107689, -0.02585255727171898, -0.052134573459625244, -0.02177259512245655, 0.011731386184692383, 0.042691923677921295, 0.001061808317899704, 0.03354119881987572, 0.009241146966814995, -0.06909887492656708, -0.04707026854157448, 0.0496370904147625, 0.06755109131336212, -0.030557584017515182, 0.03270452097058296, -0.04161609336733818, -0.02543259784579277, -0.05767997354269028, -0.04227516055107117, 0.0014319837791845202, -0.02104545757174492, 0.03450765460729599, 0.04830222204327583, 0.029980547726154327, -0.07318821549415588, 0.039003342390060425, 0.008560867980122566, -0.04147854819893837, -0.022403905168175697, -0.0781565010547638, -0.044693995267152786, -0.010411947965621948, -0.06284485757350922, -0.1062980517745018, -0.028882605955004692, -0.018805455416440964, -0.06865687668323517, 0.004265962168574333, 0.006078030914068222, -0.028148217126727104, 0.01196344569325447, -0.014131935313344002, 0.00028764642775058746, 0.0019231513142585754, 0.007742114365100861, 0.049250006675720215, 0.06086490675806999, 0.026931194588541985, -0.08987122774124146, -0.060528628528118134, -0.07464583963155746, 0.01848970726132393, 0.06359810382127762, 0.02477799728512764, 0.0041664279997348785, 0.03685132786631584, 0.05011221766471863, -0.06944414973258972, -0.04362742230296135, -0.01854327693581581, -0.1163506805896759, 0.049073509871959686, 0.01364441029727459, -0.014526505954563618, 0.04761312156915665, -0.09683402627706528, 0.03273849934339523, -0.1505204737186432, -0.04808440059423447, -0.04175625741481781, -0.037422604858875275, 0.051368895918130875, 0.09148173779249191, 0.033923059701919556, 0.06629414856433868, -0.025737056508660316, -0.013244206085801125, -0.04147909954190254, 0.03357440605759621, 0.01413903571665287, -0.08024978637695312, 0.00035371026024222374, -0.01172131672501564, 0.1031392440199852, -0.09809518605470657, -0.03824438899755478, 0.050213225185871124, -0.040119707584381104, -0.07056283205747604, -0.0743291974067688, 0.0079111997038126, -0.03723834827542305, -0.034635938704013824, -0.016105931252241135, -0.00999094545841217, 0.03247581049799919, 0.018643273040652275, 0.025544336065649986, -0.005094639956951141, 0.0035022636875510216, -0.04940476268529892, 0.002222757786512375, 0.016324171796441078], [-0.013998288661241531, -0.03290769085288048, -0.08117911219596863, -0.038711242377758026, -0.02242811769247055, 0.01288528461009264, 0.014373475685715675, -0.008357197046279907, -0.01222611777484417, -0.044041045010089874, -0.05764740705490112, 0.02318599820137024, -0.01741967350244522, -0.0276474729180336, -0.03643418848514557, -0.02251989021897316, -0.04642127826809883, -0.027598464861512184, 0.0018519731238484383, -0.018574265763163567, -0.030154235661029816, 0.07629749178886414, -0.02661244571208954, -0.022618720307946205, 0.0023865262046456337, 0.007947895675897598, 0.047644685953855515, 0.015235461294651031, -0.059851355850696564, -0.0376858189702034, -0.015878167003393173, 0.057373352348804474, -0.004862546920776367, -0.03658038377761841, 0.013949842192232609, -0.029994362965226173, -0.005993876606225967, 0.04121441766619682, -0.06606349349021912, -0.03076864778995514, -0.023522840812802315, -0.03109383024275303, 0.04012057185173035, -0.0213254913687706, 0.005280578508973122, -0.0182499997317791, -0.02978724241256714, -0.011399274691939354, -0.05481652915477753, 0.01656350865960121, 0.01354009099304676, -0.025020889937877655, -0.05249352380633354, -0.003966005519032478, -0.030044103041291237, -0.038812506943941116, 0.0077388714998960495, 0.034040093421936035, 0.029924992471933365, -0.03615827113389969, -0.0595666840672493, -0.06492581963539124, 0.01249166764318943, -0.09532265365123749, -0.015335220843553543, -0.0042772744782269, -0.023809965699911118, 0.025545742362737656, -0.02528783306479454, 0.03920670971274376, -0.030136583372950554, -0.07082593441009521, 0.012812105938792229, 0.014855029061436653, 0.010306299664080143, -0.0768919289112091, -0.02068021148443222, -0.0455266498029232, -0.03530077636241913, 0.0010101217776536942, -0.016357872635126114, -0.034021906554698944, -0.00982121005654335, 0.009161336347460747, -0.04060790687799454, -0.00019115209579467773, -0.059675607830286026, -0.05100977048277855, -0.08346172422170639, 0.01647522859275341, -0.039951473474502563, -0.03513101488351822, 0.023850511759519577, -0.023828675970435143, 0.014923634007573128, -0.018294978886842728, 0.057348642498254776, -0.07607802003622055, -0.008825559169054031, -0.07800693809986115, 0.004203587770462036, 0.024600069969892502, 0.06446340680122375, -0.04597744718194008, -0.046958766877651215, -0.039150916039943695, -0.026237180456519127, -0.061331845819950104, -0.05720444768667221, 0.02087312377989292, 0.010008422657847404, -0.055560290813446045, 0.035046014934778214, -0.012026489712297916, 0.01916518062353134, 0.017640482634305954, -0.005774502642452717, -0.011825675144791603, 0.051840513944625854, 0.010589757934212685, 0.038250550627708435, -0.056193552911281586, 0.02286503091454506, 0.018319837749004364, -0.037997085601091385, -0.04963291063904762, -0.042694851756095886, -0.021683622151613235], [-0.0954236388206482, 0.0008118406403809786, -0.029503045603632927, 0.017568621784448624, -0.0010556546039879322, -0.013706911355257034, -0.008022661320865154, 0.025851238518953323, 0.014566769823431969, -0.04220685362815857, -0.046353474259376526, 0.006947236601263285, -0.07183800637722015, -0.07423245906829834, -0.05144993215799332, 0.05708611384034157, -0.019471250474452972, 0.01381221879273653, -0.06881522387266159, 0.02053556963801384, -0.04189694672822952, 0.04753489047288895, -0.0127110555768013, -0.0013073422014713287, -0.023982545360922813, 0.03206617012619972, 0.04106985777616501, -0.03022862784564495, 0.040134280920028687, -0.009395774453878403, -0.0005627237260341644, -0.02169639803469181, -0.008607631549239159, -0.022880060598254204, 0.004389747977256775, -0.0054110027849674225, 0.02559109404683113, -0.032537516206502914, -0.05065776780247688, -0.05106646567583084, -0.038183458149433136, 0.011944650672376156, 0.020873242989182472, 0.03454709053039551, -0.03476614132523537, 0.0047974493354558945, -0.02913651615381241, 0.030566832050681114, 0.012918883934617043, -0.014872496947646141, -0.03209992125630379, 0.026272468268871307, 0.05334402993321419, -0.01564071699976921, -0.0050086090341210365, 0.007360190153121948, -0.07020643353462219, 0.01960761286318302, -0.0633632093667984, -0.047128528356552124, -0.08063410222530365, -0.010326657444238663, 0.023709185421466827, -0.021929707378149033, 0.004292987287044525, -0.07842142879962921, -0.043753862380981445, -0.05433119460940361, -0.04458090290427208, -0.030251871794462204, 0.0007870979607105255, -0.016508663073182106, -0.01775398850440979, -0.01726473681628704, 0.03837098181247711, -0.007061216980218887, -0.047024235129356384, 0.04122773930430412, -0.08414849638938904, -0.06946619600057602, 0.022035205736756325, -0.008037623949348927, -0.024061497300863266, 0.0313069224357605, -0.03002719208598137, -0.04739882051944733, -0.030159296467900276, -0.03780848905444145, -0.02585301361978054, -0.004577375948429108, -0.04500025510787964, -0.058594897389411926, -0.005130492150783539, -0.023542597889900208, 0.060285575687885284, -0.03234630078077316, -0.02377788908779621, 0.08675534278154373, -0.04555998370051384, 0.004160558804869652, 0.04765564575791359, -0.04500671476125717, -0.06628100574016571, 0.037629492580890656, -0.08208116888999939, 0.04902205988764763, -0.07529588043689728, -0.04447965323925018, -0.021219689399003983, 0.06760832667350769, -0.02949877642095089, 0.01530984416604042, 0.03350150212645531, -0.04585452377796173, 0.04899313673377037, -0.04014886915683746, 0.011866113170981407, -0.04313499480485916, 0.0034687910228967667, -0.01995474100112915, -0.0338190421462059, 0.014357047155499458, -0.03704073652625084, -0.005650694016367197, -0.017155207693576813, -0.008181929588317871, -0.010540306568145752, 0.01128256507217884], [0.03367091715335846, -0.057867541909217834, -0.0540473535656929, 0.03312923386693001, -0.0012576635926961899, 0.06142567843198776, -0.007587202824652195, -0.060005202889442444, 0.03185458108782768, 0.008454469963908195, 0.023226018995046616, 0.001377742737531662, -0.02073107659816742, 0.003750033676624298, -0.05509252846240997, -0.03218090906739235, -0.044893547892570496, 0.009039572440087795, -0.05951487272977829, 0.021596895530819893, -0.030497627332806587, -0.06063290685415268, 0.018620336428284645, -0.02259868010878563, -0.0745897889137268, 0.012885229662060738, 0.030929414555430412, 0.011015290394425392, -3.049708902835846e-05, 0.00831517018377781, 0.01727631688117981, -0.01454421691596508, 0.013108726590871811, 0.011855070479214191, -0.0048695276491343975, 0.014894440770149231, -0.01064816303551197, -0.04996554180979729, -0.059836495667696, -0.038951337337493896, 0.02709668129682541, 0.014836285263299942, 0.0028809290379285812, -0.03907227888703346, -0.07768572866916656, -0.05150608718395233, -0.03760334104299545, -0.017006319016218185, -0.0564945749938488, -0.06354318559169769, 0.05703185871243477, 0.0184697974473238, -0.02129085175693035, -0.016316276043653488, -0.07580561935901642, 0.07106588035821915, 0.014722723513841629, 0.03127364069223404, 0.010300109162926674, 0.00799437053501606, 0.01566709391772747, 0.008052516728639603, -0.00995616428554058, 0.05794926732778549, 0.04314364120364189, -0.019875336438417435, 0.01637021265923977, 0.020464260131120682, 0.024087131023406982, -0.06329735368490219, -0.04589921236038208, 0.02775125578045845, -0.030542535707354546, 0.015322456136345863, -0.06466994434595108, 0.04960327595472336, 0.007670348510146141, -0.040723975747823715, -0.013390591368079185, 0.0075883325189352036, -0.004228468984365463, -0.019533900544047356, 0.028042905032634735, -0.013311333954334259, -0.07288192957639694, -0.08186518400907516, -0.02578645944595337, 0.012180967256426811, 0.04303121939301491, 0.015714235603809357, 0.03157540410757065, -0.04842092841863632, -0.029586799442768097, -0.04613872990012169, -0.000804416835308075, 0.008246742188930511, -0.07946468144655228, 0.005856518168002367, -0.06849166005849838, -0.04854482784867287, 0.036040518432855606, 0.03653446212410927, -0.028684120625257492, -0.01767602004110813, 0.004351917654275894, -0.04547298699617386, -0.06985979527235031, 0.05089277774095535, -0.07401078194379807, -0.029144911095499992, 0.018858538940548897, -0.005212921183556318, -0.06619832664728165, 0.06773727387189865, -0.016769183799624443, 0.05643610283732414, -0.061496421694755554, -0.025515852496027946, -0.025319162756204605, 0.018357928842306137, -0.002171836793422699, 0.00926501676440239, 0.009802455082535744, -0.031628333032131195, -0.03678523004055023, -0.05108768120408058, -0.005478013306856155, 0.05546189099550247], [0.04830930009484291, 0.001810077577829361, 0.01565505377948284, -0.02264649234712124, -0.043570999056100845, -0.057629480957984924, -0.007300669327378273, 0.04077005386352539, -0.05791411176323891, 0.02511751279234886, -0.05752205103635788, 0.01419958844780922, -0.11813916265964508, -0.010514255613088608, 0.011655086651444435, 0.056222863495349884, -0.011039001867175102, -0.022818176075816154, 0.01681009866297245, -0.01067611388862133, 0.00483823474496603, 0.047605764120817184, 0.12240532040596008, 0.061464883387088776, 0.044774990528821945, -0.00991734117269516, -0.030280092731118202, 0.025552600622177124, 0.03602323681116104, 0.029395412653684616, 0.03223003074526787, 0.025058884173631668, -0.04888533800840378, -0.03169327229261398, 0.0482051856815815, -0.002776380628347397, 0.012505852617323399, 0.03608336299657822, 0.048116251826286316, -0.020888280123472214, -0.007674168795347214, -0.0034116916358470917, 0.0440744012594223, -0.005833407863974571, 0.053876981139183044, 0.013511110097169876, -0.0003421008586883545, 0.021461186930537224, 0.07947912812232971, 0.022484932094812393, 0.020540740340948105, 0.017529234290122986, -0.018727708607912064, -0.05094124749302864, -0.041590139269828796, -0.05148332566022873, -0.06304410845041275, -0.0985807329416275, -0.02201053313910961, 0.003720546141266823, 0.09096965938806534, -0.04227197915315628, 0.004201572388410568, -0.06219891086220741, -0.011182666756212711, -0.0060452185571193695, -0.09562057256698608, -0.011336571536958218, 0.07559488713741302, 0.03485343977808952, 0.025722354650497437, 0.009650062769651413, -0.055371277034282684, -0.062298454344272614, -0.007278243079781532, -0.021310018375515938, -0.013029532507061958, -0.037039075046777725, -0.02354222908616066, -0.005042737815529108, 0.02888542413711548, -0.07163327932357788, 0.06820609420537949, 0.03066268563270569, -0.09453830122947693, 0.024526681751012802, 0.05701542645692825, -0.004709804430603981, 0.014649279415607452, -0.04224434122443199, 0.03195018693804741, -0.00036068959161639214, -0.002600335516035557, -0.03225170075893402, -0.02812952734529972, -0.03142469376325607, 0.07145029306411743, -0.08420826494693756, -0.041364070028066635, -0.023221667855978012, 0.0026500485837459564, 0.014464056119322777, 0.03673825412988663, 0.018859338015317917, 0.007562289014458656, 0.07702990621328354, -0.049668967723846436, 0.014524875208735466, -0.059244122356176376, -0.005431540310382843, 0.06527306884527206, -0.04245999455451965, 0.005790274124592543, 0.008076135069131851, -0.020816609263420105, -0.009124343283474445, -0.03697412088513374, 0.009939695708453655, 0.04276946932077408, 0.002518655266612768, 0.006335807032883167, 0.03574201092123985, 0.010302431881427765, 0.03724680840969086, -0.01976681314408779, 0.06614400446414948, 0.027743270620703697, 0.023575466126203537], [-0.03595752269029617, 0.03653883561491966, 0.04138854518532753, 0.03320901840925217, -0.00867512822151184, -0.03767694905400276, -0.02548365294933319, 0.06251328438520432, -0.021561508998274803, -0.0031566843390464783, -0.047720570117235184, 0.04594928398728371, -0.008665591478347778, -0.0810246467590332, -0.047497302293777466, -0.04256270453333855, 0.03639065474271774, -0.013355694711208344, 0.006654240190982819, -0.049430135637521744, -0.004614438861608505, -0.04159433767199516, -0.044399090111255646, 0.014020498842000961, 0.011516604572534561, 0.01518943440169096, 0.05409971997141838, -0.04676395282149315, 0.027501637116074562, 0.005360022187232971, -0.008026599884033203, -0.012481478042900562, -0.03374824672937393, 0.0057797785848379135, -0.003835979849100113, -0.08847479522228241, 0.00019228458404541016, -0.09011095017194748, 0.03867059573531151, -0.05239691585302353, -0.02548045665025711, 0.002063189633190632, 0.007148249074816704, -0.04116500914096832, -0.012173548340797424, 0.011397033929824829, -0.025318801403045654, 0.029327504336833954, -0.03470180556178093, -0.06041676551103592, -0.0009790807962417603, -0.07500258088111877, 0.015845084562897682, -0.02131957747042179, 0.022199589759111404, -0.010773519054055214, -0.0059775616973638535, -0.03127369284629822, 0.03419474884867668, -0.023052774369716644, 0.030291594564914703, -0.025027526542544365, 0.03437310457229614, -0.07378596067428589, -0.018921662122011185, -0.006728213280439377, -0.025870775803923607, 0.016600999981164932, 0.0017309589311480522, -0.014451157301664352, -0.01647835597395897, 0.018406875431537628, 0.044250741600990295, -0.053990792483091354, 0.018984001129865646, 0.009405851364135742, 0.0786714106798172, -0.022224128246307373, 0.010196472518146038, -0.05174762010574341, 0.03199469670653343, -0.025653012096881866, 0.007239539176225662, -0.023178275674581528, -0.03898770734667778, -0.06803393363952637, -0.036305226385593414, -0.059360478073358536, -0.025715012103319168, -0.05189201980829239, -0.026092058047652245, 0.012038562446832657, 0.013544227927923203, -0.059995900839567184, -0.052993401885032654, -0.09438908100128174, -0.04580618441104889, 0.03592332452535629, 0.017103370279073715, -0.015422793105244637, 0.008918091654777527, -0.003963032737374306, 0.009277567267417908, -0.04280926659703255, -0.007563132792711258, -0.021673670038580894, -0.07190795242786407, -0.06535256654024124, -0.04072307050228119, 0.007408296689391136, -0.03871060907840729, -0.09280671179294586, -0.004975661635398865, -0.0418047159910202, -0.006459730677306652, -0.022686956450343132, -0.03185078129172325, 0.03948424011468887, 0.009121018461883068, -0.004422694444656372, 0.01499413512647152, 0.02757817879319191, 0.04137104004621506, -0.04413633048534393, 0.004949793219566345, -0.049676813185214996, -0.04823518544435501, -0.019799120724201202], [0.021207954734563828, -0.045533180236816406, -0.002081390470266342, 0.02478313259780407, 0.07627148926258087, -0.0478530153632164, 0.027540909126400948, -0.03373310714960098, -0.0018623173236846924, 0.012428892776370049, -0.010708612389862537, -0.02995894104242325, 0.030419668182730675, -0.0269840806722641, -0.04929466173052788, -0.036175087094306946, 0.010666882619261742, 0.03608115762472153, -0.08075419813394547, 0.026801323518157005, -0.02309209108352661, -0.0587010383605957, 0.035079292953014374, 0.1082763746380806, 0.003217581659555435, -0.020129533484578133, -0.02339225262403488, 0.05459398031234741, -0.021750558167696, 0.04379113018512726, -0.03420693799853325, 0.01672423630952835, -0.06889785081148148, 0.024627596139907837, -0.002719823271036148, -0.03892708197236061, 0.040742386132478714, -0.04326159134507179, -0.022619977593421936, -0.01480584591627121, -0.07447703927755356, 0.08101919293403625, -0.06639944761991501, -0.01309849601238966, 0.05221857875585556, -0.05110619589686394, 0.0020530568435788155, 0.06671154499053955, 0.05466974526643753, -0.007309011183679104, 0.002069413661956787, -0.03648437187075615, -0.02919606864452362, 0.015417537651956081, 0.009354503825306892, 0.011588281020522118, 0.06454598158597946, 0.03705036640167236, 0.0006796605885028839, 0.043582651764154434, 0.04670499265193939, -0.025138119235634804, -0.03500886633992195, 0.0659964382648468, -0.01975318416953087, 0.020720669999718666, 0.038509778678417206, -0.042060818523168564, -0.002264421433210373, 0.014824997633695602, -0.021737612783908844, -0.02045031264424324, -0.03487628698348999, 0.03504135459661484, -0.028833122923970222, -0.03218984603881836, -0.002873636782169342, 0.0050446223467588425, 0.038689084351062775, 0.04230699688196182, 0.012844158336520195, -0.0036503225564956665, -0.0797177255153656, 0.02590828202664852, -0.09904339909553528, -0.01665361411869526, 0.0866352990269661, -0.07366697490215302, 0.03045566752552986, 0.06379251927137375, 0.0072363801300525665, 0.05811873823404312, 0.013516891747713089, 0.06143128126859665, 0.0320744514465332, 0.005845662206411362, 0.01097446121275425, -0.006279858760535717, 0.008519193157553673, 0.049380749464035034, -0.0021766386926174164, -0.03159899264574051, 0.024501558393239975, -0.041490670293569565, -0.0030297115445137024, -0.043715737760066986, 0.012737730517983437, 0.04916555434465408, 0.01643509790301323, 0.03233829513192177, -0.037330299615859985, -0.016996270045638084, 0.04404738172888756, 0.025551890954375267, 0.00461997278034687, -0.004110175184905529, 0.07178378850221634, -0.02280549146234989, -0.0007757209241390228, -0.024953460320830345, -0.07941703498363495, -0.08188999444246292, 0.06829524785280228, -0.026185641065239906, 0.02356259524822235, 0.03064851090312004, 0.07000710815191269, -0.03972277417778969], [0.002780027687549591, -0.03277372568845749, -0.024165069684386253, 0.011819625273346901, -0.04469851776957512, 0.014500805176794529, -0.0243384949862957, -0.027773236855864525, -0.005438597872853279, -0.012492910027503967, 0.008823113515973091, -0.0016335956752300262, -0.03514920547604561, -0.004500942304730415, -0.014251933433115482, 0.02808094210922718, -0.07162609696388245, 0.05117524042725563, 0.04362282529473305, -0.0535159707069397, 0.015563808381557465, -0.0841665118932724, -0.028990207239985466, -0.024813946336507797, -0.048544034361839294, 0.02031623013317585, 0.06818550825119019, -0.05180810019373894, -0.06402060389518738, 0.027526605874300003, -0.02350534498691559, 0.021962691098451614, -0.04051096364855766, -0.020059339702129364, 0.06698727607727051, -0.013137567788362503, -0.03801971673965454, -0.014480254612863064, 0.02817435935139656, 0.021775390952825546, 0.004624411463737488, -0.03543899953365326, -0.04408612102270126, 0.04933701455593109, -0.031613584607839584, -0.0002945028245449066, -0.03533823788166046, -0.042070820927619934, -0.03674464300274849, -0.03419822081923485, -0.0554356649518013, -0.07190918922424316, -0.019556142389774323, -0.01953989267349243, -0.008831409737467766, 0.02022058703005314, -0.007855378091335297, -0.03500060364603996, 0.00046633556485176086, 0.008390035480260849, -0.012799181044101715, -0.04957222193479538, -0.03340770676732063, 0.01605530083179474, 0.002342958003282547, -0.014352628961205482, -0.016189303249120712, -0.04883597418665886, -0.01661504991352558, 0.0218275785446167, -0.0375964418053627, -0.026338763535022736, -0.0009062048047780991, -0.0011389472056180239, -0.0633939877152443, 0.013930590823292732, -0.03170279040932655, -0.009448743425309658, 0.025513142347335815, 0.001526571810245514, 0.013249472714960575, -0.061856746673583984, -0.0580730177462101, -8.011609315872192e-05, -0.027753593400120735, -0.08249755203723907, 0.037593916058540344, -0.007373705506324768, 0.028032170608639717, 0.030785970389842987, 0.02427855134010315, -0.0010742384474724531, -0.02582862786948681, 0.03444294631481171, -0.056545332074165344, 0.09328189492225647, 0.039305463433265686, -0.03305564448237419, -0.03184843435883522, 0.025083761662244797, -0.027836386114358902, -0.04220842197537422, 0.04115477576851845, -0.0009664595127105713, -0.0175449438393116, -0.0815727710723877, -0.02413732185959816, 0.02031688578426838, -0.0469389446079731, -0.0031216777861118317, -0.004559169057756662, 0.03344792500138283, -0.031126752495765686, 0.004752025939524174, 0.017304960638284683, -0.0015603168867528439, 0.038524553179740906, 0.005853472277522087, -0.02791036292910576, 0.017448581755161285, -0.03285197913646698, -0.031974803656339645, -0.0026713013648986816, 0.03338783234357834, -0.03030685894191265, 0.0031723380088806152, -0.043757446110248566, -0.081258624792099], [-0.10064548999071121, 0.04264577478170395, 0.05261465907096863, 0.04952704906463623, -0.02602151408791542, -0.08951053768396378, 0.009243298321962357, -0.05588117241859436, 0.02145625650882721, -0.03599661588668823, 0.04323907941579819, -0.0005269050598144531, 0.019127139821648598, 0.017141366377472878, 0.023720387369394302, 0.004701800644397736, 0.02013593539595604, -0.0307932086288929, -0.057134222239255905, 0.03869718685746193, -0.04324107617139816, -0.04690629988908768, -0.04891899973154068, -0.0031564245000481606, 0.009147053584456444, 0.02799961343407631, 0.02534090355038643, -0.017749715596437454, -0.04850116744637489, -0.05964086949825287, -0.0498567596077919, -0.010174493305385113, -0.07656268775463104, -0.06596716493368149, 0.003002658486366272, -0.007451941724866629, 0.02561432495713234, -0.006831363774836063, 0.01930410787463188, 0.017681563273072243, 0.01756899058818817, 0.0026927385479211807, -0.028458954766392708, -0.08233382552862167, -0.05510329455137253, -0.0474795438349247, -0.003143787384033203, 0.01194823533296585, -0.04085245355963707, 0.005593440495431423, 0.07053884863853455, -0.054246935993433, -0.030575836077332497, -0.02688433974981308, -0.05355793610215187, 0.04552837461233139, 0.022025667130947113, -0.05536162480711937, -0.04361052066087723, 0.07782689481973648, -0.006427390035241842, -0.0019553732126951218, 0.021526001393795013, -0.05279017239809036, -0.09673537313938141, -0.08642633259296417, 0.0008336091414093971, -0.053041212260723114, 0.04308866709470749, -0.05007145181298256, -0.032768066972494125, -0.016383465379476547, -0.07164864242076874, -0.010270977392792702, -0.023511353880167007, -0.003674462903290987, 0.024691272526979446, -0.0017636939883232117, -0.01297637727111578, 0.003631001338362694, -0.05517685040831566, -0.00047100288793444633, -0.035422977060079575, -0.008404092863202095, 0.0034400480799376965, 0.04347012937068939, -0.023314934223890305, -0.07159443944692612, 0.01095854863524437, -0.044050298631191254, 0.03299899399280548, 0.03393865376710892, 0.08609600365161896, -0.021245913580060005, 0.0010438468307256699, -0.028901010751724243, -0.011008281260728836, 0.006172439083456993, -0.05833044648170471, -0.0071570370346307755, -0.010588937439024448, -0.07070424407720566, -0.014671088196337223, -0.02701977826654911, 0.016695968806743622, -0.029107404872775078, -0.003183807246387005, 0.003636975772678852, -0.05953272059559822, -0.07851878553628922, -0.052055928856134415, 0.060855161398649216, -0.0037556327879428864, -0.038175441324710846, -0.016583334654569626, -0.026950472965836525, -0.07282350212335587, 0.024938663467764854, -0.003050830215215683, 0.0378599688410759, 0.04253819212317467, 0.03419904410839081, -0.018499329686164856, -0.01754799112677574, 0.03757297247648239, -0.02030768245458603, -0.01731189154088497, -0.0538291335105896], [0.07004384696483612, -0.03394249081611633, 0.03172462061047554, -0.07465092092752457, -0.06206726282835007, -0.05623680353164673, 0.0586690716445446, 0.017743494361639023, 0.019109051674604416, 0.037061721086502075, 0.05461663380265236, -0.004082315135747194, -0.016467450186610222, 0.046693190932273865, 0.009815063327550888, -0.03865751996636391, -0.01536595355719328, -0.035612814128398895, 0.04063718020915985, 0.016960695385932922, -0.02768285572528839, -0.08645350486040115, -0.0018939077854156494, 0.07990475744009018, -0.058670755475759506, 0.046108271926641464, -0.042671967297792435, -0.0441284216940403, -0.10641391575336456, 0.017416179180145264, -0.027374211698770523, 0.022160865366458893, 0.04362138360738754, 0.054125115275382996, -0.07587156444787979, -0.052964430302381516, -0.0006983168423175812, -0.10690448433160782, 0.006395440548658371, -0.03714887797832489, -0.024304229766130447, -0.04545650631189346, 0.013264203444123268, 0.02395353466272354, 0.07588379085063934, 0.1045214831829071, 0.04228733107447624, 0.018020838499069214, -0.020156266167759895, 0.07671602815389633, 0.03550286591053009, -0.009776029735803604, -0.020222075283527374, 0.020533880218863487, 0.029605362564325333, 0.03036954440176487, 0.028276100754737854, -0.09387969225645065, -0.008518559858202934, -0.0917007178068161, 0.11917826533317566, -0.0017062481492757797, -0.04771173372864723, -0.04659724980592728, -0.00467204675078392, 0.07379665225744247, 0.010712122544646263, -0.049645066261291504, -0.08352544903755188, -0.022007664665579796, -0.06633830070495605, -0.03536755219101906, 0.003155358135700226, -0.015882115811109543, 0.012554405257105827, 0.0240393728017807, -0.08168826252222061, 0.024506814777851105, 0.0030245203524827957, 0.003086615353822708, -0.03504449129104614, -0.07188329100608826, 0.054226383566856384, -0.09162189066410065, -0.017450638115406036, 0.035843104124069214, -0.019162729382514954, -0.034254759550094604, -0.0260029137134552, 0.0029745474457740784, -0.007743017747998238, -0.011627085506916046, -0.03149934858083725, 0.01070915162563324, 0.10330501943826675, -0.05349912866950035, 0.028419284150004387, -0.026786059141159058, -0.033162739127874374, -0.003357307519763708, -0.03485483676195145, 0.0407034307718277, -0.01195749081671238, 0.06928059458732605, 0.007060271687805653, -0.0021266192197799683, 0.06113345921039581, 0.033815134316682816, -0.014049041084945202, -0.030772587284445763, -0.01998988538980484, -0.008180923759937286, 0.008474411442875862, 0.02250570058822632, -0.001826183870434761, -0.03334582969546318, -0.007988762110471725, -0.08063535392284393, 0.03195570781826973, 0.04961634427309036, 0.05498965084552765, -0.027265328913927078, -0.06911835074424744, 0.01956012472510338, 0.024987690150737762, 0.016335375607013702, 0.014660438522696495, 0.0341758131980896], [-0.032633572816848755, 0.06305330991744995, -0.035045213997364044, 0.014888182282447815, 0.026057254523038864, 0.06725116074085236, 0.016445914283394814, 0.005944002419710159, -0.04965587705373764, 0.03292090445756912, -0.046224936842918396, -0.0745994970202446, 0.011548285372555256, -0.011983256787061691, 0.037403784692287445, -0.008322392590343952, 0.022916045039892197, 0.043102748692035675, -0.010178636759519577, -0.10058347135782242, -0.0338987335562706, 0.05323173850774765, -0.09307924658060074, -0.014309827238321304, 0.016078229993581772, -0.02180391550064087, -0.053228139877319336, 0.06049983203411102, -0.05167018622159958, -0.041121162474155426, -0.07907653599977493, -0.07691527158021927, -0.0061763254925608635, 0.047001127153635025, -0.07399403303861618, -0.008508386090397835, -0.002022496424615383, -0.00932605192065239, 0.026280289515852928, 0.019551150500774384, 0.023008057847619057, -0.03946836665272713, 0.02580435387790203, -0.0148793775588274, -0.015014346688985825, -0.0899108350276947, -0.040291015058755875, 0.006414604838937521, 0.018812034279108047, -0.019207559525966644, 0.03952619433403015, -0.10079209506511688, -0.026086051017045975, 0.04841122031211853, -0.03302546963095665, 0.02771179750561714, 0.010549169033765793, 0.05499767139554024, -0.01849569007754326, 0.009205185808241367, 0.0035559823736548424, 0.046009354293346405, 0.0025982242077589035, -0.008355089463293552, -0.0053931307047605515, 0.03180323913693428, -0.04043801128864288, -0.0038397088646888733, 0.0663762241601944, 0.013609973713755608, 0.03414560854434967, 0.006542125716805458, -0.06439871340990067, 0.006346456706523895, -0.01565152034163475, -0.0009033940732479095, 0.01090141199529171, 0.034318745136260986, -0.10109123587608337, 