{"model.0.weight": [[-0.06254579871892929, 0.06561993062496185, 0.057399772107601166, -0.032242752611637115, 0.06061175838112831, 0.22920775413513184, -0.15086659789085388, -0.04936403036117554, -0.18962767720222473, -0.12828795611858368, 0.002245165640488267, -0.28395718336105347, -0.07556251436471939, 0.13647077977657318, 0.024055736139416695, -0.10454262793064117, -0.053519003093242645, 0.09099885821342468, -0.03879313915967941, 0.05177733674645424], [-0.15117798745632172, 0.13189922273159027, 0.06585671007633209, 0.1443905234336853, -0.019125444814562798, 0.02904914878308773, 0.011303529143333435, 0.05906907469034195, 0.01086459681391716, -0.22625623643398285, -0.09653834253549576, -0.017214009538292885, 0.1953863501548767, -0.09657367318868637, -0.21626612544059753, -0.060175955295562744, 0.05449816584587097, 0.029810050502419472, 0.06677014380693436, -0.13900230824947357], [-0.00784408301115036, 0.17452946305274963, 0.02968480810523033, 0.0133958850055933, -0.07661111652851105, -0.04116423428058624, 0.04044962301850319, 0.09045041352510452, -0.059880249202251434, -0.09391945600509644, 0.04197096824645996, 0.027306532487273216, 0.05626446753740311, 0.059914350509643555, 0.08220832049846649, -0.009701453149318695, 0.27737927436828613, 0.09207930415868759, 0.05141622945666313, -0.14639350771903992], [0.08230413496494293, -0.08070795238018036, -0.09854613244533539, -0.044529084116220474, -0.1541203111410141, -0.1855616569519043, -0.03794129192829132, 0.020405031740665436, 0.21248410642147064, -0.02680266834795475, -0.17357775568962097, 0.15458841621875763, -0.11454592645168304, -0.07446189224720001, 0.013959483243525028, -0.1129770427942276, -0.013130583800375462, -0.11476165056228638, -0.1574748307466507, 0.01463429443538189], [0.009468923322856426, -0.17871958017349243, -0.0901215672492981, 0.039589133113622665, -0.02918069064617157, -0.08350106328725815, -0.044954366981983185, -0.18553845584392548, 0.019846227020025253, -0.0640469491481781, 0.06697575747966766, 0.02730620838701725, 0.08743905276060104, -0.17253488302230835, -0.012926734983921051, 0.07406572252511978, -0.17462143301963806, 0.01859743893146515, 0.0981316864490509, -0.08066561818122864], [-0.011110641062259674, 0.21283501386642456, -0.2316744476556778, -0.0018401214620098472, -0.015242012217640877, -0.07476755231618881, 0.001802078913897276, 0.04967507719993591, 0.015213150531053543, 0.04318753257393837, 0.09444598108530045, 0.17592056095600128, -0.021569620817899704, 0.15856778621673584, 0.06340433657169342, -0.1020021140575409, -0.0013844582717865705, 0.055141907185316086, -0.015593945048749447, 0.03555567190051079], [0.13127779960632324, -0.08534351736307144, 0.050915881991386414, 0.0033988861832767725, 0.1275128424167633, 0.1536947786808014, 0.054847970604896545, 0.08509466797113419, 0.032616280019283295, 0.0028207367286086082, 0.09375070035457611, -0.1859939694404602, -0.022680452093482018, 0.1345873475074768, 0.025194594636559486, 0.1271386593580246, 0.0417100265622139, 0.049250926822423935, -0.1368153840303421, -0.02035757154226303], [-0.06675747781991959, -0.09632150083780289, 0.1754699945449829, -0.03419596701860428, -0.027168534696102142, -0.0688670352101326, 0.0960836336016655, 0.03833308070898056, -0.1878119856119156, -0.12055440992116928, 0.03446227312088013, -0.043843090534210205, 0.06703189760446548, -0.03918013349175453, -0.015517611987888813, -0.0621773786842823, 0.15430279076099396, -0.19009679555892944, -0.10811073333024979, -0.0020848221611231565], [0.11561998724937439, 0.1112382635474205, -0.04519807919859886, -0.02321741357445717, 0.0066676982678473, -0.06340903788805008, -0.0836217924952507, -0.09248805046081543, 0.17656223475933075, -0.09424024820327759, -0.14380963146686554, 0.016102639958262444, 0.008125688880681992, 0.1353631317615509, 0.06477262824773788, 0.13616040349006653, 0.08825729042291641, -0.009802356362342834, -0.01708630844950676, 0.06999307125806808], [-0.08520863950252533, 0.02309955097734928, -0.12853774428367615, -0.06645878404378891, -0.056816525757312775, 0.046096302568912506, 0.08299298584461212, -0.099634550511837, 0.0229484923183918, -0.039158567786216736, -0.22264499962329865, 0.14885051548480988, 0.07697483152151108, 0.014682573266327381, 0.17949403822422028, -0.043264441192150116, -0.16829636693000793, -0.09236268699169159, 0.05574396252632141, 0.01554607879370451], [0.15381589531898499, 0.09298751503229141, 0.0918704941868782, -0.10964460670948029, -0.06710968166589737, -0.06509958952665329, -0.06920080631971359, -0.0406816303730011, -0.14714017510414124, -0.040122829377651215, -0.08368289470672607, 0.059532471001148224, -0.10432403534650803, 0.13644123077392578, -0.12179655581712723, -0.01891929656267166, -0.020156292244791985, -0.08087047934532166, -0.02602977119386196, 0.11209525913000107], [0.00304751587100327, -0.048595041036605835, 0.12578177452087402, -0.12222012132406235, -0.012098627164959908, 0.14712078869342804, 0.17016947269439697, 0.13464301824569702, -0.0826529935002327, -0.03202072158455849, 0.06096109747886658, 0.11029435694217682, -0.07433511316776276, 0.13772200047969818, -0.014298200607299805, -0.025093114003539085, -0.07242736965417862, 0.02485882304608822, 0.0030709917191416025, 0.03323144465684891], [-0.045170776546001434, -0.005675746593624353, -0.11823666840791702, 0.05189146474003792, 0.07460711896419525, 0.14064620435237885, -0.04008209705352783, -0.036747969686985016, 0.06891129165887833, 0.23996666073799133, -0.03419852256774902, -0.14184050261974335, 0.05759168788790703, -0.017320750281214714, 0.07352058589458466, 0.08415734767913818, -0.04368283599615097, 0.009755769744515419, -0.05849776417016983, 0.1115923672914505], [-0.07039560377597809, 0.058119695633649826, -0.0029159532859921455, -0.07220152020454407, -0.016732200980186462, 0.0814237967133522, 0.07098662853240967, -0.162862628698349, 0.0868413969874382, -0.04582811892032623, 0.04796920344233513, -0.06241569295525551, -0.017096050083637238, 0.07248996198177338, -0.08043376356363297, 0.00330584729090333, -0.020356344059109688, -0.11630862951278687, 0.04997710511088371, 0.07743358612060547], [0.0769418403506279, -0.19347833096981049, 0.03474858030676842, -0.04300685599446297, 0.14586570858955383, -0.18144182860851288, -0.15529608726501465, -0.032856784760951996, -0.14791041612625122, 0.20416148006916046, -0.1107296347618103, -0.13618627190589905, -0.004192904569208622, -0.04049043357372284, 0.09475921839475632, 0.20999625325202942, 0.018874667584896088, 0.10450221598148346, -0.023798983544111252, -0.0337337888777256], [0.19292764365673065, 0.05734434723854065, -0.1621914654970169, 0.11004900187253952, 0.09474381059408188, -0.07368800789117813, 0.01700836420059204, 0.03955915570259094, 0.13055004179477692, 0.01955651119351387, -0.06284734606742859, 0.015536121092736721, 0.013194572180509567, 0.15274405479431152, 0.0389920175075531, 0.08741454035043716, -0.11557833850383759, -0.030154991894960403, -0.004665241576731205, -0.07842031866312027], [-0.05956486985087395, 0.023370835930109024, -0.003699543187394738, 0.1257099062204361, 0.023640472441911697, -0.05374680832028389, 0.022804779931902885, 0.03888221085071564, -0.10562387108802795, -0.09199490398168564, 0.07423542439937592, 0.03990038111805916, 0.021524660289287567, -0.03713921830058098, 0.1014874055981636, 0.043674081563949585, 0.043725430965423584, 0.010531790554523468, -0.07559118419885635, 0.1711784452199936], [-0.061711471527814865, 0.07133825123310089, -0.15170538425445557, 0.05654578655958176, -0.19382700324058533, -0.021103432402014732, 0.09531103074550629, 0.1702498346567154, 0.04018183797597885, -0.12477397918701172, 0.02206221967935562, -0.040871258825063705, -0.11823059618473053, -0.09442514926195145, -0.07907266169786453, 0.09357530623674393, -0.009100565686821938, 0.15513509511947632, 0.08201681077480316, 0.020832503214478493], [0.0480954572558403, 0.18506509065628052, -0.08833837509155273, -0.14066031575202942, -0.1615242213010788, -0.03546424210071564, 0.06288693100214005, 0.21484465897083282, 0.05059921368956566, -0.023299317806959152, -0.006094472482800484, -0.04287422075867653, 0.08399367332458496, -0.1631229668855667, 0.06332217901945114, 0.08281978964805603, 0.0369926393032074, -0.025544023141264915, 0.06692542135715485, 0.048693764954805374], [0.1507614254951477, 0.005284772254526615, 0.016258902847766876, 0.030081527307629585, -0.03830307722091675, -0.07923623919487, 0.12109830975532532, 0.15806299448013306, 0.10199130326509476, -0.11537162959575653, 0.06348340213298798, 0.03748171031475067, 0.056404948234558105, 0.0014128154143691063, 0.047773852944374084, -0.055455319583415985, 0.00874372012913227, 0.21796679496765137, 0.04491671547293663, -0.1782788336277008], [-0.03848535194993019, -0.1415206342935562, 0.0031099165789783, -0.03302871435880661, 0.061881616711616516, 0.15753298997879028, 0.05144727602601051, -0.14771877229213715, 0.038106340914964676, 0.04214252531528473, -0.08385753631591797, -0.05398263782262802, 0.011261277832090855, -0.04660515487194061, 0.20213010907173157, 0.10078718513250351, 0.06518861651420593, -0.04226627200841904, 0.08765828609466553, 0.00929280649870634], [0.0267789363861084, -0.010608047246932983, -0.17842644453048706, 0.036493510007858276, -0.15283572673797607, -0.03165499493479729, -0.061662159860134125, 0.2024986296892166, 0.0037584779784083366, -0.09282785654067993, 0.1086537092924118, -0.16064071655273438, -0.001020828727632761, 0.13195407390594482, -0.09758530557155609, 0.09622800350189209, -0.10273696482181549, 0.14918020367622375, 0.027666306123137474, -0.09425769001245499], [0.03676384687423706, 0.04917698726058006, 0.09782873839139938, -0.04799513891339302, -0.11581358313560486, -0.12594963610172272, 0.09691751003265381, 0.23071327805519104, -0.015059297904372215, 0.03332027047872543, 0.03799210488796234, -0.04424969479441643, 0.10065466165542603, -0.11706866323947906, 0.10177578777074814, -0.04267437756061554, 0.07189925014972687, 0.0988101065158844, 0.19514302909374237, 0.018739936873316765], [-0.0052055735141038895, -0.11877486109733582, -0.08685814589262009, 0.12376511842012405, 0.06257963925600052, 0.046712666749954224, -0.18091630935668945, -0.03513570502400398, 0.029652096331119537, -0.28918299078941345, -0.20811401307582855, -0.1893652379512787, -0.04381744936108589, -0.08208627253770828, 0.057204850018024445, 0.0022064538206905127, 0.10033700615167618, -0.03404324874281883, -0.20141562819480896, 0.010118953883647919], [-0.06645117700099945, -0.007008516229689121, 0.1404106467962265, 0.0945831835269928, -0.14416910707950592, 0.05846555158495903, -0.009142219088971615, -0.047294147312641144, 0.03373759239912033, -0.06669660657644272, 0.050427716225385666, -0.10627662390470505, 0.10255030542612076, -0.03387680649757385, 0.11210574209690094, -0.03650210052728653, 0.10178516805171967, 0.09525218605995178, 0.04060940816998482, 0.019475644454360008], [0.0938175693154335, -0.06793996691703796, -0.05054303631186485, -0.10446304082870483, -0.06440817564725876, -0.0551585853099823, -0.08812575042247772, 0.12553898990154266, 0.08952083438634872, -0.08165132999420166, -0.056783776730298996, -0.026984989643096924, -0.06506453454494476, 0.11072882264852524, 0.02696147933602333, 0.21484526991844177, 0.02798129804432392, -0.07829364389181137, 0.12866564095020294, 0.11656157672405243], [-0.13631433248519897, -0.007687820121645927, 0.11682581156492233, 0.14244377613067627, -0.006502362433820963, 0.08727607876062393, -0.06923256814479828, -0.1077154129743576, -0.04513472691178322, 0.10107400268316269, -0.030361877754330635, -0.08223088830709457, 0.04616137221455574, -0.11060307174921036, 0.12061668932437897, 0.1689201146364212, 0.016404660418629646, 0.010252623818814754, -0.059455398470163345, -0.04877128824591637], [0.11107099056243896, 0.1275385469198227, 0.034757133573293686, 0.11608969420194626, -0.0006583629292435944, 0.21858541667461395, -0.0777592658996582, -0.18340769410133362, -0.11236517131328583, -0.07612695544958115, 0.03787831589579582, 0.15140484273433685, 0.14751040935516357, 0.04409950226545334, 0.07140837609767914, -0.05002288520336151, 0.15548357367515564, -0.2222786396741867, 0.048356637358665466, -0.026470907032489777], [0.08987750113010406, -0.032165322452783585, 0.20944847166538239, -0.03970138356089592, -0.03341038152575493, 0.06499932706356049, -0.0736536979675293, 0.05171820521354675, -0.11212430149316788, 0.04797375574707985, 0.043917447328567505, 0.11697882413864136, -0.11491809785366058, 0.14512711763381958, -0.010626466013491154, -0.1101100891828537, 0.1907701939344406, -0.02562297321856022, 0.04086419939994812, -0.12376022338867188], [0.03144919499754906, 0.14230051636695862, 0.11426170915365219, 0.03340934216976166, -0.12493933737277985, 0.07783843576908112, -0.09270536154508591, 0.05722621828317642, 0.09441167861223221, 0.15383793413639069, -0.1014651283621788, -0.07072670757770538, 0.04019749164581299, -0.04560504108667374, -0.015206234529614449, 0.09112487733364105, 0.22394493222236633, 0.06298889219760895, 0.08246006816625595, -0.0813281461596489], [-0.07629835605621338, -0.1374172568321228, 0.034602973610162735, 0.026423979550600052, -0.05810977518558502, 0.15031616389751434, -0.1777903437614441, -0.045177072286605835, -0.022484295070171356, 0.07955703139305115, -0.07482270896434784, 0.03902842104434967, 0.08565326035022736, -0.01642359048128128, 0.07743758708238602, 0.11212814599275589, 0.08379831165075302, 0.018848927691578865, 0.1092863529920578, -0.075665183365345], [0.014849449507892132, -0.0184642244130373, 0.03597462177276611, -0.020992299541831017, 0.018828628584742546, 0.14972107112407684, 0.12716150283813477, 0.07538402825593948, -0.17229719460010529, -0.003998314030468464, -0.004253382794559002, -0.14523378014564514, 0.021851977333426476, 0.04494274780154228, -0.0899248719215393, 0.041198525577783585, 0.05052759498357773, -0.0040317559614777565, 0.08546888828277588, 0.03194985166192055], [0.05607781559228897, 0.03343726694583893, 0.06696347892284393, -0.1454046368598938, 0.12756803631782532, -0.0852668508887291, 0.1671869456768036, 0.1967349350452423, -0.09910231083631516, -0.11286036670207977, 0.10272031277418137, 0.1090649962425232, -0.04943143203854561, -0.05658356845378876, -0.05551343783736229, -0.10256662219762802, -0.16948139667510986, 0.03330797329545021, -0.11195779591798782, 0.034962207078933716], [-0.1500464677810669, 0.028521239757537842, -0.0519682951271534, -0.14638397097587585, -0.11021096259355545, -0.007419008761644363, 0.058108530938625336, -0.06626114249229431, 0.008218847215175629, 0.03799643740057945, -0.04899781197309494, 0.06271512806415558, 0.1296338140964508, 0.06191735714673996, -0.039471276104450226, 0.0755748450756073, 0.0616770014166832, -0.02488156594336033, 0.031050097197294235, -0.061667073518037796], [0.0087891835719347, -0.026664456352591515, 0.0078479815274477, 0.00921650230884552, 0.11291157454252243, 0.12521973252296448, -0.028332125395536423, -0.2076188325881958, -0.08813652396202087, -0.13634918630123138, -0.09284242987632751, 0.18455125391483307, 0.049586035311222076, 0.07807997614145279, 0.13845083117485046, 0.12271476536989212, -0.022843914106488228, 0.06777678430080414, -0.054508570581674576, -0.05554626137018204], [0.11030049622058868, -0.11069381237030029, -0.031422022730112076, 0.08903244882822037, -0.02668658085167408, -0.08669539541006088, 0.09699436277151108, 0.01893734000623226, 0.09693845361471176, 0.14650635421276093, 0.047678422182798386, 0.07618263363838196, -0.19824975728988647, 0.039314016699790955, 0.1065153032541275, -0.04140140861272812, -0.06951228529214859, -0.17224091291427612, 0.025564836338162422, 0.11212772876024246], [-0.08156433701515198, 0.16485364735126495, -0.06372416764497757, 0.2068139910697937, 0.07967044413089752, 0.049769505858421326, -0.035533394664525986, 0.1960868090391159, 0.07942269742488861, 0.1755090057849884, 0.06736580282449722, -0.04799918830394745, 0.0791352167725563, -0.03870491683483124, 0.010258644819259644, 0.0748504102230072, -0.13681769371032715, 0.12149794399738312, -0.04152131453156471, 0.06652689725160599], [-0.21332678198814392, -0.11184856295585632, 0.10789655148983002, -0.0633808821439743, 0.050647057592868805, -0.11225299537181854, 0.12146833539009094, 0.18254122138023376, 0.19364485144615173, -0.039978254586458206, -0.10563953965902328, 0.013370383530855179, 0.034381646662950516, 0.05547815561294556, 0.15671929717063904, -0.04577070102095604, -0.01811017282307148, -0.034349169582128525, -0.13366615772247314, -0.06085135042667389], [-0.04434601217508316, -0.04467708244919777, -0.11070974916219711, -0.036236200481653214, 0.013703769072890282, -0.019937751814723015, 0.05486244708299637, 0.045234568417072296, 0.0261518657207489, 0.0976521447300911, 0.01418555248528719, -0.020248880609869957, 0.04743249714374542, 0.1884981095790863, 0.12069404125213623, -0.0015031001530587673, 0.13269568979740143, -0.027360478416085243, -0.09269233793020248, -0.07271669805049896], [0.16423499584197998, 0.0015021242434158921, -0.04262269660830498, 0.11677197366952896, 0.0477009192109108, 0.09972107410430908, -0.11571851372718811, -0.06767239421606064, 0.029865406453609467, 0.02623823471367359, -0.048705801367759705, 0.09466688334941864, -0.08108790218830109, 0.11507949978113174, -0.0791269987821579, 0.2096211016178131, -0.13979221880435944, 0.2331685721874237, -0.010900571942329407, 0.023415174335241318], [-0.03058464638888836, -0.016813738271594048, -0.0956181138753891, 0.014974908903241158, 0.025825239717960358, -0.08550027012825012, 0.10528015345335007, -0.0729379951953888, -0.007355517707765102, -0.02061588130891323, -0.02322840876877308, 0.1708284616470337, -0.15547119081020355, 0.07412439584732056, -0.03133577108383179, 0.12146852910518646, 0.1734314113855362, 0.027924831956624985, 0.11704546958208084, 0.014379454776644707], [-0.022657454013824463, -0.1432677060365677, -0.19928254187107086, 0.04029902443289757, 0.028885409235954285, -0.04109425097703934, -0.12767378985881805, 0.09398120641708374, 0.0415622778236866, 0.003166947513818741, 0.039962079375982285, -0.14430871605873108, -0.07885722070932388, 0.14277619123458862, -0.020963672548532486, 0.005554952658712864, -0.027277350425720215, 0.004848578479140997, -0.03609628602862358, 0.0632404237985611], [0.027996260672807693, 0.02199515514075756, 0.10213218629360199, -0.0973563864827156, 0.12670977413654327, -0.05678827315568924, 0.17396990954875946, 0.17036761343479156, 0.214544877409935, -0.030051248148083687, 0.05640082806348801, -0.0051666609942913055, -0.155265212059021, -0.159768745303154, 0.13748061656951904, -0.16330856084823608, -0.1336512416601181, 0.07071450352668762, 0.06615763902664185, -0.0008822096278890967], [-0.17057228088378906, -0.08751086890697479, 0.05928235501050949, -0.04534631595015526, 0.04462408274412155, 0.015095670707523823, 0.08773738145828247, -0.07942778617143631, -0.0885184034705162, 0.11677705496549606, -0.13751094043254852, 0.09953346103429794, -0.14780935645103455, -0.16374924778938293, 0.15962068736553192, 0.04732103645801544, 0.028904326260089874, -0.009367512539029121, 0.16430625319480896, -0.03641821816563606], [-0.10328469425439835, 0.1712009459733963, 0.034091416746377945, -0.1695702224969864, 0.07124119251966476, -0.14145353436470032, -0.11051668226718903, -0.018377242609858513, -0.02816464751958847, -0.021617891266942024, -0.09510550647974014, 0.072285495698452, -0.05757904052734375, -0.1410800814628601, -0.015894703567028046, 0.2393757700920105, -0.08045358210802078, 0.005057462491095066, -0.18028777837753296, 0.0029730077367275953], [-0.22282956540584564, -0.0017894823104143143, 0.023918332532048225, -0.036160629242658615, -0.029575921595096588, -0.011777727864682674, -0.16527533531188965, 0.053142547607421875, 0.06853055208921432, -0.0780639797449112, -0.07964145392179489, -0.010893253609538078, 0.21929959952831268, 0.006575056351721287, -0.09667619317770004, -0.15648934245109558, -0.12336121499538422, 0.10309644043445587, 0.000428167637437582, -0.03049168549478054], [0.14560721814632416, 0.0038376031443476677, 0.0023468437138944864, -0.03738606348633766, 0.11171671003103256, 0.1602834016084671, 0.12542329728603363, -0.17926569283008575, 0.023191334679722786, 0.009495601989328861, 0.04167177528142929, -0.02606886625289917, -0.1021178588271141, 0.06333605200052261, -0.04660563915967941, 0.15362338721752167, -0.024050956591963768, 0.04441613331437111, -0.028741318732500076, 0.09918950498104095], [0.03046034835278988, 0.08063968271017075, -0.05702495574951172, 0.072540782392025, -0.1991618275642395, -0.10533669590950012, 0.0075609274208545685, 0.10470671206712723, -0.12589456140995026, 0.13099820911884308, 0.004918830003589392, 0.07004436105489731, -0.024029212072491646, 0.1682666391134262, -0.06389065086841583, 0.1555303931236267, 0.05667088180780411, -0.06991865485906601, 0.11091343313455582, 0.005792803131043911], [-0.04226076975464821, -0.05353913456201553, 0.1534496396780014, -0.1046079471707344, -0.011940555647015572, -0.20703527331352234, -0.1259220987558365, -0.11489454656839371, -0.21151013672351837, 0.1311599165201187, 0.0316135473549366, 0.0077847326174378395, -0.030072642490267754, -0.05714723467826843, 0.122969850897789, -0.07973683625459671, 0.014391053467988968, 0.0359950065612793, -0.12038642913103104, 0.013102391734719276], [0.001065433374606073, 0.09151042997837067, -0.14521576464176178, -0.11922148615121841, -0.19775868952274323, -0.15011247992515564, 0.08263400197029114, 0.18719524145126343, -0.02552240714430809, -0.044528357684612274, -0.13407564163208008, -0.07153985649347305, 0.14249646663665771, 0.002070158487185836, 0.019871747121214867, 0.07298165559768677, -0.005507517606019974, 0.08571338653564453, 0.007819266989827156, -0.11738140136003494], [-0.08200843632221222, 0.1702626496553421, -0.13624265789985657, 0.006211398169398308, -0.0629284530878067, 0.0101854857057333, 0.06389302760362625, 0.04276689141988754, 0.029972068965435028, 0.062126390635967255, 0.10519066452980042, 0.030495738610625267, 0.04743447154760361, -0.07838039845228195, 0.02410895936191082, -0.031175360083580017, -0.00282205268740654, 0.05515496805310249, -0.04011967405676842, -0.08935680985450745], [0.06559301167726517, -0.02388697676360607, -0.014605744741857052, -0.04794526472687721, 0.15749751031398773, 0.06532987207174301, 0.030775628983974457, -0.04776783287525177, -0.01572750136256218, -0.10657523572444916, -0.0862148329615593, 0.17661799490451813, -0.14663094282150269, 0.19469843804836273, -0.09690520912408829, 0.15534482896327972, 0.053890831768512726, -0.1334860920906067, 0.019222136586904526, -0.09370297938585281], [0.02325359731912613, -0.1243811845779419, -0.1662009358406067, 0.06526336818933487, -0.05397212505340576, 0.054456502199172974, -0.08301815390586853, -0.04593254253268242, -0.1428191363811493, 0.05574103817343712, 0.09741317480802536, 0.07987336814403534, -0.03289131447672844, -0.07056204974651337, -0.0006228137062862515, -0.06550003588199615, 0.0551726371049881, -0.06927613168954849, 0.054037246853113174, 0.024981651455163956], [-0.07912654429674149, -0.022350963205099106, -0.011742188595235348, -0.22327551245689392, -0.12681657075881958, -0.19137133657932281, 0.07900910079479218, 0.09126583486795425, 0.08180485665798187, -0.12674804031848907, 0.1570424735546112, 0.026605265215039253, 0.08024469017982483, 0.10891023278236389, -0.03404605761170387, 0.053484998643398285, 0.0011192262172698975, 0.01278159860521555, -0.00959758274257183, 0.07779216021299362], [0.00676161702722311, 0.12331710010766983, -0.050447769463062286, 0.04980695992708206, 0.1006457582116127, -0.0727720856666565, -0.26358526945114136, 0.04065613076090813, 0.061079271137714386, -0.09850716590881348, -0.2523605525493622, -0.06140189245343208, 0.07515934109687805, -0.12853941321372986, 0.011742772534489632, 0.071324922144413, 0.12588852643966675, 0.09474742412567139, 0.11039013415575027, 0.003916640765964985], [0.05046794191002846, 0.072141632437706, 0.16310752928256989, 0.1133766621351242, -0.027624445036053658, -0.1513318568468094, -0.02843640372157097, -0.08060012012720108, 0.0045201461762189865, 0.1285102367401123, 0.1320076733827591, 0.004141359124332666, -0.14266450703144073, -0.16314196586608887, -0.03184167668223381, 0.15871934592723846, -0.01182802114635706, 0.011432564817368984, -0.18829628825187683, 0.015757163986563683], [0.021008674055337906, 0.04924212023615837, 0.12567707896232605, 0.15412691235542297, 0.013516250066459179, 0.059986140578985214, -0.07557222247123718, -0.029973648488521576, -0.0842532217502594, -0.026187947019934654, 0.13217595219612122, -0.031625933945178986, 0.11154687404632568, 0.17405834794044495, -0.04443929344415665, -0.05531745031476021, -0.0805610939860344, 0.13344775140285492, 0.13753163814544678, 0.00024512334493920207], [-0.04117889702320099, -0.0037002654280513525, 0.11959274113178253, 0.15513160824775696, 0.1087864339351654, -0.010242634452879429, 0.06108621880412102, 0.04564501717686653, -0.05937700346112251, -0.101725734770298, -0.04305442422628403, -0.12179447710514069, 0.03606981039047241, -0.09148020297288895, -0.1636049598455429, -0.05965524911880493, 0.05745156481862068, 0.004444018471986055, 0.04729781672358513, -0.13260111212730408], [-0.15530915558338165, -0.20889602601528168, 0.049791619181632996, -0.024379834532737732, 0.17351529002189636, -0.06034407392144203, 0.024426192045211792, 0.008985742926597595, 0.04286779835820198, 0.06706896424293518, -0.09370693564414978, 0.04515429213643074, -0.0959605723619461, -0.10065747797489166, -0.12242308259010315, 0.10317853093147278, -0.14082454144954681, -0.19625915586948395, -0.08217006921768188, 0.06766270846128464], [-0.0009610470151528716, 0.1876537799835205, -0.08911211043596268, 0.046327266842126846, 0.037081435322761536, 0.12289375811815262, 0.09471394121646881, -0.10918421298265457, -0.03808910772204399, -0.08084412664175034, 0.07318561524152756, -0.08530189841985703, -0.20940592885017395, -0.08250826597213745, -0.002437836490571499, -0.002420780947431922, -0.02767099067568779, -0.3400443196296692, -0.11518596112728119, -0.048589833080768585], [-0.04238807037472725, 0.0777721181511879, 0.07525581121444702, -0.15881069004535675, -0.08248046040534973, -0.1296789050102234, 0.0030010072514414787, 0.05233178287744522, -0.042904533445835114, -0.057954080402851105, 0.026559358462691307, -0.004134366288781166, 0.005696507170796394, 0.03786785155534744, 0.07811751216650009, -0.1021764874458313, 0.1577109694480896, 0.1119798943400383, 0.05436552315950394, 0.08658375591039658], [0.10814385116100311, -0.12421530485153198, -0.08263589441776276, -0.06866789609193802, 0.17325732111930847, 0.022771835327148438, 0.036410100758075714, 0.09238043427467346, 0.056471437215805054, -0.0106704356148839, -0.22419916093349457, -0.132926806807518, 0.014672833494842052, 0.008848529309034348, 0.07417895644903183, 0.007513632066547871, -0.040300801396369934, -0.017558172345161438, -0.05585524067282677, 0.02707832306623459], [0.02226238138973713, 0.035152774304151535, -0.036674268543720245, 0.23254580795764923, 0.023462077602744102, -0.01399861741811037, 0.051452312618494034, -0.1709032952785492, -0.10306353121995926, 0.08321358263492584, 0.15837812423706055, -0.009803417138755322, 0.01820792257785797, -0.08754080533981323, 0.021451681852340698, -0.016279812902212143, 0.07810696214437485, -0.07364097237586975, 0.03757267817854881, 0.01610817201435566], [0.03723182529211044, 0.031203968450427055, -0.11805162578821182, 0.004902149550616741, -0.09867013990879059, -0.14367924630641937, -0.12292996793985367, 0.002593388082459569, 0.20342527329921722, -0.10821924358606339, 0.14579415321350098, 0.03603735566139221, -0.3232956528663635, 0.14415216445922852, 0.022539086639881134, 0.02617432177066803, 0.08913303911685944, 0.030311116948723793, -0.06872328370809555, -0.0640152171254158], [-0.05294724553823471, -0.20153121650218964, -0.1822592169046402, 0.09435755759477615, 0.06557425856590271, -0.11249779909849167, -0.06925537437200546, 0.136141836643219, -0.11910100281238556, 0.1869247555732727, -0.10352424532175064, 0.02398630790412426, 0.02853383496403694, -0.11226315796375275, -0.07389239221811295, 0.05096293240785599, 0.0980822741985321, -0.01778343692421913, 0.008659827522933483, -0.03610827773809433], [0.07110387831926346, 0.04931893199682236, 0.06668786704540253, 0.0636381134390831, -0.17522016167640686, -0.15386202931404114, 0.05403713136911392, -0.024700364097952843, 0.19025568664073944, 0.0992133766412735, 0.02713281847536564, 0.07316330820322037, -0.00550694577395916, -0.038632653653621674, -0.09935003519058228, 0.031131070107221603, -0.025766555219888687, -0.10792803019285202, -0.1476048082113266, 0.11247051507234573], [0.050145797431468964, -0.046673089265823364, 0.027269462123513222, -0.1751934438943863, 0.06544148176908493, 0.02229582704603672, -0.03877757862210274, 0.019748622551560402, -0.011448477394878864, -0.014309464953839779, -0.06537193804979324, 0.12319187819957733, -0.03869191184639931, -0.05624128505587578, 0.05660587176680565, -0.018998652696609497, -0.06349120289087296, 0.009832686744630337, -0.06506885588169098, -0.08488880097866058], [0.1075330451130867, 0.07260776311159134, -0.030584115535020828, 0.05961493402719498, 0.14739730954170227, -0.07720941305160522, -0.028831154108047485, 0.0566369965672493, 0.003987765405327082, 0.001924143056385219, -0.1183539405465126, 0.26776552200317383, 0.06130922585725784, 0.07714899629354477, 0.18084828555583954, 0.0030560865998268127, 0.0862094983458519, 0.030141176655888557, 0.06796818971633911, -0.0682450607419014], [-0.15582366287708282, -0.07120249420404434, -0.005186469294130802, 0.06737467646598816, -0.1313931792974472, 0.013488677330315113, 0.09010165184736252, 0.09045601636171341, 0.033133119344711304, -0.08398086577653885, -0.003885977901518345, 0.015894358977675438, 0.04685908183455467, -0.11838532984256744, 0.05750738084316254, 0.10456665605306625, -0.11556170135736465, -0.14881841838359833, -0.19280411303043365, -0.01476092729717493], [0.023596031591296196, 0.01428996678441763, 0.05723913758993149, -0.0633881539106369, -0.11624003201723099, 0.056058235466480255, 0.08016126602888107, 0.014494088478386402, 0.0026028561405837536, 0.07557287812232971, -0.05183541402220726, 0.05924283340573311, -0.061151884496212006, -0.03699043020606041, 0.10698381066322327, 0.030737396329641342, -0.14953704178333282, -0.036864105612039566, -0.1952410340309143, 0.0600530244410038], [-0.006658331956714392, 0.007273781578987837, -0.19721277058124542, 0.12620823085308075, -0.14481210708618164, -0.0038919332437217236, -0.12694203853607178, 0.17873215675354004, -0.16858001053333282, -0.1008981466293335, 0.09712052345275879, -0.0016497140750288963, 0.10474595427513123, -0.01634417474269867, -0.0009387686150148511, 0.035405319184064865, -0.1792689710855484, 0.14880748093128204, 0.012767745181918144, 0.054986510425806046], [-0.028694353997707367, -0.06522960960865021, 0.1885223388671875, -0.11308151483535767, 0.05083078145980835, 0.1108299121260643, -0.0020102569833397865, 0.045029301196336746, -0.11057393252849579, -0.2030860185623169, 0.09603486210107803, -0.09689042717218399, 0.0687733143568039, 0.13418753445148468, 0.06455712765455246, -0.04917507991194725, -0.16399554908275604, 0.031778063625097275, 0.08061955869197845, 0.057888589799404144], [0.040982600301504135, -0.2013898342847824, -0.09559822082519531, -0.08613291382789612, -0.05860329046845436, 0.11563608050346375, -0.11364053934812546, -0.12391382455825806, -0.007115128915756941, -0.009832748211920261, 0.006504320539534092, 0.017885418608784676, 0.05757777765393257, -0.1332368105649948, -0.021703757345676422, -0.15370751917362213, 0.191881000995636, -0.004606787580996752, 0.07842559367418289, 0.04281884431838989], [-0.2161538451910019, -0.053425226360559464, -0.00588605972006917, -0.11686896532773972, 0.053558070212602615, -0.21388189494609833, 0.064190573990345, 0.13416995108127594, -0.04541194811463356, -0.10021179914474487, 0.030669428408145905, -0.10220349580049515, 0.06486262381076813, -0.06416738033294678, 0.0295574888586998, -0.09424596279859543, -0.1373724490404129, -0.03857419639825821, -0.08960243314504623, 0.03773459047079086], [0.03471396490931511, -0.1214202493429184, 0.02717680111527443, 0.16101764142513275, 0.10124561190605164, -0.09542804956436157, -0.08587910234928131, 0.22973968088626862, -0.08095478266477585, -0.07263693958520889, -0.024022771045565605, -0.10518304258584976, -0.016200214624404907, 0.07640261203050613, -0.029880117624998093, -0.0487295426428318, 0.1888667345046997, 0.06184765696525574, 0.052138552069664, -0.06009751558303833], [-0.04333634674549103, -0.2063736468553543, -0.02557828463613987, 0.052069373428821564, 0.12328523397445679, -0.11342091858386993, 0.16765569150447845, 0.1177448034286499, -0.12684915959835052, -0.11122194677591324, -0.1282110959291458, 0.04907664656639099, 0.07395213097333908, 0.03728359937667847, 0.05432194471359253, 0.11878661066293716, 0.11986789852380753, -0.042673878371715546, 0.0698409155011177, 0.10393941402435303], [-0.1462719589471817, 0.023532310500741005, -0.02296404354274273, 0.02738887630403042, -0.03707137331366539, 0.058830078691244125, 0.03789205849170685, 0.22494521737098694, -0.12462035566568375, -0.09552405029535294, -0.03693846985697746, 0.10571999847888947, -0.10617803782224655, 0.08573949337005615, -0.14988450706005096, 0.014366264455020428, 0.1145375669002533, -0.027957336977124214, 0.13970303535461426, 0.020465007051825523], [-0.010606116615235806, 0.0639333501458168, 0.04632573574781418, -0.16731414198875427, -0.12633508443832397, -0.05897665023803711, -0.06995637714862823, -0.13527950644493103, -0.15338535606861115, -0.08632296323776245, 0.04579895734786987, -0.07339287549257278, -0.031276263296604156, 0.11518499255180359, 0.014081338420510292, 0.13261763751506805, 0.1334846168756485, -0.13392959535121918, -0.20097732543945312, -0.024058395996689796], [0.072939433157444, -0.016805924475193024, -0.07068336755037308, 0.21600846946239471, 0.0649016723036766, -0.09292265772819519, -0.0809045061469078, 0.11144791543483734, 0.2615024149417877, -0.03228672966361046, -0.21446548402309418, 0.010734505951404572, -0.12139905989170074, 0.11380717903375626, -0.08784219622612, 0.11112470179796219, 0.10249653458595276, 0.0785427913069725, -0.08009122312068939, 0.07374490797519684], [-0.0044880276545882225, -0.1325749307870865, -0.08175227046012878, -0.0790756493806839, 0.08688145875930786, -0.12342191487550735, 0.10325908660888672, 0.07623854279518127, -0.046559594571590424, -0.06270483881235123, 0.006547385826706886, -0.11885998398065567, 0.024242617189884186, -0.17360946536064148, 0.06911846995353699, 0.032543741166591644, -0.0005966364988125861, -0.08547201007604599, -0.24090811610221863, 0.03803829103708267], [-0.07577447593212128, 0.05547152832150459, 0.10756899416446686, -0.06023748591542244, -0.012777949683368206, -0.007446703966706991, 0.0008261087350547314, 0.16184061765670776, 0.08741532266139984, 0.05644197016954422, 0.040481261909008026, -0.008905158378183842, -0.11830495297908783, 0.013513466343283653, -0.016770558431744576, 0.16859789192676544, -0.12389295548200607, -0.17057450115680695, 0.03398539870977402, 0.014043745584785938], [-0.08187112957239151, 0.012413903139531612, -0.09253773093223572, -0.04509783163666725, -0.2597416341304779, -0.06473974138498306, -0.09599991142749786, -0.021776875481009483, 0.13658058643341064, -0.053394678980112076, -0.03280605375766754, -0.033582378178834915, -0.13044418394565582, 0.195374995470047, 0.057406019419431686, 0.023678574711084366, 0.05707018822431564, -0.09985855966806412, 0.08639893680810928, 0.12015031278133392], [-0.1254105567932129, 0.02419792115688324, 0.15328390896320343, 0.12912669777870178, -0.03732692450284958, -0.02631768025457859, 0.15530197322368622, 0.0045065670274198055, 0.011307919397950172, -0.024323467165231705, -0.005099008325487375, 0.017209766432642937, -0.17783786356449127, -0.06745848804712296, 0.031540315598249435, -0.02232988178730011, -0.0670676976442337, 0.100998654961586, 0.11350531876087189, 0.04935190826654434], [0.12298988550901413, -0.04323774203658104, -0.13876014947891235, 0.06393291056156158, 0.06860483437776566, -0.04117821529507637, -0.06163830682635307, 0.15065616369247437, -0.03185483440756798, -0.14161311089992523, 0.016715290024876595, 0.16946716606616974, 0.009152010083198547, 0.06781768798828125, 0.03241192176938057, 0.05887963995337486, -0.026827000081539154, -0.12692880630493164, 0.02682136744260788, 0.00466651376336813], [0.05181269347667694, 0.13542205095291138, 0.08092212677001953, 0.03254878893494606, 0.16829417645931244, 0.13507398962974548, -0.17119088768959045, -0.029088322073221207, 0.08631803840398788, -0.13201142847537994, -0.012073016725480556, -0.17026668787002563, -0.07723834365606308, 0.15409651398658752, -0.05531793087720871, 0.03312100097537041, -0.10901635140180588, -0.15695643424987793, -0.06452828645706177, -0.047406334429979324], [-0.11372004449367523, -0.13859684765338898, 0.06570365279912949, -0.0255906842648983, 0.1111973226070404, -0.022436168044805527, -0.09522531926631927, -0.06055661663413048, -0.013807637616991997, 0.09909823536872864, -0.1260022670030594, 0.05042961239814758, -0.02520790509879589, 0.20545613765716553, 0.052639201283454895, 0.0742858424782753, 0.15516769886016846, -0.022753210738301277, -0.1680828481912613, 0.014815736562013626], [0.11589670926332474, 0.042399145662784576, -0.0701439306139946, 0.0857185423374176, -0.021594909951090813, -0.03629836440086365, 0.08648887276649475, -0.07745470851659775, -0.05355183035135269, -0.089762844145298, 0.012860755436122417, 0.14390167593955994, -0.04937802627682686, 0.05610841140151024, 0.1863166242837906, -0.019752830266952515, -0.07619056105613708, 0.0811692476272583, 0.01866901107132435, 0.02575295977294445], [0.11127084493637085, 0.10561152547597885, -0.018557289615273476, -0.18285928666591644, 0.0454891175031662, -0.05389316380023956, 0.056084901094436646, -0.08111367374658585, 0.12298227101564407, -0.06266772001981735, -0.11971525102853775, -0.16911014914512634, 0.06709331274032593, 0.019598906859755516, 0.15304434299468994, 0.10718581080436707, 0.03377118334174156, -0.08232594281435013, 0.033640965819358826, 0.05183134973049164], [0.054293595254421234, -0.15413294732570648, 0.044632405042648315, -0.011460280045866966, 0.020642025396227837, -0.05857868492603302, -0.1662110984325409, 0.0050336578860878944, -0.061684176325798035, 0.03180358558893204, -0.0619247630238533, -0.17208179831504822, -0.014729224145412445, 0.05615827068686485, -0.029695715755224228, 0.003352053929120302, -0.0430544875562191, -0.13622698187828064, 0.017273947596549988, -0.05882962793111801], [-0.11034343391656876, 0.0717095136642456, -0.05387595295906067, 0.013165661133825779, -0.04913330078125, -0.1655110865831375, 0.083192840218544, -0.08421321213245392, 0.2452123612165451, 0.0022056172601878643, -0.158827543258667, 0.059030868113040924, 0.08085806667804718, 0.11962193250656128, -0.1566980630159378, 0.104730524122715, -0.004867599345743656, -0.1689055860042572, -0.0024150351528078318, -0.014318015426397324], [0.04437832906842232, 0.12025750428438187, -0.12456024438142776, -0.05602223426103592, 0.08573009818792343, 0.08763619512319565, -0.03866036981344223, 0.06130615621805191, -0.011969291605055332, -0.18063732981681824, -0.13529223203659058, -0.1543314903974533, 0.033793386071920395, -0.1497400850057602, 0.08163504302501678, 0.0727987140417099, -0.054262854158878326, -0.08086580038070679, 0.046153176575899124, 0.09381309896707535], [0.11801791936159134, -0.13003091514110565, -0.07198134064674377, -0.06328164786100388, -0.11305344849824905, -0.06417664140462875, 0.12709398567676544, -0.019971827045083046, 0.08924966305494308, -0.0036528161726891994, 0.004736938513815403, 0.04992721229791641, 0.0027537280693650246, -0.09857083857059479, 0.06932821124792099, -0.1738537847995758, 0.011764566414058208, -0.07885857671499252, 0.16157802939414978, -0.06096486747264862], [0.15543575584888458, -0.04517791420221329, -0.12339538335800171, 0.031464073807001114, 0.054097142070531845, -0.001630362938158214, 0.14706730842590332, -0.15611067414283752, -0.07046809047460556, 0.11004512012004852, 0.0459180623292923, -0.049659375101327896, -0.21756671369075775, -0.011718720197677612, 0.16465596854686737, 0.04701948165893555, -0.025990433990955353, 0.02710004709661007, 0.042475152760744095, 0.026412826031446457], [0.012121440842747688, -0.1350654661655426, -0.05469033494591713, 0.015020699240267277, 0.028561796993017197, -0.1288997381925583, -0.09370916336774826, -0.0508071631193161, -0.14369556307792664, 0.11778592318296432, 0.03356282785534859, -0.010747544467449188, -0.03409230336546898, -0.03930728882551193, 0.20053276419639587, 0.06049078702926636, -0.020761925727128983, -0.04032021015882492, -0.10850761830806732, -0.06271078437566757], [0.023741692304611206, -0.009979702532291412, 0.10326331108808517, 0.0673508420586586, -0.1262056678533554, 0.19110192358493805, 0.03269102796912193, -0.10341420024633408, -0.01943376287817955, -0.09093969315290451, -0.04204317554831505, 0.04993325099349022, -0.05030452087521553, 0.04987901821732521, 0.17254258692264557, 0.11605094373226166, 0.15625175833702087, 0.03900640457868576, 0.10858920216560364, -0.03414250537753105], [-0.19315706193447113, 0.0070006102323532104, 0.11267106235027313, -0.14400576055049896, -0.20776161551475525, 0.08149648457765579, 0.24512745440006256, 0.0585872158408165, 0.06446503847837448, 0.0806630402803421, 0.03433705121278763, -0.049204058945178986, 0.02886979654431343, 0.05824322998523712, 0.1364750862121582, 0.009440024383366108, -0.046292778104543686, 0.1236829161643982, 0.08455991744995117, -0.00022973687737248838], [-0.06043640524148941, 0.12484674155712128, -0.030617861077189445, -0.06850539147853851, 0.15611392259597778, -0.04634018987417221, 0.014320465736091137, 0.13780739903450012, 0.008761927485466003, 0.06635596603155136, -0.0364144966006279, 0.04292123764753342, 0.08752699196338654, -0.14552462100982666, 0.18905191123485565, 0.026619084179401398, -0.05481461063027382, 0.14262597262859344, -0.09456214308738708, 0.013403805904090405], [0.08262218534946442, -0.020345577970147133, -0.09725473076105118, 0.016470348462462425, -0.015860052779316902, 0.1677224487066269, -0.14439228177070618, -0.06274242699146271, -0.061479661613702774, 0.15124236047267914, -0.03618111088871956, -0.25603026151657104, -0.06834036856889725, -0.023494215682148933, 0.1114533394575119, 0.1861405074596405, -0.10574901849031448, -0.13003136217594147, -0.03906911239027977, -0.06292523443698883], [0.097769595682621, -0.005581064149737358, -0.1328907161951065, -0.1074419766664505, 0.00970019306987524, -0.03542154282331467, -0.023616673424839973, -0.005208776798099279, -0.010890312492847443, 0.03636927157640457, 0.22049731016159058, -0.013294365257024765, 0.05569395422935486, 0.07033167779445648, 0.022226575762033463, 0.12241893261671066, 0.028791867196559906, 0.016338400542736053, 0.051663558930158615, 0.009661583229899406], [0.023935340344905853, -0.1876925230026245, 0.1356104463338852, 0.006192001514136791, 0.12406119704246521, -0.0864683985710144, 0.1354498416185379, 0.1668809950351715, 0.004391663707792759, -0.15387916564941406, 0.04310649633407593, 0.15988492965698242, 0.016599977388978004, -0.1437346488237381, 0.1078016608953476, -0.07515361905097961, -0.06403899192810059, 0.005234922282397747, -0.03358476981520653, 0.07420633733272552], [-0.08561690896749496, -0.17762324213981628, -0.02969546988606453, 0.06787138432264328, 0.17428427934646606, -0.052892230451107025, -0.13124589622020721, -0.06871931254863739, -0.025427320972085, -0.15345974266529083, 0.09317328780889511, -0.014212986454367638, -0.11455660313367844, 0.057345300912857056, -0.1742750108242035, -0.0014995841775089502, 0.0031449454836547375, -0.05429321527481079, -0.009455054067075253, -0.013926462270319462], [0.11108147352933884, -0.01566685363650322, 0.11096691340208054, 0.12839405238628387, 0.007836802862584591, -0.13046623766422272, 0.053618624806404114, -0.12732800841331482, -0.10430126637220383, -0.07174614816904068, -0.04186888039112091, -0.09462208300828934, 0.06782286614179611, -0.055597934871912, -0.02889302931725979, 0.033234719187021255, 0.1281234472990036, -0.002975351642817259, -0.11628136783838272, -0.004049417097121477], [-0.09010864049196243, 0.0915399044752121, -0.07781008630990982, -0.3091576099395752, 0.13758382201194763, 0.09247441589832306, -0.02484777383506298, 0.04292837530374527, -0.07670619338750839, -0.1294548511505127, 0.06631079316139221, -0.04784005880355835, -0.00462466012686491, -0.05358840525150299, 0.016277741640806198, 0.16577710211277008, 0.05609314516186714, -0.002137120347470045, 0.06520216166973114, -0.0935373306274414], [0.006978350691497326, 0.05273309350013733, 0.0627979189157486, -0.06592655181884766, -0.011415367014706135, -0.1704443395137787, 0.029690882191061974, 0.14244481921195984, -0.031245766207575798, 0.21455101668834686, 0.08243334293365479, 0.004184030462056398, 0.0770387351512909, -0.11679907888174057, -0.06719624996185303, 0.0374518558382988, -0.03436247631907463, -0.22179515659809113, -0.03751742094755173, 0.08531588315963745], [-0.05845654383301735, 0.11209771037101746, -0.018230952322483063, 0.07117121666669846, -0.20821435749530792, 0.17565639317035675, -0.09732186794281006, 0.16804738342761993, -0.10185202211141586, 0.20576468110084534, -0.13325387239456177, 0.13208696246147156, -0.1071041151881218, 0.13394001126289368, 0.09229769557714462, 0.03449616953730583, 0.14191898703575134, 0.09492559731006622, 0.05728684365749359, 0.10665331035852432], [-0.02746468596160412, -0.020716486498713493, 0.030258404091000557, -0.08331472426652908, -0.08374980092048645, 0.06488500535488129, 0.10818201303482056, -0.07287578284740448, 0.011254776269197464, -0.061427727341651917, 0.0400441475212574, -0.14788170158863068, -0.021648315712809563, 0.03338605910539627, -0.06725180894136429, -0.03224831074476242, -0.027638167142868042, -0.032554835081100464, -0.008050929754972458, 0.00845118798315525], [-0.013535070233047009, -0.0803605243563652, 0.09676969051361084, -0.04036647453904152, 0.04797668382525444, -0.00597150344401598, -0.15386439859867096, -0.0022619511000812054, 0.05250329151749611, 0.03174080699682236, 0.02724767103791237, -0.06315600126981735, 0.06497877091169357, 0.06324561685323715, -0.06782221794128418, 0.22927767038345337, -0.19412265717983246, 0.21459709107875824, -0.1389453262090683, -0.0020007039420306683], [0.018575290217995644, 0.17928509414196014, -0.10159347206354141, -0.021235361695289612, 0.06382870674133301, -0.0891001746058464, 0.018099544569849968, 0.05369766801595688, 0.04172728210687637, -0.044224463403224945, -0.1270962953567505, -0.10161711275577545, 0.08488096296787262, 0.07354745268821716, 0.13860154151916504, -0.06894358992576599, 0.09820499271154404, -0.06032644957304001, 0.026978448033332825, 0.02919584885239601], [0.04928375780582428, -0.04858744889497757, -0.01386092510074377, 0.007501587271690369, 0.14424005150794983, 0.03189656138420105, 0.02884773723781109, 0.003301905235275626, 0.10704279690980911, -0.13692305982112885, -0.01821880415081978, 0.0521833710372448, 0.13015007972717285, 0.09117831289768219, -0.029087580740451813, 0.1100834459066391, -0.0880667045712471, 0.20713888108730316, 0.07057561725378036, -0.12748506665229797], [0.15787789225578308, -0.03300852328538895, 0.1197107657790184, 0.019649863243103027, 0.06984949856996536, -0.02769031748175621, -0.13147667050361633, 0.25808024406433105, -0.10564623773097992, -0.15098145604133606, -0.007396166678518057, -0.13683529198169708, 0.06487537920475006, 0.07315748929977417, -0.07558470219373703, -0.0009220332722179592, 0.029730401933193207, -0.1381502002477646, -0.019575828686356544, -0.005932680331170559], [0.20826061069965363, 0.016202960163354874, -0.05403114855289459, 0.04941164329648018, -0.0952257439494133, -0.10111108422279358, 0.1204056516289711, -0.013588834553956985, 0.13991227746009827, -0.046534594148397446, -0.08485189080238342, -0.06978734582662582, -0.2672032415866852, 0.13554437458515167, 0.030467377975583076, -0.09144587069749832, -0.0724915862083435, -0.06664425134658813, -0.18601320683956146, -0.0021305489353835583], [-0.014942175708711147, 0.06102500855922699, -0.0620109997689724, -0.05678659677505493, 0.09883605688810349, 0.09264218062162399, -0.025338303297758102, 0.02867642603814602, 0.011540969833731651, 0.10872580111026764, 0.16834001243114471, 0.024699002504348755, 0.08247601985931396, -0.0851011797785759, 0.10505757480859756, 0.023847034201025963, -0.17542026937007904, -0.056031808257102966, -0.008036214858293533, 0.005125455558300018], [0.08285330981016159, 0.16150298714637756, 0.13604047894477844, -0.08806239068508148, -0.010090379975736141, 0.18052446842193604, 0.022541385143995285, 0.043870579451322556, -0.09522651880979538, -0.08187343180179596, 0.013418198563158512, 0.01468390878289938, -0.001414411817677319, 0.08774277567863464, -0.05431457236409187, -0.058944106101989746, 0.08658666163682938, 0.0448710098862648, -0.018318049609661102, 0.1294885128736496], [-0.00949838850647211, -0.06492658704519272, -0.05164150893688202, -0.07101625204086304, 0.12704254686832428, -0.014890641905367374, -0.05959690734744072, -0.1384672224521637, -0.07767506688833237, 0.11537472158670425, -0.057955190539360046, 0.034534431993961334, -0.0012841534335166216, -0.056073274463415146, -0.06711164116859436, -0.0612097792327404, 0.06737696379423141, 0.036335550248622894, 0.019065886735916138, 0.08114706724882126], [-0.04004354029893875, 0.1089346706867218, -0.05419383943080902, -0.09879238903522491, -0.054943621158599854, 0.04840179905295372, 0.022100480273365974, 0.0706772431731224, -0.019644584506750107, 0.03181622922420502, 0.032574612647295, 0.09285177290439606, 0.10658400505781174, -0.09892155975103378, 0.021906906738877296, 0.03300955891609192, -0.03509677201509476, -0.19913128018379211, 0.008742389269173145, 0.11865044385194778], [-0.04597433656454086, 0.11406129598617554, -0.07669302076101303, 0.07352945953607559, -0.26596352458000183, 0.05036531761288643, -0.05099887028336525, 0.10835697501897812, 0.018188664689660072, -0.0008628122741356492, -0.024119889363646507, 0.06610828638076782, 0.2455907166004181, 0.19204138219356537, 0.11434876918792725, -0.09750685840845108, 0.044020071625709534, -0.14616656303405762, -0.12063271552324295, -0.042600806802511215], [-0.06683338433504105, 0.10587017238140106, -0.26507681608200073, 0.020241383463144302, -0.028608830645680428, 0.1380012333393097, -0.07782619446516037, 0.050634097307920456, 0.013191538862884045, 0.03434518724679947, 0.013570032082498074, -0.08656333386898041, -0.01011434756219387, 0.1625058650970459, -0.0465717539191246, -0.012519005686044693, -0.22756612300872803, 0.07820562273263931, 0.010654744692146778, 0.01629975251853466], [0.0034006729256361723, 0.048712413758039474, 0.16461347043514252, -0.2218850702047348, 0.002824775641784072, 0.01785494200885296, 0.01240930799394846, -0.10611724853515625, 0.19778570532798767, -0.12483908981084824, 0.12563808262348175, -0.15897484123706818, -0.14268378913402557, 0.12455843389034271, -0.12918318808078766, 0.03483690321445465, 0.10644768923521042, 0.02288905717432499, -0.02084282785654068, 0.027007130905985832], [-0.06367017328739166, -0.2073674499988556, 0.16228067874908447, -0.2133481353521347, -0.10457446426153183, -0.1572932004928589, -0.11090641468763351, 0.013492876663804054, -0.0550260990858078, -0.16860099136829376, 0.060685206204652786, -0.08199767768383026, -0.10802513360977173, -0.06356298923492432, 0.011614625342190266, 0.002911883872002363, -0.14706255495548248, 0.05235418304800987, -0.040308136492967606, 0.012650435790419579], [-0.018257612362504005, 0.10007482767105103, -0.11105197668075562, 0.1594129055738449, 0.20292097330093384, -0.05199221894145012, 0.12689194083213806, -0.014660397544503212, -0.052130866795778275, 0.10284280776977539, 0.15231503546237946, 0.047693513333797455, 0.022856805473566055, 0.06055232137441635, -0.1280127614736557, 0.14569169282913208, 0.060268715023994446, 0.051874469965696335, -0.07016633450984955, 0.03146040439605713], [-0.028211552649736404, 0.038176242262125015, -0.011616908945143223, -0.08342564105987549, -0.09927894175052643, -0.16675181686878204, 0.04273714870214462, 0.015572331845760345, -0.02631530724465847, 0.10802188515663147, 0.029113465920090675, 0.12957337498664856, 0.13437819480895996, 0.08936335891485214, 0.03168129548430443, -0.013955279253423214, -0.0162204597145319, -0.03127060458064079, -0.11723123490810394, 0.008263057097792625], [-0.05324715003371239, 0.12372171133756638, 0.08855299651622772, 0.09836751222610474, 0.08279108256101608, -0.08735840767621994, -0.006804071832448244, 0.12145903706550598, -0.07115791738033295, 0.04046793654561043, 0.013780208304524422, 0.007696301210671663, 0.1360127478837967, -0.06467567384243011, -0.03765928000211716, 0.1891498863697052, -0.09351721405982971, 0.1517615020275116, -0.008686143904924393, -0.021861493587493896], [-0.05323728919029236, 0.060227230191230774, 0.0695609301328659, -0.015528511255979538, -0.10640192031860352, -0.008148870430886745, -0.12523005902767181, 0.03876112774014473, 0.0792485922574997, -0.03887977451086044, -0.029271643608808517, 0.03211243078112602, 0.10158433765172958, -0.18906918168067932, -0.18511329591274261, 0.17064815759658813, -0.007110439240932465, -0.0906374379992485, 0.028376353904604912, 0.052703674882650375], [0.11703437566757202, 0.08240242302417755, -0.039338041096925735, -0.1579708755016327, -0.031519562005996704, -0.06612331420183182, 0.009672940708696842, -0.0834060087800026, -0.12407438457012177, -0.08566667139530182, -0.0366441011428833, -0.11097729951143265, 0.10825886577367783, -0.2311514914035797, 0.0934678241610527, 0.12129238992929459, -0.1594918817281723, -0.03406430780887604, 0.13896210491657257, 0.017191026359796524], [0.04521631449460983, -0.013171439059078693, 0.1260816603899002, -0.038079883903265, 0.2047034502029419, -0.07520109415054321, -0.03212805092334747, 0.029286563396453857, 0.03044993430376053, -0.045698557049036026, 0.0847611129283905, -0.014424100518226624, -0.0029689655639231205, -0.14630699157714844, -0.04047808051109314, -0.13647526502609253, 0.07547716051340103, 0.1106502041220665, 0.027521541342139244, 0.06239429488778114], [0.04127639904618263, 0.06871666014194489, 0.08793535828590393, 0.05914144963026047, 0.03137315437197685, -0.14354872703552246, -0.015486352145671844, -0.2731793224811554, -0.0224573016166687, -0.027804553508758545, 0.03620515018701553, 0.013518597930669785, 0.08733189851045609, 0.04926305636763573, 0.13464969396591187, -0.04119502753019333, 0.0262172631919384, 0.21121610701084137, -0.09034983813762665, -0.03254280984401703], [-0.042472124099731445, -0.20028722286224365, -0.08013956993818283, 0.035025618970394135, -0.025095714256167412, 0.1563442349433899, 0.15813566744327545, 0.0047218468971550465, 0.1603376269340515, -0.004573742859065533, 0.04631961137056351, 0.01606806367635727, -0.05196422338485718, -0.03537030518054962, -0.23122264444828033, -0.2026042491197586, 0.08420437574386597, -0.015425555408000946, 0.21089252829551697, -0.01473140623420477], [0.006157519295811653, 0.08623314648866653, -0.12301444262266159, -0.04226577654480934, -0.03731433302164078, 0.02229801006615162, -0.0699506476521492, 0.0840795636177063, -0.03789139911532402, -0.05198507010936737, -0.10260992497205734, -0.009204002097249031, 0.03322810307145119, 0.020636899396777153, 0.009624701924622059, 0.05926688760519028, -0.0033569091465324163, -0.11703081429004669, -0.10510431975126266, 0.07362709939479828]], "model.0.bias": [-0.124399833381176, -0.0906822681427002, -0.047626033425331116, -0.049171119928359985, -0.019140813499689102, 0.037101540714502335, -0.104192353785038, -0.029542794451117516, -0.13052088022232056, -0.06087992712855339, -0.053039148449897766, -0.060012273490428925, -0.004989274777472019, -0.03568025678396225, -0.05241527408361435, -0.036538586020469666, -0.0750272274017334, -0.07466341555118561, -0.0792442336678505, -0.12417237460613251, 0.026438819244503975, -0.060587022453546524, -0.08478070050477982, 0.04027380421757698, -0.01548896823078394, -0.087633416056633, -0.04141775891184807, -0.005113407038152218, 0.005730227567255497, -0.03960768133401871, -0.01806831546127796, -0.11878060549497604, -0.07168108969926834, -0.07118156552314758, -0.028343722224235535, -0.04539879411458969, -0.06437389552593231, -0.05303805321455002, -0.06264793872833252, -0.11052855104207993, -0.05683917552232742, -0.07162508368492126, -0.01206984557211399, -0.10603117942810059, -0.05523872748017311, 0.06500426679849625, -0.04997596889734268, 0.08516088128089905, 0.02695911005139351, -0.0720423012971878, -0.09432023018598557, -0.0673123300075531, -0.028886379674077034, -0.02401536889374256, -0.004894201178103685, -0.05048733577132225, -0.09910877048969269, -0.060459114611148834, 0.002511391183361411, -0.0029057797510176897, -0.03652622550725937, -0.06011304631829262, -0.0379393994808197, -0.01143696065992117, -0.04489946737885475, -0.03788714483380318, -0.1370941698551178, -0.017441682517528534, 0.0011923587881028652, -0.07196543365716934, -0.04692648723721504, -0.030616557225584984, -0.03446854650974274, -0.048063963651657104, -0.08587633073329926, -0.049658168107271194, -0.08060110360383987, -0.05309315025806427, -0.06232497841119766, -0.07964734733104706, -0.11658716201782227, -0.06958123296499252, -0.1368284672498703, -0.09955405443906784, -0.0013126105768606067, 0.013394957408308983, -0.005378647707402706, -0.03972730040550232, -0.1039130762219429, -0.07262513041496277, -0.04719911143183708, -0.11604870855808258, -0.005353484768420458, -0.08227390050888062, -0.02503173239529133, -0.1639745533466339, -0.02225782722234726, 0.011816085316240788, -0.10264484584331512, -0.13169053196907043, 0.01528638694435358, -0.04206516966223717, -0.13479109108448029, -0.05689683184027672, -0.024472858756780624, -0.07023870944976807, -0.08137147128582001, -0.12276329845190048, -0.03347674384713173, -0.11378834396600723, -0.019316131249070168, -0.03462168946862221, -0.09688174724578857, -0.08651655167341232, -0.05146898701786995, 0.033209871500730515, 0.013017951510846615, -0.06974738836288452, 0.04347231611609459, -0.021425383165478706, 0.023544328287243843, -0.09635640680789948, -0.14306890964508057, -0.009218215011060238, 0.009491672739386559, -0.09020981192588806, 0.01381105836480856, -0.14520065486431122], "model.2.weight": [[-0.0298781581223011, -0.06449558585882187, 0.07998970150947571, -0.2018609642982483, -0.0564759224653244, 0.014717919752001762, -0.060625333338975906, 0.054727353155612946, -0.007519618608057499, 0.0008363413508050144, 0.12713827192783356, 0.009982559829950333, -0.03688827157020569, -0.07942693680524826, -0.06823631376028061, -0.06048458442091942, -0.02709135413169861, 0.031986113637685776, -0.014297481626272202, 0.10589516907930374, 0.06144750863313675, -0.020435191690921783, -0.02998201549053192, -0.04779432341456413, 0.05791106075048447, -0.004553881473839283, 0.060252901166677475, 0.10051742941141129, 0.05104824900627136, 0.12142741680145264, 0.03705223277211189, -0.006344569846987724, 0.03882579505443573, 0.08228081464767456, 0.08723191916942596, -0.04876777529716492, -0.04334506392478943, 0.06468570977449417, -0.17808222770690918, -0.12376255542039871, -0.031199650838971138, 0.05583180859684944, 0.015053704380989075, 0.07161843776702881, 0.052406180649995804, -0.15376141667366028, -0.14444780349731445, 0.028313150629401207, 0.07131890207529068, -0.15504863858222961, 0.03148244693875313, 0.05547353997826576, 0.00787932239472866, 0.04229477420449257, -0.10512163490056992, -0.019638707861304283, -0.0022653606720268726, 0.013542858883738518, -0.039388641715049744, -0.06665252894163132, -0.13476939499378204, 0.0604451484978199, 0.03904435411095619, -0.03531144559383392, -0.1364142894744873, 0.020965084433555603, 0.058618221431970596, 0.07313643395900726, -0.03740495443344116, -0.03460312634706497, -0.13579076528549194, 0.0021052893716841936, -0.0421830378472805, 0.05455249175429344, -0.01165777537971735, -0.057888712733983994, 0.06774317473173141, 0.019543133676052094, 0.006302746012806892, -0.002014347119256854, 0.0931888297200203, -0.06818034499883652, -0.0817028060555458, 0.03340331092476845, 0.12174709141254425, -0.03710147738456726, 0.008456556126475334, -0.04503296688199043, 0.02581111527979374, 0.07933216542005539, -0.04766421020030975, -0.11442351341247559, -0.17126761376857758, -0.02599284239113331, 0.07908110320568085, -0.011371663771569729, -0.010409168899059296, 0.08881732821464539, -0.008286594413220882, 0.07300586253404617, 0.08829593658447266, 0.013946725986897945, -0.10100649297237396, -0.013395444490015507, 0.051833607256412506, -0.09627259522676468, -0.06740967184305191, -0.07113977521657944, 0.13608476519584656, 0.09086640179157257, -0.14577265083789825, -0.05367472395300865, 0.01132192648947239, 0.030820200219750404, -0.01856161281466484, -0.1157534122467041, -0.16784065961837769, -0.12574908137321472, 0.012734753079712391, -0.08285897225141525, 0.0854930505156517, -0.1309996396303177, 0.014156133867800236, -0.08356178551912308, 0.0526416189968586, 0.06613403558731079, 0.10078404098749161, 0.016771404072642326], [-0.04930192604660988, -0.12409976869821548, -0.020162053406238556, -0.06544313579797745, -0.10962793231010437, 0.14900396764278412, -0.006569405551999807, 0.02019619569182396, 0.13039371371269226, -0.059571001678705215, 0.05823546648025513, -0.04965759068727493, 0.10691455751657486, -0.09852752089500427, -0.042271893471479416, 0.0650390163064003, -0.021119005978107452, -0.03418736532330513, -0.08857425302267075, -0.1272825300693512, 0.016863470897078514, 0.06034611165523529, -0.1914774775505066, 0.07994379848241806, 0.06106558069586754, -0.11432900279760361, 0.060511138290166855, 0.07983917742967606, 0.029829269275069237, -0.10857219249010086, 0.047840557992458344, -0.048261675983667374, -0.062285929918289185, 0.018288303166627884, -0.04426431655883789, 0.009318511001765728, 0.06669050455093384, -0.18093517422676086, -0.03381817787885666, -0.008790068328380585, -0.043336644768714905, 0.02024080790579319, -0.07862479239702225, -0.04320932924747467, -0.02955523319542408, -0.15609538555145264, 0.015863288193941116, -0.0033905229065567255, -0.18146243691444397, 0.06099401414394379, -0.17225530743598938, -0.10355304926633835, 0.004399454221129417, -0.14769724011421204, -0.003556429874151945, 0.08761991560459137, 0.021233271807432175, -0.04799934849143028, -0.10137826949357986, -0.13194741308689117, -0.12008603662252426, -0.037161193788051605, 0.0917893573641777, -0.010939746163785458, 0.002271970035508275, -0.12655116617679596, 0.045515790581703186, -0.13695789873600006, 0.10307323187589645, -0.07993275672197342, -0.06492287665605545, -0.08869561553001404, 0.022426960989832878, 0.09244103729724884, -0.0712788924574852, 0.05763106793165207, -0.08605273813009262, -0.10056393593549728, -0.06791607290506363, 0.07761619240045547, 0.006470941007137299, -0.013002484105527401, -0.04488346725702286, 0.03748706728219986, -0.06374157220125198, -0.08490645885467529, 0.00411461666226387, -0.053160734474658966, 0.01742662861943245, -0.06307622045278549, -0.09046876430511475, -0.03500520437955856, 0.0506427176296711, 0.023864898830652237, -0.07007601112127304, -0.08663783967494965, -0.11177454888820648, -0.04089907556772232, 0.11366438865661621, -0.035851966589689255, -0.0793389156460762, -0.06016935780644417, 0.022703005000948906, 0.04705039784312248, -0.1080712378025055, 0.022777404636144638, -0.17314603924751282, 0.06754493713378906, -0.06367132812738419, -0.01174082886427641, 0.024123741313815117, -0.11887377500534058, -0.051896899938583374, -0.08260413259267807, -0.016017476096749306, 0.010865083895623684, 0.07176369428634644, 0.06738029420375824, -0.08128804713487625, 0.09586900472640991, 0.009070816449820995, 0.12278211861848831, -0.034932561218738556, -0.032426562160253525, -0.0678851380944252, 0.029444033280014992, -0.02277401089668274, 0.024421943351626396], [-0.0018693406600505114, -0.05562060698866844, 0.005898543167859316, -0.11320289224386215, -0.10005184262990952, -0.020061777904629707, -0.09786295145750046, 0.05634084716439247, -0.015441454946994781, 0.0013561518862843513, 0.07329317927360535, -0.021583477035164833, -0.038347575813531876, 0.0036560040898621082, -0.01436652336269617, -0.2128487080335617, 0.05062196031212807, 0.08029673993587494, 0.136583149433136, -0.08644665032625198, -0.022850485518574715, 0.10647481679916382, 0.08442366123199463, -0.09571929275989532, -0.036635544151067734, 0.07586371153593063, -0.09869981557130814, 0.01658414676785469, 0.01710277423262596, 0.023572837933897972, -0.07265719026327133, -0.038140639662742615, 0.05889390781521797, -0.011057039722800255, -0.08313625305891037, 0.10035677254199982, 0.024030271917581558, -0.045831166207790375, -0.07287795841693878, -0.08733576536178589, -0.04895705729722977, -0.06680142134428024, 0.039167582988739014, -0.03278804570436478, -0.15934434533119202, -0.23938050866127014, -0.1999697983264923, 0.004307244438678026, 0.08286925405263901, -0.014400224201381207, -0.1648925542831421, -0.09180544316768646, -0.007061751093715429, 0.07422219961881638, -0.008724064566195011, -0.08423870801925659, -0.0848623588681221, -0.18830782175064087, 0.033389169722795486, -0.20631931722164154, 0.10724647343158722, -0.10495095700025558, -0.04553176462650299, 0.047077130526304245, -0.08738598972558975, 0.12894903123378754, 0.018708396703004837, -0.06197049096226692, -0.21342556178569794, -0.028790947049856186, -0.07420454174280167, -0.07870586961507797, -0.025849265977740288, -0.03112943097949028, -0.045336656272411346, -0.0011287856614217162, 0.12198672443628311, 0.04243515059351921, -0.0338306725025177, 0.12096799165010452, 0.09317993372678757, 0.11016865819692612, -0.10180459171533585, 0.008437941782176495, 0.006716605741530657, -0.027007240802049637, -0.1554257720708847, 0.07065434753894806, 0.12227237969636917, -0.018491847440600395, 0.1891975998878479, -0.09444352984428406, -0.13566075265407562, -0.07841217517852783, -0.05833090469241142, -0.15965063869953156, 0.12310001999139786, -0.15441051125526428, -0.01517095509916544, -0.06809427589178085, 0.12067926675081253, -0.09953548014163971, -0.03240276873111725, 0.16587497293949127, 0.030733883380889893, -0.0020526936277747154, -0.07782620191574097, 0.1121518686413765, -0.16314911842346191, 0.15062479674816132, -0.03986131399869919, 0.016869736835360527, 0.06000747159123421, 0.038840118795633316, 0.12591657042503357, 0.03215797245502472, 0.07421056926250458, 0.11020137369632721, 0.08811116963624954, -0.08501499146223068, 0.042451661080121994, -0.0960056483745575, 0.15037618577480316, 0.0832756832242012, -0.07003805041313171, -0.1497855931520462, -0.2910584509372711, -0.02749187871813774], [-0.022602012380957603, 0.09231249243021011, -0.011493515223264694, 0.0875081792473793, 0.04155831038951874, -0.036604173481464386, -0.005019602365791798, -0.0019407221116125584, 0.047447819262742996, -0.0789528489112854, 0.0444001629948616, -0.11416568607091904, -0.12018097192049026, 0.026493342593312263, -0.06967385858297348, 0.004338471684604883, -0.15084785223007202, 0.02301599271595478, -0.00592371029779315, -0.07381889969110489, -0.07487575709819794, 0.02728462591767311, -0.04992637783288956, -0.08357081562280655, 0.04058120772242546, -0.02804260142147541, -0.0485822819173336, 0.014984413050115108, -0.0272764153778553, -0.07426565885543823, 0.08390342444181442, -0.15328918397426605, 0.020670901983976364, 0.1109452098608017, 0.0033293552696704865, -0.08934355527162552, -0.15715354681015015, -0.022449377924203873, -0.10804447531700134, -0.09702195227146149, 0.01899600215256214, -0.14388559758663177, -0.1984288990497589, -0.06156917288899422, -0.049540091305971146, 0.026619670912623405, 0.008119518868625164, -0.1730685979127884, -0.05245877429842949, 0.10542836785316467, -0.01582915708422661, 0.05357217416167259, -0.00169684540014714, 0.12578491866588593, -0.0569072887301445, -0.1609318107366562, -0.0923294946551323, -0.09084715694189072, -0.10502336919307709, -0.09615277498960495, -0.026216240599751472, -0.007073460146784782, -0.060558345168828964, -0.03904559463262558, 0.021282898262143135, -0.09821543842554092, 0.02562125027179718, -0.06528359651565552, 0.0926717072725296, -0.12064581364393234, -0.05899634584784508, 0.055611152201890945, -0.0008808664279058576, -0.04925686493515968, -0.08546944707632065, -0.04921803995966911, 0.06870860606431961, -0.016639526933431625, -0.04512982442975044, 0.025893617421388626, 0.006768281105905771, 0.03452146425843239, 0.0014534759102389216, -0.11424753069877625, -0.13605807721614838, -0.10153384506702423, -0.04447385296225548, -0.07459990680217743, -0.0602702721953392, 0.07834523171186447, 0.057685788720846176, 0.021936777979135513, 0.015526333823800087, -0.10364793241024017, 0.0026176406536251307, 0.013828528113663197, -0.12601715326309204, -0.05695050582289696, 0.01546498853713274, 0.06919508427381516, -0.011337478645145893, -0.10956098884344101, -0.17785166203975677, -0.0227205753326416, -0.06487947702407837, 0.018805909901857376, -0.10673113912343979, -0.10285870730876923, 0.050720490515232086, 0.034456390887498856, -0.1088392361998558, -0.08998320996761322, 0.028996579349040985, 0.01723749190568924, -0.039898231625556946, -0.0003629145212471485, -0.018613481894135475, 0.025214828550815582, -0.04711056128144264, -0.09619805216789246, 0.07427605241537094, -0.09355718642473221, 0.05878196656703949, -0.14356312155723572, -0.02090073749423027, -0.032394248992204666, 0.13555265963077545, -0.01848352514207363], [0.106502465903759, -0.20147517323493958, 0.04360237345099449, 0.1781577467918396, -0.04310884326696396, -0.01887737773358822, 0.035604748874902725, 0.007698297966271639, -0.056212667375802994, 0.08944825828075409, 0.012063762173056602, -0.17486125230789185, 0.01596159301698208, 0.09129782021045685, 0.17844794690608978, 0.04299847036600113, 0.06710635870695114, 0.017823539674282074, -0.032527655363082886, -0.14259524643421173, 0.09649232774972916, 0.08966457843780518, -0.10455796867609024, 0.03358110412955284, 0.13433270156383514, -0.006393679417669773, 0.01776498556137085, -0.01990347169339657, 0.024868831038475037, -0.07154987007379532, -0.10244908928871155, -0.11062731593847275, -0.07735803723335266, -0.06099845468997955, -0.1365911215543747, 0.05899856612086296, 0.00015298242215067148, -0.04307924956083298, 0.012333800084888935, -0.11812449991703033, 0.03789405897259712, 0.011594954878091812, 0.05886776000261307, -0.03510415926575661, 0.03328394889831543, -0.010530938394367695, -0.021349579095840454, 0.06101810559630394, 0.04720744490623474, -0.12714533507823944, -0.1890270709991455, -0.0212862566113472, 0.05541760474443436, 0.014715972356498241, -0.06402303278446198, 0.050761669874191284, 0.08616701513528824, -0.03873097151517868, -0.0782100036740303, -0.010425710119307041, -0.09208693355321884, -0.1389787197113037, 0.11784296482801437, 0.1284448504447937, 0.053441956639289856, 0.008684255182743073, -0.04953218996524811, 0.09283805638551712, -0.03394050523638725, -0.09790582954883575, -0.027615228667855263, 0.054246965795755386, 0.06209060549736023, 0.06866627186536789, 0.02362196333706379, 0.0032673245295882225, -0.16261659562587738, 0.012547704391181469, 0.0005421696114353836, -0.07953575253486633, -0.05609068274497986, 0.06436393409967422, 0.08664510399103165, 0.00371598731726408, 0.0071117086336016655, -0.015017994679510593, -0.003965507261455059, 0.056638672947883606, 0.045254528522491455, -0.08005577325820923, -0.1523665189743042, 0.12054319679737091, 0.1402958780527115, 0.0025254099164158106, -0.08887263387441635, 0.043351199477910995, -0.041369058191776276, -0.03301636874675751, -0.0035036189947277308, -0.03812451288104057, -0.14134663343429565, -0.09320299327373505, -0.008708540350198746, -0.03761991113424301, 0.02091967687010765, 0.1165892481803894, -0.0021046942565590143, -0.0819951519370079, -0.17376258969306946, 0.047646380960941315, 0.02018815465271473, -0.0018721554661169648, -0.1453348845243454, 0.012983839958906174, -0.15411393344402313, 0.0619223490357399, -0.07842421531677246, -0.003620753064751625, 0.017186766490340233, 0.12222861498594284, 0.07047629356384277, 0.043969202786684036, 0.08954112976789474, 0.012877196073532104, 0.0392116941511631, 0.13396325707435608, 0.012830773368477821, -0.1451546549797058], [0.039280157536268234, 0.050332117825746536, 0.006772319320589304, -0.08762256801128387, 0.030629143118858337, 0.07161492109298706, -0.22012320160865784, -0.00025768892373889685, -0.08732186257839203, -0.0776258111000061, 0.06856616586446762, 0.006342457607388496, -0.10198967158794403, -0.12373852729797363, -0.07744888961315155, -0.0881064161658287, 0.04987947270274162, -0.05598895624279976, 0.0883777067065239, 0.038369257003068924, 0.08627436310052872, -0.1324532926082611, 0.014627950266003609, 0.0523676797747612, 0.048938002437353134, -0.042957838624715805, 0.12843003869056702, 0.14346249401569366, 0.16029168665409088, 0.0034826339688152075, 0.06372015178203583, -0.05453206226229668, 0.1541919857263565, 0.001964437309652567, 0.09599556028842926, 0.01976802758872509, -0.013846440240740776, -0.15883374214172363, -0.054284773766994476, -0.10675516724586487, -0.06437525153160095, -0.024137485772371292, 0.1336638331413269, -0.006960800848901272, -0.18850849568843842, -0.1418989598751068, -0.12623503804206848, 0.0003273369511589408, 0.03917602449655533, -0.24082046747207642, -0.08106303960084915, -0.13325011730194092, 0.08682262897491455, 0.11770470440387726, -0.0034154008608311415, -0.1343519538640976, 0.05812539532780647, -0.007738097570836544, 0.026628198102116585, -0.01550357323139906, 0.12825514376163483, 0.08932039141654968, 0.03182963281869888, 0.03854849934577942, -0.059463825076818466, -0.04751323536038399, 0.02135256491601467, -0.11224430799484253, 0.014278885908424854, -0.06254469603300095, -0.03840849921107292, 0.020283252000808716, 0.043454308062791824, 0.05349354073405266, -0.08364864438772202, -0.027460847049951553, -0.012347368523478508, 0.04956527426838875, -0.133187934756279, -0.031744103878736496, -0.1005248948931694, 0.06727037578821182, 0.06421010196208954, -0.002266257768496871, -0.0505346804857254, 0.08968927711248398, 0.0715709775686264, -0.10239112377166748, 0.09581948071718216, -0.17920228838920593, 0.06296609342098236, -0.07904979586601257, -0.07990137487649918, 0.008586572483181953, -0.0027216312009841204, -0.09608176350593567, -0.029491443186998367, 0.028622934594750404, -0.05270522087812424, 0.11864291876554489, 0.09528745710849762, 0.028826504945755005, -0.05669522285461426, -0.03109402023255825, -0.07415515929460526, -0.07887928187847137, -0.018517108634114265, 0.0009862914448603988, 0.003913158550858498, 0.021502088755369186, -0.11007358878850937, -0.09705828875303268, 0.0649351105093956, -0.04735815152525902, -0.0025035939179360867, 0.1007746085524559, -0.1209435760974884, 0.047412119805812836, 0.13492244482040405, -0.07465888559818268, 0.10079806298017502, -0.0319993756711483, 0.05994197353720665, 0.10812574625015259, 0.0785522386431694, 0.041882868856191635, 0.01789151504635811, 0.03862818330526352], [-0.015982111915946007, 0.07457799464464188, -0.017263086512684822, -0.12440171092748642, -0.04362337663769722, -0.0022390526719391346, -0.11532676219940186, -0.044583339244127274, -0.04887891188263893, 0.012918145395815372, -0.1267373263835907, -0.10612227022647858, -0.06948813796043396, -0.10393714159727097, 0.05045368894934654, -0.0001411230186931789, 0.06018039956688881, -0.009345250204205513, -0.15831564366817474, -0.10414533317089081, -0.019609374925494194, -0.10505367070436478, -0.10121872276067734, 0.17063212394714355, 0.08553992211818695, 0.004819644149392843, 0.05567851662635803, 0.06149836629629135, -0.011092673987150192, 0.006853427737951279, 0.0008403780520893633, 0.075240857899189, -0.11965502053499222, -0.024706289172172546, 0.06001684442162514, -0.15268684923648834, -0.08699044585227966, 0.017744287848472595, -0.04769495129585266, -0.1138286143541336, -0.002054041251540184, -0.12283738702535629, -0.011702088639140129, -0.03450397402048111, 0.11564703285694122, -0.1279664933681488, -0.04811817407608032, -0.10393084585666656, -0.043547239154577255, -0.060742877423763275, -0.07549355924129486, -0.06456293910741806, -0.0026955895591527224, -0.04439424350857735, 0.0642741322517395, 0.0062459250912070274, 0.09404090791940689, 0.0593777596950531, 0.0106628043577075, 0.030939240008592606, -0.01865544728934765, 0.042980924248695374, -0.021960940212011337, 0.0013788655633106828, -0.044273581355810165, -0.10782378166913986, 0.02878296747803688, -0.17541179060935974, 0.04519885405898094, -0.005337459500879049, 0.004178911447525024, -0.0790356993675232, 0.0933435931801796, -0.08205419033765793, 0.08773212879896164, -0.17004233598709106, -0.17313314974308014, 0.06568631529808044, -0.0748027041554451, 0.028856810182332993, -0.0017908900044858456, -0.05037921667098999, -0.07547524571418762, -0.03357618674635887, -0.0438285768032074, -0.0034688012674450874, -0.07892879098653793, -0.09849056601524353, -0.02231622114777565, 0.054414160549640656, -0.0959477350115776, -0.03893790394067764, -0.07540962845087051, 0.020702168345451355, 0.03031051903963089, -0.08500519394874573, 0.09651396423578262, 0.0687156617641449, -0.09797831624746323, -0.05617745593190193, 0.07882542908191681, 0.03922158107161522, 0.07288257032632828, -0.11950570344924927, -0.10068800300359726, -0.05853614956140518, 0.0318128801882267, -0.12162962555885315, -0.12038154900074005, -0.024769986048340797, -0.0016802335157990456, -0.09655161201953888, -0.13278476893901825, -0.015357697382569313, -0.06445642560720444, 0.03749781847000122, 0.03292296081781387, -0.0927291065454483, -0.011541932821273804, -0.08759995549917221, -0.08560342341661453, -0.041192058473825455, -0.04849914088845253, 0.01370225939899683, -0.0844314768910408, -0.0003040684969164431, 0.019638998433947563, -0.06566811352968216], [0.07275514304637909, 0.03656918182969093, 0.010936726815998554, -0.12127379328012466, -0.05079858750104904, 0.07341862469911575, 0.026620056480169296, 0.017241843044757843, 0.010864379815757275, -0.14912943542003632, -0.1056583896279335, 0.011852961964905262, 0.03476864472031593, 0.07176786661148071, -0.12765105068683624, -0.1288837045431137, -0.10075414180755615, -0.026102276518940926, -0.06466372311115265, -0.09203903377056122, -0.012699771672487259, -0.04495139792561531, 0.04780838266015053, -0.04534841701388359, 0.040261410176754, -0.017764246091246605, 0.012278130277991295, 0.01881217584013939, 0.06875310838222504, 0.024086473509669304, 0.026559993624687195, 0.08852855861186981, 0.030061025172472, -0.09504767507314682, 0.024289671331644058, 0.030767889693379402, -0.08160194754600525, -0.05056053027510643, -0.09632812440395355, -0.09471175074577332, -0.00581288430839777, 0.031194785609841347, -0.02798948436975479, 0.03927205502986908, -0.013997272588312626, -0.08976178616285324, -0.09368904680013657, 0.05900099128484726, 0.09334161132574081, -0.015783481299877167, -0.012483092024922371, -0.035907045006752014, 0.06960128247737885, -0.13079090416431427, -0.03853180631995201, -0.09318558871746063, -0.03968627378344536, 0.002140456112101674, -0.028589049354195595, 0.012932907789945602, -0.02456764131784439, -0.06226308271288872, -0.023812800645828247, -0.037446312606334686, -0.12172351777553558, -0.012638380751013756, 0.05873729661107063, -0.0803411677479744, 0.009783169254660606, -0.022160837426781654, -0.057131148874759674, 0.000551183708012104, 0.061871275305747986, -0.07336551696062088, -0.005074824206531048, 0.12194016575813293, 0.08077569305896759, -0.07040981948375702, -0.013816514983773232, -0.16183072328567505, 0.11540209501981735, -0.10323791205883026, -0.04314054548740387, 0.062082674354314804, -0.0428222231566906, -0.048938922584056854, 0.052514415234327316, 0.06297429651021957, 0.027330299839377403, 0.11296737194061279, -0.10988295823335648, -0.0190054252743721, -0.09743694216012955, 0.08983103930950165, 0.04119817912578583, 0.004627150017768145, -0.09250953793525696, 0.03104962408542633, -0.07130163908004761, -0.02986897900700569, -0.05084686726331711, 0.043445438146591187, -0.015305224806070328, 0.14299948513507843, 0.08647246658802032, -0.05547220632433891, -0.027780350297689438, 0.0817161351442337, -0.08248970657587051, 0.012968993745744228, -0.06594902276992798, 0.008844025433063507, 0.05376264825463295, -0.046804048120975494, 0.08511912077665329, -0.004459362477064133, -0.05400467291474342, -0.09099125117063522, 0.029115673154592514, -0.04671475291252136, 0.006892811506986618, -0.07418593019247055, -0.02647852897644043, -0.08189727365970612, -0.01656593754887581, 0.06935898214578629, -0.10463149100542068, -0.015668824315071106], [0.038152944296598434, 0.001026128069497645, -0.015974611043930054, 0.03167204558849335, -0.05129535123705864, 0.06347878277301788, -0.053375426679849625, 0.10246648639440536, 0.04550417140126228, 0.076763816177845, -0.09903248399496078, -0.09447754174470901, 0.030358698219060898, 0.0034487575758248568, 0.02970951423048973, 0.0867595449090004, 0.05322951823472977, -0.0602872259914875, 0.03099590539932251, -0.07021190971136093, 0.08924375474452972, 0.02085273340344429, 0.1169528216123581, 0.015047612600028515, -0.09599241614341736, -0.00231519085355103, -0.12869642674922943, -0.11883857101202011, 0.03825319558382034, -0.09380116313695908, -0.026858897879719734, 0.0571647547185421, -0.04866757616400719, -0.017162304371595383, -0.09008920937776566, 0.07412419468164444, -0.133067786693573, 0.055598121136426926, 0.11174637824296951, -0.03152994439005852, 0.015827689319849014, -0.10104811936616898, 0.028229113668203354, 0.05446052923798561, 0.07219303399324417, -0.013330187648534775, -0.09260839968919754, 0.06067127361893654, 0.09620809555053711, 0.017063461244106293, 0.011474980041384697, -0.07099758833646774, 0.04584420099854469, 0.03964773565530777, -0.08905737102031708, 0.046700675040483475, 0.020736895501613617, -0.07605419307947159, -0.007443738169968128, -0.07579954713582993, 0.08073769509792328, -0.06025955453515053, -0.08362208306789398, -0.15770995616912842, 0.019170671701431274, -0.0051671164110302925, -0.04807301238179207, 0.015534932725131512, -0.04385419189929962, -0.10875089466571808, 0.00023720040917396545, 0.07730075716972351, -0.055808860808610916, -0.07782931625843048, 0.012150688096880913, -0.12751635909080505, -0.008000806905329227, -0.01562429592013359, 0.008412288501858711, -0.029698574915528297, -0.06952492892742157, -0.010173085145652294, -0.0940341055393219, 0.055360108613967896, -0.06638206541538239, -0.01960325613617897, -0.07695422321557999, -0.09712085127830505, -0.061648327857255936, 0.034061409533023834, 0.020745890215039253, -0.03434528410434723, -0.03267299383878708, 0.039244987070560455, -0.13366980850696564, 0.09903090447187424, 0.04379632696509361, 0.07202202826738358, -0.044693928211927414, -0.11600454151630402, -0.009940949268639088, -0.01480050291866064, 5.0377660954836756e-05, -0.054385364055633545, -0.037396762520074844, 0.07220461219549179, -0.02184455841779709, -0.03584451228380203, 0.07642108201980591, -0.06213957071304321, -0.01029536034911871, 0.0959925577044487, -0.056200262159109116, -0.04543978348374367, -0.05661915987730026, 0.07858134061098099, -0.043005455285310745, -0.023749597370624542, -0.05813074856996536, -0.06740941107273102, 0.053940899670124054, -0.006311745848506689, -0.08850584924221039, -0.045950789004564285, -0.03741033375263214, -0.031886469572782516, 0.07114866375923157, -0.016031315550208092], [0.04126644507050514, -0.0389571450650692, 0.026877325028181076, -0.11139801144599915, -0.015289729461073875, -0.14228686690330505, -0.017360778525471687, -0.10655385255813599, -0.10178346186876297, -0.02008444257080555, -0.22356604039669037, -0.14637847244739532, -0.022065522149205208, 0.04973018914461136, -0.14823101460933685, -0.08939744532108307, -0.012137244455516338, -0.04757431149482727, 0.011885235086083412, -0.03314199298620224, -0.06150815635919571, -0.10886721312999725, 0.07368925958871841, -0.14100657403469086, 0.05001773312687874, -0.0492621585726738, 0.051660969853401184, -0.026035718619823456, -0.05231174826622009, -0.03850233927369118, -0.10111533850431442, -0.11111295968294144, -0.1456035077571869, -0.017500966787338257, -0.04166111350059509, -0.040301382541656494, -0.007677631452679634, 0.0016886512748897076, -0.09351810067892075, -0.15554319322109222, -0.008523553609848022, -0.03028213605284691, 0.035378240048885345, -0.0403960719704628, -0.034685056656599045, -0.026179684326052666, -0.08494497090578079, -0.07380859553813934, -0.12472548335790634, -0.0022367846686393023, 0.029141684994101524, 0.042227551341056824, 0.03028385527431965, -0.10475535690784454, 0.07774143666028976, 0.02043258212506771, -0.07213329523801804, -0.04340027645230293, -0.045124828815460205, -0.06758527457714081, 0.07271110266447067, 0.016680222004652023, 0.006643814034759998, -0.03272230178117752, -0.03222490847110748, 0.022215012460947037, -0.04187231883406639, -0.04929090291261673, -0.02194773405790329, -0.03498294577002525, 0.06791578233242035, -0.05260908603668213, -0.042976316064596176, -0.1681877076625824, 0.17978332936763763, -0.1570102870464325, -0.12150304764509201, -0.08277934044599533, -0.030161278322339058, -0.07519561052322388, -0.1068739965558052, -0.07256906479597092, -0.010780159384012222, -0.02393985539674759, -0.09356030821800232, 0.013730721548199654, -0.03372136130928993, -0.06093405559659004, -0.1374122053384781, -0.1127888560295105, -0.015247927978634834, -0.08713866025209427, -0.013517521321773529, -0.140196293592453, -0.1166580468416214, -0.011168626137077808, -0.06619821488857269, -0.14350928366184235, 0.11618119478225708, 0.04318428039550781, -0.01789068803191185, -0.018484659492969513, 0.08787424117326736, -0.11185671389102936, -0.037912361323833466, -0.055714305490255356, -0.14034642279148102, -0.13733962178230286, -0.14804302155971527, 2.0299223251640797e-05, -0.010491139255464077, -0.020151089876890182, -0.015579276718199253, -0.07601138949394226, 0.0022585680708289146, -0.06999441236257553, -0.0802081823348999, 0.028213171288371086, -0.04390560835599899, -0.0242044348269701, -0.09865476191043854, 0.046074073761701584, -0.07559657096862793, -0.04113549366593361, -0.023511964827775955, -0.07594096660614014, -0.03407207131385803, -0.0466308556497097], [0.02906627394258976, -0.13470424711704254, 0.023972248658537865, 0.041847843676805496, 0.028152164071798325, 0.051781218498945236, -0.06291594356298447, 0.015735868364572525, -0.1682436466217041, -0.0786905437707901, -0.04041360318660736, -0.004593042656779289, -0.020634977146983147, 0.022755855694413185, 0.1497284471988678, -0.11339176446199417, -0.004784687887877226, -0.0033890362828969955, -0.024228235706686974, -0.06513547152280807, -0.010380253195762634, 0.020729651674628258, 0.09893737733364105, -0.03272135555744171, 0.025164281949400902, -0.03285487741231918, 0.09912268817424774, -0.0260342787951231, 0.02138115093111992, 0.07241319864988327, 0.05579202622175217, -0.08759916573762894, 0.0002224216004833579, -0.12604840099811554, -0.029815206304192543, 0.02806556411087513, -0.027632087469100952, -0.016191022470593452, -0.0730234757065773, -0.05545708164572716, -0.0835360586643219, 0.05437735840678215, -0.10909589380025864, 0.07153905183076859, -0.09438005089759827, 5.146127659827471e-05, -0.1199687123298645, 0.05480057746171951, 0.05319900065660477, -0.0635785162448883, 0.026467707008123398, -0.1120259091258049, 0.09038049727678299, 0.026583509519696236, -0.04616084322333336, -0.03845048323273659, 0.06090007722377777, -0.0305681973695755, 0.05375866964459419, 0.04200992360711098, 0.010706214234232903, -0.005472931079566479, 0.1145404726266861, 0.020645270124077797, 0.10984469205141068, -0.01890542544424534, 0.042093999683856964, -0.1242712140083313, -0.03379109501838684, -0.029100297018885612, -0.07710199803113937, -0.011607177555561066, 0.06459834426641464, 0.03481108695268631, 0.08245213329792023, 0.07262556254863739, 0.058934081345796585, 0.05347638949751854, -0.040257979184389114, 0.02051510661840439, 0.10649014264345169, -0.034228142350912094, -0.0717507004737854, -0.057445965707302094, 0.017657127231359482, -0.03020000271499157, -0.0989580750465393, -0.08041343837976456, 0.034248266369104385, -0.18979856371879578, -0.05847972258925438, -0.02869437262415886, -0.09114587306976318, 0.011427800171077251, 0.1174444630742073, 0.0722917690873146, -0.06778626143932343, -0.028835700824856758, -0.15340150892734528, -0.061502616852521896, 0.09267174452543259, 0.08248994499444962, -0.07397252321243286, 0.05950235202908516, 0.05891505628824234, -0.06282699108123779, 0.009774365462362766, 0.08331054449081421, -0.11150801181793213, -0.05199228972196579, -0.22871768474578857, -0.09359854459762573, 0.03443588688969612, 0.052636127918958664, 0.09205526113510132, -0.034876499325037, -0.0070195975713431835, -0.07886329293251038, 0.0834592953324318, -0.06551653891801834, 0.01592358388006687, -0.17217959463596344, -0.03719542920589447, -0.19972126185894012, 0.003417419968172908, 0.012263596057891846, 0.04260871931910515, -0.06652531027793884], [-0.1612335443496704, 0.10176447033882141, 0.0018899469869211316, 0.1345539689064026, 0.03456813469529152, 0.05190615355968475, -0.042103126645088196, -0.15163308382034302, -0.08583333343267441, 0.027279529720544815, 0.0059381453320384026, -0.08108697086572647, -0.04713722690939903, -0.09469154477119446, -0.008719521574676037, -0.09141242504119873, -0.03603291139006615, 0.15586914122104645, -0.0404435396194458, 0.02708052098751068, -0.17037786543369293, -0.09817161411046982, -0.09812063723802567, 0.1272924244403839, -0.059610746800899506, -0.046731628477573395, -0.058419112116098404, -0.08686535805463791, -0.05510871857404709, -0.009863186627626419, -0.028154613450169563, -0.007088653277605772, 0.08380836248397827, -0.16779114305973053, -0.020230520516633987, -0.010636243969202042, -0.04603182151913643, 0.07236859947443008, 0.08413246273994446, -0.14914344251155853, -0.136016383767128, -0.019310129806399345, 0.0774630680680275, -0.039541613310575485, -0.05945149064064026, -0.03582371771335602, -0.19513945281505585, -0.07818946242332458, -0.059956833720207214, -0.02633671648800373, 0.07461640983819962, 0.014071429148316383, -0.03754992038011551, 0.04864944517612457, -0.13506372272968292, -0.08819020539522171, -0.07123754918575287, 0.05130847916007042, 0.08412749320268631, 0.0920860767364502, -0.04084697365760803, -0.05005661025643349, -0.007162897381931543, 0.07549508661031723, -0.05417986214160919, -0.034472230821847916, -0.005410073325037956, -0.23485268652439117, 0.04880327731370926, -0.02923848293721676, -0.010258055292069912, 0.01920328475534916, -0.05435631424188614, 0.0427202507853508, -0.1451830118894577, -0.061604756861925125, -0.011801213026046753, -0.06086160987615585, -0.01922430843114853, 0.046296969056129456, 0.05945194140076637, -0.1734595000743866, -0.03964492678642273, -0.03642268478870392, 0.0910944864153862, 0.042619284242391586, 0.0075395856983959675, -0.1408156156539917, -0.09549717605113983, 0.10858691483736038, -0.019676415249705315, 0.01745671220123768, 0.027817318215966225, -0.10257598757743835, -0.07854899019002914, -0.08581363409757614, -0.14028030633926392, -0.05324605852365494, -0.008345766924321651, -0.022488942369818687, 0.01897222176194191, -0.004504278302192688, -0.1794612556695938, -0.1663326919078827, -0.06350782513618469, -0.08020216971635818, -0.12532660365104675, 0.03690803796052933, -0.0989866554737091, -0.019805893301963806, 0.10979378968477249, 0.00666480278596282, 0.03600484877824783, -0.0955272987484932, -0.06813615560531616, 0.03465990349650383, -0.04641806334257126, 0.08327950537204742, -0.060298386961221695, -0.07156259566545486, -0.1306835412979126, -0.02665811777114868, -0.03966662660241127, -0.0082466471940279, -0.09723566472530365, 0.06963004171848297, 0.014734198339283466, -0.14745071530342102], [-0.1197470873594284, -0.07228553295135498, -0.061041899025440216, 0.029335495084524155, -0.04384158179163933, -0.028015919029712677, -0.09893514215946198, -0.0383063443005085, -0.03304183855652809, 0.03566383942961693, 0.03688375651836395, 0.0451069213449955, 0.05757580325007439, -0.11181984096765518, -0.11404187977313995, 0.08752270042896271, -0.05103576183319092, -0.2299834042787552, 0.10305539518594742, 0.02048666402697563, 0.11756837368011475, -0.042583268135786057, -0.04339030385017395, -0.132360577583313, -0.22132571041584015, 0.1039711982011795, -0.17603160440921783, -0.050823334604501724, -0.12987574934959412, -0.13022072613239288, -0.08875991404056549, 0.027444615960121155, -0.07776239514350891, 0.12948504090309143, -0.21028679609298706, 0.006420092191547155, 0.09462428838014603, 0.03064517118036747, -0.0826755091547966, -0.014561085030436516, -0.0688510313630104, -0.10932298749685287, -0.038749661296606064, -0.14152498543262482, -0.15355120599269867, 0.18351951241493225, -0.05407598987221718, -0.061037328094244, -0.044598475098609924, 0.0034857681021094322, 0.04401306062936783, -0.07362779974937439, -0.00021440183627419174, -0.21197181940078735, 0.014400413259863853, -0.15510983765125275, -0.02502436935901642, 0.015548215247690678, -0.04317875951528549, -0.10938236862421036, -0.12897902727127075, 0.007455175742506981, -0.03658067062497139, 0.04160528630018234, 0.15383492410182953, 0.0011407459387555718, -0.17226436734199524, -0.006987961940467358, 0.07067394256591797, -0.05812612548470497, -0.11063686013221741, -0.006959103047847748, 0.10660872608423233, -0.12296310067176819, -0.14561596512794495, -0.03479177504777908, 0.05753062665462494, -0.01827949285507202, -0.07777117192745209, 0.05618850886821747, -0.08886381983757019, -0.16605404019355774, -0.16010041534900665, -0.0398767814040184, -0.08010540902614594, -0.06422307342290878, -0.1744491010904312, 0.029059993103146553, 0.03926030173897743, 0.06980005651712418, 0.12021908909082413, 0.01503250002861023, -0.002840269124135375, -0.15957579016685486, -0.03867732360959053, -0.16273964941501617, 0.11166620254516602, 0.0023766886442899704, -0.05480615422129631, -0.07724688202142715, 0.06516928970813751, -0.008269736543297768, -0.06071692705154419, 0.08078556507825851, -0.011733313091099262, 0.02438783273100853, -0.00853976234793663, -0.23209036886692047, -0.17289948463439941, -0.020418409258127213, -0.11373291164636612, -0.020553259178996086, -0.04301660135388374, -0.00598983746021986, -0.02342248521745205, -0.008967987261712551, 0.03644796833395958, -0.11280172318220139, -0.028792589902877808, -0.17361952364444733, 0.0339369922876358, -0.07341650873422623, -0.038096148520708084, -0.14343449473381042, 0.011562726460397243, -0.030055677518248558, 0.14196553826332092, -0.008738592267036438], [0.04863854497671127, -0.07484754920005798, -0.03121955692768097, -0.07361418753862381, -0.05823957547545433, -0.12123800069093704, -0.015048302710056305, 0.06939394026994705, 0.01622815802693367, 0.0002149948850274086, -0.06908804178237915, 0.003324579680338502, -0.062466081231832504, -0.0474906750023365, 0.12694990634918213, -0.014273971319198608, 0.06626021862030029, -0.0057676429860293865, 0.0650704875588417, -0.029856370761990547, 0.1446528136730194, -0.02715933881700039, -0.06513569504022598, -0.055857498198747635, 0.061960846185684204, 0.07596080750226974, -0.018216973170638084, 0.03531821072101593, -0.19350746273994446, -0.008071057498455048, -0.029242755845189095, 0.02668464370071888, 0.09723915904760361, -0.07377710938453674, 0.060020189732313156, -0.055838435888290405, -0.0006001227302476764, -0.049152690917253494, -0.06082351133227348, 0.015201812610030174, 0.034554023295640945, -0.16452430188655853, 0.11979415267705917, 0.045993953943252563, -0.05704134702682495, -0.10710104554891586, 0.11781221628189087, -0.027091851457953453, -0.10853271931409836, -0.08937215059995651, -0.005539742764085531, -0.011071345768868923, -7.236376404762268e-06, -0.07041393220424652, -0.01876840926706791, 0.05223262310028076, -0.04544974863529205, 0.026849329471588135, 0.08492665737867355, -0.13165344297885895, 0.025121815502643585, 0.03662975877523422, -0.04854145646095276, -0.13635458052158356, -0.024700704962015152, -0.06820038706064224, -0.11442010849714279, 0.047651514410972595, 0.004294834099709988, -0.10287806391716003, 0.03845718130469322, -0.033427413552999496, -0.13501965999603271, 0.056856073439121246, -0.017304114997386932, 0.1191246286034584, 0.015379359014332294, 0.05908755213022232, -0.09101849794387817, 0.07650826871395111, 0.033410001546144485, -0.08531612157821655, -0.06171177327632904, 0.026657400652766228, 0.005322991870343685, 0.0453580804169178, -0.04516113921999931, 0.015370878390967846, -0.12195475399494171, 0.024521809071302414, -0.013182702474296093, 0.07401208579540253, -0.10208354890346527, -0.05041423439979553, 0.01548797357827425, 0.0759706050157547, -0.010974107310175896, -0.07501178234815598, -0.027822278439998627, 0.11982350051403046, -0.04335508123040199, 0.08611136674880981, -0.1616748422384262, -0.015193363651633263, -0.03461955860257149, 0.015375547111034393, -0.032274775207042694, -0.0003752069897018373, -0.06754050403833389, 0.06645432114601135, -0.05744156241416931, -0.03472556918859482, -0.025546476244926453, -0.057656288146972656, -0.04829544574022293, -0.02839425951242447, 0.06876753270626068, 0.008463872596621513, 0.1291826218366623, -0.11355309188365936, -0.1113455593585968, -0.134237140417099, 0.07902074605226517, -0.005981022026389837, -0.036054182797670364, -0.044460229575634, -0.07490917295217514, 0.0020503078121691942], [-0.087117038667202, -0.026752669364213943, 0.11989579349756241, -0.09766357392072678, -0.05133030563592911, 0.021541206166148186, -0.0633826032280922, -0.08614253252744675, 0.06744246929883957, -0.013273682445287704, -0.023379478603601456, -0.022945137694478035, 0.1285436749458313, 0.010757038369774818, -0.0059084356762468815, 0.1108655333518982, 0.02046223357319832, 0.07958894968032837, 0.16940096020698547, 0.03951665759086609, -0.01912578195333481, -0.0985647588968277, -0.04036850854754448, -0.05344703048467636, -0.05377613753080368, 0.12466181069612503, -0.09663523733615875, -0.00041219149716198444, 0.060506876558065414, 0.12896285951137543, -0.0387837253510952, -0.2139493077993393, -0.0589187927544117, 0.0043021924793720245, -0.027978621423244476, 0.051111847162246704, 0.04892519861459732, 0.04286746680736542, 0.10128803551197052, 0.047274310141801834, 0.196671724319458, -0.09476836025714874, -0.045175544917583466, -0.06395459920167923, -0.20964574813842773, -0.0778275802731514, -0.08482610434293747, 0.03723607584834099, -0.0722086951136589, 0.018740076571702957, 0.02318265661597252, 0.017296653240919113, -0.06650292128324509, 0.05349597707390785, -0.012450181879103184, -0.0053009772673249245, 0.00755110289901495, -0.10487762093544006, -0.06137900799512863, 0.00715238694101572, -0.020121650770306587, -0.05090990662574768, -0.11455205082893372, 0.03961843252182007, -0.18122461438179016, 0.042387306690216064, -0.01255219615995884, -0.07218829542398453, -0.1830032914876938, -0.13736511766910553, 0.029576564207673073, -0.03736427053809166, -0.04230267181992531, -0.05383160710334778, -0.08060616254806519, -0.011648597195744514, 0.03098270110785961, -0.02917737327516079, 0.04347337409853935, 0.018541481345891953, 0.024431763216853142, 0.02582571655511856, -0.05349234119057655, -0.04714309796690941, 0.04562602937221527, -0.036227997392416, 0.08249259740114212, 0.09681418538093567, -0.006983024068176746, 0.07778023183345795, 0.061816126108169556, -0.01930345967411995, -0.07837194949388504, -0.16032715141773224, -0.07177302241325378, -0.04925116151571274, -0.02470804564654827, -0.059860825538635254, 0.07722661644220352, -0.023620285093784332, 0.02193923108279705, 0.009011355228722095, -0.1839922070503235, -0.1329856961965561, 0.09078501909971237, -0.08751010149717331, 0.09674771875143051, 0.006674511358141899, 0.1753162294626236,