{"model.0.weight": [[-0.0826660692691803, 0.042122624814510345, 0.0483471043407917, -0.042682819068431854, 0.06909701228141785, 0.12953554093837738, -0.034732211381196976, -0.06354676187038422, -0.11116447299718857, -0.039076067507267, 0.023548312485218048, -0.1903001219034195, -0.07021673023700714, 0.05674197897315025, 0.020225610584020615, -0.06808921694755554, -0.046114880591630936, 0.09682320058345795, 0.006077335216104984, 0.04473971948027611], [-0.06920260936021805, 0.10549703240394592, 0.02082863077521324, 0.11266680061817169, -0.02370958775281906, 0.10013843327760696, -0.019430413842201233, 0.06736060976982117, -0.0024366751313209534, -0.11743766069412231, -0.07803608477115631, -0.0058503965847194195, 0.13332998752593994, -0.08512271195650101, -0.10480112582445145, -0.05224165692925453, 0.06752552092075348, 0.014817937277257442, 0.049445200711488724, -0.0917305201292038], [-0.05196363851428032, 0.08486524224281311, 0.03645806014537811, -0.0372483991086483, -0.07589118182659149, -0.07756398618221283, -0.03692510724067688, 0.07589517533779144, -0.03391779586672783, -0.10036399960517883, -0.023946484550833702, 0.04718126356601715, 0.07755935937166214, 0.005992857273668051, 0.045557018369436264, 0.02658403292298317, 0.10945267230272293, 0.04527386650443077, -0.04114404693245888, -0.11851461976766586], [0.023117724806070328, -0.04287920892238617, -0.06140391528606415, -0.03569196164608002, -0.047131940722465515, -0.08849585056304932, 0.017503641545772552, 0.044691674411296844, 0.1153414249420166, 0.02262156829237938, -0.021835945546627045, 0.12755979597568512, -0.045670900493860245, -0.09326612949371338, 0.02900860458612442, -0.03666955977678299, -0.010727185755968094, -0.08053910732269287, -0.10879851877689362, 0.061698492616415024], [-0.05193562060594559, -0.06667619198560715, -0.08456316590309143, -0.0352446474134922, -0.004788721911609173, -0.08679192513227463, -0.028046689927577972, -0.11317170411348343, -0.025374295189976692, -0.06054989621043205, 0.056977301836013794, -0.005789603106677532, 0.06231527775526047, -0.10098174214363098, -0.007774339523166418, -0.01176817249506712, -0.10899760574102402, -0.020098190754652023, 0.03951104357838631, -0.06428513675928116], [0.0028731636703014374, 0.1515260934829712, -0.09594880789518356, -0.0629846528172493, -0.0056013730354607105, -0.0029454100877046585, 0.053700610995292664, -0.03335347771644592, -0.041793275624513626, 0.01810402236878872, 0.04889988154172897, 0.10686264932155609, -0.01670216955244541, 0.13090023398399353, 0.07537512481212616, -0.028200581669807434, 0.014180300757288933, 0.0684959664940834, -0.03269632160663605, -0.02247265726327896], [0.031344879418611526, -0.08734357357025146, 0.066530741751194, 0.03965951129794121, 0.13001631200313568, 0.0364505872130394, 0.001104893279261887, -0.009009179659187794, -0.008113572373986244, -0.0020755622535943985, 0.10457933694124222, -0.09926614910364151, 0.014689024537801743, 0.09112658351659775, 0.03894170746207237, 0.049504585564136505, 0.09468895196914673, 0.06059902533888817, -0.05274016037583351, -0.04046805202960968], [-0.08101216703653336, -0.04318944364786148, 0.044766657054424286, -0.007005210965871811, 0.04521320015192032, -0.0008805250399746001, 0.03638545051217079, 0.013705255463719368, -0.10695270448923111, -0.1261126846075058, 0.035565391182899475, 0.02108253538608551, 0.09748222678899765, -0.009373165667057037, 0.010826123878359795, -0.0463450588285923, 0.053024619817733765, -0.10953933000564575, -0.09432529658079147, 0.000832180492579937], [0.07463831454515457, 0.0858326181769371, -0.011161980219185352, -0.05656910315155983, -0.03539884835481644, -0.05708181485533714, -0.024383002892136574, -0.10047359764575958, 0.13287031650543213, -0.08889974653720856, -0.08717004209756851, -0.018443310633301735, -0.06119859963655472, 0.1163826659321785, 0.05461125448346138, 0.010892787016928196, 0.06174832209944725, 0.022632725536823273, -0.02327987179160118, 0.06995516270399094], [-0.010285514406859875, 0.015909269452095032, -0.02711600810289383, -0.008782610297203064, 0.014345608651638031, -0.03237855061888695, 0.025939682498574257, -0.02280694991350174, -0.03188217803835869, -0.013385544531047344, -0.16408103704452515, 0.13617433607578278, 0.07974115759134293, -0.044863298535346985, 0.06621585786342621, 0.01696760393679142, -0.10486780852079391, -0.0756923109292984, 0.0676271915435791, 0.01771494746208191], [0.12319396436214447, 0.04823208227753639, 0.04932919517159462, -0.045203547924757004, -0.04412223398685455, 0.010976850055158138, -0.018342653289437294, -0.015082057565450668, -0.07269491255283356, 0.023654049262404442, -0.03462747111916542, -0.02672501653432846, -0.04759465157985687, 0.07386928051710129, -0.05399724096059799, -0.0009225535322912037, 0.0064330813474953175, -0.08112285286188126, 0.026629317551851273, 0.06066794693470001], [0.02094399929046631, 0.02018645405769348, 0.08431659638881683, -0.021003087982535362, -0.035629719495773315, 0.07812909036874771, 0.1528550684452057, 0.1189059391617775, -0.01849219761788845, 0.02632690966129303, 0.05891551822423935, 0.035636674612760544, -0.08578719198703766, 0.07483775168657303, -0.022140901535749435, -0.043803729116916656, -0.033867012709379196, -0.03390190377831459, -0.007376161869615316, -0.015439708717167377], [-0.05410856753587723, 0.018362296745181084, -0.04270998761057854, 0.010695093311369419, 0.006840131711214781, 0.13291512429714203, -0.045437827706336975, -0.04719071462750435, 0.06625215709209442, 0.16143205761909485, 0.03994673863053322, -0.05116862431168556, 0.06904254853725433, -0.049541667103767395, 0.04663652181625366, 0.05081132426857948, -0.014114994555711746, 0.0357029102742672, -0.013727736659348011, 0.05944942310452461], [-0.010953902266919613, 0.03398391976952553, -0.009417605586349964, -0.037565890699625015, 0.05071742832660675, 0.039840131998062134, 0.005954528693109751, -0.1115078255534172, 0.04715012386441231, -0.0019852817058563232, 0.06801019608974457, 0.009512024000287056, 0.01615133509039879, 0.0027159920427948236, -0.01121809147298336, -0.021310433745384216, 0.009356745518743992, -0.08784795552492142, -0.015152296051383018, 0.059137891978025436], [0.11375156790018082, -0.14313237369060516, 0.010081019252538681, -0.05054857209324837, 0.08767296373844147, -0.08921730518341064, -0.10846900194883347, -0.0473872609436512, -0.08946855366230011, 0.0608539879322052, -0.07416366785764694, -0.08534521609544754, -0.039291899651288986, -0.011654159054160118, 0.011493561789393425, 0.11627460271120071, 0.04337020218372345, 0.09819690883159637, -0.05202334746718407, -0.05795704945921898], [0.12379543483257294, 0.029010705649852753, -0.1178363561630249, 0.04990183934569359, -0.03350823000073433, -0.060994043946266174, -0.04022100567817688, -0.010118512436747551, 0.07895839959383011, -0.03316178545355797, -0.04386745020747185, -0.04738326370716095, 0.008330252952873707, 0.08806216716766357, 0.052634961903095245, 0.04012686386704445, -0.08471720665693283, -0.03791528567671776, 0.022121718153357506, -0.06227458640933037], [-0.03041045553982258, -0.0019182420801371336, 0.007350428029894829, 0.03206730633974075, 0.009979398921132088, 0.004391336347907782, 0.01801937259733677, 0.07528485357761383, -0.08602865040302277, -0.046286605298519135, 0.05102524533867836, 0.0719124898314476, 0.03951660171151161, 0.05657994747161865, 0.06411777436733246, 0.004659473430365324, 0.034768205136060715, 0.039542991667985916, -0.1012454703450203, 0.07914958894252777], [-0.07851498574018478, 0.01404507551342249, -0.13619942963123322, 0.0756530687212944, -0.10611402243375778, 0.016556600108742714, 0.045568887144327164, 0.056652069091796875, -0.049991752952337265, -0.07746230810880661, 0.00750123243778944, -0.07327788323163986, -0.013002640567719936, -0.05502153933048248, -0.05738881602883339, 0.011886892840266228, -0.035239070653915405, 0.0984327644109726, 0.05228179320693016, 0.00945732370018959], [0.04579563066363335, 0.07888949662446976, -0.053833331912755966, -0.09750553965568542, -0.10803324729204178, -0.06295637786388397, 0.03921858221292496, 0.10452661663293839, -0.03665769100189209, -0.012928841635584831, 0.05945389345288277, -0.039497096091508865, 0.07223141938447952, -0.07631540298461914, 0.008030965924263, 0.1115945354104042, 0.019555289298295975, -0.047942742705345154, -0.02576804906129837, -0.011591773480176926], [0.03988000005483627, -0.0066643450409173965, 0.029870932921767235, -0.05036888271570206, -0.07749103754758835, -0.07267271727323532, 0.07163553684949875, 0.11758614331483841, 0.07798522710800171, -0.10089817643165588, 0.03514798730611801, 0.019784165546298027, 0.020672902464866638, -0.018689895048737526, 0.008650719188153744, -0.015005108900368214, 0.049129460006952286, 0.12061380594968796, 0.0674126073718071, -0.14774174988269806], [-0.024810265749692917, -0.038400717079639435, -0.04073309525847435, -0.029626959934830666, 0.00961749441921711, 0.0987229272723198, -0.028433896601200104, -0.05101318657398224, -0.021640976890921593, 0.01582425832748413, -0.07506764680147171, -0.02037358097732067, -0.0020085833966732025, 0.01077368762344122, 0.052108194679021835, 0.05651281401515007, 0.022220268845558167, 0.01847178302705288, 0.01897885464131832, -0.02709263190627098], [-0.01925545558333397, 0.0033748429268598557, -0.09381809085607529, 0.07824479043483734, -0.05848358944058418, 0.004382187034934759, -0.009937646798789501, 0.13225868344306946, 0.05256064608693123, -0.017136454582214355, 0.048822179436683655, -0.04182957112789154, 0.016541779041290283, 0.056005317717790604, -0.09630583226680756, 0.033490460366010666, -0.02551835961639881, 0.06918969005346298, 0.04422428831458092, -0.09087070822715759], [0.06581997126340866, -0.014063014648854733, 0.004706704989075661, 0.029631363227963448, -0.0017163918819278479, -0.08249182999134064, 0.06107866019010544, 0.1352086365222931, -0.05823512375354767, 0.05130094289779663, 0.0038446146063506603, -0.023674461990594864, 0.03662582486867905, -0.09877102077007294, 0.026798320934176445, 0.027769841253757477, 0.06929042190313339, 0.04051896184682846, 0.13041767477989197, -0.02178405225276947], [-0.025390587747097015, -0.07965271174907684, -0.07330146431922913, 0.001098859473131597, -0.0004590439493767917, 0.059895116835832596, -0.06566957384347916, 0.05867302790284157, 0.04880325496196747, -0.16640429198741913, -0.13073447346687317, -0.12071269005537033, -0.00520956888794899, -0.06481607258319855, 0.09268123656511307, -0.04072186350822449, 0.027834128588438034, -0.034240372478961945, -0.12318585067987442, 0.0210184957832098], [-0.08982549607753754, -0.04021497443318367, 0.058440204709768295, 0.04872414469718933, -0.09919828921556473, 0.07719551026821136, 0.0503663569688797, -0.07594093680381775, 0.02870490588247776, -0.051695384085178375, 0.012337879277765751, -0.08170486986637115, 0.0685623437166214, -0.07219502329826355, 0.06534021347761154, -0.02029951848089695, 0.051381777971982956, 0.06506823003292084, 0.003928316757082939, -0.012728281319141388], [0.07115180045366287, -0.08771681785583496, 0.01945595256984234, -0.054801296442747116, 0.026200711727142334, 0.0013159678783267736, -0.04516609385609627, 0.11680174618959427, 0.10053064674139023, -0.012628667987883091, -0.021187225356698036, -0.06915820389986038, -0.0037188332062214613, 0.06259449571371078, 0.02154640294611454, 0.10735374689102173, 0.0416230745613575, -0.0007142610265873373, 0.09602104127407074, 0.11114420741796494], [-0.0673237293958664, 0.006362885236740112, 0.036729469895362854, 0.08995474129915237, -0.050440218299627304, 0.04722750931978226, 0.02323782630264759, 0.013218952342867851, 0.02301921509206295, 0.0008118905825540423, 0.04962730407714844, 0.025942334905266762, 0.0044293529354035854, -0.026033831760287285, -0.00303987180814147, 0.09967751055955887, -0.04276420548558235, 0.0521455742418766, -0.0912429466843605, -0.08561470359563828], [0.005823798011988401, 0.038688719272613525, 0.05039026588201523, 0.0715036690235138, 0.0056268866173923016, 0.16356736421585083, -0.03393373265862465, -0.07385458052158356, -0.028997253626585007, -0.001505887252278626, -0.05128791555762291, 0.06569892913103104, 0.06689726561307907, 0.06566103547811508, 0.003936918918043375, -0.04199039563536644, 0.08922293782234192, -0.11757248640060425, -0.012209649197757244, -0.04360409080982208], [0.013001729734241962, 0.01229848526418209, 0.13392117619514465, -0.023093264549970627, 0.0188218392431736, -0.0015313820913434029, -0.025263790041208267, 0.06621600687503815, -0.032044071704149246, 0.03739682212471962, -0.025446191430091858, 0.07477384060621262, -0.0951717272400856, 0.059852246195077896, 0.012057187967002392, -0.09984087944030762, 0.09425251930952072, -0.06446277350187302, 0.023105045780539513, -0.10621102899312973], [0.030516475439071655, 0.04980507120490074, 0.07480771839618683, 0.003665223252028227, -0.05714369937777519, 0.011282525025308132, -0.07154275476932526, 0.10535937547683716, 0.11982180923223495, 0.019284924492239952, -0.040309663861989975, -0.04006834328174591, 0.05539827421307564, -0.062390703707933426, -0.00036507786717265844, 0.004368190187960863, 0.13240310549736023, 0.050111304968595505, -0.035422589629888535, -0.0586150698363781], [-0.058688435703516006, -0.10297055542469025, 0.023009343072772026, -0.04856684058904648, -0.05292922630906105, 0.13653193414211273, -0.10801385343074799, -0.062306612730026245, -0.015556076541543007, 0.01646054908633232, -0.04293627291917801, -0.000744248740375042, 0.059810820966959, -0.020292004570364952, 0.0372953861951828, 0.038202010095119476, 0.0754779800772667, 0.009104280732572079, 0.08541267365217209, -0.012569159269332886], [0.059277553111314774, -0.0515616238117218, -0.023021969944238663, 0.047065358608961105, -0.0074884104542434216, 0.09643837064504623, 0.04908028990030289, 0.05403514206409454, -0.12621882557868958, -0.057276830077171326, -0.06564542651176453, -0.09839846938848495, -0.0021515311673283577, 0.06029478460550308, -0.07563506811857224, 0.020418185740709305, 0.06488791853189468, 0.0022290674969553947, 0.05482224002480507, 0.001997975166887045], [0.08986495435237885, 0.047619935125112534, 0.06669866293668747, -0.13655640184879303, 0.044092122465372086, -0.036817990243434906, 0.12505654990673065, 0.04541734606027603, -0.09028805792331696, -0.0766104981303215, 0.04836280643939972, 0.06748092919588089, -0.02794681489467621, 0.005163966678082943, -0.006706696934998035, -0.039693430066108704, -0.06245483458042145, 0.09127910435199738, -0.02419726923108101, 0.041568323969841], [-0.08003142476081848, -0.047251101583242416, 0.0005421608220785856, -0.12394766509532928, -0.07528119534254074, 0.01847076416015625, 0.030394062399864197, -0.050089091062545776, -0.0506749227643013, 0.00020414762548170984, -0.014370298944413662, -0.00885764230042696, 0.022814102470874786, -0.02538955956697464, 0.006462735589593649, 0.07660096883773804, 0.001667295815423131, -0.006498032249510288, 0.055753957480192184, -0.10052105039358139], [-0.04255999997258186, 0.03136260434985161, 0.06225702911615372, -0.043043103069067, 0.055147163569927216, 0.06381330639123917, 0.06113104149699211, -0.040524672716856, -0.06427324563264847, -0.022809645161032677, -0.06646031886339188, 0.148131862282753, 0.05428182706236839, 0.0005677777226082981, 0.05544682964682579, -0.008793313056230545, 0.019847504794597626, 0.01928645558655262, -0.034411054104566574, 0.006511814426630735], [0.02634824812412262, -0.08700764179229736, -0.05845868960022926, 0.08960897475481033, -0.036877404898405075, -0.04787297174334526, 0.035591114312410355, 0.0034498528111726046, 0.07771621644496918, 0.05038798227906227, 0.04186902940273285, 0.03165506571531296, -0.09199211001396179, 0.026815034449100494, -0.0020480582024902105, 0.0368194505572319, -0.031833041459321976, -0.08310152590274811, 0.027257239446043968, 0.057859472930431366], [-0.06328020244836807, 0.10678417980670929, -0.07343307137489319, 0.13529662787914276, 0.04511323943734169, -0.0018516553100198507, 0.02279755286872387, 0.06749732792377472, -0.022546205669641495, 0.07371724396944046, 0.040741726756095886, -0.014502356760203838, -0.020644262433052063, 0.029461653903126717, 0.006186703220009804, 0.006819449365139008, -0.07868234068155289, 0.10400442779064178, -0.015822116285562515, 0.011522502638399601], [-0.14406587183475494, -0.07260012626647949, 0.01676846854388714, -0.05972510203719139, 0.08225440979003906, -0.06262905895709991, 0.08264085650444031, 0.17817053198814392, 0.07997620850801468, -0.06851644068956375, -0.06763623654842377, -0.00966945942491293, -0.0432678647339344, 0.04575330764055252, 0.10280771553516388, 0.027027126401662827, -0.04751118645071983, -0.055132906883955, -0.10757391154766083, 0.029749060049653053], [-0.03767877817153931, -0.058766741305589676, -0.010771017521619797, 0.00024700944777578115, -0.029562892392277718, -0.009564610198140144, -0.04217836633324623, 0.01140680443495512, 0.04108203575015068, 0.09972933679819107, 0.011899045668542385, 0.04895959794521332, 0.08003110438585281, 0.09819406270980835, 0.060290440917015076, 0.04237549751996994, 0.06919553130865097, -0.010423715226352215, 0.010207084007561207, -0.06851479411125183], [0.05058228224515915, -0.005395779386162758, 0.0008014217601157725, 0.059123508632183075, 0.014310728758573532, 0.0683325007557869, -0.12421261519193649, 0.0020774169825017452, -0.007893956266343594, 0.02827472798526287, -0.03963778167963028, -0.018393149599432945, -0.0194122064858675, 0.043562423437833786, -0.006940382532775402, 0.12297302484512329, -0.05271207541227341, 0.12030275911092758, 0.05074683949351311, 0.05756552144885063], [-0.040774859488010406, -0.047113459557294846, -0.10649022459983826, -0.03873397782444954, 0.026409469544887543, -0.031085701659321785, 0.003535954747349024, -0.04706418514251709, 0.03480483591556549, -0.03234070912003517, -0.012705426663160324, 0.07403606176376343, -0.08318314701318741, -0.02788577601313591, -0.026353752240538597, 0.03980535641312599, 0.15761685371398926, -0.01861843839287758, 0.06969255208969116, 0.026199588552117348], [0.01700613461434841, -0.09916210919618607, -0.11530720442533493, -0.036638107150793076, 0.01206423994153738, -0.08074712753295898, -0.1205732524394989, 0.05148135498166084, -0.0030762820970267057, 0.0053898342885077, 0.053501516580581665, -0.0938597321510315, -0.08639054000377655, 0.09308671951293945, -0.021777931600809097, -0.013686872087419033, 0.0557209812104702, 0.0014443830586969852, -0.01674606278538704, 0.07623250782489777], [0.061935100704431534, -0.022659046575427055, 0.003587640356272459, -0.07660944014787674, 0.10000750422477722, -0.019707659259438515, 0.06641335040330887, 0.05662699416279793, 0.12493233382701874, -0.037330083549022675, 0.039010826498270035, -0.004410837776958942, -0.08780836313962936, -0.12151753157377243, 0.08547137677669525, -0.12490449845790863, -0.09315692633390427, -0.013813047669827938, 0.01227036863565445, 0.03602021560072899], [-0.14639538526535034, -0.09240929782390594, 0.09694115072488785, -0.049978405237197876, 0.034427035599946976, 0.05953404679894447, 0.04597042500972748, -0.011903511360287666, -0.03962518274784088, 0.08426987379789352, -0.09026149660348892, 0.08598390966653824, -0.11557212471961975, -0.050229717046022415, 0.12042585760354996, -0.006133623421192169, -0.008153000846505165, 0.00968184694647789, 0.005193707067519426, -0.028438972309231758], [-0.09693054854869843, 0.13453209400177002, -0.01907195709645748, -0.0375882163643837, 0.05141674354672432, -0.11153235286474228, -0.05941713973879814, 0.047015491873025894, 0.021979445591568947, -0.020251400768756866, -0.02830871380865574, 0.003986788913607597, -0.05717237666249275, -0.07516609877347946, 0.007442433387041092, 0.11551286280155182, -0.04837165027856827, -0.0363282784819603, -0.07655680924654007, 0.04455842822790146], [-0.10465746372938156, -0.0319196842610836, -0.00796143151819706, -0.005364289507269859, -0.042072612792253494, 0.015657255426049232, -0.13677771389484406, 0.031460538506507874, -0.014498462900519371, -0.033205438405275345, -0.06442013382911682, -0.004820314701646566, 0.12340828776359558, 0.01749585010111332, -0.06615974009037018, -0.06589169800281525, -0.09326419979333878, -0.013566121459007263, -0.058138806372880936, 0.021421896293759346], [0.09532082080841064, -0.0002880217507481575, -0.012083752080798149, 0.04804827645421028, -0.01789400726556778, 0.046732500195503235, 0.006690892856568098, -0.04257678613066673, -0.031626708805561066, -0.023176824674010277, 0.034944500774145126, 0.0005459898966364563, -0.02111060358583927, 0.07852241396903992, -0.04058520495891571, 0.12841670215129852, 0.0039043861906975508, 0.02719908021390438, 0.012023295275866985, 0.10717318207025528], [0.05124141275882721, 0.017739128321409225, 0.012251758947968483, 0.03308090940117836, -0.10701879858970642, -0.05139881372451782, 0.07049299776554108, 0.07247965782880783, -0.04898904636502266, 0.020360521972179413, -0.006046850699931383, -0.0027074774261564016, -0.04050908237695694, 0.06918364763259888, 0.009080776013433933, 0.06820797175168991, 0.02029719203710556, -0.09494499117136002, 0.09073707461357117, -0.015172673389315605], [-0.008514907211065292, -0.013656465336680412, 0.06958822160959244, -0.06487657874822617, 0.01736370287835598, -0.14562784135341644, -0.05509982630610466, -0.04482877627015114, -0.08942534774541855, 0.08841193467378616, 0.07838521897792816, 0.0018550378736108541, -0.08313833922147751, -0.07000932842493057, 0.11480046808719635, -0.09983786940574646, 0.03323911502957344, 0.009069453924894333, -0.0374600887298584, -0.012939030304551125], [0.03149745613336563, 0.07595270127058029, -0.09605555236339569, -0.027733810245990753, -0.11832071840763092, -0.04426807537674904, 0.03228089213371277, 0.05929264426231384, -0.00368441641330719, -0.057504892349243164, -0.06670936942100525, -0.0525551363825798, 0.06031413376331329, -0.009459072723984718, 0.09214018285274506, -0.04092854633927345, -0.045878395438194275, 0.021095970645546913, 0.0004893916193395853, -0.03435565531253815], [0.01681271381676197, 0.12974491715431213, -0.06276069581508636, 0.025249002501368523, -0.05286897346377373, -0.03093595616519451, -0.013310974463820457, -0.009077549912035465, -0.014749595895409584, 0.085850290954113, 0.0440526120364666, -0.018285440281033516, 0.0842055231332779, -0.026515960693359375, -0.051367875188589096, -0.045515112578868866, 0.03831570968031883, -0.01133579108864069, -0.0930597186088562, -0.026003271341323853], [-0.008372859098017216, -0.05465647205710411, -0.03222052380442619, -0.04527336359024048, 0.09113152325153351, -0.0020440048538148403, 0.014065328054130077, -0.028724033385515213, 0.04145261272788048, -0.011727975681424141, -0.06486126035451889, 0.12795428931713104, -0.058356788009405136, 0.09088888764381409, 0.005086101591587067, 0.046105943620204926, 0.018953321501612663, -0.053641390055418015, 0.022148624062538147, -0.0707140564918518], [-0.02538108453154564, -0.08142121136188507, -0.11161203682422638, 0.05473805591464043, 3.259384538978338e-05, 0.03957751765847206, 0.04178498685359955, 0.010997472330927849, -0.06586246937513351, 0.08096418529748917, 0.06903917342424393, 0.05678538233041763, -0.04026942327618599, -0.09210546314716339, 0.029908595606684685, 0.020963411778211594, -0.02504512295126915, -0.011438689194619656, 0.06281283497810364, 0.06757740676403046], [-0.0033347448334097862, 0.01993578113615513, -0.0646023079752922, -0.14226657152175903, -0.03529270738363266, -0.11770877242088318, 0.04998766630887985, 0.0673491582274437, 0.056344617158174515, -0.050703246146440506, 0.1352674961090088, -0.027248676866292953, 0.005187161732465029, 0.04270969331264496, -0.045057687908411026, -0.011855818331241608, 0.05792379751801491, -0.05560561269521713, 0.02183450385928154, 0.030476734042167664], [-0.05290878191590309, 0.051440395414829254, 0.0025733273942023516, 0.00565570080652833, 0.029347624629735947, 0.008029631339013577, -0.13925309479236603, 0.059843383729457855, -0.007850184105336666, -0.009504168294370174, -0.08837790787220001, -0.021215440705418587, 0.01371555496007204, -0.0237540602684021, 0.02219979092478752, 0.06857012212276459, 0.08283790200948715, 0.030070146545767784, 0.06690073758363724, 0.05192060396075249], [-0.005216735880821943, 0.05271786451339722, 0.10614985227584839, 0.05491552874445915, -0.06395278126001358, -0.09375917166471481, -0.014875280670821667, -0.05772276222705841, -0.02415243163704872, 0.06713435053825378, 0.05466650053858757, -0.0034297211095690727, -0.09071750938892365, -0.10965222865343094, -0.0022393008694052696, 0.009077654220163822, -0.03610522672533989, -0.02686755172908306, -0.07936518639326096, -0.0429670475423336], [-0.0016943102236837149, -0.009559430181980133, 0.10829513520002365, 0.08080114424228668, 0.02844623476266861, 0.07361921668052673, -0.056044790893793106, 0.055410705506801605, -0.03509724885225296, -0.05815690755844116, 0.07977872341871262, 0.0211934931576252, 0.12967441976070404, 0.14628130197525024, -0.07085712999105453, -0.026264140382409096, -0.0526772141456604, 0.11793473362922668, 0.12328142672777176, -0.05546247586607933], [-0.00963575765490532, -0.002967291511595249, 0.10479263961315155, 0.06845557689666748, 0.09096196293830872, -0.021874958649277687, -0.005923707038164139, -0.002625076798722148, -0.0480971597135067, 0.009378679096698761, -0.007646151352673769, -0.009057614021003246, 0.06229747459292412, -0.02298847772181034, -0.11428782343864441, -0.049233920872211456, 0.08804934471845627, 0.04138435795903206, 0.06036219373345375, -0.14084094762802124], [-0.09009139984846115, -0.13473865389823914, -0.01407275814563036, 0.022391030564904213, 0.10622116178274155, -0.00916321761906147, -0.03532809391617775, 0.04904557764530182, 0.014944936148822308, 0.02236020192503929, -0.11090797930955887, 0.01844683475792408, -0.026412734761834145, -0.07546144723892212, -0.10310892760753632, 0.07993585616350174, -0.10439544916152954, -0.117238350212574, -0.02314652130007744, -0.007544521242380142], [0.005120113026350737, 0.1543915569782257, -0.07340418547391891, -0.0041791764087975025, -0.050477709621191025, 0.09872342646121979, 0.05633425712585449, -0.09104286134243011, -0.04169042780995369, -0.04595629870891571, 0.020553473383188248, 0.0035517853684723377, -0.11871624737977982, -0.06531093269586563, -0.002370706759393215, 0.022428611293435097, -0.004907528404146433, -0.20946843922138214, -0.055169761180877686, 0.0127249825745821], [-0.06907384842634201, 0.09334840625524521, 0.05386565998196602, -0.08715122938156128, -0.07585451751947403, -0.08004055917263031, 0.008145024068653584, 0.0003904215118382126, -0.02939719893038273, 0.0031352275982499123, -0.04077935591340065, -0.04033998027443886, 0.006050697527825832, 0.0070705958642065525, 0.0473647303879261, -0.11407902836799622, 0.08019065856933594, 0.03802372142672539, 0.018161293119192123, 0.041606225073337555], [0.03650069981813431, -0.027942169457674026, -0.05057954788208008, 0.011431371793150902, 0.06543261557817459, 0.02380920946598053, 0.07362126559019089, 0.027224741876125336, 0.04729091748595238, -0.014521914534270763, -0.16646400094032288, -0.0887419581413269, 0.030280251055955887, 0.046291787177324295, 0.10174549371004105, -0.021224815398454666, -0.05745524913072586, -0.0052653467282652855, -0.041050948202610016, 0.033520836383104324], [-0.017249176278710365, 0.07453519850969315, -0.0740770623087883, 0.17197585105895996, 0.05770577862858772, 0.03123120591044426, 0.07284874469041824, -0.10311440378427505, -0.10011684149503708, -0.03594622015953064, 0.09506740421056747, 0.04351005703210831, 0.0019158123759552836, -0.0746636614203453, -0.03653637319803238, -0.053493063896894455, 0.05534612014889717, -0.002100185491144657, 0.04819074645638466, 0.06800414621829987], [0.01977304369211197, -0.04779248684644699, -0.08528147637844086, 0.016468890011310577, -0.0064132846891880035, -0.03081466071307659, -0.10368023067712784, -0.01594047248363495, 0.060176633298397064, -0.03251411020755768, 0.11814356595277786, -0.01780843175947666, -0.18176645040512085, 0.04850650951266289, -0.05001290887594223, 0.019878819584846497, -0.0019440335454419255, 0.031193522736430168, 0.006686546374112368, -0.052873704582452774], [0.02089078165590763, -0.09141921997070312, -0.11872347444295883, 0.10765955597162247, 0.06368157267570496, -0.08508913964033127, -0.020456671714782715, 0.08144277334213257, -0.037100184708833694, 0.12445216625928879, -0.06473464518785477, 0.0829164981842041, 0.022949673235416412, -0.09256923943758011, -0.0725170224905014, -0.030261797830462456, 0.06078174337744713, 0.02387809194624424, 0.05904282256960869, -0.04692608863115311], [0.02368643507361412, 0.07916907966136932, 0.04962749779224396, 0.06280286610126495, -0.0888073518872261, -0.11876589059829712, 0.027008896693587303, -0.004435427952557802, 0.11603020876646042, 0.07599547505378723, 0.10335411131381989, -0.018969081342220306, 0.031653665006160736, -0.03472130000591278, -0.08672226965427399, -0.019969500601291656, -0.051737766712903976, -0.08478695899248123, -0.09984803199768066, 0.09968502074480057], [-0.007156767882406712, -0.024117598310112953, 0.06871413439512253, -0.08053451031446457, 0.025952082127332687, 0.03722022473812103, -0.0664757713675499, -0.01146217342466116, 0.02300688624382019, -0.01108921505510807, -0.0556432344019413, 0.08017632365226746, 0.03576802834868431, -0.059266917407512665, 0.058469463139772415, 0.010728074237704277, -0.009336418472230434, 0.05020299181342125, -0.03711572289466858, -0.06719188392162323], [0.057902991771698, 0.05811998248100281, 0.05352409556508064, 0.043785836547613144, 0.018719561398029327, -0.048423007130622864, 0.039241816848516464, 0.06880271434783936, 0.044837791472673416, -0.036349523812532425, -0.08028571307659149, 0.13217690587043762, 0.00816185399889946, 0.04521502926945686, 0.16748040914535522, 0.020399533212184906, 0.015054101124405861, 0.0021176296286284924, 0.03858770430088043, -0.05893024802207947], [-0.06641142815351486, -0.004654665011912584, -0.007759095169603825, 0.03660596162080765, -0.046037573367357254, -0.03648730367422104, 0.003928066231310368, 0.023089652881026268, -0.032079361379146576, -0.07515528798103333, 0.043205514550209045, -0.02739197388291359, 0.02413749322295189, -0.08593901991844177, 0.05548813194036484, 0.11135713756084442, -0.07477927207946777, -0.0789809301495552, -0.061423756182193756, 0.047204576432704926], [0.03184124454855919, -0.012765553779900074, -0.043553393334150314, -0.05035817623138428, -0.06800355017185211, 0.08134099096059799, 0.055317144840955734, 0.01676635816693306, 0.012842679396271706, 0.04330267757177353, 0.014920523390173912, -0.0007823669002391398, -0.04765331745147705, -0.019090626388788223, 0.028510740026831627, -0.03165403753519058, -0.09177031368017197, -0.028746215626597404, -0.1038462370634079, 0.07313665002584457], [0.0010816267458721995, 0.01842859573662281, -0.09372445195913315, 0.11695420742034912, -0.05834980309009552, 0.004829623270779848, -0.08559068292379379, 0.09572088718414307, -0.13683639466762543, -0.023999622091650963, 0.04931100830435753, 0.037219371646642685, 0.08159112930297852, -0.01879781484603882, -0.006829509045928717, 0.004612516611814499, -0.03169841691851616, 0.0818691998720169, -0.0035437035840004683, 0.05813049152493477], [0.03447456285357475, -0.07901521772146225, 0.06358020752668381, -0.03574775531888008, -0.012707388028502464, 0.007815294899046421, 0.010452574118971825, -0.004906471818685532, 0.008759299293160439, -0.028319060802459717, 0.03664418309926987, 0.01818765141069889, -0.025014424696564674, 0.034775618463754654, 0.0037436941638588905, 0.009923423640429974, -0.05106676369905472, -0.012554488144814968, 0.029060909524559975, 0.04380941763520241], [0.009589099325239658, -0.1387414038181305, -0.0834062397480011, 0.0036742810625582933, -0.06908512860536575, 0.06606364995241165, -0.071121446788311, -0.03909529000520706, 0.03823387995362282, -0.056309837847948074, 0.03142194449901581, 0.015442367643117905, -0.008059651590883732, -0.14479795098304749, 0.019494950771331787, -0.07924096286296844, 0.131093367934227, 0.024709641933441162, 0.03470875322818756, 0.05058535933494568], [-0.15650703012943268, -0.06264954805374146, 0.03339774161577225, -0.06731849163770676, 0.07042772322893143, -0.1273559033870697, 0.021798279136419296, 0.0853341594338417, 0.02382301725447178, -0.013104138895869255, -0.0009740423411130905, -0.01736048236489296, -0.015581163577735424, -0.09387696534395218, -0.02841208130121231, -0.009537511505186558, -0.06255211681127548, -0.04025145620107651, -0.09155064076185226, -0.01923317275941372], [0.004579942673444748, 7.947225822135806e-05, 0.06093544140458107, 0.08439940214157104, 0.09854868054389954, -0.009049767628312111, 0.013072018511593342, 0.18526683747768402, -0.0323607437312603, -0.015697089955210686, 0.02179023064672947, -0.032360248267650604, -0.07376641780138016, 0.013099725358188152, -0.04628898948431015, 0.019684869796037674, 0.12003972381353378, -0.00932292640209198, 0.044636115431785583, -0.027403581887483597], [-0.03786396235227585, -0.04668547213077545, -0.021379953250288963, 0.07419401407241821, 0.06138746440410614, -0.004898722283542156, 0.1294631063938141, 0.0607977993786335, -0.08102823048830032, 0.0020576748065650463, -0.08486694097518921, 0.06764665246009827, 0.08732103556394577, 0.05978450924158096, 0.04697311297059059, 0.05515902489423752, 0.05775633081793785, 0.0069586774334311485, 0.021074863150715828, 0.03048836998641491], [-0.07920173555612564, 0.05761316791176796, -0.007291983347386122, -0.04622562229633331, 0.04104100540280342, 0.021830329671502113, 0.04171426221728325, 0.11956038326025009, -0.018477801233530045, -0.08425697684288025, -0.06334412097930908, 0.06821772456169128, -0.06522750109434128, 0.06962618976831436, -0.061355020850896835, -0.035185109823942184, 0.09032874554395676, -0.0352441631257534, 0.09974212199449539, -0.014526822604238987], [-0.02466111071407795, 0.0771210789680481, 0.0599403940141201, -0.04579649493098259, -0.07691546529531479, 0.04464704543352127, -0.028790399432182312, -0.12136586755514145, -0.08626849949359894, -0.026772048324346542, 0.03814351186156273, -0.014119111932814121, -0.020609093829989433, 0.0048327078111469746, -0.0036700826603919268, 0.09067555516958237, 0.05644247308373451, -0.08852750808000565, -0.1254960000514984, -0.003624525386840105], [-0.0020130702760070562, -0.024356229230761528, -0.06435716897249222, 0.05019758269190788, 0.024914192035794258, -0.06941864639520645, -0.021240727975964546, 0.08427449315786362, 0.1580953150987625, 0.015497209504246712, -0.12990251183509827, 0.043136026710271835, -0.06313955783843994, -0.0009499865118414164, -0.06556745618581772, 0.04867096617817879, 0.12145572155714035, 0.07114226371049881, -0.0160728320479393, 0.010501204989850521], [0.0018094548722729087, -0.06374736875295639, -0.07717247307300568, -0.07514169812202454, 0.07487593591213226, -0.11430828273296356, 0.07213485240936279, 0.027950821444392204, -0.038329415023326874, -0.04057631269097328, 0.044059377163648605, -0.03737947344779968, -0.004710659384727478, -0.12632647156715393, 0.116921566426754, 0.03177585452795029, 0.0109725221991539, -0.03622455894947052, -0.15270602703094482, 0.025901155546307564], [-0.025049861520528793, 0.05123108625411987, -0.0020101116970181465, 0.01856362819671631, 0.004804698750376701, -0.038951676338911057, 0.012405973859131336, 0.07408982515335083, 0.0358121395111084, 0.08205936849117279, 0.031654465943574905, -0.0031249281018972397, -0.02514106035232544, 0.030497755855321884, 0.04742364585399628, 0.10878613591194153, -0.039555855095386505, -0.14586041867733002, 0.029646731913089752, -0.04994046688079834], [-0.029996873810887337, -0.03865921497344971, -0.035398587584495544, -0.08080797642469406, -0.15484201908111572, -0.05313090980052948, -0.09544132649898529, 0.025243515148758888, 0.07487819343805313, 0.02673124335706234, -0.0027814642526209354, 0.03828052058815956, -0.07576140761375427, 0.09387850016355515, 0.011540742591023445, 0.042745232582092285, 0.05618890002369881, -0.0661124661564827, 0.05459161102771759, 0.030459359288215637], [-0.053410470485687256, 0.021188504993915558, 0.10930658131837845, 0.07877380400896072, -0.07979250699281693, -0.011901981197297573, 0.09684576094150543, -0.029771221801638603, 0.03334912285208702, -0.052408844232559204, -0.00875888578593731, 0.03275763988494873, -0.053402047604322433, -0.06141529232263565, 0.0818740651011467, -0.022051217034459114, 0.004689712077379227, 0.0992569699883461, 0.08203807473182678, 0.022968588396906853], [0.04779650643467903, 0.0009068830986507237, -0.06216117739677429, 0.07044148445129395, 0.030780721455812454, 0.03745805844664574, -0.07294969260692596, 0.05562853440642357, 0.01980365812778473, -0.04941290244460106, 0.010449941270053387, 0.1251591444015503, -0.02477715164422989, 0.0421723797917366, 0.047771140933036804, 0.01907922327518463, -0.02201283909380436, -0.034964557737112045, 0.028960729017853737, 0.0029790035914629698], [-0.030165478587150574, 0.026428842917084694, 0.025705626234412193, 0.054952554404735565, 0.042074985802173615, 0.02249709703028202, -0.055310312658548355, -0.0074394759722054005, 0.0444910041987896, 0.0028804861940443516, -0.024057095870375633, -0.05213940143585205, -0.06144336611032486, 0.053698886185884476, -0.015660546720027924, 0.08123534917831421, -0.01440768875181675, -0.05562012270092964, -0.06218246743083, -0.030784007161855698], [-0.06204020231962204, -0.03253826126456261, 0.07467322051525116, -0.04696860536932945, 0.14416898787021637, -0.026388300582766533, -0.10626686364412308, -0.09889612346887589, 0.04286740720272064, 0.09889491647481918, -0.09105798602104187, -0.005314696114510298, 0.014304490759968758, 0.06574346870183945, 0.04228738695383072, 0.08966867625713348, 0.11083648353815079, -0.00758363539353013, -0.10157860815525055, 0.0014894654741510749], [0.034101273864507675, 0.0016652841586619616, -0.06369148194789886, -0.042152039706707, -0.0016279604751616716, 0.02800164185464382, -0.013495856896042824, -0.08149965107440948, -0.039242882281541824, -0.09404031932353973, -0.03491231054067612, 0.07066282629966736, 0.02032315358519554, 0.029394207522273064, 0.1165737584233284, 0.007232951000332832, -0.021985061466693878, 0.09413247555494308, -0.020548220723867416, -0.03022613190114498], [0.07036200165748596, 0.10797429829835892, 0.05537344142794609, -0.10382096469402313, -0.01301750261336565, 0.021216651424765587, 0.0057688611559569836, -0.042472369968891144, 0.022203397005796432, -0.041942160576581955, -0.0349583774805069, -0.020892679691314697, 0.01853516511619091, -0.02610834315419197, 0.08565297722816467, 0.07670208811759949, -0.00811720360070467, 0.0027056250255554914, 0.027133870869874954, 0.03286448493599892], [-0.026279499754309654, -0.14271046221256256, -0.0011776403989642859, 0.010149775072932243, 0.017286719754338264, -0.06804391741752625, -0.09474526345729828, 0.04387114197015762, -0.0709497258067131, 0.05027635395526886, -0.013512128964066505, -0.1218346506357193, -0.02513406239449978, 0.028372546657919884, -0.039640478789806366, -0.003324075136333704, -0.02818433754146099, -0.01994350180029869, -0.009672930464148521, -0.027338234707713127], [-0.04695926234126091, 0.009020984172821045, -0.002586904913187027, 0.00834201741963625, -0.007823840714991093, -0.08871431648731232, 0.07921241968870163, -0.030002262443304062, 0.1250477284193039, 0.03244444355368614, -0.05313989892601967, 0.03871342912316322, 0.029263071715831757, 0.044141367077827454, -0.05207917466759682, 0.08031173050403595, 0.016224229708313942, -0.07164473831653595, 0.008982918225228786, -0.03586374968290329], [0.0015034581301733851, 0.028950940817594528, -0.06525120884180069, -0.0018500880105420947, 0.07094201445579529, 0.08759674429893494, -0.07790715247392654, 0.03312615305185318, -0.018098725005984306, -0.09455234557390213, -0.08360403031110764, -0.10671091824769974, 0.05412712320685387, -0.06830359250307083, -0.014047428965568542, 0.054318007081747055, -0.012151727452874184, -0.015703879296779633, -0.019851410761475563, 0.015409986488521099], [0.09505002200603485, -0.05633380636572838, -0.09611295908689499, 0.00797863770276308, -0.1268063485622406, -0.006596902385354042, 0.06402776390314102, -0.0051054381765425205, 0.020475147292017937, 0.020939862355589867, 0.0021552960388362408, 0.057298753410577774, -0.018443718552589417, -0.03764452040195465, 0.055542826652526855, -0.11693109571933746, 0.011982230469584465, -0.048986248672008514, 0.10976135730743408, -0.07079249620437622], [0.020704418420791626, -0.02462671510875225, -0.12230074405670166, 0.01717042364180088, -0.014223538339138031, 0.004812705796211958, 0.05879939720034599, -0.03652654215693474, 0.026921451091766357, 0.02829269878566265, 0.03468508645892143, -0.06900175660848618, -0.11878766119480133, -0.03709622099995613, 0.13151153922080994, -0.02452250011265278, -0.055454615503549576, 0.06896805763244629, -0.009195102378726006, -0.005039030686020851], [-0.05201070010662079, -0.09873124212026596, -0.0010248952312394977, -0.012271774932742119, 0.017875773832201958, -0.07401744276285172, -0.030308635905385017, -0.061205942183732986, -0.10724695771932602, 0.027917509898543358, -0.0247003473341465, -0.012182418256998062, -0.05035630986094475, 0.027976667508482933, 0.11842483282089233, 0.0018579267198219895, 0.04732542484998703, 0.03340164199471474, -5.984700328554027e-05, 0.008376249112188816], [0.05123218521475792, -0.042078711092472076, 0.0464923121035099, 0.06320398300886154, -0.037652336061000824, 0.10590541362762451, 0.029438365250825882, -0.06029881164431572, 0.04947350174188614, -0.10469726473093033, 0.0031659428495913744, 0.04205748811364174, -0.014903285540640354, 0.02055354230105877, 0.14798034727573395, 0.06843845546245575, 0.11616731435060501, 0.0696006566286087, 0.08505769819021225, -0.03827261924743652], [-0.11247730255126953, -0.0209458339959383, 0.0853734016418457, -0.04782760888338089, -0.04799392819404602, 0.0012841937132179737, 0.1563837230205536, 0.036361899226903915, 0.020459670573472977, 0.03945760056376457, 0.025118732824921608, -0.002836234401911497, -0.032931454479694366, 0.022208359092473984, 0.09157314151525497, 0.0007384995697066188, 0.006765709258615971, 0.0658639669418335, 0.08995946496725082, 0.004478359594941139], [-0.04397345334291458, 0.019976548850536346, -0.0061216880567371845, -0.04516768828034401, 0.017518306151032448, -0.0342378094792366, 0.05073120817542076, 0.07898087054491043, 0.03387967124581337, 0.03263445943593979, 0.003554094582796097, -0.02685127593576908, 0.06029338762164116, -0.0555778369307518, 0.14018408954143524, 0.01643664576113224, -0.05783729627728462, 0.05252162367105484, -0.0035835932940244675, -0.01549279224127531], [0.07604138553142548, -0.016736067831516266, -0.06895138323307037, -0.015264390036463737, -0.001874617300927639, 0.04296479374170303, -0.08591541647911072, -0.0743468701839447, -0.042340900748968124, 0.0356355756521225, 0.037877947092056274, -0.12830455601215363, -0.05049886927008629, -0.03341154754161835, 0.06615455448627472, 0.1579708606004715, -0.0485827699303627, -0.09909974783658981, -0.04858237877488136, -0.01441409531980753], [0.028452271595597267, 0.04849500209093094, -0.0627635046839714, -0.11710083484649658, -0.022722043097019196, -0.033756937831640244, -0.0017084394348785281, 0.049536362290382385, -0.030489332973957062, 0.016822272911667824, 0.11087509244680405, -0.04761434346437454, 0.03593836724758148, 0.09987132251262665, 0.04068350791931152, 0.07965748012065887, 0.03906724229454994, 0.04453272745013237, 0.07789134979248047, -0.023038450628519058], [0.013613628223538399, -0.04868590831756592, 0.08937323838472366, -0.03704582899808884, 0.07900216430425644, -0.04567757248878479, 0.09368462860584259, 0.10576870292425156, 0.044010717421770096, -0.012117750011384487, 0.023877790197730064, 0.09434430301189423, 0.003888014005497098, -0.06867048144340515, 0.13413672149181366, -0.013881390914320946, -0.09407007694244385, -0.02291160263121128, -0.01909102499485016, 0.031205441802740097], [-0.027051059529185295, -0.008301657624542713, 0.02461147867143154, 0.023401258513331413, 0.06439019739627838, 0.018730591982603073, -0.09714514017105103, 0.005482329986989498, -0.021054960787296295, -0.13687452673912048, 0.11025041341781616, 0.028624093160033226, -0.01363006979227066, 0.0617707222700119, -0.12740081548690796, 0.02539599873125553, 0.06901371479034424, 0.000739698822144419, -0.03816254064440727, 0.03732304647564888], [0.04902761057019234, -0.03392494097352028, 0.039987143129110336, 0.01690267026424408, -0.03152550384402275, -0.07423420250415802, -0.002769412472844124, -0.0640110895037651, -0.08443949371576309, 0.01236705295741558, -0.06713827699422836, -0.054251838475465775, -0.007291871123015881, -0.07869824022054672, -0.021054279059171677, 0.03314116969704628, 0.05514850094914436, -0.05569492280483246, -0.07848763465881348, -0.005957308225333691], [-0.08066383004188538, 0.06164322420954704, -0.00624101422727108, -0.18731142580509186, 0.11083065718412399, 0.06997609883546829, -0.02372661419212818, 0.05802140757441521, 0.0024098639842122793, -0.12241096794605255, 0.023187296465039253, 0.010144492611289024, -0.0018904892494902015, -0.051542628556489944, 0.01410900242626667, 0.14118511974811554, 0.0054511623457074165, -0.06042236089706421, -0.010329008102416992, -0.058589909225702286], [0.043652523308992386, 0.06445677578449249, 0.00990620069205761, -0.03681666776537895, -0.02663731575012207, -0.14603562653064728, 0.07223765552043915, 0.08412870019674301, 0.04684467986226082, 0.1419908106327057, 0.06196308135986328, -0.043857499957084656, 0.011985930614173412, -0.04391227662563324, -0.05777567997574806, 0.009968175552785397, 0.030144963413476944, -0.10056919604539871, 0.029370563104748726, 0.07978304475545883], [-0.0782175064086914, 0.05923570320010185, -0.030711622908711433, 0.048687566071748734, -0.13482129573822021, 0.06608420610427856, -0.0021259188652038574, 0.06871047616004944, -0.10742849856615067, 0.06791923195123672, -0.10259896516799927, 0.10223574936389923, -0.025419173762202263, 0.08226620405912399, 0.09740171581506729, -0.034497540444135666, 0.08257684111595154, 0.048732805997133255, 0.04290028288960457, 0.07943727821111679], [-0.008016378618776798, 0.04160691425204277, 0.017138756811618805, -0.019234642386436462, -0.030926665291190147, 0.06902480870485306, 0.030913114547729492, -0.031034596264362335, -0.05202812701463699, -0.01903741993010044, 0.04041827842593193, -0.07191001623868942, -0.012447508051991463, -0.015387079678475857, -0.04588544741272926, -0.05483284965157509, -0.024520624428987503, -0.012430854141712189, 0.0009716140339151025, -0.0477229543030262], [-0.02880273386836052, -0.07947768270969391, 0.0531151182949543, -0.03506854921579361, -0.012031503953039646, -0.06622732430696487, -0.11870782822370529, 0.022980129346251488, -0.006576435640454292, 0.009732781909406185, 0.01122127566486597, -0.0516132153570652, 0.010942813009023666, -0.031011706218123436, -0.0029463779646903276, 0.13515375554561615, -0.06598103046417236, 0.1346873641014099, -0.1088569238781929, 0.005317383911460638], [0.014927717857062817, 0.05320930480957031, -0.005260412581264973, 0.004506803583353758, -0.022837860509753227, -0.004437566734850407, -0.041413888335227966, 0.0823994055390358, 0.04885315150022507, 0.010280616581439972, -0.05016595870256424, -0.015816405415534973, 0.0854063406586647, 0.04618252441287041, 0.06765858083963394, 0.0184219628572464, 0.1016983613371849, -0.025127647444605827, -0.009344371035695076, 0.016165144741535187], [0.010638365522027016, -0.004331052303314209, 0.011868669651448727, -0.02838245779275894, 0.01217795629054308, 0.023776980116963387, 0.06719879806041718, 0.05230367183685303, 0.026886751875281334, -0.0876087173819542, -0.030704546719789505, 0.06258217990398407, 0.10286357998847961, 0.014751660637557507, 0.008664768189191818, 0.03464784473180771, -0.062164295464754105, 0.1823374181985855, 0.07678402215242386, -0.050009842962026596], [0.15781249105930328, 0.038111601024866104, 0.009040959179401398, 0.03714827075600624, 0.030198805034160614, 0.05688375234603882, -0.06157480925321579, 0.12064366787672043, -0.10123594850301743, -0.1200781762599945, -0.03917539492249489, -0.04896793141961098, 0.02134988084435463, 0.05668585002422333, -0.05139122158288956, -0.06663881242275238, 0.011758866719901562, -0.12883876264095306, 0.008986180648207664, -0.03070485219359398], [0.14384548366069794, 0.06657731533050537, -0.0003466815978754312, 0.02622324228286743, -0.014275861904025078, -0.09695947170257568, 0.05348890647292137, 0.018396154046058655, 0.014690556563436985, 0.00605760095641017, -0.09842763096094131, -0.00830328743904829, -0.15920521318912506, 0.09312982857227325, -0.0122948894277215, -0.11306224018335342, -0.02040695771574974, -0.056626174598932266, -0.029854990541934967, 0.023904776200652122], [-0.05402512475848198, 0.009611818008124828, -0.04965343326330185, 0.04742497205734253, 0.05675317347049713, 0.015935277566313744, 0.00924957636743784, 0.07625369727611542, 0.015091623179614544, 0.10559511929750443, 0.10165227204561234, -0.023412195965647697, 0.041551534086465836, -0.08393345028162003, 0.09682197868824005, 0.008863065391778946, -0.03323381021618843, -0.05326009914278984, 0.006767249666154385, 0.020990263670682907], [0.015314990654587746, 0.07018169015645981, 0.03669119253754616, -0.06881847232580185, -0.032292865216732025, 0.15465162694454193, -0.012666158378124237, -0.029961947351694107, 0.029995279386639595, -0.1086772158741951, 0.022280197590589523, 0.046841684728860855, -0.018702438101172447, -0.011720817536115646, -0.022458737716078758, -0.012587850913405418, 0.01766435243189335, 0.012428374029695988, 0.016133641824126244, 0.07014503329992294], [-0.022455107420682907, -0.06406427919864655, 0.011249091476202011, 0.01252675335854292, 0.04969020560383797, 0.008726761676371098, -0.05312804877758026, -0.14182686805725098, 0.0020115806255489588, 0.07591366022825241, -0.04385143145918846, 0.010984135791659355, -0.033817872405052185, 0.0250471793115139, -0.04238039627671242, -0.05650273337960243, 0.04867229610681534, 0.02128138206899166, -0.009861085563898087, 0.062289658933877945], [0.002561668399721384, 0.045142628252506256, -0.00979893933981657, -0.0009424153249710798, -0.04184304177761078, 0.04357180371880531, -0.00045912363566458225, 0.02321152202785015, 0.012849070131778717, 0.025719795376062393, 0.02675771713256836, -0.0033536332193762064, 0.14036822319030762, -0.03267037123441696, 0.07194793224334717, 0.04140551760792732, 0.038504745811223984, -0.14354294538497925, -0.0024641554336994886, 0.0342598557472229], [-0.04625142738223076, -0.02055985853075981, 0.024527739733457565, 0.03520798683166504, -0.14635246992111206, 0.03492806479334831, 0.016241010278463364, 0.030186833813786507, -0.006739008706063032, -0.03582995384931564, -0.011222763918340206, 0.05465764179825783, 0.05591592937707901, 0.16390420496463776, 0.09850338846445084, -0.0853254422545433, -0.020145487040281296, -0.013584096916019917, -0.04977146536111832, -0.05588749051094055], [-0.08111457526683807, 0.005685475654900074, -0.18598411977291107, 0.03953220695257187, -0.053228095173835754, 0.05671759694814682, -0.021030494943261147, -0.015238896012306213, 0.07620088011026382, -0.01856045052409172, 0.01725771091878414, -0.0026525710709393024, 0.013616933487355709, 0.09358589351177216, -0.006741389166563749, 0.021908797323703766, -0.1352192610502243, 0.07538730651140213, 0.06339289247989655, -0.012189274653792381], [-0.028742589056491852, 0.07665693759918213, 0.12406521290540695, -0.12753155827522278, 0.057425547391176224, 0.028570594266057014, 0.034639474004507065, -0.016828171908855438, 0.16519559919834137, -0.05187750607728958, 0.09141954034566879, -0.09660878032445908, -0.10549431294202805, 0.04328294098377228, -0.04527439922094345, 0.021257538348436356, 0.10644526034593582, -0.013377625495195389, -0.060592666268348694, 0.009973568841814995], [-0.010902300477027893, -0.16114681959152222, 0.05180451646447182, -0.1279507726430893, -0.04268801212310791, -0.07383348047733307, -0.08293598890304565, -0.02948141098022461, -0.09018782526254654, -0.03611302003264427, 0.032105863094329834, -0.038616664707660675, -0.01648591086268425, -0.03769846260547638, 0.029643908143043518, 0.03139035776257515, -0.06834661960601807, 0.03347598761320114, -0.015700263902544975, 0.04499782249331474], [-0.04403727874159813, 0.05470411852002144, -0.07550974935293198, 0.09721087664365768, 0.12061966955661774, -0.027702173218131065, 0.07138294726610184, -0.047273389995098114, -0.027200911194086075, 0.06937995553016663, 0.07525629550218582, -0.01835746504366398, 0.07479061186313629, 0.004530536010861397, -0.14321814477443695, 0.05497336760163307, 0.06229666247963905, -0.003402292262762785, -0.05264749750494957, 0.0448639914393425], [0.0033097555860877037, 0.02836240828037262, -0.010947233997285366, -0.09044250100851059, -0.059392448514699936, -0.0318002849817276, 0.0430399551987648, -0.03321011736989021, -0.07581904530525208, 0.10430215299129486, 0.0637398436665535, 0.1216573715209961, 0.015523435547947884, -0.010065039619803429, -0.0013156469212844968, 0.012196330353617668, -0.048946332186460495, -0.012971925549209118, -0.010120956227183342, 0.0069839064963161945], [-0.013462420552968979, 0.0020225963089615107, -0.0027851597405970097, 0.010484765283763409, -0.0006991807604208589, -0.03706710785627365, -0.012784316204488277, 0.05092865601181984, -0.03824207931756973, 0.09497392922639847, -0.0013688734034076333, 0.06227389723062515, 0.06215650215744972, -0.026276299729943275, -0.011835682205855846, 0.11702767014503479, -0.0002110570203512907, 0.06632346659898758, -0.027108417823910713, -0.019535930827260017], [-0.03272644057869911, 0.053096089512109756, 0.06276106834411621, 0.009302567690610886, -0.04289395734667778, -0.025781065225601196, -0.06628751009702682, 0.02310042455792427, 0.06929709017276764, -0.0620216429233551, 0.02833051234483719, 0.07053488492965698, 0.09991776198148727, -0.14450344443321228, -0.11797326803207397, 0.15717849135398865, -0.026593495160341263, -0.11805382370948792, 0.019065702334046364, 0.005503219086676836], [-0.007878247648477554, 0.05280635878443718, -0.002787909936159849, -0.1526595801115036, 0.003940500319004059, -0.03694767877459526, -0.00763000687584281, -0.08471620827913284, -0.07545251399278641, 0.0011461714748293161, -0.002923855558037758, -0.033707231283187866, 0.06144310161471367, -0.05861681327223778, 0.059719931334257126, 0.06403573602437973, -0.05468618497252464, 0.013026032596826553, 0.08185037970542908, -0.03338327631354332], [0.015302455984055996, -0.032775163650512695, 0.025487923994660378, 0.02052023820579052, 0.1406986564397812, -0.07330814749002457, 0.01979711651802063, 0.006706514861434698, 0.05022072046995163, -0.013045732863247395, 0.004733168054372072, -0.01804334670305252, 0.0017705245409160852, -0.08874721080064774, 0.002308252966031432, -0.04084555432200432, 0.05094959959387779, 0.06958790123462677, 0.0509960912168026, 0.06650373339653015], [0.08432605862617493, 0.03573183715343475, -0.040883444249629974, 0.0030931076034903526, 0.07665223628282547, -0.08360512554645538, -0.018902666866779327, -0.11058327555656433, -0.0095210587605834, 0.014071806333959103, 0.02852451056241989, 0.004323202185332775, 0.08272608369588852, 0.025304079055786133, 0.04720945656299591, -0.002910439856350422, 0.00414393562823534, 0.06159046292304993, -0.05345240980386734, -0.0013715274399146438], [-0.0048858849331736565, -0.1462586373090744, -0.032168686389923096, -0.01370692253112793, 0.04939442127943039, 0.11142820119857788, 0.08325334638357162, -0.010832131840288639, 0.11984750628471375, 0.02481813170015812, -0.02181599661707878, 0.02831120416522026, -0.07985710352659225, 0.02350776270031929, -0.14256258308887482, -0.11732424050569534, 0.04646120220422745, -0.05977998301386833, 0.08345972746610641, -0.05021049454808235], [-0.01184882689267397, 0.10225092619657516, -0.052983492612838745, -0.029530690982937813, -0.013360735028982162, 0.04039228707551956, -0.019414687529206276, 0.05083593726158142, -0.04788094386458397, -0.0843677967786789, -0.04764523729681969, -0.006992497947067022, -0.046960052102804184, 0.05201507732272148, -0.06509567052125931, 0.03840888291597366, -0.04408036172389984, -0.05917947739362717, -0.0027624822687357664, 0.018654389306902885]], "model.0.bias": [-0.08451656252145767, -0.0752052515745163, 0.02675878442823887, -0.02412337064743042, 0.03174617141485214, 0.07749278843402863, -0.06542642414569855, 0.021575162187218666, -0.1010918915271759, -0.049824103713035583, 0.02406875044107437, -0.007610743399709463, 0.018932925537228584, -0.008511599153280258, -0.03331614285707474, -0.05655667930841446, -0.07196327298879623, -0.00642060860991478, -0.08573072403669357, -0.05980287864804268, 0.058973319828510284, -0.0464150495827198, -0.03959421440958977, 0.010045859962701797, 0.04376623034477234, -0.06987682729959488, -0.03991381824016571, -0.015374474227428436, 0.03861406072974205, -0.033396877348423004, 0.032147884368896484, -0.07654072344303131, -0.055010389536619186, -0.062037143856287, -0.025824012234807014, -0.055441100150346756, -0.03644678741693497, 0.0006427378975786269, -0.0012155452277511358, -0.06889202445745468, 0.011949470266699791, -0.0879518985748291, 0.02076830342411995, -0.06807176023721695, -0.019993580877780914, 0.04460616409778595, 0.004070566967129707, 0.05519246682524681, 0.05924714729189873, -0.08302592486143112, -0.07626500725746155, -0.03905244916677475, -0.01657233014702797, 0.01065000519156456, -0.04125513508915901, 0.006389955058693886, -0.07646634429693222, 0.004590356722474098, 0.023233383893966675, 0.04275903105735779, -0.03933863714337349, -0.03773057088255882, 0.009812870994210243, 0.008891046047210693, -0.04254114627838135, -0.06136256083846092, -0.06908529251813889, -0.02589256688952446, 0.029363086447119713, -0.004278710577636957, -0.05440531671047211, -0.0257091224193573, 0.03934156894683838, -0.029000770300626755, -0.09836719185113907, -0.03649066388607025, -0.06362859904766083, -0.00011165642354171723, -0.0766303688287735, -0.07093873620033264, -0.08346406370401382, -0.06907758861780167, -0.10004108399152756, -0.0799340158700943, -0.005289427470415831, 0.0028845316264778376, -0.044564247131347656, 0.003533676965162158, -0.010887837037444115, -0.05446915701031685, -0.017403149977326393, -0.07038422673940659, 0.003005552338436246, -0.0772123634815216, -0.0010160295059904456, -0.0854952335357666, 0.022412104532122612, -0.028225142508745193, -0.027722898870706558, -0.072042316198349, 0.0002484307624399662, 0.006218737456947565, -0.11382374167442322, -0.05910496786236763, -0.019714629277586937, -0.06843017041683197, -0.06350502371788025, -0.10044711083173752, 0.017402134835720062, -0.055890485644340515, 0.009830843657255173, -0.004136695060878992, -0.07442296296358109, -0.054877810180187225, -0.04264373704791069, 0.05894383788108826, 0.034135881811380386, -0.059736303985118866, 0.01996500790119171, 0.028638727962970734, 0.06224307417869568, -0.04082900658249855, -0.11441970616579056, 0.02902119979262352, 0.04246428981423378, -0.06742001324892044, 0.05347980558872223, -0.1034839078783989], "model.2.weight": [[0.001009637606330216, -0.03908275440335274, 0.031718578189611435, -0.06635677069425583, -0.007400894537568092, 0.004884677939116955, -0.014441786333918571, 0.04303029179573059, -0.004077077377587557, 0.008982869796454906, 0.03690995275974274, -0.017901193350553513, -0.0056069400161504745, -0.04658927768468857, -0.06433026492595673, -0.06285561621189117, -0.051383815705776215, 0.02839832194149494, 0.0009333216585218906, 0.03941461071372032, 0.05025609955191612, 0.022431043907999992, 0.01327272318303585, -0.025345750153064728, 0.02932516671717167, 0.010078156366944313, 0.03187672048807144, 0.05024891346693039, 0.013426946476101875, 0.028477035462856293, 0.013416088186204433, 0.010076361708343029, 0.017849134281277657, 0.03407157212495804, 0.05452066659927368, -0.006755969487130642, -0.01728525385260582, 0.004653643351048231, -0.0870400071144104, -0.038901664316654205, 0.0037244323175400496, 0.040789611637592316, -0.005660621915012598, 0.014630427584052086, 0.015998072922229767, -0.10996193438768387, -0.07940547168254852, 0.015095626935362816, 0.026914773508906364, -0.06271559745073318, 0.01371812354773283, 0.0020735955331474543, 0.01364669669419527, 0.019055217504501343, -0.058733392506837845, -0.009034257382154465, 0.010741696693003178, -0.00013073105947114527, -0.031151505187153816, -0.03036843053996563, -0.06981045007705688, 0.009656992740929127, 0.024379491806030273, -0.018693754449486732, -0.07706958800554276, 0.029954180121421814, 0.06920216232538223, 0.00627193134278059, -0.0017287153750658035, 0.0169925969094038, -0.08429035544395447, -0.012617257423698902, -0.022284002974629402, 0.0178444255143404, 0.028587205335497856, -0.008430110290646553, 0.0366317480802536, 0.022603383287787437, -0.01409167144447565, -0.034508075565099716, 0.06555813550949097, -0.0468083992600441, -0.059062786400318146, 0.020809035748243332, 0.10974300652742386, 0.01145970169454813, 0.02500748261809349, -0.02992449328303337, 0.05779554694890976, 0.06112077087163925, -0.003255343297496438, -0.026955552399158478, -0.07121238857507706, -0.05196141079068184, 0.08084329962730408, 0.03916630148887634, -0.01598271168768406, 0.03808984532952309, -0.022215500473976135, 0.026567816734313965, 0.06403496861457825, 0.013523371890187263, -0.022034868597984314, -0.005124559160321951, 0.037329722195863724, -0.053793732076883316, -0.05923350155353546, -0.010847729630768299, 0.06125172972679138, 0.05677906051278114, -0.025024766102433205, 0.022303353995084763, -0.009785004891455173, 0.027972226962447166, -0.005340651609003544, -0.06733956933021545, -0.10068988054990768, -0.06109079718589783, 0.025368714705109596, -0.044582534581422806, 0.020413756370544434, -0.07335473597049713, 0.02356453612446785, -0.03915839642286301, 0.0502774678170681, 0.013446437194943428, 0.06952731311321259, 0.03568631783127785], [-0.047247979789972305, -0.09555574506521225, -0.0020232677925378084, -0.013517830520868301, -0.06943248957395554, 0.08284410089254379, 0.00571136549115181, 0.029155630618333817, 0.0709458515048027, -0.0403127521276474, 0.037917524576187134, 0.002978307195007801, 0.07241535186767578, -0.021930959075689316, -0.035543132573366165, -0.0004262767033651471, -0.012918469496071339, -0.010665706358850002, -0.04720275104045868, -0.05060334503650665, 0.0073531391099095345, 0.030946293845772743, -0.09359157085418701, 0.06762483716011047, 0.022915080189704895, -0.08611351251602173, 0.049469999969005585, 0.02288498543202877, 0.017813339829444885, -0.022961661219596863, 0.006496617570519447, -0.03255172446370125, -0.02219517156481743, 0.024769237264990807, -0.0054793572053313255, -0.004355659242719412, 0.0316411592066288, -0.10595738142728806, -0.020645448938012123, -0.020884716883301735, -0.04565167799592018, 0.020206741988658905, -0.0514642596244812, -0.006378751248121262, -0.026858443394303322, -0.07671047002077103, -0.00727510591968894, -0.04213913157582283, -0.08043435961008072, 0.04009212553501129, -0.0967593789100647, -0.03358803689479828, -0.0034790323115885258, -0.08626456558704376, -0.012318790890276432, 0.021414820104837418, -0.02574179880321026, -0.0004956378834322095, -0.0781281366944313, -0.03897234797477722, -0.05262485146522522, -0.0050828782841563225, 0.048382800072431564, -0.011968274600803852, 0.014222346246242523, -0.07418754696846008, 0.019306538626551628, -0.05954552814364433, 0.0838855504989624, -0.021772099658846855, -0.06451411545276642, -0.05681426823139191, 0.033962640911340714, 0.0747930184006691, -0.04525556042790413, 0.004121499601751566, -0.039424628019332886, -0.05179080739617348, 0.0091409245505929, 0.03711475804448128, -0.020205480977892876, -0.0094847921282053, 0.0042323884554207325, 0.028117157518863678, -0.01650875434279442, -0.04543841630220413, -0.007611476816236973, -0.014393040910363197, 0.011082957498729229, -0.051522765308618546, -0.03821426257491112, -0.006199059542268515, 0.05789772421121597, 0.005279420875012875, -0.03565467149019241, 0.005415874067693949, -0.04035712033510208, -0.004158555995672941, 0.03877903148531914, 0.005734482314437628, -0.029419388622045517, -0.05455409362912178, 0.028562134131789207, 0.030090171843767166, -0.04431665316224098, 0.005021007265895605, -0.10630083829164505, 0.07023739814758301, -0.039555665105581284, -0.002122892765328288, 0.0010207963641732931, -0.07435770332813263, -0.049395933747291565, -0.04797961562871933, 0.005488897208124399, 0.012602150440216064, 0.042122747749090195, 0.048855412751436234, -0.02180544100701809, 0.06668969243764877, 0.004539187066257, 0.09885042160749435, 0.005876455456018448, -0.04514552280306816, -0.00041097518987953663, 0.03970213234424591, -0.016716253012418747, -0.01135441567748785], [0.04550652578473091, -0.008552663028240204, 0.0424589067697525, -0.0563456192612648, -0.06602450460195541, -0.02150515466928482, -0.07634530961513519, 0.03220618888735771, 0.005594482179731131, -0.010461801663041115, 0.029594847932457924, -0.027906009927392006, -0.013779246248304844, 0.003881728509441018, -0.028314150869846344, -0.07736916840076447, -0.0018552311230450869, 0.005063056945800781, 0.07856202125549316, -0.06248784810304642, -0.02349023148417473, 0.0263473279774189, 0.05777871608734131, -0.00825533177703619, -0.021133041009306908, 0.04600529745221138, -0.024495111778378487, 0.0356774739921093, 0.031163811683654785, 0.029514454305171967, -0.04751371592283249, -0.015464500524103642, 0.04598630592226982, -0.045335348695516586, -0.06674282252788544, 0.06778550148010254, -0.007961400784552097, -0.015472960658371449, -0.05312604829668999, -0.034780651330947876, -0.013375569134950638, -0.0035593193024396896, 0.010182605125010014, -0.014311748556792736, -0.05321316048502922, -0.09869778901338577, -0.088399238884449, 0.005170892458409071, 0.00614123186096549, -0.0008289491524919868, -0.11884809285402298, -0.07736959308385849, -0.0029819838237017393, 0.005354871042072773, -0.04862655699253082, -0.04389507696032524, -0.062443044036626816, -0.1114334762096405, 0.05749080702662468, -0.08565159142017365, 0.06494098156690598, -0.037392958998680115, -0.026354074478149414, 0.04396376758813858, -0.029242990538477898, 0.08355420082807541, 0.03879156708717346, -0.012145192362368107, -0.11057774722576141, -0.01926715485751629, -0.029837606474757195, -0.028412358835339546, 0.016229543834924698, -0.05063201114535332, -0.004224700853228569, 0.004233242012560368, 0.03970176354050636, 0.03295981138944626, -0.02709100767970085, 0.060616087168455124, 0.029066285118460655, 0.008255071006715298, -0.04457760602235794, -0.011625035665929317, -0.015524633228778839, -0.013935467228293419, -0.06426785886287689, 0.035403601825237274, 0.07358819246292114, -0.03442583605647087, 0.11315660923719406, -0.04841269925236702, -0.08367384225130081, -0.03315908834338188, -0.0031289425678551197, -0.08371827751398087, 0.05347811058163643, -0.07224809378385544, 0.008112944662570953, -0.05386731028556824, 0.06331881880760193, -0.0020938999950885773, -0.054730068892240524, 0.11522834748029709, -0.03427068144083023, 0.02209923230111599, -0.020971322432160378, 0.07247431576251984, -0.09708742797374725, 0.08099351078271866, 0.007405304349958897, 0.027055872604250908, 0.04095083102583885, 0.01181748602539301, 0.043031029403209686, 0.015166659839451313, 0.06009732559323311, 0.05146421492099762, 0.008935380727052689, -0.031661126762628555, 0.03943081572651863, -0.0259796641767025, 0.08461792021989822, 0.047188203781843185, -0.04530198127031326, -0.045605264604091644, -0.13505582511425018, -0.0419047512114048], [-0.0003367351891938597, 0.019477281719446182, -0.028724150732159615, 0.0408293716609478, 0.02417481318116188, -0.0267535038292408, 0.013871732167899609, 0.020305119454860687, 0.0012255950132384896, -0.03351365029811859, 0.06024225801229477, -0.049395106732845306, -0.08145337551832199, 0.00279995403252542, -0.01210235245525837, -0.013098610565066338, -0.10110663622617722, -0.0035126518923789263, 0.009688440710306168, 0.00624964339658618, -0.0345819815993309, 0.03297866880893707, -0.02741803228855133, -0.015484239906072617, -0.01549576222896576, -0.03211645036935806, -0.043878138065338135, 0.02243361622095108, 0.0027605644427239895, -0.04117521643638611, 0.04478200152516365, -0.061764832586050034, 0.02554817497730255, 0.034337352961301804, -0.0075801704078912735, -0.05111779645085335, -0.07731036096811295, -0.024413825944066048, -0.03354182839393616, -0.03309633210301399, 0.03744450956583023, -0.05905738100409508, -0.11587527394294739, -0.024307141080498695, -0.01995191164314747, 0.022152185440063477, 0.011930657550692558, -0.08035930246114731, -0.028095277026295662, 0.06853179633617401, -0.012415696866810322, 0.0503356046974659, 0.023330943658947945, 0.08202552795410156, -0.046795397996902466, -0.06901172548532486, -0.059377629309892654, -0.08064515888690948, -0.041190143674612045, -0.07669254392385483, 0.011548345908522606, -0.007510819938033819, -0.048542167991399765, -0.026140235364437103, 0.009832117706537247, -0.031018592417240143, 0.0033430811017751694, -0.02270234003663063, 0.07040437310934067, -0.057976990938186646, -0.010639256797730923, 0.0309467650949955, -0.04037769138813019, -0.0351082868874073, -0.056560155004262924, -0.0514073446393013, 0.019974056631326675, -0.02282133512198925, -0.027997104451060295, 0.0214530099183321, 0.020378466695547104, 0.022971075028181076, 0.03997502475976944, -0.05785031244158745, -0.09717876464128494, -0.04637528210878372, 0.017418237403035164, -0.050282176584005356, -0.027194758877158165, 0.04753431677818298, 0.018253909423947334, 0.03485545516014099, 0.007841777056455612, -0.07728290557861328, 0.013456741347908974, -0.04713306576013565, -0.08357104659080505, -0.013036525808274746, 0.029265355318784714, 0.03138928487896919, -0.019456665962934494, -0.039397552609443665, -0.07723813503980637, -0.009995793923735619, 0.0018337846267968416, 0.0524829626083374, -0.05505034327507019, -0.0672401413321495, 0.02066914178431034, 0.02155742235481739, -0.0521826446056366, -0.09282620996236801, 0.02844967320561409, 0.02204236388206482, -0.019678523764014244, 0.030649831518530846, -0.021871495991945267, -0.012461631558835506, -0.023453520610928535, -0.05246146023273468, 0.05099240317940712, -0.03214220330119133, 0.022881142795085907, -0.03478777036070824, -0.019485540688037872, -0.03465710207819939, 0.061858899891376495, -0.025533903390169144], [0.050123173743486404, -0.1346849948167801, -0.014499041251838207, 0.06484491378068924, -0.0040116505697369576, 0.021384935826063156, 0.010425925254821777, -0.006782138720154762, -0.021302368491888046, 0.03805914148688316, -0.0143323615193367, -0.08164797723293304, -0.01816563494503498, 0.015501816757023335, 0.11972232908010483, 0.03254496678709984, 0.04589872062206268, 0.009359647519886494, -0.02458120696246624, -0.0497840940952301, 0.029769981279969215, 0.0814632773399353, -0.038631558418273926, 0.0502210333943367, 0.050830647349357605, -0.017734013497829437, 0.025733711197972298, -0.034662600606679916, 0.029512252658605576, -0.0036345389671623707, -0.0601043663918972, -0.060004714876413345, -0.03756532818078995, -0.017283670604228973, -0.075229212641716, 0.03653483837842941, 0.03440775349736214, 0.0034509538672864437, 0.00818780530244112, -0.06239879131317139, -0.0012291133170947433, 0.005640811286866665, 0.007384416647255421, -0.009252183139324188, -0.023924149572849274, -0.013033910654485226, -0.030523283407092094, 0.012304868549108505, 0.013417660258710384, -0.07912444323301315, -0.08459880203008652, 0.0009491299861110747, 0.0053148409351706505, 0.04557565227150917, -0.048633575439453125, 0.02221244014799595, 0.05809655040502548, -0.04485766589641571, -0.042101629078388214, 0.003737653838470578, -0.038671188056468964, -0.03707713261246681, 0.034462593495845795, 0.06798962503671646, 0.01828586682677269, -0.025638671591877937, -0.03857879340648651, 0.02886580303311348, -0.035494450479745865, -0.06834454089403152, -0.025774035602808, 0.03598972409963608, 0.028253495693206787, 0.055285483598709106, 0.012660166248679161, -0.03978850319981575, -0.0865522101521492, 0.001509913126938045, 0.030028002336621284, -0.05447278544306755, -0.05438029021024704, 0.05757597088813782, 0.05903749540448189, 0.01723196730017662, -0.01007927767932415, -0.038074031472206116, 0.01190958358347416, 0.024718454107642174, 0.0025650952011346817, -0.03879755735397339, -0.08216676115989685, 0.05439170449972153, 0.04783003404736519, -0.026830323040485382, -0.05078592896461487, 0.03680678829550743, -0.007130928337574005, -0.009061811491847038, -0.012556786648929119, -0.0041361004114151, -0.05428529530763626, -0.04624602198600769, -0.014295169152319431, -0.021916793659329414, 0.0159002672880888, 0.05042517930269241, -0.010873518884181976, -0.03315529227256775, -0.09960001707077026, 0.025184907019138336, -0.017010774463415146, 0.0011328381951898336, -0.08728954941034317, 0.025500187650322914, -0.1077912226319313, 0.05618787184357643, -0.07506082952022552, 0.013947655446827412, 0.025784581899642944, 0.050677232444286346, 0.03671501576900482, 0.03812570124864578, 0.04371018707752228, -0.012184206396341324, 0.0003804026637226343, 0.059073224663734436, 0.039212122559547424, -0.05898754671216011], [-0.00718282675370574, 0.02115090750157833, -0.020145386457443237, -0.05472211167216301, 0.006703497841954231, 0.025530947372317314, -0.12657976150512695, 0.0033780024386942387, -0.05079087242484093, -0.05093635991215706, 0.036034151911735535, -0.006126094609498978, -0.05482200160622597, -0.08303437381982803, -0.030857998877763748, -0.045048829168081284, 0.02114832028746605, -0.04116291180253029, 0.052496783435344696, 0.02224729210138321, 0.05473862215876579, -0.07009377330541611, -0.028720950707793236, 0.03580576181411743, 0.01944207400083542, -0.01386768463999033, 0.09671952575445175, 0.05333494022488594, 0.07339823246002197, -0.020968658849596977, 0.04027340188622475, 0.012526962906122208, 0.07750637084245682, -0.001181922503747046, 0.06576789170503616, -0.0059302253648638725, -0.029750747606158257, -0.055144183337688446, -0.04610481858253479, -0.05723276734352112, -0.03776077926158905, 0.008781574666500092, 0.06595568358898163, 0.029974281787872314, -0.0708930715918541, -0.0761914774775505, -0.056775305420160294, 0.010393929667770863, 0.022348232567310333, -0.08439575135707855, -0.043055981397628784, -0.08699990808963776, 0.04680238664150238, 0.06453055143356323, -0.007766657508909702, -0.0591048002243042, 0.0072253053076565266, 0.002255971310660243, 0.009985487908124924, -0.012024752795696259, 0.033927638083696365, 0.045509833842515945, 0.026339838281273842, 0.022889522835612297, -0.043812766671180725, -0.023474814370274544, 0.018585989251732826, -0.024335909634828568, 0.037198398262262344, 0.0010306511539965868, -0.033765800297260284, -0.011044175364077091, -0.019159533083438873, 0.04350593313574791, -0.01908840425312519, -0.03611438721418381, 0.015258648432791233, 0.0007002475904300809, -0.06370025873184204, 0.013385004363954067, -0.03632938489317894, 0.08437039703130722, 0.030842898413538933, -0.00657381396740675, -0.025744128972291946, 0.043430741876363754, 0.0659048929810524, -0.06694992631673813, 0.01517868135124445, -0.10978639870882034, 0.06417736411094666, -0.04386752098798752, -0.02742292359471321, -0.018000252544879913, 0.03795706108212471, -0.06716379523277283, 0.029218142852187157, 0.012733705341815948, -0.03946084529161453, 0.04772751405835152, 0.07228883355855942, 0.021623406559228897, 0.007257954683154821, -0.038444243371486664, -0.03723114728927612, -0.03767102211713791, 0.0016421484760940075, 0.0013519637286663055, -0.009649860672652721, 0.015641840174794197, -0.06109008938074112, -0.09551561623811722, 0.07359051704406738, -0.044469449669122696, 0.017247274518013, 0.03912407532334328, -0.05840060114860535, 0.04107676446437836, 0.0885852798819542, -0.04273947328329086, 0.08352228254079819, -0.012548544444143772, 0.06146407872438431, 0.03677913174033165, 0.016017278656363487, -0.011721222661435604, -0.0024082332383841276, -0.01617373339831829], [-0.02460641600191593, 0.0497610978782177, -0.0072836983017623425, -0.05723002180457115, -0.030396172776818275, 0.00012817198876291513, -0.04421763867139816, -0.02059544436633587, -0.022981863468885422, 0.002256469801068306, -0.07547219842672348, -0.07230839878320694, -0.036633044481277466, -0.06073905527591705, 0.05555640533566475, 0.03593561425805092, 0.013873284682631493, -0.043985042721033096, -0.08150643110275269, -0.01739141158759594, -0.01991122029721737, -0.04146097972989082, -0.03792655095458031, 0.09942501783370972, 0.05953964218497276, 0.026508167386054993, 0.04166266694664955, 0.01293940283358097, 0.017571380361914635, 0.02140568383038044, 0.02241463027894497, 0.025914747267961502, -0.0375739187002182, 0.03016877919435501, 0.07985328882932663, -0.07031921297311783, -0.02246824838221073, 0.02362849935889244, -0.05100329965353012, -0.05493202432990074, 0.031212614849209785, -0.06860995292663574, -0.019093869253993034, 0.03847154229879379, 0.05116709694266319, -0.06569774448871613, -0.02542954310774803, -0.042500998824834824, -0.015072084031999111, -0.04903736710548401, -0.04767446964979172, -0.037663593888282776, -0.008058641105890274, -0.04805454611778259, 0.058218300342559814, 0.01986975036561489, 0.02246778830885887, 0.06331205368041992, 0.022494155913591385, -0.007921533659100533, 0.012135885655879974, 0.038523755967617035, 0.007754602003842592, -0.004748535808175802, -0.008165646344423294, -0.05109018459916115, 0.0041905059479177, -0.08246700465679169, 0.0007587277214042842, 0.004345976281911135, 0.038583576679229736, -0.020266801118850708, 0.046459220349788666, 0.004490264225751162, 0.068662628531456, -0.0868142619729042, -0.08642531931400299, 0.06883198767900467, -0.04009200260043144, 0.016844360157847404, 0.011076269671320915, -0.016123345121741295, -0.030425075441598892, -0.0293371994048357, -0.021747734397649765, -0.008224084042012691, 0.0025622439570724964, -0.05250640586018562, -0.010495834052562714, 0.010161170735955238, -0.04860831797122955, -0.043003421276807785, -0.025786815211176872, 0.0034589830320328474, 0.0195008497685194, -0.045307815074920654, 0.016799570992588997, 0.03239946439862251, -0.040130842477083206, -0.012504009529948235, 0.06189186871051788, 0.0036699501797556877, -0.005399501882493496, -0.07060112804174423, -0.0515325628221035, -0.020678861066699028, 0.02528352476656437, -0.027676595374941826, -0.06681344658136368, 0.0016023912467062473, 0.005937033798545599, -0.032317642122507095, -0.06824131309986115, 0.00011729366087820381, -0.011967177502810955, 0.0287532526999712, 0.03640778735280037, -0.035437945276498795, 0.013293884694576263, -0.06941130757331848, -0.04624030739068985, 0.015391642227768898, -0.0001904364617075771, 0.020072661340236664, -0.03946849703788757, -0.035812217742204666, 0.01692696288228035, -0.01285969652235508], [0.06309772282838821, 0.0023614815436303616, -0.01828192174434662, -0.016963837668299675, -0.025134673342108727, 0.05673767253756523, 0.022524315863847733, -0.008883310481905937, 0.0006697993958368897, -0.05504310876131058, -0.05697902292013168, 0.02821066789329052, 0.018155664205551147, 0.07291267812252045, -0.10460662841796875, -0.07684618979692459, -0.09128396213054657, -0.019814349710941315, -0.03934449702501297, -0.03702884539961815, -0.03046809323132038, -0.04733886197209358, 0.02173973247408867, -0.03799930587410927, 0.0086856409907341, -0.00501669105142355, -0.008465025573968887, 0.028925523161888123, 0.049007464200258255, -0.026232155039906502, 0.012563981115818024, 0.057567160576581955, 0.019053379073739052, -0.030867336317896843, 0.0217717494815588, 0.027443144470453262, -0.03544720634818077, -0.043314460664987564, -0.06520860642194748, -0.07274605333805084, -0.008872837759554386, 0.019245831295847893, -0.02747262455523014, 0.022992419078946114, -0.01629924587905407, -0.08081771433353424, -0.06308938562870026, 0.029075533151626587, 0.02844300866127014, -0.041031818836927414, -0.0011660889722406864, -0.019112996757030487, -0.0008265788201242685, -0.059852235019207, -0.023299315944314003, -0.05117066949605942, -0.029275158420205116, -0.02659371867775917, -0.025143343955278397, -0.00681726448237896, 0.007139790803194046, -0.02727825753390789, -0.04213003069162369, -0.0013894004514440894, -0.04761279374361038, -0.04283634573221207, 0.04333934187889099, -0.014786288142204285, 0.005917971488088369, -0.04496695101261139, -0.04678037390112877, 0.006045972928404808, 0.03425025939941406, -0.033121947199106216, 0.010642231442034245, 0.08699672669172287, 0.03583401441574097, -0.015369882807135582, -0.029755905270576477, -0.06736383587121964, 0.09182482212781906, -0.028771616518497467, -0.04638028144836426, 0.047246452420949936, -0.012470693327486515, -0.05651429295539856, 0.020553674548864365, 0.04865238070487976, 0.03940431773662567, 0.07357006520032883, -0.0351249985396862, -0.03777749836444855, -0.06104308366775513, 0.036122534424066544, 0.04333198443055153, 0.04661847651004791, -0.06397457420825958, 0.002874066587537527, -0.05481035262346268, -0.03629865497350693, -0.03526796028017998, 0.046369198709726334, -0.03286057338118553, 0.08831954002380371, 0.016956746578216553, -0.02933475375175476, -0.024223443120718002, 0.05591452121734619, -0.04980391636490822, -0.01650417037308216, -0.022454172372817993, -0.02317572943866253, 0.01994117721915245, -0.004498148337006569, 0.03591318801045418, 0.009278252720832825, -0.03771267086267471, -0.07852765172719955, -0.013602127321064472, -0.054521556943655014, 0.0015897330595180392, -0.04300612583756447, 0.0039675431326031685, -0.03222716227173805, -0.03474739193916321, 0.013284602202475071, -0.049865253269672394, 0.016258355230093002], [0.03443558141589165, 0.0211501382291317, -0.007987674325704575, 0.03720787167549133, -0.0531233474612236, 0.0028315826784819365, -0.029315654188394547, 0.0435100682079792, 0.02307017147541046, 0.07098806649446487, -0.06481996178627014, -0.05253233760595322, -0.0018181921914219856, 0.02215307578444481, -0.0069261942990124226, 0.04981062188744545, 0.044616878032684326, -0.07525445520877838, 0.05264107882976532, 0.004431677982211113, 0.04838383197784424, 0.050634562969207764, 0.07160122692584991, 0.01795550435781479, -0.04352721571922302, -0.007853885181248188, -0.058032065629959106, -0.06548870354890823, 0.03960529714822769, -0.017418062314391136, -0.015053067356348038, 0.02588731423020363, -0.0011949159670621157, -0.010690493509173393, -0.03487490117549896, -0.0030925627797842026, -0.10098661482334137, 0.046801477670669556, 0.0623784139752388, -0.021253488957881927, -0.012056425213813782, -0.06995818018913269, 0.01638576202094555, 0.04419821500778198, 0.023830417543649673, -0.019242020323872566, -0.02797727659344673, 0.03540477901697159, 0.07401781529188156, 0.007232935633510351, 0.036064282059669495, -0.03669319674372673, 0.009373600594699383, -0.018290769308805466, -0.038355790078639984, -0.014546428807079792, -0.007152239326387644, -0.03262713924050331, -0.004768460988998413, -0.02841908670961857, 0.05934442579746246, -0.04970347881317139, -0.049354489892721176, -0.10095099359750748, 7.634222856722772e-05, -0.023837151005864143, -0.06271853297948837, 0.02308587171137333, -0.023337312042713165, -0.035702724009752274, 0.005716853775084019, 0.05877656489610672, -0.038139235228300095, -0.030017387121915817, -0.024085668846964836, -0.06755037605762482, 0.02656877413392067, -0.001466607442125678, 0.012775741517543793, -0.013849213719367981, -0.0010197795927524567, -0.008968383073806763, -0.011988215148448944, 0.02075679786503315, -0.06351176649332047, 0.016734369099140167, -0.032685164362192154, -0.07006867974996567, -0.03677308186888695, 0.029711104929447174, -0.013269634917378426, -0.015448637306690216, -0.001145276939496398, 0.05155649036169052, -0.09135060012340546, 0.05801527947187424, 0.03509111329913139, 0.02767859771847725, -0.02651047706604004, -0.06988313794136047, 0.005485850386321545, -0.0006001670844852924, -0.0018914133543148637, -0.05926886945962906, -0.007979064248502254, 0.05158766731619835, -0.035685714334249496, -0.03699078783392906, 0.05156593769788742, -0.03829041123390198, 0.012993227690458298, 0.01629035919904709, -0.022951094433665276, -0.014470440335571766, -0.055679067969322205, 0.03795389458537102, -0.024265222251415253, 0.007022143807262182, -0.04155277833342552, -0.005625240504741669, 0.024809660390019417, 0.02056480199098587, -0.004067711532115936, 0.0025221076793968678, 0.00195155234541744, -0.015007473528385162, 0.01669459417462349, -0.0017415350303053856], [0.02775024063885212, 0.015466621145606041, 0.009154408238828182, -0.0524861179292202, 0.004548490978777409, -0.0690382570028305, -0.01151740737259388, -0.037085793912410736, -0.049389950931072235, -0.013186442665755749, -0.13417282700538635, -0.05982661247253418, 0.012631723657250404, 0.018807101994752884, -0.08589692413806915, -0.0253314096480608, 1.314043765887618e-05, -0.043093789368867874, 0.021209141239523888, -0.016565237194299698, -0.02678484283387661, -0.06424213945865631, 0.005974454339593649, -0.0495331697165966, 0.05170918628573418, -0.011065585538744926, 0.02290019951760769, -0.017087288200855255, -0.006307838950306177, 0.004256547428667545, -0.08277048915624619, -0.04842505231499672, -0.06058220565319061, -0.04096304997801781, -0.028623485937714577, -0.0186302587389946, 0.010630752891302109, -0.030416494235396385, -0.05458907037973404, -0.09177990257740021, -0.03093063272535801, -0.00668518478050828, 0.014481056481599808, -0.056444041430950165, 0.00565171055495739, -0.012813286855816841, -0.02176644094288349, -0.007320844568312168, -0.08021804690361023, -0.009186932817101479, 0.03464764356613159, 0.014003915712237358, -0.010906458832323551, -0.020659852772951126, 0.05348595976829529, 0.032817523926496506, -0.037724658846855164, -0.021160082891583443, 0.00037479025195352733, -0.011961124837398529, 0.026433298364281654, 0.007786102592945099, 0.018926940858364105, -0.0514800064265728, -0.048820316791534424, 0.006641981657594442, -0.018161142244935036, -0.062485747039318085, 0.011656456626951694, -0.01835130713880062, 0.017173057422041893, 0.006719356868416071, 0.005805533844977617, -0.10188890993595123, 0.11705297976732254, -0.05883398279547691, -0.03816530480980873, -0.0621890164911747, -0.021374622359871864, -0.060019806027412415, -0.03545195609331131, -0.030147744342684746, 0.019370287656784058, 0.013162408955395222, -0.055639635771512985, 0.013695694506168365, -0.009570778347551823, -0.04771997779607773, -0.07187636941671371, -0.059456031769514084, -0.027767766267061234, -0.03091629035770893, -0.01610221341252327, -0.07490642368793488, -0.07312433421611786, -0.02818610705435276, -0.03497060388326645, -0.02724936231970787, 0.08024785667657852, 0.014906357042491436, -0.0565989725291729, -0.007200499065220356, 0.05536222085356712, -0.023470385000109673, -0.01822642982006073, -0.038371481001377106, -0.06577825546264648, -0.08271566033363342, -0.051086533814668655, -0.006170551758259535, -0.047726280987262726, -0.006778562441468239, -0.01934797316789627, -0.04657677561044693, 0.0014001915697008371, -0.058137569576501846, -0.029302310198545456, 0.03298062086105347, -0.019112519919872284, -0.004563265945762396, -0.017181819304823875, 0.03674563020467758, -0.012193365022540092, -0.026185516268014908, 0.020886261016130447, -0.03907531127333641, -0.025336885824799538, -0.04081409424543381], [-0.022393060848116875, -0.05332745984196663, 0.03975768759846687, 0.024704577401280403, 0.009611866436898708, 0.014995155856013298, -0.04453879967331886, 0.008409883826971054, -0.10125395655632019, -0.02442215569317341, -0.03867262974381447, -0.019797954708337784, 0.028114458546042442, 0.01126002799719572, 0.03341008722782135, -0.04482761025428772, -0.006592140067368746, -0.012584434822201729, 0.012985791079699993, -0.03943846747279167, -0.03606827184557915, -0.01779034547507763, 0.05185740068554878, -0.03397943824529648, 0.031140321865677834, -0.03124096430838108, 0.027941299602389336, -0.02127363719046116, -0.007380411494523287, 0.003222772618755698, 0.008700840175151825, -0.07313639670610428, 0.011269891634583473, -0.04245524853467941, -0.034936193376779556, 0.03370791673660278, 0.013145082630217075, -0.009476622566580772, -0.03728342056274414, -0.025231724604964256, -0.05030757188796997, 0.044800009578466415, -0.06697557121515274, 0.02668887935578823, -0.07212378084659576, -0.009198586456477642, -0.056721046566963196, 0.04456454887986183, 0.035196974873542786, -0.06543338298797607, 0.008527466095983982, -0.0643237829208374, 0.0127803273499012, -0.007499222178012133, -0.029673447832465172, -0.004149748012423515, 0.057938817888498306, -0.010180726647377014, 0.026437539607286453, 0.035708948969841, -0.02566436678171158, -0.0015440157148987055, 0.05138128250837326, 0.0037653909530490637, 0.02349400334060192, -0.027424562722444534, 0.04874846339225769, -0.07700490951538086, -0.0012973664561286569, -0.050816670060157776, -0.037359707057476044, -0.024971209466457367, -0.006237091962248087, 0.05445642024278641, 0.0008267601951956749, 0.06990700215101242, 0.0566897951066494, 0.03109254129230976, -0.04537143558263779, 0.025353306904435158, 0.04654489830136299, -0.01185376662760973, -0.06137090548872948, -0.014836752787232399, 0.03996441885828972, -0.03016573004424572, 0.01202752161771059, -0.039453815668821335, 0.03382869437336922, -0.07857075333595276, -0.05095537379384041, 0.0015513041289523244, -0.028605323284864426, 0.043227262794971466, 0.08582776039838791, 0.06976097077131271, -0.022543486207723618, -0.05306047573685646, -0.06588535010814667, -0.02449720911681652, 0.05777259171009064, 0.03348877280950546, -0.05992121994495392, 0.019966265186667442, 0.020295923575758934, -0.04828396439552307, -0.00020120292901992798, 0.028788747265934944, -0.07337332516908646, -0.033499885350465775, -0.11840316653251648, -0.04666076600551605, 0.012827176600694656, 0.03648504987359047, 0.04536928981542587, -0.04648074135184288, 0.0019559809006750584, -0.0524696446955204, 0.0058004120364785194, -0.04077600687742233, -0.010647274553775787, -0.10189183056354523, 0.0017073794733732939, -0.115468330681324, -0.011032682843506336, 0.01674993708729744, 0.028334079310297966, -0.059907641261816025], [-0.04842326045036316, 0.02535960264503956, 0.004131673369556665, 0.0662543848156929, -0.011369813233613968, 0.039574120193719864, -0.02277516759932041, -0.11304661631584167, -0.03709607571363449, 0.018928486853837967, -0.033986423164606094, -0.040687598288059235, -0.0313398577272892, -0.08045371621847153, 0.015842558816075325, -0.006271454971283674, -0.024531589820981026, 0.08442006260156631, 0.009444493800401688, -0.0015668567502871156, -0.036819446831941605, -0.09260866791009903, -0.09996950626373291, 0.04978685826063156, -0.03078293986618519, -0.01490132138133049, 0.01322195678949356, -0.05427367612719536, -0.027259545400738716, 0.0045014070346951485, -0.00772486487403512, -0.023454563692212105, 0.04934585466980934, -0.1283160299062729, 0.007821126841008663, 0.03294624760746956, -0.053173258900642395, 0.014280620031058788, 0.057520147413015366, -0.08948690444231033, -0.041909437626600266, 0.018795261159539223, 0.055763017386198044, -0.016261056065559387, -0.042702049016952515, -0.009060359559953213, -0.09687767177820206, -0.027928238734602928, -0.059186920523643494, -0.010136792436242104, 0.04393649473786354, -0.022099100053310394, -0.02539094164967537, 0.04030080512166023, -0.050505779683589935, -0.05716049298644066, -0.035062894225120544, 0.038354888558387756, 0.0599091611802578, 0.05373425781726837, 0.015677984803915024, -0.014646343886852264, -0.03659709915518761, 0.06133395433425903, -0.007080123294144869, 0.0003277191426604986, 0.019647004082798958, -0.12183929234743118, 0.049050312489271164, -0.01118512824177742, -0.031053345650434494, 0.0048151761293411255, -0.05484437942504883, 0.035029541701078415, -0.0754619836807251, -0.02947905845940113, -0.03650326281785965, -0.03964008018374443, 0.02106117270886898, 0.003945881966501474, 0.03772500902414322, -0.09144306182861328, -0.019376950338482857, -0.030261443927884102, 0.038892555981874466, -0.015707312151789665, 0.03088000789284706, -0.0882638469338417, -0.04025797173380852, 0.08841484785079956, -0.010870265774428844, -0.0071966084651649, 0.0028205877169966698, -0.053503330796957016, -0.06209026649594307, -0.042156629264354706, -0.06911960244178772, -0.0344536155462265, -0.002867260482162237, 0.004445181228220463, 0.03315236046910286, 0.008088579401373863, -0.0671318992972374, -0.09078653156757355, 0.0034125258680433035, -0.050672635436058044, -0.07086105644702911, 0.04526413604617119, -0.07706885039806366, 0.013194373808801174, 0.06425077468156815, 0.019767822697758675, 0.02022968791425228, -0.022486384958028793, -0.04092373326420784, 0.025964733213186264, 0.0016720718704164028, 0.04427926242351532, -0.05794639140367508, -0.03714795410633087, -0.0676857978105545, -0.014888196252286434, -0.0477755032479763, 9.119446622207761e-05, -0.05334381386637688, 0.04913310334086418, 0.006436115130782127, -0.07082869112491608], [-0.06622692942619324, -0.03838922828435898, 0.0020133578218519688, 0.04236307740211487, -0.04369517043232918, -0.04646964371204376, -0.012161945924162865, -0.026790594682097435, -0.013852494768798351, 0.015645340085029602, 0.057313017547130585, 0.0450814887881279, 0.004714443348348141, -0.044437650591135025, -0.07693560421466827, 0.07465050369501114, -0.01922677457332611, -0.1079215332865715, 0.031394995748996735, 0.010640299879014492, 0.06482401490211487, -0.02629215084016323, -0.008596732281148434, -0.027737420052289963, -0.09948869049549103, 0.059435758739709854, -0.07734595239162445, -0.057337891310453415, -0.08216632157564163, -0.08621398359537125, -0.07787854969501495, 0.018480675294995308, -0.05060392618179321, 0.05941738560795784, -0.10071244835853577, 0.0013012299314141273, 0.03299850597977638, 0.01916157640516758, -0.008987925946712494, 0.024200940504670143, -0.005134720355272293, -0.02283904328942299, -0.019213635474443436, -0.07531162351369858, -0.04908394813537598, 0.07989783585071564, -0.03994658961892128, -0.044834814965724945, -0.04917525500059128, 0.027181880548596382, 0.04255305603146553, -0.007894459180533886, 0.01274392381310463, -0.10175271332263947, 0.006512624677270651, -0.07036720216274261, 0.024749645963311195, -0.025811634957790375, -0.04564784839749336, -0.04990691691637039, -0.06636398285627365, 0.017776988446712494, -0.029744135215878487, 0.019678371027112007, 0.037116918712854385, -0.04727090150117874, -0.10943299531936646, -0.020587317645549774, 0.03786830976605415, -0.026274070143699646, -0.04485185071825981, -0.022223856300115585, 0.03074428252875805, -0.063519187271595, -0.0898078978061676, -0.023787276819348335, 0.025378553196787834, -0.006990883965045214, -0.061848197132349014, 0.057225994765758514, -0.06931822001934052, -0.04939010739326477, -0.07861308008432388, -0.011096245609223843, -0.02923429198563099, -0.049854401499032974, -0.06657320261001587, -0.015606807544827461, 0.023795517161488533, 0.012533594854176044, 0.05318554863333702, -0.013292795047163963, 0.014853688888251781, -0.06556064635515213, -0.042826417833566666, -0.10971219837665558, 0.05277976393699646, -0.005005678627640009, -0.0192178376019001, -0.037015680223703384, 0.02594936266541481, -0.02893201634287834, -0.031627107411623, 0.052668653428554535, 0.010089964605867863, 0.018529588356614113, -0.0033370808232575655, -0.0967077910900116, -0.09370455145835876, -0.048021212220191956, -0.05709819495677948, 0.017917612567543983, -0.022735001519322395, -0.021587694063782692, -0.01706683076918125, -0.002155672525987029, 0.028270507231354713, -0.053061142563819885, 0.0061427392065525055, -0.08633092790842056, 0.04744305834174156, -0.015690643340349197, 0.020689480006694794, -0.06075235828757286, 0.015392392873764038, -0.018734214827418327, 0.08295459300279617, -0.00250453595072031], [0.035912469029426575, -0.02392648160457611, -0.05966712161898613, -0.02528288960456848, -0.0377119705080986, -0.0628419816493988, -0.021927746012806892, 0.04421791061758995, 0.027337906882166862, 0.013543359003961086, -0.02667739801108837, -0.013657267205417156, -0.022794708609580994, -0.01651819236576557, 0.07054160535335541, -0.012320996262133121, 0.045891400426626205, 0.015273123048245907, 0.04789077118039131, -0.06577208638191223, 0.03907012566924095, -0.04086600989103317, -0.029220791533589363, -0.020613674074411392, 0.0254520196467638, 0.0425124391913414, -0.0048539163544774055, -0.0067098187282681465, -0.14622855186462402, -0.006146270781755447, 0.0062149628065526485, 0.04230470955371857, 0.06304658204317093, -0.013891603797674179, 0.024313729256391525, -0.045116983354091644, -0.003136631567031145, -0.026473985984921455, -0.02494300901889801, -0.00849668774753809, 0.038572173565626144, -0.1177535206079483, 0.06675930321216583, -0.009038494899868965, 0.006667385809123516, -0.03828940540552139, 0.06420911848545074, -0.03160528838634491, -0.08547385782003403, -0.042072732001543045, -0.0028332893270999193, 0.003984919749200344, 0.014310892671346664, -0.027330024167895317, 0.005283389240503311, 0.05968835949897766, -0.0534915030002594, -0.00354049657471478, 0.03819930553436279, -0.09569332748651505, 0.038387902081012726, 0.05979050323367119, 0.005260012112557888, -0.10263355076313019, -0.02833401970565319, 0.00022832625836599618, -0.038283027708530426, 0.02859966829419136, -0.0012998275924474, -0.04330618306994438, 0.04121983423829079, -0.02713429555296898, -0.05164312198758125, 0.014893652871251106, 0.024509236216545105, 0.05802648141980171, 0.034135520458221436, 0.003573488676920533, -0.0636339783668518, 0.05643686279654503, -0.011491739191114902, -0.08068293333053589, 0.0007399692549370229, 0.011045713908970356, 0.02161017619073391, 0.0644468441605568, -0.03252241015434265, 0.0007506061811000109, -0.04029368609189987, 0.035650767385959625, 0.02633673883974552, 0.01839767023921013, -0.026123180985450745, -0.01494868565350771, 0.018637068569660187, 0.06108194589614868, 0.021877119317650795, -0.03878088295459747, -0.012718102894723415, 0.07017870992422104, -0.021074216812849045, 0.06605731695890427, -0.0854840949177742, 0.01918007619678974, -0.042598944157361984, -0.022048329934477806, -0.00033599906601011753, 0.03884873539209366, -0.047898903489112854, 0.04365348443388939, 0.0028506238013505936, -0.028443554416298866, 0.009662909433245659, -0.043754708021879196, -0.02577134780585766, -0.04378381371498108, 0.03702192008495331, -0.042947378009557724, 0.05099213868379593, -0.04967731982469559, -0.0037815647665411234, -0.06779424846172333, 0.04963931441307068, -0.03127806633710861, -0.03730181232094765, -0.010504377074539661, -0.05301836505532265, -0.013858461752533913], [-0.07278957962989807, 0.01374575961381197, 0.04961339011788368, -0.024006972089409828, -0.03985944762825966, 0.009002136066555977, -0.032230645418167114, -0.07608409225940704, 0.05549519136548042, -0.004006920848041773, -0.0386769138276577, 0.010926750488579273, 0.04275994002819061, 0.0033333436585962772, 0.017558299005031586, 0.008725423365831375, 0.017971107736229897, 0.041805848479270935, 0.08888303488492966, 0.0059803808107972145, -0.04210461303591728, -0.06362461298704147, -0.02320469170808792, -0.009918628260493279, -0.017713356763124466, 0.020332500338554382, -0.09245364367961884, -0.02330968901515007, 0.014337425120174885, 0.09808263182640076, -0.06879208236932755, -0.11181540787220001, -0.02666642516851425, -0.015082922764122486, -0.004161842167377472, 0.016899053007364273, 0.009944938123226166, 0.04824624955654144, 0.06475622951984406, 0.024552976712584496, 0.09754978120326996, -0.055021729320287704, -0.03596973791718483, -0.009787351824343204, -0.1234702542424202, -0.01611526496708393, -0.03423846513032913, -0.007473613601177931, -0.07985644042491913, -0.018814487382769585, -0.00407407246530056, -0.03050866164267063, -0.027582770213484764, 0.05064002424478531, -0.02938401885330677, -0.014634503051638603, 0.02707076072692871, -0.05030952766537666, -0.03848102688789368, -0.01181165874004364, 0.009967892430722713, -0.03489379584789276, 