{"model.0.weight": [[-0.10166139155626297, 0.017437605187296867, 0.04034428298473358, -0.04833544045686722, 0.07761935889720917, 0.04374963417649269, 0.0640048235654831, -0.07797642052173615, -0.04329247772693634, 0.037838440388441086, 0.04064272716641426, -0.10651470720767975, -0.06433439254760742, -0.01340789906680584, 0.015841210260987282, -0.03497801348567009, -0.03917966037988663, 0.10025613754987717, 0.04567641019821167, 0.03615422919392586], [0.0030087530612945557, 0.08362317085266113, -0.020915117114782333, 0.08349435031414032, -0.02838032692670822, 0.1595941185951233, -0.047777000814676285, 0.07344838976860046, -0.010647926479578018, -0.022650599479675293, -0.06399114429950714, 0.004106590524315834, 0.08149506151676178, -0.07402944564819336, -0.005130872130393982, -0.04045872390270233, 0.07884035259485245, 0.0031359437853097916, 0.033922646194696426, -0.049621179699897766], [-0.08923656493425369, 0.006432213354855776, 0.045129746198654175, -0.08090958744287491, -0.07393056154251099, -0.10503915697336197, -0.10201513767242432, 0.06371019780635834, -0.010591961443424225, -0.10515125095844269, -0.07940024137496948, 0.0633774921298027, 0.09524162113666534, -0.042843371629714966, 0.014661666005849838, 0.05866941064596176, -0.034729793667793274, 0.007371608167886734, -0.12062476575374603, -0.09329964220523834], [-0.028066720813512802, -0.011259612627327442, -0.03160350024700165, -0.02927582338452339, 0.047960422933101654, -0.005291575565934181, 0.06659600138664246, 0.06708652526140213, 0.031248150393366814, 0.06370334327220917, 0.10595568269491196, 0.0981573611497879, 0.013926027342677116, -0.10960586369037628, 0.041606079787015915, 0.029781872406601906, -0.008101782761514187, -0.051502443850040436, -0.0711287409067154, 0.10254278779029846], [-0.10433350503444672, 0.028959106653928757, -0.0804983600974083, -0.09759491682052612, 0.014836639165878296, -0.09044096618890762, -0.014039278030395508, -0.04909843951463699, -0.061018116772174835, -0.05787069350481033, 0.05072604864835739, -0.035878922790288925, 0.04431848227977753, -0.03878576308488846, -0.006145427003502846, -0.08565270155668259, -0.0538521334528923, -0.05477563291788101, -0.011995851993560791, -0.05162908136844635], [0.014046147465705872, 0.10011507570743561, 0.02036883682012558, -0.11469201743602753, 0.00013582594692707062, 0.05932307988405228, 0.0984487533569336, -0.10428774356842041, -0.08957178145647049, -0.0032976120710372925, 0.009039405733346939, 0.046764735132455826, -0.010463625192642212, 0.10379951447248459, 0.08872876316308975, 0.03451427072286606, 0.028997965157032013, 0.07787524908781052, -0.04925312101840973, -0.07128415256738663], [-0.05294843763113022, -0.09009726345539093, 0.0803087130188942, 0.06950388848781586, 0.12814870476722717, -0.060292720794677734, -0.043396688997745514, -0.08831128478050232, -0.04169798269867897, -0.003925838507711887, 0.11157143115997314, -0.02214689739048481, 0.047920335084199905, 0.0537991002202034, 0.05240225791931152, -0.01722780242562294, 0.1392146497964859, 0.07024271786212921, 0.016108253970742226, -0.059252023696899414], [-0.09448448568582535, 0.0007337778806686401, -0.06339683383703232, 0.015113819390535355, 0.107339046895504, 0.05647619441151619, -0.013559885323047638, -0.00584016740322113, -0.037517473101615906, -0.13060811161994934, 0.03518097847700119, 0.07743093371391296, 0.12349160015583038, 0.01614455133676529, 0.03464744985103607, -0.028525197878479958, -0.03509411960840225, -0.03898635134100914, -0.0822424441576004, 0.002987025771290064], [0.03875597193837166, 0.06412597745656967, 0.019769512116909027, -0.08316610008478165, -0.07195164263248444, -0.051197316497564316, 0.02576800435781479, -0.10899322479963303, 0.09360483288764954, -0.08197871595621109, -0.03673335164785385, -0.045963190495967865, -0.12339223921298981, 0.09693539142608643, 0.046219151467084885, -0.09388379007577896, 0.039692822843790054, 0.048831429332494736, -0.03154414892196655, 0.07044707238674164], [0.053942788392305374, 0.009257165715098381, 0.05738440155982971, 0.04189905524253845, 0.07465678453445435, -0.10005538165569305, -0.02496541105210781, 0.04314134269952774, -0.07996975630521774, 0.008849617093801498, -0.11240044236183167, 0.12590178847312927, 0.07907643169164658, -0.09756405651569366, -0.02688731625676155, 0.06744649261236191, -0.050299376249313354, -0.060812316834926605, 0.07497571408748627, 0.019427284598350525], [0.09380540996789932, 0.011443624272942543, 0.01345113292336464, 0.01102224737405777, -0.022389262914657593, 0.07906219363212585, 0.025623779743909836, 0.008570131845772266, -0.00803414173424244, 0.07918968051671982, 0.009209583513438702, -0.10317207872867584, 0.004462733864784241, 0.02016909420490265, 0.0041543710976839066, 0.012990564107894897, 0.027680980041623116, -0.07927805185317993, 0.06862398236989975, 0.015462685376405716], [0.035652630031108856, 0.08168637007474899, 0.044200751930475235, 0.0633648931980133, -0.05392029508948326, 0.01883382350206375, 0.13544350862503052, 0.10387890040874481, 0.038785792887210846, 0.07608096301555634, 0.0527820959687233, -0.03127294406294823, -0.09349341690540314, 0.019196439534425735, -0.025815501809120178, -0.05772383511066437, -0.0005257949233055115, -0.08599712699651718, -0.01792074739933014, -0.055519893765449524], [-0.06035668030381203, 0.044130679219961166, 0.022246060892939568, -0.024544358253479004, -0.05116121470928192, 0.12321653962135315, -0.04782892018556595, -0.0568753145635128, 0.0633045881986618, 0.09669709950685501, 0.10260805487632751, 0.02704421989619732, 0.07860604673624039, -0.0746869146823883, 0.022038305178284645, 0.024424906820058823, 0.012788195163011551, 0.05467066541314125, 0.02403777837753296, 0.013770028948783875], [0.041141971945762634, 0.01149258017539978, -0.01273973286151886, -0.01043807715177536, 0.10699031502008438, 0.004947153851389885, -0.05126418173313141, -0.06413900852203369, 0.012698667123913765, 0.03187881410121918, 0.08406686782836914, 0.0710190087556839, 0.04263022914528847, -0.05653965100646019, 0.05014821141958237, -0.04330287128686905, 0.03338562324643135, -0.06210058927536011, -0.07059481739997864, 0.04452512785792351], [0.14172516763210297, -0.09646082669496536, -0.00997062399983406, -0.05788951367139816, 0.03635181859135628, -0.012995876371860504, -0.06948898732662201, -0.06071832776069641, -0.03525029495358467, -0.06449215114116669, -0.0420827679336071, -0.04158908128738403, -0.06802808493375778, 0.009375181049108505, -0.05998056381940842, 0.03531363233923912, 0.0620756633579731, 0.0919002965092659, -0.07220541685819626, -0.07950431108474731], [0.06270276755094528, 0.0063354261219501495, -0.07968764007091522, -0.0012073405086994171, -0.14068719744682312, -0.04849981144070625, -0.09017913043498993, -0.05560915917158127, 0.03182978928089142, -0.07488271594047546, -0.028630908578634262, -0.10008995234966278, 0.0030538085848093033, 0.02960214577615261, 0.06445228308439255, 0.0010764263570308685, -0.056622330099344254, -0.04667994752526283, 0.046769190579652786, -0.04896213486790657], [-0.005573604255914688, -0.02372564934194088, 0.01710352674126625, -0.0465061254799366, -0.0029497072100639343, 0.05288577824831009, 0.011508002877235413, 0.1059839054942131, -0.06698434054851532, -0.007673711981624365, 0.03336108475923538, 0.09698016941547394, 0.05194766819477081, 0.1373230367898941, 0.030021335929632187, -0.031433045864105225, 0.02656158059835434, 0.0661127045750618, -0.12329056859016418, 0.0021202482748776674], [-0.09232252836227417, -0.03729581832885742, -0.12087357044219971, 0.09401293843984604, -0.030780337750911713, 0.051529690623283386, 0.0015561599284410477, -0.035209398716688156, -0.12645569443702698, -0.039266254752874374, -0.00332096079364419, -0.10460491478443146, 0.0762367844581604, -0.019549064338207245, -0.038772571831941605, -0.055681146681308746, -0.055575691163539886, 0.050341587513685226, 0.02310056984424591, 0.0006721429526805878], [0.04212796688079834, -0.01171206682920456, -0.024905262514948845, -0.055449578911066055, -0.05790158361196518, -0.08789510279893875, 0.021328866481781006, 0.007555847987532616, -0.11280453205108643, -0.007267434149980545, 0.11831502616405487, -0.033856865018606186, 0.06019756570458412, 0.0011643394827842712, -0.038765259087085724, 0.13344983756542206, 0.004309268668293953, -0.06358054280281067, -0.10414431244134903, -0.06561343371868134], [-0.05540084093809128, -0.018433580175042152, 0.03965103626251221, -0.1196410059928894, -0.11288374662399292, -0.06722459942102432, 0.03085443004965782, 0.0801275372505188, 0.05703391507267952, -0.0864337757229805, 0.009973838925361633, 0.00629066675901413, -0.009045898914337158, -0.03509239852428436, -0.022715944796800613, 0.021523654460906982, 0.08330855518579483, 0.03447442129254341, 0.08452387154102325, -0.12065983563661575], [-0.01314954087138176, 0.05035862699151039, -0.0795009508728981, -0.029373370110988617, -0.035689227283000946, 0.048764873296022415, -0.09820634126663208, 0.03477855026721954, -0.07237035781145096, -0.006461236625909805, -0.07004337757825851, 0.00961556937545538, -0.012085672467947006, 0.05822157859802246, -0.07690100371837616, 0.020197169855237007, -0.01664639636874199, 0.07064876705408096, -0.04168713837862015, -0.05777277797460556], [-0.05892591178417206, 0.014767268672585487, -0.021454598754644394, 0.11440358310937881, 0.02533036284148693, 0.03730640932917595, 0.03336656093597412, 0.07383821159601212, 0.0947752520442009, 0.04524983465671539, 0.00182328000664711, 0.05617764592170715, 0.03511641174554825, -0.0075049735605716705, -0.09776247292757034, -0.02061334252357483, 0.04253086820244789, 0.0023231604136526585, 0.058584243059158325, -0.08783788233995438], [0.09266505390405655, -0.07025580108165741, -0.0727984681725502, 0.09712734818458557, 0.09568221867084503, -0.04301806911826134, 0.029761716723442078, 0.05173059552907944, -0.09503821283578873, 0.06311281770467758, -0.02594403550028801, -0.005533025600016117, -0.018440857529640198, -0.08678680658340454, -0.037371329963207245, 0.08937493711709976, 0.06633222103118896, -0.011178243905305862, 0.07133546471595764, -0.05755225569009781], [-0.043548695743083954, -0.04775966703891754, -0.06394331157207489, -0.10114459693431854, -0.05513837933540344, 0.0709305927157402, 0.03205379843711853, 0.1397891491651535, 0.06768281757831573, -0.06293322890996933, -0.06723732501268387, -0.06076308339834213, 0.029838506132364273, -0.05008663982152939, 0.12048397213220596, -0.07975348085165024, -0.03644469752907753, -0.03316409885883331, -0.056067582219839096, 0.029991328716278076], [-0.10966657102108002, -0.07121621817350388, -0.012681778520345688, 0.009233826771378517, -0.062369611114263535, 0.09021828323602676, 0.1022229790687561, -0.10096759349107742, 0.02416227012872696, -0.040377646684646606, -0.020778149366378784, -0.06143209710717201, 0.03936117887496948, -0.1055830642580986, 0.024660449475049973, -0.005032527260482311, 0.00790918618440628, 0.0390898697078228, -0.025012733414769173, -0.04014986753463745], [0.052303314208984375, -0.10373856872320175, 0.07568635046482086, -0.012783246114850044, 0.10585689544677734, 0.04904726892709732, -0.0075813112780451775, 0.11271442472934723, 0.10672866553068161, 0.04731874167919159, 0.011029132641851902, -0.1045975536108017, 0.04844190180301666, 0.022288508713245392, 0.0168137364089489, 0.0143464095890522, 0.05184467136859894, 0.0648445338010788, 0.0680185854434967, 0.10516434907913208], [-0.007386690936982632, 0.01987171173095703, -0.03318367898464203, 0.04320843517780304, -0.08958489447832108, 0.010616070590913296, 0.1042264774441719, 0.11301834136247635, 0.08060140162706375, -0.08545483648777008, 0.12008276581764221, 0.11667419970035553, -0.03008851781487465, 0.04892546683549881, -0.10948175936937332, 0.03942996636033058, -0.09645310789346695, 0.08847947418689728, -0.11647208034992218, -0.11637952923774719], [-0.08398517966270447, -0.035786211490631104, 0.061422400176525116, 0.031959716230630875, 0.010106666013598442, 0.11436828970909119, 0.0059692105278372765, 0.018116775900125504, 0.042577311396598816, 0.0622752383351326, -0.1271006166934967, -0.007776797749102116, -0.0037107281386852264, 0.08326965570449829, -0.05836845934391022, -0.03716970607638359, 0.03270586580038071, -0.03061715140938759, -0.06112070754170418, -0.057356834411621094], [-0.05240464210510254, 0.04865182191133499, 0.06752371042966843, -0.010289214551448822, 0.06494306027889252, -0.05756031721830368, 0.01656441204249859, 0.07640517503023148, 0.03487067669630051, 0.028203492984175682, -0.08324142545461655, 0.03693321347236633, -0.07774883508682251, -0.012018676847219467, 0.03139003366231918, -0.0894516110420227, 0.012958535924553871, -0.09676426649093628, 0.011557595804333687, -0.09070813655853271], [0.024672361090779305, -0.030114199966192245, 0.04133358970284462, -0.02291301265358925, -0.001970376819372177, -0.0471125952899456, -0.0531102754175663, 0.14589592814445496, 0.1425258219242096, -0.09509685635566711, 0.009554410353302956, -0.014439322985708714, 0.07042955607175827, -0.07786746323108673, 0.009061971679329872, -0.07017216086387634, 0.05420331656932831, 0.0410061851143837, -0.13496078550815582, -0.04163125157356262], [-0.042689383029937744, -0.0763855054974556, 0.012723613530397415, -0.11197356134653091, -0.04618744179606438, 0.1195363998413086, -0.04571574181318283, -0.07586158812046051, -0.009326260536909103, -0.03749435767531395, -0.016370676457881927, -0.033629510551691055, 0.03720702975988388, -0.024814825505018234, -0.0012326613068580627, -0.024375710636377335, 0.06761690229177475, 0.0006184994708746672, 0.06579408049583435, 0.04486016929149628], [0.09532304108142853, -0.08204211294651031, -0.06946918368339539, 0.10400353372097015, -0.03221958503127098, 0.049274545162916183, -0.017144011333584785, 0.035615473985672, -0.0859341248869896, -0.09797778725624084, -0.11670385301113129, -0.0583493635058403, -0.020733222365379333, 0.07309150695800781, -0.06601522862911224, 0.001635021879337728, 0.07913308590650558, 0.004168178886175156, 0.027323823422193527, -0.021901145577430725], [0.11965588480234146, 0.06026625633239746, 0.06559665501117706, -0.1286272406578064, -0.029300585389137268, 0.0037267738953232765, 0.09177319705486298, -0.08757873624563217, -0.08212120831012726, -0.041796229779720306, 0.0021810289472341537, 0.03314141929149628, -0.008955242112278938, 0.05695762857794762, 0.0352468267083168, 0.01528844516724348, 0.025707099586725235, 0.13879376649856567, 0.050482116639614105, 0.046194177120923996], [-0.021876947954297066, -0.11207261681556702, 0.04602346569299698, -0.10734821856021881, -0.045046158134937286, 0.0377749428153038, 0.009693682193756104, -0.037127528339624405, -0.10246236622333527, -0.030173294246196747, 0.019181465730071068, -0.0696406215429306, -0.06759532541036606, -0.09887976944446564, 0.048298679292201996, 0.07339639961719513, -0.05301310867071152, 0.008644748479127884, 0.07705429196357727, -0.13296358287334442], [-0.08442191034555435, 0.07935129851102829, 0.10889215767383575, -0.08971807360649109, 0.0014743469655513763, 0.007630791515111923, 0.13494236767292023, 0.10394774377346039, -0.04355252534151077, 0.07252174615859985, -0.04365653544664383, 0.11646691709756851, 0.06028421223163605, -0.06299549341201782, -0.01653458923101425, -0.11763476580381393, 0.05643828958272934, -0.0217717457562685, -0.01483212411403656, 0.05899197608232498], [-0.043507169932127, -0.0649866983294487, -0.08442656695842743, 0.0929817408323288, -0.04612598195672035, -0.011129746213555336, -0.019302837550640106, -0.012172570452094078, 0.06072024628520012, -0.031672537326812744, 0.03533850982785225, -0.009893141686916351, 0.001147635281085968, 0.016950717195868492, -0.09360761940479279, 0.10353636741638184, 0.001032404601573944, -0.005402684211730957, 0.02778366394340992, 0.011234097182750702], [-0.0464773029088974, 0.055121127516031265, -0.08438947051763535, 0.07453178614377975, 0.013818178325891495, -0.045264363288879395, 0.07481568306684494, -0.04074817895889282, -0.10969582945108414, -0.012910240329802036, 0.019526734948158264, 0.0134345144033432, -0.10652066767215729, 0.08773520588874817, 0.0021059364080429077, -0.051025230437517166, -0.028097650036215782, 0.08758687973022461, 0.004782218486070633, -0.035603538155555725], [-0.08601527661085129, -0.04320135712623596, -0.06291988492012024, -0.05400695651769638, 0.1089576780796051, -0.020346414297819138, 0.04628815874457359, 0.16971071064472198, -0.01704191416501999, -0.09012357890605927, -0.03750260919332504, -0.03242609649896622, -0.10608755052089691, 0.03983473405241966, 0.05809447914361954, 0.08935686200857162, -0.07517766207456589, -0.0727502778172493, -0.0822887122631073, 0.1090736985206604], [-0.036083243787288666, -0.069290891289711, 0.0737859308719635, 0.027890034019947052, -0.06306140869855881, 0.00204535573720932, -0.12554869055747986, -0.017160244286060333, 0.05283047631382942, 0.10038060694932938, 0.009001526981592178, 0.10857278108596802, 0.10597952455282211, 0.020423192530870438, 0.00820273905992508, 0.07888279855251312, 0.015101684257388115, 0.0056125931441783905, 0.09693454951047897, -0.06651980429887772], [-0.0460442453622818, -0.011221848428249359, 0.03549326956272125, 0.01003972813487053, -0.013491946272552013, 0.039330728352069855, -0.13012760877609253, 0.058884307742118835, -0.038064148277044296, 0.029098063707351685, -0.033357322216033936, -0.11435563862323761, 0.03310679271817207, -0.01601513847708702, 0.05534415692090988, 0.04812397062778473, 0.018528733402490616, 0.024856586009263992, 0.10312004387378693, 0.08546538650989532], [-0.05299629271030426, -0.07261840999126434, -0.11756036430597305, -0.08473069965839386, 0.02748916484415531, 0.017612110823392868, -0.08685310184955597, -0.02375750243663788, 0.06711569428443909, -0.04027898982167244, -0.005088450852781534, -0.011253736913204193, -0.019916146993637085, -0.11614569276571274, -0.022851241752505302, -0.028117872774600983, 0.14186915755271912, -0.0563892126083374, 0.027839791029691696, 0.03407833352684975], [0.04899848252534866, -0.06219803914427757, -0.03919906169176102, -0.10449765622615814, -0.003326820209622383, -0.11389602720737457, -0.11309662461280823, 0.016695784404873848, -0.04338953644037247, 0.0062447190284729, 0.06782756000757217, -0.047702476382255554, -0.09213297069072723, 0.05123865604400635, -0.024532686918973923, -0.02865780144929886, 0.12481201440095901, -0.0011703933123499155, 0.0011939331889152527, 0.08601607382297516], [0.0913810282945633, -0.06114596873521805, -0.07888127863407135, -0.0611700639128685, 0.0727234035730362, 0.012926006689667702, -0.024543697014451027, -0.040517594665288925, 0.04727146029472351, -0.04261324182152748, 0.025070585310459137, -0.00145033560693264, -0.029052533209323883, -0.08524467051029205, 0.038168296217918396, -0.09346475452184677, -0.05530630424618721, -0.08491871505975723, -0.034348100423812866, 0.06818114966154099], [-0.12200222164392471, -0.09682223200798035, 0.1286652386188507, -0.05300235375761986, 0.027446676045656204, 0.09691902995109558, 0.008612504228949547, 0.04447302967309952, 0.003120310604572296, 0.05671334266662598, -0.050059426575899124, 0.07532063871622086, -0.08643434941768646, 0.049226585775613785, 0.08360191434621811, -0.05241868272423744, -0.04367682337760925, 0.02413639798760414, -0.1313895285129547, -0.0209268219769001], [-0.08953912556171417, 0.10162386298179626, -0.062274083495140076, 0.07438479363918304, 0.0346439853310585, -0.0843481793999672, -0.013010235503315926, 0.10640957206487656, 0.06368286907672882, -0.017698228359222412, 0.029226619750261307, -0.05336757004261017, -0.054274462163448334, -0.019181611016392708, 0.02767423912882805, 0.010705392807722092, -0.01874062977731228, -0.07377150654792786, 0.011748414486646652, 0.0787564292550087], [-0.0029119057580828667, -0.05599277466535568, -0.035043321549892426, 0.019061293452978134, -0.055626094341278076, 0.04145997017621994, -0.11172136664390564, 0.009353233501315117, -0.08574708551168442, 0.006521463394165039, -0.05268312245607376, -0.001225789776071906, 0.044572845101356506, 0.025594811886548996, -0.038691915571689606, 0.010742627084255219, -0.06331688910722733, -0.11667842417955399, -0.10760654509067535, 0.06504127383232117], [0.05014004930853844, -0.00492201279848814, -0.02548016980290413, 0.1187586635351181, -0.12968608736991882, -0.04839358851313591, -0.09514820575714111, 0.074948750436306, -0.07756367325782776, -0.05054917559027672, 0.026545055210590363, 0.022891191765666008, 0.05085543170571327, 0.09177365899085999, -0.03684964403510094, 0.1053939163684845, 0.026169009506702423, 0.014510830864310265, 0.04483097419142723, 0.1120118796825409], [0.07142242044210434, -0.034546852111816406, 0.07291640341281891, 0.0003957129083573818, -0.02760910429060459, -0.00370181817561388, 0.12583208084106445, 0.04637337476015091, 0.013232382945716381, -0.07538025826215744, -0.015596930868923664, -0.06262815743684769, -0.05220133438706398, -0.01570090837776661, 0.06855049729347229, -0.005258097313344479, -0.006909247487783432, -0.11294863373041153, 0.07308007776737213, -0.03606579825282097], [0.01898932456970215, 0.02096317708492279, -0.003789316862821579, -0.030242687091231346, 0.042850129306316376, -0.09047134220600128, 0.0041478159837424755, 0.019999973475933075, 0.014094416983425617, 0.051351796835660934, 0.12100085616111755, -0.004225372336804867, -0.12464392185211182, -0.08234810829162598, 0.10587018728256226, -0.11293915659189224, 0.0464872270822525, -0.011403951793909073, 0.03224627301096916, -0.035107728093862534], [0.057525165379047394, 0.0649310052394867, -0.053335241973400116, 0.04913055896759033, -0.04773757606744766, 0.046751346439123154, -0.0067220814526081085, -0.052085839211940765, 0.01699846237897873, -0.06701831519603729, -0.01059870608150959, -0.03670473024249077, -0.007850926369428635, -0.016038816422224045, 0.15758325159549713, -0.13767658174037933, -0.08105064183473587, -0.03577256202697754, -0.0061885640025138855, 0.03773897886276245], [0.10258758813142776, 0.09676802903413773, -0.003140503540635109, 0.04007118195295334, -0.04060353338718414, -0.06722655892372131, -0.07922308146953583, -0.055101603269577026, -0.05282624065876007, 0.10623542219400406, -0.009708397090435028, -0.05786474049091339, 0.11237108707427979, 0.0206306129693985, -0.11471159756183624, -0.055531274527311325, 0.07041068375110626, -0.0679650530219078, -0.14109545946121216, 0.029032353311777115], [-0.06959714740514755, -0.07785259187221527, -0.045657891780138016, -0.045876070857048035, 0.031329307705163956, -0.06117495894432068, -0.000259915366768837, -0.010707925073802471, 0.08789533376693726, 0.06877787411212921, -0.04679561406373978, 0.08503460884094238, 0.018532272428274155, 6.225891411304474e-05, 0.0906858742237091, -0.046213652938604355, -0.00887194462120533, 0.012950707226991653, 0.025579899549484253, -0.05042833089828491], [-0.069083072245121, -0.04681296646595001, -0.061718277633190155, 0.04311303794384003, 0.04761100560426712, 0.024541731923818588, 0.14853151142597198, 0.06064121052622795, -0.0033803433179855347, 0.10058829933404922, 0.04423157870769501, 0.03373111039400101, -0.04685582220554352, -0.11276459693908691, 0.05487728863954544, 0.09096239507198334, -0.09286785125732422, 0.03801291435956955, 0.06864403188228607, 0.10108877718448639], [0.06141240894794464, 0.0563526451587677, -0.10828497260808945, -0.07015743106603622, 0.038673028349876404, -0.05084187537431717, 0.023579644039273262, 0.04654872417449951, 0.03389466553926468, 0.014133540913462639, 0.11511771380901337, -0.07435199618339539, -0.06086073815822601, -0.013956691138446331, -0.05312725901603699, -0.06807263940572739, 0.1069527342915535, -0.11300623416900635, 0.048645175993442535, -0.010997419245541096], [-0.10396279394626617, -0.009548680856823921, 0.0463218167424202, -0.03449919819831848, -0.03236532583832741, 0.07639337331056595, -0.03082972764968872, 0.07538661360740662, -0.06599438190460205, 0.06530945003032684, 0.050395864993333817, 0.01349794864654541, -0.03516026958823204, 0.06679871678352356, 0.03388119116425514, 0.06670615077018738, 0.046645261347293854, -0.02648879587650299, 0.02910759299993515, 0.09307654201984406], [-0.05032152682542801, 0.03416622802615166, 0.060831256210803986, 0.00428367406129837, -0.093073770403862, -0.04755357280373573, -0.0031677503138780594, -0.0366353765130043, -0.04977644979953766, 0.0167485773563385, -0.011850619688630104, -0.012759593315422535, -0.04814992472529411, -0.06102705001831055, 0.02571909874677658, -0.11598948389291763, -0.05589521303772926, -0.05609240382909775, 0.01399211771786213, -0.09396276623010635], [-0.02162214182317257, -0.060759518295526505, 0.0935223400592804, 0.01735735312104225, 0.04214279726147652, 0.0859159529209137, -0.0370790921151638, 0.12422777712345123, 0.006843823939561844, -0.08627718687057495, 0.032275646924972534, 0.06529142707586288, 0.14400404691696167, 0.12150625139474869, -0.09312824159860611, -0.002208544872701168, -0.028665997087955475, 0.10256738215684891, 0.11100567877292633, -0.1007794737815857], [0.022480372339487076, -0.004015369340777397, 0.09350986778736115, -0.00250849686563015, 0.07686104625463486, -0.0321485735476017, -0.060280025005340576, -0.044098369777202606, -0.037354130297899246, 0.1059800386428833, 0.020990336313843727, 0.0861475020647049, 0.08226129412651062, 0.035297855734825134, -0.07300736010074615, -0.03814391419291496, 0.11202617734670639, 0.07279525697231293, 0.07298080623149872, -0.147597998380661], [-0.03469465300440788, -0.06965648382902145, -0.06599441170692444, 0.06341532617807388, 0.048029541969299316, 0.036510810256004333, -0.08372728526592255, 0.08371597528457642, -0.008490078151226044, -0.018129119649529457, -0.12822698056697845, 0.00015516765415668488, 0.03236048296093941, -0.05156227946281433, -0.08556163311004639, 0.058059487491846085, -0.07161573320627213, -0.052093371748924255, 0.02700110152363777, -0.07245408743619919], [0.013415094465017319, 0.12486965954303741, -0.060368459671735764, -0.04952658712863922, -0.12774589657783508, 0.08026055991649628, 0.024580471217632294, -0.07181012630462646, -0.042980264872312546, -0.01522062812000513, -0.022850096225738525, 0.07905382663011551, -0.039635006338357925, -0.05156909301877022, -0.000760246068239212, 0.04103662073612213, 0.012285133823752403, -0.09436821937561035, -0.0036140724550932646, 0.06705193966627121], [-0.08947400003671646, 0.1069018542766571, 0.03612300008535385, -0.02640479803085327, -0.07058701664209366, -0.037170372903347015, 0.010438410565257072, -0.04388171806931496, -0.017205052077770233, 0.054562341421842575, -0.09736546128988266, -0.0704171359539032, 0.008171379566192627, -0.017081646248698235, 0.02027575857937336, -0.12521716952323914, 0.014433592557907104, -0.024342043325304985, -0.012697763741016388, 0.0022009313106536865], [-0.02413630113005638, 0.05481785908341408, -0.02321324497461319, 0.07961563766002655, -0.02883285842835903, 0.024866633117198944, 0.10477792471647263, -0.02770746499300003, 0.03984531760215759, -0.020433522760868073, -0.11465637385845184, -0.048557206988334656, 0.040725093334913254, 0.07483266294002533, 0.12584826350212097, -0.04611532762646675, -0.06983146071434021, 0.006393915042281151, -0.02839723415672779, 0.04000347852706909], [-0.051312416791915894, 0.10655757039785385, -0.10716631263494492, 0.12106259167194366, 0.08390876650810242, 0.06867444515228271, 0.08652132749557495, -0.04449015483260155, -0.09635010361671448, -0.13912808895111084, 0.041737474501132965, 0.0926947221159935, -0.014534436166286469, -0.0596747025847435, -0.08390592783689499, -0.08579740673303604, 0.03703999146819115, 0.05927496403455734, 0.05838742479681969, 0.11299441009759903], [0.0043175965547561646, -0.11144360899925232, -0.05410302057862282, 0.02622315287590027, 0.07162120193243027, 0.06149531155824661, -0.08604900538921356, -0.03410443291068077, -0.06141117960214615, 0.032152947038412094, 0.09467273205518723, -0.06560779362916946, -0.06138061359524727, -0.031828105449676514, -0.11041715741157532, 0.012033287435770035, -0.07966604828834534, 0.03069275990128517, 0.07348744571208954, -0.04565649852156639], [0.08255866169929504, 0.0011164965108036995, -0.06315961480140686, 0.11843517422676086, 0.05907616764307022, -0.06244721636176109, 0.024090323597192764, 0.03286907076835632, 0.03219767287373543, 0.07024381309747696, -0.03404514119029045, 0.13207611441612244, 0.022161396220326424, -0.072437584400177, -0.06720907241106033, -0.09693112969398499, 0.027615368366241455, 0.0557338111102581, 0.09884556382894516, -0.05692332237958908], [-0.0172727070748806, 0.10225824266672134, 0.03252885490655899, 0.05892195552587509, -0.011974792927503586, -0.08883170783519745, 0.0008715502917766571, 0.011307787150144577, 0.05245054513216019, 0.05644432082772255, 0.16377735137939453, -0.09818541258573532, 0.06435459852218628, -0.030570995062589645, -0.07472766190767288, -0.06088197976350784, -0.0730297863483429, -0.06367666274309158, -0.056652624160051346, 0.08588359504938126], [-0.05716157704591751, -0.0024261251091957092, 0.10090631246566772, 3.83034348487854e-05, -0.007655405439436436, 0.04868573322892189, -0.08630241453647614, -0.03205591440200806, 0.053501229733228683, -0.009704198688268661, -0.04593026638031006, 0.045567333698272705, 0.09775495529174805, -0.06281360238790512, 0.060819000005722046, 0.03660818934440613, 0.03649191930890083, 0.08728793263435364, -0.015045825392007828, -0.051685646176338196], [0.012820887379348278, 0.0445464551448822, 0.1280936896800995, 0.02965492382645607, -0.08821053802967072, -0.02453767880797386, 0.0983872264623642, 0.08132833242416382, 0.07793669402599335, -0.07024536281824112, -0.04657571390271187, 0.015138112008571625, -0.03990983963012695, 0.016601338982582092, 0.1542741060256958, 0.033398453146219254, -0.04581515118479729, -0.022911299020051956, 0.012571745552122593, -0.05010177940130234], [0.010451499372720718, 0.05086987465620041, -0.0105893574655056, 0.014294646680355072, 0.026105135679244995, -0.07842095196247101, -0.07158230990171432, -0.03595557436347008, -0.08665914088487625, -0.06768734753131866, 0.08448666334152222, -0.0633384957909584, 0.005305100232362747, -0.0582277812063694, 0.0534665510058403, 0.11834464967250824, -0.03953865170478821, -0.017509544268250465, 0.052514828741550446, 0.10004684329032898], [0.03878828138113022, -0.03829648345708847, -0.12743982672691345, -0.03802495077252388, -0.024405721575021744, 0.10219836980104446, 0.031886208802461624, 0.015339751727879047, 0.01963057368993759, 0.010538674890995026, 0.0703701376914978, -0.050525832921266556, -0.03521613031625748, -0.003370964899659157, -0.03700561076402664, -0.08569177240133286, -0.041015077382326126, -0.021516531705856323, -0.026412954553961754, 0.08363732695579529], [0.00669560581445694, 0.028842102736234665, -0.006003865972161293, 0.10785187780857086, 0.015505477786064148, 0.013547863811254501, -0.050384461879730225, 0.023813534528017044, -0.10466599464416504, 0.04007844999432564, 0.008762240409851074, 0.06705404818058014, 0.05910098925232887, -0.018471404910087585, -0.010850034654140472, -0.019102897495031357, 0.09343990683555603, 0.02543666400015354, -0.017749708145856857, 0.06047387048602104], [0.0887124240398407, -0.09389517456293106, -0.04213852807879448, 0.030578918755054474, -0.061323169618844986, -0.080558642745018, 0.022238031029701233, -0.050201721489429474, 0.11092591285705566, 0.11799021065235138, -0.01608101837337017, 0.11365749686956406, -0.10567454993724823, -0.05015198141336441, -0.04805575683712959, 0.06080048903822899, 0.04471481591463089, -0.053476713597774506, -0.016965752467513084, 0.02976279705762863], [-0.018890561535954475, -0.08869868516921997, -0.0730029046535492, 0.07811619341373444, -0.07787684351205826, 0.02221904881298542, -0.030679181218147278, 0.03382068872451782, 0.07559175789356232, -0.09419580549001694, 0.052633725106716156, 0.014366119168698788, -0.06387262046337128, -0.15368731319904327, 0.05650530382990837, -0.01356296893209219, 0.07844822108745575, 0.04929680749773979, -0.005671278107911348, 0.05490059778094292], [-0.10416761785745621, -0.06744497269392014, 0.0658043920993805, -0.026940185576677322, 0.08748023211956024, -0.052591852843761444, -0.015344396233558655, 0.045246951282024384, 0.08427434414625168, 0.06098879873752594, -0.026743752881884575, 0.05780329182744026, -0.08131135255098343, -0.12207072973251343, -0.07595546543598175, 0.06089140474796295, -0.001789226196706295, -0.041973136365413666, -0.09454907476902008, -0.06840489059686661], [-0.021631961688399315, 0.1059081107378006, 0.09058365225791931, 0.01854945532977581, 0.09340393543243408, 0.06561281532049179, 0.09707549959421158, 0.14600226283073425, 0.010229319334030151, 0.03283321112394333, 0.05987425893545151, 0.030210942029953003, -0.12365845590829849, -0.03725847601890564, -0.060036323964595795, 0.07648781687021255, 0.0630449652671814, -0.07108509540557861, 0.03624900430440903, 0.0004297848790884018], [-0.03300585597753525, 0.088843934237957, -0.01878686062991619, 0.09148282557725906, 0.007957886904478073, 0.0891689583659172, 0.09753816574811935, 0.012859493494033813, -0.04052812606096268, 0.09785886108875275, -0.04518313705921173, 0.08523872494697571, 0.09857036173343658, 0.08010713756084442, 0.0380377322435379, -0.001505773514509201, 0.004439610987901688, 0.04924122989177704, -0.019527677446603775, -0.029772311449050903], [-0.023793866857886314, 0.08690463751554489, 0.0037647858262062073, -0.11090153455734253, 0.10644234716892242, -0.011731822043657303, 0.04413517937064171, 0.028951171785593033, 0.07063869386911392, -0.0730711817741394, -0.08327196538448334, 0.03215241804718971, -0.03403930366039276, 0.055623166263103485, 0.01587768830358982, -0.07853385806083679, 0.06716499477624893, -0.04138109087944031, 0.06406312435865402, -0.04694189876317978], [-0.036874108016490936, 0.08901777118444443, 0.07000796496868134, 0.055815063416957855, -0.03568945825099945, 0.13583725690841675, 0.004419839009642601, -0.10543891787528992, -0.029187342151999474, 0.02797151915729046, 0.0292319655418396, 0.038970161229372025, -0.010297432541847229, -0.08837166428565979, -0.019224738702178, 0.05614405497908592, -0.007368344813585281, -0.048929788172245026, -0.05873893201351166, 0.015295740216970444], [-0.06284825503826141, -0.031639911234378815, -0.05759947746992111, -0.09221945703029633, -0.008687593042850494, -0.051035378128290176, 0.02850055880844593, 0.06220557168126106, 0.06797255575656891, 0.05627325177192688, -0.056337274610996246, 0.07023383677005768, -0.014640692621469498, -0.09531012177467346, -0.04639691859483719, -0.005139246582984924, 0.13485732674598694, 0.06610183417797089, 0.03659506514668465, -0.04225283861160278], [0.007984789088368416, -0.002471206709742546, -0.07266470044851303, -0.06920831650495529, 0.06173206865787506, -0.10818080604076385, 0.048727620393037796, -0.01704024337232113, -0.03035995364189148, -0.021758850663900375, 0.07613229006528854, 0.03252545744180679, -0.03022681176662445, -0.08292293548583984, 0.15754134953022003, 0.028306255117058754, 0.020995531231164932, 0.007053373381495476, -0.0759040117263794, 0.016342055052518845], [0.01844228431582451, 0.04448521509766579, -0.09397799521684647, 0.08572914451360703, 0.016714587807655334, -0.0663222074508667, 0.020124956965446472, 0.00016842782497406006, -0.0112199317663908, 0.10237817466259003, 0.022046735510230064, 0.002578066661953926, 0.05408499762415886, 0.04197351261973381, 0.10288001596927643, 0.05831475928425789, 0.03162262588739395, -0.12202545255422592, 0.028453093022108078, -0.10397303104400635], [0.015067053027451038, -0.08025702834129333, 0.013698123395442963, -0.11051753163337708, -0.05990134924650192, -0.04081214219331741, -0.09531846642494202, 0.0654720887541771, 0.024640202522277832, 0.09664025902748108, 0.020232362672686577, 0.09965101629495621, -0.029366476461291313, 0.0059423744678497314, -0.03172212094068527, 0.06195441260933876, 0.0526304766535759, -0.03281351178884506, 0.02579999715089798, -0.0458708293735981], [0.006257981993257999, 0.01895703189074993, 0.07027485221624374, 0.035165801644325256, -0.11727267503738403, 0.002424106001853943, 0.04541395604610443, -0.055419012904167175, 0.0501105934381485, -0.07311436533927917, -0.012773480266332626, 0.04800786077976227, 0.052059106528759, -0.05325939878821373, 0.12644875049591064, -0.02281717211008072, 0.06347717344760895, 0.09797132015228271, 0.05462066829204559, 0.00010173581540584564], [-0.014796728268265724, 0.038486093282699585, 0.002939887810498476, 0.07430581003427505, -0.001013237051665783, 0.10138270258903503, -0.0827094167470932, -0.024146147072315216, 0.06244787946343422, 0.031204158440232277, 0.0021397508680820465, 0.08824017643928528, -0.0528816282749176, 0.02096967026591301, 0.06055959314107895, -0.015030117705464363, -0.019263893365859985, 0.04139582812786102, 0.028884954750537872, 0.002659713849425316], [-0.10284049808979034, -0.06450248509645462, -0.021273422986268997, 0.07366591691970825, -0.06634438782930374, -0.0747302919626236, 0.04638432711362839, 0.010200537741184235, 0.012202918529510498, 0.11410913616418839, -0.03391880542039871, 0.04922504723072052, -0.04919813200831413, -0.03031248040497303, 0.019491640850901604, 0.12005753815174103, 0.06871090084314346, 0.029862983152270317, -0.05841904878616333, -0.015265034511685371], [-0.017923271283507347, 0.05632612854242325, 0.08418221771717072, -0.06180894002318382, 0.16886836290359497, -0.028306107968091965, -0.11169680953025818, -0.12599381804466248, 0.08873778581619263, 0.10057350993156433, -0.057725172489881516, -0.05336826294660568, 0.04971680790185928, -0.05501970276236534, 0.03467804938554764, 0.10168962180614471, 0.07266202569007874, 0.0021277577616274357, -0.04494856297969818, -0.010130973532795906], [-0.032869260758161545, -0.03260726481676102, -0.058540306985378265, -0.1522502899169922, 0.015827933326363564, 0.08436991274356842, -0.10171560198068619, -0.08429184556007385, -0.027829933911561966, -0.09946320205926895, -0.0702235996723175, 0.002420324832201004, 0.07659532874822617, 0.008960841223597527, 0.05647241696715355, 0.027642834931612015, 0.02477087453007698, 0.10444284230470657, -0.05522310733795166, -0.07626459002494812], [0.03342589735984802, 0.10709866881370544, 0.11801385879516602, -0.035312145948410034, -0.06096462532877922, 0.08524461090564728, -0.03664294630289078, -0.007177697494626045, -0.06586027145385742, -0.02187904715538025, 0.03832848742604256, 0.10433617234230042, -0.023898251354694366, -0.06404867023229599, 0.027444396167993546, 0.05002310499548912, -0.0455300509929657, 0.07689761370420456, 0.023125823587179184, 0.01553194597363472], [-0.09679336845874786, -0.1331847608089447, -0.03941908851265907, 0.027997765690088272, 0.014396719634532928, -0.07805745303630829, -0.03229144215583801, 0.07575162500143051, -0.07970374822616577, 0.06803549826145172, 0.026041079312562943, -0.07737166434526443, -0.032807592302560806, 0.0044134072959423065, -0.04325621575117111, -0.00896129198372364, -0.012539198622107506, 0.08023232221603394, -0.03243016451597214, -0.002305908128619194], [0.009190119802951813, -0.04332932084798813, 0.04114169627428055, 0.0047964900732040405, 0.02799348160624504, -0.02209893800318241, 0.07313680648803711, 0.016834579408168793, 0.021955855190753937, 0.059250377118587494, 0.03434399515390396, 0.018508708104491234, -0.014541427604854107, -0.01689670979976654, 0.03596513345837593, 0.058741744607686996, 0.03226805105805397, 0.009945347905158997, 0.016177047044038773, -0.055126432329416275], [-0.03500593081116676, -0.04907615855336189, -0.013480640947818756, 0.04564332216978073, 0.05746522545814514, 0.08755616843700409, -0.1098983883857727, 0.008049076423048973, -0.02392691932618618, -0.018580179661512375, -0.03589760884642601, -0.06667397171258926, 0.07104016840457916, 0.0030619092285633087, -0.09464303404092789, 0.037803225219249725, 0.02497929520905018, 0.03916216641664505, -0.07407403737306595, -0.05132656544446945], [0.07577678561210632, 0.006226830184459686, -0.11585717648267746, 0.06946007162332535, -0.13903631269931793, 0.04588664323091507, 0.010339233092963696, 0.006780416239053011, -0.03909838944673538, 0.04124603793025017, 0.0010058572515845299, 0.06241928040981293, -0.03624245896935463, 0.015513356775045395, 0.04615958034992218, -0.06924763321876526, 0.007982071489095688, -0.02450701594352722, 0.06609763205051422, -0.0803614929318428], [-0.09543856978416443, -0.006565500050783157, -0.12033803761005402, 0.005275913514196873, -0.07310739904642105, 0.013467653654515743, -0.016490887850522995, 0.06722407042980194, 0.11030514538288116, -0.04098176956176758, 0.024475611746311188, -0.08305319398641586, -0.03627389669418335, -0.058873821049928665, 0.10522423684597015, -0.08541618287563324, -0.08096393942832947, 0.09938879311084747, -0.052394479513168335, -0.03443688899278641], [-0.10676848888397217, -0.06718704849481583, 0.041998423635959625, -0.03618611395359039, 0.008030695840716362, -0.02627423033118248, 0.02346193417906761, -0.06782776117324829, -0.07536347210407257, -0.050350576639175415, -0.07321566343307495, -0.01661550998687744, -0.06439457833766937, 0.08613170683383942, 0.04800517112016678, -0.049223508685827255, 0.10125364363193512, 0.0968451201915741, 0.0928259864449501, 0.06700818240642548], [0.07252052426338196, -0.07004352658987045, -0.0020967551972717047, 0.060218267142772675, 0.03884116932749748, 0.0330459401011467, 0.02736605890095234, -0.024447627365589142, 0.11072226613759995, -0.11805246025323868, 0.03855276107788086, 0.03619921952486038, 0.016585083678364754, -0.004791334271430969, 0.1234162300825119, 0.022518619894981384, 0.07923388481140137, 0.09354497492313385, 0.06718935072422028, -0.04036721959710121], [-0.04194333776831627, -0.041497375816106796, 0.061787597835063934, 0.03489729017019272, 0.08898182213306427, -0.06714378297328949, 0.08138134330511093, 0.01897909864783287, -0.01535080000758171, 0.006305951625108719, 0.01498116459697485, 0.03911769017577171, -0.0863737091422081, -0.004008295014500618, 0.05382208526134491, -0.006272714585065842, 0.05023357272148132, 0.016198309138417244, 0.0943150669336319, 0.009375802241265774], [-0.028182297945022583, -0.0718553364276886, 0.013107504695653915, -0.023638658225536346, -0.1038433164358139, -0.022456355392932892, 0.08196937292814255, 0.027241544798016548, 0.055795446038246155, 0.002637002617120743, 0.040069106966257095, -0.0860627293586731, 0.03492816537618637, 0.02270878665149212, 0.09979168325662613, 0.006185764446854591, -0.05854358151555061, -0.02553715929389, 0.07466582953929901, -0.038044534623622894], [0.07158955931663513, -0.014104126952588558, -0.04172902554273605, -0.03953557088971138, 0.010750696994364262, -0.06506595015525818, -0.035060618072748184, -0.08213331550359726, -0.025545634329319, -0.06123634800314903, 0.1018165573477745, -0.01601533219218254, -0.03590903803706169, -0.040318313986063004, 0.029790356755256653, 0.13128265738487244, -0.001494287047535181, -0.07215127348899841, -0.05743829905986786, 0.026898259297013283], [-0.030922483652830124, 0.09465331584215164, -0.0009002070873975754, -0.12570837140083313, -0.049447961151599884, -0.03360403701663017, 0.01789957657456398, 0.0929165706038475, -0.045064881443977356, 0.0008858661167323589, 0.015245684422552586, -0.07628145068883896, 0.021801959723234177, 0.12288613617420197, 0.05746425688266754, 0.04108816385269165, 0.04660246521234512, 0.06915678083896637, 0.10198929160833359, -0.04870115593075752], [0.003410719335079193, 0.07301783561706543, 0.05433731526136398, -0.07660968601703644, 0.041671380400657654, -0.007399567402899265, 0.05791366100311279, 0.051873862743377686, 0.07631764560937881, 0.10722377151250839, 0.007590573281049728, 0.03513292968273163, -0.007378906011581421, -0.0025119627825915813, 0.15681876242160797, 0.041471149772405624, -0.11804165691137314, -0.04799327999353409, -0.010549936443567276, -0.005574163049459457], [0.022164061665534973, 0.1331256926059723, 0.06825228035449982, -0.020064545795321465, -0.030032549053430557, 0.07840215414762497, -0.06764326989650726, 0.07199908792972565, -0.018503261730074883, -0.1221860945224762, 0.12199968099594116, 0.06411585211753845, 0.07224052399396896, 0.06155288964509964, -0.08632241189479828, 0.047045011073350906, 0.12215474247932434, 0.04865698143839836, -0.06077983230352402, 0.0801989883184433], [-0.0046980977058410645, -0.048268429934978485, -0.01901927962899208, -0.07951826602220535, -0.06636751443147659, -0.023413680493831635, -0.0477725975215435, -0.011284898966550827, -0.06845651566982269, 0.0833047404885292, -0.09107743948698044, -0.01963944174349308, -0.07025353610515594, -0.09729036688804626, -0.012587353587150574, 0.032907333225011826, -0.01051501277834177, -0.1008826196193695, -0.04387947544455528, -0.006880167871713638], [-0.07147881388664246, 0.03428327292203903, 0.05484727397561073, -0.08443450927734375, 0.08602301776409149, 0.048624809831380844, -0.024811943992972374, 0.07255186885595322, 0.07060420513153076, -0.1135953813791275, -0.014363477006554604, 0.06006449833512306, 0.00019332021474838257, -0.05111284181475639, 0.012192931026220322, 0.11933542788028717, -0.037372928112745285, -0.10904963314533234, -0.076032355427742, -0.026115136221051216], [0.07323853671550751, 0.07121091336011887, -0.03758740797638893, -0.010904832743108273, -0.03740166127681732, -0.12678834795951843, 0.1083260029554367, 0.03713063523173332, 0.11164289712905884, 0.08014442771673203, 0.04570171236991882, -0.08515699952840805, -0.0413079708814621, 0.016336942091584206, -0.047793835401535034, -0.013015327975153923, 0.0831717997789383, 0.001387334894388914, 0.08513805270195007, 0.07459846884012222], [-0.09402012825012207, 0.01585911586880684, -0.039063967764377594, 0.031221112236380577, -0.0715511366724968, -0.029031258076429367, 0.07882092893123627, -0.014443421736359596, -0.11014670133590698, -0.05376172438263893, -0.07338704913854599, 0.07415136694908142, 0.044931113719940186, 0.03854886442422867, 0.10189168155193329, -0.09021219611167908, 0.029559822753071785, 0.011494722217321396, 0.02641111984848976, 0.05442909523844719], [0.01012943685054779, 0.09439798444509506, 0.005175362341105938, 0.03441983461380005, 0.017191804945468903, 0.06783502548933029, -0.032558612525463104, 0.005583647638559341, -0.10549411922693253, 0.017817754298448563, 0.04108218476176262, -0.005722732283174992, -0.0013642273843288422, -0.058213651180267334, -0.024641063064336777, -0.0746062844991684, -0.02419714443385601, 0.00528884120285511, 0.008669450879096985, -0.09637680649757385], [-0.04290303960442543, -0.07781712710857391, 0.015010029077529907, -0.02657787874341011, -0.05993756651878357, -0.11250895261764526, -0.08950259536504745, 0.042869891971349716, -0.053334154188632965, -0.008674483746290207, -0.004829447716474533, -0.03999060392379761, -0.03503531962633133, -0.1090962365269661, 0.05122677981853485, 0.058342911303043365, 0.041861820966005325, 0.0653291791677475, -0.08189136534929276, 0.012387916445732117], [0.011876815930008888, -0.05477430671453476, 0.07355796545743942, 0.02881529927253723, -0.09881575405597687, 0.067277692258358, -0.09507095813751221, 0.10574840754270554, 0.05426228791475296, 0.05798462778329849, 0.015370982699096203, 0.05826030671596527, 0.0872514471411705, 0.02291034907102585, 0.007635219022631645, 0.09443160146474838, 0.10193420201539993, 0.007310131564736366, -0.038016170263290405, 0.004976192489266396], [-0.023588120937347412, 0.0315406396985054, 0.03511226922273636, -0.057965558022260666, -0.10006408393383026, 0.01611693762242794, 0.09839092195034027, 0.09665577113628387, -0.043761931359767914, -0.04409841448068619, -0.04153867065906525, 0.07004353404045105, 0.080869659781456, -0.05239318311214447, 0.03904351592063904, -0.028899434953927994, -0.0406535267829895, 0.15718744695186615, 0.08177854865789413, 0.016729634255170822], [0.15305936336517334, 0.09626687318086624, -0.08275747299194336, 0.052022919058799744, -0.004390200600028038, 0.12829729914665222, -0.003507088404148817, 0.0005740560591220856, -0.09884506464004517, -0.0909411758184433, -0.06574761122465134, 0.02679312601685524, -0.016762904822826385, 0.043818242847919464, -0.03012518212199211, -0.12251671403646469, -0.0026043406687676907, -0.12085482478141785, 0.03360985964536667, -0.050964150577783585], [0.09082302451133728, 0.11036230623722076, 0.047576453536748886, 0.008445881307125092, 0.05352872237563133, -0.09211739152669907, -0.00010758638381958008, 0.04752882942557335, -0.0943087562918663, 0.05289555341005325, -0.11053161323070526, 0.04398241639137268, -0.06218910589814186, 0.056137800216674805, -0.053158171474933624, -0.1293191909790039, 0.024891778826713562, -0.04873118922114372, 0.10199242830276489, 0.045402951538562775], [-0.08661793917417526, -0.03388797491788864, -0.039657026529312134, 0.13356401026248932, 0.0178229920566082, -0.04991158843040466, 0.03961830213665962, 0.11673163622617722, 0.01671035960316658, 0.10210713744163513, 0.04156089946627617, -0.06347095966339111, 0.005487436428666115, -0.08221569657325745, 0.09196723997592926, -0.0043602604418993, 0.08489596843719482, -0.05156353488564491, 0.018501371145248413, 0.0330452062189579], [-0.04173937067389488, -0.009628163650631905, -0.0486723929643631, -0.053741924464702606, -0.050883710384368896, 0.13129223883152008, -0.043133608996868134, -0.09036409109830856, 0.13380032777786255, -0.1348160207271576, 0.028756557032465935, 0.07445165514945984, -0.03291323781013489, -0.10079912841320038, 0.004425087943673134, 0.027949845418334007, -0.04252525046467781, -0.017197173088788986, 0.04658893868327141, 0.01852910965681076], [-0.03311082348227501, -0.06289906054735184, 0.0619213804602623, 0.08184932172298431, -0.01747843623161316, 0.032416414469480515, -0.04754260554909706, -0.14585137367248535, 0.07197048515081406, 0.04164410009980202, -0.032259501516819, -0.005522817373275757, -0.06088680773973465, 0.09032219648361206, -0.02051466889679432, -0.05302385240793228, 0.032870396971702576, 0.007136937230825424, -0.037415605038404465, 0.045931220054626465], [0.03931474685668945, -0.011769859120249748, 0.027092259377241135, 0.08367449790239334, -0.026840191334486008, 0.04029360041022301, -0.02159227430820465, -0.01940383017063141, 0.042554404586553574, 0.02162717655301094, 0.018778493627905846, -0.08636024594306946, 0.16919654607772827, 0.021811123937368393, 0.11062702536582947, 0.050053827464580536, 0.10040965676307678, -0.09470858424901962, -0.010779855772852898, -0.03992240130901337], [-0.04496673122048378, -0.13357987999916077, 0.11011897027492523, -0.00021852552890777588, -0.04235159605741501, 0.019335683435201645, 0.07411211729049683, -0.039347998797893524, -0.02580057457089424, -0.06271451711654663, 0.001248663291335106, 0.04640930891036987, -0.10426115989685059, 0.13525094091892242, 0.08435510843992233, -0.07568059861660004, -0.07728788256645203, 0.09820514172315598, 0.010515335947275162, -0.0689733698964119], [-0.0931125357747078, -0.07714007049798965, -0.11771692335605621, 0.05884435027837753, -0.07452000677585602, -0.012466653250157833, 0.03060987964272499, -0.0680975466966629, 0.1329747438430786, -0.06729968637228012, 0.018488947302103043, 0.06956762075424194, 0.036272622644901276, 0.032595425844192505, 0.02718246355652809, 0.04762572795152664, -0.055680856108665466, 0.07367052137851715, 0.10724762082099915, -0.03753696009516716], [-0.055775031447410583, 0.10212884843349457, 0.08898447453975677, -0.0505700446665287, 0.10122504830360413, 0.03653955087065697, 0.053642064332962036, 0.05794278532266617, 0.13617205619812012, 0.01168307289481163, 0.06219811737537384, -0.04432570934295654, -0.0716000646352768, -0.02777853235602379, 0.026150908321142197, 0.009365618228912354, 0.10249925404787064, -0.0475405752658844, -0.09241446852684021, -0.0035197585821151733], [0.03385462611913681, -0.11858337372541428, -0.04292534291744232, -0.056649401783943176, 0.008266298100352287, -0.0010642972774803638, -0.05850168317556381, -0.06181423366069794, -0.11744140088558197, 0.08110053837299347, 0.008619857020676136, 0.0006546042859554291, 0.06116674840450287, -0.013075212016701698, 0.04419543594121933, 0.055813997983932495, -0.0022124527022242546, 0.015743769705295563, 0.006752522196620703, 0.07245595753192902], [-0.066641665995121, 0.012877272441983223, -0.047424428164958954, 0.04324601963162422, 0.05017992854118347, -0.00872370321303606, 0.021651722490787506, -0.07762511819601059, -0.006614455953240395, 0.04286395013332367, 0.009731576777994633, -0.07376725971698761, 0.11805874109268188, -0.04435648024082184, -0.15088403224945068, -0.020069072023034096, 0.06576414406299591, -0.05399112030863762, -0.035606831312179565, 0.055010583251714706], [0.0316377729177475, 0.021027933806180954, -0.011335580609738827, -0.09398753196001053, -0.022485435009002686, 0.08252155780792236, 0.044004760682582855, -0.07159420847892761, -0.11888916790485382, 0.10156810283660889, 0.0913822203874588, 0.11435321718454361, -0.08522168546915054, -0.09607697278261185, -0.0319451205432415, 0.03202544152736664, -0.07845578342676163, 0.003988519310951233, 0.08185762166976929, 0.008131779730319977], [0.017940063029527664, -0.10245544463396072, -0.08162102848291397, -0.06444813311100006, -0.06994074583053589, 0.008409976959228516, -0.019143324345350266, -0.011524109169840813, -0.013268686830997467, 0.14079824090003967, -0.016647273674607277, 0.10862287878990173, -0.0009686015546321869, 0.004001408349722624, 0.012369882315397263, 0.05898793786764145, 0.08228561282157898, -0.009457368403673172, -0.042526744306087494, -0.017524464055895805], [-0.014208553358912468, 0.05294034630060196, 0.05521148070693016, 0.027101166546344757, 0.01046108826994896, -0.04357809200882912, -0.01761860027909279, 0.010322324931621552, 0.06097159907221794, -0.08026805520057678, 0.07500936090946198, 0.10199635475873947, 0.0969860702753067, -0.10827182978391647, -0.06073857098817825, 0.14682403206825256, -0.04061902314424515, -0.14202380180358887, 0.012809902429580688, -0.033839575946331024], [-0.11479909718036652, 0.02687205746769905, 0.028257466852664948, -0.14250850677490234, 0.03621617332100868, -0.01264236867427826, -0.01976919174194336, -0.08433261513710022, -0.03362860158085823, 0.0734405592083931, 0.02629060111939907, 0.03140464052557945, 0.020961541682481766, 0.08872924000024796, 0.03339550644159317, 0.013778608292341232, 0.034765541553497314, 0.05315009877085686, 0.031936366111040115, -0.07445593178272247], [-0.010778428986668587, -0.04974108189344406, -0.059447843581438065, 0.06587380170822144, 0.08524427562952042, -0.0741400495171547, 0.06632726639509201, -0.009507531300187111, 0.06625079363584518, 0.012885508127510548, -0.06239296495914459, -0.021368717774748802, 0.005075868219137192, -0.042077336460351944, 0.04209993779659271, 0.03752098232507706, 0.027682144194841385, 0.03604575991630554, 0.06913149356842041, 0.06898387521505356], [0.12047984451055527, 0.0068812984973192215, -0.15328924357891083, -0.044363126158714294, 0.11209648847579956, -0.02954598143696785, -0.018400948494672775, 0.02717984840273857, -0.0003058798611164093, 0.04815349727869034, 0.022757386788725853, -0.0030652331188321114, 0.07808329164981842, 0.005397563800215721, -0.028132058680057526, 0.03311195224523544, -0.01730642281472683, -0.06502159684896469, -0.020251337438821793, 0.024509066715836525], [0.028261590749025345, -0.09944034367799759, 0.010116120800375938, -0.05666699633002281, 0.11474726349115372, 0.07481570541858673, 0.01940365508198738, -0.02667754702270031, 0.08317874372005463, 0.046400927007198334, -0.0818372592329979, 0.037652015686035156, -0.10484898835420609, 0.07235702872276306, -0.06449005007743835, -0.041475385427474976, 0.011648917570710182, -0.10335281491279602, -0.029260952025651932, -0.08210661262273788], [-0.026736795902252197, 0.1147083193063736, 0.010517608374357224, -0.020337918773293495, 0.006793254986405373, 0.05398431792855263, 0.023057349026203156, 0.024530159309506416, -0.05694317817687988, -0.11093322187662125, 0.00029585883021354675, -0.0036558210849761963, -0.11385567486286163, 0.07867445051670074, -0.129464790225029, 0.022004757076501846, -0.0813121572136879, -0.009038101881742477, 0.08311543613672256, -0.02820114605128765]], "model.0.bias": [-0.05098744481801987, -0.0619482547044754, 0.08951549232006073, -0.0025765399914234877, 0.07478015124797821, 0.10994972288608551, -0.03174109384417534, 0.0634448304772377, -0.07561405003070831, -0.040566347539424896, 0.08840744197368622, 0.036196477711200714, 0.03807082399725914, 0.015101663768291473, -0.018153812736272812, -0.07382471114397049, -0.07028850167989731, 0.050384439527988434, -0.0909501165151596, -0.005461040418595076, 0.08472605049610138, -0.03418712317943573, -0.0018172361887991428, -0.01616150327026844, 0.09381578117609024, -0.053771331906318665, -0.03836263716220856, -0.02420724555850029, 0.06493549793958664, -0.028320452198386192, 0.07374746352434158, -0.0412328764796257, -0.040623292326927185, -0.05405563861131668, -0.0238712877035141, -0.06478849798440933, -0.013534813188016415, 0.04604162648320198, 0.05149369686841965, -0.0343092679977417, 0.07016829401254654, -0.10068750381469727, 0.047976892441511154, -0.03530295193195343, 0.009248241782188416, 0.02682407945394516, 0.05018804967403412, 0.02867291495203972, 0.08676349371671677, -0.09190937876701355, -0.061092328280210495, -0.014888587407767773, -0.006698685698211193, 0.03964558243751526, -0.07286962121725082, 0.05408172309398651, -0.057414889335632324, 0.058977823704481125, 0.040382251143455505, 0.079549141228199, -0.04157548397779465, -0.01984022930264473, 0.05083587393164635, 0.025707241147756577, -0.04076579213142395, -0.08201897889375687, -0.010535119101405144, -0.03290246054530144, 0.05238192901015282, 0.0533013790845871, -0.060799989849328995, -0.0219900980591774, 0.10148376226425171, -0.012410689145326614, -0.10840379446744919, -0.02639872208237648, -0.04924749955534935, 0.044123269617557526, -0.08882983773946762, -0.06269639730453491, -0.05528678372502327, -0.06951863318681717, -0.06918958574533463, -0.06494387239217758, -0.008513025939464569, -0.006103719584643841, -0.07740197330713272, 0.04050063341856003, 0.0682542622089386, -0.039607394486665726, 0.007320962846279144, -0.03186505287885666, 0.009117452427744865, -0.07376600801944733, 0.019033918157219887, -0.018107358366250992, 0.05986916273832321, -0.06334184110164642, 0.03604675829410553, -0.021484222263097763, -0.01255401037633419, 0.047694917768239975, -0.0964445024728775, -0.06107133626937866, -0.015074865892529488, -0.0661981925368309, -0.04846147447824478, -0.08075528591871262, 0.059535205364227295, -0.006864067632704973, 0.034279655665159225, 0.021496759727597237, -0.05515154451131821, -0.02981330268085003, -0.035484910011291504, 0.080637127161026, 0.05160744488239288, -0.05107295885682106, -0.0011572623625397682, 0.07118268311023712, 0.09443381428718567, 0.0065108975395560265, -0.09025313705205917, 0.06040223315358162, 0.06997673958539963, -0.04737569019198418, 0.0855063945055008, -0.0675434023141861], "model.2.weight": [[0.029213285073637962, -0.01897258311510086, -0.009515469893813133, 0.04574737697839737, 0.03688957542181015, -0.0017282208427786827, 0.026606198400259018, 0.030725110322237015, -0.004393380135297775, 0.015809394419193268, -0.04104235768318176, -0.044863928109407425, 0.0208931602537632, -0.017309045419096947, -0.05884090065956116, -0.06552142649888992, -0.07054905593395233, 0.023375727236270905, 0.01398903876543045, -0.01756558194756508, 0.04021313041448593, 0.05814705789089203, 0.04611964523792267, -0.004421543329954147, 0.0033776015043258667, 0.02290274016559124, 0.006309956312179565, 0.009666407480835915, -0.020015668123960495, -0.05082833766937256, -0.008512875065207481, 0.024140547960996628, -1.8514692783355713e-05, -0.008813377469778061, 0.02457665279507637, 0.029936548322439194, 0.007001936435699463, -0.04697944223880768, -0.010449107736349106, 0.03461127728223801, 0.032614730298519135, 0.02604185789823532, -0.022927721962332726, -0.030702121555805206, -0.013864582404494286, -0.07189274579286575, -0.020885678008198738, 0.0005351118743419647, -0.010912224650382996, 0.014690922573208809, -0.002217363566160202, -0.043258942663669586, 0.016903648152947426, -0.0024000657722353935, -0.020517738536000252, 0.0010211681947112083, 0.02144082635641098, -0.015149152837693691, -0.024096963927149773, 0.0012245550751686096, -0.011315739713609219, -0.03442129120230675, 0.012782901525497437, -0.005729427561163902, -0.023220695555210114, 0.035418733954429626, 0.07825034856796265, -0.05240945518016815, 0.028828078880906105, 0.05756674334406853, -0.03668597340583801, -0.028282530605793, -0.00505741685628891, -0.013305239379405975, 0.06304813176393509, 0.035306453704833984, 0.008043824695050716, 0.02242456004023552, -0.03357367962598801, -0.06268785148859024, 0.0393398143351078, -0.029893333092331886, -0.039565395563840866, 0.009370753541588783, 0.09880325198173523, 0.05162518098950386, 0.03914143890142441, -0.018488747999072075, 0.0838390439748764, 0.047126658260822296, 0.03325507044792175, 0.05022948980331421, 0.015284903347492218, -0.07303973287343979, 0.08338355273008347, 0.08078364282846451, -0.021396901458501816, -0.004502031020820141, -0.03313157707452774, -0.016027985140681267, 0.042429301887750626, 0.012479254975914955, 0.045953650027513504, 0.00169404037296772, 0.026690704748034477, -0.0186945628374815, -0.04957325756549835, 0.03844377398490906, -0.001890735700726509, 0.02758927270770073, 0.07765179872512817, 0.08776863664388657, -0.028629189357161522, 0.026104262098670006, 0.0052901506423950195, -0.026918727904558182, -0.042733047157526016, -0.007294895127415657, 0.03565474972128868, -0.011923952028155327, -0.03828589618206024, -0.022745462134480476, 0.029699096456170082, -0.0012406948953866959, 0.0466543547809124, -0.03038988634943962, 0.042754292488098145, 0.051522478461265564], [-0.045292094349861145, -0.07252386957406998, 0.011141493916511536, 0.03027874231338501, -0.035995952785015106, 0.026688626036047935, 0.014975357800722122, 0.03650040179491043, 0.01809876225888729, -0.025602754205465317, 0.01863952912390232, 0.04756789281964302, 0.04328283667564392, 0.04213009774684906, -0.030041933059692383, -0.05365399271249771, -0.007425396703183651, 0.010426368564367294, -0.011095279827713966, 0.016687868162989616, -0.0008861897513270378, 0.004373684525489807, -0.010090143419802189, 0.056529298424720764, -0.011512922123074532, -0.06242785602807999, 0.03832134231925011, -0.02429763227701187, 0.00836375541985035, 0.048941079527139664, -0.028537467122077942, -0.019033830612897873, 0.013262905180454254, 0.027165457606315613, 0.028541777282953262, -0.015560589730739594, 0.003035585395991802, -0.0439775176346302, -0.011348996311426163, -0.0317249670624733, -0.04757940024137497, 0.01716643199324608, -0.029651276767253876, 0.02323886752128601, -0.022628426551818848, -0.006121698766946793, -0.03087979182600975, -0.07401012629270554, 0.0050077419728040695, 0.023302525281906128, -0.03250329941511154, 0.02606874890625477, -0.012613932602107525, -0.0346863716840744, -0.017171112820506096, -0.03747500106692314, -0.06529366970062256, 0.03849489614367485, -0.05746129900217056, 0.04070230945944786, 0.0052664135582745075, 0.023130405694246292, 0.010223083198070526, -0.013226373121142387, 0.02531382441520691, -0.02867043763399124, -0.0031773841474205256, 0.007656223606318235, 0.06633777171373367, 0.026119722053408623, -0.06565167754888535, -0.027109678834676743, 0.044656772166490555, 0.05484626442193985, -0.024171963334083557, -0.0429232120513916, -0.00047327904030680656, -0.0075641535222530365, 0.07217040657997131, 0.0014090947806835175, -0.044327981770038605, -0.006633896380662918, 0.04644991457462311, 0.0190478153526783, 0.023988904431462288, -0.011125118471682072, -0.01819634810090065, 0.01578478142619133, 0.005494726821780205, -0.04446219652891159, 0.004235722124576569, 0.017529413104057312, 0.06474991142749786, -0.009774761274456978, -0.008047199808061123, 0.08367704600095749, 0.017828624695539474, 0.027436919510364532, -0.02553703635931015, 0.04040976241230965, 0.012265585362911224, -0.0482608899474144, 0.0337832011282444, 0.016635358333587646, 0.00795793067663908, -0.010285135358572006, -0.0501088909804821, 0.06976418197154999, -0.019842080771923065, 0.004007697105407715, -0.017594533041119576, -0.037767283618450165, -0.04589425027370453, -0.018244115635752678, 0.02579430863261223, 0.015514541417360306, 0.013623249717056751, 0.03133947029709816, 0.029538016766309738, 0.042561233043670654, -0.00013526901602745056, 0.08030818402767181, 0.04071318730711937, -0.058417029678821564, 0.05656104534864426, 0.048713140189647675, -0.008487092331051826, -0.04230073466897011], [0.08860400319099426, 0.031165163964033127, 0.07227754592895508, -0.008857921697199345, -0.03694905713200569, -0.020605556666851044, -0.058300986886024475, 0.010287977755069733, 0.024305202066898346, -0.017257114872336388, -0.007556799799203873, -0.036866068840026855, 0.00681013148277998, 0.0017498787492513657, -0.041134633123874664, 0.039561375975608826, -0.04594079405069351, -0.06020306423306465, 0.02593185380101204, -0.04216385632753372, -0.024889318272471428, -0.04222362861037254, 0.03393673151731491, 0.06605571508407593, -0.009233799763023853, 0.02114696055650711, 0.038228996098041534, 0.051770489662885666, 0.04505031928420067, 0.035016391426324844, -0.026281308382749557, 0.005891475826501846, 0.034892212599515915, -0.07483932375907898, -0.05209753289818764, 0.03723936155438423, -0.0343397781252861, 0.00792053434997797, -0.03559016436338425, 0.012020964175462723, 0.016254225745797157, 0.046449482440948486, -0.014961950480937958, 0.0005135545507073402, 0.041171107441186905, 0.020995711907744408, 0.006340591236948967, 0.004532612394541502, -0.060182083398103714, 0.009320823475718498, -0.07716602832078934, -0.06397843360900879, 0.00032586418092250824, -0.056406185030937195, -0.08640716224908829, -0.00871220976114273, -0.04566337540745735, -0.044241901487112045, 0.07714390754699707, 0.019459392875432968, 0.02955692633986473, 0.018678268417716026, -0.008563890121877193, 0.03959418088197708, 0.022602196782827377, 0.0442543588578701, 0.05577848479151726, 0.028032250702381134, -0.022296104580163956, -0.009534284472465515, 0.008709600195288658, 0.010452602058649063, 0.050501495599746704, -0.06449215114116669, 0.029510099440813065, 0.010349828749895096, -0.03221523016691208, 0.025604020804166794, -0.02102057822048664, 0.008634094148874283, -0.027397677302360535, -0.08065594732761383, 0.0025168340653181076, -0.0284053236246109, -0.03559955582022667, -0.0012097060680389404, 0.012553099542856216, 0.005976569373160601, 0.03495805710554123, -0.04832911491394043, 0.048890210688114166, -0.009014662355184555, -0.03660506382584572, 0.002716631628572941, 0.045943018049001694, -0.016819650307297707, -0.007913831621408463, 0.0005159275606274605, 0.02647704817354679, -0.03967063128948212, 0.012105959467589855, 0.07852233946323395, -0.07522018253803253, 0.073967844247818, -0.0883469358086586, 0.044503599405288696, 0.027677107602357864, 0.03653351217508316, -0.03759872168302536, 0.020784564316272736, 0.05127999931573868, 0.033597152680158615, 0.022744672372937202, -0.01009299885481596, -0.02719777822494507, 0.0028411131352186203, 0.050584498792886734, -0.0006428789347410202, -0.05995072424411774, 0.013835020363330841, 0.03805777430534363, 0.0336291529238224, 0.025772839784622192, 0.017909547314047813, -0.02468045987188816, 0.04029472544789314, -0.004665725864470005, -0.05531302094459534], [0.019362669438123703, -0.04247260466217995, -0.043015968054533005, -0.00046886689960956573, 0.007708595134317875, -0.017603149637579918, 0.02915533445775509, 0.041580040007829666, -0.03729262202978134, 0.005358184687793255, 0.07451792061328888, 0.004343509674072266, -0.04649488627910614, -0.017335904762148857, 0.03758196532726288, -0.02798665501177311, -0.057081859558820724, -0.027160264551639557, 0.021685486659407616, 0.07382418215274811, 0.0007286127656698227, 0.03328852355480194, -0.010637609288096428, 0.03923332691192627, -0.0645618587732315, -0.034559302031993866, -0.03849333897233009, 0.028266247361898422, 0.02757743000984192, -0.01130167581140995, 0.011269413866102695, 0.018230551853775978, 0.029605615884065628, -0.03321968391537666, -0.018453387543559074, -0.017453931272029877, -0.009934522211551666, -0.025360260158777237, 0.028732381761074066, 0.02280375547707081, 0.05487818270921707, 0.014009918086230755, -0.04368264228105545, 0.009374761953949928, 0.0068718381226062775, 0.018682491034269333, 0.014902964234352112, -0.0018130280077457428, -0.007575485855340958, 0.037375107407569885, -0.006545817479491234, 0.045835308730602264, 0.045536331832408905, 0.04393691197037697, -0.04148181155323982, 0.010785374790430069, -0.03250961750745773, -0.07021930068731308, 0.013738653622567654, -0.06020089238882065, 0.04423712566494942, -0.006221365183591843, -0.03899019584059715, -0.013269767165184021, 0.00018013454973697662, 0.02984347753226757, -0.017592407763004303, 0.014964097179472446, 0.051536642014980316, -0.006182574201375246, 0.032181933522224426, 0.012817989103496075, -0.07373914122581482, -0.02498624101281166, -0.030813077464699745, -0.05329008027911186, -0.021483823657035828, -0.0279669351875782, -0.011885715648531914, 0.015579086728394032, 0.03292475640773773, 0.010917562991380692, 0.07272154837846756, -0.008358048275113106, -0.06093388795852661, 0.0035891756415367126, 0.06869401037693024, -0.02700597606599331, 0.0032699021976441145, 0.021199919283390045, -0.014592034742236137, 0.04885399341583252, 0.002569744363427162, -0.05465375632047653, 0.021514378488063812, -0.09971532970666885, -0.045147866010665894, 0.02497071400284767, 0.0397392138838768, -0.00038952287286520004, -0.02637791819870472, 0.020383944734930992, 0.009969258680939674, 0.0008049663156270981, 0.05720384418964386, 0.07787735760211945, -0.007349573075771332, -0.038164976984262466, -0.0023736339062452316, 0.012666953727602959, -0.004567461088299751, -0.09651116281747818, 0.02867906168103218, 0.02702217362821102, -0.0017814729362726212, 0.05592180788516998, -0.025633547455072403, -0.04771416634321213, -0.0006917454302310944, -0.012276571244001389, 0.03006073459982872, 0.022646896541118622, -0.009599266573786736, 0.05722147598862648, -0.017708975821733475, -0.03659520298242569, 0.0003404952585697174, -0.03367694094777107], [0.0033920519053936005, -0.07316730916500092, -0.06397698819637299, -0.034085460007190704, 0.0290178582072258, 0.05454166978597641, -0.012906398624181747, -0.019554223865270615, 0.011846784502267838, -0.005786719731986523, -0.03803364932537079, -0.0013595523778349161, -0.0466289184987545, -0.05176270380616188, 0.06788253784179688, 0.024724885821342468, 0.029171116650104523, 0.0012824084842577577, -0.020511018112301826, 0.029918227344751358, -0.0268389955163002, 0.07178772985935211, 0.02099367044866085, 0.06409253180027008, -0.019790079444646835, -0.029473451897501945, 0.03127531707286835, -0.04727187752723694, 0.03267829492688179, 0.052417829632759094, -0.024066774174571037, -0.013580042868852615, -0.004007723182439804, 0.017595404759049416, -0.021577361971139908, 0.017885498702526093, 0.06104541942477226, 0.04561380669474602, -9.015202522277832e-07, -0.012569891288876534, -0.03660041093826294, -0.0015213051810860634, -0.03765057772397995, 0.015030216425657272, -0.0740579143166542, -0.011151876300573349, -0.04090177267789841, -0.02936776913702488, -0.015628181397914886, -0.0337563194334507, 0.004158686846494675, 0.018885992467403412, -0.03832876309752464, 0.07309223711490631, -0.03334919363260269, -0.002362271072342992, 0.03406747430562973, -0.04913999140262604, -0.00832490622997284, 0.015415282920002937, 0.005881154909729958, 0.04924662411212921, -0.0358281284570694, 0.015524692833423615, -0.012321905232965946, -0.05507279559969902, -0.02988225594162941, -0.026185758411884308, -0.035044584423303604, -0.04172425717115402, -0.02224934846162796, 0.021419372409582138, 0.001052485778927803, 0.044029831886291504, 0.0024245530366897583, -0.0751151368021965, -0.02300749346613884, -0.009603198617696762, 0.054534412920475006, -0.03147890418767929, -0.05132819339632988, 0.04942755401134491, 0.034540317952632904, 0.027739617973566055, -0.026852400973439217, -0.05838117003440857, 0.026377562433481216, -0.005034215748310089, -0.03282768651843071, -0.0045358166098594666, -0.022247424349188805, -0.004034176468849182, -0.029978137463331223, -0.05092811584472656, -0.018436342477798462, 0.029944289475679398, 0.018685754388570786, 0.008907610550522804, -0.017759468406438828, 0.025677630677819252, 0.01989045925438404, -0.005946749821305275, -0.020425904542207718, -0.009916801005601883, 0.011732619255781174, -0.005927887745201588, -0.016912467777729034, 0.009429040364921093, -0.035503167659044266, 0.004694896750152111, -0.04819711297750473, 0.005402723327279091, -0.03575163707137108, 0.03463592007756233, -0.06896567344665527, 0.051150497049093246, -0.07239742577075958, 0.02976691909134388, 0.030882075428962708, -0.011593732982873917, 0.00783022865653038, 0.033014021813869476, 0.004632000811398029, -0.034206733107566833, -0.03452162444591522, -0.005247633904218674, 0.0626249611377716, 0.012358857318758965], [-0.04796547815203667, -0.00491138081997633, -0.04331909492611885, -0.025436528027057648, -0.01472337543964386, -0.01340097188949585, -0.046568114310503006, 0.00940248928964138, -0.021007675677537918, -0.025782324373722076, 0.008207429200410843, -0.019442737102508545, -0.01231218408793211, -0.04734504222869873, 0.006965172477066517, -0.007064196281135082, -0.002100156620144844, -0.024774786084890366, 0.02203992009162903, 0.009611914865672588, 0.027149800211191177, -0.013748523779213428, -0.06580677628517151, 0.02206631749868393, -0.004352313466370106, 0.009046362712979317, 0.06930436939001083, -0.022202353924512863, -0.0012568328529596329, -0.041432905942201614, 0.019164370372891426, 0.06887320429086685, 0.015358591452240944, -0.007174499332904816, 0.03814584016799927, -0.02554691582918167, -0.04159030690789223, 0.03712252527475357, -0.0388675183057785, -0.013298233970999718, -0.01382617186754942, 0.03584106266498566, 0.009878227487206459, 0.060845401138067245, 0.029832422733306885, -0.02139759436249733, 0.0029177572578191757, 0.01717837154865265, 0.009103067219257355, 0.05024030804634094, -0.011090036481618881, -0.04586390405893326, 0.012116924859583378, 0.01921595260500908, -0.010316907428205013, 0.007573563605546951, -0.03613103926181793, 0.010925324633717537, -0.004669610410928726, -0.009535644203424454, -0.04689524322748184, 0.009485632181167603, 0.017831796780228615, 0.00767570361495018, -0.028814278542995453, -0.004613731987774372, 0.0146254301071167, 0.050197649747133255, 0.05756131559610367, 0.05340152606368065, -0.027593718841671944, -0.04148939996957779, -0.0719786286354065, 0.031262822449207306, 0.03854629024863243, -0.042611055076122284, 0.036457598209381104, -0.042876243591308594, -0.0033074235543608665, 0.0539407804608345, 0.01896929368376732, 0.09800159931182861, 0.0015568914823234081, -0.01324416697025299, -0.006449647713452578, 0.003557705320417881, 0.0597146600484848, -0.03435281664133072, -0.05437794700264931, -0.04814273864030838, 0.06561373174190521, -0.011989741586148739, 0.015683140605688095, -0.03826358541846275, 0.07145161926746368, -0.04141142964363098, 0.0797930583357811, 0.0005007646977901459, -0.02741650864481926, -0.012225143611431122, 0.0537143349647522, 0.017394062131643295, 0.06146541237831116, -0.044088125228881836, -0.003821535734459758, -0.0007879994809627533, 0.01692863553762436, 0.002738415030762553, -0.02123222127556801, 0.0113915354013443, -0.017197439447045326, -0.0919647067785263, 0.0808115303516388, -0.04056922718882561, 0.031805094331502914, -0.015663981437683105, -0.005013881716877222, 0.035251397639513016, 0.04463651031255722, -0.014733068645000458, 0.06570057570934296, 0.002835778519511223, 0.058687180280685425, -0.02186911553144455, -0.0394180491566658, -0.05390988662838936, -0.021997816860675812, -0.06041683256626129], [-0.03340066969394684, 0.027764560654759407, -0.00020467210561037064, 0.0005272319540381432, -0.017765576019883156, 0.0003232024610042572, 0.015658225864171982, 0.0005517592653632164, -0.0006864145398139954, -0.006281147710978985, -0.032553818076848984, -0.0435711108148098, -0.010209662839770317, -0.024283021688461304, 0.05855857580900192, 0.06613185256719589, -0.025426136329770088, -0.07522794604301453, -0.016806814819574356, 0.05501515790820122, -0.017686527222394943, 0.01185639575123787, 0.014093813486397266, 0.03670491278171539, 0.03797648102045059, 0.04557016119360924, 0.028718646615743637, -0.03012404404580593, 0.04172537475824356, 0.0327533558011055, 0.04024830460548401, -0.01767774298787117, 0.031083306297659874, 0.07621294260025024, 0.09608571231365204, -0.00022688880562782288, 0.03373285382986069, 0.02584708482027054, -0.05444186553359032, -0.005300862714648247, 0.05814146250486374, -0.02337975800037384, -0.026256173849105835, 0.09966844320297241, -0.005600553005933762, -0.012630488723516464, -0.004562901332974434, 0.010190287604928017, 0.008580957539379597, -0.040005121380090714, -0.023986395448446274, -0.014041542075574398, -0.013021497055888176, -0.05083826929330826, 0.050717778503894806, 0.029368238523602486, -0.038781147450208664, 0.06458401679992676, 0.03169945999979973, -0.04191535338759422, 0.03776569291949272, 0.0345693938434124, 0.029228709638118744, -0.009328014217317104, 0.020175732672214508, -0.0033293459564447403, -0.017185835167765617, -0.0024330609012395144, -0.03714800998568535, 0.01291522104293108, 0.06922461092472076, 0.030726714059710503, 0.005372732877731323, 0.07682720571756363, 0.04976601153612137, -0.01828244887292385, -0.011061756871640682, 0.07045203447341919, -0.009848551824688911, 0.006384533829987049, 0.02210397459566593, 0.013602796010673046, 0.008538421243429184, -0.02698366716504097, -0.004019751213490963, -0.01523926854133606, 0.06941983103752136, -0.013558540493249893, -0.0009836731478571892, -0.02840924635529518, -0.008745435625314713, -0.04592479392886162, 0.014267170801758766, -0.01339033991098404, 0.009081193245947361, -0.01034366711974144, -0.05347516015172005, 0.001329515129327774, 0.009448807686567307, 0.024944834411144257, 0.04704808443784714, -0.028276558965444565, -0.07100893557071686, -0.026403669267892838, -0.007835587486624718, 0.012499324977397919, 0.020051568746566772, 0.051812633872032166, -0.019124679267406464, 0.02457020804286003, 0.010989487171173096, 0.023314978927373886, -0.012689579278230667, 0.011068716645240784, 0.030886298045516014, 0.021565178409218788, 0.03896387293934822, 0.013110533356666565, 0.034987613558769226, -0.05556875094771385, -0.014243459329009056, 0.06167293339967728, 0.039044201374053955, 0.026387566700577736, -0.0005798079073429108, -0.06648426502943039, 0.014036377891898155, 0.03246099501848221], [0.055566370487213135, -0.02714352123439312, -0.04369951784610748, 0.06935019791126251, -0.0014113392680883408, 0.042350511997938156, 0.019241906702518463, -0.03388095647096634, -0.009198717772960663, 0.025171101093292236, -0.01559328380972147, 0.04265527427196503, -0.0003364942967891693, 0.073632150888443, -0.08167073130607605, -0.03307564929127693, -0.08302750438451767, -0.013668129220604897, -0.02254468947649002, 0.013884481973946095, -0.04822506755590439, -0.04588925093412399, -0.0005508149042725563, -0.030297506600618362, -0.01636004075407982, 0.0045190248638391495, -0.027451742440462112, 0.039257146418094635, 0.0326823890209198, -0.06730859726667404, -0.0020584226585924625, 0.03375890851020813, 0.011170173063874245, 0.022844787687063217, 0.017891637980937958, 0.026507098227739334, 0.004734698683023453, -0.037039801478385925, -0.037700243294239044, -0.0543009378015995, -0.012223020195960999, 0.008484129793941975, -0.024543190374970436, 0.008988115936517715, -0.016137970611453056, -0.07203434407711029, -0.035791587084531784, 0.002609776332974434, -0.023633014410734177, -0.06042066216468811, 0.005381491035223007, -0.0016048289835453033, -0.061727575957775116, 0.0010068202391266823, -0.011166064999997616, -0.014661242254078388, -0.019564135000109673, -0.0509902760386467, -0.02110423520207405, -0.020450495183467865, 0.03701489046216011, 0.00229734368622303, -0.061361297965049744, 0.029560141265392303, 0.01423601247370243, -0.06858474016189575, 0.02975325658917427, 0.03910822421312332, 0.004144683480262756, -0.06816494464874268, -0.0356193482875824, 0.0059107206761837006, 0.011778121814131737, -0.0016142670065164566, 0.02549629658460617, 0.055717192590236664, -0.002146182581782341, 0.03064938820898533, -0.04556907340884209, 0.013256752863526344, 0.06960141658782959, 0.036255232989788055, -0.05082850158214569, 0.032888635993003845, 0.01249891147017479, -0.06125408411026001, -0.0040282998234033585, 0.03452146798372269, 0.04867774620652199, 0.039559997618198395, 0.030719328671693802, -0.05081804096698761, -0.0291384756565094, -0.010293802246451378, 0.04580859839916229, 0.0793350338935852, -0.03868531808257103, -0.021042674779891968, -0.0413784384727478, -0.040928274393081665, -0.02211928181350231, 0.05002130568027496, -0.05064565688371658, 0.04474842920899391, -0.041198085993528366, -0.00724773108959198, -0.01908266358077526, 0.03243514895439148, -0.019400732591748238, -0.04183086380362511, 0.015448562800884247, -0.051025617867708206, -0.008964617736637592, 0.031034590676426888, -0.005337039940059185, 0.021028660237789154, -0.023652276024222374, -0.06759258359670639, -0.05230601131916046, -0.059463176876306534, -0.005120688118040562, -0.015746265649795532, 0.026590878143906593, 0.0096936896443367, -0.053338274359703064, -0.03408592939376831, -0.0035864468663930893, 0.04431962966918945], [0.03148014098405838, 0.04038720950484276, 0.00044031068682670593, 0.04175318032503128, -0.0555083192884922, -0.046360939741134644, -0.009530212730169296, -0.008185455575585365, 0.003091576974838972, 0.06635555624961853, -0.03142867982387543, -0.0153416208922863, -0.028031155467033386, 0.03507928177714348, -0.040766432881355286, 0.020682035014033318, 0.03842344135046005, -0.08614391088485718, 0.0691395252943039, 0.06879832595586777, 0.013425849378108978, 0.0757082849740982, 0.030944544821977615, 0.02295028790831566, 0.0006500426679849625, -0.01287834718823433, 0.002277225721627474, -0.018763404339551926, 0.04174846038222313, 0.04614922031760216, -0.006105715408921242, -0.00040416140109300613, 0.04034498706459999, -0.006033690646290779, 0.009704066440463066, -0.06894263625144958, -0.07433732599020004, 0.04086994752287865, 0.014506775885820389, -0.008492665365338326, -0.03779355436563492, -0.042216118425130844, 0.003887808881700039, 0.03617679327726364, -0.015715625137090683, -0.021936720237135887, 0.025876576080918312, 0.014354445040225983, 0.05253446102142334, 0.002385396510362625, 0.05934937298297882, -0.009512532502412796, -0.022257033735513687, -0.06647714227437973, 0.00802944228053093, -0.06795339286327362, -0.03172048181295395, 0.005502108484506607, -0.0014356523752212524, 0.012255193665623665, 0.03858328238129616, -0.041665881872177124, -0.019991114735603333, -0.05455499142408371, -0.017443310469388962, -0.039044544100761414, -0.07616596668958664, 0.029122941195964813, -0.003246074542403221, 0.02545323595404625, 0.00893617607653141, 0.04233431816101074, -0.0232112854719162, 0.009958639740943909, -0.05681859329342842, -0.013178076595067978, 0.05469129979610443, 0.012020638212561607, 0.01481129415333271, -0.00039081647992134094, 0.054742589592933655, -0.0056483084335923195, 0.05766848847270012, -0.009268950670957565, -0.06162482500076294, 0.046905919909477234, 0.004137528128921986, -0.047108642756938934, -0.01544756256043911, 0.024199649691581726, -0.04092270880937576, 0.0019037127494812012, 0.02409111149609089, 0.06245412677526474, -0.05401552468538284, 0.022467397153377533, 0.026443468406796455, -0.012755723670125008, -0.009074414148926735, -0.029838092625141144, 0.017248958349227905, 0.011747583746910095, -0.0034672562032938004, -0.06218532472848892, 0.014646223746240139, 0.03102332353591919, -0.047988954931497574, -0.03678677976131439, 0.029159411787986755, -0.017914701253175735, 0.031650610268116, -0.050937265157699585, 0.004508701153099537, 0.010479200631380081, -0.05321020632982254, 0.00471651554107666, -0.010107388719916344, 0.03316777944564819, -0.024300144985318184, 0.04639250785112381, -0.00221800385043025, 0.04398927092552185, 0.06732874363660812, 0.044666990637779236, 0.034284766763448715, 0.0021861568093299866, -0.03101491928100586, 0.01210090797394514], [0.015353105030953884, 0.05928206443786621, -0.002938631922006607, -0.0013094674795866013, 0.01914062164723873, -0.009007862769067287, -0.00897081010043621, 0.025239083915948868, -0.0021448396146297455, -0.0074100978672504425, -0.05726046487689018, 0.01476561464369297, 0.041324369609355927, -0.00865403562784195, -0.029276356101036072, 0.029429800808429718, 0.008811418898403645, -0.03988610953092575, 0.02908395603299141, -0.0019150255247950554, 0.003978502005338669, -0.027797820046544075, -0.05148892477154732, 0.028310446068644524, 0.054176367819309235, 0.02161996252834797, -0.0039365217089653015, -0.008479991927742958, 0.033852286636829376, 0.04340703785419464, -0.06672931462526321, 0.004147272557020187, 0.014586752280592918, -0.060793884098529816, -0.019036749377846718, -0.0009301174432039261, 0.025741128250956535, -0.05864108353853226, -0.019463855773210526, -0.03839823603630066, -0.04719039797782898, 0.017782002687454224, -0.005743835121393204, -0.07111050188541412, 0.03933987766504288, -0.0008544172160327435, 0.03347257897257805, 0.048638176172971725, -0.04138003662228584, -0.017692547291517258, 0.040240172296762466, -0.008180896751582623, -0.047569163143634796, 0.04995877668261528, 0.030701743438839912, 0.04427063465118408, -0.009053803980350494, -0.0013221660628914833, 0.037621013820171356, 0.03576049208641052, -0.015109177678823471, 0.0004102727398276329, 0.02619239129126072, -0.0660308301448822, -0.0642576664686203, -0.005980875343084335, 0.002267881529405713, -0.06974739581346512, 0.03875324875116348, -0.004117059521377087, -0.025533627718687057, 0.057665031403303146, 0.04651623219251633, -0.04598749056458473, 0.06232629343867302, 0.02531217783689499, 0.029707834124565125, -0.04460623115301132, -0.014589539729058743, -0.046265069395303726, 0.028021181002259254, 0.00875493511557579, 0.04406948387622833, 0.043676599860191345, -0.022165123373270035, 0.010922970250248909, 0.009309862740337849, -0.035321373492479324, -0.017246492207050323, -0.014650787226855755, -0.040226250886917114, 0.018427738919854164, -0.020703395828604698, -0.019309930503368378, -0.03707723319530487, -0.043079257011413574, -0.006967784836888313, 0.072482168674469, 0.04918966442346573, -0.005325349047780037, -0.08996596187353134, 0.002607620321214199, 0.02769380994141102, 0.050699107348918915, 0.0009316550567746162, -0.025113508105278015, -0.0027615483850240707, -0.034328050911426544, 0.03181375935673714, -0.01274430938065052, -0.0808294340968132, 0.004097003489732742, -0.020930111408233643, -0.01959993690252304, 0.004915973171591759, -0.04579196870326996, 0.011162114329636097, 0.03727375715970993, 0.0008202558383345604, 0.010867169126868248, 0.05190107971429825, 0.029848139733076096, 0.04533608630299568, -0.011164534837007523, 0.0602826364338398, -0.004073557443916798, -0.01747899316251278, -0.03496858477592468], [-0.06714534759521484, 0.017269186675548553, 0.051313452422618866, 0.012176633812487125, -0.006551099941134453, -0.015392052009701729, -0.029978349804878235, 0.0005283970385789871, -0.04244854301214218, 0.018867969512939453, -0.03674226999282837, -0.0349491685628891, 0.06972422450780869, 0.0002919454127550125, -0.06447648257017136, 0.016440946608781815, -0.0075651127845048904, -0.020197447389364243, 0.04165544733405113, -0.016489239409565926, -0.05542246624827385, -0.052648067474365234, 0.014055185951292515, -0.03310181573033333, 0.03565045818686485, -0.03134895861148834, -0.03317699953913689, -0.017778418958187103, -0.031688716262578964, -0.05523405224084854, -0.03169316425919533, -0.06357371062040329, 0.01914077065885067, 0.027387874200940132, -0.03908395767211914, 0.03852349892258644, 0.048025745898485184, -0.0014473795890808105, -0.007517581805586815, 0.0009718351066112518, -0.02253483235836029, 0.03370394930243492, -0.03167380392551422, -0.011357581242918968, -0.05308721214532852, -0.018019862473011017, -0.00387667678296566, 0.03459276258945465, 0.01635875552892685, -0.06327176839113235, -0.004583350382745266, -0.02529485523700714, -0.05576601251959801, -0.03625594824552536, -0.017848946154117584, 0.026032736524939537, 0.05525633320212364, 0.008395768702030182, 0.003468375187367201, 0.027100281789898872, -0.05772396922111511, 0.0011409725993871689, -0.002314280951395631, -0.011295285075902939, -0.05130694434046745, -0.033530447632074356, 0.05555207282304764, -0.03515688329935074, 0.028587056323885918, -0.06782683730125427, -0.0039041871204972267, -0.03360404074192047, -0.06758855283260345, 0.07353675365447998, -0.069286048412323, 0.06486640870571136, 0.05224929377436638, 0.012471386231482029, -0.04786434769630432, 0.026699498295783997, -0.005167512223124504, 0.006598230451345444, -0.05089905858039856, 0.020294398069381714, 0.05693551525473595, -0.02855820581316948, 0.10552692413330078, -0.004084905609488487, 0.03330288827419281, 0.017863161861896515, -0.04312223941087723, 0.028149740770459175, 0.02675432711839676, 0.06988303363323212, 0.05978594720363617, 0.06837893277406693, 0.016207698732614517, -0.07576687633991241, 0.008944932371377945, 0.006915368139743805, 0.026066837832331657, -0.007444838993251324, -0.047319527715444565, -0.017242668196558952, -0.014323577284812927, -0.03530017286539078, -0.0079669039696455, -0.015505872666835785, -0.03910631686449051, -0.018027421087026596, -0.024565652012825012, -0.008521961979568005, -0.006813369691371918, 0.025274282321333885, 0.005338545888662338, -0.05612047761678696, 0.010355515405535698, -0.030957240611314774, -0.05909016728401184, -0.01789744943380356, -0.03590394929051399, -0.03923208266496658, 0.031658802181482315, -0.04527701437473297, -0.02321985736489296, 0.02065713331103325, 0.01819409243762493, -0.05477280914783478], [0.045818231999874115, -0.040098123252391815, 0.003967299126088619, 0.007835780270397663, -0.050361212342977524, 0.02714630588889122, -0.006579503417015076, -0.08389345556497574, 0.0065636709332466125, 0.007321483455598354, -0.07106240838766098, -0.004985444247722626, -0.018893683329224586, -0.0688951164484024, 0.037305817008018494, 0.06520617753267288, -0.012550334446132183, 0.022727590054273605, 0.053683407604694366, -0.02874615415930748, 0.07866992801427841, -0.08853229135274887, -0.10068436712026596, -0.018308822065591812, -0.003909006714820862, 0.013209711760282516, 0.07350035756826401, -0.027977045625448227, -0.0033593717962503433, 0.018338194116950035, 0.007108456455171108, -0.03906994313001633, 0.02004576474428177, -0.09351852536201477, 0.03188800439238548, 0.0709756463766098, -0.058351971209049225, -0.035649433732032776, 0.03247517719864845, -0.039845872670412064, 0.04025682061910629, 0.049884162843227386, 0.039746616035699844, 0.004450197331607342, -0.03028157167136669, 0.012288328260183334, -0.014139598235487938, 0.016874779015779495, -0.05950550362467766, 0.003743212204426527, 0.018210912123322487, -0.05439889803528786, -0.015187532640993595, 0.03492468595504761, 0.018315443769097328, -0.031849902123212814, -0.0041277967393398285, 0.02742690034210682, 0.03945958614349365, 0.017797520384192467, 0.06512236595153809, 0.014698410406708717, -0.059410013258457184, 0.051075659692287445, 0.030626848340034485, 0.02843337506055832, 0.04235024377703667, -0.02272067777812481, 0.047137435525655746, 0.004627611488103867, -0.04722197726368904, -0.006132348440587521, -0.05722152069211006, 0.027555063366889954, -0.013814040459692478, 0.001197677105665207, -0.05606986582279205, -0.018993118777871132, 0.05431099236011505, -0.029850881546735764, 0.021068034693598747, -0.01897275075316429, 0.0005011335015296936, -0.027956970036029816, -0.004070918541401625, -0.06580671668052673, 0.04968094080686569, -0.04203721508383751, 0.005873681977391243, 0.07411779463291168, -0.0013033170253038406, -0.029411301016807556, -0.0181465782225132, -0.013403431512415409, -0.046971313655376434, -0.0029613375663757324, -0.009736484847962856, -0.018008284270763397, -0.0007994152838364244, 0.028288312256336212, 0.0424761138856411, 0.01589302532374859, 0.027935374528169632, -0.02874378114938736, 0.06273969262838364, -0.025609182193875313, -0.0206228569149971, 0.05354885756969452, -0.05865650624036789, 0.040088724344968796, 0.026385406032204628, 0.02829522266983986, 0.003959827125072479, 0.03843936696648598, -0.01774323172867298, 0.019847139716148376, 0.04441506415605545, 0.00530722551047802, -0.055318720638751984, -0.009190126322209835, -0.016080688685178757, -0.004837317392230034, -0.0568232424557209, 0.005829205736517906, -0.016023904085159302, 0.030697211623191833, 6.994791328907013e-05, -0.007755748927593231], [-0.018916087225079536, -0.011615294963121414, 0.05550713837146759, 0.05445301532745361, -0.04220197722315788, -0.0595463290810585, 0.0604064054787159, -0.014770407229661942, 0.0026175230741500854, -0.0023793326690793037, 0.07431204617023468, 0.04239661246538162, -0.03965418413281441, 0.01524860318750143, -0.047337088733911514, 0.0661323145031929, 0.010637596249580383, -0.001560470089316368, -0.030760202556848526, 0.0008490514010190964, 0.017067736014723778, -0.014790430665016174, 0.02345755323767662, 0.06167569383978844, 0.005210907198488712, 0.021007582545280457, 0.00794309750199318, -0.06321001052856445, -0.041375402361154556, -0.046877533197402954, -0.06748655438423157, 0.007873272523283958, -0.026660576462745667, -0.0028881998732686043, -0.004874582402408123, -0.0021961284801363945, -0.01893589273095131, 0.009585711173713207, 0.05514322221279144, 0.05576455965638161, 0.0498293861746788, 0.05046095699071884, 0.0013749822974205017, -0.022139690816402435, 0.03769081085920334, -0.006339767947793007, -0.028942108154296875, -0.031416602432727814, -0.051318518817424774, 0.04340137541294098, 0.038645192980766296, 0.0466473363339901, 0.023882035166025162, -0.005804712884128094, -0.0007519163191318512, 0.004304913803935051, 0.06549433618783951, -0.06336308270692825, -0.049916692078113556, -0.0012657151091843843, -0.01108743529766798, 0.027282211929559708, -0.02335503324866295, 0.0029064607806503773, -0.06008921563625336, -0.09039994329214096, -0.05439314618706703, -0.0336473174393177, 0.010441088117659092, 0.0003135222941637039, 0.012437956407666206, -0.03303494676947594, -0.036597058176994324, -0.014120008796453476, -0.03946031630039215, -0.0125814164057374, -0.0005286373198032379, 0.003201119601726532, -0.04761495813727379, 0.05912495404481888, -0.0553763210773468, 0.04831645265221596, -0.008411182090640068, 0.012235806323587894, 0.01629236713051796, -0.03711925819516182, 0.02675594761967659, -0.05524277687072754, 0.011119391769170761, -0.03745972365140915, -0.003846516367048025, -0.0373772531747818, 0.029021132737398148, 0.01562473364174366, -0.04757096245884895, -0.06466813385486603, 0.0022043734788894653, -0.009392530657351017, 0.010881491005420685, -0.003151495708152652, -0.007359365001320839, -0.049663346260786057, -0.006586084142327309, 0.026965120807290077, 0.028175286948680878, 0.01101391389966011, -0.0005304105579853058, 0.01907249167561531, -0.024999618530273438, -0.0694594755768776, -0.008982865139842033, 0.04795893281698227, -0.005755407735705376, -0.03695908933877945, -0.008708072826266289, 0.002787148579955101, 0.020035453140735626, -0.005942842923104763, 0.03520992398262024, -0.010929901152849197, 0.05836977809667587, 0.03464367240667343, 0.07098771631717682, 0.008422426879405975, 0.018963271751999855, -0.010311095044016838, 0.031778208911418915, 0.003954626619815826], [0.021642077714204788, 0.019440293312072754, -0.08142490684986115, 0.015501625835895538, -0.02195131406188011, -0.011518307030200958, -0.027694540098309517, 0.022327912971377373, 0.03540578484535217, 0.02553504891693592, 0.009120946750044823, -0.027839507907629013, 0.009020195342600346, 0.011389564722776413, 0.021607249975204468, -0.012726200744509697, 0.026377864181995392, 0.03254932165145874, 0.030689425766468048, -0.09618434309959412, -0.051594436168670654, -0.051971837878227234, 0.0015786606818437576, 0.008589822798967361, -0.005619397386908531, 0.011549197137355804, 0.006333088502287865, -0.04378586262464523, -0.10465297102928162, -0.005098170600831509, 0.035528093576431274, 0.05356810241937637, 0.031790509819984436, 0.036849554628133774, -0.008530162274837494, -0.03652035817503929, -0.008039623498916626, -0.005455576814711094, 0.006803248077630997, -0.03085273504257202, 0.03972814232110977, -0.0770561546087265, 0.022333495318889618, -0.0566125251352787, 0.061658233404159546, 0.01970335654914379, 0.018818935379385948, -0.0350651890039444, -0.06616392731666565, -0.0019043534994125366, -0.0025582946836948395, 0.016934743151068687, 0.0244428887963295, 0.01037309318780899, 0.025081824511289597, 0.0671328529715538, -0.059534136205911636, -0.031184889376163483, -0.0032538743689656258, -0.06387488543987274, 0.04838003218173981, 0.07743510603904724, 0.0497034527361393, -0.07245739549398422, -0.030971642583608627, 0.059731729328632355, 0.029454592615365982, 0.008433588780462742, -0.007346479222178459, 0.0063810707069933414, 0.04136862978339195, -0.021484369412064552, 0.018077189102768898, -0.0204895231872797, 0.060178641229867935, 0.00435301847755909, 0.04810357093811035, -0.04427839815616608, -0.0375826358795166, 0.0377429723739624, -0.0512126199901104, -0.07599474489688873, 0.05475326627492905, -0.0012534260749816895, 0.033283937722444534, 0.08017368614673615, -0.02430202253162861, -0.01156904548406601, 0.030163845047354698, 0.04337775334715843, 0.05780233442783356, -0.030250707641243935, 0.03930811211466789, 0.014814733527600765, 0.020809780806303024, 0.04800017923116684, 0.04774162545800209, -0.007747680880129337, 0.00031376536935567856, 0.02524990774691105, -0.0035849884152412415, 0.04823184385895729, -0.021410977467894554, 0.051340267062187195, -0.046279892325401306, -0.05474018305540085, 0.02613263949751854, 0.07081479579210281, -0.03254007548093796, 0.021645670756697655, 0.05173225328326225, -0.022368650883436203, 0.038976456969976425, -0.03386400267481804, -0.008278642781078815, -0.05707603693008423, 0.008251041173934937, -0.08543205261230469, -0.015690218657255173, 0.0023907190188765526, 0.08654220402240753, -0.012319481931626797, 0.023338064551353455, -0.0542922168970108, -0.03877543285489082, 0.017910558730363846, -0.03488777577877045, -0.025631142780184746], [-0.06116636097431183, 0.049824804067611694, -0.010399872437119484, 0.037963397800922394, -0.03129815310239792, -0.0019348114728927612, -0.008279483765363693, -0.06773041188716888, 0.04830387979745865, 0.007328451611101627, -0.051170714199543, 0.03803668171167374, -0.02981499396264553, 0.0005953814834356308, 0.03747064247727394, -0.07940153777599335, 0.015876110643148422, 0.009645677171647549, 0.017986930906772614, -0.023254455998539925, -0.05865713208913803, -0.03479331359267235, -0.007822690531611443, 0.026388972997665405, 0.010886953212320805, -0.0695888102054596, -0.08939953148365021, -0.040669456124305725, -0.02623179741203785, 0.06938150525093079, -0.09513814002275467, -0.023488258942961693, -0.0006930800154805183, -0.030225101858377457, 0.01705719344317913, -0.013850619085133076, -0.02435116097331047, 0.04820381477475166, 0.033965736627578735, 0.0011705970391631126, 0.009366702288389206, -0.022798672318458557, -0.029324820265173912, 0.038087256252765656, -0.050201382488012314, 0.034793030470609665, 0.011498257517814636, -0.04776635020971298, -0.08510805666446686, -0.05113791301846504, -0.02707712911069393, -0.07093358039855957, 0.005999255925416946, 0.04711925983428955, -0.041716866195201874, -0.023866306990385056, 0.04127348214387894, -0.0024416446685791016, -0.02024889923632145, -0.026479192078113556, 0.03406889736652374, -0.020449254661798477, -0.023911722004413605, -0.03513981029391289, 0.051736634224653244, 0.05244854837656021, -0.008357932791113853, -0.028867486864328384, 0.004474461078643799, 0.02554355189204216, 