{"model.0.weight": [[-0.08271340280771255, 0.04188672453165054, 0.04841656982898712, -0.04242856428027153, 0.0697372779250145, 0.13022480905056, -0.03453085944056511, -0.0639815703034401, -0.11141492426395416, -0.039145734161138535, 0.02367870882153511, -0.1902649700641632, -0.07048425078392029, 0.05671903118491173, 0.02004241943359375, -0.06791210919618607, -0.0467350110411644, 0.09655395150184631, 0.006267191842198372, 0.045250147581100464], [-0.06879754364490509, 0.10600221157073975, 0.02100980281829834, 0.11304192245006561, -0.02448306232690811, 0.10048642754554749, -0.01990988850593567, 0.067916639149189, -0.002242874354124069, -0.11769852787256241, -0.07786218822002411, -0.005521557759493589, 0.13327772915363312, -0.08518698066473007, -0.10505995154380798, -0.05212211608886719, 0.06752533465623856, 0.015331589616835117, 0.04932457208633423, -0.09197477996349335], [-0.052002277225255966, 0.08487500995397568, 0.03612834960222244, -0.03709910064935684, -0.07620151340961456, -0.07789159566164017, -0.037231769412755966, 0.07611356675624847, -0.03392256051301956, -0.10069576650857925, -0.023756925016641617, 0.04726673662662506, 0.07754705846309662, 0.0061663128435611725, 0.04581715911626816, 0.02634831890463829, 0.10943956673145294, 0.04562024399638176, -0.041245028376579285, -0.11840401589870453], [0.022440370172262192, -0.0429852157831192, -0.06125546991825104, -0.03609922528266907, -0.04642118513584137, -0.08867498487234116, 0.017598215490579605, 0.04509907215833664, 0.11541170626878738, 0.022921690717339516, -0.02201256901025772, 0.12735210359096527, -0.04581800848245621, -0.09379182010889053, 0.029213013127446175, -0.03619983047246933, -0.010758205316960812, -0.08111446350812912, -0.10949856042861938, 0.06228283792734146], [-0.051643140614032745, -0.06747877597808838, -0.08505559712648392, -0.03519655764102936, -0.005382593721151352, -0.08744353801012039, -0.027788495644927025, -0.1135973185300827, -0.025060994550585747, -0.06079118326306343, 0.057418081909418106, -0.005770320072770119, 0.06252740323543549, -0.101961649954319, -0.007796336431056261, -0.011528939008712769, -0.1089482307434082, -0.02036619558930397, 0.03962322697043419, -0.06437616050243378], [0.00209633307531476, 0.15211328864097595, -0.0965932309627533, -0.06356500089168549, -0.004772487096488476, -0.002979755401611328, 0.05353789031505585, -0.033691197633743286, -0.04149170219898224, 0.018182583153247833, 0.049234986305236816, 0.1072496622800827, -0.016527295112609863, 0.131484255194664, 0.07630503177642822, -0.02825992740690708, 0.013950048014521599, 0.06895086169242859, -0.032379623502492905, -0.022491054609417915], [0.030998483300209045, -0.0878242626786232, 0.06703867018222809, 0.039426784962415695, 0.12999138236045837, 0.03691708669066429, 0.0008272100239992142, -0.009010866284370422, -0.00823495164513588, -0.0023194707464426756, 0.1051560565829277, -0.09953046590089798, 0.014864770695567131, 0.09190010279417038, 0.03920681029558182, 0.04941700026392937, 0.0952955111861229, 0.061181120574474335, -0.05283748358488083, -0.04065660759806633], [-0.08176453411579132, -0.043312523514032364, 0.04486957937479019, -0.0073855724185705185, 0.04554567486047745, -0.0007616765797138214, 0.036031343042850494, 0.014116393402218819, -0.10700570046901703, -0.12700219452381134, 0.03519279509782791, 0.02157340943813324, 0.09801694005727768, -0.009647542610764503, 0.011181207373738289, -0.04637940973043442, 0.05303537845611572, -0.11004690825939178, -0.09466293454170227, 0.00045950792264193296], [0.07482235878705978, 0.08655813336372375, -0.01046588085591793, -0.05632578209042549, -0.036248963326215744, -0.05671883374452591, -0.02415226399898529, -0.1008567363023758, 0.13294290006160736, -0.08888356387615204, -0.08657695353031158, -0.018333807587623596, -0.06180819123983383, 0.11682306975126266, 0.05476824939250946, 0.01065710186958313, 0.06225480139255524, 0.022718852385878563, -0.023059004917740822, 0.06995532661676407], [-0.0110304094851017, 0.015790510922670364, -0.027139540761709213, -0.008884711191058159, 0.014738615602254868, -0.032405413687229156, 0.025446239858865738, -0.022947005927562714, -0.031946662813425064, -0.01419048197567463, -0.1643827259540558, 0.13624253869056702, 0.0797397717833519, -0.045374803245067596, 0.06672663986682892, 0.01659402810037136, -0.10522709786891937, -0.07583922147750854, 0.06770378351211548, 0.017453044652938843], [0.12269366532564163, 0.0491279661655426, 0.049680523574352264, -0.04522630199790001, -0.0440053753554821, 0.010939236730337143, -0.01807260327041149, -0.014627676457166672, -0.07301940768957138, 0.02341538667678833, -0.034832388162612915, -0.0269475020468235, -0.04815910756587982, 0.07449203729629517, -0.0544743575155735, -0.0007444396615028381, 0.006819998845458031, -0.08171672374010086, 0.026240136474370956, 0.06052699312567711], [0.020198367536067963, 0.021115601062774658, 0.08439552783966064, -0.02090359851717949, -0.035680994391441345, 0.07846023887395859, 0.15297093987464905, 0.11975394189357758, -0.018775908276438713, 0.025837862864136696, 0.05894726514816284, 0.03596782684326172, -0.0859096497297287, 0.07484276592731476, -0.02175128646194935, -0.0440959669649601, -0.03448819741606712, -0.03409549221396446, -0.007762114517390728, -0.015530034899711609], [-0.0537039078772068, 0.018169693648815155, -0.042861372232437134, 0.010213213041424751, 0.00633852556347847, 0.13318318128585815, -0.04541940614581108, -0.04778079316020012, 0.06693705171346664, 0.1627310812473297, 0.03970017656683922, -0.05165405198931694, 0.06954439729452133, -0.05006520077586174, 0.0464116595685482, 0.050712697207927704, -0.01401236467063427, 0.035741984844207764, -0.013893211260437965, 0.059157844632864], [-0.010994834825396538, 0.03428587689995766, -0.009386710822582245, -0.03767568618059158, 0.0513836108148098, 0.0394570492208004, 0.0060994066298007965, -0.11164356768131256, 0.04737100005149841, -0.0022686831653118134, 0.0677306056022644, 0.01021474227309227, 0.015899423509836197, 0.003019336611032486, -0.010973963886499405, -0.02116447687149048, 0.009233423508703709, -0.08839567750692368, -0.015524320304393768, 0.059406377375125885], [0.11375090479850769, -0.1430719494819641, 0.010636026971042156, -0.05061476677656174, 0.08833926171064377, -0.08925259858369827, -0.10903172194957733, -0.04708726331591606, -0.08973202854394913, 0.0604330450296402, -0.07433781027793884, -0.08526884019374847, -0.03993099182844162, -0.011564647778868675, 0.011365097016096115, 0.11651124805212021, 0.0439690500497818, 0.09799037873744965, -0.05218380317091942, -0.05816085636615753], [0.12317897379398346, 0.028531061485409737, -0.11771026998758316, 0.04995400831103325, -0.033587291836738586, -0.06132637709379196, -0.04007125273346901, -0.009947609156370163, 0.07961955666542053, -0.03328065574169159, -0.04407871887087822, -0.04775723069906235, 0.008291036821901798, 0.08800800889730453, 0.052805520594120026, 0.03974645584821701, -0.08545534312725067, -0.03838026523590088, 0.0222492553293705, -0.06193344295024872], [-0.029706576839089394, -0.0019894996657967567, 0.0071784984320402145, 0.0325302891433239, 0.009396606124937534, 0.0038254298269748688, 0.01756645366549492, 0.07591559737920761, -0.08678489178419113, -0.04647684097290039, 0.05151478201150894, 0.07159541547298431, 0.039702143520116806, 0.05679294839501381, 0.06424229592084885, 0.004650350660085678, 0.034890636801719666, 0.04002046212553978, -0.10210244357585907, 0.0793912336230278], [-0.07940702885389328, 0.01377081498503685, -0.13681863248348236, 0.07600793242454529, -0.10638550668954849, 0.016689805313944817, 0.0454951748251915, 0.057537682354450226, -0.04979820176959038, -0.07835426181554794, 0.007276786491274834, -0.07329953461885452, -0.013390164822340012, -0.055203747004270554, -0.05750217288732529, 0.01235964149236679, -0.035127896815538406, 0.09842321276664734, 0.052380435168743134, 0.009661262854933739], [0.0457565039396286, 0.07966502755880356, -0.054204151034355164, -0.09736490249633789, -0.10750554502010345, -0.06301823258399963, 0.03899521380662918, 0.10480934381484985, -0.036447979509830475, -0.013369768857955933, 0.059485096484422684, -0.03987683728337288, 0.07256212830543518, -0.07662220299243927, 0.008572753518819809, 0.11195852607488632, 0.019318480044603348, -0.047713447362184525, -0.025842536240816116, -0.012204021215438843], [0.04071277007460594, -0.006457138806581497, 0.030204763635993004, -0.05087563022971153, -0.07827447354793549, -0.07293889671564102, 0.0711432546377182, 0.1175352931022644, 0.07758711278438568, -0.10084053874015808, 0.03503415361046791, 0.02002347819507122, 0.020352225750684738, -0.018231764435768127, 0.008567159995436668, -0.014966062270104885, 0.049460574984550476, 0.12067539989948273, 0.06753713637590408, -0.14798575639724731], [-0.025030162185430527, -0.03885621950030327, -0.04111901670694351, -0.03005172684788704, 0.009072380140423775, 0.09872868657112122, -0.028664983808994293, -0.050614889711141586, -0.021607566624879837, 0.016351567581295967, -0.07565177977085114, -0.020460907369852066, -0.0017950334586203098, 0.0108963493257761, 0.05223659798502922, 0.05621013790369034, 0.021984513849020004, 0.01919923722743988, 0.018952064216136932, -0.027277249842882156], [-0.019740579649806023, 0.003152633085846901, -0.0938819870352745, 0.07876968383789062, -0.05839613452553749, 0.004489405080676079, -0.010678378865122795, 0.13306619226932526, 0.05268693342804909, -0.01725803315639496, 0.04893593490123749, -0.04208237677812576, 0.01660764217376709, 0.056434400379657745, -0.09655054658651352, 0.03311624005436897, -0.025856059044599533, 0.06972497701644897, 0.04437004029750824, -0.0910455510020256], [0.06639695912599564, -0.013612654060125351, 0.0052888356149196625, 0.029882051050662994, -0.0019642487168312073, -0.0827394500374794, 0.06165295094251633, 0.1360933780670166, -0.05797915905714035, 0.052235979586839676, 0.0037072021514177322, -0.023396559059619904, 0.03669685125350952, -0.09927362203598022, 0.026667520403862, 0.028010889887809753, 0.06914306432008743, 0.040393829345703125, 0.13065187633037567, -0.022072840481996536], [-0.025782588869333267, -0.0798778086900711, -0.07385113835334778, 0.0013751760125160217, -0.0005188770592212677, 0.06032157316803932, -0.06524044275283813, 0.058883532881736755, 0.04905563220381737, -0.16747012734413147, -0.13091959059238434, -0.12065523117780685, -0.004623778164386749, -0.06504806876182556, 0.09315972030162811, -0.04030485451221466, 0.02787214145064354, -0.03467041254043579, -0.12378892302513123, 0.021212998777627945], [-0.09036968648433685, -0.04083804041147232, 0.05846435949206352, 0.04876406490802765, -0.09941837191581726, 0.07718511670827866, 0.05061793699860573, -0.0756276547908783, 0.028346026316285133, -0.052045807242393494, 0.012442243285477161, -0.08167071640491486, 0.06881703436374664, -0.07278840988874435, 0.0655374825000763, -0.020282544195652008, 0.051216863095760345, 0.06478142738342285, 0.004192313179373741, -0.01289976667612791], [0.07189486920833588, -0.08795837312936783, 0.018956255167722702, -0.05470816791057587, 0.02577735111117363, 0.001418285071849823, -0.04516282305121422, 0.11709664016962051, 0.10025449842214584, -0.012147150933742523, -0.02110326662659645, -0.06975226104259491, -0.0033026374876499176, 0.0628959909081459, 0.0210968516767025, 0.10784778743982315, 0.04128573462367058, -0.000870533287525177, 0.0961536318063736, 0.11121560633182526], [-0.06751043349504471, 0.006634455639868975, 0.036312270909547806, 0.0897073969244957, -0.050782397389411926, 0.047204915434122086, 0.023295611143112183, 0.012934312224388123, 0.023653768002986908, 0.000288449227809906, 0.04978847876191139, 0.026500001549720764, 0.004108775407075882, -0.025733843445777893, -0.0030169934034347534, 0.10006571561098099, -0.043090034276247025, 0.052636317908763885, -0.091419517993927, -0.08575316518545151], [0.0055889710783958435, 0.03885052353143692, 0.0507982037961483, 0.07200013846158981, 0.00541728176176548, 0.16444775462150574, -0.03445960953831673, -0.07365716248750687, -0.028974946588277817, -0.0012656599283218384, -0.051814429461956024, 0.06534276157617569, 0.06711689382791519, 0.06604180485010147, 0.0035029277205467224, -0.04207223281264305, 0.08949489891529083, -0.11844470351934433, -0.011751428246498108, -0.04404986649751663], [0.013198740780353546, 0.012619739398360252, 0.13381639122962952, -0.02374664507806301, 0.018667515367269516, -0.0014625340700149536, -0.02517598122358322, 0.06627755612134933, -0.03204410895705223, 0.03783375024795532, -0.025590796023607254, 0.07472281157970428, -0.09547313302755356, 0.06035539135336876, 0.011663070879876614, -0.10006920993328094, 0.09424097090959549, -0.06429095566272736, 0.02350791171193123, -0.10665419697761536], [0.030038857832551003, 0.05049418285489082, 0.07463690638542175, 0.0036109518259763718, -0.05768514424562454, 0.011256784200668335, -0.0718507319688797, 0.10603657364845276, 0.1202603355050087, 0.0191628560423851, -0.04037778079509735, -0.03984392061829567, 0.055943846702575684, -0.06291171163320541, -0.0007121777161955833, 0.00400889664888382, 0.13329583406448364, 0.05007267743349075, -0.03541797026991844, -0.058830078691244125], [-0.05907227843999863, -0.10339147597551346, 0.023229140788316727, -0.04844082146883011, -0.05287347361445427, 0.13645820319652557, -0.10819625854492188, -0.06217022240161896, -0.015619979240000248, 0.015837183222174644, -0.04267852008342743, -0.00039506517350673676, 0.05997409671545029, -0.020058823749423027, 0.036905791610479355, 0.03830951452255249, 0.07547709345817566, 0.008956486359238625, 0.0862264633178711, -0.012138910591602325], [0.05938149616122246, -0.0523446761071682, -0.022540559992194176, 0.04737896844744682, -0.00755638163536787, 0.09701650589704514, 0.04903797060251236, 0.05449867248535156, -0.12693023681640625, -0.05737961456179619, -0.06554267555475235, -0.09840112924575806, -0.0016111470758914948, 0.060899268835783005, -0.07546030730009079, 0.020992061123251915, 0.06492199748754501, 0.0021762154065072536, 0.05491908639669418, 0.0022427821531891823], [0.09030265361070633, 0.04737672582268715, 0.06681276857852936, -0.13728290796279907, 0.04353928938508034, -0.03719543293118477, 0.12583288550376892, 0.04520632326602936, -0.09063048660755157, -0.07625765353441238, 0.048858221620321274, 0.06736619025468826, -0.028053879737854004, 0.004853207617998123, -0.006548430770635605, -0.04010900855064392, -0.06236694008111954, 0.09138744324445724, -0.024130631238222122, 0.04128117114305496], [-0.08040561527013779, -0.047860920429229736, 0.0007722862064838409, -0.1241399496793747, -0.07459596544504166, 0.01812601462006569, 0.03047461435198784, -0.05081997066736221, -0.05088072642683983, 0.00020295754075050354, -0.014379828236997128, -0.008642975240945816, 0.022640977054834366, -0.02507733926177025, 0.0063056331127882, 0.07701371610164642, 0.0015500709414482117, -0.006183932069689035, 0.05620364099740982, -0.10043836385011673], [-0.042181506752967834, 0.03112216107547283, 0.06278569996356964, -0.043352462351322174, 0.05487484857439995, 0.06424131989479065, 0.061195142567157745, -0.04030868411064148, -0.06410446763038635, -0.022521894425153732, -0.06651299446821213, 0.14848721027374268, 0.05449572578072548, 0.0005256049335002899, 0.055471744388341904, -0.008478477597236633, 0.0202004574239254, 0.01970888301730156, -0.03443606197834015, 0.006552610546350479], [0.027295473963022232, -0.08715136349201202, -0.05893968790769577, 0.09003099799156189, -0.03705476224422455, -0.048108216375112534, 0.035863496363162994, 0.003369750455021858, 0.07782711088657379, 0.05059830844402313, 0.04158485680818558, 0.03168901428580284, -0.09215722978115082, 0.0266764797270298, -0.0017360299825668335, 0.037284962832927704, -0.03188617527484894, -0.08334504812955856, 0.027717119082808495, 0.05823299661278725], [-0.06406529247760773, 0.10676710307598114, -0.07375279814004898, 0.13552692532539368, 0.04586855694651604, -0.0017026923596858978, 0.023192094638943672, 0.06780104339122772, -0.02226688340306282, 0.0740521252155304, 0.04156859964132309, -0.014531634747982025, -0.02033543586730957, 0.029492244124412537, 0.005835937801748514, 0.007035963237285614, -0.0793720930814743, 0.10424886643886566, -0.015915997326374054, 0.01144939474761486], [-0.14519575238227844, -0.07293727993965149, 0.01610703021287918, -0.05999601632356644, 0.08276422321796417, -0.0631445124745369, 0.08298742771148682, 0.1786271184682846, 0.08048994839191437, -0.06868168711662292, -0.06807371228933334, -0.009773853234946728, -0.04285874590277672, 0.0458470918238163, 0.10302810370922089, 0.026832178235054016, -0.04821920022368431, -0.05541938170790672, -0.10739795863628387, 0.03030000627040863], [-0.0381409116089344, -0.05903514847159386, -0.011125192046165466, 0.0001443680375814438, -0.0298532173037529, -0.009162875823676586, -0.04172477498650551, 0.011874670162796974, 0.04113436117768288, 0.09964098036289215, 0.011818216182291508, 0.04945627599954605, 0.08061005920171738, 0.09859481453895569, 0.0603300966322422, 0.042911116033792496, 0.06902278959751129, -0.010638763196766376, 0.010008282959461212, -0.06898713856935501], [0.0511859767138958, -0.005380840972065926, 0.0012396778911352158, 0.05882251262664795, 0.014460830949246883, 0.06880266219377518, -0.12422521412372589, 0.0015165023505687714, -0.0073855165392160416, 0.028212781995534897, -0.0397987887263298, -0.0181967094540596, -0.019116654992103577, 0.04288116842508316, -0.0068932026624679565, 0.12327487021684647, -0.05298129469156265, 0.12039986997842789, 0.051013052463531494, 0.0579804927110672], [-0.04134318605065346, -0.0471949465572834, -0.10725104808807373, -0.03857986629009247, 0.026837119832634926, -0.031123196706175804, 0.003430761396884918, -0.04707701876759529, 0.035319842398166656, -0.03233783692121506, -0.01261320523917675, 0.07435368001461029, -0.08362798392772675, -0.027423668652772903, -0.026448559015989304, 0.039859287440776825, 0.15808793902397156, -0.01858745887875557, 0.07018648087978363, 0.026261528953909874], [0.01645602285861969, -0.09921794384717941, -0.1156054139137268, -0.036947138607501984, 0.011769669130444527, -0.08136352151632309, -0.12098948657512665, 0.05153203755617142, -0.003375411033630371, 0.00524741318076849, 0.05419747158885002, -0.0940229520201683, -0.08639675378799438, 0.09382593631744385, -0.02147424966096878, -0.013747530058026314, 0.055694300681352615, 0.0008554851519875228, -0.016557812690734863, 0.07617762684822083], [0.06277316808700562, -0.023137541487812996, 0.0037547722458839417, -0.0771104022860527, 0.09965375065803528, -0.020038919523358345, 0.06639748811721802, 0.056240927428007126, 0.1252603530883789, -0.037023089826107025, 0.03899460285902023, -0.004525507800281048, -0.08813592791557312, -0.12145423889160156, 0.08559566736221313, -0.12494614720344543, -0.09341888129711151, -0.01394287496805191, 0.01214776374399662, 0.03634904325008392], [-0.14643630385398865, -0.09229574352502823, 0.09771611541509628, -0.05006254464387894, 0.03406627103686333, 0.05955177918076515, 0.04650327190756798, -0.012036500498652458, -0.04055178537964821, 0.08516648411750793, -0.09093889594078064, 0.08626262843608856, -0.11627896130084991, -0.05014106258749962, 0.12025041878223419, -0.006206423044204712, -0.00833847001194954, 0.009371746331453323, 0.005566366016864777, -0.0285949669778347], [-0.09654980897903442, 0.13496100902557373, -0.01926996000111103, -0.037338849157094955, 0.051587723195552826, -0.11185314506292343, -0.059259094297885895, 0.04720918834209442, 0.02214440517127514, -0.020035680383443832, -0.027979286387562752, 0.0038046278059482574, -0.057554058730602264, -0.07556389272212982, 0.007929680868983269, 0.11652638763189316, -0.04922357201576233, -0.03632093220949173, -0.07654768228530884, 0.044835165143013], [-0.1047699972987175, -0.03202059492468834, -0.00836503878235817, -0.0051765115931630135, -0.042350877076387405, 0.0160076804459095, -0.13749368488788605, 0.03093777224421501, -0.014848370105028152, -0.03376186266541481, -0.06441092491149902, -0.004483552183955908, 0.12420202046632767, 0.01753469929099083, -0.06646741926670074, -0.06665801256895065, -0.09366776049137115, -0.013710550963878632, -0.05838736891746521, 0.021624809131026268], [0.09625175595283508, -0.0007257154211401939, -0.012498382478952408, 0.048196762800216675, -0.018234528601169586, 0.046710893511772156, 0.006700232625007629, -0.04292477294802666, -0.0320148803293705, -0.023162759840488434, 0.03455700725317001, 0.0004549305886030197, -0.020904220640659332, 0.07899259030818939, -0.0403822585940361, 0.12920603156089783, 0.004238521680235863, 0.027385292574763298, 0.011841859668493271, 0.10740332305431366], [0.0513802096247673, 0.017774928361177444, 0.01288234069943428, 0.03328968212008476, -0.10733112692832947, -0.051691874861717224, 0.07070554792881012, 0.07268692553043365, -0.04959293454885483, 0.020728617906570435, -0.005549888126552105, -0.0022225789725780487, -0.04030118137598038, 0.06912145018577576, 0.008783061057329178, 0.06830556690692902, 0.020158706232905388, -0.09484614431858063, 0.09036235511302948, -0.015536473132669926], [-0.009035997092723846, -0.013552367687225342, 0.06992139667272568, -0.06532792747020721, 0.017207790166139603, -0.14582771062850952, -0.05557820200920105, -0.04513655602931976, -0.08965565264225006, 0.08928292989730835, 0.07911273837089539, 0.002485414734110236, -0.08316799998283386, -0.07032103836536407, 0.11512202024459839, -0.10021262615919113, 0.03305999934673309, 0.009421102702617645, -0.037470631301403046, -0.012704716064035892], [0.031042486429214478, 0.07684560120105743, -0.09643398225307465, -0.02791697531938553, -0.11772851645946503, -0.04394645616412163, 0.03305504471063614, 0.05929519981145859, -0.0036967387422919273, -0.05773532763123512, -0.06627466529607773, -0.052530914545059204, 0.06044789031147957, -0.009363693185150623, 0.09269760549068451, -0.04129517078399658, -0.04604485258460045, 0.02075309492647648, 0.000961807556450367, -0.0344691202044487], [0.017380665987730026, 0.1305176317691803, -0.06323698908090591, 0.02546912617981434, -0.053050100803375244, -0.03169839829206467, -0.013904005289077759, -0.009125761687755585, -0.014269471168518066, 0.0858476385474205, 0.044174689799547195, -0.018260298296809196, 0.08433660119771957, -0.02637207694351673, -0.05150207132101059, -0.04563554376363754, 0.038364291191101074, -0.011044733226299286, -0.09316150844097137, -0.026126880198717117], [-0.007775589823722839, -0.05429784208536148, -0.03209921717643738, -0.04559280723333359, 0.09115705639123917, -0.0027469806373119354, 0.014572639018297195, -0.029006551951169968, 0.041680410504341125, -0.012009281665086746, -0.06512083113193512, 0.12804600596427917, -0.05823139473795891, 0.09098108112812042, 0.005260910838842392, 0.04669801890850067, 0.019596898928284645, -0.053750135004520416, 0.02214496023952961, -0.07038256525993347], [-0.02580350637435913, -0.08187159150838852, -0.11202709376811981, 0.055165622383356094, 0.00033315643668174744, 0.03958579897880554, 0.04185067489743233, 0.010860949754714966, -0.06616424769163132, 0.08067996799945831, 0.06925889849662781, 0.0570119209587574, -0.040938958525657654, -0.09260601550340652, 0.030253686010837555, 0.020978141576051712, -0.02506367117166519, -0.011381587013602257, 0.062421295791864395, 0.06718187779188156], [-0.0029480531811714172, 0.020226355642080307, -0.06481724977493286, -0.14245212078094482, -0.03578107804059982, -0.11773571372032166, 0.05019642412662506, 0.06738951057195663, 0.056476883590221405, -0.050426602363586426, 0.13590680062770844, -0.027433063834905624, 0.0048575252294540405, 0.042672790586948395, -0.04498288407921791, -0.012509100139141083, 0.058283731341362, -0.05523205175995827, 0.02191721647977829, 0.030559178441762924], [-0.0537697859108448, 0.05111005902290344, 0.0023620687425136566, 0.005376938730478287, 0.030184553936123848, 0.008078888058662415, -0.13936978578567505, 0.05976143851876259, -0.007775448262691498, -0.009462114423513412, -0.08857298642396927, -0.0214140135794878, 0.014316577464342117, -0.023498397320508957, 0.02201971970498562, 0.06885147094726562, 0.08349829912185669, 0.03031802736222744, 0.06686796247959137, 0.051742225885391235], [-0.005777327343821526, 0.05339856073260307, 0.10686297714710236, 0.05536706745624542, -0.06373926252126694, -0.09425048530101776, -0.014664577320218086, -0.05743502080440521, -0.024030465632677078, 0.0667448490858078, 0.05504126846790314, -0.0035761939361691475, -0.09092582762241364, -0.11009818315505981, -0.002395808696746826, 0.009059354662895203, -0.03643672168254852, -0.026622284203767776, -0.07939524948596954, -0.043279197067022324], [-0.0026059355586767197, -0.009872321039438248, 0.10920729488134384, 0.08085526525974274, 0.029125375673174858, 0.07414278388023376, -0.056055355817079544, 0.05523722246289253, -0.035730138421058655, -0.0580594539642334, 0.0794442668557167, 0.021181171759963036, 0.1300613433122635, 0.146612286567688, -0.07118333131074905, -0.026806535199284554, -0.0532689206302166, 0.11817361414432526, 0.12290798127651215, -0.05555412545800209], [-0.009286373853683472, -0.0028537011239677668, 0.10565249621868134, 0.06912636011838913, 0.09150750935077667, -0.02201305516064167, -0.0056930892169475555, -0.0027247387915849686, -0.04804869741201401, 0.009580686688423157, -0.0074849436059594154, -0.009064767509698868, 0.06243859604001045, -0.022630490362644196, -0.11451210081577301, -0.04964732006192207, 0.08819910883903503, 0.04159333556890488, 0.06053105741739273, -0.1417417675256729], [-0.09014235436916351, -0.13521721959114075, -0.013829752802848816, 0.02280621975660324, 0.10612597316503525, -0.008604563772678375, -0.035531915724277496, 0.04932987317442894, 0.014637745916843414, 0.022814374417066574, -0.11115207523107529, 0.018999744206666946, -0.026954667642712593, -0.07565595209598541, -0.1032717227935791, 0.0802140012383461, -0.10534776002168655, -0.11748690903186798, -0.02300545945763588, -0.00704772025346756], [0.005507181864231825, 0.15536923706531525, -0.07353810966014862, -0.004681896418333054, -0.0511917807161808, 0.09883760660886765, 0.056359536945819855, -0.09097445011138916, -0.04123144969344139, -0.04532039538025856, 0.020478203892707825, 0.003507617861032486, -0.11871974915266037, -0.06541716307401657, -0.002553193364292383, 0.022305231541395187, -0.005021213553845882, -0.20957225561141968, -0.055436354130506516, 0.012602001428604126], [-0.06939636915922165, 0.09312700480222702, 0.05399409681558609, -0.08786660432815552, -0.0764293521642685, -0.08031085133552551, 0.007954046130180359, 0.0005715973675251007, -0.029656197875738144, 0.003482520580291748, -0.04100644588470459, -0.04053066670894623, 0.006669789087027311, 0.007486019283533096, 0.0476546511054039, -0.11411533504724503, 0.08032823354005814, 0.03873388096690178, 0.018066899850964546, 0.04180744290351868], [0.03661223128437996, -0.027683287858963013, -0.05063890665769577, 0.011972419917583466, 0.06638079881668091, 0.02340778335928917, 0.07401622831821442, 0.027416206896305084, 0.04779092222452164, -0.014929256401956081, -0.1675279587507248, -0.08930773288011551, 0.030233150348067284, 0.04617457464337349, 0.10186529159545898, -0.021042373031377792, -0.05694498494267464, -0.004935943987220526, -0.04131915047764778, 0.0339110791683197], [-0.016948137432336807, 0.0748249962925911, -0.07389767467975616, 0.17265015840530396, 0.057553716003894806, 0.03154381364583969, 0.07271461188793182, -0.10308632254600525, -0.10042232275009155, -0.03607039526104927, 0.09543826431035995, 0.04390620440244675, 0.0013145003467798233, -0.07484591007232666, -0.0362715944647789, -0.05363430455327034, 0.05624585598707199, -0.002222113311290741, 0.048640020191669464, 0.0686367079615593], [0.01972409337759018, -0.048072561621665955, -0.08562597632408142, 0.01625935360789299, -0.005964212119579315, -0.031225863844156265, -0.10395513474941254, -0.01607363298535347, 0.060705944895744324, -0.032255880534648895, 0.11820285022258759, -0.01759040355682373, -0.18210497498512268, 0.049075931310653687, -0.050284117460250854, 0.020324304699897766, -0.002270963042974472, 0.03117777593433857, 0.006748795509338379, -0.05314459651708603], [0.021132241934537888, -0.09181816130876541, -0.1184014230966568, 0.10782285034656525, 0.0638670027256012, -0.08489520847797394, -0.020209606736898422, 0.0821165069937706, -0.03770251199603081, 0.1247929036617279, -0.06517457216978073, 0.08255000412464142, 0.023042844608426094, -0.09259024262428284, -0.07275283336639404, -0.03021763265132904, 0.06111602485179901, 0.023818500339984894, 0.05930570513010025, -0.04665353149175644], [0.023236673325300217, 0.07925690710544586, 0.049346163868904114, 0.06314148753881454, -0.08875984698534012, -0.11917321383953094, 0.026649419218301773, -0.0045378562062978745, 0.11678362637758255, 0.07607170194387436, 0.1032109409570694, -0.019309360533952713, 0.03189144656062126, -0.034479063004255295, -0.08726584166288376, -0.019619498401880264, -0.051818426698446274, -0.08494368940591812, -0.0999295711517334, 0.09966014325618744], [-0.006459034979343414, -0.02458551712334156, 0.06853419542312622, -0.0805499330163002, 0.02567443437874317, 0.03733537718653679, -0.0666719451546669, -0.011172881349921227, 0.02256949245929718, -0.010749353095889091, -0.05551211163401604, 0.08049281686544418, 0.03594839200377464, -0.059545617550611496, 0.058468472212553024, 0.011056309565901756, -0.009224256500601768, 0.05033368617296219, -0.03722068667411804, -0.06814494729042053], [0.057688795030117035, 0.05817265063524246, 0.05379539728164673, 0.04433901607990265, 0.01939447596669197, -0.04852427542209625, 0.039847441017627716, 0.06895115971565247, 0.0445777028799057, -0.036450907588005066, -0.0801096186041832, 0.13245254755020142, 0.008035354316234589, 0.04515311121940613, 0.16830755770206451, 0.020316481590270996, 0.01478864997625351, 0.0017000716179609299, 0.03880911320447922, -0.05880695581436157], [-0.06752107292413712, -0.005302775651216507, -0.0083743492141366, 0.03690502047538757, -0.045674584805965424, -0.03648807480931282, 0.004294753074645996, 0.02299475483596325, -0.03195797652006149, -0.0754854679107666, 0.043420467525720596, -0.027302101254463196, 0.024357469752430916, -0.08612607419490814, 0.0554293692111969, 0.11163798719644547, -0.074422188103199, -0.07892370969057083, -0.06156548485159874, 0.04723503440618515], [0.03153805062174797, -0.012987380847334862, -0.04295020550489426, -0.05100678652524948, -0.06770225614309311, 0.08152935653924942, 0.0551578663289547, 0.017205169424414635, 0.013050594367086887, 0.042750198394060135, 0.014569129794836044, -0.0010273009538650513, -0.04777342826128006, -0.018810627982020378, 0.028682591393589973, -0.032476384192705154, -0.09263056516647339, -0.02885325253009796, -0.10447996854782104, 0.0736578181385994], [0.00040275417268276215, 0.018315119668841362, -0.09394959360361099, 0.11738213896751404, -0.058178700506687164, 0.004899521823972464, -0.08520370721817017, 0.09605924040079117, -0.1368836760520935, -0.02434057742357254, 0.0496390163898468, 0.03734986484050751, 0.08191785216331482, -0.01940404623746872, -0.006608281284570694, 0.005240071564912796, -0.031827785074710846, 0.08189588785171509, -0.0037687383592128754, 0.05798310786485672], [0.034360066056251526, -0.07975072413682938, 0.06414908915758133, -0.036130428314208984, -0.011907173320651054, 0.007499735802412033, 0.010772167704999447, -0.005305435508489609, 0.009121999144554138, -0.02892683446407318, 0.03642299026250839, 0.01839449256658554, -0.025140974670648575, 0.03530687466263771, 0.004110775887966156, 0.00965850055217743, -0.051072847098112106, -0.011819291859865189, 0.02915334515273571, 0.04340004175901413], [0.009062642231583595, -0.1393246054649353, -0.08332009613513947, 0.003627445548772812, -0.06921045482158661, 0.06664521992206573, -0.07093851268291473, -0.039310671389102936, 0.038238201290369034, -0.056851260364055634, 0.0317777618765831, 0.015391020104289055, -0.008383318781852722, -0.14531022310256958, 0.019375674426555634, -0.07952896505594254, 0.13160216808319092, 0.024601317942142487, 0.034786902368068695, 0.050293225795030594], [-0.1573260873556137, -0.06262993067502975, 0.03387986123561859, -0.06760820746421814, 0.07094866037368774, -0.12758538126945496, 0.021750375628471375, 0.08555416762828827, 0.024132296442985535, -0.013622615486383438, -0.0004116371273994446, -0.017049938440322876, -0.015713732689619064, -0.09464401006698608, -0.028778331354260445, -0.0090593621134758, -0.06308793276548386, -0.040499307215213776, -0.09240654855966568, -0.019462453201413155], [0.0037867678329348564, 0.0003391578793525696, 0.06108758598566055, 0.08429421484470367, 0.09877060353755951, -0.008920565247535706, 0.013336453586816788, 0.1860138475894928, -0.03283153474330902, -0.0155093465000391, 0.021769177168607712, -0.032210834324359894, -0.07442016154527664, 0.012754477560520172, -0.04607971012592316, 0.01945594698190689, 0.12070001661777496, -0.009130187332630157, 0.044522807002067566, -0.02738611027598381], [-0.038200583308935165, -0.04579206928610802, -0.021221540868282318, 0.07437338680028915, 0.06180683895945549, -0.004759933799505234, 0.12990112602710724, 0.06117796152830124, -0.0817316323518753, 0.0015676692128181458, -0.08519764244556427, 0.06773842126131058, 0.08728452026844025, 0.06008715555071831, 0.04736440256237984, 0.055203452706336975, 0.05799487605690956, 0.007091926410794258, 0.021547894924879074, 0.030544331297278404], [-0.08024611324071884, 0.05753277242183685, -0.007390258368104696, -0.04626103490591049, 0.041593585163354874, 0.021270684897899628, 0.042164891958236694, 0.12001994997262955, -0.018382053822278976, -0.08440275490283966, -0.06371206045150757, 0.06849606335163116, -0.06568609923124313, 0.06993187963962555, -0.061609625816345215, -0.035396698862314224, 0.09044050425291061, -0.035079654306173325, 0.09995315223932266, -0.015446016564965248], [-0.02544742450118065, 0.07729911804199219, 0.059863172471523285, -0.045846398919820786, -0.07675440609455109, 0.044514160603284836, -0.02884736657142639, -0.12198682129383087, -0.08697331696748734, -0.026800569146871567, 0.038519486784935, -0.013902116566896439, -0.0199915561825037, 0.004281159490346909, -0.0034008100628852844, 0.09061412513256073, 0.05689438432455063, -0.08885899931192398, -0.12566302716732025, -0.0039900317788124084], [-0.001252107322216034, -0.024404674768447876, -0.06437502801418304, 0.04986840486526489, 0.02422717958688736, -0.06945863366127014, -0.021288229152560234, 0.08474840223789215, 0.1583286076784134, 0.015060646459460258, -0.13010171055793762, 0.042900118976831436, -0.06319985538721085, -0.0009132027626037598, -0.06563949584960938, 0.048179224133491516, 0.12164986878633499, 0.07109606266021729, -0.01597026363015175, 0.0107329823076725], [0.0020842617377638817, -0.06330732256174088, -0.07750800997018814, -0.07503720372915268, 0.0747661292552948, -0.11519898474216461, 0.07307712733745575, 0.027891531586647034, -0.03815732151269913, -0.04145492613315582, 0.04458637535572052, -0.03774258866906166, -0.004246555268764496, -0.12648577988147736, 0.11749871075153351, 0.03175904601812363, 0.010613466612994671, -0.03618498146533966, -0.15316472947597504, 0.025883574038743973], [-0.0242684967815876, 0.05115179717540741, -0.001737847924232483, 0.018404152244329453, 0.0039844391867518425, -0.038501061499118805, 0.012034740298986435, 0.07416921108961105, 0.03645752742886543, 0.08203864842653275, 0.031692299991846085, -0.003156537190079689, -0.02500338852405548, 0.030603351071476936, 0.04791969433426857, 0.10941656678915024, -0.03989941626787186, -0.14657610654830933, 0.029466234147548676, -0.050332460552453995], [-0.030516810715198517, -0.03841230273246765, -0.03574499487876892, -0.08106211572885513, -0.1539982110261917, -0.0536799356341362, -0.09558822214603424, 0.025423089042305946, 0.07522791624069214, 0.026739612221717834, -0.003154626116156578, 0.038012146949768066, -0.07616067677736282, 0.0945466086268425, 0.010790074244141579, 0.042854536324739456, 0.05637897551059723, -0.06567203998565674, 0.05462489277124405, 0.030883625149726868], [-0.05382417142391205, 0.021346284076571465, 0.10989207029342651, 0.07841832935810089, -0.08005298674106598, -0.011527128517627716, 0.09725819528102875, -0.02987305074930191, 0.033535029739141464, -0.05295784771442413, -0.008591136895120144, 0.032984066754579544, -0.05351528897881508, -0.06138899177312851, 0.08255463093519211, -0.02263432741165161, 0.00433865562081337, 0.09923958778381348, 0.08243680000305176, 0.022931711748242378], [0.047880105674266815, 0.0007363054901361465, -0.06197552755475044, 0.07070363312959671, 0.03095414862036705, 0.03750903531908989, -0.07268167287111282, 0.055697113275527954, 0.019566204398870468, -0.04910573363304138, 0.010198622941970825, 0.12562036514282227, -0.024812374264001846, 0.04234004765748978, 0.04772210493683815, 0.01952844113111496, -0.0220121368765831, -0.03524363785982132, 0.02949495241045952, 0.0031149229034781456], [-0.03031274303793907, 0.026968829333782196, 0.025727171450853348, 0.055129822343587875, 0.04233839362859726, 0.022519521415233612, -0.05542297661304474, -0.007688968908041716, 0.044992368668317795, 0.002691909670829773, -0.024302206933498383, -0.05240638181567192, -0.06184803321957588, 0.053962867707014084, -0.0158408023416996, 0.0816333144903183, -0.014340177178382874, -0.05612071603536606, -0.061898134648799896, -0.030757585540413857], [-0.061387933790683746, -0.032911431044340134, 0.07517701387405396, -0.046955812722444534, 0.14472541213035583, -0.026565102860331535, -0.10628443956375122, -0.09846130013465881, 0.04288427159190178, 0.0993606448173523, -0.09082378447055817, -0.0056490227580070496, 0.014036765322089195, 0.06563436985015869, 0.04276227951049805, 0.08986009657382965, 0.11134250462055206, -0.007745928131043911, -0.10152946412563324, 0.0017662877216935158], [0.034175701439380646, 0.00164688378572464, -0.06338109076023102, -0.042009033262729645, -0.0015214905142784119, 0.028831465169787407, -0.014109961688518524, -0.08213694393634796, -0.03960021212697029, -0.09479828178882599, -0.034969180822372437, 0.07067721337080002, 0.02038310095667839, 0.029496122151613235, 0.11682336032390594, 0.0071252742782235146, -0.021973608061671257, 0.0944385826587677, -0.021100347861647606, -0.030356377363204956], [0.07015897333621979, 0.10841226577758789, 0.05568036064505577, -0.10411732643842697, -0.012157998979091644, 0.02092287689447403, 0.0056530386209487915, -0.04264944791793823, 0.022350825369358063, -0.04147833585739136, -0.035637468099594116, -0.020692788064479828, 0.018521929159760475, -0.02590056136250496, 0.0854378342628479, 0.07691225409507751, -0.008158940821886063, 0.002749446779489517, 0.02699289098381996, 0.03284549340605736], [-0.026034008711576462, -0.14330624043941498, -0.001002708449959755, 0.009759576059877872, 0.016699036583304405, -0.06868889927864075, -0.09472465515136719, 0.04386230558156967, -0.07118186354637146, 0.05077340453863144, -0.01368040218949318, -0.12232009321451187, -0.025096459314227104, 0.02833087556064129, -0.04003237187862396, -0.00333191710524261, -0.02844388037919998, -0.019392505288124084, -0.009586819447577, -0.027081772685050964], [-0.04631377384066582, 0.009473510086536407, -0.002389201894402504, 0.00877218134701252, -0.008250957354903221, -0.08936989307403564, 0.07969372719526291, -0.029904549941420555, 0.1253034472465515, 0.032541390508413315, -0.05338741093873978, 0.03885137662291527, 0.029399365186691284, 0.04454411566257477, -0.05260642617940903, 0.08036845922470093, 0.016237402334809303, -0.0719233825802803, 0.008670219220221043, -0.036301858723163605], [0.0016942322254180908, 0.02862795814871788, -0.06493761390447617, -0.00196722149848938, 0.07111507654190063, 0.08827297389507294, -0.07771342992782593, 0.03324421867728233, -0.01799020543694496, -0.09496821463108063, -0.08448207378387451, -0.10648874938488007, 0.05420217663049698, -0.06874752789735794, -0.01395193487405777, 0.054314397275447845, -0.01164817251265049, -0.016407588496804237, -0.019352808594703674, 0.015460282564163208], [0.09555578231811523, -0.056028421968221664, -0.09642299264669418, 0.008363045752048492, -0.1265794187784195, -0.006430219858884811, 0.06451261043548584, -0.005058775190263987, 0.020522164180874825, 0.020819425582885742, 0.002546717179939151, 0.05717920884490013, -0.018539682030677795, -0.03782445192337036, 0.056081801652908325, -0.11711908876895905, 0.0119785126298666, -0.049784041941165924, 0.11067913472652435, -0.07120969891548157], [0.02074320614337921, -0.024128230288624763, -0.12286178767681122, 0.01753297634422779, -0.01377381756901741, 0.005362918134778738, 0.05898883566260338, -0.03663292154669762, 0.02704159915447235, 0.027992762625217438, 0.03477434068918228, -0.06986978650093079, -0.11897577345371246, -0.03707423061132431, 0.1315496414899826, -0.024486757814884186, -0.0560002401471138, 0.0689903125166893, -0.008775681257247925, -0.005110220983624458], [-0.05295396223664284, -0.09915271401405334, -0.001134457066655159, -0.012314765714108944, 0.018406730145215988, -0.07428732514381409, -0.03072233684360981, -0.06093194708228111, -0.10716773569583893, 0.027639321982860565, -0.024435482919216156, -0.011869769543409348, -0.05116803199052811, 0.028164885938167572, 0.11924614012241364, 0.002290230244398117, 0.04708369821310043, 0.03369717672467232, 3.190338611602783e-05, 0.008184559643268585], [0.05223298445343971, -0.0418395921587944, 0.0467393584549427, 0.06362220644950867, -0.03748929873108864, 0.10597124695777893, 0.029297320172190666, -0.060651835054159164, 0.04928874969482422, -0.1048564463853836, 0.0031640026718378067, 0.042250752449035645, -0.0151298139244318, 0.02101343683898449, 0.14831769466400146, 0.06819851696491241, 0.11669251322746277, 0.06958325207233429, 0.08539588749408722, -0.03871835023164749], [-0.11243878304958344, -0.02124854549765587, 0.08554966002702713, -0.047890808433294296, -0.0485503114759922, 0.0014226250350475311, 0.15687760710716248, 0.035993777215480804, 0.020244594663381577, 0.0398106575012207, 0.02468075230717659, -0.0030387472361326218, -0.033074166625738144, 0.0222922470420599, 0.0915604680776596, 7.596099749207497e-05, 0.006915237754583359, 0.06626411527395248, 0.09018780291080475, 0.004902532324194908], [-0.043932780623435974, 0.020018473267555237, -0.005983816459774971, -0.04482268542051315, 0.017070956528186798, -0.034291163086891174, 0.05070061981678009, 0.07864117622375488, 0.03378946706652641, 0.032683100551366806, 0.0034452341496944427, -0.026237159967422485, 0.060360029339790344, -0.05575237423181534, 0.14072057604789734, 0.017025481909513474, -0.05819307267665863, 0.05245095118880272, -0.0031352490186691284, -0.015426374971866608], [0.07611704617738724, -0.01719588413834572, -0.06846031546592712, -0.015261494554579258, -0.001268615946173668, 0.043674904853105545, -0.08597677946090698, -0.07495088875293732, -0.04287362098693848, 0.03546541556715965, 0.03830062970519066, -0.12854591012001038, -0.05039461702108383, -0.03308628499507904, 0.06641172617673874, 0.15852804481983185, -0.04816792905330658, -0.0990762710571289, -0.048371993005275726, -0.013987472280859947], [0.028848374262452126, 0.04909636080265045, -0.06286395341157913, -0.11731616407632828, -0.022953642532229424, -0.03363308310508728, -0.0020880401134490967, 0.049472928047180176, -0.030239049345254898, 0.01725700870156288, 0.11116790026426315, -0.04792247712612152, 0.0361655168235302, 0.10014189034700394, 0.04084094986319542, 0.07977133989334106, 0.03901810199022293, 0.045248810201883316, 0.07854574173688889, -0.023127306252717972], [0.014278069138526917, -0.04843554273247719, 0.09002138674259186, -0.03694944083690643, 0.07910974323749542, -0.04534992575645447, 0.09394805878400803, 0.10585451126098633, 0.04426106810569763, -0.011923491954803467, 0.02384638413786888, 0.0946836769580841, 0.004055105149745941, -0.06866703182458878, 0.13443608582019806, -0.014018971472978592, -0.09392375499010086, -0.023348387330770493, -0.018956439569592476, 0.031051956117153168], [-0.02736491709947586, -0.008433334529399872, 0.024395328015089035, 0.023161523044109344, 0.0651242733001709, 0.01859472319483757, -0.0976543128490448, 0.005421340465545654, -0.02080610767006874, -0.1369735300540924, 0.11061392724514008, 0.028591817244887352, -0.013677164912223816, 0.0619608573615551, -0.12787772715091705, 0.025443384423851967, 0.06900204718112946, 0.0007714591920375824, -0.0376894511282444, 0.037007030099630356], [0.04880695790052414, -0.03413260355591774, 0.04004528746008873, 0.017324257642030716, -0.030916208401322365, -0.0743180513381958, -0.0026802625507116318, -0.06463557481765747, -0.08503870666027069, 0.012340482324361801, -0.06771032512187958, -0.054851412773132324, -0.006998389959335327, -0.07938367128372192, -0.020896196365356445, 0.03289508819580078, 0.055136822164058685, -0.05642222240567207, -0.07827617228031158, -0.0056157344952225685], [-0.08163969218730927, 0.06151188164949417, -0.00635586678981781, -0.18755602836608887, 0.11138660460710526, 0.07031901180744171, -0.02397807314991951, 0.058663081377744675, 0.002373199909925461, -0.12292437255382538, 0.02327725477516651, 0.010318852961063385, -0.0017327885143458843, -0.05153719335794449, 0.014806315302848816, 0.14200946688652039, 0.005131971091032028, -0.06026294082403183, -0.010503984987735748, -0.05880076810717583], [0.04382936656475067, 0.06479749083518982, 0.009053058922290802, -0.036596789956092834, -0.027012478560209274, -0.14645321667194366, 0.07199503481388092, 0.08458659052848816, 0.04694262146949768, 0.1424577534198761, 0.06242702528834343, -0.04439861327409744, 0.011481909081339836, -0.044181883335113525, -0.05772232264280319, 0.00988741684705019, 0.029685134068131447, -0.10052648186683655, 0.02929128147661686, 0.08049700409173965], [-0.0784292221069336, 0.06012804061174393, -0.0308298971503973, 0.04894045740365982, -0.1354876309633255, 0.06663671135902405, -0.002270430326461792, 0.06904248893260956, -0.10718200355768204, 0.06850828230381012, -0.1026705875992775, 0.10261893272399902, -0.025438688695430756, 0.08275991678237915, 0.09785054624080658, -0.0346008837223053, 0.08254643529653549, 0.048921383917331696, 0.042728617787361145, 0.07984350621700287], [-0.007749099284410477, 0.04190851002931595, 0.0175260528922081, -0.019553912803530693, -0.030627120286226273, 0.06908120959997177, 0.03094768151640892, -0.030965182930231094, -0.05186455324292183, -0.019467227160930634, 0.04015696793794632, -0.07200382649898529, -0.012500597164034843, -0.015116071328520775, -0.04646153748035431, -0.054544392973184586, -0.025188805535435677, -0.01216678787022829, 0.001164848916232586, -0.04794947803020477], [-0.028832154348492622, -0.0796988382935524, 0.05353480204939842, -0.0352092906832695, -0.012434741482138634, -0.06612315773963928, -0.11909569799900055, 0.022732656449079514, -0.006461935117840767, 0.010380630381405354, 0.010762656107544899, -0.05163060873746872, 0.011324575170874596, -0.03112182766199112, -0.002961236983537674, 0.1357538104057312, -0.06642008572816849, 0.13525812327861786, -0.10897243022918701, 0.005141132045537233], [0.01436493918299675, 0.05315802991390228, -0.005358297377824783, 0.0045806244015693665, -0.02340560033917427, -0.004548799246549606, -0.04151462763547897, 0.08270549774169922, 0.04943716153502464, 0.009856509044766426, -0.04986125975847244, -0.01521146297454834, 0.08584219962358475, 0.04635246843099594, 0.06779033690690994, 0.01867295801639557, 0.10184438526630402, -0.024740831926465034, -0.009040625765919685, 0.01620374619960785], [0.009936593472957611, -0.0038744043558835983, 0.012076575309038162, -0.028046241030097008, 0.012697435915470123, 0.0231972336769104, 0.0665573701262474, 0.0522407628595829, 0.027102364227175713, -0.08759764581918716, -0.030680904164910316, 0.06275256723165512, 0.10306818783283234, 0.014508180320262909, 0.008533310145139694, 0.03474867716431618, -0.06251312792301178, 0.18335053324699402, 0.07651952654123306, -0.050006769597530365], [0.15798483788967133, 0.03824998438358307, 0.009286798536777496, 0.037427451461553574, 0.03048263117671013, 0.056598227471113205, -0.06202676519751549, 0.12056638300418854, -0.10138582438230515, -0.12041757255792618, -0.039061106741428375, -0.048596277832984924, 0.021410929039120674, 0.05701229348778725, -0.051507800817489624, -0.06698274612426758, 0.01195233128964901, -0.1295856088399887, 0.009071573615074158, -0.030691808089613914], [0.14504840970039368, 0.06671123206615448, -0.00014491006731987, 0.026384033262729645, -0.014975544065237045, -0.09735653549432755, 0.0540129728615284, 0.01898609846830368, 0.014623433351516724, 0.006293870508670807, -0.09926506131887436, -0.008278008550405502, -0.15950779616832733, 0.09328748285770416, -0.012724209576845169, -0.11339621245861053, -0.020666304975748062, -0.057054199278354645, -0.029819950461387634, 0.024120517075061798], [-0.053396712988615036, 0.009227177128195763, -0.04986897110939026, 0.047502193599939346, 0.05635853111743927, 0.01624874770641327, 0.00923822820186615, 0.07654134929180145, 0.015308093279600143, 0.10575313866138458, 0.10184542834758759, -0.02332952246069908, 0.04166403412818909, -0.0846678838133812, 0.09735538065433502, 0.00908870529383421, -0.03310755267739296, -0.05344367027282715, 0.007042027078568935, 0.020299751311540604], [0.015881024301052094, 0.07021236419677734, 0.03640451654791832, -0.06913360953330994, -0.033250413835048676, 0.15520939230918884, -0.012556677684187889, -0.029940500855445862, 0.029757805168628693, -0.10915187746286392, 0.022367171943187714, 0.0476735383272171, -0.018694398924708366, -0.011814773082733154, -0.02275463193655014, -0.012157117947936058, 0.01755273900926113, 0.01233640592545271, 0.016281627118587494, 0.06985282897949219], [-0.022640882059931755, -0.0646696537733078, 0.011322550475597382, 0.012446559965610504, 0.04917053133249283, 0.008561046794056892, -0.05361463874578476, -0.14203403890132904, 0.002385959029197693, 0.07590538263320923, -0.04382053017616272, 0.011322158388793468, -0.03427621349692345, 0.02464461326599121, -0.042394667863845825, -0.056723445653915405, 0.048985887318849564, 0.021270200610160828, -0.010380802676081657, 0.06244127079844475], [0.0017957426607608795, 0.045284174382686615, -0.010052120313048363, -0.000780448317527771, -0.0414399616420269, 0.04355943948030472, -0.0005369847640395164, 0.02377527952194214, 0.013055469840765, 0.025964748114347458, 0.02684127911925316, -0.0036744214594364166, 0.14107148349285126, -0.0326390415430069, 0.07226476818323135, 0.041469134390354156, 0.038835473358631134, -0.1438811719417572, -0.0020714937709271908, 0.03422160446643829], [-0.04666968807578087, -0.020069696009159088, 0.02443929761648178, 0.03494884818792343, -0.14654195308685303, 0.034672196954488754, 0.015983745455741882, 0.029853498563170433, -0.006678665056824684, -0.03596792742609978, -0.010739288292825222, 0.05462854355573654, 0.05599579960107803, 0.16455942392349243, 0.09894607961177826, -0.08587069809436798, -0.0201919786632061, -0.013421379029750824, -0.04966871812939644, -0.05613904446363449], [-0.08158043026924133, 0.005922935903072357, -0.18639105558395386, 0.03978545218706131, -0.05314105376601219, 0.05736242234706879, -0.021495573222637177, -0.015724986791610718, 0.07663976401090622, -0.019322456791996956, 0.01730974018573761, -0.003019556403160095, 0.013566140085458755, 0.09378205239772797, -0.006479017436504364, 0.021851709112524986, -0.13633428514003754, 0.0753864049911499, 0.06355901062488556, -0.012862778268754482], [-0.028175964951515198, 0.0764014944434166, 0.12447638809680939, -0.1278821974992752, 0.05713890492916107, 0.02892971597611904, 0.034663125872612, -0.016482532024383545, 0.16607223451137543, -0.05199397727847099, 0.0917542576789856, -0.09729843586683273, -0.10592164099216461, 0.043552249670028687, -0.04536004364490509, 0.021062269806861877, 0.10685165971517563, -0.01308203861117363, -0.061240289360284805, 0.009948649443686008], [-0.010121310129761696, -0.1612040102481842, 0.05194602161645889, -0.1283552199602127, -0.043307289481163025, -0.07464683055877686, -0.08350862562656403, -0.029058273881673813, -0.09008735418319702, -0.035628415644168854, 0.03175424784421921, -0.03863107040524483, -0.016570545732975006, -0.03775537386536598, 0.02983490750193596, 0.03128878399729729, -0.06873591989278793, 0.03303001821041107, -0.015963422134518623, 0.045344479382038116], [-0.04462425783276558, 0.054953478276729584, -0.07562670111656189, 0.09772583097219467, 0.12076003104448318, -0.027956143021583557, 0.07131686061620712, -0.04745751991868019, -0.026920046657323837, 0.06957321614027023, 0.07529515027999878, -0.018583398312330246, 0.07522586733102798, 0.004648616537451744, -0.14324674010276794, 0.05568033829331398, 0.06228925287723541, -0.003848932683467865, -0.05304519832134247, 0.04511652886867523], [0.003851698711514473, 0.028315357863903046, -0.01141752302646637, -0.09103504568338394, -0.059953927993774414, -0.03205742686986923, 0.043425269424915314, -0.03341249004006386, -0.07589731365442276, 0.10424663126468658, 0.06387021392583847, 0.12175536155700684, 0.016025062650442123, -0.01030268520116806, -0.001977836713194847, 0.012197652831673622, -0.0494246631860733, -0.012775536626577377, -0.010220598429441452, 0.007236626464873552], [-0.012974872253835201, 0.001745462417602539, -0.0028978995978832245, 0.010215569287538528, -0.0008289441466331482, -0.03717843070626259, -0.012392960488796234, 0.051460787653923035, -0.03862716257572174, 0.09533058106899261, -0.001249273307621479, 0.062057506293058395, 0.06243394687771797, -0.0262859296053648, -0.011638928204774857, 0.11776252090930939, 5.560740828514099e-05, 0.0666024386882782, -0.027177896350622177, -0.019199926406145096], [-0.03223775327205658, 0.05388887971639633, 0.06266997754573822, 0.009386519901454449, -0.04363825172185898, -0.02589932456612587, -0.06666824221611023, 0.023079948499798775, 0.06971365958452225, -0.06217767298221588, 0.028597401455044746, 0.07079069316387177, 0.09976671636104584, -0.14500227570533752, -0.11838358640670776, 0.15784254670143127, -0.02638610079884529, -0.11876943707466125, 0.019375838339328766, 0.0051764678210020065], [-0.007973819971084595, 0.053092747926712036, -0.0029561184346675873, -0.1531030535697937, 0.004288589581847191, -0.03752373903989792, -0.007599413860589266, -0.08507880568504333, -0.0755028948187828, 0.0012137629091739655, -0.0024174340069293976, -0.033590056002140045, 0.061484742909669876, -0.05890962481498718, 0.060414254665374756, 0.06376458704471588, -0.054986558854579926, 0.013420464470982552, 0.08190843462944031, -0.033521510660648346], [0.01604386419057846, -0.03300883248448372, 0.025077976286411285, 0.02066766284406185, 0.14033174514770508, -0.07338597625494003, 0.019871022552251816, 0.006822121795266867, 0.050772763788700104, -0.012988870963454247, 0.004867434501647949, -0.01836111955344677, 0.0018335444619879127, -0.08899813890457153, 0.0025028008967638016, -0.04168115556240082, 0.05110796540975571, 0.06997751444578171, 0.05081462487578392, 0.06619146466255188], [0.08404970914125443, 0.036431774497032166, -0.04125317186117172, 0.003373231738805771, 0.07716664671897888, -0.08430497348308563, -0.01891191676259041, -0.11031423509120941, -0.009593011811375618, 0.01431683823466301, 0.028832044452428818, 0.004212130792438984, 0.08310167491436005, 0.025799550116062164, 0.046973615884780884, -0.0026529282331466675, 0.0037946337834000587, 0.061241697520017624, -0.05402066186070442, -0.0012981593608856201], [-0.003989670425653458, -0.1466357707977295, -0.03214346617460251, -0.013662673532962799, 0.04938703030347824, 0.11151286959648132, 0.08367832005023956, -0.010839689522981644, 0.12014526128768921, 0.02539755031466484, -0.021756108850240707, 0.028225699439644814, -0.08011306077241898, 0.023556318134069443, -0.14275188744068146, -0.11742821335792542, 0.04588509351015091, -0.06025028973817825, 0.08315837383270264, -0.05022353678941727], [-0.01174752414226532, 0.10294841974973679, -0.05290699750185013, -0.02958845905959606, -0.013787804171442986, 0.040067754685878754, -0.019422132521867752, 0.05130086466670036, -0.04761222004890442, -0.08467671275138855, -0.04792587086558342, -0.007282706908881664, -0.04677464812994003, 0.05212372913956642, -0.06548517197370529, 0.03854440525174141, -0.0440131351351738, -0.05909135937690735, -0.002814941108226776, 0.018881909549236298]], "model.0.bias": [-0.08456118404865265, -0.07561686635017395, 0.02726835384964943, -0.02438330464065075, 0.03172017261385918, 0.0776004046201706, -0.06537244468927383, 0.021499430760741234, -0.1011887788772583, -0.05005297064781189, 0.023967862129211426, -0.007717525586485863, 0.018981782719492912, -0.008381078951060772, -0.03322501480579376, -0.05678088217973709, -0.07231950759887695, -0.0062620267271995544, -0.08600959181785583, -0.06018699333071709, 0.05926591530442238, -0.04643089324235916, -0.039956800639629364, 0.010245258919894695, 0.04412645474076271, -0.0701785683631897, -0.039801809936761856, -0.01523325964808464, 0.03912518545985222, -0.03342771902680397, 0.03238704055547714, -0.07646727561950684, -0.05521276593208313, -0.062150318175554276, -0.02590148150920868, -0.05576840788125992, -0.03641548752784729, 0.0005043670535087585, -0.0009764060378074646, -0.06904056668281555, 0.012168880552053452, -0.08774466812610626, 0.020695313811302185, -0.06822723895311356, -0.02008623071014881, 0.04504872113466263, 0.0042101070284843445, 0.05558770149946213, 0.05966075882315636, -0.08321365714073181, -0.07649429887533188, -0.0393054224550724, -0.016345947980880737, 0.010898454114794731, -0.04123819246888161, 0.0062950290739536285, -0.07681815326213837, 0.004850994795560837, 0.02336030825972557, 0.04278144985437393, -0.039230797439813614, -0.03787839040160179, 0.009895896539092064, 0.009039100259542465, -0.04244351387023926, -0.06159462779760361, -0.06923697888851166, -0.025829119607806206, 0.029406581073999405, -0.004343360662460327, -0.05444221943616867, -0.025737732648849487, 0.039703618735075, -0.029070336371660233, -0.09860812872648239, -0.036655671894550323, -0.06393373757600784, -0.00017179548740386963, -0.07689440995454788, -0.07084768265485764, -0.08388558030128479, -0.06950090825557709, -0.10024338215589523, -0.079976886510849, -0.0050860801711678505, 0.002892793156206608, -0.0444960743188858, 0.003505302593111992, -0.010870136320590973, -0.05479961261153221, -0.01744810864329338, -0.07042919099330902, 0.0030569008085876703, -0.07732406258583069, -0.0009115356951951981, -0.08563829958438873, 0.02260121889412403, -0.028340213000774384, -0.027660148218274117, -0.07214565575122833, 0.0004525939002633095, 0.006405245512723923, -0.11422964185476303, -0.05909018591046333, -0.019739780575037003, -0.06842510402202606, -0.06342783570289612, -0.10052675008773804, 0.017305955290794373, -0.055815547704696655, 0.009632064960896969, -0.004158311523497105, -0.07452505826950073, -0.05503957346081734, -0.04287583380937576, 0.059483371675014496, 0.03453455865383148, -0.05999082326889038, 0.019747981801629066, 0.02901214174926281, 0.06250607967376709, -0.04080292582511902, -0.11489544808864594, 0.029479149729013443, 0.042318180203437805, -0.0676984041929245, 0.05358344689011574, -0.10353066027164459], "model.2.weight": [[0.0008810162544250488, -0.03952324017882347, 0.03200645372271538, -0.06690973788499832, -0.006891082972288132, 0.004703214857727289, -0.014171630144119263, 0.043149784207344055, -0.004157648421823978, 0.009471035562455654, 0.036602750420570374, -0.018227290362119675, -0.005159653723239899, -0.04691706597805023, -0.06440194696187973, -0.06318554282188416, -0.051642224192619324, 0.028530072420835495, 0.001277359202504158, 0.0392354354262352, 0.05067571625113487, 0.022102201357483864, 0.0133805051445961, -0.025319725275039673, 0.029178917407989502, 0.010442804545164108, 0.03221375495195389, 0.05036202073097229, 0.013486478477716446, 0.02841758355498314, 0.013081229291856289, 0.010065778158605099, 0.017925795167684555, 0.03373423218727112, 0.05478851497173309, -0.0064267367124557495, -0.01736927591264248, 0.004488810896873474, -0.08698581904172897, -0.03828388452529907, 0.003854634240269661, 0.040608376264572144, -0.005539427511394024, 0.014937294647097588, 0.01594671979546547, -0.11033598333597183, -0.07945165783166885, 0.014877098612487316, 0.02695663459599018, -0.062481459230184555, 0.013393133878707886, 0.00211341492831707, 0.013738274574279785, 0.01860138773918152, -0.0589805543422699, -0.009059569798409939, 0.010724103078246117, 8.318480104207993e-05, -0.03118559718132019, -0.03010963276028633, -0.0697411298751831, 0.01001770980656147, 0.024484090507030487, -0.018913015723228455, -0.07714419811964035, 0.029821932315826416, 0.06966140121221542, 0.00577303022146225, -0.0018880032002925873, 0.016617298126220703, -0.08451469242572784, -0.012571029365062714, -0.022112950682640076, 0.017715318128466606, 0.028625935316085815, -0.007808400318026543, 0.036266881972551346, 0.022243505343794823, -0.014039414003491402, -0.034580785781145096, 0.06570389121770859, -0.046985335648059845, -0.058753132820129395, 0.021090995520353317, 0.10991772264242172, 0.011848682537674904, 0.02567056193947792, -0.030012130737304688, 0.05808192864060402, 0.06170143932104111, -0.0030298177152872086, -0.026611045002937317, -0.07155543565750122, -0.05241253599524498, 0.08072283118963242, 0.038842618465423584, -0.016215898096561432, 0.03817169368267059, -0.021895166486501694, 0.02629823051393032, 0.06395138055086136, 0.013544845394790173, -0.021925222128629684, -0.004806537181138992, 0.03748256340622902, -0.05396718531847, -0.059160105884075165, -0.010662669315934181, 0.06134072691202164, 0.05675698444247246, -0.024907108396291733, 0.022360146045684814, -0.00952779408544302, 0.02849576063454151, -0.00576833076775074, -0.06783399730920792, -0.10030564665794373, -0.060885343700647354, 0.025442413985729218, -0.044474273920059204, 0.020587099716067314, -0.07301826030015945, 0.023459766060113907, -0.03943781927227974, 0.050843529403209686, 0.013382118195295334, 0.07032032310962677, 0.03555050492286682], [-0.04767177999019623, -0.09595184028148651, -0.0022130650468170643, -0.013459524139761925, -0.07003555446863174, 0.08317182958126068, 0.005744457244873047, 0.02935316041111946, 0.07103882730007172, -0.040278393775224686, 0.03869781270623207, 0.00296887569129467, 0.0722801461815834, -0.022568831220269203, -0.03546443581581116, 0.00018501654267311096, -0.013569235801696777, -0.010686919093132019, -0.04722098261117935, -0.05054106563329697, 0.007215883117169142, 0.030575348064303398, -0.0942370593547821, 0.06796819716691971, 0.022915659472346306, -0.0870247483253479, 0.049393702298402786, 0.02285461127758026, 0.01783067174255848, -0.022460438311100006, 0.006360102444887161, -0.03283510357141495, -0.022137213498353958, 0.0246265958994627, -0.005683647468686104, -0.00470780348405242, 0.03210745379328728, -0.10618750005960464, -0.021145127713680267, -0.02138024941086769, -0.045931439846754074, 0.020478161051869392, -0.0521932989358902, -0.006796516478061676, -0.027240458875894547, -0.07692183554172516, -0.007435654290020466, -0.04198816791176796, -0.08051911741495132, 0.040487274527549744, -0.09740768373012543, -0.034017957746982574, -0.0032010371796786785, -0.08674631267786026, -0.011624774895608425, 0.021816063672304153, -0.025054339319467545, -0.0008463505655527115, -0.07856716215610504, -0.039302535355091095, -0.05268038064241409, -0.00507531501352787, 0.04826219752430916, -0.011873649433255196, 0.014586171135306358, -0.07411158829927444, 0.019066767767071724, -0.05943233147263527, 0.08476772904396057, -0.021416733041405678, -0.06444014608860016, -0.056517403572797775, 0.03450266271829605, 0.07454956322908401, -0.04570931941270828, 0.0037803035229444504, -0.03954699635505676, -0.05112776532769203, 0.008663125336170197, 0.03705531731247902, -0.02026509679853916, -0.009241041727364063, 0.00458284467458725, 0.027943946421146393, -0.016180625185370445, -0.04535006359219551, -0.00785984005779028, -0.014558112248778343, 0.010813670232892036, -0.05242805927991867, -0.03834595903754234, -0.006480402313172817, 0.05806371569633484, 0.005074486136436462, -0.0360347181558609, 0.00504673644900322, -0.04089511185884476, -0.0040952060371637344, 0.038719505071640015, 0.005440477281808853, -0.02919250912964344, -0.05428805202245712, 0.0284236092120409, 0.030152326449751854, -0.04440020024776459, 0.004875405691564083, -0.1068890318274498, 0.07023721933364868, -0.03996303677558899, -0.0022226388100534678, 0.000848052091896534, -0.07489869743585587, -0.04965372011065483, -0.04869449883699417, 0.005745779722929001, 0.012192675843834877, 0.04256947711110115, 0.048786748200654984, -0.02225233055651188, 0.06655704230070114, 0.004609274212270975, 0.09936761856079102, 0.005180468782782555, -0.045656125992536545, -0.0002602599561214447, 0.04037497565150261, -0.01685955375432968, -0.01119888387620449], [0.04609261453151703, -0.008980164304375648, 0.04301987215876579, -0.05644874647259712, -0.06619887053966522, -0.02120302803814411, -0.07654315233230591, 0.03167035058140755, 0.005617329850792885, -0.009997127577662468, 0.030397184193134308, -0.02803538367152214, -0.01401984877884388, 0.003996503073722124, -0.028648482635617256, -0.07741275429725647, -0.0018905829638242722, 0.005084555596113205, 0.07906746864318848, -0.06309939175844193, -0.02415955439209938, 0.026207495480775833, 0.0580282062292099, -0.008018001914024353, -0.020943038165569305, 0.04590589553117752, -0.02392505295574665, 0.0359017550945282, 0.0316232405602932, 0.029993470758199692, -0.04721508547663689, -0.015687281265854836, 0.04640454053878784, -0.045061253011226654, -0.06658231467008591, 0.06816137582063675, -0.007901730015873909, -0.015893682837486267, -0.053417980670928955, -0.03467119112610817, -0.013504509814083576, -0.0032300055027008057, 0.01026608794927597, -0.014671044424176216, -0.05298633128404617, -0.0989384651184082, -0.0887088030576706, 0.004631806630641222, 0.005863972008228302, -0.0007034721784293652, -0.11882011592388153, -0.07743372023105621, -0.003050942672416568, 0.005828540772199631, -0.04852355644106865, -0.04366501420736313, -0.06261466443538666, -0.11199983209371567, 0.05788467824459076, -0.08540858328342438, 0.06493628025054932, -0.03782592713832855, -0.026916824281215668, 0.04360281676054001, -0.0291969683021307, 0.08420421183109283, 0.039123475551605225, -0.011921320110559464, -0.11035499721765518, -0.01915648579597473, -0.029690023511648178, -0.028508923947811127, 0.016050556674599648, -0.05058734118938446, -0.003958387300372124, 0.004466751124709845, 0.03983297571539879, 0.033823125064373016, -0.027199270203709602, 0.060842350125312805, 0.02921903319656849, 0.008297000080347061, -0.04434456303715706, -0.01205391064286232, -0.015281584113836288, -0.01395117025822401, -0.06490763276815414, 0.03594784438610077, 0.07439548522233963, -0.03469439223408699, 0.11349938809871674, -0.04827000945806503, -0.08411884307861328, -0.0332806333899498, -0.003358561545610428, -0.08448457717895508, 0.05396375060081482, -0.07223355025053024, 0.008297236636281013, -0.05380912870168686, 0.06352203339338303, -0.0020301230251789093, -0.05533069372177124, 0.11601416766643524, -0.03429074212908745, 0.022189170122146606, -0.02122391387820244, 0.07285245507955551, -0.0967928022146225, 0.08167852461338043, 0.007577534765005112, 0.02678251452744007, 0.04108051955699921, 0.011874087154865265, 0.04315859079360962, 0.0158578809350729, 0.060284197330474854, 0.05217297747731209, 0.008632786571979523, -0.032051291316747665, 0.039595827460289, -0.0260486900806427, 0.08469883352518082, 0.047471221536397934, -0.04526762664318085, -0.04529999569058418, -0.13577163219451904, -0.04178629815578461], [-0.0002252953127026558, 0.019634999334812164, -0.02888163924217224, 0.04089054837822914, 0.024411464110016823, -0.026683781296014786, 0.01378757692873478, 0.02071331813931465, 0.0011968482285737991, -0.03324152156710625, 0.060531314462423325, -0.049542155116796494, -0.08187733590602875, 0.002894654870033264, -0.012025425210595131, -0.01363038644194603, -0.10122057795524597, -0.0029667075723409653, 0.009954685345292091, 0.005924299359321594, -0.03474249690771103, 0.0329061895608902, -0.027319472283124924, -0.015562184154987335, -0.015850042924284935, -0.0319986492395401, -0.04362798482179642, 0.022866804152727127, 0.0029204320162534714, -0.04099304601550102, 0.04489612206816673, -0.061886921525001526, 0.02555902488529682, 0.03399334102869034, -0.007143036462366581, -0.05120260640978813, -0.07754475623369217, -0.024234015494585037, -0.03338257223367691, -0.033114902675151825, 0.03806458041071892, -0.05872676149010658, -0.11650131642818451, -0.024277977645397186, -0.020291397348046303, 0.022067468613386154, 0.012555820867419243, -0.08037608116865158, -0.028305191546678543, 0.06864500045776367, -0.012339655309915543, 0.05073409527540207, 0.02311621606349945, 0.08211822807788849, -0.047076597809791565, -0.06923678517341614, -0.05989495664834976, -0.0807604268193245, -0.04101740941405296, -0.07644413411617279, 0.0119719747453928, -0.007060357369482517, -0.04890109971165657, -0.025738541036844254, 0.009594633243978024, -0.031219996511936188, 0.003672623075544834, -0.0224430151283741, 0.07099118828773499, -0.05754728615283966, -0.01007329486310482, 0.03145059570670128, -0.040694281458854675, -0.03518448397517204, -0.05678003281354904, -0.05107378959655762, 0.020508121699094772, -0.022905273362994194, -0.02844712883234024, 0.021865006536245346, 0.020844539627432823, 0.02308521792292595, 0.04008221998810768, -0.05785127729177475, -0.09701864421367645, -0.04652727022767067, 0.0170222669839859, -0.050548698753118515, -0.02679307386279106, 0.04744817316532135, 0.017847536131739616, 0.035735901445150375, 0.00769738107919693, -0.07764264941215515, 0.013656510971486568, -0.04715718701481819, -0.0830666795372963, -0.012940600514411926, 0.029721707105636597, 0.0313146635890007, -0.01936972141265869, -0.039719708263874054, -0.07724598795175552, -0.009766199626028538, 0.0026107989251613617, 0.052403733134269714, -0.054863665252923965, -0.0674305260181427, 0.021241560578346252, 0.021319333463907242, -0.05238168314099312, -0.09293634444475174, 0.02884254977107048, 0.021873749792575836, -0.019811924546957016, 0.030424833297729492, -0.021353285759687424, -0.012189097702503204, -0.02312466688454151, -0.052533335983753204, 0.051122620701789856, -0.03211033344268799, 0.02345845103263855, -0.03474972024559975, -0.019579173997044563, -0.034859366714954376, 0.06268952786922455, -0.02559145912528038], [0.05038720369338989, -0.13450703024864197, -0.014577364549040794, 0.06416985392570496, -0.004146391525864601, 0.02103174477815628, 0.010185498744249344, -0.007020516321063042, -0.02089928835630417, 0.038118891417980194, -0.014582931995391846, -0.08241251856088638, -0.017889171838760376, 0.015601199120283127, 0.12000517547130585, 0.0321601927280426, 0.046798400580883026, 0.009374718181788921, -0.024782512336969376, -0.04969334229826927, 0.03027784265577793, 0.08173561096191406, -0.038058746606111526, 0.050423599779605865, 0.050555985420942307, -0.017540663480758667, 0.025749508291482925, -0.0350705124437809, 0.029374748468399048, -0.004080172628164291, -0.06030167266726494, -0.05961325764656067, -0.037232570350170135, -0.01746366173028946, -0.07472093403339386, 0.036739151924848557, 0.0340178981423378, 0.0033297818154096603, 0.007691424340009689, -0.06248971074819565, -0.0015458706766366959, 0.005212884396314621, 0.008220028132200241, -0.009390581399202347, -0.02379886992275715, -0.012600861489772797, -0.030842550098896027, 0.012556696310639381, 0.013314709067344666, -0.0790545791387558, -0.08492113649845123, 0.0009105401113629341, 0.0047834329307079315, 0.045924603939056396, -0.04892159253358841, 0.022182948887348175, 0.05848221480846405, -0.045158546417951584, -0.04177483543753624, 0.004029625095427036, -0.03882094845175743, -0.03702515363693237, 0.034908685833215714, 0.06822040677070618, 0.01834791898727417, -0.025837838649749756, -0.038141537457704544, 0.029041502624750137, -0.03549637272953987, -0.06869079172611237, -0.026088383048772812, 0.03618334233760834, 0.02834993414580822, 0.05503568425774574, 0.012640593573451042, -0.040323104709386826, -0.08683383464813232, 0.0013171648606657982, 0.030465152114629745, -0.054881758987903595, -0.05409809201955795, 0.05708625167608261, 0.05943668261170387, 0.01720665954053402, -0.010104188695549965, -0.038115523755550385, 0.011447043158113956, 0.024699322879314423, 0.0026244930922985077, -0.03919624164700508, -0.08210337162017822, 0.05421513319015503, 0.048048898577690125, -0.027118273079395294, -0.05098319798707962, 0.036954961717128754, -0.006864762865006924, -0.009441697970032692, -0.012868060730397701, -0.0037060510367155075, -0.05449966713786125, -0.04657936468720436, -0.014417937025427818, -0.02199995145201683, 0.01587371900677681, 0.05026989057660103, -0.01048391591757536, -0.033691368997097015, -0.10047294199466705, 0.025282876566052437, -0.016979051753878593, 0.0009201052598655224, -0.08736643940210342, 0.025427181273698807, -0.10884944349527359, 0.0556773841381073, -0.07483714818954468, 0.014262337237596512, 0.026156602427363396, 0.050632134079933167, 0.036809779703617096, 0.0379011332988739, 0.04359860345721245, -0.012033574283123016, 0.0010176245123147964, 0.059011779725551605, 0.03964906558394432, -0.05944487825036049], [-0.0075493380427360535, 0.021844061091542244, -0.020557500422000885, -0.05457674339413643, 0.007425169460475445, 0.025692332535982132, -0.1269572377204895, 0.003954825922846794, -0.05059841275215149, -0.05043793469667435, 0.03624260425567627, -0.006040221080183983, -0.05537816882133484, -0.08331283926963806, -0.030886201187968254, -0.04494746774435043, 0.020911959931254387, -0.041165392845869064, 0.0526980422437191, 0.022249694913625717, 0.05531691759824753, -0.07013601064682007, -0.028401503339409828, 0.03585236519575119, 0.01967485435307026, -0.013981552794575691, 0.09680604934692383, 0.05353428050875664, 0.07385547459125519, -0.020701119676232338, 0.04073444753885269, 0.01225331425666809, 0.07779378443956375, -0.0012986157089471817, 0.0661034882068634, -0.005639349110424519, -0.02952413074672222, -0.05480172485113144, -0.04588764160871506, -0.05682282894849777, -0.03785625472664833, 0.009297844022512436, 0.06617770344018936, 0.029911907389760017, -0.07147199660539627, -0.07659730315208435, -0.0575668103992939, 0.010305746458470821, 0.02236168086528778, -0.08476730436086655, -0.04356050863862038, -0.08694420009851456, 0.047068625688552856, 0.06443601846694946, -0.007071927189826965, -0.05916161462664604, 0.007601054385304451, 0.0022062016651034355, 0.009853485971689224, -0.011661240831017494, 0.03352600336074829, 0.04581616073846817, 0.02617785707116127, 0.023245874792337418, -0.044249214231967926, -0.023562362417578697, 0.01892680674791336, -0.0242052860558033, 0.03695443272590637, 0.0015755519270896912, -0.03361313045024872, -0.01084306463599205, -0.019276978448033333, 0.04390683025121689, -0.01891510747373104, -0.03581194579601288, 0.014952986501157284, 0.0007128976285457611, -0.06401731818914413, 0.013580316677689552, -0.03600766882300377, 0.08466407656669617, 0.03108338825404644, -0.006767114624381065, -0.026210498064756393, 0.04371019825339317, 0.06581553816795349, -0.06701954454183578, 0.015276920050382614, -0.11041568964719772, 0.06455390155315399, -0.043704669922590256, -0.02724200114607811, -0.017638418823480606, 0.03823896497488022, -0.06737631559371948, 0.029644440859556198, 0.012464459985494614, -0.03994520381093025, 0.048194315284490585, 0.07298916578292847, 0.022117264568805695, 0.007743678987026215, -0.03842061758041382, -0.03696252405643463, -0.03766953945159912, 0.002088417299091816, 0.0019974084571003914, -0.009875591844320297, 0.015957750380039215, -0.06103260815143585, -0.09548382461071014, 0.07389982789754868, -0.04458459094166756, 0.01720842719078064, 0.03879708796739578, -0.058049291372299194, 0.04105204716324806, 0.08861399441957474, -0.043048158288002014, 0.08403061330318451, -0.012248802930116653, 0.06153208389878273, 0.03714523836970329, 0.015802724286913872, -0.011312754824757576, -0.002658451907336712, -0.01627790741622448], [-0.024732403457164764, 0.05032533407211304, -0.007824712432920933, -0.058147452771663666, -0.0299522802233696, 3.2513547921553254e-05, -0.04440874606370926, -0.020438669249415398, -0.023625794798135757, 0.0025537130422890186, -0.07573704421520233, -0.07239987701177597, -0.036622509360313416, -0.06048601120710373, 0.05588472634553909, 0.035870470106601715, 0.014204369857907295, -0.04426679387688637, -0.08209320902824402, -0.01771402359008789, -0.019829515367746353, -0.04138405993580818, -0.0381353422999382, 0.09969940781593323, 0.06004194915294647, 0.026332030072808266, 0.041539229452610016, 0.012997645884752274, 0.017116844654083252, 0.021584659814834595, 0.02275286242365837, 0.02613665536046028, -0.03769225999712944, 0.029760435223579407, 0.08085403591394424, -0.07058145105838776, -0.02264309488236904, 0.022867992520332336, -0.05087481439113617, -0.05493104085326195, 0.03124040924012661, -0.06949883699417114, -0.018656818196177483, 0.03878933936357498, 0.05112861096858978, -0.06587021797895432, -0.025246230885386467, -0.04236093908548355, -0.015084042213857174, -0.04978794604539871, -0.04797319322824478, -0.03745497018098831, -0.007835754193365574, -0.048092976212501526, 0.057913776487112045, 0.020115308463573456, 0.022745048627257347, 0.0635499656200409, 0.023123694583773613, -0.00791895017027855, 0.012371104210615158, 0.038940414786338806, 0.007292074151337147, -0.004454432055354118, -0.008609355427324772, -0.051476191729307175, 0.004310966469347477, -0.08295782655477524, 0.0009607989341020584, 0.004655505996197462, 0.03917242959141731, -0.01975608803331852, 0.0467478446662426, 0.004382651299238205, 0.06888900697231293, -0.08712733536958694, -0.0860278308391571, 0.06924546509981155, -0.040095727890729904, 0.01702338457107544, 0.011744532734155655, -0.01611090451478958, -0.030454551801085472, -0.02928178571164608, -0.022022472694516182, -0.00815286673605442, 0.002589307725429535, -0.05309334024786949, -0.010489563457667828, 0.01032920740544796, -0.048889704048633575, -0.04305654019117355, -0.025700073689222336, 0.0031111808493733406, 0.019521746784448624, -0.045317962765693665, 0.017216183245182037, 0.03196577727794647, -0.04018259793519974, -0.012470919638872147, 0.06213066726922989, 0.003324318677186966, -0.004982881247997284, -0.0703548789024353, -0.05140048265457153, -0.02082998678088188, 0.025699209421873093, -0.027658145874738693, -0.06679469347000122, 0.001758442260324955, 0.006092363968491554, -0.03222856670618057, -0.06840520352125168, 0.00017666257917881012, -0.012037739157676697, 0.028573308140039444, 0.03701213747262955, -0.03519735112786293, 0.013478036038577557, -0.0695006474852562, -0.04663988947868347, 0.015497332438826561, -0.0004914551973342896, 0.020081689581274986, -0.03940125182271004, -0.03613241761922836, 0.017161689698696136, -0.012555727735161781], [0.06408895552158356, 0.002355514094233513, -0.018332723528146744, -0.01708514243364334, -0.024681514129042625, 0.057325705885887146, 0.022452739998698235, -0.00907979253679514, 0.0006111362017691135, -0.055215250700712204, -0.05734362080693245, 0.02847045101225376, 0.017874661833047867, 0.07359234988689423, -0.10508942604064941, -0.07682447135448456, -0.09136780351400375, -0.02023337408900261, -0.03923644870519638, -0.03681369870901108, -0.03006170131266117, -0.047246962785720825, 0.02143852412700653, -0.037894342094659805, 0.009220436215400696, -0.004589390940964222, -0.007933481596410275, 0.02933647483587265, 0.04874637722969055, -0.02648151107132435, 0.012581014074385166, 0.05826900154352188, 0.01898038014769554, -0.031293876469135284, 0.021644463762640953, 0.027536872774362564, -0.03582588955760002, -0.04352938383817673, -0.0652344822883606, -0.07332240790128708, -0.008917948231101036, 0.019609617069363594, -0.027038512751460075, 0.02344318851828575, -0.016294308006763458, -0.08097056299448013, -0.06282633543014526, 0.029170872643589973, 0.02841649204492569, -0.04043377935886383, -0.0017275249119848013, -0.01929863728582859, -0.0009396784007549286, -0.060069408267736435, -0.022919602692127228, -0.05131581798195839, -0.02868420071899891, -0.026259884238243103, -0.02481330931186676, -0.006216574460268021, 0.0074491966515779495, -0.02699263207614422, -0.04261312261223793, -0.0007220041006803513, -0.048005081713199615, -0.04231048375368118, 0.04382235184311867, -0.014963218942284584, 0.006022308487445116, -0.04481380432844162, -0.047071509063243866, 0.006138840224593878, 0.03454858809709549, -0.032931137830019, 0.010676322504878044, 0.08704206347465515, 0.035576023161411285, -0.014737667515873909, -0.02986198477447033, -0.0670609176158905, 0.09195102006196976, -0.029181823134422302, -0.046131204813718796, 0.04703567177057266, -0.012132304720580578, -0.056518688797950745, 0.020559165626764297, 0.04882410168647766, 0.039448656141757965, 0.07372227311134338, -0.034793633967638016, -0.03724619746208191, -0.06085262447595596, 0.03615805134177208, 0.043490417301654816, 0.04691486060619354, -0.06397397816181183, 0.0033647753298282623, -0.05461151897907257, -0.03603074699640274, -0.035767562687397, 0.046548303216695786, -0.03263913094997406, 0.08900116384029388, 0.017551392316818237, -0.029461244121193886, -0.02412908524274826, 0.05562691390514374, -0.050200771540403366, -0.0167248472571373, -0.02230285108089447, -0.02296234667301178, 0.01971435360610485, -0.004451904445886612, 0.03615193068981171, 0.00932874996215105, -0.03802194446325302, -0.07875129580497742, -0.012972725555300713, -0.054929353296756744, 0.001317970221862197, -0.04349258914589882, 0.004156135953962803, -0.032202962785959244, -0.034625835716724396, 0.013246724382042885, -0.049573443830013275, 0.016457658261060715], [0.03451521322131157, 0.0213786531239748, -0.007439308799803257, 0.03720363602042198, -0.05330996215343475, 0.002934549003839493, -0.030038978904485703, 0.04336074739694595, 0.023231087252497673, 0.07113298773765564, -0.06440554559230804, -0.052597664296627045, -0.001975705847144127, 0.02183111570775509, -0.00680188462138176, 0.050450753420591354, 0.044403865933418274, -0.07518797367811203, 0.05290834605693817, 0.003923483192920685, 0.04791318625211716, 0.0507320798933506, 0.07152087986469269, 0.018385102972388268, -0.043857067823410034, -0.008003070019185543, -0.05855851620435715, -0.06566767394542694, 0.03928317874670029, -0.017863087356090546, -0.014997154474258423, 0.025748174637556076, -0.0012112706899642944, -0.010736895725131035, -0.035520583391189575, -0.003826238214969635, -0.1010073870420456, 0.04673295468091965, 0.06255100667476654, -0.02100110799074173, -0.012465297244489193, -0.0698150098323822, 0.016025779768824577, 0.044232629239559174, 0.024098098278045654, -0.019352559000253677, -0.028249213472008705, 0.03598267212510109, 0.07431266456842422, 0.007515988312661648, 0.03630506247282028, -0.037461571395397186, 0.009149354882538319, -0.0181528702378273, -0.03852145001292229, -0.01492759957909584, -0.006271950900554657, -0.03248733654618263, -0.005297549534589052, -0.028474409133195877, 0.059606410562992096, -0.05022206902503967, -0.04894653335213661, -0.10160313546657562, -0.0003573419526219368, -0.02426880970597267, -0.062912717461586, 0.02351362630724907, -0.022847162559628487, -0.036158718168735504, 0.006031519267708063, 0.059308573603630066, -0.03838709741830826, -0.030017105862498283, -0.023913899436593056, -0.06781531870365143, 0.026820385828614235, -0.0014603426679968834, 0.012781539931893349, -0.013997268863022327, -0.0013392642140388489, -0.009005926549434662, -0.012446708977222443, 0.020347069948911667, -0.0637594684958458, 0.01698954775929451, -0.03279371187090874, -0.07067683339118958, -0.03741136193275452, 0.029811490327119827, -0.014002989046275616, -0.01566743291914463, -0.0013754107058048248, 0.05177289992570877, -0.09159164130687714, 0.05821095034480095, 0.035556990653276443, 0.02748652920126915, -0.02651090733706951, -0.07006044685840607, 0.005608452949672937, -0.00038711167871952057, -0.0017371365102007985, -0.058990947902202606, -0.007804123684763908, 0.051866427063941956, -0.03587287664413452, -0.03726411610841751, 0.05241284519433975, -0.0384223535656929, 0.012254863977432251, 0.016579903662204742, -0.023311607539653778, -0.01420795638114214, -0.05576809123158455, 0.03828747570514679, -0.02462879754602909, 0.006882382556796074, -0.041419439017772675, -0.005489759147167206, 0.025037582963705063, 0.020620370283722878, -0.004056546837091446, 0.0027229804545640945, 0.0018804967403411865, -0.014932820573449135, 0.016368543729186058, -0.001601862721145153], [0.02802971377968788, 0.015497352927923203, 0.009234513156116009, -0.05257531628012657, 0.004112202674150467, -0.06961437314748764, -0.011690531857311726, -0.03715579956769943, -0.04947308823466301, -0.012849356979131699, -0.13414515554904938, -0.059783801436424255, 0.013073761016130447, 0.018614880740642548, -0.08599759638309479, -0.025652622804045677, -0.0002542841248214245, -0.04292629286646843, 0.021744752302765846, -0.016241541132330894, -0.0269575547426939, -0.06457273662090302, 0.005773428827524185, -0.04972660914063454, 0.05252014473080635, -0.010781651362776756, 0.022844571620225906, -0.016602594405412674, -0.0057944487780332565, 0.00471670925617218, -0.08306333422660828, -0.04813271760940552, -0.061093900352716446, -0.04072418808937073, -0.02845097705721855, -0.018556561321020126, 0.010551679879426956, -0.03059205412864685, -0.054940249770879745, -0.09241436421871185, -0.03107353486120701, -0.0062073878943920135, 0.014467545785009861, -0.05661845952272415, 0.005803676322102547, -0.012897944077849388, -0.021380677819252014, -0.0070935264229774475, -0.0805855244398117, -0.009368745610117912, 0.034944865852594376, 0.014456458389759064, -0.010864730924367905, -0.02017838880419731, 0.05394550412893295, 0.033080488443374634, -0.03778327628970146, -0.020812584087252617, 0.0006452985107898712, -0.011783098801970482, 0.026295240968465805, 0.008087347261607647, 0.01919369585812092, -0.05200326070189476, -0.04842854291200638, 0.0068866414949297905, -0.017694778740406036, -0.06244126707315445, 0.01138332299888134, -0.01865515112876892, 0.017664173617959023, 0.00628453865647316, 0.00547172874212265, -0.10184250771999359, 0.11788453161716461, -0.05861082673072815, -0.0383329764008522, -0.06261967867612839, -0.02162262797355652, -0.06024064123630524, -0.035423897206783295, -0.030160946771502495, 0.019304227083921432, 0.012834170833230019, -0.055538468062877655, 0.014116700738668442, -0.009186921641230583, -0.04708205908536911, -0.07206004858016968, -0.059460580348968506, -0.028022484853863716, -0.030888602137565613, -0.015416450798511505, -0.07470311969518661, -0.0728154331445694, -0.028400475159287453, -0.03506018593907356, -0.02729788050055504, 0.08091754466295242, 0.015351803041994572, -0.057115986943244934, -0.006797750946134329, 0.055209383368492126, -0.023278959095478058, -0.017979281023144722, -0.03892311453819275, -0.06604339182376862, -0.08302800357341766, -0.05116677284240723, -0.006355506833642721, -0.04820482060313225, -0.006935799494385719, -0.018917890265583992, -0.046254269778728485, 0.0018578206654638052, -0.05816645920276642, -0.028996407985687256, 0.03275272995233536, -0.01937537081539631, -0.004396752920001745, -0.01682436093688011, 0.037320662289857864, -0.012151401489973068, -0.02577361837029457, 0.02063402161002159, -0.03869573399424553, -0.02559848316013813, -0.040730252861976624], [-0.022348057478666306, -0.05368145927786827, 0.03988395631313324, 0.02545160800218582, 0.009258158504962921, 0.015543281100690365, -0.04521259665489197, 0.008461657911539078, -0.10120517015457153, -0.024607185274362564, -0.03836340457201004, -0.0196471456438303, 0.02829236164689064, 0.011489653028547764, 0.034167028963565826, -0.044981129467487335, -0.007127603981643915, -0.012040960602462292, 0.012812245637178421, -0.03984953463077545, -0.035830482840538025, -0.01731378212571144, 0.052563730627298355, -0.03420211747288704, 0.030950408428907394, -0.03130514919757843, 0.02840074524283409, -0.02098962292075157, -0.007684910669922829, 0.0037076324224472046, 0.008884046226739883, -0.07313250005245209, 0.011253354139626026, -0.04274067282676697, -0.035278066992759705, 0.033354803919792175, 0.013134550303220749, -0.009704980067908764, -0.037287965416908264, -0.025682590901851654, -0.05085846781730652, 0.04499047249555588, -0.06725554168224335, 0.026685502380132675, -0.07273554801940918, -0.009180285036563873, -0.05718349665403366, 0.044362686574459076, 0.035190269351005554, -0.06500309705734253, 0.008770035579800606, -0.0644688531756401, 0.012505851686000824, -0.007775416597723961, -0.030161332339048386, -0.004057800397276878, 0.058209046721458435, -0.010183917358517647, 0.026965267956256866, 0.03555399924516678, -0.025828711688518524, -0.0009903573663905263, 0.05165862292051315, 0.0038022156804800034, 0.023124266415834427, -0.027100903913378716, 0.04869576171040535, -0.07695110887289047, -0.0013772398233413696, -0.05100525915622711, -0.03742166608572006, -0.02485208958387375, -0.006187379360198975, 0.05475951358675957, 0.0008400380611419678, 0.07023770362138748, 0.057285260409116745, 0.03134479373693466, -0.0452578030526638, 0.025166038423776627, 0.046473048627376556, -0.012145697139203548, -0.061389725655317307, -0.014531590975821018, 0.04017451032996178, -0.030427763238549232, 0.012083463370800018, -0.03949873521924019, 0.034047070890665054, -0.0786745473742485, -0.05103335529565811, 0.001938149333000183, -0.028427034616470337, 0.043810997158288956, 0.08607310056686401, 0.07058205455541611, -0.022101622074842453, -0.05336625501513481, -0.06638844311237335, -0.024668781086802483, 0.057482458651065826, 0.033655326813459396, -0.059419792145490646, 0.019850151613354683, 0.019865136593580246, -0.04898437112569809, -0.00012165913358330727, 0.029249157756567, -0.0732988640666008, -0.03347965329885483, -0.11908047646284103, -0.04758794978260994, 0.012388566508889198, 0.0371566042304039, 0.045680269598960876, -0.046542584896087646, 0.0018038498237729073, -0.053232550621032715, 0.005492102354764938, -0.04049113392829895, -0.010976525023579597, -0.10194399207830429, 0.0013960152864456177, -0.11614218354225159, -0.011577933095395565, 0.017355529591441154, 0.027910415083169937, -0.06024304777383804], [-0.04850224405527115, 0.025318415835499763, 0.00434726569801569, 0.06670722365379333, -0.011282773688435555, 0.03905004635453224, -0.02261057123541832, -0.11405658721923828, -0.03682961314916611, 0.018271777778863907, -0.03479203209280968, -0.04130805283784866, -0.03167690336704254, -0.08055970072746277, 0.015540256164968014, -0.006526079028844833, -0.024052858352661133, 0.08479691296815872, 0.008787008002400398, -0.001798359677195549, -0.036974094808101654, -0.09331976622343063, -0.10053830593824387, 0.049540430307388306, -0.03054852783679962, -0.01498926617205143, 0.012991901487112045, -0.05486404895782471, -0.02709089405834675, 0.004373690113425255, -0.008176717907190323, -0.023657459765672684, 0.04942367970943451, -0.1293482482433319, 0.00761297345161438, 0.03348427265882492, -0.053539395332336426, 0.013472327962517738, 0.05737017095088959, -0.09023941308259964, -0.041674308478832245, 0.01886369101703167, 0.0562000498175621, -0.016261236742138863, -0.042890068143606186, -0.009370172396302223, -0.09727706015110016, -0.027987629175186157, -0.059868454933166504, -0.010025294497609138, 0.04352644830942154, -0.021930301561951637, -0.025455409660935402, 0.040441446006298065, -0.05141668766736984, -0.05780791491270065, -0.035535648465156555, 0.03848879039287567, 0.05999133735895157, 0.05352647602558136, 0.015748905017971992, -0.014815300703048706, -0.03698267042636871, 0.061379946768283844, -0.007384708151221275, -9.951740503311157e-05, 0.019259288907051086, -0.12198255956172943, 0.04852861166000366, -0.01099866908043623, -0.031264759600162506, 0.004282666370272636, -0.05453195422887802, 0.03521977365016937, -0.0758281946182251, -0.02938959375023842, -0.03661484271287918, -0.039957061409950256, 0.021598583087325096, 0.003624413162469864, 0.038061678409576416, -0.09216183423995972, -0.019427256658673286, -0.030641334131360054, 0.03894598037004471, -0.015791431069374084, 0.030906442552804947, -0.0885993242263794, -0.040311235934495926, 0.08880043029785156, -0.010613812133669853, -0.006910744123160839, 0.0026889080181717873, -0.05406660586595535, -0.06234521418809891, -0.04210986942052841, -0.06892329454421997, -0.03505339100956917, -0.002733229659497738, 0.004421655088663101, 0.03274346515536308, 0.007557988166809082, -0.06718330830335617, -0.09084101021289825, 0.003214176744222641, -0.05082947760820389, -0.07074007391929626, 0.04509330913424492, -0.07799354195594788, 0.01313166692852974, 0.0646064504981041, 0.020222511142492294, 0.020524701103568077, -0.02258015051484108, -0.04106271639466286, 0.026059966534376144, 0.0016233958303928375, 0.044098515063524246, -0.05774429440498352, -0.037288084626197815, -0.06799681484699249, -0.01492334995418787, -0.04785064980387688, 0.00031435140408575535, -0.05306524038314819, 0.04886983335018158, 0.0065016476437449455, -0.07120496034622192], [-0.06639020144939423, -0.0382843017578125, 0.002370353788137436, 0.04244400933384895, -0.043077751994132996, -0.04648273438215256, -0.012363485991954803, -0.026196978986263275, -0.013566347770392895, 0.01620430499315262, 0.05784064903855324, 0.04585493355989456, 0.005096908658742905, -0.04435240104794502, -0.07737420499324799, 0.07565784454345703, -0.018719960004091263, -0.10766348242759705, 0.03145585581660271, 0.010645916685461998, 0.06483414769172668, -0.026337191462516785, -0.008222086355090141, -0.028013676404953003, -0.09967157989740372, 0.05958279222249985, -0.07692669332027435, -0.057314030826091766, -0.08202357590198517, -0.08621402084827423, -0.07786000519990921, 0.01864415965974331, -0.05096707493066788, 0.05995070934295654, -0.10172023624181747, 0.0017263740301132202, 0.0329374298453331, 0.019759351387619972, -0.008523266762495041, 0.024772394448518753, -0.0051034316420555115, -0.0224926620721817, -0.018817221745848656, -0.07560780644416809, -0.04906665161252022, 0.08015786856412888, -0.040353309363126755, -0.04468712955713272, -0.04903678223490715, 0.027051633223891258, 0.04311433807015419, -0.007667887955904007, 0.013069690205156803, -0.10230181366205215, 0.006316313985735178, -0.07056637853384018, 0.025186296552419662, -0.02563515305519104, -0.04583952575922012, -0.05006766691803932, -0.06650326400995255, 0.017959145829081535, -0.02981700375676155, 0.02043594978749752, 0.037420567125082016, -0.047584839165210724, -0.10981794446706772, -0.020192498341202736, 0.03794210031628609, -0.0266287699341774, -0.04465758055448532, -0.021957069635391235, 0.03141912817955017, -0.06395070254802704, -0.08995086699724197, -0.02324177697300911, 0.025300536304712296, -0.00706636905670166, -0.06219743192195892, 0.0577939972281456, -0.06983274221420288, -0.049685440957546234, -0.07856815308332443, -0.011222314089536667, -0.029690608382225037, -0.049906566739082336, -0.06659932434558868, -0.015165653079748154, 0.02387070283293724, 0.012643685564398766, 0.05349854752421379, -0.012958251871168613, 0.014966662973165512, -0.06557303667068481, -0.04279510676860809, -0.11018861085176468, 0.05301469936966896, -0.0044906260445714, -0.019192352890968323, -0.03741752356290817, 0.025996601209044456, -0.028944730758666992, -0.03176019713282585, 0.0529671311378479, 0.010257544927299023, 0.01833401247859001, -0.003494723467156291, -0.09700614213943481, -0.0937519371509552, -0.04840194061398506, -0.057215698063373566, 0.017497926950454712, -0.022620968520641327, -0.02158273383975029, -0.016647489741444588, -0.0018079705769196153, 0.028069499880075455, -0.05362085998058319, 0.005707792937755585, -0.08688046038150787, 0.04734005779027939, -0.015695206820964813, 0.020858261734247208, -0.06107303872704506, 0.015502654947340488, -0.01858496479690075, 0.08290605247020721, -0.0023112227208912373], [0.03540513664484024, -0.02384822443127632, -0.05974772945046425, -0.025849469006061554, -0.03792007267475128, -0.06298092007637024, -0.021701563149690628, 0.04370710998773575, 0.02684822864830494, 0.013583197258412838, -0.02678784355521202, -0.014164572581648827, -0.022877179086208344, -0.016449132934212685, 0.07082924991846085, -0.012532513588666916, 0.04595635458827019, 0.014688972383737564, 0.047678545117378235, -0.06577043235301971, 0.03915228322148323, -0.041169311851263046, -0.029342789202928543, -0.020907580852508545, 0.025529855862259865, 0.043045226484537125, -0.004778028000146151, -0.0068871863186359406, -0.14692163467407227, -0.006216536276042461, 0.00546218641102314, 0.042147066444158554, 0.06320866197347641, -0.013833191245794296, 0.02488454431295395, -0.044884227216243744, -0.003303046338260174, -0.02646689862012863, -0.024675078690052032, -0.008461697027087212, 0.038453686982393265, -0.1177557110786438, 0.06726345419883728, -0.009230313822627068, 0.006995733827352524, -0.03815564513206482, 0.06423275917768478, -0.031577035784721375, -0.08596734702587128, -0.042649492621421814, -0.0029718196019530296, 0.004201247822493315, 0.014761366881430149, -0.027647972106933594, 0.005046205595135689, 0.05973086133599281, -0.05368177592754364, -0.003756001591682434, 0.03838514909148216, -0.09597241878509521, 0.03841052204370499, 0.05997908487915993, 0.005280621349811554, -0.10308705270290375, -0.028504326939582825, 0.00040715932846069336, -0.03826562687754631, 0.027933230623602867, -0.0017892818432301283, -0.04345216974616051, 0.040787916630506516, -0.026971787214279175, -0.05247185751795769, 0.014673532918095589, 0.024481553584337234, 0.05750774219632149, 0.03368503972887993, 0.0032626111060380936, -0.063409723341465, 0.057096388190984726, -0.01172274723649025, -0.08118516951799393, 0.0005000755190849304, 0.010633938945829868, 0.021811742335557938, 0.06475271284580231, -0.03287794440984726, 0.000718751922249794, -0.04067036882042885, 0.03586501628160477, 0.02630355954170227, 0.018324727192521095, -0.025995640084147453, -0.015592246316373348, 0.01841595768928528, 0.06118520721793175, 0.02190256677567959, -0.03913750499486923, -0.012853278778493404, 0.06989474594593048, -0.020925650373101234, 0.06574761867523193, -0.086176797747612, 0.019723886623978615, -0.0424397736787796, -0.022710295394062996, -7.88271427154541e-05, 0.038641903549432755, -0.048194289207458496, 0.04370648041367531, 0.003169149160385132, -0.02806953154504299, 0.009851709008216858, -0.04414363205432892, -0.02618277259171009, -0.043586913496255875, 0.03673332929611206, -0.043025463819503784, 0.05118245258927345, -0.049652550369501114, -0.003767501562833786, -0.06767652928829193, 0.05015368014574051, -0.031935811042785645, -0.03748515993356705, -0.01084697525948286, -0.053288668394088745, -0.013862810097634792], [-0.07272432744503021, 0.01398470439016819, 0.04977792501449585, -0.02417435310781002, -0.040120795369148254, 0.008210147731006145, -0.032699596136808395, -0.07688167691230774, 0.05625694990158081, -0.0038842405192553997, -0.038709867745637894, 0.010724665597081184, 0.04334015026688576, 0.0037447286304086447, 0.017872991040349007, 0.008434902876615524, 0.018281646072864532, 0.041985947638750076, 0.08928613364696503, 0.005919387564063072, -0.04222533479332924, -0.06381655484437943, -0.022596366703510284, -0.010206205770373344, -0.017381442710757256, 0.020655501633882523, -0.09269766509532928, -0.023459739983081818, 0.014768604189157486, 0.09792949259281158, -0.06924020498991013, -0.11210505664348602, -0.02676842175424099, -0.015024345368146896, -0.0041559310629963875, 0.016597779467701912, 0.010308155789971352, 0.04785418510437012, 0.06522524356842041, 0.024485182017087936, 0.09767883270978928, -0.05558105558156967, -0.03613037243485451, -0.009119562804698944, -0.12389767169952393, -0.015769291669130325, -0.03388797864317894, -0.007182549685239792, -0.08024861663579941, -0.018975697457790375, -0.004150707274675369, -0.030340809375047684, -0.027582760900259018, 0.05087282508611679, -0.029644766822457314, -0.014680937863886356, 0.026496646925807, -0.04963187873363495, -0.03815333545207977, -0.011976322159171104, 0.009877138771116734, -0.03484029322862625, -0.06534518301486969, 