{"model.0.weight": [[-0.4365430474281311, -0.015749115496873856, -0.4421881437301636, -0.2727455198764801, -0.43129444122314453, -0.2917552590370178, -0.15953588485717773, -0.38769304752349854, 0.10050651431083679, -0.1920437216758728, -0.31107720732688904, -0.2724549472332001, -0.17740526795387268, -0.3124852180480957, -0.4211283326148987, -0.22427958250045776, -0.4103431701660156, -0.09304279088973999, 0.45769575238227844, -0.19118632376194], [-0.2555258274078369, 0.09263268113136292, -0.4428970217704773, -0.3549489974975586, -0.44900739192962646, -0.48724839091300964, -0.4151964783668518, -0.581511378288269, -0.18426421284675598, -0.6593016386032104, -0.24646461009979248, -0.5040475130081177, -0.4775409996509552, -0.2618372142314911, -0.39028024673461914, -0.03726750612258911, -0.1904810070991516, -0.2507736086845398, 0.2981642186641693, -0.12781468033790588], [-0.2087382674217224, 6.73290342092514e-05, -0.5233061909675598, -0.2671271562576294, -0.07848337292671204, -0.2721421718597412, -0.3669371008872986, -0.4031960964202881, 0.10708913207054138, -0.561161994934082, -0.5870717763900757, -0.3070465326309204, -0.5590301752090454, -0.4564908742904663, -0.08258958160877228, 0.1906837373971939, -0.22015148401260376, -0.13718780875205994, 0.4608188569545746, -0.56810462474823], [-0.27222970128059387, 0.08844896405935287, -0.3255766034126282, -0.15781113505363464, -0.15797653794288635, -0.24497312307357788, -0.17335790395736694, -0.077862948179245, 0.015644706785678864, -0.4318283796310425, -0.3912757337093353, -0.09755812585353851, -0.3184930682182312, -0.22853213548660278, -0.19037798047065735, 0.09586410224437714, -0.06996594369411469, 0.08089417964220047, 0.21165235340595245, -0.1061069667339325], [-0.07688412070274353, 0.13158801198005676, -0.535385251045227, -0.7455425262451172, -0.10676592588424683, -0.3056934177875519, -0.41369563341140747, -0.20119452476501465, -0.13864773511886597, -0.1318957805633545, -0.3747197389602661, -0.44312167167663574, -0.2631312310695648, -0.23044314980506897, -0.33600080013275146, -0.09759994596242905, -0.07231296598911285, -0.3545088768005371, 0.33455556631088257, -0.5625365972518921], [-0.11300534009933472, 0.20512062311172485, -0.5181614756584167, -0.37000399827957153, -0.30100223422050476, -0.42420467734336853, -0.4977531135082245, -0.32508087158203125, -0.05811063200235367, -0.06538823246955872, -0.2906635105609894, -0.5274649262428284, -0.2871781289577484, -0.32842621207237244, -0.3420710563659668, -0.23712685704231262, -0.5422096848487854, -0.34417301416397095, 0.260403037071228, -0.23113393783569336], [-0.014083191752433777, -0.08259034156799316, -0.154148668050766, -0.23331469297409058, -0.7147747278213501, -0.4302549362182617, -0.5137500762939453, -0.2743995487689972, 0.16026407480239868, -0.48403680324554443, -0.31364691257476807, -0.5276637673377991, -0.010672703385353088, -0.28296199440956116, -0.18568488955497742, -0.1918489933013916, -0.3106217682361603, 0.014261431992053986, 0.6329119801521301, -0.08266645669937134], [-0.17232386767864227, 0.11173087358474731, -0.45478400588035583, -0.3478396236896515, -0.2512468099594116, -0.12702050805091858, -0.15882280468940735, -0.08931424468755722, 0.19929847121238708, -0.4142143726348877, -0.4318549633026123, -0.20908746123313904, -0.25128668546676636, -0.24625588953495026, -0.12293234467506409, -0.4143693447113037, -0.32121390104293823, -0.3545965850353241, 0.14957588911056519, -0.16112715005874634], [-0.3512895107269287, 0.05840812623500824, -0.10940602421760559, -0.13638454675674438, -0.47074079513549805, -0.33530575037002563, -0.2744569182395935, -0.4564041495323181, -0.10451874136924744, -0.06216228008270264, -0.1300504505634308, -0.36569905281066895, -0.056630924344062805, -0.2980042099952698, -0.5172635912895203, -0.3146693706512451, -0.23847730457782745, -0.3830951154232025, 0.30138468742370605, -0.24241778254508972], [0.11314097791910172, -0.05901923030614853, -0.4242931604385376, -0.3563341498374939, -0.154079407453537, -0.489279568195343, -0.18698617815971375, -0.46076083183288574, -1.0753204822540283, -0.4015834331512451, -0.2576267421245575, -0.4895973205566406, -0.3165202736854553, -0.1924491822719574, -0.4572708308696747, -1.024786353111267, -0.1885676383972168, -0.5252211689949036, 0.5252518057823181, -0.5344328880310059], [-0.11237816512584686, 0.12689632177352905, -0.2417273372411728, -0.2390313744544983, -0.27918741106987, -0.1460094004869461, 0.04714153707027435, -0.04158751666545868, 0.4734343886375427, -0.11932644248008728, -0.3418940305709839, 0.011857710778713226, 0.058367595076560974, -0.01848648488521576, -0.19169087707996368, -0.15614457428455353, 0.011144861578941345, -0.0935269147157669, 0.37601983547210693, -0.16103653609752655], [-0.15508612990379333, 0.11079258471727371, -0.2521061301231384, -0.46759623289108276, -0.5164613723754883, -0.07697613537311554, -0.24687644839286804, -0.10106208920478821, 0.03259454667568207, -0.4362483024597168, -0.2556876242160797, -0.4236301779747009, -0.3414478898048401, -0.5239179134368896, -0.07974660396575928, -0.26467588543891907, -0.42674383521080017, -0.3035253882408142, 0.35474297404289246, -0.21640700101852417], [-0.38005751371383667, -0.039285387843847275, -0.3135589361190796, -0.19637957215309143, -0.37842583656311035, -0.27146077156066895, -0.4178149402141571, -0.30723100900650024, -0.020334914326667786, -0.1470508575439453, -0.17686590552330017, -0.23494739830493927, -0.47531038522720337, -0.29147809743881226, -0.0318402498960495, 0.042433083057403564, -0.27275004982948303, -0.14178809523582458, 0.07859823107719421, -0.11262175440788269], [-0.12423618137836456, -0.209571972489357, -0.40187063813209534, -0.6907062530517578, -0.2502838373184204, -0.6858521699905396, -0.29988595843315125, -0.5197407007217407, 0.018333563581109047, -0.2213229537010193, -0.2789415717124939, -0.38898754119873047, -0.3516045808792114, -0.38953202962875366, -0.5903564691543579, -0.488824725151062, -0.391834020614624, -0.3792467415332794, 0.0359586626291275, -0.08594053983688354], [0.07402049005031586, 0.08232463896274567, -0.20872357487678528, 0.0002938956022262573, -0.16725711524486542, 0.17069877684116364, 0.11431451141834259, -0.19526371359825134, -0.13997942209243774, -0.022237926721572876, -0.26890063285827637, -0.03570859134197235, 0.18156102299690247, -0.11375167965888977, -0.17582599818706512, -0.17908665537834167, 0.25018036365509033, -0.00286170095205307, -0.022029194980859756, -0.03805183619260788], [0.29333409667015076, -0.08521748334169388, 0.08863237500190735, 0.3169620633125305, 0.24541158974170685, 0.553535521030426, 0.13220533728599548, 0.2619938850402832, 0.3440228998661041, 0.4771915078163147, 0.260728657245636, 0.3249620795249939, 0.14024057984352112, 0.1698044240474701, 0.2642485797405243, 0.8727527856826782, 0.339634507894516, 0.24480663239955902, -0.17691335082054138, 0.11981426179409027], [-0.10251295566558838, 0.09528454393148422, -0.3403826355934143, -0.23095813393592834, -0.32585787773132324, -0.2068387120962143, -0.16947710514068604, -0.2166476547718048, 0.16635626554489136, -0.007288016378879547, -0.35346511006355286, -0.18010835349559784, -0.17632344365119934, -0.17833682894706726, -0.42918333411216736, -0.18961796164512634, -0.33201658725738525, -0.1999208927154541, 0.35334160923957825, -0.44942089915275574], [-0.4101700782775879, 0.05492069944739342, -0.3472762107849121, -0.6961526870727539, 0.02707618474960327, -0.09621930122375488, -0.4123581051826477, -0.554701030254364, -0.21608632802963257, 0.49376553297042847, -0.13910186290740967, -0.39029181003570557, -0.16444429755210876, 0.13764753937721252, -0.31705981492996216, -0.20211929082870483, -0.04546520113945007, -0.47663813829421997, 0.3567278981208801, -0.2826533913612366], [-0.5061838626861572, 0.12970636785030365, -0.14605841040611267, -0.44819819927215576, -0.1411627233028412, -0.23510503768920898, 0.07993512600660324, -0.20701387524604797, 1.4870619773864746, 0.3634457588195801, -0.5717359781265259, -0.23372331261634827, -0.27317357063293457, -0.6868166923522949, -0.4761803150177002, 0.6682718992233276, -0.31379038095474243, -0.1828594207763672, 0.24250873923301697, -0.32096606492996216], [-0.06157001852989197, 0.06477349996566772, 0.043852925300598145, -0.17098106443881989, 0.0032668113708496094, -0.06972275674343109, 0.04920273274183273, -0.20382452011108398, -0.3670295774936676, -0.4085131585597992, -0.09377488493919373, -0.18144528567790985, -0.2809489369392395, -0.12103232741355896, 0.009141191840171814, -0.19119225442409515, -0.23458293080329895, -0.1687924861907959, -0.06556645035743713, -0.18775251507759094], [0.632642924785614, 0.08552797138690948, 0.7929924726486206, 0.8842060565948486, 0.5702022314071655, 0.46788254380226135, 0.8187831044197083, 0.6077476143836975, 0.31500059366226196, 0.03849667310714722, 0.5922123789787292, 0.6794390678405762, 0.6991382837295532, 0.1352454572916031, 0.514366626739502, 0.1849142611026764, 0.5459598302841187, 0.7412956953048706, -0.5479475259780884, 0.5622504949569702], [-0.1427042931318283, 0.03580185025930405, -0.36891138553619385, -0.09392949938774109, -0.33742594718933105, -0.23621389269828796, -0.21065223217010498, -0.11167651414871216, -0.10700472444295883, -0.6057941913604736, -0.15487191081047058, -0.11141005158424377, -0.10601537674665451, -0.32009103894233704, -0.238334059715271, -1.6867542266845703, -0.5502704381942749, -0.3521628677845001, 0.2665342390537262, -0.13413013517856598], [-0.05498993396759033, -0.007780782878398895, -0.3277550935745239, -0.3351748585700989, -0.2599312663078308, -0.14126098155975342, -0.07701376080513, -0.27838024497032166, -0.4140636920928955, -0.10789529979228973, -0.0745973065495491, -0.03449329733848572, -0.22562800347805023, -0.16901615262031555, -0.2178882360458374, -0.24356195330619812, -0.32827049493789673, -0.0537930503487587, -0.06945113837718964, -0.14051443338394165], [0.17861543595790863, -0.09118670225143433, -0.1755412518978119, -0.35014984011650085, -0.3790891766548157, -0.10484334826469421, -0.13217702507972717, -0.277859091758728, -0.0888366848230362, -0.006690770387649536, -0.2949318289756775, -0.1938585340976715, -0.5710600018501282, -0.6468090415000916, -0.14377182722091675, -0.4016370177268982, -0.26853781938552856, -0.28120410442352295, 0.39890384674072266, -0.28685176372528076], [-0.3012546896934509, -0.0637294352054596, -0.2723163366317749, -0.16254764795303345, -0.17960315942764282, -0.2141326367855072, -0.16952279210090637, -0.32386332750320435, -0.09576752036809921, -0.1755337417125702, -0.19445180892944336, -0.46455395221710205, -0.4139120876789093, -0.2251235693693161, -0.08983553946018219, -0.012362619861960411, -0.352365106344223, -0.15392844378948212, 0.5373044610023499, -0.19781607389450073], [0.6938157081604004, 0.12768340110778809, 1.007124662399292, 0.7182544469833374, 0.8297576904296875, 0.733389139175415, 0.8225739002227783, 0.6645265817642212, 0.19550126791000366, 0.23746299743652344, 0.7194806933403015, 0.8370768427848816, 0.9706336855888367, 1.3673352003097534, 0.5611250996589661, 1.4767767190933228, 0.6565980315208435, 0.5147467255592346, -0.5100308656692505, 0.8063200116157532], [-0.2174953818321228, 0.09956157207489014, -0.28278034925460815, -0.6431721448898315, -0.21132583916187286, -0.46052372455596924, -0.557511568069458, -0.4196627736091614, 0.1409994512796402, -0.459255576133728, -0.3252948522567749, -0.4329553544521332, -0.203556627035141, -0.42724454402923584, -0.5675090551376343, -0.41175544261932373, -0.36313754320144653, -0.461126446723938, 0.2881021797657013, -0.21621593832969666], [-0.31760531663894653, 0.06958672404289246, -0.15938732028007507, -0.348533570766449, -0.3998081386089325, -0.193121999502182, -0.46003082394599915, -0.4352205991744995, 0.022466877475380898, -0.4611927270889282, -0.412601500749588, -0.22959667444229126, -0.3990689516067505, 0.012961417436599731, -0.26223012804985046, -0.20240551233291626, -0.6224955916404724, -0.2656235694885254, 0.32422345876693726, -0.3327986001968384], [-0.2841532826423645, 0.14261291921138763, 0.07460210472345352, -0.3391047418117523, -0.32229727506637573, -0.1555802822113037, -0.24651892483234406, -0.3798937499523163, -0.2127847671508789, -0.46408170461654663, -0.11229600012302399, -0.33318445086479187, -0.17547813057899475, -0.32607147097587585, -0.31248724460601807, -0.19956636428833008, -0.40629997849464417, -0.1330438256263733, 0.0788891538977623, -0.09714195132255554], [-0.26463234424591064, 0.15156355500221252, -0.4596428871154785, -0.4021625220775604, -0.41998448967933655, -0.266207754611969, -0.48031720519065857, -0.805661678314209, -0.16598492860794067, -0.17850539088249207, -0.29764148592948914, -0.3836919665336609, -0.5114704370498657, -0.4934680163860321, -0.4334883391857147, -0.2568941116333008, -0.6856604814529419, -0.15840232372283936, 0.3927116394042969, -0.39740443229675293], [0.7933703064918518, 0.013551793992519379, 1.2977159023284912, 0.7494629621505737, 0.7878365516662598, 0.8868073225021362, 0.7168381214141846, 0.5509049296379089, 0.07239215075969696, -0.09313732385635376, 0.5286056995391846, 0.8282960653305054, 0.6231478452682495, 1.1585233211517334, 0.5361672639846802, 2.0102264881134033, 0.8381641507148743, 0.5999776721000671, -0.8491153717041016, 0.9867412447929382], [-0.30382516980171204, 0.022033071145415306, -0.0863993763923645, -0.2728397250175476, -0.244077667593956, -0.084082692861557, -0.10720019042491913, -0.27656295895576477, -0.011333577334880829, -0.3153105080127716, -0.1762900948524475, -0.17710894346237183, -0.3215964436531067, -0.2746586799621582, -0.17001989483833313, -0.058952078223228455, -0.22829151153564453, -0.31274670362472534, 0.2548341453075409, -0.16368365287780762], [-0.48645856976509094, 0.08742696046829224, -0.2656812369823456, -0.2088964879512787, -0.5354316830635071, -0.43140503764152527, -0.5253272652626038, -0.29676446318626404, 0.16378703713417053, 0.1636507362127304, -0.325032114982605, -0.42453986406326294, -0.40309932827949524, -0.5031291246414185, -0.2528109848499298, -0.41710689663887024, -0.18341797590255737, -0.23841294646263123, 0.22876763343811035, -0.35062074661254883], [-0.16421820223331451, -0.017527006566524506, -0.6942404508590698, -0.6358792781829834, -0.6023736000061035, -0.49806052446365356, -0.5979943871498108, -0.4595220685005188, -0.026956912130117416, -0.44265854358673096, -0.3634175658226013, -0.29151982069015503, -0.3535159230232239, -0.40907514095306396, -0.6167015433311462, -0.3409044146537781, -0.5800405740737915, -0.31738045811653137, 0.3812672793865204, -0.38046401739120483], [-0.16153264045715332, 0.1135176345705986, -0.2636091113090515, -0.35913461446762085, -0.12317505478858948, -0.3409465551376343, -0.08588027954101562, -0.3745235800743103, 0.12399780750274658, -0.1669536530971527, -0.1108064353466034, -0.45599085092544556, -0.2334442436695099, -0.45653006434440613, -0.2539052963256836, -0.2806546092033386, -0.2950405478477478, -0.2397124469280243, 0.28273457288742065, -0.26552513241767883], [-0.28876325488090515, 0.08230341225862503, -0.4687575101852417, -0.45930033922195435, -0.5199199914932251, -0.37025824189186096, -0.4021541476249695, -0.45890048146247864, 0.13596299290657043, -0.21744996309280396, -0.6419559717178345, -0.5029647350311279, -0.4247676134109497, -0.40699049830436707, -0.4456196427345276, -0.33885812759399414, -0.4663388729095459, -0.3948856294155121, 0.49751392006874084, -0.5153935551643372], [-0.19859015941619873, -0.12460426986217499, -0.1356353908777237, -0.32898178696632385, -0.34220805764198303, -0.22003668546676636, -0.3618333339691162, -0.39919525384902954, -0.15822070837020874, -0.3207413852214813, -0.624725341796875, -0.10086005926132202, -0.37623468041419983, -0.39657169580459595, -0.3782539963722229, -0.19233830273151398, -0.13730116188526154, -0.36397719383239746, 0.312993586063385, -0.4224943220615387], [-0.09867830574512482, -0.13119840621948242, -0.24324916303157806, 0.01157049834728241, -0.11652960628271103, -0.050229400396347046, -0.07817026972770691, 0.038420140743255615, -0.6107064485549927, 0.2225671261548996, -0.033246394246816635, -0.2480824887752533, -0.3453593850135803, 0.046684496104717255, -0.13996067643165588, -0.5937912464141846, -0.14703668653964996, -0.18789277970790863, 0.1591055691242218, -0.057702094316482544], [0.10592910647392273, -0.20382662117481232, 0.033936843276023865, 0.07905839383602142, 0.27466732263565063, -0.0012186020612716675, 0.23069465160369873, 0.11081491410732269, 0.900011420249939, -0.03575918823480606, 0.1816694140434265, 0.12377448379993439, 0.22680379450321198, -0.47468289732933044, 0.05982637405395508, 0.6453306674957275, 0.24243320524692535, 0.10325127840042114, 0.05150764435529709, 0.3015935719013214], [0.0873405933380127, 0.21774373948574066, -0.14883127808570862, -0.24608734250068665, -0.1223786473274231, -0.2278919517993927, -0.08699487149715424, -0.05974587798118591, -1.0307204723358154, -0.012998387217521667, 0.14854490756988525, -0.17160546779632568, -0.17644160985946655, 0.049935370683670044, -0.04494940862059593, -0.1367952674627304, 0.0032235831022262573, -0.3018958568572998, 0.20874238014221191, -0.5242408514022827], [1.1024948358535767, 0.08086806535720825, 1.4471356868743896, 0.6603080630302429, 1.0258625745773315, 0.9186021089553833, 1.3089313507080078, 0.8992576599121094, 1.1305776834487915, 0.0618235319852829, 0.725515604019165, 1.0661680698394775, 0.994163453578949, 1.343414545059204, 0.7564148306846619, 1.9037586450576782, 1.0544936656951904, 0.9384673237800598, -1.0031468868255615, 1.012022614479065], [-0.06586641073226929, -0.08967431634664536, -0.3673170208930969, -0.1346607208251953, -0.3237267732620239, -0.21993646025657654, -0.15967470407485962, -0.4381353557109833, -0.12463575601577759, -0.571448564529419, -0.429556280374527, -0.43181174993515015, -0.2620708644390106, 0.039326027035713196, -0.0984666645526886, -0.3054494857788086, -0.5374144911766052, -0.4364268183708191, 0.4785119593143463, -0.42840179800987244], [-0.4958880543708801, -0.0959613025188446, -1.0248403549194336, -0.7435789108276367, -0.9326158761978149, -0.6955215930938721, -0.7661922574043274, -0.6147436499595642, -1.1165425777435303, -0.30219608545303345, -0.6124522089958191, -0.8463321924209595, -0.9547385573387146, -1.044491171836853, -0.5895988345146179, -1.6086804866790771, -0.7356381416320801, -0.65277099609375, 0.8382606506347656, -1.0372486114501953], [0.052218735218048096, -0.06612095981836319, -0.3065045475959778, -0.3704124987125397, -0.05190682411193848, -0.04099559783935547, -0.01082514226436615, -0.2091406285762787, -0.239955335855484, -0.3793197572231293, -0.1865491271018982, 0.12492255866527557, -0.37519991397857666, -0.13780786097049713, -0.22595131397247314, 0.04336867853999138, -0.06532147526741028, -0.11681081354618073, 0.16862274706363678, -0.14155639708042145], [-0.3125784695148468, 0.09043103456497192, -0.6489432454109192, -0.5527480840682983, -0.584898829460144, -0.5367139577865601, -0.5506283044815063, -0.5582263469696045, -0.08565448969602585, -0.10582716763019562, -0.6962703466415405, -0.5089539885520935, -0.4069189131259918, -0.699465274810791, -0.6802882552146912, -0.15160265564918518, -0.3981112241744995, -0.5865178108215332, 0.6096103191375732, -0.5862351059913635], [-0.24301761388778687, -0.15838806331157684, -0.20846232771873474, -0.25287532806396484, -0.12697859108448029, -0.4560372233390808, -0.1830211877822876, -0.3384365439414978, -0.0060731880366802216, -0.24247993528842926, -0.28510743379592896, -0.18866974115371704, -0.14845164120197296, -0.25852006673812866, -0.13242071866989136, -0.3699007034301758, -0.05685743689537048, -0.1533849537372589, 0.2873307168483734, -0.26974934339523315], [-0.3663684129714966, 0.10659980028867722, -0.29863184690475464, -0.3594387173652649, -0.2333703339099884, -0.21391260623931885, -0.37701666355133057, -0.2064523696899414, 0.22365039587020874, -0.18208131194114685, -0.24352392554283142, -0.21846053004264832, -0.1016705334186554, -0.004610002040863037, -0.16529139876365662, -0.3873339891433716, -0.23925244808197021, -0.25033921003341675, 0.39606088399887085, -0.2081112265586853], [-0.2709049880504608, 0.073911651968956, -0.23831909894943237, -0.09251749515533447, -0.3646852970123291, -0.36169159412384033, -0.31713441014289856, -0.36821258068084717, -0.10491122305393219, -0.41127005219459534, -0.3512297570705414, -0.24301651120185852, -0.3799079656600952, -0.2972237169742584, -0.21205013990402222, 0.03557100147008896, -0.35960668325424194, -0.25149163603782654, 0.23438367247581482, -0.1700885146856308], [-0.32574552297592163, -0.03225687891244888, -0.33496153354644775, -0.3267362713813782, -0.20617367327213287, -0.11261466145515442, -0.33186793327331543, 0.0020924732089042664, -0.00015089195221662521, -0.37555748224258423, 0.009175434708595276, -0.07732582092285156, -0.3119964003562927, -0.09958779811859131, -0.4055131673812866, -0.4419899582862854, -0.1416509449481964, -0.5601604580879211, 0.34126052260398865, -0.2837218642234802], [-0.21299602091312408, 0.0052720531821250916, -0.4117338955402374, -0.5798255205154419, -0.33059751987457275, -0.3580474853515625, -0.2319326400756836, -0.4522276222705841, 0.005379892885684967, -0.2656574547290802, -0.31078118085861206, -0.5518178939819336, -0.2585935592651367, -0.2151133120059967, -0.4547083079814911, -0.30706289410591125, -0.28840431571006775, -0.46251940727233887, 0.2653310000896454, -0.14860492944717407], [-0.4167807102203369, -0.20268744230270386, -0.2507551312446594, -0.1842898428440094, -0.3561892807483673, -0.013254478573799133, -0.30884265899658203, -0.37735214829444885, -0.022676680237054825, -0.2759610414505005, -0.21450833976268768, -0.3961767852306366, -0.23872750997543335, -0.2907077968120575, -0.2803385853767395, -0.22058141231536865, -0.13856932520866394, -0.07048939168453217, 0.31665661931037903, -0.22724318504333496], [-0.13059492409229279, 0.1640322357416153, -0.8231543302536011, -0.603672981262207, -0.6402047276496887, -0.8919711709022522, -0.5030441880226135, -0.43489208817481995, -1.3481673002243042, -0.2505236268043518, -0.3371970057487488, -0.2946341037750244, -0.4252792298793793, -0.7140792608261108, -0.5227570533752441, -2.171983480453491, -0.34001949429512024, -0.34597131609916687, 0.4851752519607544, -0.46198832988739014], [-0.4517446756362915, 0.050352416932582855, -0.2804797291755676, -0.29198989272117615, -0.15798917412757874, -0.14091159403324127, -0.02187800407409668, -0.40928032994270325, 0.06863018125295639, -0.31765836477279663, -0.44737547636032104, -0.33695194125175476, -0.18840305507183075, -0.15188726782798767, -0.22202512621879578, -0.002992987632751465, -0.47206470370292664, -0.4162372946739197, 0.3697757124900818, -0.21041655540466309], [-0.3254913091659546, -0.15599338710308075, -0.5389562249183655, -0.40535175800323486, -0.31243428587913513, -0.2729896306991577, -0.10957778990268707, 0.0723891630768776, -0.09577247500419617, -0.413657546043396, -0.43018779158592224, -0.2243880033493042, -0.21688568592071533, -0.2509669065475464, -0.09267550706863403, -0.5793713331222534, -0.1989012360572815, -0.24466413259506226, 0.1435563713312149, -0.272527277469635], [-0.20722796022891998, -0.03864063322544098, -0.23903441429138184, -0.24629461765289307, -0.35771381855010986, -0.20703062415122986, -0.1651788055896759, -0.37903645634651184, 0.09515806287527084, -0.09207095205783844, -0.25935810804367065, -0.16414041817188263, -0.24223166704177856, -0.14519324898719788, -0.31268948316574097, -0.149661585688591, -0.271877259016037, -0.1706557273864746, 0.3653746545314789, -0.19234967231750488], [0.31644579768180847, 0.08858378976583481, -0.48607686161994934, -0.093865305185318, -0.5095202922821045, 0.07024797797203064, -0.42876294255256653, -0.502694845199585, 0.17567208409309387, -0.30897098779678345, -0.3536887764930725, -0.3077329993247986, -0.3370923399925232, -0.6690864562988281, -0.19877874851226807, -1.2779951095581055, -0.22865523397922516, -0.2877470850944519, 0.33022189140319824, -0.3128352761268616], [0.07623779773712158, 0.09663163125514984, -0.3141542375087738, -0.36371493339538574, -0.30439478158950806, -0.1914473921060562, -0.42316243052482605, -0.22697429358959198, -0.4587419927120209, 0.041440144181251526, -0.42032483220100403, -0.43500909209251404, -0.4793611168861389, -0.35382452607154846, -0.41020891070365906, -0.8908312916755676, -0.45149606466293335, -0.25545865297317505, 0.29939496517181396, -0.6002801656723022], [-0.25396570563316345, -0.0030470285564661026, -0.04458726942539215, -0.4786655604839325, -0.2810351252555847, -0.19636183977127075, -0.06923320889472961, -0.29099199175834656, 1.1272506713867188, 0.2659076452255249, -0.5744454264640808, -0.32058653235435486, -0.3233644962310791, -0.4985886514186859, -0.543573260307312, 0.20186029374599457, -0.2897335886955261, -0.3330569863319397, 0.4247343838214874, -0.2145562469959259], [-0.2177809178829193, -0.07674197107553482, -0.052418410778045654, -0.1880437433719635, -0.28649961948394775, -0.2114604115486145, -0.043007366359233856, -0.22164113819599152, 0.21046149730682373, -0.1698543131351471, -0.6115727424621582, -0.21586960554122925, -0.2375156283378601, -0.4221828877925873, -0.2669629752635956, 0.24772341549396515, -0.4526654779911041, -0.36542558670043945, 0.2397688925266266, -0.349384069442749], [-0.1625659167766571, -0.20908232033252716, -0.39421623945236206, -0.4089263677597046, -0.5583391189575195, -0.14124470949172974, -0.25310593843460083, -0.08295677602291107, -0.006495047360658646, -0.3707006573677063, -0.4261409640312195, -0.24320176243782043, -0.30260175466537476, -0.3377034068107605, -0.20423689484596252, 0.008243463933467865, -0.2498706877231598, -0.28590017557144165, 0.20676232874393463, -0.2557961940765381], [-0.2106112688779831, 0.06043156236410141, -0.10297966003417969, -0.3253101110458374, -0.16737520694732666, -0.19088459014892578, -0.3997652232646942, -0.04603707790374756, -0.19325242936611176, -0.3370599150657654, -0.0029696524143218994, -0.1608162373304367, -0.3537330627441406, -0.2384529411792755, 0.04216481000185013, -0.18164832890033722, -0.3405105471611023, -0.04194812476634979, 0.25738853216171265, -0.11026889085769653], [-0.08759476244449615, -0.06577150523662567, -0.15466471016407013, -0.5437408685684204, -0.3172706365585327, -0.47657355666160583, -0.3277800977230072, -0.3035435080528259, 0.10988982021808624, -0.2851930558681488, -0.295518159866333, -0.39751967787742615, -0.13596999645233154, -0.4213752746582031, -0.38836538791656494, -0.31143397092819214, -0.3069743812084198, -0.15585467219352722, 0.32839125394821167, -0.021992087364196777], [-0.16177475452423096, -0.08207537978887558, -0.14542098343372345, -0.19135889410972595, -0.17024192214012146, 0.0400061309337616, -0.3862237334251404, -0.42448633909225464, -0.3563691973686218, -0.2977669835090637, -0.20774875581264496, 0.032896511256694794, -0.45017579197883606, -0.33515477180480957, -0.4335341453552246, -0.22270694375038147, -0.07982891798019409, -0.00014053285121917725, 0.22105781733989716, -0.36297357082366943], [-0.7550499439239502, 0.0720105767250061, -0.6356991529464722, -0.8832696676254272, -0.5256199240684509, -0.46645087003707886, -0.2681470811367035, -0.3460826873779297, 1.5904459953308105, 0.317005455493927, -0.972490131855011, -0.7703421115875244, -0.6829463243484497, -0.9569107890129089, -0.7429616451263428, -0.023366853594779968, -0.5503898859024048, -0.6306750774383545, 0.6332939267158508, -0.572965681552887], [-0.3237052857875824, 0.12963439524173737, -0.3272724747657776, -0.07133275270462036, -0.018729671835899353, -0.21613240242004395, -0.16628557443618774, -0.3551461100578308, 0.0019471347332000732, -0.21316957473754883, -0.3164117634296417, -0.4855683445930481, -0.5015822649002075, -0.5208508968353271, -0.17517587542533875, -0.4082191288471222, -0.2587817311286926, -0.3502201437950134, 0.5020939111709595, -0.20509740710258484], [0.0648883581161499, 0.0078851617872715, -0.4143119156360626, -0.3543267846107483, -0.2668302059173584, -0.03950691223144531, -0.3092026710510254, -0.599861741065979, -0.3533852696418762, -0.36369460821151733, -0.4582189917564392, -0.27023518085479736, -0.4047510623931885, -0.1869056075811386, -0.17240901291370392, -0.704758882522583, -0.07190842926502228, -0.29261836409568787, 0.23085428774356842, -0.4815171957015991], [-0.17962399125099182, 0.2136867642402649, -0.12979644536972046, -0.20932316780090332, -0.08979257941246033, -0.09747588634490967, 0.07031188905239105, -0.19567394256591797, 1.1647828817367554, 0.1365547478199005, -0.4933701157569885, -0.40669578313827515, 0.04342830926179886, -0.47421911358833313, -0.12396720051765442, 0.41498667001724243, -0.36553290486335754, -0.24084629118442535, 0.17423322796821594, -0.053922250866889954], [0.05456210672855377, 0.11153043061494827, -0.19958719611167908, -0.034166112542152405, 0.06266456842422485, -0.5064572095870972, -0.25419625639915466, -0.16215649247169495, -1.4332261085510254, -0.5435479879379272, -0.15486472845077515, -0.5802887082099915, -0.5427104234695435, -0.7970823049545288, -0.16224220395088196, -1.4291404485702515, -0.4727153778076172, -0.3856337070465088, 0.2750474214553833, -0.21212264895439148], [-0.37718886137008667, 0.1078903079032898, -0.2399757206439972, -0.554448127746582, -0.2788758873939514, -0.24927818775177002, -0.23056930303573608, -0.059190135449171066, -0.07923972606658936, -0.22079841792583466, -0.13655951619148254, -0.05688939988613129, -0.41241639852523804, -0.44702211022377014, 0.05012671649456024, -0.12234510481357574, -0.2811281085014343, -0.21335700154304504, 0.1357012391090393, -0.0026535391807556152], [1.2692030668258667, 0.12700417637825012, 1.2219347953796387, 1.0081294775009155, 1.3323266506195068, 1.1885628700256348, 1.143574595451355, 0.7251579165458679, 0.4900549054145813, 0.2096683531999588, 0.8291193246841431, 1.0563137531280518, 1.051086187362671, 1.2638790607452393, 1.1746599674224854, 1.6791876554489136, 0.9174274206161499, 0.779045820236206, -1.1210297346115112, 1.4072494506835938], [-0.09250858426094055, -0.12879449129104614, -0.3182920217514038, -0.2712405025959015, -0.37412112951278687, 0.04056797921657562, -0.27894169092178345, -0.29380226135253906, -0.14451190829277039, 0.03416310250759125, -0.17072494328022003, -0.48550671339035034, -0.3098377287387848, -0.4907577931880951, -0.505550742149353, -0.4433422386646271, -0.4508717656135559, -0.3411625027656555, 0.38125401735305786, -0.08562617003917694], [0.19102060794830322, -0.1993425041437149, -0.44959235191345215, -0.27323582768440247, -0.6302451491355896, -0.5962111353874207, -0.3622093200683594, -0.580944836139679, -0.9251389503479004, -0.02960958331823349, -0.4851076900959015, -0.41260403394699097, -0.40928328037261963, -0.2821662127971649, -0.5457545518875122, -1.7397847175598145, -0.26582178473472595, -0.30520540475845337, 0.3960491716861725, -0.6720489859580994], [-0.26725420355796814, -0.14492720365524292, -0.3379727005958557, -0.16142505407333374, -0.07865048944950104, -0.5353673696517944, -0.20579692721366882, -0.3576644957065582, 0.1549832671880722, -0.15953874588012695, -0.43316030502319336, -0.13205865025520325, -0.34718167781829834, -0.3182811439037323, -0.30015936493873596, -0.13287866115570068, -0.5549666881561279, -0.4472131133079529, 0.25804829597473145, -0.3341958820819855], [0.37763065099716187, 0.021690733730793, -0.5243426561355591, -0.24655771255493164, -0.5164176225662231, -0.2034323662519455, -0.7705312371253967, -0.34098920226097107, -1.150648593902588, -0.48275578022003174, -0.06958997249603271, -0.4755549430847168, -0.5658637285232544, -0.4537152647972107, -0.4171111285686493, -1.150001883506775, -0.1924944818019867, -0.22763992846012115, 0.5753762722015381, -0.6439797878265381], [0.9175769090652466, 0.06269572675228119, 1.0999566316604614, 0.7083858251571655, 0.8995188474655151, 0.9844281673431396, 1.0288841724395752, 0.566124677658081, 0.1347569227218628, -0.008979946374893188, 0.5892531871795654, 0.7701818346977234, 0.9249002933502197, 1.1456342935562134, 0.7894150018692017, 1.6154050827026367, 0.8044912815093994, 0.8558354377746582, -0.7300690412521362, 1.0511287450790405], [-0.3488011956214905, -0.0061039552092552185, -0.23432353138923645, -0.47243398427963257, -0.2993525266647339, -0.3161453902721405, -0.13465413451194763, -0.2423599660396576, -0.08007152378559113, -0.1526537537574768, -0.05126601457595825, -0.2693924307823181, -0.19925421476364136, -0.39446377754211426, -0.12081092596054077, -0.10399162769317627, -0.35894739627838135, -0.2981765568256378, 0.42674684524536133, -0.2789485454559326], [-0.3251243233680725, -0.06601305305957794, 0.4778952896595001, -0.03473652899265289, -0.14210838079452515, 0.28788283467292786, -0.2790517210960388, -0.31032174825668335, 0.1353939026594162, -0.4786708354949951, -0.15116962790489197, -0.36426812410354614, -0.15099427103996277, 0.29097527265548706, -0.3033026456832886, -0.47343742847442627, -0.4313488006591797, -0.43700578808784485, 0.3761632442474365, -0.3905644416809082], [-0.09642142057418823, -0.06578420102596283, -0.3111949563026428, -0.30250537395477295, -0.31224343180656433, -0.4165894687175751, -0.1855705976486206, -0.2914276421070099, -0.1751679629087448, -0.20218384265899658, -0.13986611366271973, -0.18778738379478455, -0.27774250507354736, -0.11745348572731018, -0.14214575290679932, 0.007358349859714508, -0.24215057492256165, -0.13514411449432373, 0.13089697062969208, -0.040368884801864624], [0.00502409040927887, 0.11102178692817688, -0.34387731552124023, -0.1497173011302948, -0.29693734645843506, 0.04287852346897125, -0.291675329208374, -0.30256518721580505, 0.13837136328220367, -0.552756130695343, -0.5337798595428467, -0.49807506799697876, -0.38787445425987244, -0.6780682802200317, -0.3882819414138794, -0.38264408707618713, -0.285614937543869, -0.07567952573299408, 0.30699247121810913, -0.2523810863494873], [-0.4085851311683655, 0.19804230332374573, -0.42901483178138733, -0.24699203670024872, -0.159361332654953, -0.35970747470855713, -0.055271297693252563, -0.23439982533454895, -0.07018129527568817, -0.5646779537200928, -0.1599867343902588, -0.3053706884384155, 0.09061404317617416, -0.17706017196178436, -0.2218388468027115, -0.4017561078071594, -0.5107523798942566, -0.6106201410293579, 0.26765871047973633, -0.3124876618385315], [1.011627197265625, -0.09046919643878937, 1.0774427652359009, 0.7778502702713013, 1.1356849670410156, 0.9763805866241455, 1.1611149311065674, 0.7627852559089661, 0.38838404417037964, 0.14529818296432495, 0.7674958109855652, 0.8023619651794434, 0.6816574931144714, 1.478314757347107, 0.9051668643951416, 1.8792190551757812, 0.8070878982543945, 0.6755671501159668, -0.8311537504196167, 1.1197872161865234], [-0.2388879656791687, -0.17047753930091858, -0.2822152376174927, -0.6306255459785461, -0.3800889253616333, -0.23858091235160828, -0.5171590447425842, -0.6143761873245239, -0.07371491938829422, -0.13885533809661865, -0.15362590551376343, -0.3118442893028259, -0.5339770317077637, -0.22472447156906128, -0.24257713556289673, -0.4286649823188782, -0.4394705891609192, -0.5187846422195435, 0.2560788691043854, 0.12386758625507355], [-0.13533970713615417, -0.2315157949924469, -0.23591405153274536, -0.21766459941864014, -0.4192314147949219, -0.18412724137306213, -0.33363109827041626, -0.17171809077262878, -0.012727528810501099, -0.1746542602777481, -0.11770591139793396, -0.36539602279663086, -0.29814597964286804, -0.08629775792360306, -0.24491429328918457, -0.09430676698684692, -0.3561606705188751, -0.4094593822956085, 0.2657034993171692, -0.34469106793403625], [-0.386949747800827, 0.10128751397132874, -0.15134628117084503, -0.4331215023994446, -0.20118674635887146, -0.07867896556854248, -0.14969858527183533, -0.23367193341255188, 0.15114228427410126, -0.3736719489097595, -0.36298108100891113, -0.4188792109489441, -0.23763945698738098, -0.0316067636013031, -0.4901452362537384, 0.1304112821817398, -0.5496388077735901, -0.4257082939147949, 0.06300367414951324, -0.433667927980423], [-0.1970737874507904, -0.16077333688735962, -0.3433600068092346, -0.3446913957595825, -0.34570252895355225, -0.43905264139175415, -0.08392514288425446, -0.2940990626811981, 0.11089640855789185, -0.13379241526126862, -0.30573737621307373, -0.250959187746048, -0.18008020520210266, -0.28976312279701233, -0.24290317296981812, -0.24075400829315186, -0.2343357503414154, -0.15161347389221191, 0.4012680649757385, -0.37539589405059814], [0.028247855603694916, -0.13321129977703094, -0.6039187908172607, -0.3145621120929718, -0.25305548310279846, -0.30457019805908203, -0.533983588218689, -0.08678978681564331, -0.9687020778656006, -0.12811772525310516, -0.47456538677215576, -0.4538280963897705, -0.3631928861141205, -0.5918127298355103, -0.4251154065132141, -1.4198124408721924, -0.49948790669441223, -0.385995090007782, 0.5370622873306274, -0.4345191419124603], [-0.3745492100715637, -0.22140201926231384, -0.333312451839447, -0.20276150107383728, -0.43867433071136475, -0.35303154587745667, -0.41082075238227844, -0.19975394010543823, 0.056612756103277206, -0.3566793203353882, -0.2080259919166565, -0.10860270261764526, -0.44812777638435364, -0.21169909834861755, -0.11312669515609741, -0.24742391705513, -0.1154184341430664, -0.1047690212726593, 0.20926234126091003, -0.30472058057785034], [-0.3388354182243347, -0.11620058119297028, -0.3426811695098877, -0.35573291778564453, -0.3760521709918976, -0.23984915018081665, -0.19689054787158966, -0.32745304703712463, 1.3753184080123901, 0.07703058421611786, -0.4017110764980316, -0.3535439372062683, -0.09636707603931427, -0.5565747618675232, -0.5032253265380859, 0.308135062456131, -0.2154209017753601, -0.39217162132263184, 0.4754909873008728, -0.43600326776504517], [-0.2176220715045929, -0.23930178582668304, -0.23512116074562073, -0.26340946555137634, -0.3526732325553894, -0.4013735055923462, -0.3706824481487274, -0.4287976324558258, 0.14025528728961945, -0.422201007604599, -0.38461074233055115, -0.25447213649749756, -0.4171304702758789, -0.006250113248825073, -0.3215661644935608, 0.0563434362411499, -0.16524216532707214, -0.3020307421684265, -0.006423324346542358, -0.11824607849121094], [-0.20524373650550842, 0.21678408980369568, -0.4034898281097412, -0.15137380361557007, -0.07801741361618042, -0.540204644203186, 0.2625194489955902, -0.3681677579879761, -0.14994022250175476, -0.5307281613349915, 0.22758689522743225, -0.16460275650024414, -0.33057472109794617, 0.42357563972473145, 0.23870451748371124, -0.09193533658981323, 0.2694668471813202, 0.17082113027572632, -0.1520494818687439, 0.42762547731399536], [-0.1604098528623581, 0.01859041303396225, -0.20172348618507385, -0.17618122696876526, -0.25355884432792664, -0.20208458602428436, -0.1266438215970993, -0.09694156050682068, -0.10632317513227463, 0.38239365816116333, -0.026932448148727417, -0.49401405453681946, -0.19795626401901245, -0.029958218336105347, -0.4289257526397705, -0.34437698125839233, -0.08420500159263611, -0.13383515179157257, 0.18162041902542114, -0.23869913816452026], [-0.07306113839149475, -0.05674511939287186, -0.32823437452316284, -0.4159497022628784, -0.13659770786762238, -0.3473559021949768, -0.28883856534957886, -0.17519967257976532, 0.06984085589647293, -0.28243961930274963, -0.19461911916732788, -0.11192367970943451, -0.381332129240036, -0.45777836441993713, -0.16952422261238098, 0.04712758585810661, -0.27519407868385315, -0.32965922355651855, 0.04558287560939789, -0.2122001051902771], [-0.2583058774471283, 0.04272942245006561, -0.16768091917037964, -0.25783151388168335, -0.2788732647895813, -0.217945396900177, -0.2305159717798233, -0.24822470545768738, 0.4236071705818176, -0.12920251488685608, -0.38524776697158813, -0.3447822034358978, -0.0868857204914093, -0.07713034749031067, -0.36051201820373535, -0.27933192253112793, -0.1199900209903717, -0.06364582479000092, 0.4454419016838074, -0.341741144657135], [-0.0007689036428928375, 0.01714150607585907, -0.47893935441970825, -0.38369083404541016, -0.3096575438976288, -0.5573604106903076, -0.2424992322921753, -0.3345608711242676, -1.1053122282028198, -0.32563316822052, -0.3877725601196289, -0.12970700860023499, -0.22297126054763794, -0.5693857669830322, -0.4392174482345581, -1.9166408777236938, -0.5673370361328125, -0.2946335971355438, 0.27796679735183716, -0.2202252447605133], [0.0994308665394783, 0.006856925785541534, -0.4833957552909851, -0.27512127161026, -0.6731199622154236, -0.4287436008453369, -0.5412675142288208, -0.4746827483177185, -0.8441203236579895, -0.24105234444141388, -0.700808048248291, -0.46408772468566895, -0.3106400966644287, -0.37047916650772095, -0.6391295790672302, -1.7142022848129272, -0.4184012711048126, -0.6092247366905212, 0.2642630934715271, -0.7492924928665161], [-0.2969309687614441, -0.027954623103141785, -0.5029688477516174, -0.3941130042076111, -0.080470010638237, -0.4458584785461426, -0.08712765574455261, -0.35717540979385376, 0.2205219715833664, -0.17036205530166626, -0.11849579215049744, -0.16625449061393738, -0.12609072029590607, -0.16788208484649658, -0.317892849445343, -0.31903961300849915, -0.09358180314302444, -0.17249558866024017, 0.42592599987983704, -0.31284090876579285], [-0.42710983753204346, -0.19715580344200134, -0.05751718580722809, -0.4399845004081726, -0.1331220269203186, -0.19753563404083252, -0.17180335521697998, -0.2104223668575287, 0.2626515030860901, -0.21809014678001404, -0.3686680793762207, -0.25155016779899597, -0.14130321145057678, -0.34895285964012146, -0.3744063377380371, 0.2901832163333893, -0.3714229464530945, -0.3245294392108917, 0.19323760271072388, -0.30613332986831665], [-0.10866448283195496, -0.022950898855924606, -0.45467671751976013, -0.4425230920314789, -0.4047403335571289, -0.4596068561077118, -0.272964209318161, -0.26522719860076904, -0.20197662711143494, -0.5417437553405762, -0.23161745071411133, -0.2955624461174011, -0.36949118971824646, -0.2631130814552307, -0.3601330518722534, -0.3888989984989166, -0.39700570702552795, -0.3125753700733185, 0.4740837812423706, -0.2974841892719269], [0.00012883543968200684, 0.13155177235603333, -0.4236202836036682, -0.16440200805664062, -0.12899690866470337, 0.14471472799777985, 0.006159618496894836, -0.1317690759897232, -0.5123748183250427, -0.4532293677330017, -0.22058311104774475, -0.2871581017971039, -0.08098125457763672, -0.35646072030067444, -0.12713009119033813, -0.7905553579330444, -0.1190308928489685, -0.1468198299407959, 0.43211060762405396, -0.16376560926437378], [-0.4448285400867462, -0.008423129096627235, -0.40866127610206604, -0.33409106731414795, -0.5474554896354675, -0.2748081386089325, -0.15844255685806274, -0.3920752704143524, -0.024042852222919464, -0.3691115379333496, -0.5260649919509888, -0.3468298614025116, -0.44810378551483154, -0.40610527992248535, -0.6846281290054321, -0.3801388442516327, -0.5747581720352173, -0.42230910062789917, 0.45549094676971436, -0.36791154742240906], [-0.4057520627975464, 0.08686782419681549, -0.06509895622730255, -0.2422766238451004, -0.3753926157951355, -0.36850160360336304, -0.4729822278022766, -0.1334191858768463, -0.010780386626720428, -0.17119020223617554, -0.4624800980091095, -0.4509114921092987, -0.1301400065422058, -0.16994577646255493, -0.2584410309791565, -0.1352265626192093, -0.37774860858917236, -0.15874028205871582, 0.03418111801147461, -0.39449071884155273], [-0.18644195795059204, -0.00525414664298296, 0.10052921622991562, -0.3421134352684021, -0.13640964031219482, -0.18967683613300323, 0.04315440356731415, -0.040489062666893005, 0.403370201587677, -0.2550400197505951, -0.2566133141517639, -0.06178226321935654, -0.20339444279670715, -0.21449525654315948, -0.07625588774681091, -0.0536249577999115, -0.08910024911165237, -0.12369440495967865, 0.22841161489486694, -0.014318682253360748], [-0.1522996425628662, 0.13846449553966522, -0.458532452583313, -0.2179284691810608, -0.11409321427345276, -0.3119722902774811, -0.1359236240386963, -0.19803181290626526, 0.22800007462501526, -0.35844552516937256, -0.19390401244163513, -0.5547738075256348, -0.1742745339870453, -0.4430370330810547, -0.36994844675064087, -0.12142384052276611, -0.422931432723999, -0.35386741161346436, 0.19948354363441467, -0.4240271747112274], [0.06147666275501251, -0.05406288802623749, -0.7212200164794922, -0.30762189626693726, -0.6769922971725464, -0.4717811644077301, -0.33475616574287415, -0.19128480553627014, -1.1903557777404785, -0.41215187311172485, -0.23773977160453796, -0.517991304397583, -0.3892360031604767, -0.40183204412460327, -0.2938331067562103, -1.3507823944091797, -0.39493611454963684, -0.5411767959594727, 0.2770196795463562, -0.446388304233551], [-0.48479995131492615, -0.1520720273256302, -0.2253601849079132, -0.20300361514091492, -0.33387815952301025, -0.21862545609474182, -0.07468351721763611, -0.292731910943985, 0.20244100689888, -0.01866019517183304, -0.33326613903045654, -0.20392516255378723, -0.29047536849975586, -0.2360021024942398, -0.34978407621383667, -0.4030677080154419, -0.17158019542694092, -0.2640504539012909, 0.17166443169116974, -0.06309577822685242], [-0.33464300632476807, -0.0011879056692123413, -0.25953444838523865, -0.5119184851646423, -0.19320517778396606, -0.2979632019996643, -0.3831197917461395, -0.392101526260376, -0.14667381346225739, -0.2670753598213196, -0.5081793069839478, -0.2811054587364197, -0.4986827075481415, -0.19312801957130432, -0.08874323964118958, -0.07440885901451111, -0.5454409718513489, -0.15512928366661072, 0.27713561058044434, -0.1675097644329071], [-0.27708691358566284, -0.11124548316001892, -0.005788370966911316, -0.21004268527030945, -0.0960330069065094, -0.4722098708152771, -0.1471254527568817, -0.33567702770233154, -0.19307690858840942, -0.2561764717102051, -0.4022509455680847, -0.4238191843032837, -0.2151101529598236, -0.1914762258529663, -0.24394658207893372, -0.19714078307151794, -0.06533588469028473, -0.2954826354980469, 0.37678590416908264, -0.15724614262580872], [0.04368772357702255, 0.09976369887590408, -0.26384422183036804, -0.31755736470222473, -0.5514417886734009, -0.3704102039337158, -0.18548551201820374, -0.3390466272830963, -0.30682364106178284, -0.5304566621780396, -0.0981164276599884, -0.08195933699607849, -0.3866066336631775, -0.10412976145744324, -0.21665015816688538, -0.3424922823905945, -0.1483105719089508, -0.5589364767074585, 0.1880573034286499, -0.5773362517356873], [-0.16173751652240753, -0.06424984335899353, -0.5023676156997681, -0.11840292811393738, -0.2959408164024353, -0.15337646007537842, -0.2498178780078888, -0.3733576536178589, -0.0027917115949094296, -0.24559509754180908, -0.061825692653656006, -0.3497565984725952, -0.4232563376426697, -0.3624993860721588, -0.17509722709655762, -0.3938688635826111, -0.12655410170555115, -0.3883761465549469, 0.13548260927200317, -0.1625554859638214], [-0.3586277365684509, 0.0418677031993866, -0.45729950070381165, -0.5659802556037903, -0.44352224469184875, -0.2895699739456177, -0.6186306476593018, -0.3450806736946106, 0.14586323499679565, -0.5378283858299255, -0.4696817994117737, -0.2625662684440613, -0.6417193412780762, -0.3852212429046631, -0.3278627395629883, -0.6683350801467896, -0.3825450539588928, -0.6524488925933838, 0.537152111530304, -0.6311611533164978], [-0.41018667817115784, 0.08885892480611801, -0.2695775032043457, -0.2573670744895935, -0.21568509936332703, -0.5095572471618652, -0.26627519726753235, -0.36202919483184814, 0.21501141786575317, -0.25763869285583496, -0.38776320219039917, -0.21556177735328674, -0.30411428213119507, -0.1603759527206421, -0.04554089903831482, -0.4098120927810669, -0.3680262565612793, -0.3255173861980438, 0.3954889178276062, -0.32641279697418213], [-0.3440009355545044, -0.14419744908809662, -0.2524305284023285, -0.05514839291572571, -0.38664010167121887, -0.28264734148979187, -0.45490318536758423, -0.21954898536205292, -0.01972781866788864, -0.3400399684906006, -0.09450474381446838, -0.06925156712532043, -0.47607335448265076, -0.304956316947937, -0.41132432222366333, -0.17367881536483765, -0.3428199887275696, -0.3890466094017029, 0.16376884281635284, -0.18364760279655457], [-0.17711475491523743, -0.1862824261188507, -0.3780783414840698, -0.47113949060440063, -0.13954490423202515, -0.4383125305175781, -0.2771535813808441, -0.051735684275627136, 0.0984204038977623, -0.36507391929626465, -0.5487953424453735, -0.21951058506965637, -0.43282896280288696, -0.4283382296562195, -0.26829153299331665, -0.2014695107936859, -0.08358201384544373, -0.2226763814687729, 0.49075189232826233, -0.15196487307548523], [-0.27056241035461426, -0.038458991795778275, -0.16236059367656708, -0.14563006162643433, -0.1259060800075531, -0.3294951319694519, -0.02681712806224823, -0.3522547483444214, 0.38823509216308594, -0.20591314136981964, -0.2805521488189697, -0.29349201917648315, -0.06453213095664978, -0.4485993981361389, -0.14659807085990906, 0.2646735906600952, 0.03849901258945465, -0.24569056928157806, 0.35693567991256714, -0.23534172773361206], [0.174333855509758, -0.032040901482105255, -0.7811039686203003, -0.13616827130317688, -0.32704290747642517, -0.6546589136123657, -0.7109978199005127, -0.5663235187530518, -1.4068584442138672, -0.17116597294807434, -0.3941926956176758, -0.6520922183990479, -0.4420265555381775, -0.422136127948761, -0.417133629322052, -1.7081550359725952, -0.2516191601753235, -0.4382137656211853, 0.3976421058177948, -0.6316849589347839], [-0.29166722297668457, 0.07975729554891586, -0.16237105429172516, 0.06361846625804901, -0.1283283531665802, -0.005339965224266052, -0.22030556201934814, -0.1031804084777832, -0.37363821268081665, -0.20026087760925293, -0.1529088318347931, -0.0511215478181839, -0.2978050708770752, -0.19650401175022125, -0.266842246055603, -0.4451220631599426, -0.022297244518995285, -0.22553834319114685, 0.16158723831176758, 0.052010439336299896], [-0.4151036739349365, 0.1627575159072876, -0.1950194239616394, -0.03997147083282471, -0.3234891891479492, -0.281133234500885, -0.37120094895362854, -0.6347367763519287, -0.005265139043331146, -0.04705752432346344, -0.6789922118186951, -0.19840624928474426, -0.30669888854026794, -0.23378194868564606, -0.052806854248046875, -0.1531994342803955, -0.39440101385116577, -0.2465907335281372, 0.34229978919029236, -0.0846940279006958], [-0.061923205852508545, -0.05743683874607086, -0.21960237622261047, -0.19839385151863098, -0.32401102781295776, -0.45659932494163513, -0.4512050449848175, -0.153368279337883, -0.0072468724101781845, -0.2428198605775833, -0.1150364875793457, -0.3453947901725769, -0.3191679120063782, -0.12674935162067413, -0.17840668559074402, 0.13986486196517944, -0.3165552020072937, -0.18507374823093414, 0.28485244512557983, -0.0601138174533844], [0.2701214551925659, 0.15069229900836945, -0.5147755146026611, -0.2952645719051361, -0.19981566071510315, -0.7228403687477112, -0.6575313210487366, -0.28478318452835083, -1.4950635433197021, -0.4309374690055847, -0.047907330095767975, -0.4623011350631714, -0.13783878087997437, -0.8472334146499634, -0.5611226558685303, -1.6069765090942383, -0.4707435667514801, -0.40995317697525024, 0.6276772618293762, -0.5013260245323181], [0.020622476935386658, 0.06038679555058479, -0.3078497648239136, -0.306296169757843, -0.5491836071014404, -0.3947297930717468, -0.4216533899307251, -0.5170342326164246, -0.2422940582036972, -0.12526428699493408, -0.6140543818473816, -0.3916007876396179, -0.4747909605503082, -0.46339520812034607, -0.6727066040039062, -0.11920130252838135, -0.08938062191009521, -0.5388790369033813, 0.1368473917245865, -0.17368122935295105], [0.002646327018737793, -0.08496364206075668, -0.17382511496543884, -0.28664663434028625, -0.5253079533576965, -0.32391372323036194, -0.40775635838508606, -0.10600627958774567, -0.05223239213228226, -0.3336670398712158, -0.3668925166130066, -0.3336843252182007, -0.3803207278251648, -0.5644840002059937, -0.4744357466697693, -0.11149466037750244, -0.24982509016990662, -0.3064085841178894, 0.38612744212150574, -0.06500199437141418], [1.2138681411743164, 0.12368689477443695, 1.537224531173706, 0.9981873035430908, 1.2626311779022217, 1.1660115718841553, 1.389548897743225, 0.8208256363868713, 0.5588959455490112, -0.20635280013084412, 0.7280178070068359, 1.0010687112808228, 0.8993868827819824, 1.3811639547348022, 1.0240678787231445, 1.621248722076416, 0.8189789056777954, 1.056156873703003, -1.128402829170227, 1.2611870765686035], [-0.2214008867740631, 0.04333269223570824, -0.23447585105895996, -0.5315888524055481, -0.32437434792518616, -0.5726311206817627, -0.3057791292667389, -0.0893515944480896, 0.18546989560127258, -0.3514189124107361, 0.07378065586090088, 0.021148189902305603, -0.11030527949333191, -0.44242075085639954, -0.3919086456298828, -0.447417676448822, -0.2358209490776062, -0.4373348355293274, 0.17614902555942535, -0.19369226694107056], [-0.41169387102127075, -0.014300361275672913, -0.5758949518203735, -0.3854852318763733, -0.45799651741981506, -0.5892021656036377, -0.5731121301651001, -0.37585097551345825, 1.1230412721633911, -0.027850650250911713, -0.5298821926116943, -0.8010348081588745, -0.4340027868747711, -1.00374174118042, -0.5550588369369507, 0.39887523651123047, -0.4153425097465515, -0.7540431022644043, 0.4783480167388916, -0.37788161635398865], [-0.28920313715934753, -0.08648364245891571, -0.6698102951049805, -0.26256200671195984, -0.36321568489074707, -0.6740432977676392, -0.5021699666976929, -0.5266150236129761, -0.08115178346633911, -0.22057485580444336, -0.23477984964847565, -0.42871758341789246, -0.6765929460525513, -0.10793003439903259, -0.6114744544029236, -0.4209256172180176, -0.6159193515777588, -0.5541539192199707, 0.06655049324035645, -0.2561028003692627], [-0.17660664021968842, 0.04311603307723999, -0.2423214465379715, -0.3074115216732025, -0.31465744972229004, -0.2843952476978302, -0.43828946352005005, -0.4049329459667206, -0.003638599067926407, -0.19832763075828552, -0.10352104902267456, -0.31608501076698303, -0.685731828212738, -0.3914841115474701, -0.05143481492996216, -0.07846631109714508, -0.3756106197834015, -0.2207598090171814, 0.27306103706359863, -0.3690425753593445], [-0.3380736708641052, -0.10564453899860382, -0.1542515754699707, -0.21444687247276306, -0.170169860124588, -0.0741545557975769, -0.1587267518043518, -0.38973110914230347, 0.13425704836845398, 0.27251338958740234, -0.15254312753677368, -0.31183725595474243, -0.09863002598285675, -0.16153833270072937, -0.12294000387191772, 0.24737566709518433, -0.3201555907726288, -0.3960926830768585, 0.3602258265018463, -0.4107382893562317], [-0.2477523535490036, -0.03897295892238617, -0.24385061860084534, -0.03901001811027527, -0.41074493527412415, -0.3884439468383789, -0.12943856418132782, -0.34824568033218384, -0.030886121094226837, -0.12912845611572266, -0.22039976716041565, -0.16112354397773743, -0.46557098627090454, -0.3339749574661255, -0.34722647070884705, 0.013737350702285767, -0.2950878441333771, -0.29067742824554443, 0.21908748149871826, -0.39466026425361633]], "model.0.bias": [-0.04853418469429016, -0.23257789015769958, -0.14444580674171448, -0.20346906781196594, -0.4017126262187958, -0.3140393793582916, -0.3425877094268799, -0.2625701427459717, -0.13138198852539062, -0.4240800440311432, -0.10572179406881332, -0.30606770515441895, -0.3130120635032654, -0.37581920623779297, 0.07460857182741165, 0.25669315457344055, -0.19429990649223328, -0.2906769812107086, -0.42977577447891235, 0.07500649988651276, 0.808324933052063, -0.3167959451675415, 0.0004226416349411011, -0.09602038562297821, -0.27401992678642273, 0.5936156511306763, -0.4766518473625183, -0.2664511203765869, -0.10563802719116211, -0.21769922971725464, 0.9055410623550415, -0.06046290695667267, -0.25490105152130127, -0.5197994709014893, -0.41631758213043213, -0.1565493941307068, -0.4377724826335907, -0.1069897934794426, 0.029668137431144714, -0.12462028861045837, 0.9944340586662292, -0.5299651622772217, -0.6532866954803467, -0.23159940540790558, -0.56980299949646, -0.3729785084724426, -0.28757616877555847, -0.0809938907623291, -0.24267369508743286, -0.19602659344673157, -0.1862216591835022, -0.7273886203765869, -0.22148525714874268, -0.1399167776107788, -0.4248389005661011, -0.1587567925453186, -0.23280614614486694, -0.347821980714798, -0.1732177436351776, -0.20221051573753357, -0.21688814461231232, -0.3833644986152649, -0.05341510474681854, -0.7139390110969543, -0.3380281329154968, -0.40179818868637085, -0.24788875877857208, -0.18248894810676575, -0.1811978816986084, 0.9076361656188965, -0.23188865184783936, -0.5079808235168457, 0.04270362854003906, -0.6281026601791382, 0.9363683462142944, -0.16902440786361694, -0.16745290160179138, -0.06011401116847992, -0.42139798402786255, -0.27576854825019836, 0.8246299624443054, -0.4960019886493683, -0.11452993750572205, -0.11789356172084808, -0.49217379093170166, -0.6140189170837402, -0.23532012104988098, -0.37420958280563354, -0.3081299066543579, 0.24406562745571136, -0.38085490465164185, -0.34934312105178833, -0.3715444803237915, -0.3404090404510498, -0.2549287676811218, -0.39038437604904175, -0.3560085892677307, -0.3401995301246643, -0.3546357750892639, -0.5375912189483643, -0.1200379729270935, -0.191848486661911, -0.3986566960811615, -0.3301422595977783, -0.2264052778482437, -0.19219273328781128, -0.15407168865203857, -0.49392572045326233, -0.48004162311553955, -0.3932409882545471, -0.13548541069030762, -0.1840449571609497, -0.3957878351211548, -0.3481596112251282, -0.27838414907455444, -0.3661709427833557, -0.25950467586517334, -0.34899958968162537, -0.2232292890548706, -0.3182138204574585, -0.3954390585422516, 1.037656307220459, -0.3586598038673401, -0.5046597123146057, -0.4092352092266083, -0.3568841516971588, -0.11205901205539703, -0.09399288892745972], "model.2.weight": [[0.2526465058326721, -0.08446291834115982, -0.22387078404426575, -0.20283964276313782, -0.34938934445381165, -0.04999150335788727, -0.19370271265506744, -0.16344168782234192, -0.1759699583053589, -0.05220327526330948, -0.0667613074183464, 0.3162637948989868, 0.26182782649993896, -0.18194134533405304, -0.09036485105752945, -0.10822853446006775, -0.12854589521884918, 0.312339186668396, -0.21522709727287292, 0.14364594221115112, -0.48347312211990356, 0.071963369846344, 0.013648060150444508, -0.2571808695793152, 0.41544878482818604, -0.2712327539920807, -0.37047380208969116, -0.1633782982826233, 0.06668691337108612, -0.1926407665014267, -0.2554100751876831, 0.3539898991584778, 0.17643684148788452, -0.23559865355491638, -0.27358919382095337, -0.3006865382194519, -0.1756339967250824, -0.034794144332408905, 0.05494430661201477, -0.2784319221973419, -0.05162688344717026, -0.05908225104212761, -0.18318232893943787, -0.01464783400297165, -0.23198597133159637, 0.01923510432243347, 0.1376880556344986, 0.2890211343765259, -0.317859411239624, -0.1559392809867859, 0.3352299928665161, -0.11608543246984482, 0.3707050085067749, -0.23647384345531464, 0.2644994258880615, -0.17069441080093384, -0.2710844576358795, 0.10912668704986572, 0.10852089524269104, 0.1100727915763855, 0.4286171495914459, -0.10421458631753922, -0.06516817957162857, 0.0015968158841133118, -0.19399040937423706, -0.06905701011419296, -0.10067439079284668, -0.01397841889411211, -0.34179380536079407, -0.2970171272754669, -0.048224709928035736, -0.11110585927963257, -0.14872696995735168, -0.01988288015127182, -0.29854896664619446, 0.2556779980659485, 0.27412959933280945, 0.1642473340034485, -0.2532179057598114, 0.5345094203948975, -0.35862016677856445, -0.13624194264411926, -0.03674215078353882, -0.3248799741268158, -0.12118197232484818, -0.22897590696811676, -0.1957164704799652, -0.015540818683803082, 0.18330487608909607, 0.2736569941043854, 0.34481948614120483, 0.0880059003829956, -0.3399975001811981, -0.011896587908267975, -0.15860390663146973, 0.2336725890636444, -0.24415190517902374, -0.16231751441955566, -0.31420964002609253, 0.04136493429541588, 0.22872275114059448, -0.022053688764572144, -0.19991415739059448, -0.018974699079990387, 0.12503457069396973, -0.2776761054992676, 0.16326144337654114, 0.006971515715122223, 0.2850915789604187, -0.28316134214401245, 0.3082258999347687, 0.18309441208839417, -0.2330136001110077, -6.495416164398193e-05, -0.1232144758105278, 0.15955519676208496, -0.08601605147123337, 0.3730580508708954, -0.025943197309970856, -0.09416266530752182, -0.2807391285896301, -0.16972559690475464, -0.22700947523117065, -0.0003586411476135254, -0.18769025802612305, -0.08109075576066971, -0.3326372504234314, 0.42159032821655273], [-0.10742172598838806, -0.3802403211593628, 0.2221306562423706, -0.045185089111328125, -0.2584635019302368, -0.3224969506263733, -0.3720315396785736, 0.10984960198402405, 0.002977035939693451, -0.45746806263923645, -0.024449434131383896, 0.05160156637430191, -0.030412036925554276, -0.19150832295417786, 0.16270267963409424, -0.6586950421333313, -0.39908984303474426, 0.2540544271469116, -0.7145957350730896, 0.1458694487810135, -0.629953145980835, -0.42022448778152466, 0.12216831743717194, -0.21500810980796814, -0.20284545421600342, -0.7900954484939575, -0.36424341797828674, -0.24779659509658813, -0.5072597861289978, -0.26832064986228943, -0.6491823792457581, -0.11632201075553894, -0.1277005970478058, -0.41621702909469604, -0.2003566175699234, -0.06285499781370163, -0.3402559757232666, 0.14455515146255493, -0.7715595960617065, -0.30751025676727295, -0.7063029408454895, -0.27421778440475464, 0.2753433585166931, -0.22283266484737396, -0.2675376534461975, -0.18514633178710938, -0.022758344188332558, -0.001511337235569954, -0.318936288356781, 0.20820766687393188, -0.1155490055680275, 0.2095988392829895, 0.11463181674480438, -0.3488577604293823, -0.09600663930177689, -0.3250388503074646, -0.09212566167116165, -0.670382022857666, -0.8057142496109009, 0.16751408576965332, -0.06588035821914673, -0.528744637966156, 0.306774377822876, -0.760094940662384, -0.3463967442512512, -0.31010210514068604, -0.60312819480896, -0.3923015594482422, -0.3103787302970886, 0.009219914674758911, -0.05894557386636734, -0.2842146158218384, -0.372546523809433, -0.3065226674079895, -0.6617714166641235, 0.0582386739552021, 0.37211623787879944, -0.05650830268859863, -0.22897955775260925, 0.3333492577075958, -0.6046302318572998, -0.4188259243965149, -0.4110032320022583, -0.010309100151062012, 0.17731061577796936, -0.28220415115356445, 0.09141582995653152, -0.15502256155014038, -0.08569450676441193, -0.28727713227272034, -0.22148104012012482, -0.044684138149023056, -0.11629102379083633, -0.2814273238182068, -0.27280521392822266, -0.0828443169593811, 0.20594707131385803, 0.3461318612098694, -0.21018092334270477, -0.28631994128227234, 0.0831713080406189, 0.03618474304676056, -0.14135193824768066, 0.2307434231042862, 0.09556014090776443, -0.2091435194015503, 0.11517751961946487, -0.16005969047546387, -0.017737293615937233, -0.2025356888771057, -0.08369822800159454, 0.005169901996850967, -0.10358265787363052, -0.15948446094989777, -0.18048426508903503, -0.059722334146499634, -0.32561710476875305, 0.05924534797668457, 0.21239566802978516, 0.35423099994659424, 0.1309875100851059, -0.7420470714569092, -0.20585831999778748, -0.6812595129013062, -0.33116498589515686, 0.3680040240287781, -0.03175044804811478, 0.03723389282822609], [0.12784743309020996, -0.2447449266910553, -0.18236762285232544, -0.2753361165523529, -0.08644257485866547, -0.23191353678703308, -0.11858160048723221, 0.1503063440322876, -0.17491301894187927, -0.2560104727745056, -0.2167627513408661, 0.20856380462646484, -0.11393970251083374, -0.33965638279914856, -0.4252334237098694, -1.365234136581421, -0.1551312804222107, 0.42615005373954773, -0.1224588006734848, -0.22683507204055786, -0.23401808738708496, -0.26709893345832825, -0.2972155809402466, -0.24371394515037537, 0.11798052489757538, -0.1338633894920349, -0.14380130171775818, -0.12174319475889206, -0.2533859312534332, -0.21376460790634155, -1.263745665550232, 0.16711194813251495, 0.03892252594232559, -0.22568748891353607, -0.18516987562179565, -0.014935695566236973, -0.42988839745521545, -0.4672240912914276, -1.6332793235778809, -0.41396358609199524, -0.2570963501930237, -0.33492228388786316, -0.3634653091430664, -0.28500622510910034, -0.1731477677822113, 0.249059796333313, 0.12729352712631226, -0.0020733391866087914, -0.13415443897247314, -0.29589205980300903, 0.09763669222593307, -0.278018057346344, 0.0572022870182991, -0.40008288621902466, 0.06779773533344269, -0.4244188070297241, -0.2386234551668167, -0.39322787523269653, -0.207193985581398, -0.0046045854687690735, -0.33143991231918335, -0.1272398829460144, -0.1322253942489624, -0.23433735966682434, -0.2465260922908783, -0.0322306863963604, 0.10881032049655914, -0.22126421332359314, -0.1458531618118286, -0.10925090312957764, -0.22550848126411438, -0.2902666926383972, -0.28327903151512146, -0.1399155855178833, -1.4326910972595215, 0.3322248160839081, 0.2917344868183136, 0.010241139680147171, -0.22548773884773254, 0.14221996068954468, -0.028536751866340637, -0.2520250976085663, -0.2520837187767029, 0.022334028035402298, -0.04326074570417404, -0.25117918848991394, 0.10511563718318939, 0.0013165520504117012, -0.05907054990530014, 0.3809649646282196, 0.1590200960636139, -0.15197321772575378, 0.011062419041991234, -0.28493645787239075, -0.3149379789829254, 0.240293949842453, 0.0382574126124382, -0.22948342561721802, -0.30525168776512146, -0.12870466709136963, -0.10979408770799637, 0.15239201486110687, 0.12864649295806885, -0.3696597218513489, 0.33554068207740784, -0.20516082644462585, 0.42604345083236694, -0.3255373537540436, 0.20178154110908508, -0.15861254930496216, 0.13805359601974487, -0.06656312942504883, -0.23522502183914185, -0.08437623083591461, -0.26741451025009155, -0.33593857288360596, -0.23099657893180847, 0.08312898129224777, -0.2834550440311432, -0.33506202697753906, -0.043828919529914856, -0.21758756041526794, -0.19658155739307404, -0.27291157841682434, -0.18832659721374512, -0.11187800019979477, -0.09953337907791138, -0.00901968777179718], [-0.08343833684921265, -0.45879030227661133, -0.1401742398738861, -0.12122694402933121, -0.2355976402759552, -0.3847554922103882, -0.42976614832878113, -0.03461287170648575, 0.01127217710018158, -0.29871606826782227, 0.036236558109521866, 0.017128407955169678, 0.020153842866420746, -0.45316946506500244, -0.13339394330978394, -0.6773052215576172, -0.27332380414009094, -0.35354483127593994, -0.6998541951179504, 0.02668815106153488, -0.8833171129226685, -0.3227471113204956, -0.29368916153907776, -0.39522311091423035, 0.21235600113868713, -0.5477002263069153, -0.10115904361009598, -0.294357031583786, -0.3688342869281769, -0.18862858414649963, -0.5518457293510437, 0.095344178378582, 0.022594250738620758, -0.35377874970436096, 0.1661929339170456, -0.020694728940725327, -0.35097411274909973, -0.04631585627794266, -0.8525988459587097, -0.3708451986312866, -0.9700432419776917, -0.2208591103553772, -0.37889790534973145, -0.3337850570678711, -0.26065266132354736, 0.10973502695560455, 0.06791457533836365, 0.19056296348571777, -0.3565543591976166, -0.1828673630952835, -0.21590006351470947, -0.2509114444255829, 0.05799093097448349, -0.35252925753593445, -0.08630505204200745, -0.2297695130109787, -0.35972127318382263, -0.7982969284057617, -0.7264670133590698, -0.20847317576408386, -0.05150590091943741, -0.37040671706199646, -0.2604397237300873, -0.8273136019706726, -0.36603981256484985, -0.1896873414516449, -0.7301943898200989, -0.17559953033924103, -0.39294764399528503, 0.06058008596301079, -0.03497827798128128, -0.2109437882900238, -0.5541044473648071, -0.15525010228157043, -0.6523067951202393, -0.07160480320453644, -0.11945617944002151, 0.00646471232175827, -0.38259148597717285, -0.2547573149204254, -0.8664641380310059, -0.139425590634346, -0.4543863832950592, 0.003628946840763092, 0.11066397279500961, -0.25156068801879883, 0.11697809398174286, 0.012340415269136429, 0.11918218433856964, -0.2674737572669983, -0.4813852310180664, -0.17548778653144836, 0.07912660390138626, -0.2615378201007843, -0.22639083862304688, -0.1330123394727707, -0.006437566131353378, -0.3489471673965454, -0.3616635501384735, -0.2971811294555664, -0.004104204475879669, -0.20807428658008575, -0.002875950187444687, -0.36223214864730835, -0.033728037029504776, -0.3751693069934845, -0.29775339365005493, -0.2560940980911255, 0.03194659948348999, -0.3400461673736572, -0.17841990292072296, -0.11556361615657806, -0.45392751693725586, -0.07432577013969421, -0.32425975799560547, -0.08904872834682465, -0.15914630889892578, 0.13829225301742554, -0.32102566957473755, -0.21563820540905, -0.4704444408416748, -0.7988762259483337, -0.19708600640296936, -0.7537279725074768, -0.3235136568546295, -0.3536519706249237, 0.09775121510028839, 0.08389449864625931], [0.20917624235153198, -0.05733681470155716, -0.22123485803604126, -0.2484079897403717, -0.05655122548341751, -0.020149320363998413, -5.093216896057129e-05, -0.26413869857788086, -0.0864090546965599, -0.2200397402048111, -0.1400865912437439, 0.35417497158050537, 0.16973456740379333, -0.37758660316467285, -0.19561755657196045, -0.18941783905029297, -0.20397114753723145, 0.17609356343746185, -0.197389155626297, -0.2261788696050644, -0.20285798609256744, -0.26268497109413147, -0.36191514134407043, -0.01307399570941925, -0.05057797580957413, 0.0215751975774765, -0.23148395121097565, -0.16324469447135925, -0.25789955258369446, -0.34328383207321167, -0.051633983850479126, -0.15289410948753357, -0.04696387052536011, -0.05729842931032181, -0.2151208221912384, -0.2683618664741516, -0.30562299489974976, -0.30558931827545166, -0.2104112058877945, -0.29007044434547424, -0.3434132933616638, -0.31081804633140564, -0.2740478813648224, -0.31983232498168945, -0.11027397960424423, 0.10115780681371689, 0.1791783571243286, 0.016202062368392944, -0.05357171967625618, -0.2730465233325958, 0.14700989425182343, -0.23390206694602966, 0.07969482988119125, -0.17714348435401917, -0.035976797342300415, -0.3457934260368347, -0.19909419119358063, -0.254101037979126, -0.27574998140335083, -0.12384776026010513, 0.13478624820709229, -0.2731916904449463, -0.4049009680747986, -0.16838441789150238, -0.18708568811416626, -0.24538442492485046, 0.011335242539644241, -0.19912655651569366, -0.22433044016361237, -0.19097569584846497, -0.2840689718723297, -0.38589486479759216, -0.26952967047691345, -0.1762995719909668, -0.26225972175598145, 0.447865754365921, 0.20927563309669495, 0.2960679829120636, -0.4060823619365692, 0.2782270312309265, 0.011685717850923538, -0.3359266519546509, -0.07285797595977783, -0.02439451590180397, -0.3052292764186859, -0.2994474172592163, -0.13103437423706055, -0.2778834402561188, 0.3192908763885498, 0.4400885999202728, 0.2757803797721863, 0.45750677585601807, -0.1296081244945526, -0.16200250387191772, -0.38526639342308044, 0.355136901140213, -0.157735213637352, -0.354388952255249, -0.22134464979171753, -0.4073399603366852, 0.12532854080200195, -0.31204187870025635, -0.4008619487285614, -0.12613821029663086, 0.20123548805713654, 0.014163941144943237, 0.1846955418586731, -0.21340033411979675, 0.3758936822414398, -0.310508131980896, 0.19026674330234528, 0.004502084106206894, -0.24453338980674744, 0.09443433582782745, -0.23823663592338562, -0.004321593791246414, -0.2899400293827057, 0.2390214204788208, -0.39338839054107666, -0.427519828081131, -0.3455190062522888, -0.09280342608690262, -0.24750825762748718, -0.12499355524778366, -0.19739164412021637, -0.09968294203281403, -0.0881967544555664, 0.20762163400650024], [0.04361823946237564, -0.24209783971309662, -0.41901910305023193, 0.19852077960968018, -0.3863452970981598, -0.46925628185272217, -0.3026345372200012, -0.061766959726810455, -0.10552705824375153, -1.4432833194732666, -0.1346045732498169, 0.014071047306060791, 0.10357837378978729, -0.20195512473583221, 0.0696905329823494, -0.052565477788448334, -0.3205829858779907, -0.39589038491249084, -0.013245031237602234, 0.20295335352420807, -0.11775707453489304, -0.7313768863677979, -0.08570338040590286, -0.7927601337432861, -0.0010860934853553772, -1.5945651531219482, -0.3305443227291107, 0.43704116344451904, -0.3339049518108368, -0.31263652443885803, -1.4347963333129883, -0.12167021632194519, 0.11448701471090317, -0.3007250428199768, 0.07724782824516296, 0.02726006880402565, 0.21026945114135742, 0.036665186285972595, -1.5563905239105225, -0.3767443895339966, -1.5746471881866455, -0.2176000028848648, -0.25646570324897766, -0.2981370687484741, -0.24550282955169678, -0.00035662809386849403, -0.07237543910741806, 0.12057451903820038, -0.35422199964523315, -0.06219302862882614, 0.06104341149330139, -1.2403998374938965, -0.06175217777490616, -0.3652389943599701, 0.00792120024561882, -1.1773446798324585, -1.4906165599822998, 0.024848291650414467, -0.1530933529138565, -0.041746463626623154, 0.11547625064849854, -0.3505758047103882, -0.15682724118232727, 0.012727271765470505, -0.3303662836551666, -0.8516921997070312, 0.1951342225074768, -0.17078858613967896, -0.4251548945903778, -0.12695321440696716, -0.49580761790275574, -1.3708919286727905, -0.24099907279014587, -0.3285213112831116, -0.0283818319439888, -0.17981839179992676, -0.43312186002731323, 0.13681620359420776, -0.3724094033241272, -0.39389580488204956, -0.05265284329652786, -0.4822438955307007, 0.5397071838378906, -0.19222943484783173, 0.17736852169036865, -1.2906955480575562, -0.08269721269607544, 0.03932369500398636, 0.13175572454929352, -0.4718112349510193, 0.4591525197029114, -0.029795708134770393, 0.19864249229431152, -1.2791978120803833, -0.3351868689060211, 0.030223695561289787, 0.057936493307352066, -0.36772292852401733, -0.3428141474723816, -0.3618510067462921, 0.07276897132396698, -0.14918416738510132, -0.11220505833625793, -0.6157839894294739, 0.009681865572929382, -0.21328899264335632, -0.10985781997442245, -0.04726936295628548, -0.15608133375644684, -0.17662066221237183, 0.02490083873271942, -0.001003022538498044, -0.3516525328159332, -0.15110419690608978, -1.3867969512939453, -0.03459138050675392, -0.2115553468465805, -0.12356583029031754, -1.4587421417236328, -0.22597220540046692, -0.40315568447113037, -0.17514097690582275, 0.19257299602031708, -0.05928148701786995, -0.2937098741531372, -0.1018199697136879, 0.07959476113319397, 0.044255200773477554], [0.22169208526611328, -0.11935266852378845, -0.21707789599895477, -0.48810505867004395, -0.24949824810028076, -0.1731438934803009, -0.305000364780426, -0.21682453155517578, -0.1647636890411377, -0.14310018718242645, -0.06719885021448135, 0.16988086700439453, 0.16005274653434753, -0.09698111563920975, 0.021332912147045135, 0.037457771599292755, -0.12778010964393616, 0.1403142511844635, -0.33492010831832886, 0.11757021397352219, -0.11512337625026703, -0.1490526646375656, -0.18919414281845093, -0.01351146399974823, 0.25430840253829956, -0.06588108837604523, -0.30943533778190613, -0.2262621372938156, -0.03269076347351074, -0.16874542832374573, 0.054992858320474625, 0.3798014223575592, 0.14183199405670166, -0.25674331188201904, -0.2210877537727356, -0.19138620793819427, -0.05544281750917435, -0.24052396416664124, -0.010484354570508003, -0.022740384563803673, -0.1995660662651062, -0.13584363460540771, 0.03194287791848183, -0.10949437320232391, -0.338435560464859, 0.21367153525352478, 0.4182325303554535, 0.13055682182312012, -0.12481008470058441, -0.1687261462211609, 0.36066246032714844, -0.08982661366462708, 0.2828170359134674, -0.15253564715385437, 0.16260644793510437, 0.026115871965885162, -0.1829659342765808, -0.044788047671318054, 0.11761069297790527, 0.22738079726696014, 0.19184347987174988, -0.4194045066833496, -0.1511281430721283, -0.3290255069732666, -0.1549663096666336, -0.22892320156097412, 0.05423959717154503, -0.038847118616104126, -0.04892849549651146, 0.041770488023757935, -0.19771228730678558, -0.2585914433002472, -0.2296191155910492, -0.15610621869564056, -0.08339903503656387, 0.22145143151283264, 0.2531853914260864, 0.20021146535873413, -0.19867560267448425, 0.27117758989334106, -0.10662619024515152, -0.17845553159713745, -0.248491108417511, -0.07594887912273407, -0.019117996096611023, -0.12410946935415268, -0.043955422937870026, -0.012194575741887093, 0.4774909019470215, 0.31557971239089966, 0.24756839871406555, 0.35797038674354553, -0.24688082933425903, -0.10133298486471176, -0.1965121626853943, 0.29959094524383545, -0.31816187500953674, -0.19023290276527405, -0.13067613542079926, -0.1369851976633072, 0.0412512868642807, 0.0004082322120666504, -0.2509037256240845, -0.1395197957754135, 0.28334054350852966, -0.2290244698524475, 0.3147464990615845, 0.10797619819641113, 0.15198759734630585, -0.26180222630500793, 0.12014348059892654, 0.25349289178848267, -0.2795383632183075, 0.10040479898452759, -0.17101356387138367, 0.10691054165363312, -0.1393345296382904, 0.1867246776819229, -0.009911559522151947, -0.07433198392391205, -0.4041597843170166, -0.18295253813266754, -0.4128422439098358, -0.06032062694430351, -0.14062729477882385, -0.2770116329193115, -0.45682692527770996, 0.43439769744873047], [0.2792440950870514, -0.33325642347335815, -0.16980482637882233, -0.2518763542175293, -0.4102523624897003, -0.19184502959251404, -0.1757955700159073, -0.36123815178871155, -0.12384329736232758, -0.20830616354942322, -0.2738504409790039, 0.2845248579978943, -0.06597896665334702, -0.39022397994995117, -0.14022573828697205, -0.2331484854221344, -0.37860143184661865, 0.2768721580505371, -0.2537020444869995, -0.14324332773685455, 0.019079511985182762, -0.11963723599910736, -0.2926642596721649, -0.25130128860473633, 0.14741146564483643, 0.06155833601951599, -0.20058971643447876, -0.12202621251344681, -0.43472668528556824, -0.09983986616134644, -0.09012215584516525, 0.0870509147644043, 0.08226601779460907, -0.07762577384710312, -0.21377752721309662, -0.21450313925743103, -0.2700711488723755, -0.015431694686412811, -0.10813183337450027, -0.28948166966438293, -0.13986609876155853, -0.17618659138679504, -0.2043975591659546, -0.40970557928085327, -0.215978741645813, 0.28681251406669617, 0.3316376209259033, 0.245892733335495, -0.2091619223356247, -0.29856744408607483, 0.07046417891979218, -0.0826331153512001, 0.17273244261741638, -0.23211562633514404, -0.0188664048910141, -0.10314688831567764, -0.15892745554447174, -0.2314566671848297, -0.02935800328850746, -0.12761156260967255, -0.02416948601603508, -0.3938194215297699, -0.3691195249557495, 0.07870865613222122, -0.2193080335855484, -0.29159095883369446, -0.13237380981445312, -0.12382656335830688, -0.17406326532363892, -0.12639003992080688, -0.2893596291542053, -0.37358447909355164, -0.33031991124153137, -0.07752121239900589, 0.12639856338500977, 0.18176808953285217, -0.3545244634151459, -0.11715172976255417, -0.013997312635183334, 0.18611282110214233, 0.14474566280841827, -0.43328970670700073, -0.052304863929748535, 0.16537532210350037, -0.18348325788974762, -0.11232214421033859, -0.26134824752807617, 0.26874420046806335, -0.08308816701173782, 0.4431273937225342, 0.3473033308982849, 0.050291262567043304, -0.057903267443180084, -0.17615631222724915, -0.20263642072677612, 0.3288189172744751, -0.2607482969760895, -0.2081798017024994, -0.34076637029647827, -0.3551936149597168, 0.10688682645559311, -0.04770255833864212, -0.22282195091247559, -0.13163462281227112, 0.2537494897842407, -0.18862786889076233, 0.3527581989765167, -0.1449468582868576, 0.3567708730697632, -0.19066579639911652, 0.24300572276115417, 0.12509064376354218, -0.16246721148490906, 0.036529362201690674, -0.22100254893302917, 0.030415046960115433, -0.3367684483528137, -0.17342929542064667, -0.10628008097410202, -0.23575946688652039, -0.14199408888816833, -0.2592759132385254, -0.28678324818611145, -0.3520776629447937, -0.46384546160697937, -0.39919373393058777, -0.2519479990005493, -0.03929300233721733], [0.09020134806632996, -0.4171349108219147, -0.28485190868377686, 0.2524474263191223, -0.46178045868873596, -0.3471895754337311, -0.2956344187259674, 0.16669613122940063, -0.17003566026687622, -0.32792896032333374, -0.196738600730896, 0.09585416316986084, -0.1377006620168686, -0.16144847869873047, -0.02666790783405304, 0.07926683872938156, -0.2207825928926468, -0.24477297067642212, -0.11685913801193237, 0.22547957301139832, -0.14584192633628845, -0.26235392689704895, -0.43226081132888794, -0.4274478554725647, 0.015358217060565948, -0.08199240267276764, -0.3782503306865692, -0.24687153100967407, -0.2113461196422577, -0.03382140398025513, -0.18369629979133606, -0.04718567058444023, 0.1282520890235901, -0.286214143037796, 0.16935995221138, 0.07269944250583649, -0.41835635900497437, 0.043096207082271576, -0.0501832477748394, -0.10274320095777512, -0.01617133803665638, -0.16132143139839172, -0.37542638182640076, -0.5252962112426758, -0.24228867888450623, -0.15681985020637512, 0.037754226475954056, 0.04909297451376915, -0.16940473020076752, -0.22906358540058136, -0.22204872965812683, -0.19103749096393585, -0.013393327593803406, -0.4922856092453003, 0.0410664826631546, -0.24213558435440063, -0.2637685239315033, 0.10772674530744553, -0.11166475713253021, -0.14704790711402893, -0.07064948230981827, -0.2606140375137329, -0.5244736671447754, 0.022111818194389343, -0.13443970680236816, -0.2273571938276291, 0.06008388102054596, -0.3809802830219269, -0.23274385929107666, -0.13376963138580322, -0.4449564218521118, -0.1428050845861435, -0.27429407835006714, -0.22923511266708374, -0.08145815134048462, 0.04830111190676689, -0.16550129652023315, -0.015566810965538025, -0.2418370544910431, -0.1974562704563141, 0.03044714219868183, -0.5537096858024597, -0.21879827976226807, -0.018787845969200134, 0.0020154938101768494, -0.26913976669311523, -0.17559044063091278, 0.17072850465774536, 0.0019364077597856522, -0.33675524592399597, -0.20589274168014526, 0.1163262352347374, 0.055367618799209595, -0.28825968503952026, -0.2714642882347107, 0.032835379242897034, 0.006448067724704742, -0.3252144455909729, -0.3671025037765503, -0.27492091059684753, 0.09796632826328278, 0.18764859437942505, 0.06179971992969513, -0.16016700863838196, 0.047302789986133575, -0.19388297200202942, -0.08800207078456879, -0.22024360299110413, -0.18401002883911133, -0.3669103980064392, 0.040254294872283936, -0.05294216424226761, -0.37890419363975525, -0.025659002363681793, -0.25602954626083374, 0.10221092402935028, -0.20737986266613007, 0.07894490659236908, -0.32238632440567017, -0.3293027877807617, -0.3332427442073822, -0.014591336250305176, -0.17113801836967468, 0.07820901274681091, -0.3386736214160919, -0.08060168474912643, -0.03410100191831589, 0.025784291326999664], [-0.2450382113456726, -0.24802911281585693, -0.3327309191226959, -0.04347939416766167, -0.36905136704444885, -0.2681874632835388, 0.11085402965545654, 0.08571290969848633, 0.034327756613492966, -0.4998125433921814, -0.10264930129051208, -0.05368318781256676, -0.19150876998901367, -0.32081338763237, -0.0017494279891252518, -0.7530921697616577, -0.29694607853889465, -0.1855936050415039, -0.8060494661331177, -0.03245450556278229, -0.6216912865638733, -0.33511054515838623, -0.2928723692893982, -0.402013897895813, 0.012549553997814655, -0.660475492477417, -0.50588458776474, -0.18924981355667114, -0.30966201424598694, -0.17246785759925842, -0.9631397724151611, 0.06785298138856888, -0.01073929388076067, -0.4234800636768341, -0.2333570122718811, -0.009190700948238373, -0.2570711374282837, 0.2174544334411621, -0.7930259108543396, -0.2496652752161026, -0.6615856885910034, -0.2362377941608429, 0.29693514108657837, -0.25867974758148193, -0.15275676548480988, 0.17282477021217346, -0.06246396526694298, 0.000336669385433197, -0.494608610868454, -0.4673069715499878, 0.0064162639901041985, -0.433872252702713, -0.1342262625694275, -0.4061417579650879, 0.04784155264496803, -0.23805981874465942, -0.15425458550453186, -0.6160982251167297, -0.7379512786865234, -0.07363355159759521, 0.012096390128135681, -0.2024967521429062, -0.20292533934116364, -0.5667257905006409, -0.32213133573532104, -0.284760445356369, -0.607437252998352, -0.4091787338256836, -0.36597776412963867, -0.09869956970214844, -0.36641815304756165, -0.27659985423088074, -0.38767966628074646, -0.32720816135406494, -0.5513530969619751, -0.03366794437170029, -0.4691118597984314, -0.06044032797217369, -0.15029901266098022, -0.22906583547592163, -0.7423514127731323, -0.3136087656021118, -0.4078007638454437, -0.001893065869808197, -0.016930408775806427, -0.3576432168483734, 0.03137430176138878, 0.02830417826771736, -0.08692551404237747, -0.39225512742996216, -0.0837298110127449, -0.06715583801269531, 0.03629860281944275, -0.33299514651298523, -0.32677721977233887, 0.046063922345638275, -0.11572742462158203, -0.4662635922431946, -0.39436662197113037, -0.23071157932281494, -0.01100359857082367, 0.172556072473526, 0.11039355397224426, -0.37518808245658875, 0.06623326241970062, -0.44419896602630615, 0.07363510131835938, -0.15798506140708923, 0.034633297473192215, -0.1495559811592102, -0.09325393289327621, -0.10481448471546173, -0.28613877296447754, -0.1697055697441101, -0.2685492932796478, -0.0019149519503116608, -0.3244084417819977, -0.04783626273274422, 0.25950172543525696, -0.37046778202056885, -0.21157518029212952, -0.8268303871154785, -0.47351881861686707, -0.7507306337356567, -0.28369101881980896, -0.32111334800720215, 0.07212629914283752, 0.0987502783536911], [0.31306689977645874, -0.2835111618041992, -0.2940557599067688, -0.1672818958759308, -0.033154718577861786, -0.08671575039625168, -0.23189805448055267, -0.08888271450996399, -0.34092283248901367, -0.05238623172044754, -0.24107028543949127, 0.03813057392835617, 0.043757859617471695, -0.44900915026664734, -0.24416440725326538, 0.02644345536828041, -0.34378504753112793, 0.304170697927475, -0.2531886100769043, -0.4458984434604645, -0.12354093790054321, -0.051093749701976776, -0.14996765553951263, -0.2658088803291321, 0.3594045639038086, -0.2724588215351105, -0.27912217378616333, -0.2811118960380554, -0.19610396027565002, -0.14635126292705536, -0.10464761406183243, 0.24583151936531067, -0.4000416398048401, -0.10768633335828781, -0.17917722463607788, -0.1395934522151947, -0.276201069355011, -0.2417502999305725, 0.05734749138355255, -0.15948882699012756, -0.4290564954280853, -0.10593771934509277, -0.3676493465900421, -0.27682778239250183, -0.21857020258903503, 0.28536877036094666, 0.20014546811580658, 0.21852487325668335, -0.13602524995803833, -0.42768871784210205, 0.41052982211112976, -0.09576789289712906, 0.2464064508676529, -0.08306687325239182, 0.2727225124835968, -0.30641716718673706, -0.34929394721984863, -0.3431238532066345, -0.1655304729938507, 0.29459667205810547, -0.3321477174758911, -0.03652362525463104, -0.18468064069747925, -0.2816932499408722, -0.17409199476242065, -0.12119733542203903, -0.18323348462581635, -0.19298055768013, -0.2693951427936554, -0.199598491191864, -0.34716227650642395, -0.32647523283958435, -0.23204663395881653, -0.09274780750274658, -0.002109924331307411, 0.25912991166114807, 0.4385944902896881, 0.26260632276535034, -0.3777465522289276, 0.039856187999248505, -0.22037114202976227, -0.28404754400253296, -0.2567780315876007, -0.19205793738365173, -0.19290682673454285, -0.30869045853614807, -0.4141080677509308, -0.20632845163345337, -0.1891811341047287, 0.4654049277305603, 0.29164525866508484, 0.2677658498287201, -0.04132837802171707, -0.45037442445755005, -0.1696806252002716, 0.13997510075569153, -0.16751039028167725, -0.40695399045944214, -0.13149337470531464, -0.24365217983722687, 0.21104200184345245, -0.3043797016143799, -0.35113513469696045, -0.17541874945163727, 0.27829986810684204, -0.4032391905784607, 0.33653348684310913, -0.37631452083587646, 0.3526410758495331, -0.324887216091156, 0.21745669841766357, 0.07570826262235641, -0.18624982237815857, -0.08340099453926086, -0.18480011820793152, -0.4182862937450409, -0.27712541818618774, 0.3031349778175354, -0.35942596197128296, -0.05387008935213089, -0.17615348100662231, -0.25585970282554626, -0.22553402185440063, -0.23303644359111786, -0.2744559943675995, -0.2940843105316162, -0.14064322412014008, 0.33725911378860474], [-0.20879018306732178, 0.42606407403945923, 0.1468501091003418, 0.23261135816574097, 0.20534741878509521, 0.1780378669500351, 0.14957588911056519, 0.26390865445137024, 0.3329933285713196, 0.005721963942050934, -0.15102970600128174, -0.31351399421691895, -0.30908554792404175, 0.2249550223350525, -0.20288598537445068, -0.43555182218551636, 0.306331992149353, -0.294294536113739, -0.08927417546510696, -0.13649243116378784, 0.009146896190941334, 0.06788823753595352, 0.11295785754919052, 0.029637016355991364, -0.3404247760772705, -0.42118650674819946, 0.31570395827293396, -0.040530551224946976, 0.2149791717529297, 0.15053261816501617, -0.17280960083007812, -0.25052231550216675, -0.3087003827095032, 0.3714432418346405, 0.385375052690506, 0.055577442049980164, 0.40663543343544006, -0.08491720259189606, -0.29918256402015686, 0.019408009946346283, -0.0511457622051239, 0.20963400602340698, 0.04150322824716568, 0.2900024354457855, 0.4574141502380371, -0.21062947809696198, -0.4252302348613739, -0.25322169065475464, 0.4859432578086853, 0.15589454770088196, -0.11307848244905472, 0.2500556707382202, -0.1473926305770874, 0.34121233224868774, -0.1160920187830925, -0.01348906010389328, -0.11256986856460571, -0.25507667660713196, -0.36598140001296997, -0.19565421342849731, -0.5317744016647339, 0.25437313318252563, 0.11970209330320358, -0.4319002330303192, 0.15994969010353088, 0.01098061352968216, -0.1592816710472107, -0.057131022214889526, 0.14426741003990173, -0.3121863007545471, 0.042223427444696426, 0.3381884694099426, 0.3297906517982483, -0.045080285519361496, -0.45384103059768677, -0.1435219943523407, 0.382619172334671, -0.3021620512008667, 0.13516731560230255, 0.43026548624038696, -0.16316479444503784, 0.3465178310871124, 0.44246983528137207, 0.16867704689502716, 0.13894814252853394, 0.03013503924012184, 0.1571941375732422, -0.4499448239803314, -0.18915197253227234, 0.4414924383163452, 0.3532716929912567, -0.21619102358818054, 0.19494760036468506, 0.13410460948944092, 0.056208763271570206, -0.3058595061302185, 0.2035481333732605, 0.304188072681427, -0.006830073893070221, 0.26205846667289734, -0.10523684322834015, -0.2346024215221405, 0.31941208243370056, 0.17674705386161804, -0.128448486328125, 0.20776960253715515, -0.3442924916744232, 0.3416898250579834, -0.1349741816520691, 0.24244575202465057, -0.17124459147453308, -0.28958696126937866, 0.3441369831562042, -0.2126673012971878, 0.22843140363693237, -0.3456745445728302, 0.17777159810066223, -0.22182723879814148, 0.14945465326309204, 0.08968524634838104, 0.1894996017217636, -0.31885963678359985, 0.4377705752849579, 0.05282863229513168, 0.31659895181655884, 0.095794677734375, 0.24742424488067627, -0.16781353950500488], [0.24223214387893677, -0.1758500039577484, -0.040740542113780975, -0.38066449761390686, -0.29781657457351685, -0.2116519808769226, -0.2739303410053253, -0.3517327308654785, -0.23103022575378418, -0.21095755696296692, -0.21394944190979004, 0.14717738330364227, 0.24730536341667175, -0.19782249629497528, -0.3163295388221741, -0.08889622241258621, -0.13847669959068298, 0.13658785820007324, -0.21850863099098206, -0.45754119753837585, -0.15268474817276, -0.358222633600235, -0.2101520597934723, -0.2895776927471161, 0.19730189442634583, -0.1764906644821167, -0.15559479594230652, -0.11006804555654526, -0.43199169635772705, -0.14570742845535278, -0.1659252643585205, 0.282516211271286, 0.06077645719051361, -0.2003992646932602, -0.3056233525276184, -0.08737056702375412, -0.2839090824127197, -0.27101942896842957, -0.03146451711654663, -0.19921478629112244, -0.17829927802085876, 0.008222285658121109, -0.3031427562236786, -0.21259769797325134, -0.24198302626609802, 0.26319411396980286, 0.202840194106102, 0.1911645233631134, -0.27507874369621277, -0.1504668891429901, 0.12431716918945312, -0.12122844159603119, 0.2523925006389618, -0.38993608951568604, 0.3019389510154724, -0.16704800724983215, -0.137635737657547, -0.1085665225982666, -0.13553285598754883, 0.2187969833612442, -0.20099091529846191, -0.2731933891773224, -0.25273847579956055, -0.35624080896377563, -0.3229067623615265, -0.15016236901283264, -0.22420436143875122, -0.285655677318573, -0.19308581948280334, -0.015123162418603897, -0.26224571466445923, -0.09160559624433517, -0.2893238067626953, -0.16403596103191376, -0.1844201385974884, 0.4599429666996002, 0.39343348145484924, 0.17314571142196655, -0.20354676246643066, 0.2995973527431488, -0.08605824410915375, -0.14336761832237244, -0.232794851064682, -0.2316858172416687, -0.24803483486175537, -0.10231918841600418, -0.26271212100982666, -0.21551035344600677, 0.3200412094593048, 0.19197499752044678, 0.2893478274345398, 0.21190021932125092, -0.1456839144229889, -0.1713896542787552, -0.11910678446292877, 0.28303205966949463, -0.2012949287891388, -0.2578938901424408, -0.2201814353466034, -0.42219939827919006, 0.20497922599315643, -0.06937666237354279, -0.2686412036418915, -0.16192512214183807, 0.3299785852432251, -0.26153603196144104, 0.2017059028148651, -0.24848130345344543, 0.07284793257713318, -0.06221042573451996, 0.21799033880233765, 0.14875054359436035, -0.22743980586528778, -0.039679430425167084, -0.2688896059989929, -0.12931391596794128, -0.29909101128578186, 0.23652949929237366, -0.20735515654087067, -0.31911155581474304, -0.3665255010128021, -0.27731361985206604, -0.3901798129081726, -0.34601035714149475, -0.06067444384098053, -0.20511940121650696, -0.27003559470176697, 0.2210661768913269], [-0.2184799611568451, -0.3675466775894165, -0.4707462787628174, -0.3498958647251129, -0.3479298949241638, -0.19830787181854248, -0.2068881243467331, -0.05873977392911911, 0.009356293827295303, -0.4231243133544922, -0.20008951425552368, 0.15783675014972687, 0.019732818007469177, -0.387031614780426, 0.039774760603904724, -0.23086091876029968, -0.3685305118560791, -0.09372720122337341, 0.04378196597099304, -0.0014330372214317322, 0.08178622275590897, -0.25207626819610596, -0.24661514163017273, -0.3047249913215637, 0.08324143290519714, -0.33794841170310974, -0.3551401197910309, -0.2986944317817688, -0.20932883024215698, -0.07790165394544601, -0.39047127962112427, 0.10063793510198593, 0.20774465799331665, -0.08077401667833328, -0.05671107769012451, 0.19147643446922302, -0.30000290274620056, 0.17567765712738037, -0.32244232296943665, -0.30669406056404114, -0.0036936551332473755, -0.20446394383907318, -0.48157835006713867, -0.1945069432258606, -0.20484355092048645, -0.22922199964523315, -0.33271944522857666, 0.20582890510559082, -0.4056648015975952, -0.29524242877960205, -0.231596440076828, -0.2808912396430969, -0.1275150328874588, -0.24338316917419434, -0.11896321922540665, -0.10802517831325531, -0.23022234439849854, 0.1319129467010498, -0.09601329267024994, 0.01302388310432434, -0.0326230488717556, -0.1928023397922516, -0.3490413427352905, -0.022408604621887207, -0.3062957227230072, -0.07460563629865646, -0.20085430145263672, -0.23143382370471954, -0.3097858726978302, -0.3681981861591339, -0.30135247111320496, -0.32478412985801697, -0.14878007769584656, -0.09363652020692825, -0.38379138708114624, 0.0648052990436554, 0.022953182458877563, 0.10179948806762695, -0.18534643948078156, -0.14364305138587952, -0.28866955637931824, -0.35807326436042786, -0.1804591417312622, -0.08660329133272171, 0.004985116422176361, -0.22071702778339386, -0.07269973307847977, -0.26779264211654663, -0.0808526799082756, 0.15790757536888123, 0.46409571170806885, 0.05561444163322449, -0.05816458910703659, -0.4081485867500305, -0.08193695545196533, -0.1726689338684082, -0.23043085634708405, -0.31697458028793335, -0.12692791223526, -0.30515846610069275, 0.05097631365060806, -0.18981575965881348, -0.1287120282649994, -0.33757567405700684, -0.11543776839971542, -0.35377630591392517, -0.37474963068962097, -0.14087113738059998, -0.22045105695724487, -0.4060991406440735, -0.44512492418289185, -0.20368972420692444, -0.30634942650794983, -0.41293102502822876, -0.26476794481277466, 0.008497782051563263, -0.16000258922576904, 0.004712115973234177, -0.19990061223506927, -0.38041892647743225, -0.18336492776870728, 0.22746992111206055, -0.17390798032283783, 0.006746374070644379, -0.3568917512893677, -0.2709548771381378, 0.017477013170719147, -0.2219020128250122], [0.018987931311130524, -0.5249292850494385, -0.14850524067878723, -0.19665463268756866, -0.28726592659950256, -0.12538695335388184, -0.3351539969444275, -0.0577419213950634, -0.09389673918485641, -0.3746873438358307, -0.037892356514930725, -0.29316431283950806, -0.002188524231314659, -0.27220410108566284, 0.025670066475868225, 0.21090483665466309, -0.32509997487068176, 0.25720301270484924, -0.018639668822288513, -0.005341041833162308, 0.015372760593891144, -0.30667272210121155, -0.16146442294120789, -0.3007831871509552, 0.17891210317611694, -0.4236636161804199, -0.33712923526763916, -0.2681485414505005, -0.14791519939899445, -0.23591731488704681, -0.2012806236743927, 0.1753343939781189, 0.0783846378326416, -0.3174600899219513, 0.047476641833782196, 0.06557407975196838, -0.24174323678016663, 0.03482982888817787, -0.14574003219604492, -0.12431477010250092, 0.11485133320093155, -0.13651341199874878, -0.3477264940738678, -0.2249791920185089, -0.23678085207939148, -0.17098644375801086, -0.24786409735679626, 0.12550562620162964, -0.19283336400985718, -0.1306537389755249, 0.037978846579790115, -0.16682185232639313, 0.08039717376232147, -0.1616106629371643, 0.018568459898233414, -0.3011462390422821, -0.38992738723754883, 0.03746943548321724, -0.09865202754735947, 0.13574188947677612, -0.010925132781267166, -0.21558469533920288, -0.43571221828460693, -0.01209300011396408, -0.3869532346725464, -0.25701266527175903, 0.1419789344072342, -0.2834857404232025, -0.3458898067474365, -0.2637411653995514, -0.06782563775777817, -0.20264804363250732, -0.25210005044937134, -0.1373126208782196, -0.2054772675037384, -0.3902946412563324, 0.3138728141784668, -0.0019893795251846313, -0.013923294842243195, 0.1624244749546051, 0.12407194823026657, -0.11508594453334808, -0.1251625418663025, 0.0940040647983551, 0.0045853424817323685, -0.21464882791042328, -0.14942798018455505, -0.09919916838407516, 0.24616429209709167, 0.4572793245315552, 0.14004868268966675, -0.02338322065770626, -0.23680174350738525, -0.2051037698984146, -0.20987507700920105, -0.17005136609077454, 0.05496697127819061, -0.17010051012039185, -0.1771428883075714, -0.4071609377861023, 0.003161427564918995, 0.06545683741569519, -0.20033757388591766, -0.5315865874290466, -0.26092880964279175, -0.3962322473526001, 0.08014509081840515, -0.3246251046657562, -0.26771631836891174, -0.2623012661933899, -0.23882558941841125, -0.015399366617202759, -0.1697012186050415, -0.2065124660730362, -0.3115941286087036, 0.038976576179265976, -0.18744900822639465, -0.11473716050386429, -0.33541637659072876, -0.22484090924263, -0.25647640228271484, -0.19362258911132812, -0.07877423614263535, 0.1103605106472969, -0.18299613893032074, -0.23572760820388794, -0.19434750080108643, 0.021294526755809784], [0.07536066323518753, -0.5427254438400269, -0.2517503499984741, 0.0010421201586723328, -0.2769854664802551, -0.369515597820282, -0.36439061164855957, -0.17803378403186798, -0.10083430260419846, -0.42439568042755127, -0.020815201103687286, 0.028057478368282318, 0.016806047409772873, -0.3614318370819092, 0.08173254132270813, -0.7359364032745361, -0.24806612730026245, -0.30345314741134644, -0.6471787691116333, -0.007668633013963699, -0.6868904829025269, -0.2886735796928406, -0.41858506202697754, -0.25983181595802307, -0.13413922488689423, -0.7343068718910217, -0.19052106142044067, -0.2576014995574951, -0.1809936910867691, -0.2905421853065491, -0.8355862498283386, -0.02395644597709179, -0.11735879629850388, -0.43230557441711426, -0.06890587508678436, 0.02295650914311409, -0.3858223259449005, -0.008374232798814774, -0.7044498920440674, -0.26728755235671997, -0.8712900876998901, -0.3194107711315155, -0.21812298893928528, -0.2892433702945709, -0.28462669253349304, 0.1088186651468277, -0.0640321597456932, 0.1347714513540268, -0.27973267436027527, -0.20287129282951355, 0.13139379024505615, -0.46720370650291443, 0.03034612163901329, -0.23403215408325195, 0.08941440284252167, 